encog,BasicNetwork,java,3.4.0,1,1667682692091
[BASIC]
[BASIC:PARAMS]
[BASIC:NETWORK]
beginTraining=0
connectionLimit=0
contextTargetOffset=0,0,0,0
contextTargetSize=0,0,0,0
endTraining=3
hasContext=f
inputCount=784
layerCounts=9,75,101,785
layerFeedCounts=9,75,100,784
layerContextCount=0,0,0,0
layerIndex=0,9,84,185
output=0,0,0,0,0,0,0,0,0,0,0,0,0,0,0,0,0,0,0,0,0,0,0,0,0,0,0,0,0,0,0,0,0,0,0,0,0,0,0,0,0,0,0,0,0,0,0,0,0,0,0,0,0,0,0,0,0,0,0,0,0,0,0,0,0,0,0,0,0,0,0,0,0,0,0,0,0,0,0,0,0,0,0,0,0,0,0,0,0,0,0,0,0,0,0,0,0,0,0,0,0,0,0,0,0,0,0,0,0,0,0,0,0,0,0,0,0,0,0,0,0,0,0,0,0,0,0,0,0,0,0,0,0,0,0,0,0,0,0,0,0,0,0,0,0,0,0,0,0,0,0,0,0,0,0,0,0,0,0,0,0,0,0,0,0,0,0,0,0,0,0,0,0,0,0,0,0,0,0,0,0,0,0,0,1,0,0,0,0,0,0,0,0,0,0,0,0,0,0,0,0,0,0,0,0,0,0,0,0,0,0,0,0,0,0,0,0,0,0,0,0,0,0,0,0,0,0,0,0,0,0,0,0,0,0,0,0,0,0,0,0,0,0,0,0,0,0,0,0,0,0,0,0,0,0,0,0,0,0,0,0,0,0,0,0,0,0,0,0,0,0,0,0,0,0,0,0,0,0,0,0,0,0,0,0,0,0,0,0,0,0,0,0,0,0,0,0,0,0,0,0,0,0,0,0,0,0,0,0,0,0,0,0,0,0,0,0,0,0,0,0,0,0,0,0,0,0,0,0,0,0,0,0,0,0,0,0,0,0,0,0,0,0,0,0,0,0,0,0,0,0,0,0,0,0,0,0,0,0,0,0,0,0,0,0,0,0,0,0,0,0,0,0,0,0,0,0,0,0,0,0,0,0,0,0,0,0,0,0,0,0,0,0,0,0,0,0,0,0,0,0,0,0,0,0,0,0,0,0,0,0,0,0,0,0,0,0,0,0,0,0,0,0,0,0,0,0,0,0,0,0,0,0,0,0,0,0,0,0,0,0,0,0,0,0,0,0,0,0,0,0,0,0,0,0,0,0,0,0,0,0,0,0,0,0,0,0,0,0,0,0,0,0,0,0,0,0,0,0,0,0,0,0,0,0,0,0,0,0,0,0,0,0,0,0,0,0,0,0,0,0,0,0,0,0,0,0,0,0,0,0,0,0,0,0,0,0,0,0,0,0,0,0,0,0,0,0,0,0,0,0,0,0,0,0,0,0,0,0,0,0,0,0,0,0,0,0,0,0,0,0,0,0,0,0,0,0,0,0,0,0,0,0,0,0,0,0,0,0,0,0,0,0,0,0,0,0,0,0,0,0,0,0,0,0,0,0,0,0,0,0,0,0,0,0,0,0,0,0,0,0,0,0,0,0,0,0,0,0,0,0,0,0,0,0,0,0,0,0,0,0,0,0,0,0,0,0,0,0,0,0,0,0,0,0,0,0,0,0,0,0,0,0,0,0,0,0,0,0,0,0,0,0,0,0,0,0,0,0,0,0,0,0,0,0,0,0,0,0,0,0,0,0,0,0,0,0,0,0,0,0,0,0,0,0,0,0,0,0,0,0,0,0,0,0,0,0,0,0,0,0,0,0,0,0,0,0,0,0,0,0,0,0,0,0,0,0,0,0,0,0,0,0,0,0,0,0,0,0,0,0,0,0,0,0,0,0,0,0,0,0,0,0,0,0,0,0,0,0,0,0,0,0,0,0,0,0,0,0,0,0,0,0,0,0,0,0,0,0,0,0,0,0,0,0,0,0,0,0,0,0,0,0,0,0,0,0,0,0,0,0,0,0,0,0,0,0,0,0,0,0,0,0,0,0,0,0,0,0,0,0,0,0,0,0,0,0,0,0,0,0,0,0,0,0,0,0,0,0,0,0,0,0,0,0,0,0,0,0,0,0,0,0,0,0,0,0,0,0,0,0,0,0,0,0,0,0,0,0,0,0,0,0,0,0,0,0,0,0,0,0,0,0,0,0,0,0,0,0,0,0,0,0,0,0,0,0,0,0,0,0,0,0,0,0,0,0,0,0,0,0,0,0,0,0,0,0,0,0,0,0,0,0,0,0,0,0,0,0,0,0,0,0,0,0,0,0,0,0,0,0,0,0,0,0,0,0,0,0,0,0,0,0,0,0,0,0,0,0,0,0,0,0,0,0,0,0,0,0,0,0,0,0,0,0,0,0,0,0,1
outputCount=9
weightIndex=0,675,8250,86750
weights=##0
##double#86750
   -0.0389114542,-0.0282023176,-0.1165139847,0.108796378,0.1694593888,0.1453898664,0.009435823,-0.4520095906,0.0549659877,0.0281086596,-0.1441422406,-0.1212223496,0.1167779186,0.0551791293,0.1072384617,0.0262405698,0.1061414496,-0.0821414175,0.0617343031,-0.0685219779,0.7872306917,0.1409770435,-0.0404456429,-0.0379366316,-0.1691522977,-0.1497473958,0.0865430395,0.6757994944,0.0527327818,0.0095674946,-0.002404606,-0.0357420494,0.0402501219,0.0750952316,-0.004062499,-0.0627707618,0.2116703418,-1.024067088,-0.0825640716,0.0243966194,-0.1024699813,-0.3427497787,-0.2507482254,-0.168450362,0.0716719138,-0.0715352517,0.1294135116,0.3015715419,0.018933903,-0.0728660367,-0.0988893447,0.0452905073,0.0498908595,0.0947467345,0.1157080488,0.2027215769,0.3381597006,-0.1348553427,0.1196228803,-0.2057342104,0.1561827856,0.2879346198,-0.424386056,-0.0968984308,0.0050390033,-0.0889681032,-0.1201780573,-0.0266910994,-0.2972637554,-0.0707231712,0.0781163064,0.1058136174,-0.0206633267,-0.0988534859,-0.1054920788,-0.2351927184,0.0335092179,-0.0610970815,0.0678305941,0.3437253366,-0.2040728448,0.0735467187,-0.1711289907,-0.1143678122,-0.1281834206,0.3467579498,-0.1132252007,0.0795052431,0.2885572171,-0.3535443287,-0.0346507608,-0.0834880057,-0.2040089456,-0.0957414215,0.0479504698,0.2220344623,0.4536306672,1.2109852836,0.0032758753,-0.1992494665,-0.4010632114,0.0983434976,0.5533837694,0.1016214873,-0.042752031,-0.0377804317,0.0041706595,0.6136893172,0.3237779631,0.0475703351,-0.1659869359,0.1635957676,0.3469347676,0.0123000006,-0.0508804272,0.0528533112,0.1011662816,-0.4847988276,0.0079119156,-0.0587111527,0.3241842585,-0.2973233228,-0.1163148777,0.03043951,-0.0063168764,0.275135753,-0.1382834837,0.0292104818,0.1503285684,-0.0361421281,-0.0624436616,-0.3210350363,-0.0094496824,-0.0377934192,0.3698992441,-0.0200280695,-0.4541937169,0.1235315788,-0.186493858,0.0134785337,-0.0443392655,-0.0002204223,0.0123434379,0.0859063533,-0.0105861737,-0.0638058609,-0.112825959,0.0574294741,0.3290839648,0.0115610703,-0.0375007203,-0.0474570801,-0.1079512311,0.0642303333,-0.051078252,-0.1147512307,-0.0328161929,-0.3490816405,-0.1089536049,0.0871609626,-0.4629297446,0.0129720921,0.0073726439,-0.0183054113,0.2586828086,-0.1615876406,-0.0011280659,0.0597825536,0.0732900405,-0.1226941621,0.3120706829,-0.018590391,-0.2668417601,0.2778209977,0.0278574868,0.1854415347,-0.2170393351,0.4023702651,-0.0174617642,-0.0934938228,0.117293761,-0.0419182702,-0.0963050583,0.002363006,0.0415892577,0.1982278285,-0.2646499891,-0.0409516746,-0.0877550697,0.1143483729,-0.0212303487,0.0767354544,0.192402409,0.7612275342,0.0177541677,0.3754814905,-0.1763244024,-0.1356158503,0.2060343174,-0.0481229034,0.1512241472,0.1276368686,-0.08142617,0.0747108984,-0.2189100044,0.054046151,-0.2823614976,0.7128932934,0.1447093775,0.0185834268,-0.054223876,-0.2725839144,0.2415677349,-0.2266316827,0.0141719864,0.096790895,0.0214125341,0.0522490648,-0.05276174,-0.0823714695,0.0542908005,-0.1910462576,-0.1243701616,0.0424647914,0.0986467817,0.00500392,0.0098636975,-0.0506189917,-0.0087384171,-0.2198909422,0.0076738803,0.0106955228,-0.1292185391,-0.0342924163,0.1421245966,0.5722279778,-0.1890646194,0.0719561218,3.0245356599,0.1797546041,-0.0282412696,0.2972040116,-0.0069545505,0.040611675,0.0863569699,-0.1721513526,-0.5623895793,0.0892227798,-0.1103967237,0.0165548664,0.2500155544,-0.0712615809,0.0754670682,-0.0317738695,0.0659529489,1.3967329841,0.1010719861,-0.5632413502,-0.8815505219,-0.033966112,-0.0576615696,0.2292863742,-0.3032456855,0.7146682725,-0.3163430799,-0.0165630771,0.1555127926,-0.0136328536,-0.0353697725,0.036858983,-0.0598656553,0.1253845913,0.161798184,-0.0950240259,0.0356048559,0.1078991997,-0.200258837,-0.023107822,0.0817498429,-0.0692079419,-0.1166629127,-0.0459912317,0.0321395724,-0.3347489893,0.2934803427,0.0639956861,-0.0230032626,-0.4522096445,0.0155834667,0.0482237967,0.4442234754,0.1299934682,0.0450071743,-0.1281585614,-0.0930557064,-0.0226403659,-0.0312946447,-0.1042359304,-0.2933994022,0.3235593971,-0.179147295,0.0606927871,-0.0530851017,-0.0080994079,-0.0393466818,0.002872827,-0.0516512713,0.1700554921,-0.2268649832,0.0241091012,0.3708053559,-0.0413324307,-0.0924380708,-0.0528857751,-0.0128238077,0.2472720653,-0.0782623255,-0.0318122804,0.1725961835,0.0988276787,0.0184650156,-0.2568503537,0.0863717714,-0.1034306899,-0.1723176061,0.5501847631,-0.168971489,-0.0269863572,0.6726772606,0.0260057674,-0.1326404665,-0.1055458722,-0.1702057751,-0.0862957356,0.0301099503,-0.5719131903,0.1612473648,-0.1406626657,-0.0446231423,-0.2506889123,0.0930409686,-0.0450615263,0.0284083929,-0.1289134652,0.0952252193,-0.199719154,0.0396409291,0.2871654368,-0.1158638177,0.0427483405,0.0223000104,-0.0975462363,0.0373560104,-0.0095520333,-0.0825717231,0.1160913785,0.023512909,-0.2236800413,0.2178731409,-0.0578269377,0.0132705169,-0.2046771085,-0.294507746,0.0781555196,0.0881082657,0.1243396617,-0.0743588344,-0.0512639452,-0.030883229,0.1452776556,-0.1696479856,-0.1149165221,0.0267940952,0.104992651,-0.1434540643,-0.1965648474,-0.0267593174,0.110777915,-0.0806231232,0.8828869254,-0.0427566316,-0.0651194955,-0.0769209545,-0.0001121441,-0.1287205786,0.0845164423,-0.0286899241,-0.156023259,-1.0172237255,0.2375803061,0.0777107046,-0.15963642,-0.7487068091,-0.025476309,0.0037508082,0.1519454282,-0.2573160691,-0.0888521959,-0.0279759277,-0.0096011428,0.257719975,-0.2670001548,0.3176164537,-0.0966248874,0.062082518,-0.1110266904,0.1465405639,-0.4762425236,-0.4033505818,0.0425994204,-0.3112436161,-0.2189165075,-0.147503624,0.0328328859,0.1705272441,0.1611429105,0.0062617413,0.1985377346,-0.0782581095,0.0930101445,0.0116332909,0.1193271161,0.1222383361,-0.0358898385,0.0319378508,-0.0130306021,0.1459784536,0.0031186342,0.0934703379,0.7804883974,-0.0652764091,-0.0718063342,0.0193563972,-0.0115600127,0.0363277181,0.0419615876,-0.1739003513,0.2716118673,0.0995053964,-0.1072500636,0.1433144318,-0.0285062725,-0.0335029762,0.0224177645,-0.0545092032,0.0624176339,0.2011775018,0.024998944,-0.0716567746,-0.121000845,-0.0686231814,-0.0404810747,-0.1541316379,-0.0483393145,0.1906550085,-0.1257734368,-0.0508103442,0.1587469239,-0.0685371681,0.0041757222,-0.0678667177,0.0836917713,0.1383002601,0.5990210443,0.1933136447,0.2630414296,-0.2015290565,-0.0535878128,0.0755935132,-0.0301342232,-0.4149201857,-0.0486312117,0.1750924738,-0.0232826926,0.0839951255,0.5529361098,0.0762673795,-0.1270518248,-0.2204450539,0.096236392,0.03375983,-0.0162801127,0.5577766055,0.3980618488,0.0697185841,0.3432502256,0.2766734419,-0.7177517239,0.0721419583,0.0779604156,-0.4163317601,0.1701434032,-0.0432519201,-0.0291095896,-0.0496466107,0.0354123831,-0.1618361147,0.2479284934,0.0502830996,0.0480788955,-0.1805165584,-0.04561415,0.0515213767,0.0712909849,-0.114688977,-0.0362621899,-0.1162926812,0.0237914374,0.1051211081,0.1397557474,-0.1278697101,-0.0562286506,-0.6368673193,-0.6885628425,-0.0600506452,-0.2718390039,0.0980366012,0.009902382,-0.1005455235,-0.0461528406,0.0348865372,0.0021703103,-0.0426941667,-0.0100174684,-0.3567325986,-0.1464337062,-0.0864132786,0.0630939889,-0.0694181618,0.0702967526,-0.1172218768,0.1349045887,0.1065612409,0.0083556848,-0.1593713032,0.6570924785,0.1782707953,-0.117572458,0.5113281783,0.1094959357,0.1004952309,-0.1692612058,0.2758468637,-0.2166656913,-0.0042627939,-0.7433158315,-0.170280519,0.0158326214,0.1360249935,0.0459771,0.7478249164,0.0195964368,0.3202985235,-0.2843734731,-0.051545614,-0.0869990475,-0.0729306987,0.3122971254,0.0781261387,-0.230029463,0.4810881852,0.3819655485,-0.256953282,0.1968061647,-0.2916883207,-0.1856272919,0.0071014998,0.1064837913,-0.1952428465,0.0812761612,-0.2319269779,-0.1053603067,-0.3112675843,0.0008674303,0.0004577378,0.1569677644,-0.1824147399,0.0162161772,-0.0197204322,-0.3038990606,-0.2766310234,-0.1277457348,0.1942298854,-0.0140412754,-0.8106879724,-0.1548184609,-0.042763283,-0.2085764271,0.1857372068,0.0271386289,-0.0633466431,-0.1666561599,0.0047905902,-0.0486168074,-0.0286267475,-0.0904024674,-0.0845075538,-0.0587142228,0.0924812703,-0.3735405854,0.0489003535,-0.0619751431,0.1292791113,0.0503198202,0.1834435058,-0.0944624429,-0.1003759254,0.1507635135,0.1037657207,-0.0361189951,-0.6371131894,-0.0080188482,-0.4998555751,0.3277786854,0.02676718,-0.1691772472,0.2913721957,-0.0198911795,-0.1663029198,-0.0614966261,0.6493966914,0.5876579572,-0.0152694351,-0.0357184903,-0.0592539391,-0.3261042244,0.1464613939,-0.1011001585,0.0438732119,0.0655782083,-0.2819027249,-0.1680314008,0.3761389869,0.3993580705,0.2254763357,-0.2926111625,0.1062428417,-0.2567532703,0.0207402787,0.1525102825,0.0222214693,-0.0570662307,0.0860700915,-0.1574342583,0.0828969999,-0.0611898106,-0.1522634954,0.112372486,0.1395040435,0.0022194554,0.0866418095,0.0347948105,-0.0799801346,0.0393897997,0.0506152524,-0.0102011321,-0.025226936,0.0299258654,0.0965429029,0.155972894,0.1182389601,-0.081302526,-0.30585542,0.2441555947,0.0389156463,-0.2677430397,0.1647486446,-0.0281865359,0.0140366324,0.0477769056,-0.0095191976,0.0310128083,0.599941678,0.1938018069,-0.3761570399,-1.3786279138,4.137451292,1.5253937666,232.6729064825,5.2766697087,27.3536580955,-0.4437174694,-0.9689739616,-118.7575255613,27.7410502837,0.5890687739,0.3199215484,0.5596239062,-0.2359041158,-1388.9978575415,-0.3187027593,4465.6200423756,0.4253803446,2191.6363142516,-2.8078525695,0.0309920438,-921.7110236573,1.5729691758,3.2180854549,17.4781248324,-409.0863080381,207.9562033835,229.1351822944,1.0929608309,1.1418247975,0.4557729755,-0.1227282488,1.0252955735,-0.0294677548,-5.6487427782,-1782.4662322636,-224.2885905861,-2.495749249,0.0035703723,72.2131000459,-1.3204358241,-1753.1366268283,-2.9734519012,632.4060198817,-0.5748114231,-443.6168626871,462.459343681,1821.2551625438,-0.1524596007,-1.8294786927,-5.5822587511,-0.0560855005,-2.4703754768,6607.6600509243,0.3017068664,1.156032441,-4.5223857405,-0.8502612789,9.2455444752,3.1500415429,-0.9884848708,67.8041680994,-1.8530424594,0.2474424941,0.65384871,-0.6995512787,244.2656358756,-1.3790171581,-1.8226190791,0.6009947211,0.9570569685,-2.402487078,1315.184667621,-0.6501170961,-5.6275159739,-567.2979220033,0.4381311751,0.3573267256,2.2425524257,1171.3689679404,-0.4451002388,498.7438404417,-0.6795156919,0.1802794708,-0.6699522149,217.4280597019,-84.4651224899,1556.9364027317,-0.3854030542,-5.0723966833,-2.3583340649,-0.5413636886,-20.8951400932,1.698292623,1.1981589628,-17.3316151345,1.1822692066,8.2181749924,-0.5557841655,1.3267913623,-0.9398572653,-15.2713003691,-370.8983755151,0.6499654026,47.2082530309,-1.0510980053,-6.9390315056,0.8340153715,0.0009178093,-4531.6615626238,2786.9407336748,1.1429110984,-0.9868340579,-0.6903422049,-0.9733036731,-0.4412524183,-1.5630930665,4279.8847283311,-4.9420587484,-1868.860837328,2.5776177845,-3.9955507124,1.1492454493,-4.7104905252,47.2154802199,-358.0381758292,100.1262901236,199.78444762,-814.8227569294,-4.8707287358,-4688.5031144119,0.6824745201,1.0122453142,-292.5641915254,0.1939925401,-0.9469698215,-3741.7771419376,-1391.7017483897,634.6672175131,-1.8545386327,-828.0679161758,-56.4298452655,3003.1223649813,0.7787386508,2815.4234412421,0.8598142431,-1736.401725054,70.3555782136,3493.6910307051,2.4732669505,0.6498349228,2.6723028635,-0.6884281382,5.2390547867,0.2591157394,0.7646261221,-0.623440215,-1.2683751826,0.1617807413,154.7605983915,-1.7099509258,-1.0127245029,1089.0733794809,4964.2867039832,-0.6057411299,0.8259727502,-6.206607461,34.5508587637,-0.7379815057,-1.0786858104,-0.4244423182,-18.34963615,1.2866909492,-6.1004246375,0.3459087932,-0.659857837,17.7269970113,-0.6661554449,-42.773978544,-2.5977139645,1831.2611833336,0.5014758581,-988.8487271485,0.4232773987,-1.7340800021,-0.9253273383,-0.0784149616,-696.2315252403,4718.4054977089,0.3781316691,-1.3585039117,29.187856841,-1.420814362,6870.8457331216,-2643.0396215057,-0.9382955636,-0.5395373618,-3642.7455638656,-18.7296361447,1.1512593618,33.3459262881,0.2759095158,-0.287311098,-30.2760906444,2.3285958496,-47.1229947857,-3.5692388396,1935.8931879584,-0.1998986062,-0.1763198844,-1709.01192215,-2605.7360047515,-4.6348332582,-1.6245516087,-8.9988347067,-0.237925591,0.8827696958,-8.8657634053,-7.3213982636,0.1801474928,-10586.9580683491,30.1108356472,-1.3167649188,-0.4506136499,-0.6381807743,-29.5798052549,-2.3519209663,-828.4778737584,-246.1824325784,1.4167418127,-8.1514814771,7.3465312598,24.030740127,0.2693714715,-0.9057638324,-0.3538392858,1012.0558441196,117.1932949138,-18.6720600899,28.6370915986,-0.9936103487,96.176463741,-1.7203571148,-1468.5581324928,2.4482818104,-0.0140725133,-0.7377654536,5113.730943514,689.6744910613,-705.1752380672,12.7573820984,-1.4209639634,-1447.148610947,-0.6580448676,10.4431870569,-2.7421677712,10.8621554974,0.9164945059,-3.6675632876,-0.4462633554,0.6107428258,0.196870177,2.1810588175,315.5490811374,1.0452726936,-0.0432546955,-0.7433689131,-11.0026990689,729.0121752698,-367.1299020566,65.4553021187,-0.9877641082,-87.9803007478,1160.3332782082,1378.5601928305,-3.8938241707,-0.1037706304,-1142.6687371432,0.096603311,-2463.9277949476,-509.7616215453,-0.9741109792,-0.2426010328,-0.6416007208,-0.5874021939,0.6694304647,-11.5210571084,74.7271500974,2452.7149630523,49.0031071587,-1.1390811414,2.0105923058,-1485.4755900256,16.0341485374,50.4469356048,0.8628740928,-0.5579788877,-0.3327438913,-18.83560353,-3.2608450068,-0.8689819452,9.6757956375,-0.1109192551,-13.0891992464,1289.4799693373,-0.7651526976,1455.9447732517,-0.1921082649,-1982.0971731863,-0.1681193526,-1.3447819614,-280.5074355207,-333.3251165341,-0.2634702463,0.8399930065,-0.1852529177,0.4200053987,-264.0920119937,2.1556546285,-268.8384208305,-0.4637267359,-1672.4569089904,-11.0451386628,-0.3514823253,0.7190759034,-0.5249113163,36.2690130002,1.7089101646,-58.1473032674,576.9159130503,29.6993360756,-2047.2483935783,-965.2665666209,0.3487442686,-0.9545365242,-4.7719506588,-0.7712010038,0.1369249104,28.4022331281,228.3253344927,-0.6920876772,-0.3641029772,-12.6313283753,6.7901721463,-3123.6992929263,18.6027957218,-59.7106201353,2.1661702254,-1137.8784774855,-104.7726794195,-1.572464229,-215.9651955063,-2.5067239923,2.6746767152,-0.248542671,-3.7415247296,-0.3786201805,7.6082661356,-49.8896967656,2.5059652161,0.2203083463,-154.7694768781,7.8806311074,0.6937353928,-12.9694594729,2486.9462288342,0.7422853123,-0.5505764584,-957.3053960239,1065.1231718601,0.3805189346,-4.8154103977,0.5465395867,5.4479558985,0.5304550222,3.6768183403,0.6056619195,385.9283012888,55.8451843932,-0.7572372336,376.3908787465,-203.8291380512,977.4054604398,-0.4912193759,1530.4673640569,-0.4030214991,-33.2040734785,1290.5102675248,-2028.9289951646,-3347.5667495084,22.23797381,0.6126520279,-3.1138728412,1.2120831522,-704.1412719193,1628.663799236,-2.2075658703,-0.7257532847,1787.2985140011,-22.2147118027,643.2088705942,-0.3569666833,28.6596545824,-1.0837255463,1.3950196853,-1288.2392915728,-0.2243045193,-0.127163332,-3298.8932689553,1657.0202545839,-68.0526145028,-0.5232595474,710.6511682005,10.0896238554,5.9803284518,0.5057385595,-1.1205566053,-0.0821231227,1070.3081542901,-27.4176930696,-5481.1827216485,-0.0512575081,-0.0584783227,-4.9196698806,1.269900204,4.6774588028,1.239023129,384.43978146,1.01181966,487.1247767655,-1485.2943080857,4.7650159708,-10.8230667209,-1306.8886908807,-0.6058807206,1.5624307477,6.7287462323,0.0584218558,3.8416812476,2076.3002145645,10.6905567338,-11.9700058195,-3.4923212587,0.9584822855,-2.3383589277,798.3555432672,1.3444421381,-6.2263019483,-1.2615877072,2920.1494672932,-414.6064832628,-4441.9995902221,-0.8176356104,-0.9499641988,354.7023773459,-0.7212263728,-1.5619753169,-3619.1781459107,-590.803792624,2.2440257804,68.3176317724,-4.685683275,-100.3313405774,-23.7943705031,-1.4380041044,-2640.4531206561,-3672.884895348,0.7431241883,-1.4836443014,-2.6397842412,0.1612727056,-0.5020188819,597.6107195905,-0.4858156788,-0.4161316018,-3.8084736414,11.5689656458,-0.669473056,2293.9417913115,74.593783641,0.2012120513,-1205.1790243345,-3557.2736336395,-1983.8814015567,-0.5875406992,-755.2962166292,-0.5077332806,-3.8237301776,-25.9651037522,2398.6907772062,26.7957952779,-1750.1690649927,-0.9157121204,-2.5642077753,-6007.2948941508,-285.1813842764,-1336.6089631519,2.3739571163,-0.9876508247,-0.5030958885,845.7494245043,-855.4520169695,-26.7319015277,1.8537280355,-0.9914351251,-5.7224953937,-0.4990133982,81.495938922,-4320.3602401356,-0.3282808191,-941.0777528095,0.6349927018,1.2075751212,-2987.871600666,-42.6421711281,45.1880280276,0.0861672638,0.1492011701,-0.9946588289,-1.0768036157,0.725296107,1791.9214229389,-23.7744185588,-2601.8097307338,-71.0163830006,0.1185121905,-0.9780573554,-1.386968117,2.134648334,0.4123755608,-629.6264238488,-167.5633254639,0.1180643103,-6.9848772239,1.5040627729,-1708.3930201564,-1.0455087739,5.9395540517,1.0283158758,-1.6274906981,-0.4439125985,-4.6662636685,7.8638969247,-0.1022387796,0.360048698,0.7869654221,-196.8496257204,0.5055291538,347.9222121858,-0.5074814462,-2421.9180720598,1195.2093998338,174.6762060327,0.2444668785,-11.4886152949,-0.1882828046,-0.7831142531,-1.4384222055,0.5169494223,0.2577698087,-0.4306063429,-18.9015105583,0.7525377851,-0.0234077001,-0.3297603913,-0.5718721019,3.4861806114,2023.6146780812,-0.1673711668,-0.5527125179,122.1934816872,-393.668427832,-0.8421273683,3.7496674856,-0.5540557055,-7.3893298076,-2.0521960563,-3.4268916923,0.8509001622,-148.9897171101,-1416.3453479538,0.0001843154,-0.588814305,-78.8998116124,464.5962081596,-1.074801207,0.4615032035,-0.3201386159,-0.4917405862,0.0445368284,2073.358407738,-44.1944221053,-1538.6108223993,-0.1144136118,8.8812503567,58.0365726451,1.3283257715,-257.3065159556,5.2410519113,0.7211375338,171.599242787,172.1256064228,0.8242342839,-0.3171809787,-5.2851389452,-1.1100046691,0.35111118,0.0082535058,-0.1807259965,1.0603372148,0.1862161166,-431.2332819945,-0.3967204051,0.6477351731,889.3985607926,0.8894641864,-0.0401956059,-0.8212000259,11.6496309116,1.6336433279,0.5240878847,-0.1917083839,-1069.2183388279,-0.4524705906,1.3359999697,-0.8008782024,-0.4517654015,-0.2087116468,0.2768136628,63.3284666805,-1.7109873878,-1153.4427446472,-7.5542245786,-1234.6918909363,-17.2105504376,222.4706404047,-33.8360352595,-0.4427001027,1176.9105331711,0.1114056318,-0.4936198251,147.4334454978,-240.5173955598,-4.7512663672,0.9187341296,-1019.0581632444,0.8940714574,0.0264078576,0.17330327,-1.6961733631,-1.4982041592,-14.5179617191,-152.1604187876,1.0954627269,-0.5891532921,-0.4641504507,8.5833058324,0.2946140254,8.789531941,0.3332449259,-1.3663001074,-1.0526938261,1.5485421144,-1.4777461935,-1.2423739047,1.5063849104,1.4226535669,-105.9601550247,0.4482615308,-0.4055121166,-0.7645624028,2.4076456417,-8.3476223653,1.0935481799,9.3679837457,0.408888479,-2.3425089927,-0.0968793676,-1.0522951856,-1.079691751,-0.9563117869,158.2772462395,-1.0446594774,0.4973268422,-4.5842567349,-2.3338528812,-0.7510010347,-2.9148317022,-0.8311686047,0.0812831738,-0.4777586836,-96.8199285341,-63.4097091112,-823.4650426505,0.3859120544,2.6489175854,23.1792268134,1.4134650699,-2385.9044296284,0.1176988608,-0.31669314,-20.7799454917,18.6948775106,-21.9503357439,0.3994887278,15.7192215622,-1.078194329,1.2432744521,-10.7187128506,1.6963331824,166.7940971911,0.1342326108,41.111743491,-23.8451754241,1249.9106162268,867.6609155136,1417.4866099727,-0.4920050211,-0.3862491599,1.2790761626,0.8989200661,0.3629629911,-0.2452105512,2527.7062710063,-0.5415022396,2399.2392170291,-0.2501831069,-1.177267045,1.8643786756,-1.8480583708,6.4569923212,-0.9913773538,-404.4014601091,1874.0288965357,-2351.7040114338,0.4409556713,-2107.5223073785,-1792.2715657379,0.7320710492,-0.4614523547,0.8033468335,-0.0991323122,-0.4506908176,1319.8554706872,976.5629085185,-1.1692147144,4.2072191323,0.0291884638,3423.3416559868,0.7260161381,1743.5108222401,-0.4060752456,1479.1229796742,787.6818134101,1776.5280701146,0.6273605552,-1.2093704424,3.193866591,-0.5350763315,-0.7351449748,7.2159900673,0.6344667293,-1.4150747779,-0.6563504394,-0.8951129999,1202.8705120744,0.6211314302,-0.0752809119,1041.1320435013,-2.8650001774,0.2065958137,-0.3184697441,466.7490394249,-2.8223690605,-1.1132469592,0.4963115512,0.1416421313,-0.518658289,0.4109435614,413.3070251843,0.2157992694,6.0636447322,19.0696470506,0.0528080529,406.663182496,-607.3710149134,2.1653362141,-0.3643735733,0.0294470175,-0.8334492248,-0.3666934877,182.7611657389,26.1514064033,5268.2704450449,-1.2292994398,0.3571754542,7.9442447475,-102.1283222042,786.6725129633,30.7747908423,-0.1147197002,-0.7690231656,0.1119952158,-4.7291157642,-2408.7548704864,0.7619088818,1.192195698,0.5237585249,0.7815108237,-1.7696276845,8622.049475373,-639.7845068452,-1.8582010848,-1838.3547140011,0.406954492,-1.3090194565,707.5342102611,22.3210234802,0.6920552007,-0.0263136085,1819.5399683469,0.3358666784,-6.8524342699,-0.8350250817,6483.8791330117,-0.4162978226,-0.2033403923,1.0802475183,-2.5994279809,-52.2734322425,0.5008162789,5.3441381089,0.6756247447,-46.8093367193,592.3576173064,4.2483577926,0.3971838301,390.6483289076,3.1459416472,-0.6854891399,574.3536933439,-1.3255744518,-0.0288795735,-713.1950968188,-392.5246667978,-4.7910328447,0.585365257,2581.4173440987,-0.3626386045,-34.4875723072,-0.7395510644,-0.9485966324,-1.8090788407,-1136.7339118691,-48.1411761876,2.5510036652,1.4455090742,0.3422949912,-1.3469713892,-0.8418624108,19.3840768561,134.1466933573,-2.8060551954,-1.6775258714,-2.6097154966,-0.2936969584,0.030600621,-0.041600681,-0.5700659427,-1573.1359194082,1.9874982852,-1.1394176669,0.932771086,1.5784086419,2191.5393628908,-0.8117045999,0.0804797998,0.388830511,10.2795388639,1.4548330545,-2.0609236552,-1.0817482146,0.6433046515,62.6051413299,-1.1581206069,-7.5143608831,-2.7289613158,95.2091154031,-0.6812498894,28.8485829142,-0.4494598947,0.5456508215,-1.0320123157,3301.324630814,-4.1113153166,0.7584258743,-0.0840715247,3.6820360401,6.2824449483,-0.9748127471,1.3118992109,-1.1069757405,0.4869993512,-21.5333211259,3529.5476369366,-0.3459922368,0.4829506015,0.6086713041,-0.1858416838,-0.2776802934,6.9352604329,1.5516174092,919.6329439493,4.2220099703,3419.1415817993,0.0760700736,0.0083052086,3035.476800853,3.6098008175,-841.6905019734,0.5992095625,0.2216857625,-0.1355712078,-0.6686710724,0.7382238428,45.9559710464,1.1805517086,-312.1177107793,-3.3386619951,0.9819488398,0.1830627231,0.3997325309,10.029184583,2.1498618438,-40.0551072204,104.7244001263,-748.7798636291,3.2814926252,1038.8221466311,-2.5276933241,0.0051074319,-175.0267223282,-0.7536012779,-0.8042178319,-2.504224201,0.8608300919,-21.8862520712,0.8367037807,528.3784694406,-0.3286511781,2347.1918032067,-0.0295922825,335.6333003916,-1.8074897487,1.6331103846,4.5247758925,0.6329208816,-0.1572058893,0.1469531918,-0.7740677532,-0.6049708726,-1.2983742096,-0.7393923592,1.4815878623,0.027635317,-24.7458864326,0.8837807723,-738.0029819984,0.2156542319,1.0253975685,622.2489340149,0.5593934704,-0.6976606719,-0.6609244799,-3.61931821,38.2112208176,6.8136545775,0.613937771,0.0591171941,0.4565539372,0.8238309516,-1923.3523988396,0.240845926,21.9800045053,9.582717575,-0.0484502888,-11.9487932187,3.3311519867,5.6543704836,-0.6519785732,1.4108336049,-2.1762242081,-0.3316154512,-32.0668587463,-3.6255090247,-33.6775101846,25.0698395985,0.7056936701,1.5013796771,1.1999574306,-0.350119324,5452.0147871861,-1.1023825839,-0.0340088557,3981.7120264703,264.9698369671,-6.1396143294,-2.3092991695,-2.9697901793,0.6255996989,-0.4691457315,1468.4014793684,-4.4462323918,-640.2703547931,1.5640342348,-521.6168283873,0.0254724488,-0.1367567027,1284.3175307982,-1.0178877607,-1.5465095445,0.4722063447,0.0441646541,0.5301301988,11540.5687968486,1.0426129532,-190.8261467599,-0.3046186865,0.2821763312,-0.5850444102,-0.4772593409,23.0698132121,-0.5329011563,458.9971816458,-0.8597685345,32.3872763068,77.073675116,22.351173112,-0.2418185447,2048.7601924186,0.5756777857,-0.1771783395,-0.3147535009,0.4118570553,0.9655502603,1.0878920025,-0.5203657035,0.9597421678,0.1722506165,0.2503203007,-0.3745234809,0.5554322442,-0.4386393437,22.4172119312,1.9669927768,-3.2745127129,4085.6143467749,120.5940234836,-0.8433086888,-0.2444395442,-1.0316433917,0.9295760968,0.1301515487,2.5730625716,0.846205667,1.3880499058,0.0769515494,0.0497175706,97.5308710179,0.5422000177,-0.5139335329,97.9323474668,1.988361129,0.2944339076,-0.4308679866,7.6556917302,0.3687703571,-0.0525440567,113.0310942616,-0.3197364567,-0.713130619,-1.9086138153,3.2578801985,0.697074498,-0.9688272086,682.0716252474,-0.8972556513,-0.3425418015,10.5505797028,-0.1576781155,0.4510536064,-0.6322928225,-0.4226450524,0.2748196476,-0.0379781631,0.5953405605,-0.1306798839,-3.6290562505,0.4783425205,0.583516196,-0.0500781803,1.0250633048,1.4278617867,-0.9067081059,-0.0857110052,-0.4892771275,8.9877850349,1.5302443963,-0.253748006,2.3488050206,-0.86321265,-0.7334452085,-6.3658475261,-1.4411482594,-2296.8237122045,-2.8454916181,2284.9737060844,-2.2344365774,0.2448746138,-272.2514366786,349.3651987433,9.3822636457,0.8194978009,-0.6081707045,0.678061314,0.0261995887,-0.335422617,73.1262050762,-0.2606247173,-293.5689171571,-1.1484588512,-0.0068962481,-1.191878475,3.0575408892,462.6800546945,-0.5137874692,-153.9159462346,452.4856468374,-15.2030912512,-1.5703231,-1006.8925058732,-46.3594306413,0.4083195982,0.8712719826,-0.8232596195,-0.7837215138,1034.616258702,2585.9352237223,0.2373596771,-0.6790107022,-43.1034496059,0.895436604,111.6569762635,0.109245687,14.8209172117,1.9427598491,2937.5464764681,-868.4956746974,0.7470281718,-1.9520111931,-0.3997408638,-4.6463075301,-0.2245660815,-8.5751837662,-0.8954032303,-0.6875146382,1.0150844123,3.6927533188,0.0562029764,54.8783805354,-0.6948159992,6.0697924971,-239.4684964474,-0.228558844,0.1838838631,4.537190533,8.3771487475,-21.4496877515,0.2037595594,0.2672364623,-0.2241362051,-2.6101748948,-1.0168642712,-0.1077586851,0.3006495604,2817.5980740905,8.1690058996,0.7685116927,-1.0383193252,-694.2463324333,650.3810154265,0.0097430766,-891.2183079148,-0.7530886078,-0.1590889528,3.0809940266,2.182759663,1.959054202,-1021.0307792253,-0.0511204163,13.5633563976,0.9548670696,850.1894741225,-4.8084986212,-4.0892489983,0.5557046269,122.2330287139,1492.3641411924,-20.869788435,-0.5404328312,246.7995812275,-0.1093191193,-1.2126770683,34.4039317177,-64.7313312148,-1.6325104953,2.4158350341,-50.4622413675,-0.8204000003,-0.8534275425,-287.797612354,0.1788474231,-0.110703139,-0.6416929698,1.0495058547,0.5713638076,0.9139842091,0.550907968,-940.9375583776,1.0092693703,-0.9841005822,3.5164652544,0.9725029681,-1.0846018771,-0.3332483357,-1.4138135378,0.9836826646,-1.0868863706,-3.6840752734,1.0899556499,4.7906729442,1979.3709885613,0.9615238187,0.1318643427,-0.1332500708,0.6746016991,0.6768003393,0.2917652526,0.1952335209,0.4853607702,112.1014859332,-447.5501985604,0.2502985607,-9.7732877771,-0.2769730988,11.1069076971,-1.5024637176,-0.1774265523,0.8013805054,-0.4774678334,-0.9760687186,-0.7415634675,2.251141906,1.0398527483,4.4478472924,0.7787172479,0.0375359164,0.2276541885,0.7814897834,0.7782985286,0.4260042642,-0.4507978301,884.0721899735,-569.2583663245,1.0513034229,0.6279682961,0.984312833,-4.3808449993,-6.7450276717,-5.8315219458,-0.1913881161,0.9111561719,0.1677624467,-0.6439144456,1.1476421969,0.8209364039,-0.6040470369,-0.4020397867,0.2006322408,2.2840925943,453.9620095871,2.2874029909,0.7140681998,4.6110051206,1.5525038622,-0.478615779,-0.0953421836,-0.8419646213,-4.2389448543,-19.3055806679,0.0935363858,1.4852610017,0.6938404602,-0.5355332032,7.6904811118,0.0243345414,-0.3276579592,0.7345890908,118.6340755397,3.8338353405,-0.8055477597,-2.8265904662,0.5927153962,0.8265485263,-18.1739785113,1.9931691427,-10.4243034596,0.5069794957,-8.7593197123,-1.0484478269,1.9254912762,-3395.5121509934,-22.2913841463,0.9049257718,0.1177627748,-0.0163078179,2.7867965077,-2.1249098943,1.3120604043,354.941607896,-1.0754108166,0.9841902958,0.0943592575,-0.9053938964,-0.0066062493,-1.1231889943,5.3019261466,-1.0892177364,-94.0773661593,-961.5619357447,0.2811589651,0.6361383407,1043.4203234177,211.9504042988,0.9129914438,-3.8184331343,0.3029361363,-1367.4292775661,-1868.7633952197,517.2569301633,-3.7055092477,-0.0141915275,-15.0896666462,0.0329439338,1.0875808361,-0.0820922303,-50.7446871424,-0.3267331076,-2040.9883565771,-67.193459193,-7.743651436,-16.6975407193,0.1093274647,0.5039121237,-0.3054733123,-11.7462453813,0.3193321459,5.0000978574,-43.0907828796,-133.4895539462,0.4054533845,1.2624362252,-0.4621113915
   -2.9257947831,635.9603070684,-500.4714019406,0.304545492,0.4753736635,-2.8650939092,0.050707494,-1.6986442289,7.1175122884,-1.0364700789,-0.1039239015,-1.0968582306,72.2427529223,-0.933777426,-471.8978525047,-503.6428490854,-0.0388872697,-2897.9564414835,-970.0441442461,-434.7013312597,-1.2341703749,1.3470074106,-0.7850859496,0.67586951,-1.5404515234,9.9593150578,1224.2764734336,0.6443485182,-1.2053853371,2.8738970469,-1.2186603405,-1.1403395314,1.1100136237,42.3016787685,0.3414953576,2.9752041947,130.0854652704,6.323985826,0.2566712323,-0.824385109,-0.1989007567,2.4486426497,-56.6728470826,0.2285198747,7.0941565232,0.0506429077,3322.4755189788,-2.0896928576,-0.9735787377,-965.7651216644,17.4142505353,5.178621294,-0.5912593714,3.7297095225,0.596051032,-0.9765281465,0.6592632538,-1041.4759280848,1.154569624,2.7582647691,0.356133869,9.2434153728,0.028822854,-2.4201574394,4.8734034067,2313.0917555933,10.6344659784,-2859.7564494647,0.5494589235,3462.2654116271,639.6741747779,4496.3654975187,-0.1470060082,0.7256119488,-0.5425152887,1.9683481187,1714.3051145838,796.488039597,-15.40740174,-2.3467887604,37.4361838165,0.5411009283,2.400879919,-0.1191267928,-739.989872232,769.7931993694,3474.5342489114,-780.8961397027,-7405.9314073244,-0.2964706758,-0.5880112421,-0.3437513492,-0.7575596757,3.4502558463,-0.1688954464,1.0362841132,-0.4752456435,-43.9321267199,-0.8516786442,0.0623608702,2.9931014911,14.7840849405,-1364.901395512,-3156.4986517646,-0.1315572681,34.2222044288,799.6370052963,-385.4653351376,2109.6589932315,-66.2915701244,-0.416529823,4.7900876877,-0.4521195275,37.5995568368,-0.0393423451,1.5243607679,-466.5892072712,-0.6565297838,-3056.7310204535,3.8127359256,35.4544136363,-1.7074055411,-1835.887045554,0.7462912207,0.2695909018,-0.7678144623,811.7614226416,160.5504106679,2.4344851531,-0.1975538977,20.5429761587,45.7703100644,-6.9641562024,369.0163983504,12.5653955232,0.6403054751,7.6231808708,-2.9380488004,20.3410401557,-0.2877866201,-1.8072346151,0.4818776838,-6.3582299199,-2519.2408874733,-32.5066705194,-2967.7604617989,-1.3214044099,1925.2128593172,-0.5619445856,-1.2389078015,738.3988115275,2186.9386830097,0.2373138418,-0.7298799683,-2979.9058849351,194.5910996049,4459.4274410123,-1.6691681861,-6953.5296722072,-1.1021487965,-3732.1528186128,-1165.79902808,-0.5505407631,-0.5077542429,-0.3611811818,-598.1241982246,-0.031448771,778.1003171314,595.3031052724,-2.552571373,-5.3688856791,2196.1106500528,22.9899566101,0.4364881346,-7966.634387197,0.1940283964,-30.9909540635,6992.5913073281,6387.0667650656,4.8566299745,-2.9448490592,0.3704154269,1.4404107721,1412.0679848638,-0.1812982795,-216.9412343512,0.185835328,3744.0062912116,6271.658357999,0.4526022784,-0.8455724383,1.6855578275,37.6042737744,0.0849896156,1.3514013012,0.4098999716,-5.7476311187,-3345.5147487717,-5691.5586090441,-0.7883081226,-1427.6569644568,0.3740738288,29.0320456892,7176.8256293248,3619.6773308406,-0.9588245027,-0.6005163942,-23.3965953269,-230.0818386319,73.9051622492,-66.5660503802,0.8146403435,0.4413489368,-0.4885682212,-22.5518197439,-0.2489290004,21.419639431,-1972.7437402694,0.1118761446,888.8866397024,2931.8866155078,-1076.4718140638,0.75107215,-413.4011864863,-0.1941481398,-0.9368544955,-7261.6385109602,0.0513186458,11205.9023400623,-137.9750360807,0.5042794388,-0.5895755257,2422.0484480626,-6.1997244857,-27.0877460118,327.1261973006,0.583866366,-4.4312432957,63.9655628812,-1227.6174900213,-1.6909498506,606.9437919903,-0.0224816397,-0.1279008925,-1129.9667221464,-0.6804353206,-639.3350817062,0.6266993717,-5694.2073400413,0.3828664369,-0.4933865725,1437.3601397179,-0.8566159716,0.2860731116,0.3008664183,-0.5410635975,0.2099586085,0.0093288919,-0.5153695901,3917.2665097394,-0.4228165595,86.1478847293,0.0405307241,0.1720290582,-0.1874975712,1.384760218,-1391.3425347098,2.5426344472,-395.6699914072,609.9822271177,20.5384067499,0.5848080088,1816.5474118956,0.5086110971,0.5577073149,-0.2267627072,0.1670572115,0.5518145933,-4925.188522594,-5083.0650773943,0.7309278235,0.5036769718,5911.856246392,0.0175181981,-803.59213366,-0.8064384114,-0.2577566489,-0.30556828,-4585.4868097464,-1402.137617998,520.6717947776,-0.0074989751,-0.4179430556,0.1207970711,-243.1270566894,-12.3816909675,1044.7852202994,-0.8179974049,-0.4467911579,0.1091183682,0.3702667103,0.039053266,0.1314298707,-32.2761366153,340.2522593905,-5.482017395,-0.286454446,0.5680420878,-0.2109960537,0.9814269454,2.9175576295,-14.8073311953,0.6175018643,0.5287453001,-0.6219376306,0.2160516209,0.2434737835,-1380.378011239,43.7908186544,0.4780440692,200.5901384972,-7686.6801807954,843.5463012017,-0.602534983,3112.9775410251,-2255.7920791185,-0.2412961787,1478.5075039787,108.0560051859,-4591.3404044636,1707.2528933707,-0.4710628165,2.3956935429,-1.6377324773,-2862.1072056662,232.0737362501,1.671400987,-0.6614420044,-0.3563885726,-957.5519537567,-472.8618185012,0.5413046477,9.4793315667,0.3584626893,-0.0467837075,1.5275519325,6.2231950972,-0.8120769989,897.9095124303,-739.537322061,-0.62376322,-1.1001035101,-393.2094968709,1.2161024954,528.5497920199,0.9119973739,0.7271785906,1.596689868,-444.9845149063,1.4658648005,-596.6485540935,0.2476905473,435.3073272289,-0.9486316832,0.6977294716,-2.5914936632,0.1262761962,9.3736546079,0.4695344981,-807.3188318109,435.7812300768,-751.3680713094,0.0453042762,-0.9881998055,-1.0729359174,0.3496549515,0.79760571,0.5694843215,0.1914185281,-1005.1038216481,514.9137576765,4.0801129548,0.1749157619,0.4344443814,0.3550673395,2.0448810047,1.9591367659,103.5424087485,843.0284437698,90.4480097918,-561.015687304,-0.2974038091,0.2875921045,4.3906209823,3553.992904164,-0.2047528734,-0.0567498604,-0.6754045784,0.3685493785,-0.0221081011,1.1098767225,13.365621958,-18.6868263511,172.4535556784,1.1483233093,17.403553147,-1.076983725,0.021802917,0.6958997378,6.6484266179,-0.1632763351,-0.294292299,-630.5664423649,0.5463524612,16.3300212319,6.5658904153,2.4733911822,0.7488676328,0.5702116112,86.3867810078,0.9093437877,0.2324785871,0.5564129177,33.5218212427,218.0670573652,-21.1982545187,-0.24463403,0.5441523938,0.7426002377,4.0239242582,-3.7686205398,-0.9398255902,0.7141462512,13.1746620825,1.1364514164,-0.7527679136,28.9454546895,0.0864579898,-0.3818444059,0.8917232824,1.6642915182,-4.8769059504,-0.8218723872,-6.8389321754,-0.7949278328,2.9751957903,-43.0946548299,-1.8435904081,953.7825719081,-0.1334464211,2002.8730664186,0.8769485502,-0.3845558322,3669.3012737175,6235.7696170759,-1.486159865,-1.0785264298,-4382.63627512,-0.031715304,-0.9621611138,-1.701214742,454.6178704469,-0.3717943826,363.4889264509,-18.7677643216,0.3472158778,-0.4340604175,2.171636424,-103.7975758453,-1.682864447,-1331.8272212254,926.443284459,-1.4676839248,0.0751137598,-212.9213609746,-0.385114746,-0.2152066194,-5706.977867904,-0.5860710919,0.2282718144,2292.7849191897,540.9572824671,1.8760125259,-1.2054231282,0.1384334611,-3.7756402881,2100.2092368613,-0.5482198227,-3.7227533049,-0.9276126339,29.2234252567,515.68915707,-1265.5948529837,1.390325435,-0.5849620954,0.1741358154,1.982314164,1.8003821869,-1.1512758412,-3.0805961737,-71.7337646518,-4079.0665820003,0.7021146564,-22.4099002881,-1.1656336542,1.1765795044,756.0793687918,2863.212882194,0.0157327475,-0.7459411349,4.6387822911,53.4042190544,28.7169714538,0.3744087351,-0.2534358542,-3.1822211038,0.3565507387,-0.0562662586,-0.3554869145,0.1878213942,-53.5045296163,0.2326878539,-1.0364364894,34.835370171,-2920.3953975974,-1.2673841177,-1.2934735898,-0.6802433449,0.5541277526,-794.0746077129,-191.6141637781,2952.617830434,-0.9650549999,0.372905231,0.2211136197,3642.5170972886,25.5050960678,129.9928793069,-0.2990309881,-0.483084131,-2855.2036670644,540.360826506,6.8436444041,0.3225827066,-1.9351442913,0.5247925826,2.4398330448,-43.141788322,-31.0376586281,-4665.5380026755,562.9738744361,-1611.2985570453,-53.4823516234,8.1192788361,-1174.4806417054,256.6980133925,-0.7119884835,-0.5456306163,-0.7673443719,-1.2253737066,9823.0498175746,0.5885391586,-0.7392292925,-0.3141774668,-427.7749217259,-143.7248518181,0.6587839718,7060.0313470781,-0.5614602117,-5.4436066574,-1237.0597984238,-2263.7604540981,309.1673372585,663.2891887093,0.2458412887,0.542851045,-0.4107785188,-1.3409763703,-0.5252828249,-0.1102803136,-1.3119292669,-301.4108447233,-0.1658250155,12.5388278413,0.0058528472,-0.0832888463,-0.2963969441,-0.2314581877,0.0134842486,1629.7515350092,0.2117079836,-130.4154779355,9014.6962551416,8992.9006021782,1.1322925817,-3.2962895557,1.0620761005,-0.0846798559,-34.2766195338,0.406946705,2.0183684528,-1.1389897438,3.046857844,0.272564055,125.1258762729,-0.8162574141,0.2761235314,12830.4898676377,-0.638306505,-0.4731111327,-1.5524596484,620.7244975829,0.9641575898,-160.6169038556,72.3114026,-0.5019734106,0.3916826057,0.6456480463,61.5237658055,0.8220821487,0.1628762471,1026.1650538175,-0.7094829315,91.3728098874,-593.5770516682,-45.176977735,-20.6324118651,-0.0254664463,-0.187878409,0.4530526507,0.7674874108,0.2758541916,0.3236199391,790.7892809306,0.0943598467,-3.0784661621,0.3708172532,6.5767418083,5210.007602899,0.2636959638,-0.456258083,0.7659701584,-1014.9432625936,28.2418155458,1.0019642469,0.6108251819,0.4917661863,-0.1592524074,0.970170398,2.0317097716,1273.3835911147,0.3003092319,0.0375207442,0.2015313988,0.1955703866,1490.9680824214,-16.0463459342,0.1531768893,-0.5739124735,-0.0888695864,1.0937694564,-0.8729969147,0.6397458308,2750.271347418,0.1358771122,-5.7616817482,-0.6460804841,-0.47104878,-0.9177471903,-0.7141878894,1.3991792932,-1.2582011131,-10.7168658396,-9.2932099896,1.2193595634,-0.5132600141,9.4768244559,11.766901468,0.4940407705,0.4009080497,0.7180966545,0.5550268565,-15.9947536891,0.6898805816,-1.7463971037,-0.2628135348,1.4840624122,0.7317687256,-0.7568392916,-1.0618616562,1.6402140898,1.1846362005,-7.7864471664,1.9578007469,0.2887078126,-0.8696561433,0.490472445,-1.7357893811,-0.3292249373,4.3073445862,-0.4839688357,0.3920695151,0.554834254,3.2184841677,2.1599441246,0.7121825344,-0.9898922325,1.8705522771,-2.5786476392,23.9277946003,0.5178197591,0.8064579173,0.6098632877,2.5380279896,-0.9576723515,-2.5217581841,0.9267934581,-1.0846756594,0.6903081296,-0.5546252804,-0.3878708248,2.215408147,2.8976270734,0.0097610378,-13.8416903872,-0.3715030739,27.6958710204,0.3630638777,1784.2194580347,-0.4931830622,0.9299976322,-0.6787077027,0.7026889311,-0.9369102102,6.8425069778,-0.2850919218,9.252060491,-0.4414671174,0.8967045703,256.4897791231,1.0196456551,0.3391553825,-0.2449138688,-0.1465649958,978.4305348846,-0.5660343058,0.0050239916,0.5279379783,1.2866024243,-0.6575204042,-0.2557257398,8679.545588017,0.189474819,6856.4945341526,0.1823298847,-4.6784385405,1048.8269842304,-2310.2750040382,0.8447388482,-0.5213811266,1.1489960703,5.0486068436,-0.9139382313,-1.6461042735,1189.4660296296,8.6143801503,548.0121907933,-0.7715106301,-0.1528026671,-1.1262741522,0.6140633632,-531.7886754011,-5.597937485,6526.9994180739,1982.089238713,-1738.8134539083,2.9784385874,-1533.3534872563,-2462.8474869993,0.3740288304,-0.9353804088,0.7569738039,4.2807066534,569.2832771248,457.0040746599,-0.712316345,-27.1445481104,-1108.4683236582,-135.1104770874,-13.5371307592,0.7182036563,-1866.4326394367,-2.3455416195,-1039.6189457937,-221.4025531649,776.1335683055,-0.9088632029,-1.9503830052,-1728.7274447716,0.6970770187,0.700718868,-0.7268480201,0.8404339058,175.8250531421,-43.7832177117,-1.3381642736,186.2043514252,0.4201176542,-1.2412836901,-1343.3670813731,-0.2180031671,-0.3396781203,0.6532660864,-3216.8225933051,-22.2864470118,624.3161861814,-0.8532312616,-0.3950959385,2.6765200644,2.379748117,-135.7347254866,1.0238378098,-1.973511961,-16.1011747273,-0.2099161739,5.1994374304,3182.5901831283,-3349.4689284032,0.5470109343,2132.7746893466,0.7492381075,-0.3119920971,0.258588499,9.1851528094,-4012.3824592823,-2652.2267485264,0.9032633267,-92.0705946836,-3659.0695328499,4.5863869945,-809.7964754827,-3342.3308939665,0.7775984358,-4109.1171880235,2150.905011898,-2242.0122267061,-42.2633070604,-1241.8067060094,-0.4759342636,3.8130999706,-4279.8005512801,-3.5241803177,-750.3133530807,2.0916327246,-2090.2974829352,1.2662528728,-1.1411174973,-1644.9559394292,-2252.7368645055,-0.4353530817,-0.5466321038,0.1121535812,-9.3323687105,-2.9315035463,-1.287715559,-924.7720747843,-42.2833135016,-1059.7510832975,1.2817529817,-32.019480383,-0.7854099769,0.8221413661,96.3304584005,-47.1998835827,-1847.5964176928,355.3796953037,1208.884955636,-4012.2931383427,-0.1067766732,-100.2188626054,1.1798235611,-14.5635273271,0.1429658627,-0.8583289803,835.662331091,-2837.3527907169,52.7942794605,0.4509268109,-0.873287285,-12.8639858101,1637.4338070121,7.1540039329,928.129909267,-341.6928109742,-919.9951953701,1.0642594099,-7.6393001478,-1.4778160871,-0.4358905052,-5.8616229548,0.1132866507,-33.2626184015,0.4354242774,0.8720853529,54.4925608775,106.5181792989,-1.5392467691,-4.1569439498,0.0736417077,-114.3672311763,-260.62399218,-11.6154903988,-0.884548357,0.0510138231,-3242.8448304283,462.2909580055,-28.0558474339,-0.0976473684,0.1637973621,-17.5415428483,-0.3192959475,-136.0330266568,-0.9181129516,-0.6429087809,2510.9966478277,-0.403830827,5734.2647294333,-1034.8674531976,-0.0847498413,0.514687948,-4198.1330821154,-1.1009541105,-3.9055109606,34.1922091038,-243.2615761728,1396.3318669241,-678.9231777157,-0.7649698721,-76.4620686615,-92.7733754135,792.9688579981,-1975.2593773493,-5.1513448234,-0.5513953956,-0.0132189148,-2959.360995997,47.343092979,-0.2772057786,-1.6427157861,-0.8286352764,1.2929858247,46.2511081317,-250.6801637925,-17.4363823375,-1.1385120011,-1867.4625688819,29.8772924818,-2.1766806162,-1711.9069827744,3.6232854198,-1.1391324402,0.8490506579,-2.6075108901,-0.6171711983,-232.3653844275,0.7200500488,-147.4954047281,-4.6150191397,-1521.1528614371,-7.8986686518,1.911657223,-4025.3417557655,-0.9062690522,-450.9053105128,1826.676751041,716.8789588027,581.8979934022,-381.5126892211,0.2340678793,143.1670798667,3506.8898254778,0.3720207233,110.9126262047,0.0264484909,-101.5447854561,-1598.3023257753,-1807.7532682769,136.7938351228,1.0396004269,-0.3014421167,-0.4200032467,-2390.3615043141,-135.845776226,-887.7013545092,-3.6670795213,-2169.0965510291,-9164.418057077,-3218.3999889049,3.0919436681,-5.3375382035,-3.8069114864,0.1695844173,-9.0738304346,-1.2809174733,-16.5070915952,1.3289465172,167.8959144284,-0.4883935543,-3497.1351191745,-98.2961686143,2353.6653929652,-1028.5181718628,-12.9618704574,-0.1836333221,-109.7499605433,-5749.835581357,-3151.0714260383,60.4508891019,0.955972766,-0.5103812428,-0.3072071727,-0.9776627533,-2638.4326003778,0.4785976612,258.9649406966,53.8524413385,-0.4354293541,631.7629242899,1347.4766128598,-0.9105570809,1.5530475905,-1112.6012215485,-0.225652848,-0.7995969767,861.5065718045,-4.2271163365,36.1633626292,1959.3015090186,0.5304020133,-4.7441476123,652.1537093446,-0.3134935097,136.1473619017,-1.8312914375,-1.1795719721,-199.1823341353,3437.9420010562,4.0723422517,-0.8984398814,-4.7277405374,-0.9061911549,-0.2380887415,0.1950296166,-1.5674245156,1.731046042,-0.3177003153,1460.8696121728,2.7440095552,0.4939846508,-781.4964265174,-4226.0796275587,-0.5709681992,-0.320850546,-0.2446966747,-0.96845054,0.5399481709,0.5343273659,1668.0287115132,0.2775600279,-657.0771628469,-0.3149454641,-1.3413663089,1061.6122709274,0.6483206321,0.4930898409,-0.4048231989,-1.9578856964,-130.9450324497,-49.0119748135,1.1243251814,-3.2086416175,-0.1202998212,0.2274278715,1.3519915735,0.5876773908,-4.7515940555,194.916350007,1.504413114,4.3711909619,0.2893745334,0.5362365773,-0.6815920836,-1.2600000816,-1.2090608155,-11.9817855531,-0.3845326824,602.0567590661,-2.9657676449,3111.623018538,-1.2985521312,-0.468266534,1.6329566567,0.2294947481,1.6184620984,-0.2536657507,-0.4565316326,-0.7267018683,10.4696472124,1.1096277603,44.3569130074,1.3644929189,-0.6442687006,2145.7247889713,-1375.6734166198,-0.1983774562,0.4155151421,0.3324967983,-18.4428387989,-149.6015679763,0.8113337487,-0.9162176767,0.268503233,0.0175247269,4.2839568075,0.7865162305,-1.4183894417,669.8390358429,-0.3792062183,-747.7768577358,5.4700257151,21.4313935405,-0.7127930342,-1755.2817017837,-0.4569292472,1.0728602672,-0.6519166718,-0.8937948438,0.72181534,1244.514768929,-0.4043353717,-0.1054678812,2.4810117679,-0.4924459633,157.4484490011,3.5711572187,-0.0808059749,-0.7374254873,-25.2987331643,4.8183843598,0.2593258479,-1.6528377222,-0.6674917275,-4.9372672102,-385.6671525042,0.7090803117,-6.9771706492,0.4216642002,755.2302448309,-0.7575152194,3.3493303952,-4074.7910289549,5495.6472376884,5.1711762908,0.8587868184,-0.3403465948,-0.0669644195,0.3941058586,-0.7137107362,-1178.886003008,0.7072458626,3164.638405506,-0.2718606946,10.8099155336,-0.5582533282,-0.3155596846,2.2516962792,1709.4209897886,32.4439229246,-173.8556874463,-0.5383528175,3982.0692986714,3058.873548979,-0.7542986216,-0.4885821161,0.4439188891,0.0843065168,-0.0316965277,468.2268486796,2741.9605346824,1.811170585,-0.5052743639,-14.6803955153,2.3107249897,4703.048990166,-0.1012065608,-344.7018389052,-0.2039564812,3273.8184967409,15.2684031373,-1697.6748624672,0.0953778878,-0.2854508075,0.9462237117,-0.9750194636,6.8511009115,0.7919144494,-0.7211451194,-1.8806182286,-275.5652101758,-0.7642713841,-2.1204799677,-0.7002254471,-2.2949724658,4.7967804106,-12.5077334518,0.240800052,0.24559479,5895.9469570449,1811.4249353313,13.5608063418,-0.8253223231,0.6271122085,1.6635040518,-0.0906419604,5.6873796457,-0.9656944695,11.915765895,54.5841966429,0.6273512266,-3860.7661172628,0.0268733552,-0.2273932139,-0.2071781417,-4564.7067014673,-0.0448554642,0.702038127,0.4035396998,2.6564658266,5361.5084504659,-0.0635203021,0.1339025004,1437.562529625,-0.0923614593,-0.1986857837,1.2307208978,-0.204235532,-0.0372539716,3642.7910581509,-0.0863055717,297.3169311352,0.9716428684,-3.4382886087,0.5938918929,-12.7148743089,-167.4325320776,2364.4970358269,-2667.035088635,-0.0501628097,-1520.0518925585,0.7956874243,0.1754373173,525.5157379462,3391.6147608506,76.4924530183,6.2192603001,5.61881288,0.5833328111,-7397.2509593904,0.5104483421,8937.4442428972,-0.6847821661,4556.2236197929,-6.7038354072,1.1447385332,0.9445329389,-1.070772021,-12.3450518949,6.3252240081,-741.5830430151,17.3447121431,151.4781856895,152.6050374122,-1177.1373742831,-1881.65115576,1.2615107245,0.2258153749,0.8146693144,0.3448348564,-164.740215006,2587.1875158209,2.3747486093,1.0806353361,0.3820666365,1.205666963,1419.9112897568,-0.572968714,7713.0182777177,0.6182285374,-1107.4280766851,-451.963098481,3089.7830100076,-0.6256259772,-1.0520837042,30.253623708,-21.7352130602,-5.5908861028,8930.8348313242,0.4456975968,0.2014492294,0.0849090666,595.4605911108,-143.8148597817,2.5152919562,25.4495980415,-2.1704183835,11016.7989695523,-0.7019921588,0.9643852145,-48.9077614114,3.9628353082,-2.1869384392,1.1611077111,0.1852081637,0.9485859716,0.9597870595,639.9481394617,0.4623856372,-17.1169333524,-2.5945745148,-0.3547598862,-0.1167778348,1.399995279,-1.4362378367,219.7220797602,-343.3416840539,0.6504621756,0.7956900327,3.3459544912,-38.4306902737,730.6010170982,255.566926196,0.1411422861,-292.7842438675,185.6322627093,19.1068778677,-48.6468512707,-5.2551643365,0.718779083,0.7692478965,481.8180071358,-2.6355137292,-0.612476963,-8.0398047265,-0.4540410566,8.4096212849,1032.8875246024,-1.259172729,688.7891209101,-0.402054438,-22.4097633121,2635.5671576529,-0.9196843897,4457.9129724064,-32.0302787763,-0.5695777008,0.5424307772,0.451427246,2639.7545898051,0.373284681,1.4251525537,-26.9614496443,-0.4079219436,1895.7959320694,2.0662060216,-0.731665121,0.8225298778,0.5176729492,-1.5696165669,0.2051740555,-1975.8337397896,613.3203375253,8043.9331901059,-46.9888991771,-54.4645736821,7.6453331641,0.3664136376,0.6723942097,0.9809304941,312.8729861968,-84.0800579379,-36.5735659842,-12.9931298158,3.5594058949,-37.8934250776,0.7405892525,-4898.4746356354,0.5933825667,-269.7104290017,0.0783492202,458.5898903696,-45.231543442,-4292.2148977724,-0.9192943493,22.07376335,-11.5899732773,-0.3306219048,5.9639536031,0.5502114726,306.1775410795,-0.0169340227,100.2331947733,1.050075562,279.919191387,-0.129275819,0.3155015432,-1244.1349309757,183.1285143537,-0.8339756631,1.0062943888,-13.1951967636,1.1604585805,-379.5341835154,0.5950387424,-0.2959171528,32.626938504,1971.8777143784,0.0296702386,0.112084518,0.6850217273,82.9404673976,0.8727198423,1099.1045145189,6.0233500385,0.2935624096,-1.61997203,-893.3353087534,-0.317558367,-0.3828954961,1.6572776493,-594.3855150602,-833.9355898796,-0.6655642558,0.7731234132,34.1736589362,-0.0411520182,-7.5470156923,-241.7570913629,-1.2176894633,0.385196652,-0.0321203796,2.7519926524,107.2685883037,-0.5216659066,-4.7495296975,0.1312074294,-5.2687713932,-2.1805345578,-352.0315845621,946.7231370399,0.5019426176,-419.5007949373,-4.2630738428,0.1830688933,-747.7824960934,-225.3448399603,0.5335976387,-0.7793830938,-10095.1817053558,-0.3090653199,14.5254411894,-9.8143585961,886.2417513125,0.4776374001,-2247.1211053181,-198.1374220433,-0.8927626876,-0.3474883274,0.0163512923,-400.732579359,0.5977989247,-1170.5480887699,-346.6266823124,-5426.5075396717,0.4917519563,-5166.4952692302,-5394.8343007496,-0.0903750614,-6480.6661585076,-0.1686994608,-1.0919540493,-1943.8997996753,-2357.0596289198,-5.661799788,-25.5740283464,-286.9590174456,-9.5806980372,1086.0987168413,-4.3585387879,-3.523730128,-0.0828658611,-1091.4085372079,1569.3962049669,-1.6801220721,-4.0895114339,-1.5753370563,-359.5076922325,0.3710728594,-27.0971850426,-0.9827644951,0.7252770949,-3517.6078894929,-31.575372956,0.8058368426,-4394.776799574,-0.2061063662,31.2509353206,3322.877190437,-106.0287596407,-0.165750404,0.2520434945,-5.1215471241,-0.7408174256,-1.5300406355,2464.0480157584,-0.2553781273,-14436.0188173315,-2.511324947,0.4822077235,-0.7182143938,2.510710089,-1664.5541069296,-0.2497995743,95.7797120907,-165.6128090157,-3803.190072598,-80.8789725539,-974.4765111974,0.228284955,-0.0645832616,-0.0001670993,-3156.4640483713,-2946.5985612341,-0.8933890536,-0.7794997658,1.3055500035,-0.7607939756,148.3650901772,6065.9704342155,-0.5034819726,-0.2436373207,1.2601720514,-4248.8772210293,294.045622593,-0.4077784058,52.8427679569,-0.4063323075,0.5342788388,-184.1359090764,3.269177551,-417.7925012603,-24.0227643533,194.970684279,-0.3040158051,0.970421533,971.3616580195,6.0399868395,0.5184003926,0.2025749634,1.3444776306,1.5538411002,62.1533269513,0.9944539112,1791.3540712305,1.6465178416,-10.7749780872,0.772304817,-3.4340708675,508.7345278897,1.6878277683,4.336438237,2.8522215325,-11.1528494582,-5.0588395674,397.8454579787,0.3205065929,-52.1567821973,138.1101209957,0.4616793496,-0.2506091228,0.5230043434,-4.5636964884,-1235.1625842039,3052.1786387122,4.1896347792,-8.5746363178,3764.8574495257,-5.244804224,28.4724926092,45.0372689285,-18.6856294418,0.4727804247,4767.6697660708,116.9524501906,-3.4653132539,-1.8362025695,-2.6431137036,-0.5175459577,0.7276490085,2.0838138505,8.8241626203,-0.7563742223,1.5461941001,-35.0790935651,-4.6508119998,1568.2864276171,0.6172786808,-107.6867249332,4.3285105639,123.5121576098,-0.6326852467,0.871133241,0.2811758787,1332.8114805797,-3.1890417587,-28.011513122,0.0407262383,0.2026557848,0.2165932865,204.406742312,0.3199818047,-27.611828877,32.7355293093,0.5294584512,-8.5661642638,158.1666848132,3.5016317131,-1.5133744377,45.0674358518,-0.8132205217,0.5389726528,-12.4414706726,0.7833487932,3368.0382594005,1497.3450822973,0.4133964727,-11.7163260376,-4.8872328059,-1.6402101778,17.2002943894,-13.6398360835,0.7000324492,6.4196964969,134.1733233166,-79.2165481812,-1.2152840682,-0.8295849436,0.6222251346,0.3332840706,-1.3369629479,-41.9354210786,3650.2379979133,472.5836841446,-4228.1262393576,0.3148226252,0.262138006,-654.8845246339,-7158.4544607409,-1.5412562498,0.4057225501,0.7083026581,-0.1612402651,1114.0437265607,-1.5326986246,-5487.8937623706,0.510387912,-2.6897045544,1.4919462006,-0.6390362368,-0.4886928443,2.2897618502,-8226.5645467316,5.3447943003,-1495.6896709296,-480.3026177684,1463.993480872,-136.828969548,12776.4605644673,2595.9458995868,-1.2831913443,-0.1514077369,-0.4640485967,32.9026839191,2013.6370590017,534.5948066078,-16.3067600727,0.1872342298,6950.8981015613,0.7966593899,-7527.0549407331,0.1946014532,-111.9599961163,-0.0143316559,-5152.1052073473,-3.6856563299,529.6611153464,0.3097865884,-0.1022466715,18.8233374021,-2451.7156045338,4.2682108314,-0.7353531922,0.1409382629,1.213708975,-14.4189740211,-0.916274338,-27.7520763429,-2.6636349761,-2.8956111508,1293.1841614185,-5526.4269407546,-1.6127062027,-0.6212016268,-0.9253758278,360.2614300786,189.5092008736,0.2875240622,-1.4820561136,-0.1840850341,-0.8031873896,-19.3996830204,0.4771893287,-4071.0778008891,18.9421385037,-0.5338348186,242.6527446954,-2609.1479987851,4964.6927298915,2.012606074,0.4485549125,-21.046931495,-1.2136407177,-0.3553344652,-36.431763747,704.6780816706,3020.5213585792,-0.1092812479,0.7171825172,-111.2270462768,-6051.75194789,1746.0870877511,147.4018459622,-0.8123697887,-1198.4365444983,-267.9358758364,82.039063497,1.8803800423,-853.1170519128,-0.5047056079,-4.2637730139,-17.839882188,0.7132524814,-4412.3065111587,-0.3151444869,-269.1732852454,-0.4498387499,-26.0162616975,1605.7312097939,7.9863861814,2.2931916674,-0.7978459106,46.8965415976,-0.7417210441,1233.3689704681,0.3207782208,-3.6899621996,-1.7751880422,113.4734512214,-8.4840842082,12.6144823728,-0.2046459066,-1.1426311047,-0.0882144986,-3.4676654379,9.477584496,163.5443931849,2453.2438463691,-0.0558074876,6975.3929614746,635.164755989,-4.1803658762,-2.0761103669,-0.5189074034,-0.121390104,-1.8556676211,1.3759967971,8.6391180642,-0.5902555323,2977.7269361077,31.6744420487,-1591.2196248264,-0.7493719715,-1847.7409784987,0.6098480511,2217.5498807877,5246.2962465634,3444.5305540126,0.1077517463,-0.2166991738,-4.7348995534,0.5519401991,-12.3167570272,-0.6118960668,-0.2319845232,-1.0210645919,-2.276031157,0.4310851135,1503.2329195502,-0.7159772847,0.1480274074,70.7953289737,8.3605501765,0.8679530273,34.2107787573,3.9267868114,-2.6276405885,-0.3480237835,-86.5753339329,-0.8950692305,-0.9876479798,-0.0086594589,2.0613362699,-0.1258178861,-1564.5034284857,-409.0734145686,-0.0736887755,90.8515201535,2666.8243219614,1881.7189605761,-0.9525351044,-2601.9284981672,-0.8306978357,-3.3369493411,-564.9785819825,600.794609143,4086.7046562026,79.5569051409,0.0249510508,28.7782481281,-149.5914693091,-4836.1605497054,314.5722284379,-0.3278291563,0.3767420777,0.2142143239,-64.482748793,0.6214858092,36.7167356275,0.6377488967,0.3324641555,-101.6058622538,-621.3005892207,-0.372445804,102.4204163622,0.087857103,208.2115274241,1.5426327093,0.2447611693,1057.431965902,287.2423663824,502.1473728997,3.9402329125,2.4808068212,0.1480479666,-7384.9548974357,9.1178084906,4946.3615324619,-0.3049084503,2779.5850057474,-1.0509358042,-0.1812696156,0.595389641,-3.0459553568,280.6199502771,9.1327606788,-555.4334235206,183.9035970296,-0.1121542804,21.7036565198,-1054.0682805419,-4387.1436983377,0.3385687114,1.5140196979,0.1944613336,-0.8055381999,0.3426477249,4913.2059997646,13.365684005,0.4605946284,-970.3064215464,0.7175160995,36.6147124636,215.9606929386,1.3675923636,3.119145289,2321.8474403548,-1168.6744225308,-6.6648194721,-0.4761555253,-0.5447042414,1.4530601121,-0.6584274498,0.2816846145,1.5475061673,30.609230111,-0.6058846196,-5.2329478261,2149.3237334979,71.836907028,1.1904578776,2739.6509681636,-3.7837853438,11067.2385899653,0.3365439949,0.7824029455,-6.2855023236,-0.8188443642,-18.1416246884,-0.6944625495,0.7523150461,1.6571875854,-0.416555383,50.9192823011,0.2623306448,0.4744264389,1.2545202354,0.1820565501,2072.9405495221,1.1323890975,-2.3952847065,2765.5684255543,-6.361462807,0.165055635,0.7393004857,1.7973800601,-14.5680539226,1930.127950602,1308.3299985318,0.9175723626,16.9995661416,5351.0624640998,-0.3715936276,-3.3480729815,-9.1367390735,-0.0675915347,-10.1914039378,-13.4474109661,-0.3680286007,0.2596505963,0.2013336737,-0.5631155009,-645.1047373849,-832.7347061244,-0.8279954133,6243.7359654352,8.8140626527,-3320.6665981166,1.3731933959,-62.4860049232,-3373.7498448096,-3591.8557844516,-1295.5081199643,0.0262748468,190.9867621207,0.4714073769,1186.2036611853,-3.9305165123,-3529.1559016107,0.4054853629,42.7528341616,-0.5733597274,0.6410263131,-0.4095360068,-1.7577279575,-5371.147729265,-3.4291516329,1749.341315207,-2531.4651008656,253.3397878639,-15.8303362211,9923.1168422847,3307.9455628812,-0.5705769044,1.1646899121,0.5895253396,-1.2317523436,-2958.7437916172,-6133.5872908984,-18.5138768119,0.0589135567,953.6125837027,-3.1009228026,-4603.9628324454,-2.5171131571,-2997.9340094045,-0.3416848847,-4329.6284962644,2474.0941022555,-54.0740508874,6.1030342591,-0.150879769,0.0557257487,-4059.8533514672,4.2148363884,-0.1454655631,-2.4338014952,9.0772950566,-0.3098215261,0.1812239657,32.3102568199,-2.8588577224,-3.4553837911,853.5513572708,-3117.7960780993,0.3914417993,-0.293172031,36.9764524591,-2.6549978228,-0.9508679848,-3864.2336515366,-1.0099448762,-3.8406855768,-0.3033554214,6.353684951,-0.8419528416,-5419.8996109503,-1381.0524394343,0.3309302886,9.2080264807,308.6937966223,8503.8781414974,-0.4814655301,1295.8339176271,-7.3722020716,0.5272772488,13.7360756304,-2.2937083534,-0.0654686076,1644.5732329265
   -0.340016322,-0.1698777611,-7105.4444564709,-9531.8541518425,5.8241844118,-3213.0683096781,0.7981799372,-4424.3484690164,-2296.5028808535,0.0872476701,0.9736936123,-5701.631007934,-1.0308104907,-43.6551312221,-3474.9801626188,4.3731817413,-826.5857688628,-2778.7531608602,-12.0914078895,0.3770290907,-0.2395111058,89.7158182567,12.9084849633,-0.1824709744,0.4305249445,-0.1131695048,5.3181341667,-2502.1043543343,-1.5695270392,4645.6537256606,-0.073542898,4904.5925202678,-13.5672639518,-57.8269572968,0.8656977065,-3.4398909304,-1.3193872627,-1531.6312327403,674.9685152753,-463.4444977162,-2107.8498524153,1.5010177902,-1511.988085788,-1426.4608163009,-0.8113376866,-0.7802587861,-0.6383418665,-0.0408326905,-48.5791826455,2254.8722870112,-9.349435403,-0.0086269741,-0.2020211982,-0.5557483377,2368.4352600704,0.545268751,-3.136383439,-0.6813177079,-1501.776169854,-2219.5444914277,-1706.7428650477,5.2894306853,0.0900078884,5.620061034,-0.7544004345,-20.0630723161,1.05468563,16.7946198662,-0.0187170405,9.0097869879,-0.6135977346,2.4079300729,0.3880209741,-17.9931670831,19.0897300139,62.0453060183,-0.2793778677,-0.1602130546,-375.1108074934,3278.9104511312,-0.9562129763,-2.1846850798,-0.4584417423,8.5146418598,49.296641962,-0.7970730791,-0.1976157611,0.2232290047,41.3160321019,0.9463635304,19.6823240032,-1008.7396318951,202.6903683931,1.0926905489,2.1201182262,-0.6456492266,-0.0720936658,-0.7112141466,-5696.0660393203,652.4670256535,1015.828243498,-0.0864222493,16.2319727014,-0.6134640274,268.7000344594,-11.6788565601,-0.3673242054,-0.556226198,55.0073335683,-327.8339294116,-1123.6687207044,0.6519440912,-1.0377292516,-0.2242185696,4.6261046049,0.4244816095,-4.7156583622,-56.2552291109,24.3624281021,-4.2393898324,3.8255382166,-1.2499951235,0.2481438414,-0.3044169195,-0.0072438565,0.7817299221,2.2650613555,4.2461476399,-2.171384236,-1.2242574229,-539.9015420973,-0.7868253697,-0.6458780541,36.1541849856,-2.004563534,-5.6233513202,1.5846186996,-4.7470116928,0.4174175305,-374.6406403646,525.0442314882,7.3455809625,-0.0425731164,4028.8343607236,0.4834637787,23.0367075159,-0.3546757922,0.7497992745,0.4945521579,1115.6005050955,3027.1519753764,-41.4747744658,80.06108064,-0.585909975,0.0028681131,-0.3093268177,973.7221837678,6.5483477396,-1.2931499202,2622.7501266775,-1121.8373524403,-146.294310685,-0.7457866111,15.3493015062,-5.8047008589,0.5455106178,2.643927113,-1.5081012981,-1.0118368363,-0.2962373742,-0.5472966792,195.5342210106,-1.1573808912,-0.6667663479,1747.1741141357,-1133.3644608793,3.8642894902,0.3199056415,0.0772263945,1.3736269933,-0.577818387,7.0761563052,-8.4413062288,0.7445335456,31.2587338354,-0.1494416475,1.1215592315,0.6450539508,0.1263432841,211.8045140295,0.4895419234,-20.0107263923,1.258319203,197.6993771884,0.1273346364,-0.6725736781,0.870583917,0.3059369604,-0.5173253805,10.3714018876,33.4882178731,78.6606546349,-0.0445499967,28.0915527991,-5.6609053406,0.491052947,-888.6895768382,0.3265994613,0.8713148887,2.2913854221,185.9123437665,-9.0699179748,1.0689052993,-11.2416694653,-0.2485161604,-0.7224270333,-4.6231916664,-0.0846916773,4.9336186072,1.1448513397,6.9655402605,0.7662515323,2.6219337585,-4.3575696141,-1.5243022951,0.8493688263,-0.4786652055,0.3041401061,0.7728578378,1.2117502604,-0.3737862824,4.9880467133,0.2918269101,-1.6724218757,-1.4455163705,1.4318536322,0.686142435,0.0803282515,-2.0894867199,1.4892496547,1.4937325116,1.6644450234,0.6443033548,1.2741036474,2.1663384494,-1.4618720743,0.9249735392,1.5662216142,-0.1270590253,-0.9445074431,2.7329097801,2.2844924901,-0.3193636635,-0.9204347871,-1.6619351897,-0.0361124828,-2.0115013716,-0.3808438923,0.8191293815,-1.5957115338,-2.1717667119,-1.063846782,-5.3051425538,2.7484613018,-0.475359354,-0.4806963456,-0.7366352784,-3.8750533402,3.5536629674,-0.0611504104,-0.2775261073,-0.3205087555,-0.6801972584,0.2885140053,0.2040154826,0.1470441217,-2.2372073494,1.9702887238,0.0906874736,0.9428048469,1.5173177107,1.2990938027,-1.329936717,-0.8509717942,0.7599991333,0.4142436716,0.7823245555,3.5529018115,0.382342796,-1.0531838668,-1.2301113801,-0.8139788513,-6.0670986252,-1.9137587443,-0.2310889201,0.2600714746,-1.5386140537,-0.8792761391,0.1357293206,0.2863307041,-4.1344788925,-0.3283236131,0.9163087552,-0.0040683951,-0.5887208143,1.0766388395,-3.7473748549,1.0426586724,-0.4583471389,-0.8330991592,4.9569451979,0.7753174289,1.0399535545,0.4863589572,0.8767368994,0.6882101094,0.4284105386,468.3095389802,-36.2868573657,-3.6631006174,2.7469893414,2951.177418646,-3.38715367,-1.0694592757,814.3632305877,-389.7094064397,-12.7024349969,-0.9038409974,0.9445371878,0.0583759249,-3.372287239,0.3924713076,5.1204142582,-0.7873661786,-0.0746920104,1.9539218843,-14.6292977667,-0.9515567561,-0.9667178794,-27.1351738849,-0.7253998689,-16.3345483039,-0.9590427712,-1720.1565501231,0.1906164999,-319.2775300204,-241.557602005,-1.4089087943,-0.1133336285,-0.1763766343,0.4249416088,116.7833182617,-440.8739969906,-150.8577898537,-26.2906635197,-1.2977979554,-0.755226329,-952.8023096147,1.8352942888,-1343.6139760492,-11.5658119554,-1832.5675690761,-0.30451349,400.549338283,0.0133571085,-29.7695443577,-25.1556502937,-1.0914661602,-3.3632716661,-1.2714214246,0.5540323402,1.0595354135,0.8255593552,0.3072002575,-4.4185250095,1.6429692635,-0.9678421622,0.1686418876,4.6464037344,-0.0916425888,-0.2171643732,-8.0994091231,-3.0670285468,5.7095291002,65.5242558502,0.4066931598,1.5476593197,7.7267854894,-1583.7565558243,-0.4700399502,0.398527303,-1.5376926187,0.5113036613,2.2379616368,-4.5718229944,-0.010477151,-0.2359662803,-0.2920304886,-0.920697034,0.543756674,-3.9333044813,0.3104363044,0.2994430318,-814.0915023528,0.5995702872,-479.5706066569,-0.904564815,-1029.7528106117,51.722146861,0.1358123202,-1.0735722003,-4.8453884598,2414.9684691563,-6.6620034312,1.0034007747,8.3778521901,0.5008066142,-0.0177369951,-429.7560127813,-319.6113596166,2940.6034114393,11.7041929124,-2059.4073001154,0.3231251535,0.5767960423,4754.4363668527,-856.1570404207,-0.988475849,0.1520218778,0.1691108057,-0.8825825881,0.5121587628,-134.3018123082,-2400.6822001743,0.2427127893,-1.0705685996,-0.7592787385,-0.5620635074,0.1532595547,-1322.2910989393,-2734.7273194137,-1.7792165175,3151.6319849298,-1506.162371285,303.5993762497,-2.9224562913,5064.4850260744,3981.7869905477,-0.5078022096,-0.1954060586,0.49903384,-417.7535098253,-1455.0884978177,-861.9308660932,-512.2220261186,0.9052450111,13.3579819011,0.8826489466,-2943.556107876,0.8498642793,-37.4767821149,0.1523286139,-463.211789675,0.295410944,297.8493491951,0.0926272675,0.5994733209,2.788902409,-5496.1571577582,-1.7438625342,0.5121527375,-4.9785397798,4.4780354908,162.321452427,0.1676401922,1692.5205166824,-1882.2102550188,0.3199042056,-97.8036453165,-4627.4892149965,0.8207458401,-0.2921037291,47.3408127113,-17.050241713,-0.5290664791,0.4439303477,0.0609022985,-0.5580157933,-1.2813680179,-6.0593902553,-0.2222442717,-3757.1977070528,2182.6641212194,0.9184869365,-0.7392187847,-4154.1964722208,6993.8332774135,-0.2150018598,-164.112137694,0.1974120971,-0.9414506404,-317.1946268745,-534.1828641342,102.4411650063,4038.0137438121,-0.8545688246,-408.5658219952,-5124.4984400397,-8995.6165237347,-0.47621299,-495.6135004163,-0.4584891887,-3877.501104511,-4815.7512083836,-0.6827823512,0.5044670258,-6349.0408556016,-0.0845703011,-1.6109768197,1.3936258427,1.700575499,13.2886071951,1.0182738237,9.6181241049,0.5361351934,-8.1392778236,-1.4899511254,1.8812049959,-0.4911422372,0.1383344855,0.2333029999,-0.46223154,-3.1901254569,0.1018030173,2.7394636966,-0.8104041416,-1.1031485147,-0.7338189015,0.2540373896,-6.2786939383,-1.0644818428,-0.6409236963,-1.1089929358,-2.6738058407,1.281074636,-1.0311589465,1.117295699,-3.2743113584,1.0433191904,-0.3398115606,-0.8790052071,0.9834359684,0.7033963322,2.9570666076,4.2731781185,3.3405571595,-1.5599313838,0.7240128528,0.2548799169,1.9400963778,0.192603536,2.1978082523,-0.7747982169,0.4697122115,-0.3625145381,5.2603909575,-0.4592133741,-0.3807323248,-5.4597542718,0.725697679,-4.0423679837,-0.1902655902,0.8130664827,0.6780280936,-0.3013801911,-0.6642342136,2.0692909212,0.1830808347,-0.127435976,-0.6993380506,7.8698853802,0.0912844116,-0.1605723865,-0.0525502803,-0.5264147949,-0.67825418,0.3904200986,-0.2851864389,0.8903148747,-1.1065995018,4.2919588068,0.0064500322,8.9938993321,1.2618692969,0.6321240015,456.9143176788,-0.0603576441,0.7510592076,0.5556827048,0.5483427965,1.0445534909,-0.9143542107,-0.435808029,10.0406111102,-0.8969655257,1.5660674979,-0.4707323611,-1.6850706079,0.0463733658,-0.4996804546,5.4694290325,1.6559055362,0.5182884373,-0.5036861236,5.2812266622,-6.4135584412,-0.9534542338,3.1301540634,0.923211397,-0.8367065602,4139.1454878665,-60.9742822542,18.4615660868,0.5169229118,19.7943826826,0.3656016961,0.632162047,-36.7711812377,0.9237305703,-102.6254532576,0.3620993182,-1531.7452152106,0.7902380487,257.3301418825,-0.0772417983,0.8503166184,-0.5996327932,-67.1369244448,2.5872297198,2.6719452867,0.1150359496,-4.0268487002,1.7029372174,-13.6777003886,0.8159502879,8.6855653572,-2.196434907,-6.2538693485,-507.6018502946,298.9262085877,0.6198609416,-0.2315944485,-0.7630891334,1.0520756868,-2258.4916570604,-3499.1545896716,-24.4612698247,44.6578907918,22.0328808524,0.1524579318,-0.5299533106,0.8909775931,70.0021520449,-1.0371704364,-2939.4924384684,7903.0708769292,6796.1007729501,-31.3046520835,-0.7077982892,1.669143144,0.719439956,-6.1862298474,0.9024168277,10.9096164936,-2.0042089201,1171.1193169798,-65.5898865843,-57.3850925356,2.2544383101,1.7709018066,8938.4097784902,0.5043017133,-0.7071273356,0.4719122607,-4.9881988417,0.8340753169,8.5188882309,2428.2585270792,0.0812951579,-14.8883892234,1.466528425,4.3233306598,-0.8953302835,1.1377006097,282.3615228943,0.7787461881,-998.626236158,-351.4462440852,-1110.3604243019,0.4479322987,0.4102802347,0.7994911592,0.6772198303,-0.6562857341,-5.059721923,-2437.228794649,-16.8249186359,1.0745199147,1.4969405709,-76.8326157347,5796.0005402755,68.7418401456,-0.1722237624,0.8265473856,-0.0129182427,5.0192759633,-10.1586164359,1.6638323937,34.6635313824,1.0153862215,1.2121264553,-15.8665295531,-1823.1980454558,146.8697776921,-0.3797351543,681.4442115522,-0.0812814804,-0.5989933151,-1155.4864705536,1662.1798426237,91.2916236918,-0.4819064871,-2.0431288806,-0.9251137902,0.150178155,0.3530025806,-2401.0259747053,-6.3437458417,1001.9966831857,2.0340580985,-0.3478265188,-0.3870878453,-0.5728668812,15.688723492,-5.3386192179,534.6532825937,-134.7218467529,-14.2181541297,26.9598497134,22.8811608653,-0.9891102778,-0.758410496,-1.7537552871,-0.1950735469,1.3069147459,3019.1050328776,915.7642432187,-0.4687545071,0.6904615848,0.4599236475,0.2663255303,2.1654946279,-0.0233344798,-47.7864318388,-0.8298195895,-133.2443938463,218.706826957,4350.1151272787,3.3594629674,-0.5800670726,0.4523517582,-1.0519305589,59.2344387085,1.0018178178,2.6037956986,-7.0608172332,-0.3730996833,-1.3770508715,-90.5784625261,0.43619882,-0.7228473079,4.321351981,-242.0271017213,0.1021118699,-0.6582750022,1497.5598649283,316.4119907866,0.4321575459,0.1287487864,-1.0567252003,-2.6219728856,-0.4507037148,71.6750860289,-0.4349044413,-1.8994841764,2524.0361858915,0.6413775972,909.0085210962,-132.4480343592,4806.1021941693,-0.6143604714,-19.8087160027,-0.5630823466,-0.0947587799,-0.796648322,-151.7974519384,11.1226553371,-2.6591611791,-0.2961817615,-5.6112369009,-0.3195755136,-0.1604222749,966.9760100929,-11.3655641496,-0.7037029584,17.009513632,-3127.155129508,-1177.6894166476,0.3670342926,0.9210136402,-0.0991971038,-0.2592131426,-0.3507366538,0.9202389804,2570.8421658625,-5.7489804001,1227.2545270635,-1.6965030071,1.0525505213,1181.3017719117,-1642.5257847653,-1.1441477418,-0.0897717136,-1.1932499903,-0.276708246,0.5752557489,0.1728559213,-10.605191885,233.1485393788,1.8395843706,0.8972871258,190.17643053,0.8421008046,5.1943995838,1.2115689022,166.4390171304,84.9300271289,-49.0413709806,-3804.5665917698,376.7659679399,0.2205191604,10.0280551831,-0.451756206,-0.2321886026,-0.1532804912,3346.0239599265,-2331.9384202989,-2884.6709827197,-1.1124721535,0.5712839072,2.5782645897,1959.8566195349,0.329517719,0.7097647111,6.5822113545,961.3347695506,0.9795174231,-81.6743459431,55.8135897993,2304.1372574397,1.087331084,-1.8474865066,0.5854582083,14.2882489631,0.8720489927,35.9335912997,-0.355704177,1043.8513908217,1.0435360446,-816.1284560216,-0.3245054908,-3.1392690907,55.8096170966,-8144.7572271054,1.0956283652,4170.3329275303,696.1967991654,756.6232418352,6773.6313574141,0.128917407,0.9314976121,-0.9724124145,1.0756138854,802.4335862187,-0.0298770716,-0.6707631823,-26.006421109,0.8020320669,-0.3112887746,-1494.498414363,1466.620310207,-0.7302737459,-978.3364500554,1.2498061739,3.4652867131,-130.0252985665,3549.3759794248,-940.5591443097,-0.9345990581,0.7044031743,319.9167564395,18.5451670956,19.5648563501,4891.9483851235,1.6524329242,0.5387471286,-0.2402248861,0.212970812,1.3122899528,1708.9438684458,-10.3925271348,1.229193185,-0.0903557672,0.1592220832,-4150.3664751426,73.5941872665,-0.8195769827,-673.5267801797,-0.5104593714,0.5430317457,-1235.8292311669,-2987.1884732759,-3.5520279256,0.4113238077,-0.2771963672,0.4362206578,0.2892288417,0.1497055092,-6523.7114105583,1.2756991502,1786.6600907289,0.3088685488,-0.5007876503,-9352.5419194289,-0.6617245035,1.5086460221,17.0363168097,-2.6011483457,-1911.1385049494,-0.7575260885,-1.119566619,2.4018637014,5.7707505356,-0.3552760056,-36.2617709619,-0.0874881164,0.7793612085,2118.5157470836,-5.1564166364,-0.3814848616,-0.3858837195,-0.0823445352,-0.7910838679,-3063.4136342451,0.4252501365,0.0586123766,0.5298072769,-8313.607141364,-3265.417197334,-5681.3640389823,1.4746652289,-0.7918211021,0.819374801,-0.9999930151,-3.6977066005,0.54143734,0.2057580672,0.0788017912,-0.6487196406,0.0894131562,-2162.3754766571,0.4592056011,-0.5066622146,-3720.4717452858,-0.9856660957,-0.0322351943,-0.6931230117,-1.0498154482,725.1710381837,326.3904732034,-0.3055345447,-0.4294210018,-0.4210863399,-0.9550639198,1.553043155,-0.7436460072,-0.2162660883,-46.8048939687,-0.476258523,8.2402180588,2.238380544,372.41786183,-0.4204111808,0.570988081,-0.0568881369,-0.4126044905,-0.3369796738,-3316.7608356557,-0.5989369221,698.7072294706,-0.3803214206,0.1337557849,0.5319529632,0.6969371483,18.5965132578,-0.0927419,0.8268212881,-0.6793057613,-1144.4647707215,-6.211709273,0.5839110119,1.3048387649,-0.2944085105,57.1027184023,-243.973558758,8.250467217,-3788.0669589627,-1768.3969581776,-3942.8882190509,0.1869243118,-0.0558213314,1581.7255267034,-3035.8050968985,-169.0021783847,-0.2134820217,-7.3638245846,-0.754976089,-0.580411713,0.8595551312,2453.6191652226,-2.711254923,-2065.2355855312,0.795580275,1.1631481202,-0.076681794,1.1056845948,-0.2014329065,-0.462774272,-2796.5220385223,272.7240311712,0.1624117004,-7.578724139,-317.9164981073,0.3196944951,0.9168685399,-34.9008303564,-0.637302677,0.8242410712,-1919.7901561337,-325.4687833331,34.5317404882,-1.3515430581,456.4104826008,-0.4922833099,-744.036099686,-0.6877132811,467.2888715502,-0.7211401924,-558.3117417132,-4.2320884484,-4605.2997090019,-17.1985893598,1.5278644975,1.9209011951,-0.453558471,-20.8499418622,-70.5399462071,-1.5125367769,0.3516798385,7.5809340957,-10.6557971142,-4.1563996378,-0.2396191366,3.6239631796,-7.9120404177,-399.1875995303,0.2227296187,-0.0512479404,1138.0976446583,1663.3765483416,0.3839757637,72.8732455887,-0.6806629365,-4.2518352928,0.202412134,-7.4215255089,-1.0397873715,0.9277578135,-526.4471415234,-0.6790052592,-584.0517528884,-13.4731715426,-2238.5563824409,1.17459723,1.081562006,-0.4597457529,-3.5922678172,-1.1781917284,-1426.5280207232,-1808.6989839673,288.519790201,-0.1051175821,42.9806396671,279.289948532,1135.6769774033,47.3026000783,-16.1742102694,0.8185795603,5645.19515119,-8.8618297775,-21.0721185943,-0.6969733435,118.7302060334,-0.0123210025,-2.7740018266,2167.4767632434,0.1019931733,1.5240908522,-0.3522715313,914.7739735125,-3.0617226923,0.3950914802,-1353.87859165,-6083.7539317889,-10.6624515388,-0.7229426848,1.075052113,0.3460208611,0.1493523935,-0.093766761,-5.7653353325,0.055960368,17.629612835,0.9782441244,-0.2871633933,-294.1331871679,0.3390305049,-1.1969298646,0.2390626192,-6.2026225134,410.2043061575,0.843260375,-0.6586563109,-0.0844156431,-0.3014747582,-0.1924941585,-1.2699816922,0.6746504545,-287.9865738467,1.7277687146,-4.5252830832,-1.7607943262,0.9256531704,-101.4388344202,0.6842867006,0.8692796164,12.6446990943,-274.3672160483,-1.0466401437,-4.189542569,-792.5858366661,-27.4636744735,0.9008280419,0.5788270999,-5.6202423741,-0.7516907444,0.9430848277,-0.325750743,-15.749706493,0.4652198718,-3.8292537054,-30.7926550143,-1.554493818,-0.0425683883,7.9337189316,-1323.3863772392,-1.9857361791,-0.6719250897,0.3656573833,-142.600033424,2523.0576234425,59.0007836973,-0.3776296302,0.9297461937,-0.1454230023,1.2696682416,1010.5409512138,-0.6910323163,-1.5324054059,3.8975881371,-0.1710527445,359.9885770167,-2.2700079314,-0.8734208274,-0.43961265,-589.0942302561,0.525605387,0.6147750675,-2144.2476128473,-720.9713449619,8.5093549954,21.8803846426,-0.195389573,-9.2913485395,-61.9650511301,-0.512928467,94.7260762787,-50.5601208628,0.4691973603,0.465705879,-2395.9208495948,-0.2234732153,0.7703487704,8.5130073371,0.6817001765,0.6045558366,6.6939987123,1.0412910374,3.8148335725,-1.2564678848,26.8789947438,-2.2232397546,-1.0352592661,6304.9149958253,-113.2313203361,19.9745355813,0.5080993514,-0.2118761394,-0.3677028484,3.767285086,-0.4302024463,-71.0992820376,1.9321999063,-8.5549926213,1.2727739762,0.0131227875,-0.2723761204,-3.2826144345,35.6766773558,0.0381545936,2138.5564126528,-174.1254688974,35.2632192003,0.7673005656,0.5694571909,2213.8952214153,-0.2959052533,-0.9283483411,-0.8567670426,0.1622789677,56.3868060029,-79.0573565218,4.4454853643,-1.0375553346,10.1514894607,-0.0416009989,5.4774299282,-0.9172542474,1.5992040173,-2.2735095811,3.3423065027,1897.700328797,526.6623506414,-0.3063600749,0.7259691482,-16.5846656858,-0.761290027,9.0580982724,2.1194626643,-1.1839550184,-0.4210244454,-3.8330906947,0.5574126859,-10.4165579014,0.1708062735,0.7521036003,80.0958117215,0.9676990997,-0.163307231,-0.3259379774,20.8055912472,64.8435570466,1.8016526376,0.9592736533,0.1158037147,-0.0321049061,0.2890745224,-0.9822733544,-0.3364654525,28.7918825852,130.2470146353,-0.0236641977,-86.3515165247,2.3890152859,-163.5788522333,-8.6333313971,5.8953723382,0.6045767736,-0.3305789472,0.338977489,2997.6965178298,-7.8658000084,12.5921650266,0.3226850498,2.9072377617,0.8674273992,-1.1422926918,9.5272253375,2.1149472359,0.919450157,-0.1806663243,1007.1299272857,9.3512930961,-1.1961602352,3.3474678968,0.8912175005,-0.5174404531,-13.3966917861,2.1890331497,6.3151890133,1.3320635855,12984.70855153,0.882153618,24.9555716903,7628.2288395514,0.5157684815,865.4664564914,-0.3308435564,0.1776668903,0.1334237099,-0.2413838085,-0.3510308035,-7.3767271537,0.8590324321,-20.6623458792,-0.331620274,0.3197104,0.9035432828,1.886250882,2.8814089547,0.8659727367,-428.7791778438,113.7902118282,-11.7937716401,24.3478033723,-1062.4331593328,-0.0070515038,0.9484651388,0.5445529157,0.9156118205,0.7846913769,911.8097569515,145.3961571059,-13.0508544836,0.9736931785,1.2293641338,-0.4280698613,6.1391113951,-0.3239579469,3.9258928338,0.7577479796,15851.2701250171,1.0188418401,0.2029141606,-1.2842646043,0.9756673041,-11.6327761303,0.2239794608,0.3646860745,0.9594814891,6.1357934134,0.630487014,-30.0362370991,0.9953770263,-6.1483564904,-1.5001273369,-0.2659556848,-483.0118586898,54.5438667258,0.1979022282,-0.5586308577,65.1402319001,4381.1800448122,-486.9778917772,2.219035854,-0.1449855747,2.5130888776,-1.2147652457,1.8034311328,-0.4476782942,318.3504606935,-2.5372479042,-0.6735845559,-0.2969581678,0.6944868125,-0.1056666299,1.3323131865,0.5159532281,-0.4618969514,0.8797953393,-0.3717559907,-3.5586443042,0.1388006705,1633.0172336141,-0.1329614988,0.1478390785,-1.1834181576,18.196773433,-0.8698368913,-2.1047959346,0.4629901989,-63.7498425177,-1056.1580875071,1.3301615276,0.6754526594,-2.0856172663,1.1336205471,-0.2295406538,-2382.5078661973,359.2486070018,1785.8938791232,-3.5219141743,42.000165996,-13.7919682935,-0.4425131363,-1553.8554965598,-588.8853707458,-4.1467647888,0.468627378,-94.5789741676,2.4098926236,-0.7266749894,0.0625000978,4113.5246242657,-0.6265638875,332.5322677564,0.009031525,-108.1233178428,-0.4301414605,3.278908449,-1.5318935738,0.4886627181,12.1007099091,-190.0644224127,-598.8247744669,-21.1744798683,-2883.2383466053,-1625.4265820739,-0.8304703923,-1.1580490414,-1.3828258777,-1608.8578921541,-2604.5634618773,284.8112975942,-8.9793456834,-23.1305874239,38.6284063277,-9.765800993,-17.3968700123,-0.1424526167,-271.1636507533,0.3726961732,-3767.6772420442,-236.0668587296,-1.7654978747,-1075.277400042,46.1205374994,1.0034321557,0.3581896907,-3.3202486014,-0.0055509602,2.6258039388,-8.0070877962,-55.4355818287,-0.4439359799,-3251.7499550329,3.2458622494,1.0710563154,756.6561818032,-2598.1967649555,0.4070300407,-0.8764540827,-0.5941255256,-582.2684410414,-17.3122853667,4.8841275076,0.2199416292,-179.3872568042,-2.0810953353,11.5547033919,-1.2275804857,4.6129850175,-2356.8107562083,-1.2498188975,759.2296320345,-707.0370388193,604.3347685467,5.9153193892,-1.9267709788,-1.1545392862,0.1056170595,-1.1275340878,-1732.3811113776,-8652.7384454434,0.5338410718,-0.8284987446,-15.3265442443,-15.6283868268,1056.2107993802,5510.142334632,-0.2073769595,-1.226848343,1245.504033374,-185.9337137148,-92.348930181,-14.5286990966,0.1526457509,-1.2210879283,-1.4596338227,0.5964099133,-0.3051205278,-490.6917338012,-0.7911463855,0.2792107574,-1.2621358091,-2.1066294202,962.971173071,7.0307466823,-1.7154077763,0.433382609,0.2774846039,0.263658867,-0.1413960191,0.3597846804,-2396.160482553,-0.4193567761,-1.1821032074,0.0533111366,0.7973821721,0.9708377057,-0.5506179502,0.1017529885,-0.1869224267,469.3547348341,2222.9759849327,-0.5185192965,-0.4576477288,0.4428467758,189.0438823835,-0.1486702896,-3.649516981,-0.8707530942,-3.3637504987,1293.9901364109,2094.7407145579,-420.6895437273,0.3075266957,0.4709702249,-2.6947540642,18.2741320643,-0.8885061835,1.4927891819,-0.1480427612,-311.3913051757,110.2119270176,0.8323339886,-3.5364916925,-0.2620168697,-0.4671080862,0.199907397,-0.964317923,-0.2928427334,-0.3788583459,-6.8563308017,0.9776413532,-1.0723469109,246.5467670153,-0.2046825998,-0.1950967058,2752.0622664058,-1504.9234059957,-0.7839825112,-0.566313177,32.9810291347,0.8333064773,-1.3484904712,-0.8500861997,-0.5062862404,-0.064475472,-0.94702674,4.2406271718,-0.9608255211,15.7199275756,-119.1391055286,0.8251100569,-0.8373162979,-3.3164500384,1289.417988522,0.775882067,0.6196271594,-0.0996949177,0.1894877142,0.8879793533,-412.969466968,1829.5372639742,1218.2146529471,0.0912609339,-297.653656149,-1.7849402141,-212.9430206958,112.29975369,-0.5019037491,-0.1302811356,-314.4843152085,14.4060446277,-9.040652543,0.1486963455,0.0271547895,0.5993963717,-0.4114027006,-146.8050418797,-0.023548913,8.1466361146,0.9937601311,-277.4095004726,0.0252531418,0.6623472149,354.4265370529,-1.9373634569,0.2888444217,0.7474463436,3.9629082992,-0.4154965816,0.6147042113,0.7834561349,-0.0489379949,0.4227301305,795.1447109795,-0.0975067598,-0.2492800427,0.5666460672,-3.292404442,-6.9163173587,-0.573454228,-1030.0692031271,-1206.7504833604,-153.0032687529,21.9869082729,-156.7510233205,0.3636044951,0.8919003029,-3.0719025986,0.1928753475,0.7568600794,-1212.3345260523,-809.6083246395,44.6210515544,0.0906279655,0.4635715921,-0.2005525651,229.8828183164,0.3346704138,88.7761909242,3.6827245636,-21.3927208063,-131.8212582804,1.1191798554,1.1591581098,0.0692933802,-1.5798640067,0.6439253798,-9.7558984499,-1.0707891261,-0.0129225288,320.107654059,1612.5763183115,-4.8038679992,-90.8491022868,-0.4864110498,-0.0087457839,1465.5919741202,-1660.9237970052,-0.1213315517,-0.0171798687,7.2117892779,0.4700475944,5381.6770385172,-0.1538604315,0.343199086,1.0660392523,0.1038387202,-4.4601318616,-0.8721470674,7.7252170135,902.3956265586,0.3758067392,0.0310650569,-1985.7788217037,2130.2848227894,0.2454926916,-1295.7718738086,0.2002182447,0.3292232457,13.1077954589,-72.655311162,-1.2060155346,-823.512259425,-0.4804590708,-5.9990226143,218.5610632668,-1414.1435972919,29.3814629307,-1.0204638304,0.5211703927,6.128034288,2.324336444,5.0951159911,-2.7928254496,7.0298115819,0.7009378062,6.8880947957,-0.5138602792,164.9675534203,11.4337307158,-20.1905582692,306.1641124376,-0.9268761316,-8.6569001059,-1520.1508156994,1962.5209292243,-1.6161075613,-0.3609630365,0.6991473654,-3.415066328,0.1434243546,0.3961625966,-0.6435529023,0.7483803542,-24.3056022796,-1.762903956,0.8547011906,-503.8143052214,27.1482266777,5.4504495142,-4.505229595,7.2532924022,-179.4791432498,-281.3974867666,-0.0015280166,0.9719439933,-20.662465182,0.3897459053,1.025010652,-0.4510225341,10.9636193905,9.1345624055,0.2968190809,4.4678355991,-0.6667604532,-0.0247806894,1.2677777069,1712.0737449632,-0.538205363,-0.0204655401,0.5289508398,1.2287600519,14.434393731,-1582.6600563359,1.1602184686,-0.9870603931,-0.1507912902,0.9876867995,-1.8489723907,-1.4391323167,-2.280218574,-0.5519516584,3.1968035245,-0.5502667184,-6.9354485281,1.6649586868,-0.324092004,-60.7889730311,-2.1984000028,1.1071613464,0.119790701,-1.0417224024,49.7603318541,-0.5235601674,-0.8136577038,-0.191647017,1.0468453821,-0.3416234101,0.9539501092,0.5949529856,39.3685853956,-35.4474435198,0.675820344,-69.6547984955,1.2807417959,-3.7363260906,-0.5972873548,-155.0383111945,0.0076130945,1.0058423334,-4.2715526357,60.3994211025,1.5403912792,-0.71073564,-0.2392842074,-21.2680258463,0.3530428797,0.4593848736,-4.9798367272,5.8510994817,0.5417454545,372.1423235416,-1369.0432912026,2.3795784865,1.0488359781,8.4992993346,0.2450122723,-3648.2376239616,2491.1756428603,-0.0742241677,-1646.9964923165,-0.3886134438,1212.4967380605,297.4244036717,0.138790581,618.5950436264,-598.9627621107,3537.8200363102,-0.4494084319,-0.1080722656,1.5068021478,-0.4014163304,-0.5386172442,-867.7975837892,-1.247488328,-69.9274451664,-4.626854864,-8.4009076939,749.8164174138,-0.8287974842,-97.2155802568,-93.6917768454,-2356.000601179,2742.089672277,-703.4317854668,-75.3707116236,200.1903030971,-18.2786330676,-0.6768935467,-2.9685584951,0.7448735248,-0.540994369,-10.2580955716,-1.221853853,357.2370146221,-1.3162552397,0.7207767047,1.2147447478,5.4136170577,-0.6785225338,1295.4389105754,-1.0481032792,3453.5282596523,5408.8674277633,6234.2841588718,-0.2939593308,0.617100269,-503.6154332994,0.3907743843,-0.7736460908,137.9960387421,1518.2556644753,-1.2465263877,14.4263776151,404.6043090182,19.6572304977,-1.7716911096,-0.6376225427,-14.956105865,6468.2620780044,0.3524490447,0.374487688,-6.830416793,-1409.2793544129,-310.81542239,15.0271160104,0.0789246093,-524.7843655331,7.5917368468,1947.2273616933,0.4836264232,-1.4985482768,2.6596051889,-0.9308434011,166.2745635426,1761.3426016795,-1.3120828799,-0.6742449788,-2.3016585931,-0.1631653427,-0.2522493628,0.1810857282,346.0283824141,1161.7713225419,-5342.897239302,0.416917446,15.2127160845,509.7506800267,73.0805188945,-179.0463157015,-610.2996405118,0.8104958408,943.208352553,1383.7426738684,-372.4053729469,-0.6871779478,-30.7336325696,-0.6975323357,0.3100894513,1.3094631132,-372.9696837562,-459.5694047098,0.5795917548,1711.3613626054,25.5735062989,0.784557832,5514.2665690792,259.2595454642,-528.346294349,0.7268571618,-0.0614612568,0.4579753645,0.5846755343,0.0162758498,-2774.5942081655,33.6473630967,-480.3718933394,6.5024526656,-1.7872682415,0.6756080033,7.1512150718,-2.3674572294,0.6385563219,20.5503664281,-865.5648255437,1179.1064033731,-6.1350122468,21.070029295,2552.7854321141,-0.6781188436,-0.0725516723,-0.5493436151,1.7385590853,2822.3507284454,674.1421741557,-2.7414612328,0.6404853344,-0.5410090641,70.0830213422,10.4764298966,-0.7603958926,-1511.5718929996,-0.0343015238,10915.5056070183,-1.7292225813,-0.2265291087,-0.5330977247,5.327525063,-1.4429038078,-0.5174259335,2.9732409674,-0.9536603688,-2.1859865157,0.8266456158,-1.0396072778,-0.8418235602,-0.7708832008,-0.5317511523,-0.9953249026,-1739.0368477128,730.2992991742,0.4338700904,0.6388417205,-0.442142793,1643.4803679028,-0.0376601429,-2233.3347934749,0.62640546,0.6387721603,2.8965647594,-7.6901638882,0.1303966597,2868.9618923401,-1.3510123889,0.5052345966,-411.955586334,1354.338078603,-1344.9015175978,1.5221720476,9.8249068037,-0.2433941246,-0.2254885396,-40.3145444272,8.6622107822,3.508114743,1184.1784791962,-0.6596595496,184.7428463186,0.0658329826,-389.9104608195,-18.8344844905,-0.9351623738,0.0295536577,1519.0444524779,-98.1493358003,0.6215225818,204.7775373465,1.4141462665,0.575381027,-0.1073486565,0.9023163373,-174.1513908368,17.1574171348,-3785.5201699352,-569.2058809131,-1.1938939449,0.281644029,1624.0250371896,0.774011974,-0.6770940792,-0.8782655865,0.1706392969,-0.5668062646,966.7470767449
