encog,BasicNetwork,java,3.4.0,1,1669930184231
[BASIC]
[BASIC:PARAMS]
[BASIC:NETWORK]
beginTraining=0
connectionLimit=0
contextTargetOffset=0,0,0,0
contextTargetSize=0,0,0,0
endTraining=3
hasContext=f
inputCount=784
layerCounts=9,75,101,785
layerFeedCounts=9,75,100,784
layerContextCount=0,0,0,0
layerIndex=0,9,84,185
output=0,0,0,0,0,0,0,0,0,0,0,0,0,0,0,0,0,0,0,0,0,0,0,0,0,0,0,0,0,0,0,0,0,0,0,0,0,0,0,0,0,0,0,0,0,0,0,0,0,0,0,0,0,0,0,0,0,0,0,0,0,0,0,0,0,0,0,0,0,0,0,0,0,0,0,0,0,0,0,0,0,0,0,0,0,0,0,0,0,0,0,0,0,0,0,0,0,0,0,0,0,0,0,0,0,0,0,0,0,0,0,0,0,0,0,0,0,0,0,0,0,0,0,0,0,0,0,0,0,0,0,0,0,0,0,0,0,0,0,0,0,0,0,0,0,0,0,0,0,0,0,0,0,0,0,0,0,0,0,0,0,0,0,0,0,0,0,0,0,0,0,0,0,0,0,0,0,0,0,0,0,0,0,0,1,0,0,0,0,0,0,0,0,0,0,0,0,0,0,0,0,0,0,0,0,0,0,0,0,0,0,0,0,0,0,0,0,0,0,0,0,0,0,0,0,0,0,0,0,0,0,0,0,0,0,0,0,0,0,0,0,0,0,0,0,0,0,0,0,0,0,0,0,0,0,0,0,0,0,0,0,0,0,0,0,0,0,0,0,0,0,0,0,0,0,0,0,0,0,0,0,0,0,0,0,0,0,0,0,0,0,0,0,0,0,0,0,0,0,0,0,0,0,0,0,0,0,0,0,0,0,0,0,0,0,0,0,0,0,0,0,0,0,0,0,0,0,0,0,0,0,0,0,0,0,0,0,0,0,0,0,0,0,0,0,0,0,0,0,0,0,0,0,0,0,0,0,0,0,0,0,0,0,0,0,0,0,0,0,0,0,0,0,0,0,0,0,0,0,0,0,0,0,0,0,0,0,0,0,0,0,0,0,0,0,0,0,0,0,0,0,0,0,0,0,0,0,0,0,0,0,0,0,0,0,0,0,0,0,0,0,0,0,0,0,0,0,0,0,0,0,0,0,0,0,0,0,0,0,0,0,0,0,0,0,0,0,0,0,0,0,0,0,0,0,0,0,0,0,0,0,0,0,0,0,0,0,0,0,0,0,0,0,0,0,0,0,0,0,0,0,0,0,0,0,0,0,0,0,0,0,0,0,0,0,0,0,0,0,0,0,0,0,0,0,0,0,0,0,0,0,0,0,0,0,0,0,0,0,0,0,0,0,0,0,0,0,0,0,0,0,0,0,0,0,0,0,0,0,0,0,0,0,0,0,0,0,0,0,0,0,0,0,0,0,0,0,0,0,0,0,0,0,0,0,0,0,0,0,0,0,0,0,0,0,0,0,0,0,0,0,0,0,0,0,0,0,0,0,0,0,0,0,0,0,0,0,0,0,0,0,0,0,0,0,0,0,0,0,0,0,0,0,0,0,0,0,0,0,0,0,0,0,0,0,0,0,0,0,0,0,0,0,0,0,0,0,0,0,0,0,0,0,0,0,0,0,0,0,0,0,0,0,0,0,0,0,0,0,0,0,0,0,0,0,0,0,0,0,0,0,0,0,0,0,0,0,0,0,0,0,0,0,0,0,0,0,0,0,0,0,0,0,0,0,0,0,0,0,0,0,0,0,0,0,0,0,0,0,0,0,0,0,0,0,0,0,0,0,0,0,0,0,0,0,0,0,0,0,0,0,0,0,0,0,0,0,0,0,0,0,0,0,0,0,0,0,0,0,0,0,0,0,0,0,0,0,0,0,0,0,0,0,0,0,0,0,0,0,0,0,0,0,0,0,0,0,0,0,0,0,0,0,0,0,0,0,0,0,0,0,0,0,0,0,0,0,0,0,0,0,0,0,0,0,0,0,0,0,0,0,0,0,0,0,0,0,0,0,0,0,0,0,0,0,0,0,0,0,0,0,0,0,0,0,0,0,0,0,0,0,0,0,0,0,0,0,0,0,0,0,0,0,0,0,0,0,0,0,0,0,0,0,0,0,0,0,0,0,0,0,0,0,0,0,0,0,0,0,0,0,0,0,0,0,0,0,0,0,0,0,0,0,0,0,0,0,0,0,0,0,0,0,0,0,0,0,0,0,0,0,0,0,0,0,0,0,0,0,0,0,0,0,0,0,0,0,0,0,0,0,0,0,0,0,0,0,0,0,0,0,0,0,0,0,0,0,0,0,0,0,0,0,0,0,0,0,0,0,0,0,0,0,0,0,0,0,0,0,1
outputCount=9
weightIndex=0,675,8250,86750
weights=##0
##double#86750
   0.3470648379,0.6173749184,0.6374788161,0.2007062577,-0.4822269317,0.7597436015,-1.0197073215,-0.3175198415,-0.3217706316,-0.9750549241,-0.7038291373,-0.0961801439,-0.8461982619,0.8773466927,-0.8573953534,-0.3165834302,0.2620859807,0.6577943269,0.8716400423,-0.868943906,-0.5272090022,-0.4924870787,0.3583377939,-0.840347889,0.2602307262,-0.2451414174,0.2671121189,0.5176945838,-0.5236813702,0.7598984907,0.1600180758,-0.7632224747,-0.658839107,0.3185064743,0.5165796186,-0.7668336641,-0.6268901991,-0.5994079679,0.5041033971,-0.755864188,0.144428219,-0.9708455624,-0.5761666037,-0.3277442809,-0.5523850956,0.8894157143,0.3057597249,-0.7329893807,-0.1508001602,0.5976273846,-0.9531796432,-0.180892081,-0.9328377902,-0.637507067,-0.0961706423,0.0972609147,-0.3596187981,0.494386011,-0.0847950077,0.5830178164,0.3731985291,-0.1120188559,-1.0065822403,-0.3429093654,0.3984109466,-0.0940029557,-0.1064012403,0.7109659587,-0.3789956067,0.3551453027,0.8585081854,0.8095875953,0.7037099816,0.4135482849,0.5520967828,-0.3014465235,0.1516439301,0.8512908581,0.1443309407,-0.1915546368,-0.8878521179,0.162470451,0.9094862186,-0.9611923068,-0.2002049253,-0.3461883617,-0.5242485159,-0.9196422114,0.6692606154,-0.8094719378,-0.4645794555,-0.5809226213,0.2107670838,0.4138344652,0.5919786268,0.2983980871,0.4287126535,-0.8728516555,0.1286910282,0.7280963694,0.3822783621,-0.003240509,-0.0151585351,-0.3338459895,0.1457080568,-0.946075641,-0.4649802868,-0.786204771,-0.540657088,-0.0813738847,0.0591506686,-0.500962685,0.8190505465,0.5412696364,0.7652190972,-0.8201985263,-0.6594381282,-0.6526519089,0.6397298351,-0.5874858769,-0.7871884742,0.0877850162,-0.2824231448,0.8074814427,-0.0616525954,-0.6197182329,-0.6893538137,-0.4266290307,-0.7915544201,0.4178011699,-0.3547132206,0.5181227223,0.4983839715,-0.9908562953,0.5534190999,-0.3658598186,0.1646116652,0.1607629045,0.4548417833,-0.1659821347,-0.2564425806,0.7505771925,-0.7313618303,-0.6036561929,0.1660871939,0.4311040189,-0.0161804063,0.8718500859,-0.593850672,-0.756934364,0.2824943044,0.6905311668,-0.0073147935,-0.7780410233,-0.6178547183,0.1519050635,-0.59848365,-0.5617673088,0.2991507203,0.1014087922,-0.1273187984,0.6319473763,-0.6023142498,0.3749780274,-0.937736753,-1.0330708077,0.0167832036,0.3165289053,-0.40617306,-1.1955341624,-0.2554473443,0.0689696591,-0.2622965109,-0.479110337,-0.6023669019,0.1397643754,-0.2250594433,-3.0269634643,0.5147399529,-0.420286343,0.1191719229,0.5975889027,-1.3616737591,-0.6572670055,0.4506266419,-0.4989559213,-0.6020628213,0.4863019269,-0.3454764381,0.4218951755,0.615199397,-1.0068437752,-0.9658434989,0.0293465727,0.4162001025,-0.2664131362,-0.3630461902,-0.0695739899,-1.1207389925,-0.6173754007,-0.1024253795,0.6465634938,-0.2251202338,-0.2303574303,-0.1458394369,-1.1895767436,0.7149968148,-0.3549343206,0.5463387637,-0.6036391115,-1.0504538783,-0.8021339321,-0.5881732717,-0.118367034,0.6126169911,0.3537269824,-0.2067155259,-0.1019493578,0.7358783297,0.4462601271,0.3827210802,0.2516378498,-0.1743067986,0.6602965039,-0.8337685575,-0.9046196181,-0.7381934241,-1.0742249438,-0.3742678861,-0.6261438418,-0.1397927016,-0.3176984534,0.634236442,-0.6258390093,-0.3560112765,-0.6726802553,-0.1462136564,-0.8384920019,-0.2566799871,-1.0577550468,-0.5561171085,0.433546785,-0.3030073808,0.8941605924,0.2573392413,-0.8648571333,-0.7497071732,0.591550033,-1.0227428232,-0.4201922147,-0.9185246797,0.1794044696,-0.6936508048,-0.2879799812,-0.0952069784,-0.9898434943,0.7486986279,0.7973403312,0.392104412,-0.3853459117,0.3516917939,0.8549708084,-0.4806714413,0.0348096748,0.4701582402,0.3068126514,0.8691838995,0.0919816713,-0.0218428537,-0.0456007434,-0.8315737518,-0.3976796895,0.6985162342,-0.086365343,-0.0298636006,0.0679147114,-0.6772188171,-0.6922778662,0.5283557512,-0.5626823571,-0.0805618204,-0.225307124,-0.4489213214,-0.9938815311,-0.2776771203,0.5198739753,-0.6269517406,0.4265419299,0.3851523509,-0.2614026257,-0.4562578832,0.8461477278,0.5582343945,0.7838721647,-0.1415356833,0.3925818951,-0.3243777814,-0.4771361406,-0.1594221353,-0.6987753923,0.0145509839,-0.4953865824,0.1535890439,-0.4745559412,-0.0364961995,0.3339604211,-0.0952495585,-0.3814068029,-0.6622322531,1.0143193948,0.9225477688,-0.523516881,0.3493672796,-0.6513942766,0.1542436623,-0.1331422322,-0.6290310548,1.0781693086,-0.2953279469,0.9583986911,0.4778028853,-0.6033619658,-0.3884568551,1.2279396493,0.9839681385,-0.4740051258,0.2498724976,0.1799750813,0.0939070607,0.0419503405,0.8406094174,-0.6992114167,0.2423334496,0.8445316351,0.8054024543,0.7085047982,1.2435865211,-0.4839411448,-0.0787806792,0.11228029,-0.5224111713,-0.4418064854,-0.0552088672,-0.2208131868,-0.5048994303,0.3878113272,0.212953839,-0.1794487911,-0.0856330123,1.1328205295,0.0700449197,-0.0328326041,1.0673722765,-0.5175794706,-0.3241420615,-0.3320692699,0.9669420037,0.3021210757,0.6889960506,0.5688642504,-0.0783087468,0.6444783079,-0.4622520344,0.3437419188,0.5423000904,0.4325437312,0.2948162218,0.2101836922,0.5941241058,0.6923029459,0.48098061,0.2687953733,0.5211245015,0.2514290153,0.9444438033,0.1887473743,-0.0200733208,-1.0419240072,-0.2207603763,-0.7472879702,-0.5397240343,0.7073566355,-0.211520904,-0.5761521609,0.0821388567,-0.1653065027,0.3281910396,0.4976256494,0.6049510824,1.4929085757,-0.9135356959,-0.7099426249,0.4931708238,-0.5743619451,0.3241380649,0.8743756133,-0.5599728775,-0.7547166603,-0.4767252354,0.0359234282,-0.1536161312,0.635873384,-0.7085430458,0.9337314838,-0.7152326653,0.0156060582,-0.661942301,0.9300125171,-0.3491087327,0.6935027105,0.191168038,-0.8827471998,0.8489330634,0.8072363017,0.8430638403,-0.3110197251,0.1248671698,0.346857936,0.7622480582,0.7871210644,0.6655162131,-0.7626887168,0.5811729877,-0.2908171493,-0.7778825851,-0.0113882188,-0.4756268768,0.8135236385,0.3081246137,-0.4588785398,0.7543754641,-0.1423695363,-0.4239219979,0.3094979336,0.418267727,-0.5298851724,-0.242918336,-0.1489612313,0.7872122043,-0.4118461748,-0.1571509018,0.9615893326,-0.863573809,-0.3585882798,0.2345890309,-0.5667900183,0.0133498285,-0.2851161457,-0.6389376496,0.2953399722,0.7450082402,0.5860198104,-0.0943053244,-0.7880029836,-0.3883456093,-0.3023845185,-0.6527003104,0.8131945503,-0.6403202123,0.0085051043,0.1365899322,0.1638418413,-0.2824210287,-0.2857354358,-0.3096773946,0.4234998735,0.1382835392,0.3721092499,-0.9011003856,0.2998254975,0.7036721,0.1648708845,0.1734740806,-0.6473758754,-0.2841514257,-0.5921012703,-0.1266371704,-0.3042426792,0.3620759025,-1.0173477446,0.1974542338,0.3473294898,-0.9126863188,0.6045253365,0.2620106543,0.2964448253,-0.6347489809,-0.6748678103,-0.793603687,0.3767851257,0.4706385667,0.6955817861,0.3575173217,0.5555340594,-0.8798502099,-0.071843542,-0.2686054015,-0.6201554357,0.6900323689,-0.3792885359,-0.255998157,-0.0063199997,0.3231697497,-1.0128116244,-0.4559447605,0.9525364156,-0.8643859934,0.0520682772,0.8945423649,-0.3908949738,-0.6522179947,0.4878711552,0.8195879449,-0.6091470404,0.3150272216,0.5397308698,-0.7637229993,0.1243956555,0.176426724,-0.6004789385,0.2885460327,0.3133435791,0.1549991689,-0.5849533233,-0.6421645752,0.2057224119,-0.0919822989,0.8562912343,-0.6474202603,-0.3774761973,0.5164504117,-0.7189368001,-0.589724064,0.9135372885,-0.6468198568,0.7248301926,0.0372783311,0.0160112776,0.9242124802,-0.0993772163,-0.8767091389,0.7822276614,-0.9947029381,0.555598173,0.4462354654,-0.9532239664,0.7158481801,0.6580741214,0.7396901407,-0.8992400622,0.1891520558,0.615311957,0.6539275492,0.1195298371,0.064920865,-0.3572395026,0.0764797695,0.7821428036,0.2764647967,0.526768216,0.2678244286,0.3469045499,-0.2507559713,-0.5757178871,-0.1338073281,-0.2219665013,0.8143400993,0.56956715,0.3542068969,-0.4925749033,-0.728830927,-0.1019320247,-0.1633080581,0.6979920126,0.5468805895,-0.0298866731,-0.563698959,-0.3347311178,0.2708784367,0.0753777963,0.692467193,0.0595138923,-0.6398092961,0.5441787619,0.3357027286,0.1914856797,0.8234034338,-0.8639820127,0.1991462442,-0.0221874136,-0.3252806225,-0.2330315567,-0.2742963875,-0.975286748,0.4645778915,-0.3190143039,-0.172314858,-0.668174606,-0.6418485338,0.4915266667,0.226284332,0.3303089284,-0.7296535755,-0.721308063,0.5116566166,0.0564689427,0.0226949484,0.7565518807,0.658966585,0.2381837231,-0.2217360292,0.3120027142,0.6001905142,0.6715458467,-0.6404230329,0.615053707,0.4644442865,0.2152217044,0.8033042291,0.2028431894,-0.7860067495,0.1361429074,-0.2627940331,-0.3498595691,-0.9658709687,0.2210153388,0.2679578324,-0.4301201503,0.0108109723,-0.5656117202,0.3547386544,-0.0875064359,-0.5968785623,0.1465183935,-0.4787301088,-0.6920852069,0.0942907259,0.7660221116,-0.1701595397,-0.9405948918,0.8017868847,0.5875715222,0.0474230168,-0.7005658406,0.5391821655,0.112026337,0.09836103,0.4425754166,0.450894736,0.5823446476,-0.9812002114,-1.0551766115,0.8210187809,-0.2118808887,-0.3271159341,-0.3994976923,0.1685227215,-0.447069446,-0.7696747509,-0.5065569057,0.4306886891,0.088657756,-0.2959338981,0.622837764,-1.1021958391,0.0368513708,0.1822172519,0.3365882296,-0.7541916524,0.1609852157,0.5134219198,0.4740880833,0.8243605929,0.4933804001,0.679412368,-0.1227860507,0.6322005067,0.5006504373,-0.8762241834,-0.4396426699,0.6154625246,0.4309769642,0.0847743866,0.0209747723,-0.173767471,-0.7955812099,-0.2652000978,0.9510153763,-0.2027071573,0.227283862,-0.372631534,-0.1496079061,0.5608824797,0.9176882094,-0.252878328,-0.2436841933,-0.681159434,0.8302278641,-0.3210569262,0.5414806419,0.8443323305,0.6707313025,4.6222959546,0.8987087859,-0.1276101953,-0.263660212,0.5103643551,0.2531199365,0.2144526612,-0.129153843,0.619621895,0.0558710658,-0.2592694353,0.3813933392,0.614380707,0.8970531747,-0.5863482038,0.4403516685,-0.0923883948,0.6065259938,-0.6193739516,0.3439140424,0.9739506834,0.5047829828,-0.7586344194,-0.8530560307,1.1503525002,0.8932257124,0.9381686331,-0.1082746452,0.004227731,-0.3501439722,0.7400324503,1.5856517466,1.0117974634,-0.3428027754,-0.5490858138,1.2406608482,-1.3683737715,0.3909512386,0.1360517508,-0.6978816816,0.8883597104,-0.0669290471,-0.0894127704,-0.5155632215,-0.7918699173,-0.8019844714,0.6357727608,0.5764823432,-0.5460758949,0.4969345014,0.0436611102,1.047615743,-0.4993862281,-0.0773398399,0.7918385691,0.312882452,0.9251233808,-0.3861600875,-0.1684767714,0.5635267637,0.5866070283,0.6699041144,-0.0492512052,-0.9411894638,-0.3189953039,0.3344498184,0.3606526249,-0.1827305875,-0.4490649987,-0.1594110061,0.3295165627,-0.5104560407,0.3559624879,-0.0483102888,0.613182695,-0.1263176028,-0.2761992679,0.0435421318,-0.5078108902,0.0606382017,0.9850209128,0.7600434602,-0.1630324884,-0.2024663546,0.82050811,0.8571676372,0.2486288375,0.0692493187,-0.6368392352,0.6966733983,-0.2786642295,-0.8806172448,1.1896811706,-0.6893628953,-0.0059570235,0.4635364373,-0.3378161951,-0.5229833507,0.9635129776,-0.8494807066,-0.8060020626,15.8035211496,0.6015321216,-0.2277720745,-0.4696971505,0.6975826986,-0.007274875,0.7940177084,-0.4878900563,0.1483761857,-0.5763650789,-0.3658701188,-0.2092521217,0.5214850242,-0.9988327631,-0.1874182803,-0.0499976817,-0.036042487,-0.4295575039,0.3484251091,-0.4449514698,0.1512468403,0.0149941127,-0.0355660591,-0.5739555248,0.6005707986,0.536847561,0.8354550597,-0.051143453,-0.2605759701,0.4351018047,0.09408835,0.5316442781,0.392276326,-0.689589067,0.0746189749,0.6081752746,0.4024828646,-0.3765252468,0.3291003462,-0.2220270791,-0.4339503306,0.8539618491,0.3147717335,-0.2206025586,0.8131236478,0.6883745217,-0.7127885047,0.0525821684,0.5101760784,0.0629903796,-0.0664727118,0.7798999667,-0.7638847971,0.7656401217,0.2057433154,-0.9003629039,-0.8924077987,0.8745024331,-0.9662908698,0.735631528,0.6024129897,-0.5958849945,0.2475317944,-0.3920681565,-0.5966127851,0.7066667469,0.991095113,0.1110484493,0.6446181358,0.5978292949,-0.8082704128,-0.5161060942,0.3025009205,0.7433534813,-0.4358953372,-0.9848919215,-0.7837895956,-0.4561546768,0.4128472927,-0.0972706253,0.678001936,0.450401338,0.3010890189,0.8974354711,-0.3630053937,0.7264924731,0.2460751321,0.5582019608,0.9298328856,-0.673719318,0.6601198932,0.8554773096,-0.5134144339,0.9493702386,-0.2560887476,-0.7382034555,-0.7487036393,-0.0993263691,-0.0892092133,-0.6098475309,0.7879824587,0.2195381319,0.1895095039,0.0734951503,-0.1388919081,-0.2820670896,0.3205323141,0.2765075451,0.0422911697,-1.4935997079,-1.8415792372,-0.6433114148,-0.7213708949,-0.2560755102,-1.3417352803,-0.0102930941,-0.9295338194,-0.6940221559,-0.4058653979,-0.2266095995,-0.7378537341,-0.7714649931,0.3325576816,0.3551337663,-2.0295209995,0.7997240668,0.3433906831,-0.9542144534,0.3913614697,0.2300435538,-0.4513773194,0.3725958334,-0.282165443,-0.8464410746,-0.4267534429,-0.0215317616,-0.1933153783,-2.0785591478,-0.3351203492,-0.4842628441,-0.284105508,-0.1231865331,-0.3805974532,0.4447513942,0.1410785612,-0.7111395785,0.4596991994,-1.0611850694,0.2593350883,-0.0913429262,-0.6082189788,-0.5187027176,0.0375701763,0.2249647137,-1.1973908003,-0.7326617795,0.6320566842,-0.1326586795,-0.3205976736,0.7594165588,0.0340697528,-0.1099096675,0.3814980726,-0.5998680765,-0.4798767975,0.6638819177,-1.0534612433,-0.5541389443,-0.5134483683,0.7230745039,0.4003831065,-0.3606942351,-0.3918842615,-0.1310545988,-0.3246262313,1.0091543528,3.224022486,-0.2662921141,0.3800298962,1.0364322604,-0.5160712788,0.4464353557,0.1575783416,0.7588427232,72.6523521419,0.3758367993,-0.833548464,0.3302662928,-0.3866651954,-0.7840877147,0.0082938465,2.252802051,1.7681069767,-1.0155554473,-0.2100817435,5.4403543078,0.4641304627,1.0856526619,-0.3656449918,1.9334061293,-0.1728959483,1.0694966996,14.0552172714,6.6187569644,-0.6547393714,-0.4020535297,3.6750529557,1.9083363519,2.444017229,-0.4418682918,-1.2954683792,0.5318758054,-5.1429447813,-0.1744563462,-6.2812163521,0.4536652135,0.0576436757,-0.7704273008,1.4298917503,0.2389527614,-0.4555686603,14.3855697628,-0.0072934586,1.9040662154,0.2154158385,-0.7145616825,-0.5456320882,1.5116453692,3.5521027474,0.0756928123,1.1446951119,0.3596719758,-0.3510427955,0.0034172217,-0.1571617969,-0.1552262743,0.9847793003,-3.5531241016,-1.0042091838,0.5905193434,-0.0260342503,0.1791673436,0.9033107718,0.7570547564,-0.1786993173,-1.7828100904,0.7545076618,0.9840691636,0.2441938631,0.4933209343,17.4855184039,-0.6777019907,1.5505514019,0.1660779161,0.8164641904,0.8602115675,-1.0371903425,2.2906899352,17.8693074288,-0.5662483602,1.0695797814,0.6164125992,85.4222012092,-0.5271204161,0.3727500248,-0.7507586206,4.3904750171,0.0013731904,6.8221122845,0.1496140902,0.3020026664,0.7295497877,7.9827827508,0.5522917313,-5.3684524193,-0.4023819278,-0.1669282715,0.864260972,-3.9879582099,-0.8223782193,-0.0091652518,0.1020471565,-0.143070671,0.9945123141,0.6997190678,2.2997163704,-0.6112662128,0.7101085189,-0.1230591436,-0.1592303721,0.3047678198,0.5760468047,1.2264155063,0.7554470224,-1.1420193511,0.4921031712,1.0332748152,-0.5455025711,0.7126758443,0.7262774706,-0.3745555913,-0.6685882878,-1.0308344141,7.1573612747,0.5916679873,-0.8662233795,-0.9808220383,0.8538940715,0.5737273502,-4.0725094727,0.2629962688,-1.5423872789,0.3619769944,-0.9918096605,0.8419495493,-0.5495417939,-1.0057864341,-0.47454768,-0.512063126,-0.5649925166,0.2166330814,0.6998520468,0.1490810535,-0.4050500553,-0.1929818576,-0.9816850863,-5.9362165375,1.6556870251,1.2549149644,0.6533437095,-0.7490087622,0.2897827155,0.0573747493,-0.3609395404,0.8365527781,-0.9677310495,-0.8135124766,0.6930625711,1.0671313846,-0.4647006971,0.641673608,-0.8055760057,0.5607189218,0.8697435249,-0.9368660045,-0.6777121505,-1.0734519168,-0.9007044883,-0.5468503656,1.1442555719,-0.8610859909,0.2443982017,-0.6306258652,-0.0607431056,0.4042045453,-6.2337184095,-0.6156169275,-0.7805223654,-0.7515385454,-0.5938696389,0.2323001112,0.7479496524,0.8482354346,-0.9773811871,0.3117646214,-0.7077307988,0.7530520202,0.1935117625,0.88278934,0.5922762585,-0.7801691892,-0.8569974034,-0.06164862,0.2426536283,-1.0094174629,-1.3887415043,0.1835365509,0.6996262269,0.2850516331,-0.8826919112,-0.5965257101,-0.5435846736,-1.1130985725,-0.485340762,-0.6705844932,-1.0968210922,-0.0512449585,-0.4898332311,-0.4695399652,-2.2198451013,-0.7810081376,0.6120981919,0.1768165565,-0.2993595372,0.4056136892,-1.4364595937,0.6551351888,0.3222351013,-1.0612528692,-0.9303134892,0.8147967442,-0.6774736466,-0.2859194738,0.3403366963,0.0263173184,-1.0439789696,0.0994613684,-0.9288019698,0.6880983368,-0.7264202445,0.7894635165,-0.6370844578,-1.2128974292,-0.8140279049,-1.4910698509,-1.0807165338,-0.1479843656,-0.0152534807,-0.405791401,0.0736016231,-0.9140560123,-0.5387347688,-0.4630656807,0.3512735826,-0.7286601619,0.4382494451,0.0844265068,-0.1678779235,-1.0887159488,-0.4479039621,-0.1147047821,-0.0618222867,-0.6146663227,-0.4195056237,0.1452694742,0.9033092893,0.3444907172,0.5695835478,0.3211949329,-0.473178518,-0.6123006819,-1.1279550214,-0.4807379672,1.4412235204,-0.7794325181,-1.1892829055,-0.2491210971,-0.8260459329,-1.0946134944,0.0933482093,0.2386572964,0.2700630399,0.2325195668,6.7387275768,-1.0593845684,-1.0246148124,0.5924981556,0.1079150023,-0.5601308112,-0.0393538275,0.7998571133,-0.6908569117,-1.0417835118,-0.0863997042,-2.5084993354,0.6915701033,0.0991947305,0.14194459,0.3973275774,-0.5453325785,0.373657544,-0.444845458,-0.4197419256,-0.5698998629,-0.8041302154,-0.9908592111,-1.0566967481,-0.6804766282,-0.339381463,1.5759606618,-0.374211522,-0.2249630929,0.3039843714,-0.861524033,0.3646554054,-0.4096144072,1.4052942147,-0.0388727074,0.9480683749,-0.3214379914,-3.8278636239,-0.8660704811,0.0533038427,0.8038677002,0.4369036353,0.3939406414,0.4408783402,0.5105393938,0.8923717786,-0.4109577839,0.5686869961,-0.5955190251,-0.087671442,0.6994426791,0.0729081439,-2.9802987312,0.7932453833,-0.7024462229,-0.0665943998,-0.5723059602,0.8628843641,0.3206562128,-0.1766830466,-0.8733572618,-0.7508255532,-0.8005439142,0.3000387234,-0.9361084701,0.2059822258,-0.6296379931,0.384839619,0.5773865243,-0.5264074242,-0.5912918056,1.4097208168,0.1600541701,-0.6441771725,0.7390177957,-3.3558582477,1.5078047564,-0.2281347192,-0.3002841707,0.6435170399,-0.7903502645,-0.4318900827,0.1635918857,0.0430526971,-0.9199341447,-0.3006888651,-0.5611926154,19.0015098305,0.4749685267,-0.5537011208,-0.5003546114,-1.1043826848,-1.0819556529,-0.0846872024,-0.9680672205,-0.4833682415,-0.7123733363,0.5782166782,-0.5054747014,0.6900749878,0.2206218942,0.216325189,-0.4773934058,0.6457626031,-0.1160793251,0.8240722649,-0.6368772093,0.0047771427,-0.9888661305,-0.6733910572,0.5771040171,0.5189386158,-0.3147848683,-0.9089670394,-1.0016250864,0.7836980032,-0.8786433518,0.110404849,-0.2365456733,-0.2417416195,-0.5245861481,1.3616611382,1.3721684748,0.6288950536,-3.287934297,0.4448178939,-0.5458483595,-0.4974802287,-1.6411688124,-0.7736131055,-0.7814398482,0.1175400583,0.713652503,0.1988755288,0.3939081243,0.3548740979,-0.0790887525,-0.5150431542,-0.2612336509,-0.5479074634,0.7245656637,0.814574502,0.285435265,0.4163917705,0.8655232113,0.4373204004,-0.3613023307,-0.7748253565,-0.2631302635,0.1821779509,0.6261404637,-0.4505304091,0.5473928129,-0.1135153079,-1.0146116065,-0.2426993857,-0.4882610864,0.6643756137,-2.3924005427,0.8445060593,0.2547607703,1.5473808234,-0.1743035149,-0.9257164476,0.2252600872,-0.4612157371,0.7021663052,1.1095994311,1.1485967631,0.8346285889,0.2171086955,0.7426142385,-0.2958401479,0.0897870113,0.237241216,0.648845104,0.8466463349,-0.1645831715,-0.1289797266,0.7099009777,0.4697956023,-0.4640402645,-0.3189913017,1.3300850329,0.3021793096,-0.4611691356,-0.0636233482,-0.4060879786,-0.7092750295,-0.7414459634,0.6280585221,-0.0917089071,-0.3824247615,-0.238687017,0.569478532,0.415386957,-0.2172218631,0.799217505,-0.1618730113,0.5759593056,-0.9265198269,-0.4433415815,-0.0479609187,-0.2517444718,0.9608660561,1.2308742755,0.81596904,-0.0466434588,-0.7113491128,-0.7813827426,-0.3441251482,-0.5010659813,0.9513968633,1.0684312248,0.2779545243,0.0739389544,-0.2111204499,-0.8481796493,-0.7349707038,-0.5182839654,0.2982702147,-0.0995922426,0.3570509971,-2.0931476787,-0.5105578452,0.8341566034,-0.9396515471,0.2992330805,-0.9824477989,0.4379005798,0.5760146752,0.9487809735,0.185078631,-0.6348256835,0.2209571962,-0.9600136168,0.9764594122,0.0550897922,-0.1300876298,-0.878107169,0.6224499281,0.7106616513,-0.1309064346,0.5761819953,-0.0942200581,-0.545815514,1.2910222072,0.2153089819,0.3912227611,0.7878382766,0.900525686,0.0570686383,0.8356916631,0.2124182671,15.4400664715,0.7581218936,0.548207824,0.7652747703,0.4002242787,-0.4928018382,-1.74456834,0.8980912263,-0.9417461586,-0.5981627007,0.4061834517,0.1045660784,-8.0716532153,0.229765353,0.8436362926,-0.609791399,-0.2485305664,-0.1284556816,0.6884205638,0.5027410643,-0.287939393,0.0206635524,-0.6889410902,-1.2804641667,0.4052752117,-0.9171509151,0.2259650449,0.5689702488,0.7930329499,0.1751750072,0.6019402305,0.5314859298,0.6638417175,-0.735122269,-0.1964223984,0.7945378595,-0.03824273,-0.4522482989,1.0402840555,-0.0394842907,-0.7555009452,0.7648410837,-0.3220757758,-0.7490201306,0.1257527747,-0.9121939521,0.0571672401,-0.3115002412,-0.8955882921,0.211190544,0.630761619,-0.4129553894,-0.6447055046,0.7257568742,0.8847697039,0.2601365916,1.2163884549,-0.8821992773,-0.7684901924,-0.2020985243,-0.0618727235,0.9223385816,0.2380368544,0.2840471275,1.0420537343,0.7723537382,0.1193974554,0.0768177789,0.373055076,0.0715029966,-0.8648767831,0.5548704077,-0.0501229807,-0.8662952711,0.7779009034,-1.5930678005,0.5607251016,1.2077465624,0.573234387,-0.3940906381,-2.7714674373,0.2122194523,0.6304801817,-2.4406078666,0.2898604292,0.5121096839,-1.2077759859,0.7518137987,-0.8589438902,-0.6369221394,-0.0371867177,-0.088382881,0.8020189644,-0.1615123698,-1.8269106414,-0.4593815589,-0.9865387362,-0.607788654,-0.0011323855,-0.6288391629,-0.4562408748,-42.8673519239,-0.1136603072,-0.200767624,-0.6065389949,-0.0945309217,-1.0125095464,-0.2966432532,0.1342857527,-1.0404812444,0.2020790604,0.7079286831,0.4557436807,-1.7088932648,-0.2627605244,-0.7245840733,-0.9986136599,0.3280418772,-0.2770046045,-0.5235641597,0.403795352,-0.6033261236,-1.2174931737,0.0015986003,-0.9813462322,-0.7883571793,0.5587798664,-0.6862006189,-0.8877591753,-0.4588532046,-0.7426825887,0.1851432852,-1.0500154638,-0.8144918213,0.3767748929,-0.4542536905,-0.1292324656,-0.4610608155,-0.0594707948,0.0632065692,0.1230378583,0.7467953043,-0.4351642526,0.0497580793,-0.1792587685,-0.3209309978,0.6645262465,0.2298845372,0.2120289235,-2.3346307154,0.0284794321,-0.9018214733,-0.5889305698,-5.2871519175,-0.8565485223,-0.8886915737,-14.6742877902,-5.1708110825,-0.8626536788,-0.5067608937,0.1200352491,2.5338783506,0.2447014426,0.3694230112,-0.2388254776,-0.8720089657,0.0877861674,-0.5721434891,0.9315660248,-0.7241896968,1.4046842636,-0.298351851,-0.6155140182,-0.1973294228,0.7871335046,-0.325509884,-0.6275861167,0.0290836561,0.3263581343,0.2518974091,-1.036715532,0.1754179374,0.0183063878,-0.3987001765,-2.2460696504,0.1332563786,0.3829534693,-0.2063201488,-0.6449708196,-0.2265781936,0.7502334965,0.619320929,-4.4346278489,0.3999791084,-0.3072635503,-2.135974887,-0.4190159803,-0.2020821153,-0.7444257371,0.7535018274,-0.5033356275,-0.6007102902,1.0179682866,-1.2854112858,-0.1168887005,-1.002563681,-0.5454442447,1.7176960244,0.1049291783,-0.5571945474,0.1104418967,0.7093375832,-1.2368597536,-1.5794047204,-1.7377375805,-0.8202236516,0.7089655812,0.0625549808,0.1837479974,0.54279335,-0.1848538149,-0.2283865009,0.4155113061,-0.9434513499,-0.9074826882,0.1885651121,-0.7318349736,0.0064150936,0.8272362009,0.2289396357,-0.0341399674,0.5684946977,-0.5786653184,-0.9164928861,-0.3471598563,-0.5623689465,0.5815552421,0.4617981749,-1.2830517383,0.5499817056,-0.2250838012,0.8343400382,-0.3612474764,0.5585769131,-0.061426044,0.202710054,0.6275643224,-0.7908325233,-0.2905294544,-0.5247621211,-1.2872807751,0.714117575,0.5834473474,-0.2186357439,-0.8671019138,-1.1091570347,-0.7416657947,-43.2512253357,-1.0547057143,-0.1759044653,0.3651740837,0.2397533207,-13.3147926874,0.8381003902,0.8968409019,0.6610556263,-0.5279716788,-0.946339701,-6.0365711039,-0.8590551622,0.2313188362,0.7820285742,-3.8702272553,-0.2821927427,-0.0336061755,0.4842544039,0.7010440084,-0.6899661105,0.1581798126,-0.2959176697,-0.5193093549,-1.062220601,0.7239813293,0.324034203,-1.0118052749,0.4595248231,-0.3136680968,-0.6932187715,-0.2998245183,0.6647059313,0.5812608237,-1.0059955846,0.5805109709,-0.9227409444,0.9454841902,0.9451388343,-0.018658138,0.8689905185,-0.6766901416,-0.3135365293,0.4243220967,-0.5636584897,-0.6062885645,-0.8390215329,-0.0930018179,0.6738868234,-0.5401085788,0.9811539125,0.0008207512,0.6131419881,0.7910847904,0.918272944,-0.0673349381,-0.4490644223,-0.8376789138,1.0027198412,-0.6209249704,-0.2926095522,-1.1209463998,-1.2701308937,0.4970721923,0.1178828238,0.3104484668,-0.597141583,-0.3045949361,-0.7245325315,0.578262188,1.1829844765,0.131032361,0.9011946746,0.4554649724,-0.0265227299,0.875580198,-0.692495667,-0.6487920652,0.0367825872,0.7476391643,0.1312379921,-0.04204518,0.935367552,-0.029770111,-0.7611272326,-0.3077938835,0.0034164347,0.4800544407,0.3834245612,0.9221818403,-0.9478510731,0.2833592777,-0.6526889717,0.0257767048,-0.899164455,-0.9242836604,1.007523919,0.2953384907,0.4727708087,-0.503133012,0.0390540678,-0.6495284083,0.4585949308,0.3634288904,0.2660463263,0.021785614,-0.4051985321,0.3575943751,-0.4122944619,-0.5755078023,-0.0966610566,-0.6843990382,-0.583141123,0.627857574,-0.6131937141,-0.0303715054,0.4454894468,-0.2402643637,0.9670972534,0.0902918113,-0.7496639113,0.919215922,-2.3797415533,0.3439894374,-0.2771534602,-0.1147264426,-0.7563652888,0.487368762,-0.828168944,0.4570435898,-0.1431879782,-0.7408247377,-5.8465051128,0.3980076313,-0.6857675402,0.632728246,0.1642751334,1.9104777252,-1.3100988914,-0.5295036604,-1.1620034176,0.4619282981,0.6935054728,0.3153995471,-0.1561346653,-0.1528697265,-0.9323343025,-6.5251778889,1.1991295574,0.0618110258,1.1711932409,0.1107411752,1.1179137888,-0.7810836385,0.0896565742,-0.7707504999,0.5919441595,2.1592320535,-0.4731925106,10.9653626226,0.0591847052,0.8050222674,-2.2432730679,0.7574802729,-1.4352732381,-0.5616330186,0.4590986236,0.8754840424,-0.0824830877,0.5269926866,-2.3211137178,0.7022440683,0.355459101,0.2752795542,-0.7527510281,-0.5895932128,0.5035729712,-0.6413917538,-0.6007576755,-0.8652852226,-0.4021405597,0.5700572009,3.2457515514,-5.4487699444,-2.7474539938,0.5430063428,0.597993365,0.4374684215,-0.8757244272,0.0880260225,-2.9567609556,-0.6263196447,0.1296210258,0.5228517091,-1.4914282593,0.1030943136,0.3137805936,0.4276470709,0.2492614818,-5.456972322,-0.2479172845,0.1654807178,-15.7278564343,-0.3980086938,-0.3533757365,0.2440375308,0.1601222605,-1.3003469855,-0.3501031393,-0.949100538,-0.3996767099,0.5968127907,-0.1583538281,-0.8885394648,0.2193606121,0.8731030412,0.9820997544,1.0452839892,-0.0147744814,-19.0336232819,0.1174079106,0.6021231812,13.6589217519,1.0087768719,-0.2174955142,-0.1653166723,-1.8101901545,1.2719468464,0.2581573051,-0.8888284886,2.7932680587,1.2945062923,0.323597584,-0.1995456466,-0.2108542314,-0.2816422673,-2.9346935151,0.6071881576,0.6472277369,-0.0726946082,-0.8051394035,-0.4962603463,0.368085941,0.8010753942,1.1912669711,-0.717411672,-0.1247574007,0.718706888,12.8429360908,0.2681645262,0.9279096087,0.4378573898,1.2896380616,0.4009494934,-2.5422614591,0.6009132495,0.5324341878,1.0552715131,6.3236512665,0.1565070471,0.7987290759,0.0458400057,0.2545617799,-0.5254259568,-0.4060565462,-0.378791811,0.7094267379,0.7301137783,0.0802381155,-0.2954995011,-0.4194826628,-0.5227744258,0.1193093878,-1.8790581039,-0.6224865605,0.5520292788,-0.3665856606,-0.3839240675,0.4950859472,-0.608158486,-1.0718017319
   -0.3199087176,0.2387143401,6.4630956837,0.8867784275,1.0521335529,0.4432719163,-0.1744007194,-0.6792200486,-0.8765337586,0.0176861268,0.7410408549,-0.9628413528,-0.6826150997,0.8787599851,-1.3739338659,-0.1411729729,0.6051420967,-0.6213185936,0.9230481913,-0.5115376601,-0.0799613715,1.9345940871,-0.1369879909,1.3516204615,0.5547435783,-0.3005364524,-0.3134755827,-0.0328753531,0.5710472737,0.1531064564,0.5433444025,-0.6704667363,0.1634923537,0.7044314314,-0.7855248503,-0.1547863284,0.7897330301,1.6606512463,0.1815713965,2.358089953,0.6654616215,-0.0970168493,-0.6329897218,0.1236940521,-0.6846435136,-1.4426482073,-0.6783058913,-1.0679338481,-0.874558989,1.0034716602,-0.0159893037,-0.1537835618,-0.4216317784,0.2595935128,-0.6926431882,-0.9587198907,0.2698183914,-0.5834240382,0.1854107726,0.8849143722,-0.9826316064,-0.0422840864,-0.8431766752,-0.7600285143,-0.655430888,-0.7332281314,-0.4263176895,-0.128183263,0.5440056027,-0.6362864374,-0.8186319393,0.9992588459,-0.4966501554,0.774391362,-0.3184372105,-0.8535551086,-1.1020106503,-0.531327827,-0.9572987171,-0.8761768842,-1.3819234391,0.5136066883,-0.2395804105,-1.5109842819,-0.4921864183,-0.5787583546,-0.4573365527,-0.3201065419,-1.0113650756,0.6566646171,-0.0211965427,-1.3911127336,-0.6237569443,1.022488622,-0.8296162122,-0.321511287,0.4612982829,-1.3310956218,-0.8982312847,0.903295923,-0.3005461856,-0.8894606748,-1.1073879467,0.6800140995,-2.3569053194,0.2445445649,-0.3789286439,0.5068770125,-0.909383254,-1.2645318501,-0.9256651584,-1.2527275683,0.3098992506,-0.6713445229,-0.348421263,-0.2206512717,-0.0988511458,0.2536740575,-0.0237956136,-0.8758398858,-0.232524375,-0.6239252678,0.1087790665,-0.7704653349,-0.6245241599,-0.169054002,0.6438463796,-1.4768771048,0.6065275481,-0.2771784751,0.8921810481,0.3436688029,0.745091402,0.2428077668,0.211562392,-0.0791462436,-1.341867513,1.0810166852,0.9865852921,0.1998058874,-5.4064394659,0.3798904365,0.2956686114,1.3168450409,-4.7008397309,-0.9549339542,0.71062869,0.838503227,0.2932812112,1.9639735772,1.615293478,1.184911156,0.1792573585,0.7251109023,0.5365200166,-0.0255587852,0.1567472658,1.7726080966,0.6434012061,0.0320492172,0.324607873,-0.7969878463,0.4404963738,-0.3386915716,-1.0114829698,-0.7652432118,1.7518963009,-0.0077287077,-1.0820765277,11.893670609,-7.4958594701,0.5051503501,0.010066899,-0.2399375821,-1.2265392031,0.141175958,-1.0127762195,0.0207662903,-0.1926108565,1.134682641,0.159985253,-0.113742176,-0.6329217268,-0.0517619755,0.2866899469,-1.2781040664,-0.8996530784,0.6274885381,0.8408168938,0.4816449149,1.9791992662,-0.5723845977,-4.3860984972,0.9836596476,1.0168799181,0.5081875655,0.1250610697,0.6402760613,-0.1253667653,-0.3540513422,0.1132037006,-0.8366078534,-0.8193356332,0.3192321632,0.3949603722,-0.1176333801,-0.9398528541,0.0929744755,2.0424797931,0.0726732128,0.4852887808,0.6784719526,-1.0463764913,0.3314545585,0.9552502417,0.7389788936,-1.2302925192,0.0217480441,-1.7634048148,-0.5081812904,-0.8307276461,-0.7228814617,0.5109696805,-0.8177111479,-1.3792850622,-3.3120680718,0.3286862208,0.2044990987,-0.1343570722,1.702046076,0.611980678,-0.669307358,-0.1472358194,-0.183304687,-0.6089156568,0.5547808891,0.0950553272,-0.9534722062,-1.3266069788,-1.4129313179,0.6282930329,-1.5529355551,-0.6933067797,-0.9079944715,-4.2097998271,0.0312985899,-0.4246538538,0.0222799081,0.4252412514,1.0438955619,-0.457881288,-0.505529815,-0.3604104944,0.8799044734,-0.4675104395,-1.2746263532,-0.0131034033,0.8817440699,-0.4693808422,-0.6873850025,0.2333883576,-0.3299500731,0.8091713167,0.6588226033,-0.0743113935,-0.0992211703,-0.7062841151,-0.1727198866,-0.6576875566,-0.7055055113,14.4983167968,-0.0122047333,-0.1269629137,0.4816830965,-0.0139575925,0.1211203115,0.0720396787,0.7005037763,0.578755349,-0.5830172314,0.0898841016,0.0904633449,-0.6948163682,1.0049643229,0.3219794205,-0.2697972872,0.6421262168,0.5748382068,1.032110337,0.4043020998,0.5032783379,0.8016935234,0.9771760837,1.941623956,-0.4261056062,-0.1475666263,0.5071235797,-0.8507570474,1.01916762,-0.7926457501,-0.4340370932,-0.098418465,0.2367138861,0.2288909104,1.3711181346,-0.3505588151,0.2032440842,-0.8399173211,-0.8115968224,0.9761957184,-0.4554174512,0.6641270276,-0.9466180227,-0.6753305871,0.260482572,0.6564697984,0.7263628071,0.849347614,-0.546645143,-0.351805059,-0.5472582289,-0.164885032,-0.5181286897,-0.1896794067,0.3812090103,0.4303398391,-5.4562102137,-0.5648606393,-0.3788445416,0.6157874527,0.4665758254,0.6589908804,0.5807855064,0.4062299423,-0.7962959582,1.0087124358,0.5286710067,0.3084409578,0.9945084219,-0.0223972563,-0.6060226108,0.2926942026,0.465315278,-0.6822203062,0.2226247563,-0.1942806705,-0.9126970575,0.5571999578,0.3265925328,0.2431374504,-1.3017207875,0.1169682245,-0.8094873252,0.5914073215,0.4889887273,0.2952593658,-0.0005240298,0.2405274598,-0.8741740748,0.8704613846,-0.1152267176,-0.2771416901,-0.0331738569,-0.6304003243,0.5068589582,-0.849564101,0.1379097208,-0.0636960867,0.1434674612,-0.9441815217,0.3229112004,-3.3031988867,0.1213245667,-0.2048599174,0.7820968678,0.5288460215,1.0918380718,1.1158796456,0.9365218716,0.7020039073,-0.2957473925,-1.2265401997,-0.5360605311,-0.8036932864,-0.8693784522,0.7795900921,-1.0004378173,-0.9415887863,-0.0904527656,0.4575473809,-0.757080312,-0.2751779289,0.8118525965,-0.4800047891,0.7650654341,0.0816535941,0.8708391094,0.3119915748,-0.4877555884,-0.4221018374,-0.1457410165,-0.3397561793,0.0847409364,-0.7876490774,-0.3347055558,-0.5045213762,-0.421203218,0.343185085,0.4832928158,-0.9429384558,-0.168549091,-0.2540569812,-0.5659137872,-0.642110398,-0.9870321846,-0.5479813645,-0.6950418548,0.8786966328,0.864084372,0.0610923702,-0.789093796,-0.5170869698,0.6635633794,-0.6988570324,0.1292553322,-0.1477272611,-0.5967887589,0.4616225734,0.2926180614,-0.426588193,0.8440962937,-0.655976167,-0.4590135463,0.1704890335,-0.1978193636,0.1657627348,-0.3258882191,0.6374772884,0.380883566,-0.2950370966,0.1706753303,-0.6959178218,-0.9181960684,-0.7208971373,-0.0141431283,0.7435676849,0.0037644126,0.3232899665,-0.6406556048,-0.5747894247,0.3852928492,1.3706652626,-0.6943981571,-0.1600047168,-0.1094341786,0.2058508746,1.0818630768,-0.1220193834,1.1055479719,0.6629467756,-0.6347094512,-0.305449102,-0.1067016668,-1.5279697061,-0.6639307538,-0.3428950165,0.3545584872,-0.7122869142,0.0523225789,0.5078701012,-0.2798871333,0.9682626572,-0.3215964754,-0.3684483704,0.0500903517,-0.4871884838,-0.45891583,0.1232207031,0.0723470893,0.8517480378,10.0744124078,0.8551985646,-0.2986832453,0.1149536012,0.0711357823,-0.4778685886,-0.6755011232,0.4748194815,1.5555203765,0.1708769242,0.5334568448,0.5698404262,1.0477319412,0.5434979727,0.7547468672,0.7680119269,0.7336712457,0.0809760784,-0.8844643484,1.2155446883,0.3454945277,0.1772372447,-0.2140944171,-1.025379671,0.3830812483,1.4571003292,1.1036887729,-0.8482930056,-0.5131954031,0.3603878826,0.4609482264,0.6595893914,0.0620507758,-0.6933929793,-0.1166938797,-0.2603462044,-0.1373762866,-0.4063583536,-0.331700817,0.1609837661,0.366663239,3.6880181993,-0.2037540584,-0.5355481615,-0.2579737712,-0.1518954709,1.4098991541,0.454092774,0.5859430729,1.3636341454,0.0630205141,1.2011555207,-0.8057516296,0.6399922176,0.8253804419,1.2076326401,-0.1782163501,0.1868415933,0.9369729148,-0.8064024387,0.5551372507,-0.0065881259,0.8086201413,1.719534675,0.1607887825,0.4612404266,1.0047730442,-0.1569830709,-0.4102862585,0.5983996247,0.1299935044,0.8449772305,0.8111224214,-0.0528242582,1.2440300474,-0.0916622948,0.4709500884,-0.6530862586,0.5901677982,-0.3257644695,-0.2234830312,0.3493144056,0.2211379999,-0.6191502364,-0.3240600054,-0.5842834704,0.0962324661,0.8560705894,-0.4248535568,0.7831029011,0.824967359,0.1523702221,-0.8944604254,-1.1924170898,-0.2936401515,-0.2990887794,0.4156274254,-0.5261893034,-0.9550355152,0.3954653879,-0.8586816536,-0.3838391575,-0.64566508,0.9323092892,-0.4622392049,0.5005141309,-0.8405668084,0.4407502657,0.8494358167,-0.6766739048,-0.4442915939,-0.7537155702,-0.2760167538,-0.7442731884,-0.0641549864,0.696469885,0.4030528268,-0.2428094396,-0.9383562599,-0.5875481123,0.1644463589,-0.1155444904,-0.2876221207,0.0844076733,0.6813656716,0.5296239878,-0.1863213614,0.369895797,-0.1146531814,0.3651739557,0.0129228649,0.814844918,-0.8203015512,-0.4468161174,0.1564564741,-0.0310440026,0.8946013898,0.8286390329,-0.0274064412,-0.5004924901,-0.023821112,-0.4332099498,0.0690924071,0.4776466657,-0.8424231107,0.7068653982,-0.5476352492,0.3667466683,-0.6698116277,0.676589447,0.1636144636,0.2445861929,0.2567160786,-0.7966293973,-0.1969482357,-0.6132694741,0.6646221251,0.3997018953,-0.0425156155,-0.8537487664,0.9111056428,0.6139332916,-0.1860802802,-0.381598345,1.0167144317,0.1433270026,-0.9391088931,0.5680846878,-0.7439574143,0.5653204965,-0.8780762427,-0.3465583901,-0.4351238639,-0.2704812072,0.9267427351,-0.5400412881,-0.9322194831,0.6736442171,0.7873938807,-0.1735577661,-0.7455723513,-0.3560404361,-0.3519869263,-0.2307224139,0.6935828697,0.7247284326,0.3381964203,-0.8368642969,-1.1845196142,-0.7812218605,-0.9954673766,-0.2624066134,-0.6189790871,-0.4740520468,-0.1323255745,0.3804452297,-0.9173582523,-0.3420098733,-1.0798056329,0.3380900381,0.040684409,0.0227698546,-0.2999243343,0.4575564354,-0.866825096,1.0324973028,-0.8873067031,0.775643093,-0.1189279122,0.701652687,0.3883543842,0.1972340408,-0.181610223,0.3022235447,-0.4345228591,-0.3458309422,0.4084232088,-0.9799590834,-1.1075557462,-0.2349779281,-0.3655450952,-0.2968224786,0.1570367411,0.5208110713,0.3316169841,0.245751359,0.1763502194,0.0825676403,-0.901254136,0.1134477057,-0.4024521114,-1.7289110532,-0.6774010976,-0.5850019131,0.4382567319,0.065776892,-0.2237329424,0.4338765559,0.8036388689,0.2752314902,-0.6021303726,0.5544998464,-0.51275265,-3.2562000825,0.7998290371,-0.7542198035,1.2085082641,-0.9402072313,-0.1390947742,-0.5425313225,-0.9872430424,0.0357186948,-0.5025454336,-0.2166493559,1.2852623203,0.2596392374,-0.6710719634,-0.4133615477,-0.5720013483,0.1906725011,0.0134531765,-1.0285397664,0.5691104309,0.9051335771,0.8131469034,0.0736927549,0.5027686897,0.3678027256,0.8562870713,-0.9521107149,-1.2341855622,-1.8367973208,0.4708136603,0.2933326844,0.2549749784,0.2850764109,-0.2922270146,-0.2330953699,-0.3603246262,0.2748916143,-0.7076038295,0.8881887492,-0.5381459506,0.5437872426,-0.5922552301,-0.8529272136,1.2592537441,0.805187739,-0.7938117294,-0.8803126432,-0.1720023908,0.731673095,-0.2429393709,-0.3388248405,-0.5531549323,12.9478293303,-0.3598263314,0.2079436154,-0.5036186619,0.2633562686,-0.8585712628,-1.7537219776,0.7120669837,-0.8590931872,-0.4439803384,-0.2742678619,-2.4907173433,1.9440255102,0.6248372397,0.0371958656,-1.2054642953,-0.3713759893,-1.6297009635,0.1172910466,-0.364077515,-0.3956807659,0.5408617507,0.5344901706,-3.6742608095,0.6934272183,-0.9259401306,0.1250838387,0.1265310455,0.2366414355,-0.8727913531,-0.4893459413,0.0336098316,-0.252193508,-1.1523285026,-0.5373607256,0.2243120233,-0.5711250277,-1.0610201096,0.7587188323,0.7923967046,0.4750403164,0.3713547212,-0.2708233753,0.0259224773,0.6342162785,0.0262547731,-0.9035342361,0.6068668743,0.0906718772,-0.5907393875,-0.0187020856,0.5354564725,-1.1148659523,-0.78445612,0.7492748004,0.0745937977,0.9282870034,0.4365530425,0.3513938503,-0.1990279327,-0.7785467749,0.3329254173,0.6490874804,0.2282263016,0.6827739303,0.9297222477,0.676101571,-0.0352798418,-0.2605948158,0.4209198656,-0.1812416847,0.0687083144,0.8936027282,0.5244629871,2.1188901219,-1.0673450576,-0.0637216029,-0.5143786721,-0.2425214019,0.0226782953,1.1295804277,-1.0114984748,-2.6647877803,-0.0524444786,-0.8054738335,0.5508690652,-0.6849301793,0.9595766633,1.1622632245,0.3300858698,-0.5082584503,-0.4882881806,0.4996428893,1.0547991106,-1.6713908345,1.1951292861,0.257535739,0.5645454626,0.3741632804,0.3308070384,1.6514673842,1.7615962897,0.1196883691,1.0078516675,-1.1891611006,0.35295757,-0.4676817688,-0.518623671,0.031266002,0.4268615277,0.8287523068,-0.5723200601,0.9695473615,0.5194180218,0.1040723101,-0.806332513,5.7374936698,-1.2388567511,0.6913176766,0.2826592903,0.9702571672,0.2741286815,1.8829608662,0.971634969,5.3668857715,-1.500028289,0.2595898801,0.874749182,1.0339130931,0.4389817877,-0.5003973384,0.1069714552,0.4583547221,0.8536145061,-0.8048670842,3.1084812169,-4.2375504839,-0.8667738398,-0.74090344,0.6538308191,-0.5549597627,-0.0715974719,2.08952906,0.658878262,-0.8769630173,0.9605273375,0.6748525016,0.7191151232,0.3687739148,-1.3235068741,2.0459600913,-0.6132766019,0.7920323259,-0.5586857894,-0.2483014372,-0.166551845,1.3163515332,0.4748329124,0.3409545945,-0.1451762592,-0.3890396751,-1.7557591228,0.059356565,-0.2362268339,0.9994973822,-0.694065842,-0.7420774561,-0.8331642831,-0.7795430179,-0.2509110625,-1.6905139066,-0.3176103814,-0.7571934614,-0.3722879646,0.3559013511,-0.5642918699,-0.8122456766,0.0570987583,-0.7381236115,0.2317678988,-1.2498176097,-0.4289147297,-0.4716833062,1.0090638011,-1.1966054976,-1.5425660608,-1.0261148861,-3.0643770787,-0.0849440988,1.5290257301,0.4907151313,-0.6404575048,-1.1975166036,-1.9840405984,1.0055613851,-1.859103185,-0.960157248,-0.9703652332,-0.139606408,-0.059070126,-0.1547762103,-0.7432300474,-6.7618225533,-0.7883854416,-0.2500965362,-0.0953809341,0.3175937248,-0.5893228413,0.3254702348,-1.0598261032,-0.7602211446,0.9910188928,-1.7476197308,-16.0523682273,2.6706680451,0.2514009499,-1.0787809909,-0.2879783034,-0.0417060739,-0.1150145722,-0.9458709321,-0.215267339,-1.2414625889,-0.7575700559,-1.2877806575,-5.6888380244,-0.5625933773,1.1331571261,0.4502730647,-1.4358574886,0.3982890426,-0.1496953147,1.5693455269,-0.9163870098,-0.6652219468,-0.0329538167,-0.4698493326,1.6551313736,-29.6678897025,0.2322013029,1.37261678,-0.6817010533,-1.0652366711,-2.2176076244,-0.5787151545,-5.50199133,0.3376568973,-0.2890838234,0.5083750084,-0.4774491572,-0.0421720028,-0.1414709072,-1.1239516105,-1.4304905798,-3.2199951401,-0.0177843644,-0.3678689511,-1.3427983956,30.4241703084,0.1434418482,-0.6334397494,-0.5835788184,-2.4351625355,0.8636644499,-0.1605041926,-1.2859804299,-0.4545500905,-0.9979675318,-0.3677340733,-1.3503589833,-0.5665862319,0.1020234445,-0.6208380738,0.3176898013,2.2140136833,0.5274601221,-0.0729089695,-0.4174506771,-0.0647038739,-0.0184428663,-0.3613752668,0.8791822279,0.714222902,-0.273409359,-0.4402368042,-0.9177877637,0.1676975942,0.595574692,0.3059446989,-0.5560292581,1.0877664308,0.4653333114,-0.6510249528,0.3495773052,0.7289438866,-0.0552088898,-0.0981005272,0.5358893107,-0.9565682014,-0.2804717203,-0.994643248,0.7421276376,0.0103838821,-0.1664280564,0.3948733716,-0.4456161398,1.003709876,-0.8732659648,-0.4156441504,-0.315807401,0.5289200236,0.2850503488,-0.5540402606,-0.3243258486,-0.2391322917,0.0865111378,0.3055787018,0.8653326112,-0.5423565844,0.2953150155,0.931279363,0.5925152798,0.5352345323,0.3586912638,-0.2320671326,0.2595251432,-0.6195563022,-1.996529047,-0.694451331,-0.2225253396,-0.7959946093,0.5225430785,-0.5315823509,-0.3101912973,-0.1053404956,0.5164403833,-0.6005949721,-0.121173736,-0.1531907543,-0.4937062062,0.4584809673,0.7046937764,0.4383238099,0.8027665074,0.4790308886,0.6771482749,0.6628174569,0.8235077294,-0.3998316537,-0.9075309707,0.1504821537,-0.6627712454,0.3976102337,-0.2937180592,0.709093988,-0.5544882741,0.8707048985,0.7188647287,0.2371416308,0.8544154393,-0.1247495083,0.5694731156,0.1478479599,-0.087668906,-0.668409417,-0.0701213903,-0.6605013381,0.5021147863,0.1654991126,0.0120357641,0.4376754741,0.5691256785,0.5852969066,-0.7015927063,-0.6399911299,-0.2500854654,-0.8355556491,-1.2149555803,0.7146584473,0.2215649339,0.1442312376,-0.8291592902,-0.335539763,-0.1468383058,-0.4747781764,-0.8601361519,1.6308076792,-0.0289094697,-1.0944134773,-43.2552894181,-0.8365111381,0.1365034362,-0.5539977164,-0.0366284235,0.4201042171,0.2033733244,0.18113437,0.1997802856,-0.8114263261,0.6453615139,0.1455425083,-0.2061332184,0.5772236201,-0.1885826822,0.0355108392,0.1683102419,0.623683896,0.28645799,-0.3564591979,-0.6321144216,-0.3392126876,0.1955109739,-0.9878835232,-1.184064004,0.4371053191,-0.7630681307,-2.1691674467,0.2868189096,-0.4271474671,-42.6181555595,0.4511698033,-0.6204045847,-0.5034099767,-0.5824765964,-2.4477894891,-0.4394905091,-0.9384289092,-2.5661840208,1.0203752008,0.4291312983,-0.4433550641,0.620668749,0.6012202096,-0.8545491829,-0.4016131593,-2.3451712955,-0.8951982743,0.2092551276,-0.4816056411,13.7829000175,-0.2884779608,-1.1186240097,0.6222728348,-0.592637058,0.2671775923,-2.4575192603,-0.8889258447,-1.3195609853,-0.2850356531,-1.4645381297,0.2109495916,-0.3082104122,0.5185504202,-1.2829248599,-1.0586892821,0.3184118956,-2.2142433325,0.681407581,0.9336603761,-0.7491506852,0.4881440118,-0.4202032805,1.0190238581,-0.4724138668,-0.4615768231,-0.7664500738,-1.16776164,0.3423846307,0.0873849787,-1.1869545623,-0.5501178087,-0.6076538275,0.6056190084,-0.0126840815,-0.4974133376,-0.0690541076,-0.2144850364,-0.575976166,0.6033024235,-0.0171646535,0.9171939185,-0.2986108513,-0.681824232,-1.0863205281,0.5833616344,-0.6420939724,-0.0149352477,-0.6839341931,0.3712292692,-0.5796248471,0.6880527417,0.1710236792,-0.5435448638,-0.3821479097,0.957516884,-0.5857373939,-2.9513132353,0.7010098323,0.8011409935,0.0371408369,0.2282380027,-0.4307603389,-0.7309144131,-0.3640352019,0.7414028977,-1.8658552681,-0.8928016543,0.6359386913,-0.6407449872,0.4795218584,-0.5833741375,0.372293371,0.0158631748,1.3465499759,0.3315081847,-0.2844764284,0.0884522122,-1.1678252699,-0.4109972485,0.2105276444,-0.6482743098,0.6321256977,-0.3405363916,0.8425567007,-1.0393744339,0.8808319451,0.1847389516,0.1352543378,0.7904707034,-0.5004268692,0.1006418172,-0.3202807577,0.3307332588,0.9178052392,-0.7682867162,-0.4532963044,-0.3423314779,-0.0073152349,-0.8653282156,0.6609796261,0.6915400278,-1.3456539948,0.7798933534,-0.2181802444,0.8854339668,-0.8149677246,0.9017287107,-0.1666298178,-0.5375749173,-0.9500672326,-0.8263430979,-0.8465940308,0.9308265262,-0.6855911743,1.1694750385,-0.2656725696,-0.4610934163,0.3650196379,-0.0691569843,-0.7295732079,-0.1609398532,0.3074573458,-0.9381439305,-0.0795946772,-0.7218044066,-1.4615825497,0.2798330924,-0.7739593612,0.1054790209,-0.3420321146,0.6020994803,-0.6939848331,-1.9451235771,-0.4292531628,-0.1425257301,-0.8460207761,-0.4028617068,-0.1322918335,-0.4346419682,-0.9363351667,0.0710570623,-0.9391140097,-1.3623810779,-0.1762958057,-0.4553731283,0.7526720764,-1.1044117244,-0.3537772938,-0.4783494671,-0.3428802323,-1.0147569229,0.2439997892,-0.6494665753,0.7806804367,0.5386298088,-0.7134683229,0.5363246977,0.3801636854,0.8653804253,-0.373324498,0.1192073915,-0.799432168,-0.8770038665,0.4664354325,-0.9447512701,0.9346562113,0.1041099589,-1.3137117602,-0.983880177,0.2172829334,0.1548070946,0.6425964689,-0.3414721359,-0.5665934215,-0.4054180641,-0.5244072235,-0.4499389554,-0.7506373958,0.4219663426,0.118640321,0.0572412665,0.1402984579,0.4933923348,-0.0099428613,0.8043310283,-0.1675269312,-0.5194396119,-0.1554901153,0.8299108313,-0.0526317135,-0.3483493865,0.5530750834,0.1578999626,-0.9297665656,-0.7029879869,-0.1430376621,-0.3792060402,-0.9008650839,-0.1895371751,-0.8939994365,0.1390213464,-0.0911496539,-0.0953649533,0.3734900567,-0.8531503452,-0.1048318925,-1.037859402,-0.9533016432,-0.1203696207,0.0466706019,-0.9882750393,0.2650333439,0.7694282373,-0.3868547053,0.1964609879,2.5473168043,-0.3878504475,-0.7052469623,-0.5005988416,0.5731887563,-0.5704914569,-0.5992781731,0.6469070568,-0.3456017558,0.033640877,-0.3978691009,-1.5116856063,-0.7691777713,0.8936722831,0.9295893643,-0.2975129849,0.188353231,-0.8391472941,0.4864228052,0.8119787486,-0.1534348495,0.5175755443,-0.8273644309,0.4000947338,-0.0425183807,0.6877688031,-0.4844389046,-0.5566543674,-0.6360766314,-0.5787391341,-0.5351024354,0.7613972111,0.1254635628,-0.0661967533,-1.321746005,0.6674718683,-0.808115811,0.2582709906,0.9239928706,0.6316926361,-0.2989006357,-0.4905353186,-0.5067119926,0.6614806267,0.5769734974,0.8079972132,0.4523641636,0.4142239936,0.3910634835,0.0116428491,-0.1606731808,-0.1956928806,-1.6594597483,-0.5028411246,-0.4635375705,0.4510263162,-0.0924310021,-0.904102043,0.0150262898,-0.7309211673,0.7126373628,0.036353464,0.4369680096,-0.6443233858,-0.239446577,-0.2085647043,-0.1445461699,0.0131283674,-1.0496977125,-0.6656496117,0.1235170819,-0.820921861,0.3452295146,0.4861416224,0.8586081368,0.3149876138,0.837902161,-0.3050432189,0.2376049733,0.7053015919,-0.6415407846,0.705901506,-0.2426625624,-0.9015658843,-0.8146793585,0.9836858579,0.7435834658,-0.8506277583,0.1061208958,0.8498376805,-0.1741795638,-0.4229256154,-0.7322286092,-0.6099510039,0.0400055207,0.0048140814,0.5927082955,-0.8410646643,0.8465057586,0.962847198,-0.5009675633,2.0148827458,-0.8063616338,-0.5643095146,-0.9621219758,-0.0410048335,-0.3105916749,-0.0740854313,-1.4544465105,-0.9746864983,0.7640660986,0.3650604207,-1.4097584177,0.3937310966,0.2042646893,-0.3649088533,-0.422710659,-0.8072711598,-1.0292325231,-0.0606225992,0.7976565789,0.6565178255,-1.0547951976,-0.6444868779,0.7649875931,0.7627885678,-0.1762852429,-0.7433103621,-0.7217380547,0.0675584307,0.0100070814,-1.1789167781,0.5365395913,-1.539756029,0.3099081983,3.5295862027,0.8127919484,-0.564302228,0.0934149784,-0.2985129616,0.7927239885,-0.0469334261,-0.5375132372,-0.3877010523,0.3108082679,-0.5809102099,0.201776749,-0.2915523659,0.2441756979,0.1368329942,1.3753930252,-0.5153960249,-0.6014996354,0.7017528778,0.3397341851,-0.2829980817,0.3770095716,0.4771242592,0.336640606,-0.4885358975,0.8908568296,-0.0422341643,0.624059751,1.3999046846,0.3701418225,-0.6631338489,-0.2312168778,-0.0230521685,-0.6229848482,0.8060525942,0.6709564322,-0.3951754233,2.4730909129,0.4947079507,0.4489753948,-0.4364188118,0.8695954451,-0.7022508462,0.9709958912,0.1564314458,0.4493842336,0.2834920517,0.3040524188,-0.1749926322,-0.7826669835,-0.5599617992,-0.4907668964,0.1635677166,0.6823436571,-0.0987416402,-0.6703404479,0.7446811912,0.2886126613,0.7668867236,-0.1171122229,-0.8811694865,-0.1672463623,0.4418169207,0.4942157273,0.3882998312,-0.5971191244,1.2769143165,-2.3628986102,1.0865829002,0.7012681974,0.6810946448,-0.6047333291,0.3306827408,-0.9764300993,0.7115727904,-0.2487542572,-0.9134238724,-0.3579604645,3.4180705672,-0.2577336181,1.0933276794,-0.5056385738,0.2094878032,-0.7904699838,1.4077726031,0.4077776552,-0.7451088734,0.658927596,0.683803758,-0.1262125829,-0.4326755909,-0.9207036123,0.6824281485,-0.0169829463,0.2086987657,-0.5061990161,-0.7998560445,0.1906102567,-0.2062640531,0.3167768577,-0.3143974657,0.7862245321,0.3228468155,0.6097236138,-0.3670400816,-0.1383299182,-0.4918000404,-0.2483461677,0.1489251197,0.9501979884,-0.219229893,-0.4944304197,0.8852627525,0.152037324,0.5243420909,0.659217881,0.5118305634,0.3184979891,0.9193778673,0.4020074156,-0.0120506962,-0.6489493804,-0.6404715054,0.2318132177,-0.3625493474,0.7184888164,0.2083214501,-0.044701505,0.7857779324,0.5218001325,-1.2598128278,0.0691121577,0.2372134452,-0.1688384969,-0.0505338745,0.0794983378,-0.1046495101,0.6536306442,-0.1068633402,1.8761812385,0.2455601892,0.6879892633,0.0960580482,0.1461408258,0.2132981086,0.588991528,-0.6276827491,0.4263154403,0.4565288894,-0.523943218,0.7129300637,-0.8611106338,-0.1142352775,0.1878392716,0.8757536045,-1.096953887,0.5306604491,-0.427460504,0.7014931046,0.0531042877,-0.9342891358,0.5590057799,0.4271862175,-0.3611943488,-0.8863431307,0.1396846268,0.0463380586,0.5208593893,-0.1843098831,0.4907463206,0.2236963515,0.3892317785,-0.8537793659,0.5617566406,0.0015915737,0.7215900718,0.1395074864,0.1974378944,0.6868781289,0.2257921851,0.4302718405,0.1013956259,0.1339400121,-0.6625058887,-0.3634484252,-0.9664710658,0.4015381663,-0.9196007593,1.4368014135,0.365274618,0.3752418208,0.5255891077,-0.1680010687,0.0178303587,-1.4790194145,0.2534766058,-0.3157266936,-0.9361748264,0.6917560354,-0.6116658806,-0.1989062244,-0.6011844488,-0.5192434663,0.146071362,0.58747453,-0.2077159162,-0.8764558233,-0.0313361765,0.6255270088,0.8051345405,-0.172453965,-0.074193716,-0.152827968,0.6068925088,-0.2950993195,0.0298014343,-0.5975809925,0.3935644831,-0.712781576,0.4313953063,-0.4616866804,-0.5760791427,-0.1988611046,0.5126600737,-0.1402003868,-0.0460775458,0.7128137551,-0.4941810149,0.9195862789,0.8380757158,0.6747634111,-0.1828876238,0.0354713866,0.6433395399,0.1694922028,0.6317440422,0.6973555142,-0.0541821312,-0.5481760813,0.2863273534,0.0121099129,-0.6119795299,1.1187299429,-0.0778759158,-1.8358851824,0.9501558096,0.5116143643,0.8821285886,-0.3844433669,0.8090067021,-0.7626163115,-0.1841921587,-0.5148262256,0.180084867,-0.2793219739,-13.7707069629,0.0285503408,0.6489302335,-0.0890092041,-1.3057799051,0.8468619988,0.8491800372,0.5157555838,-0.4897781776,0.5319760101,0.4540575839,-0.6901358207,0.0456750466,0.2120314078,-0.8589853624,-0.8976437739,-0.8981053218,0.2157196884,-0.4585111566,-0.6321485972,0.4849516634,-0.8344945339,1.1762694796,0.0371256347,0.9140990153,-0.2154790188,-0.1098171283,0.4610635666,0.7432069982,0.5266597669,0.2839179157,0.241146086,1.2394089713,0.4488657418,-2.4138787948,-0.2640762305,0.3173819201,-0.6001331763,-0.6322547039,-0.7268605798,0.1650146831,0.2249371101,0.444378987,0.1732174185,0.605519153,-0.8688809831,-0.1992275633,0.1913329179,-0.1626554892,0.2334822883,-0.9252543445,-1.0057419783,-1.0041309241,0.3692258119,0.7459723148,-0.4028884336,0.4918377259,-3.0123995645,0.3574574534,1.5689731076,0.2132380033,-0.8445783856,0.4247616453,-0.737266817,-0.7277056441,0.3287574992,-15.1861285434,-0.2736223402,0.5881272889,-0.4488387661,0.1416448382,-0.3582548091,-0.6201595229,-0.7860419085,0.0413620966,0.0305660834,0.6729875132,0.2404724958,-5.7150216007,-1.148806564,0.1065073338,0.8318107277,-0.8493004462,-0.8610022404,-0.5106090677,0.149425925,-0.1825860833,0.2864578834,-0.9988577192,1.3840139477,-2.0015827245,0.7248591441,-0.6745248892,0.7583646631,-0.28439458,-0.6502131086,-1.0670940267,-0.0646610736,-0.8861086982,0.8358097551,-0.69479467,-7.3617844276,-0.3539797309,0.3626007755,0.6100641894,-0.0352435183,0.5892521313,-0.6373777529,0.0160849064,0.3132138146,-0.6106486736,0.6237640332,-1.2162383774,0.9629765305,0.3414077753,-0.3455180538,-0.6192092201,-0.9749189659,0.2786098683,0.4023239159,0.7296311208,0.5311146129,-0.9545425197,-0.0286867333,0.8053339322,-0.0553864079,-0.5400437414,0.0937702622,0.7948248099,-0.7408792245,-1.3267104321,-0.8952775297,-0.0986283481,0.08636444,-0.1889163164,0.7672133449,-0.3508980141,-0.1330929177,-1.3993766466,0.7668200958,0.2776989398,0.8575770928,-0.8476809897,-0.1554345936,-0.5673356199,-0.1348746462,0.9945664212,0.3709467861,-1.0448434052,-0.6070080083,0.4894381197,-0.7793384479,0.1307877559,1.0050492785,0.8909489389,0.3271208809,0.2898353788,0.6261205016,0.873497219,-0.5982501598,0.1081132187,0.5353152224,0.1807686618,-0.9606907094,-0.8356777319,-0.8480604123,-0.3638006448,0.7521908088,-0.8283131826,0.376440582,-0.3566786977,-0.7393339196,0.4665129789,-0.1801449637,-0.247954667,0.110500182,0.5053502568,0.4880745301,0.6328713533,0.3109554606,-0.7106963371,-0.2820524279,0.0018519026,0.3640984609,-0.7586248469,0.5683001782,0.0007917305,0.1842858735,0.5356088923,-0.7378627259,-0.140216646,-0.5943072001,-0.9933884457,0.0130993546,0.7677548769,0.6814940631,0.0719194328,-0.046422869,-0.9646049953,1.0113171072,-0.2200459275,-0.7492281089,-2.6187017944,-0.0044067572,0.8618300899,1.0109678307,-0.8001242259,-0.9143287529,0.6172111798,0.9955309535,-0.3071137543,0.7006392492,-0.7936169399,0.6455769804,-0.7406183979,-0.67953716,-0.4127676044,-0.9425252571,-0.749625796,0.3346397997,0.6922983428,0.1178861342,0.3851214297,-0.676045717,0.6203162302,0.7543818532,-0.0237927142,0.2573067909
   -0.9179542723,-0.8389060061,-0.5070523291,-0.7245866205,-0.2644749879,-0.5970924028,0.3997668473,0.0951959994,0.042898053,-0.1537945036,-0.7100553074,-0.0479509433,0.0541602631,0.9113238961,1.5790900769,0.7188188304,0.2403231636,0.668291645,0.2371904959,0.3431621486,-0.5575573595,-0.2472660247,-1.0889575714,-0.7006273549,0.72180474,0.2699108856,-0.254776975,0.8617570484,0.4479161504,0.2913560362,0.4516731173,-0.8955502956,-0.125363818,-0.8586808874,-0.3289191725,-0.8376444477,0.2278062069,0.1534139943,-0.2683373956,-0.3523123972,-2.282920869,0.3427917183,-0.6090330138,-0.2046826968,-1.8582067811,0.717984918,0.8214542343,-0.3239455902,-1.0382128743,0.430889266,-0.1993509681,0.8551541447,-0.6332211194,0.450502673,0.7345814125,-0.3738592765,0.0914894897,0.3236181113,0.8201833084,0.5467739042,0.8488970117,0.3363016563,0.3495975103,-0.3268390288,-0.4682500331,-0.870443719,-0.4603061697,0.3783332037,0.7197286712,-0.5285536572,0.024617168,-0.3088264574,0.6720326341,-0.8265796502,-0.3230074616,-0.2758613555,0.414146108,0.0201391902,0.5196706623,-0.6255740082,-0.7506014628,0.5328415361,0.112876175,0.8542953331,-0.4784287649,-0.3370384856,-0.6941254448,-0.9574740316,-0.4121462821,0.1131244937,-0.9333532852,-0.770741899,-0.0018121828,-0.110758611,-0.911640289,-0.8034283476,1.6067947898,0.2314702194,0.3225738374,-0.5131217518,-5.1351522553,0.6339943558,-0.7628508151,-0.0180352969,0.0848368807,0.3111575394,-1.2987565457,-0.2741769154,-0.8160538262,0.7419974968,0.0890267172,-0.4290438434,0.6189948439,-0.9984414082,-0.2138357606,-10.2593279467,0.4229666068,0.5897090748,0.9120934546,0.3218421381,0.1182521105,-1.1681181606,0.5109498529,-2.6576677073,-0.4783947612,0.2134488767,-0.5304049088,0.3263148511,-0.3404612901,-0.4949656633,0.8088763975,-1.0051036752,2.8356327295,-0.5226599538,-0.4419648151,0.4463762773,0.0453376594,0.6768705877,-0.2454348097,0.7612399909,-0.8159588384,-42.7379028353,-0.5944959611,-0.949612015,-0.6956592446,0.2088565146,0.2435786385,-0.8113636745,0.0862623398,-0.4319558948,-0.4801046115,0.4082476057,-0.1109386796,0.0744885262,0.9520687711,-0.1930383958,0.534859707,-0.7824052372,-0.5710070356,-0.6832407715,0.4991958631,0.4452039086,-0.2296304409,0.9842194047,-0.1448498065,-1.4650662334,0.3225045113,-0.3749649812,-0.7868847495,-1.0582663758,-0.5262199073,0.1217138833,-0.3557221889,-0.7595013299,-0.8505278313,-0.8176273131,0.5161721026,0.0440879193,-0.2443585076,0.0966800351,-0.0970344755,0.5726883691,-0.7124100608,-0.4659409901,-0.350557673,-0.0393080369,0.568134224,0.5657528657,-0.04152356,0.176715225,0.7903880461,0.1108852405,-0.9166557906,-0.9019036209,-0.8065211531,-0.3271424941,-0.3354490664,-2.1814677725,0.6296279505,0.4844428099,0.6850237743,0.4401110274,-0.1846080796,-0.1433949221,-0.1191537475,-0.585647633,-0.5915834779,-0.9328340995,-0.0181242674,-0.4235078692,0.6835507522,0.8793816339,0.8752927514,-0.4166411167,0.7099649516,-0.2007124347,-0.9706995748,-0.8490239208,-0.031052784,-0.0482187975,-0.4290699854,0.6094603374,0.9806476991,-0.5749174661,0.3433990379,-0.6522884101,0.8144234138,0.2871411483,-0.047220121,-0.8036489679,1.37939523,-0.4574893364,-1.2191457568,-0.6334480031,-0.5363866343,0.4200913807,0.8428515369,-0.1440018577,-0.7267208289,-0.0445591813,0.8171946082,-0.3361905483,-1.4566252168,-0.9277231883,-0.6097141171,-0.0432692228,0.8460315158,-6.5151350466,0.7468404805,-0.8010407746,-0.1663519612,-0.234307695,-2.0931554197,0.3702448922,1.4237928096,-0.0287431861,0.0231830249,-0.5729966491,0.7979607133,-0.3482619206,0.3096591611,-0.9994332335,0.2111746609,-0.479199463,0.6689946833,0.0276491839,0.4279023162,-0.4507171763,0.1092345571,-0.3570777473,0.3705313049,0.4108693192,-0.1698006156,-2.0089058203,0.7000196725,-0.1505446984,-0.8421394803,-1.8658908405,0.6289248815,-1.0444203007,-1.01938966,-0.7875245255,0.1927877251,0.6782101318,-0.5724186092,1.2235386717,0.1331643976,0.7042998925,-0.1632360774,0.7243302181,-0.4442796946,0.862691713,0.4050578553,0.5739374396,-0.3150835716,-0.8692948329,0.6400909537,0.0715986815,-0.6885653193,0.0888256219,0.4997947445,-0.5680493016,-2.0037489902,-0.7150130351,-0.5546011222,-0.2635829969,-0.9614747226,-0.2188822153,-0.4929882921,0.4630573038,0.0029766298,-1.3966051903,-2.0430741727,-0.1851191573,-1.9065729075,-0.2784795804,-0.248036118,-0.7411504869,-0.3650210029,0.0612510768,-0.5567070004,0.3238573768,0.1120726898,-0.2682636706,-0.3942830978,1.0415201351,0.8515325771,-0.8860207587,-0.1435423892,0.1756521527,0.869843361,0.281291802,-0.2097634008,-0.0204039091,-0.7339049699,0.7768748304,-0.6349368562,-0.8206951288,-0.5344586396,-0.7151545288,-0.6554203582,0.8341448694,0.0900198839,0.5389524456,0.275343702,-0.6481348836,0.4095481086,-0.0304138281,-0.0548584195,-0.2117800909,0.4844192796,-0.4059029704,1.0376404878,0.9440537373,-0.7196393996,0.3604180168,0.280621149,0.3169204587,0.56253247,-0.3873611212,0.3251373309,-0.7760615796,-0.4439571355,-0.049744023,-0.7718017985,0.5859673309,-0.0846863701,0.8728308941,0.4236030767,-0.7057275224,0.5028769237,-0.1943768492,1.0276218382,1.3498259856,-0.7186473282,-0.591028734,-0.2964342369,-0.1717769033,14.9139895178,-0.1879367679,-0.554297995,-0.8803032199,0.4213884255,0.1008029396,0.1441303828,0.5820261501,-0.6899737725,0.7305243826,0.5345113024,0.7255328229,0.4425275602,0.5531871693,0.7749654957,0.8129386431,0.7161603283,-0.0579963634,-0.7410544771,0.0811034965,0.5317120065,0.463812832,-0.153704082,0.8739113273,-0.0619569957,-0.693891089,-0.3965222428,-0.6137304899,0.6001135946,0.1363824667,-0.8469546522,-0.5696633508,1.0820966417,0.9658638864,-0.4084597662,0.4531073931,0.6254961004,-0.5204364224,0.4521788861,0.1128176309,1.0149763647,0.7755975336,-0.7042140238,0.4057341694,-1.0780003681,0.1370679769,1.2227502892,-0.6880828239,0.4496042688,0.5074143083,0.015067136,-0.9856219408,0.5661406487,0.7302276942,0.2072889913,-0.1929141022,0.7655033617,-1.0294799383,-0.1266081904,-0.1675844803,-0.286391868,-0.2168275797,0.2837238599,0.2822400819,0.7127625034,0.4197022764,-0.9972972725,0.4877169218,-0.4838075226,-0.0189338901,0.5774102375,0.8415592282,-0.1457322198,0.5767438386,-0.2459085435,-0.1273819585,-0.2329839458,-0.3345315493,0.8772677293,0.6368441877,-0.639183464,0.6734475669,0.0748381674,-1.0005650352,-0.0888927906,-0.2899851238,0.6541550402,0.3104949816,-0.4489476568,-0.84896778,0.1529228675,-0.5499883602,0.7279390777,0.8617117027,0.8164712337,0.2619458141,-0.4822185259,-0.4331851225,0.2036456365,-0.3596527963,0.1212607526,1.4150775554,-0.6706007847,0.5882659502,-0.6112342431,0.4630494149,-0.6714963771,0.651132365,-0.6124872461,-0.598012797,-0.7663603558,-1.0535160066,-0.2966009804,-0.3486976308,1.3749668352,0.3173448507,0.0666894228,0.796027949,-0.1098169359,-0.8274968035,0.5282477052,0.1964117202,0.2436213776,0.4911853978,0.488565427,0.7588469353,-0.1070405164,-0.9022971973,-0.6570678226,-0.4772560335,-0.3811911809,-0.1298128744,1.1328967264,0.4420198401,0.4487430626,-0.1935054135,-0.1996566114,0.6894856051,-0.385816327,0.2595652908,-0.9093467589,-0.7077825438,0.6371055699,-0.7515550319,0.9639709834,-0.4945270294,-0.0867203025,0.087388452,-0.8112325241,-7.3035662831,-0.2348512422,0.8307630621,0.5680735572,0.055371476,-0.5886272638,-0.9388953155,0.9668536686,-0.2147095199,1.6223630052,-0.9934603833,0.6091835739,-0.2174846393,-0.2021025877,0.1982664969,-0.07470057,-0.4385879085,0.736267508,-122.9466288719,1.3219694831,0.0066533139,-0.5267652476,0.7473614192,0.8106676902,0.352112264,1.0743814684,1.4661043751,0.0870608756,-0.2526333606,0.6199589624,0.2271119967,0.2997333653,-0.0996025444,0.2429850507,-0.5675915904,0.9775241577,-0.8685967699,-0.1806770143,-1.4022695273,-0.5430084702,0.5594058289,2.2457917647,-0.3566412227,0.7232884051,0.8903147316,0.960335965,-0.9747792659,0.5195388935,0.2602747151,0.2067003922,-0.7163708761,0.6955928103,0.1091496306,-0.8041816993,5.9326043898,0.6874123306,0.7366271046,-2.738590039,-0.5399689268,0.0800975303,0.2919785887,1.3067439817,0.3630905278,0.6691754461,-2.6507489126,-0.4829665712,0.0043075789,-0.5574407388,0.4795259466,0.1012611584,1.5679671395,0.3539648688,-0.5894307192,-0.3802356198,-1.0780398601,-0.0021189566,0.2968008118,0.7294531066,0.6203706984,-0.5804042949,-0.8739913375,0.9542142087,-0.9954179872,0.6745517547,-0.6411506081,0.8165659891,-0.0716555649,0.7866798446,0.4275375459,-0.8862558018,0.3504873794,0.5175360749,-0.4490546995,0.558464951,0.200109437,0.7002089097,0.6871184328,0.3717279821,0.1038788345,2.1233531774,-0.9357030233,-0.6878601422,1.0850057909,0.9952324156,-0.5858290115,-0.8385231799,0.6177257082,0.0673168107,-0.1458425705,0.4205015864,-0.558723072,-0.6887522952,0.2821592142,-0.1523284902,0.6250026849,0.602011459,0.5799167221,0.9797498348,-0.3947710968,-0.3949153847,-0.7908090624,-0.1751181206,-0.4084836244,0.231180319,-0.1700277572,-0.6054326213,0.9758038311,-0.4063404627,0.2806933157,-0.08753127,-0.0500034899,-0.5576312503,-0.1415930424,-0.2998294759,-0.2972451991,0.9193129159,-0.5928330472,-0.9742052645,0.4617338343,-0.5512104239,-0.3088814498,-0.6275433155,0.705322643,0.0575672027,-0.8224375846,-0.4623342731,0.4749694306,0.7763110488,-0.493934295,-0.4316811939,0.1060334095,0.8340240014,-0.9592292355,-0.0603840907,-1.0242492317,-0.3540495788,-0.9209426225,0.0301448563,0.6666728161,-0.7284846655,-0.2994800269,0.1498390853,-0.2962850306,0.4316387837,-0.6854615746,-0.235692926,-0.3903586708,-0.8055155617,0.1670819514,0.2873980149,0.1405469705,-0.8044674686,0.1458789702,0.6954089282,-0.3162594483,-1.1716416285,-0.8493558679,0.1998556141,-0.2344535929,0.5445068454,-0.3111823617,0.7672699917,-0.0710824093,-0.111309053,-0.8743497442,0.6384324949,-0.1816639593,-0.8156825414,-0.1702431621,-1.0910821336,0.607038538,-0.6755154976,-0.5297397133,0.1920028225,0.3498034577,-0.4206000053,-0.3497363738,0.5263013087,-1.0643290793,-0.471754234,-0.8697363116,-0.5517264731,-0.2985120277,-0.7011872386,-0.071798394,0.9120644044,0.8672269155,-0.7805360883,-0.7125738136,0.1567242175,0.2929711933,0.8057251904,-0.693230399,0.5966024663,0.2782601183,-0.7395171252,0.9077907476,-0.3841891437,0.5895578252,-0.4796915019,-1.0579736561,-1.0871096038,0.4664623123,-0.4800483033,-0.7292461825,0.1291327456,-0.3412761964,0.2207266993,-0.8330473798,-0.3832777755,-1.0290816318,-0.2995915263,-0.1603628522,-0.5378788999,-0.6933402158,-0.4424708965,0.2862616042,-0.7846984845,0.0570772181,0.0266320991,-0.0219256186,0.118848227,-0.1909376956,-0.7669399196,0.5491739247,0.8525230714,0.4062696755,0.551078712,0.4025370141,0.6145112945,-0.0017260077,0.4609578791,-0.5347235027,-0.2697406723,0.6339621394,-0.482981067,0.1865153124,0.0496599082,0.6030549558,0.365815637,0.0675877338,-0.4926580983,-0.8476007626,-0.04825231,0.219053263,-0.7969263471,0.6023988976,-0.5702347276,-2.3019878057,0.6839753571,0.4063206281,-0.8687284761,0.0541630214,0.581297423,0.0807359462,0.7312070241,-0.0822506355,0.953162967,-0.4889209835,0.4296722666,0.7251498643,-0.3405546576,0.6349072415,0.8803260872,0.5819340908,-0.9564481091,0.3055373752,0.2853424899,0.1081890212,-1.2055488362,0.0280099321,-0.9847491636,-0.7481880397,0.9745307594,0.5282347498,4.1799287702,-1.0096579956,0.1089527565,0.5881975346,0.8557465957,0.652999653,-1.0792945573,-0.0464188998,0.5680207864,-0.8681898162,-0.2506760498,-0.178837508,-0.0924016212,-0.7837338292,-0.9979813637,-0.3395455541,-0.0497983971,-0.4900532369,-0.1648755252,-0.0835012429,-0.7864533459,-0.9846835915,-0.1966424069,0.6726845626,-0.3327080372,-0.8220345431,0.4277512736,-0.7219847322,-0.2205220433,0.3799506516,-1.0797121062,-1.0018853255,-0.2549456946,0.7764447385,0.8902434877,0.4809900587,-7.5919340701,-0.5868644144,0.1296116975,0.3780122217,-0.5186685154,-0.0994904301,-0.0877478806,0.5306526983,-0.1466363093,0.0162963249,-0.5605218387,0.9783258346,-0.9005491872,-0.6934847618,-1.4002157414,-0.6068980248,-0.2404797443,0.816715326,-0.2586091104,0.6560299677,0.5858621539,0.7187096819,-1.1427908312,-0.35642965,-0.0023426803,-1.4367851768,-0.5404988768,-0.3984155574,-0.3601295451,-0.7427765888,-0.6627162648,-1.0434300637,0.2718323901,-0.7314087177,0.1234611974,-0.7652045392,-0.8936662713,-0.4647222111,-1.288803184,1.3756303015,-0.3012788481,0.0946804334,-0.8433191173,-0.4788772994,-0.1731857631,0.3906251979,-0.9689872416,-0.1125220607,-0.214325666,-0.4661342212,0.3873073174,-0.9263629353,-0.8026240017,-0.6045134751,0.1664279985,0.4385061802,0.4620752693,-0.6555547029,0.5632976141,-0.9383481712,-0.6416153572,0.6609902157,-0.2369669785,-0.4685950507,0.591341983,0.510857306,-0.017210976,0.888699061,0.3533906849,-0.4048897775,-0.2176233159,-0.1142070377,0.0869595285,-24.6151320633,-0.535881937,1.0726285269,0.5428232992,-0.1137289295,0.4182817363,-0.0990454306,0.8502514441,-3.4881707837,5.6480162787,-0.3827095137,0.2855675223,0.2736214073,0.5285459154,0.2046484533,1.0967144377,-0.5829645812,-0.4084465499,-1.1365001196,0.1502430546,-0.786193673,-0.2922540869,-0.7846548905,0.4785447579,0.0621070775,0.2660177844,-0.0609670585,-0.7981090858,-0.5134850633,-0.3778687765,-0.3828444791,-0.2851000016,-0.0712232459,0.4639899288,0.9876377376,1.054739406,0.8821132271,-0.0043953841,-0.8438903659,-0.3588160325,0.2425732241,-0.7580426198,-0.702010516,0.2952734408,0.9969038121,-0.1159132934,-1.1155620481,0.2973579134,1.0860528127,0.3170065319,0.795285839,-0.3077162273,0.6557768011,0.187558599,1.0099623256,-0.1375296431,0.7493952415,-3.1493032286,0.7781251878,0.7896160316,0.679349791,0.2851652984,0.3753311833,0.6980606944,-0.6040724559,-0.4913109523,-0.0262234298,-0.6254167486,-0.1550659753,1.1573237024,4.8282326736,1.2308856801,-0.1496436424,0.2810358,-1.4215521087,0.1850145474,0.3236393016,0.2592223544,-0.5557684067,-0.0817981695,-0.8787914732,0.4744791347,-0.9146642179,-0.4837265037,0.432868581,0.4912450159,-0.0976955535,1.3174920447,0.8909388473,0.555717001,-0.3258129768,-0.3581269926,-0.9575867081,0.0184209421,0.0973330103,0.8773870749,-1.0058275573,-2.0535309073,-0.6766525664,0.7551251208,-0.1246952365,0.5432406674,-0.5260196061,0.5697514044,0.5102557417,-0.8288313085,-1.1986030457,0.7842246786,-1.3328035353,0.6073113489,-1.227951787,-0.5926326617,-0.1583242245,-1.1590445556,-0.3535940082,-0.3582295961,0.5143204345,-1.036909802,-0.2978950107,-0.817200486,0.1003241443,-0.11942174,0.4313138529,0.9253610009,0.2237616389,0.4316069272,-0.0563306567,-0.7337579238,1.1399875073,-0.5545976347,0.9293355904,-0.9873474619,-0.971012864,0.8798785518,-1.7171533836,-0.0227458363,-0.4220156054,-0.4182014138,-0.4587152477,-0.1049401539,-0.0814219299,0.0001703997,0.4102513644,0.8961871007,0.1101776164,-2.3288004817,-0.9544674367,0.2268865678,0.0572726066,-0.6413795255,0.5000777051,0.3349073556,-0.9236127536,-0.3934007279,0.5349265037,-0.7463339379,-0.0980823008,-1.2092748777,0.493720731,-0.7746920097,-0.5877687752,0.8601041943,-1.6201691486,0.4106002245,-0.6613351705,2.4427311325,-1.2988369654,-0.7023059679,-0.0250540596,0.2080667834,0.323859372,-2.4715784712,0.3705822137,0.0067171943,-0.8910943933,-0.6539096412,-0.899494489,1.2094518472,0.1599486877,-0.6786093896,0.3224312104,0.6466279667,-0.86545489,1.2868035155,-0.6399015838,0.8268109753,-0.976301608,-0.6628332587,-0.181312755,0.0784492004,-0.0677444187,0.398684504,-0.8987165868,0.7089624575,0.5593269506,0.4916717607,-0.5316426781,0.9657816735,0.7429314718,0.2278240747,0.2077572543,-0.3478072022,1.4303979366,0.6481315098,-0.9009916404,0.8535872652,-0.1057159935,0.1103427864,0.4820924292,-0.6806088597,1.6798888158,0.4208816052,-0.1955552498,0.828301002,0.6797741006,-0.1758252275,-0.1876887601,0.3930601415,0.014667479,-0.3761450304,0.7875153243,3.3263068087,-0.6619167009,-0.8004423147,-0.5798007599,0.6633729192,-0.8440369535,0.634606564,0.8211350253,0.2928832321,-1.6544186542,-0.3548504733,0.0382998562,0.7129379906,-0.9241796933,0.7666396522,0.5969608085,0.9102728397,0.5380008982,1.7768610405,-0.0138928068,1.1894597153,0.5154895798,-1.139250654,1.3214839817,0.2799433557,0.7835118232,0.3439510821,0.8544550833,-0.7260368647,-0.3941511264,-0.2297235246,0.4099602663,-0.4049512389,-0.9628647364,-0.0690676857,0.2342973378,0.4157109045,-0.8950657159,1.7653452937,-0.9365206067,0.9947058904,0.297727099,0.1938348479,-0.7370783338,0.7925794697,-0.727290804,0.5101994177,-0.0105899482,-0.749434303,-1.2078536631,0.7983787451,0.1504051505,-0.8575898116,0.0603803357,0.1260994668,-0.2523196532,0.9994362082,0.0110106359,0.0518610398,1.2896403665,-0.7254647955,-0.2005952468,0.2580358145,0.6158305261,-0.8331756288,1.5248760091,0.2091593591,0.4032269308,1.2355308369,1.0644130671,-0.6702964236,-0.4607704973,-0.5270403228,0.6313754107,0.9561026304,-12.3743478933,-1.0893869306,0.5084481718,-1.0988234606,0.2068050343,0.5576077281,1.2126633691,2.6966298779,0.6137997831,-0.1939482678,-1.2670540503,-1.19488807,0.4913029935,-0.4119910356,0.7983143412,0.3710611916,-0.7989223635,-0.2556224266,-0.821297357,0.5254271141,-0.7266715369,0.3816998368,1.4731493845,0.6802588627,-0.5385600673,3.7286636176,-0.5485578078,0.7087809936,0.8269530578,-0.0770487469,0.0733299746,0.9488609354,-0.9147382015,-3.3372908387,-1.3272017779,-0.4278059913,-0.3594410973,0.4147579811,-0.4245194343,-0.2138056434,0.6761444722,0.1287763187,-0.2249365454,-0.6716073528,-0.1807920849,0.7461318451,0.4840077788,-0.8064589275,-0.9770075967,0.1734016695,0.217088807,-0.2678820729,-0.5317650361,-0.3271784958,0.7011988905,-0.0407278584,0.5710245607,0.6758105642,-0.3693777568,-0.9530575481,0.5890929035,-3.1613683772,-0.4134363533,-0.5727048993,1.0472698135,-0.6537840332,-0.1964423027,-1.2187219337,-0.8585437363,-0.6372677856,-0.4318311643,0.1720599077,-0.0873813138,0.0247225232,-3.5541763639,-0.5996397231,-1.0293574882,-0.1128540969,0.3944622935,0.440921964,0.3952361809,-0.0186097855,0.0370580348,-0.8997907116,0.5023087691,-0.958687828,-0.5504794051,0.3230273469,0.7175229691,1.1998651533,-0.0323913017,-0.8162942087,-1.0574224692,-0.1461968933,-0.0057759373,0.5896139497,0.4799560674,-0.6259132979,-0.2676033238,0.6788995333,-0.0687732057,0.657828213,-0.852875877,-0.1012011369,-0.7188106684,-0.5707072186,-0.8222355695,-0.5762008948,-0.7838232567,-0.0285796667,1.099647558,0.8334880342,0.7161941268,0.2839308701,0.8387233984,0.6422184465,1.1897028015,0.1659517393,-0.5709652201,0.9090458109,-0.4183474862,0.1038282918,0.8817923264,0.9963377265,0.6671211643,-0.5968114578,-4.9927800846,0.2107347836,0.3298777115,0.8535580737,0.4182670575,-0.8366106319,0.9022489899,0.8964235011,0.7154560154,0.2889237064,0.269105918,0.4786041339,1.0778762794,0.1519128435,-0.8053140657,-0.6067007153,0.3178002672,-0.5616114877,0.0229873491,-0.7464266541,-0.7896736702,-0.6885516306,0.5834257291,1.0339359537,0.7114813717,-0.3504361416,0.8332879255,0.127351455,-0.0222964977,0.969053146,-0.3004600891,0.3873980582,-0.1033530418,0.7587711877,0.7083823492,-0.9169696755,1.0092115351,0.9952660382,-0.8082994619,0.1906745568,1.0001915667,-0.3830108336,0.2708963944,-0.7915132054,-0.3986034214,0.6536422146,0.2349803158,1.0142556206,0.093040026,0.1716649767,-0.5006875417,-0.3730426355,0.5318425533,-0.5956225084,0.8265637276,1.0432035715,-0.2556584739,0.6430960479,-0.3299435042,1.1322679917,0.8224402144,0.050343296,0.6146327156,0.55961897,-0.3594293637,-0.0004727298,0.8260038272,0.2960185722,0.0699203977,-0.7942686031,-0.1056996686,-0.8166186373,-0.5715191965,-0.4272980029,0.5572609969,-0.7128060032,-1.0152740663,-0.735767337,-0.7281735714,-0.437290927,0.1889630767,-1.0682391727,-0.1011612269,-0.7650400971,0.8789874558,-0.5405409551,0.6624131937,-0.1915005267,0.1671701737,0.071262855,-0.3582656388,-0.21840475,-0.626994856,0.8192602435,0.0479587201,0.199472746,-0.1292614895,-0.4132375183,-0.9572747727,-0.2989607056,0.0609498611,0.77204064,-1.2036915047,-0.3937539024,0.1149615465,-1.0260141327,-0.7116796915,-0.6770364722,-1.0413513507,0.1766247455,-1.0139301866,0.2533009258,-1.24085544,0.3287849312,-0.7906676855,-0.1691860772,-1.0875811133,1.1709142981,-0.1607783434,0.5981099996,-0.3935891436,-1.8164927155,0.8403809598,-1.0156000818,-1.741334859,1.2677282487,-0.4712296453,0.3308071351,0.3480870693,-0.6980989303,-0.8576293944,0.5908369162,0.7135627211,-0.7345149644,-0.1218437744,-0.6471553478,-0.0373472272,1.4064726743,0.191252726,-0.5291139723,-0.762444325,-0.9001198691,-1.2294913719,-0.9545961788,-0.8788010016,-0.1602165951,0.3982503371,-0.0977303515,-1.2199166505,0.4610725035,-0.0192812742,0.3528362621,-1.0555503764,0.4059194917,-0.6733686835,0.1758141802,-1.0826441542,-1.1706255629,-0.7701206777,0.0437675643,0.0812973954,0.3114740203,0.2832912336,-0.8506417127,-0.0770161379,-0.0408023425,-0.8017719253,0.320688402,-0.7693309627,-0.6799699036,0.5428476264,-1.9125323857,-0.6508542105,0.7082222283,-0.4052783792,-0.9394690492,0.3698250771,0.7201264074,-0.3253930415,-0.0541613126,0.1377849231,-0.5952971214,-0.2496415624,-0.6694451241,-0.7659241208,0.4316125017,0.2682700893,-1.1263744126,0.2558147506,0.7480150211,0.1530877273,0.7733160592,-0.2953428641,-1.3110795451,-0.1564548442,-0.8038088391,-0.7131940215,0.3683405151,-1.080839306,-0.5978677238,0.89532013,-0.9069943866,0.6109344836,0.2429418181,-0.3824830669,-0.805617996,-0.7825171292,0.5103592946,0.1442960363,0.5176789314,0.3071419487,0.1293911756,0.3992853889,-0.3343348992,0.8490899843,0.3007227319,-0.8620828649,0.4186657,0.093634653,0.5889052018,-0.965052547,0.1100075058,-0.774474607,-0.1907960284,-0.705418613,-0.23436285,-0.2263280143,-0.4861634858,0.2186286197,0.5408142019,-0.5773035898,-0.4202548386,-0.2076708777,0.6344988365,0.3070954792,-0.1617029261,0.6372184688,0.1033544039,-1.7004135172,-0.0623112394,1.0058899159,0.7374742312,0.4261726681,-0.5339838517,0.8114034718,0.6940730098,-0.1086254238,0.6168161223,-0.7377206395,0.451349426,0.3788144666,0.9282849078,0.1533129682,-0.718500709,-0.3909033072,-0.517192744,-0.8146470008,-0.5916598968,0.6963506643,-0.5017623319,0.4450182162,0.9595989147,-0.2625036741,0.1104043321,-0.4097833427,0.0080893287,0.70199612,-0.9808333522,-0.7344363345,0.248889443,-0.1075811384,0.978193506,-0.9593124345,-0.0351307528,-0.3480698322,-0.4444590014,-0.908235405,-0.8226199956,0.967412319,0.6683502039,-0.0531835257,-0.3343579199,0.1544741399,0.681959866,-0.3388430204,0.6102379505,-0.6890916811,-0.8281877487,0.045472022,0.7578757318,-0.6248775973,0.2602900911,0.3200803031,-1.0249009461,0.2599454983,0.3059528942,0.5249222425,-0.5682185093,-0.8326741703,0.6610613048,-0.2128739601,0.7692690604,0.3340656151,-5.2426043176,-0.1819677007,-0.03140343,0.297702495,-0.1803872249,-0.390376559,0.7964776605,0.8544629504,0.3626023531,-0.0761563069,-0.2876960431,-0.7031101149,0.3287518084,0.8251718121,-0.0484061196,0.7712482998,-0.7189738172,-1.6469653756,-0.2033311455,-0.6724217655,0.060363294,-0.9005924587,-0.8251502651,0.8801047105,-1.7387611576,-0.6864019875,-0.3670057147,0.0679474211,0.3403962996,-1.066221759,-1.0165115524,0.6154014813,-0.6956286954,-0.7740515487,-0.937005624,-14.9833976162,0.4498006489,0.0436808196,-0.3312982401,-1.4198520465,0.1188652258,-0.9987355654,-0.5005441266,-0.714150292,-0.4669497822,0.5872811611,-0.2334171038,-0.6583579475,0.3018466287,0.2016946906,0.0776601209,0.351195031,-0.6303404165,-1.223724599,0.8592346387,0.739842918,-0.667573925,0.8929412221,-1.023661062,-0.8562697555,0.5060915357,-0.4898878095,-0.7952058996,-0.2253213067,-0.2873592071,0.0441054925,-0.751587413,-0.3813332597,0.5984177306,-0.3560514088,-1.0456606052,0.0856431162,0.0933943836,-0.9389881481,0.1327183842,-0.0255696349,-0.12409838,-0.4628401692,-0.6849410307,-0.8755457436,0.8214587492,0.0813556026,0.4362867096,0.0426785178,-0.3986931824,-0.4498017259,-0.1433649311,-0.9991406617,0.9041521893,0.6944890162,0.5615579782,-0.0736257967,-0.5016557387,0.8732298071,-0.6148472521,-0.2829724041,-0.2192681889,-0.0637236753,-0.5390111276,-0.6801806705,0.7877255488,0.1585750649,0.458076703,0.4463231321,0.2233871192,0.2398637476,-0.1677413468,-0.8580212395,0.4656508138,-0.2379567984,0.3964756386,-0.3836793762,-0.2112398518,0.7404200865,0.7546120869,0.2099929234,0.5968500986,0.0192582545,-0.130273952,-0.612053391,-0.6079811123,-0.7113321046,0.3457500358,-0.9680526862,0.4947211331,-0.031002557,-0.5909135504,-0.0319877033,0.8124966359,-0.9011256996,-1.0370571943,0.08157216,-0.6976977984,-0.5195321953,0.8654877791,-0.1059618599,0.6757151205,-0.2161735291,-0.9641489843,0.9141149382,-0.1096013756,0.4748820751,0.6896583613,0.0872006523,0.241781938,0.7410011142,0.7470717673,-0.6860905086,-0.7697369973,0.5907562042,-0.3062886815,-0.7510256587,-0.1019753049,-0.3182497547,-0.7208898618,0.2385310884,0.4551669322,0.8794463406,-0.0251793253,-0.5118067626,0.090575654,1.1052048937,0.4163777533,-0.1548662209,-0.1323707625,-0.9866687919,0.1598751243,0.3524867567,-1.0120631713,0.0129417559,-0.0182476738,0.7710707692,-0.0921532444,0.5373672517,-1.031897885,-0.7387833825,0.167468489,-2.2170849383,0.2710577068,-0.6843831107,-0.9035388946,-0.9830897363,0.1328802681,-0.8100834038,-0.5102679641,0.4468746849,-0.1196089433,-2.6640044329,0.1935961261,0.2432813863,-0.0336320531,-0.4017637024,0.5967373504,-0.8830565176,-0.9369757271,-0.9862455714,-0.9589375027,-0.0853620444,-0.2347843769,0.4793995606,0.7644614921,-0.3018198239,-2.8682675794,-0.9359645953,-1.1083733324,-0.2154542391,0.0435341884,-0.9563739288,-1.2171132536,0.5102383849,0.0245849723,-1.0485701797,-0.0202469137,-0.835263911,-0.358521639,0.6934598117,-0.711812458,-0.1981878636,0.010393883,-0.5289899016,-1.0630180601,-0.7859124067,-0.0236520005,-0.5045939647,-0.4317641603,-0.6703263362,0.5579375305,0.7694886161,0.3705650849,0.7213002303,0.2614671885,0.750414445,-0.6586373678,0.1254034931,0.7079615465,0.6146924774,-0.8976516449,2.1027931995,-1.4785897886,0.8960707388,0.1495873925,0.819776465,-1.0587298174,-0.2197587467,-0.0946230116,-0.4659514737,-1.0284673661,0.0193248196,0.7425291522,0.5590561405,0.0271336575,3.1326065649,0.531291318,-0.5041674841,-0.4799017424,-0.8125381318,-0.821313861,-15.980509233,-1.8000593844,-0.9574761391,0.5183220377,0.5292674679,-1.070808842,-0.7393900867,-0.645410618,0.4593162783,0.0994242312,-0.0002620164,-0.6872468453,-0.4733179877,-0.4204481697,4.8090232594,-1.0180512346,-0.0824224605,-0.3876152565,-0.9444218518,0.5481733583,-0.0605410334,-0.6647131232,0.2423144059,0.6267135963,-0.5613452016,0.7711151995,0.9920011577,0.3975598251,0.849608659,-0.3944049136,-0.700023454,-1.0607165202,0.3664991739,0.8099036206,-0.0105142718,-0.6982654538,-0.4982328771,-4.7468317494,-0.7405764315,-0.1280720794,-0.4064745325,-0.7944394834,0.5994252146,0.3147063652,-0.2128190206,0.9488570479,-5.1306323638,-0.9920663044,-0.8927691116,0.2264706282,0.5587942401,-0.7814047674,0.0287696848,0.8516159783,-0.1222550817,0.5515463243,0.9669355109,0.3278113247,-0.0182637159,0.5725097966,0.1139676136,-0.7445503003,-1.0889980838,0.1299222636,-0.8905990772,-0.9047186152,-0.5539521779,0.2181708765,0.6798219492,0.6549097818,-0.1088352679,0.2455488936,0.8121544576,0.3966071145,-0.1264709083,-0.9958304493,0.8934723465,0.0704355997,0.7357662768,0.1927747961,-0.8142974588,0.5422599377,0.8149782586,0.4157296637,-0.6939039066,-1.1016352976,-0.6107862842,-0.3064607453,-0.1726434189,-0.0743926088,-0.774153839,0.7855724056,-0.5535849553,0.1578552077,-0.3947290243,0.1043246722,0.8595505252,-0.819692365,0.4775435645,0.7195684398,0.717962892,0.0299472885,-0.5867403889,0.5767732728,-0.751720825,-0.1911851628,0.3087316077,-0.2217778892,-0.8581336247,-0.5034345241,0.4669670412,-0.1814227651,-0.9181209982,-0.6475770226,0.1899159395,-1.161791727,0.7466343952,-0.229785109,-1.5592890903,0.0563835859,-0.0073043246,0.0235448188,-2.0744540037,-1.1255327587,-0.1237125147,-2.8223018811,1.419440757,-1.0156054846,0.2706771094,1.3927947705,0.5194894014,0.2661381717,-29.9880712894,-0.4785291781,0.4940698181
