encog,BasicNetwork,java,3.4.0,1,1667677699773
[BASIC]
[BASIC:PARAMS]
[BASIC:NETWORK]
beginTraining=0
connectionLimit=0
contextTargetOffset=0,0,0,0
contextTargetSize=0,0,0,0
endTraining=3
hasContext=f
inputCount=784
layerCounts=9,75,101,785
layerFeedCounts=9,75,100,784
layerContextCount=0,0,0,0
layerIndex=0,9,84,185
output=0,0,0,0,0,0,0,0,0,0,0,0,0,0,0,0,0,0,0,0,0,0,0,0,0,0,0,0,0,0,0,0,0,0,0,0,0,0,0,0,0,0,0,0,0,0,0,0,0,0,0,0,0,0,0,0,0,0,0,0,0,0,0,0,0,0,0,0,0,0,0,0,0,0,0,0,0,0,0,0,0,0,0,0,0,0,0,0,0,0,0,0,0,0,0,0,0,0,0,0,0,0,0,0,0,0,0,0,0,0,0,0,0,0,0,0,0,0,0,0,0,0,0,0,0,0,0,0,0,0,0,0,0,0,0,0,0,0,0,0,0,0,0,0,0,0,0,0,0,0,0,0,0,0,0,0,0,0,0,0,0,0,0,0,0,0,0,0,0,0,0,0,0,0,0,0,0,0,0,0,0,0,0,0,1,0,0,0,0,0,0,0,0,0,0,0,0,0,0,0,0,0,0,0,0,0,0,0,0,0,0,0,0,0,0,0,0,0,0,0,0,0,0,0,0,0,0,0,0,0,0,0,0,0,0,0,0,0,0,0,0,0,0,0,0,0,0,0,0,0,0,0,0,0,0,0,0,0,0,0,0,0,0,0,0,0,0,0,0,0,0,0,0,0,0,0,0,0,0,0,0,0,0,0,0,0,0,0,0,0,0,0,0,0,0,0,0,0,0,0,0,0,0,0,0,0,0,0,0,0,0,0,0,0,0,0,0,0,0,0,0,0,0,0,0,0,0,0,0,0,0,0,0,0,0,0,0,0,0,0,0,0,0,0,0,0,0,0,0,0,0,0,0,0,0,0,0,0,0,0,0,0,0,0,0,0,0,0,0,0,0,0,0,0,0,0,0,0,0,0,0,0,0,0,0,0,0,0,0,0,0,0,0,0,0,0,0,0,0,0,0,0,0,0,0,0,0,0,0,0,0,0,0,0,0,0,0,0,0,0,0,0,0,0,0,0,0,0,0,0,0,0,0,0,0,0,0,0,0,0,0,0,0,0,0,0,0,0,0,0,0,0,0,0,0,0,0,0,0,0,0,0,0,0,0,0,0,0,0,0,0,0,0,0,0,0,0,0,0,0,0,0,0,0,0,0,0,0,0,0,0,0,0,0,0,0,0,0,0,0,0,0,0,0,0,0,0,0,0,0,0,0,0,0,0,0,0,0,0,0,0,0,0,0,0,0,0,0,0,0,0,0,0,0,0,0,0,0,0,0,0,0,0,0,0,0,0,0,0,0,0,0,0,0,0,0,0,0,0,0,0,0,0,0,0,0,0,0,0,0,0,0,0,0,0,0,0,0,0,0,0,0,0,0,0,0,0,0,0,0,0,0,0,0,0,0,0,0,0,0,0,0,0,0,0,0,0,0,0,0,0,0,0,0,0,0,0,0,0,0,0,0,0,0,0,0,0,0,0,0,0,0,0,0,0,0,0,0,0,0,0,0,0,0,0,0,0,0,0,0,0,0,0,0,0,0,0,0,0,0,0,0,0,0,0,0,0,0,0,0,0,0,0,0,0,0,0,0,0,0,0,0,0,0,0,0,0,0,0,0,0,0,0,0,0,0,0,0,0,0,0,0,0,0,0,0,0,0,0,0,0,0,0,0,0,0,0,0,0,0,0,0,0,0,0,0,0,0,0,0,0,0,0,0,0,0,0,0,0,0,0,0,0,0,0,0,0,0,0,0,0,0,0,0,0,0,0,0,0,0,0,0,0,0,0,0,0,0,0,0,0,0,0,0,0,0,0,0,0,0,0,0,0,0,0,0,0,0,0,0,0,0,0,0,0,0,0,0,0,0,0,0,0,0,0,0,0,0,0,0,0,0,0,0,0,0,0,0,0,0,0,0,0,0,0,0,0,0,0,0,0,0,0,0,0,0,0,0,0,0,0,0,0,0,0,0,0,0,0,0,0,0,0,0,0,0,0,0,0,0,0,0,0,0,0,0,0,0,0,0,0,0,0,0,0,0,0,0,0,0,0,0,0,0,0,0,0,0,0,0,0,0,0,0,0,0,0,0,0,0,0,0,0,0,0,0,0,0,0,0,0,0,0,0,0,0,0,0,0,0,0,0,0,0,0,0,0,0,0,0,0,0,0,0,0,0,0,0,0,0,0,0,0,0,0,0,0,0,0,0,0,0,0,0,0,0,0,0,0,0,0,0,0,0,0,0,0,0,0,1
outputCount=9
weightIndex=0,675,8250,86750
weights=##0
##double#86750
   -0.4911927555,0.2678958052,0.8369828494,-0.6608099493,0.3969692164,-0.7513467872,-0.6920854643,-0.3402780156,0.7070030688,0.5244758356,0.9620074131,-0.7143116901,0.9568545913,-0.1146027921,0.5061057837,1.6059252063,0.2412584535,0.1783178017,-0.0953297139,0.6894349371,-0.2087176269,-0.1755259123,-0.2643143857,0.2855253089,-0.9248474496,0.8173274797,-0.1280160046,-0.3800289886,0.3835928353,-0.5581079457,0.0110370389,0.6926956214,1.0231193242,-0.7633716151,-0.8457379041,0.3286744539,-0.7253460627,0.0668836224,-0.8108946931,-0.1621712275,-0.8666229948,-0.2014621171,0.7587286775,-0.3445198362,-0.3089948431,-0.0238518965,-0.2493213161,-0.0802938425,-0.083682112,0.5021616899,-0.3824716011,-0.6595670186,0.3667977149,-0.5967039734,0.064911613,-0.2527041026,0.3768750929,-0.9421706454,-0.8221255279,0.8914991221,-0.2391788715,-0.0395848156,0.1995690685,0.4383750483,0.6570982531,-0.1893073253,0.6976160631,-0.401981517,-0.702216425,0.899986007,-1.2136938912,-0.1645150736,0.72212399,0.2999089761,0.5570003563,-0.21338969,-0.0334296472,0.5974412777,-1.0238125751,-0.0890564629,0.536395683,0.6881334895,-0.6085028863,-0.4881160805,-0.993148262,-0.9739917087,-0.2326294383,0.8001683976,0.5914599006,0.2556864569,-1.1269445673,-0.0816386024,0.325545824,0.2624071255,-0.0329744288,-0.7478521361,-0.9861475365,-1.187150277,-0.7799511948,-0.2129688757,-0.8584821754,0.1494040537,-0.0086541171,0.1073706514,-1.0948609517,-0.1119808321,-0.477624823,0.3491081079,-0.8862353988,-0.2612812747,0.0865340272,0.4909018443,-0.0424205972,-0.7898044236,0.1701885349,0.1850826836,-1.0444367549,-0.1510348697,0.2930876847,0.2422107368,0.7413155326,0.0050890164,0.0218547704,-0.6480564095,0.7575521188,0.424004973,0.6320790729,-0.5341392371,-0.3102748747,0.2498335465,-0.9554029499,-0.7344809894,-0.4986283552,0.0221527787,-0.7170391304,-0.0597294733,0.5774992055,0.0305198311,-0.4564008372,-1.0806846804,0.0894647083,0.2918128215,-0.503922228,-0.6156530868,-0.3675928885,-0.1774852639,-0.9078606764,-1.2680775783,-0.8010573493,0.1643602814,-0.1950694383,0.6949785505,-0.9055002525,0.3806456409,0.5501419412,-0.6848066651,-0.0441288712,0.5427354125,0.8308292438,0.7552720603,-0.6687963439,0.5342872622,-0.5088028499,0.7675564068,0.4720180584,3.7168709495,-0.2209048142,0.0596090946,-0.8120413176,-0.3296825358,-0.4377760316,-0.1046434223,0.524190496,-0.9055258333,-0.6631802534,0.8368215687,-0.1830716738,0.7593688849,0.9966426217,0.2150517078,-0.7244759609,0.435448293,-0.9240317742,0.7065115021,0.1684019751,0.113802728,-0.1707825577,0.9414170646,-0.1869523772,0.6114985555,-0.8061820481,0.587678626,-0.0307316551,-0.4655086756,0.0643569958,-0.7464812409,0.070651685,1.9416952634,1.2136163773,-0.4854900044,0.0528380799,-0.4386971156,0.6892848768,0.6596098285,0.8547484948,-0.8247703166,0.6005749686,0.6707097219,-0.4797403691,0.2379683014,0.3343502367,0.8735039973,0.2776637738,0.2984403183,0.0282561493,0.6497558794,-0.5058057687,0.0148609248,-0.0558026408,0.7564647251,0.025003816,-0.4296505479,-0.3544624086,0.3894504769,1.1795516836,0.0973029052,-0.4966280257,0.9275973538,-0.6905148295,-0.2114361171,-0.017464409,-0.4006030685,0.5409067275,0.0636640916,-0.8289736437,-0.90477369,0.0675905089,-0.2137347651,-0.2638102704,-0.0724980772,-0.4771874329,-0.2955875707,-0.6993725472,0.6077774303,-0.3746869372,-0.5758022057,0.3697039166,-0.1267866602,0.3508650893,0.2763553562,0.1205043871,-0.2574020925,0.0542559254,0.1189409558,0.1821774491,0.8572850868,-0.1972711367,-0.433659245,-0.5341442999,-0.5379558301,0.3492212272,-0.5448698133,0.2251641224,0.9699178265,-0.6633036933,0.5905016749,0.0798093006,0.2121333738,-0.7507805233,-0.0490680217,0.6390737431,0.1736250364,0.7847211708,0.0326107605,0.6754694362,-0.3413884595,0.5678260688,-0.0506831404,-0.6413259581,0.1807568891,-0.4580688514,0.7335763405,0.7885822136,-0.1831554886,-0.649804068,0.7653202263,0.4687190952,-0.9214577387,0.64017102,-0.7901825077,-0.3512330616,0.4641278998,0.809944025,0.304730349,0.5036820289,0.5128291129,-0.2557713855,-0.2262618275,0.2040495815,-0.3070813098,-0.2952297457,0.8635747406,-0.8670014905,0.2778645315,-0.5582743396,0.998838132,0.9039785847,0.6827035224,0.3063723054,0.4700345634,0.0835905344,0.3253999089,-0.6610907545,0.8548279472,-0.2188536759,0.7131155489,-0.0715777772,-0.0125576051,-0.4920059783,0.7297395448,0.6005903064,0.630584226,-0.1311927933,0.6459930097,-0.8267327832,0.4159259909,-0.5735072089,0.5330169115,0.8275585388,0.7237585629,0.927006522,0.3328444194,0.5879675973,0.6136735756,-0.1722830628,0.6883346803,-0.8500396354,-0.0029249347,-0.8675189542,-0.5446813278,0.7514874911,0.80367376,0.2227146838,0.8157284642,0.4646067073,0.0945827006,0.6484772792,0.4289659095,0.0470227673,-0.8088192178,-0.2554752986,-0.5894047621,0.4707426368,0.8780286074,1.0191827072,-0.8295136902,0.9911833739,0.2024994892,-0.3601768142,0.199417702,-0.6423420639,-0.5105881169,-0.2452256346,0.2808388213,0.1315245781,-0.1126705046,-0.5046209519,-0.726184897,0.0433701911,-0.5350611237,0.8313879285,0.9625978718,0.7026849057,-0.2123281899,-0.2584665598,-0.4888338312,-0.1341541862,-0.1288897107,-0.1077585013,0.235042315,-0.5979273308,0.6651180007,-0.5960839702,-0.1096055982,0.8343944342,0.4033398609,-0.7621048009,0.3572610571,0.2902206712,-0.4302698966,-0.0989675768,0.3224462251,0.8042652089,0.6030459849,0.6702323226,0.3161489551,0.0493590152,0.7823062195,-0.5108805106,-0.8372530214,0.5580554415,-1.1564624225,0.1155617036,-0.6036196295,-0.1218663371,0.6868508088,-0.8152658107,0.0105424463,-0.4961922028,-0.288279255,0.5604841519,0.6529406268,-0.1754904588,-0.9483456754,0.3922906303,-0.1231752727,-0.7479401938,-0.0810770735,-0.9561622176,-0.8437448355,0.1730331128,-0.7612292825,0.3061762065,-0.5510745404,-0.7136974895,-1.0162246279,0.5520739956,-0.3929574347,0.3916787046,-0.4484343415,0.604653159,-0.7647110955,0.2694310704,-0.9270648512,-0.5113189602,-0.1492348052,-0.6696851692,0.7731219012,-0.1920869484,-0.8963484871,-0.4412661459,0.4603797641,-0.7389301666,-0.2741089234,-0.4738734048,0.2643945128,-0.2578389306,-0.3584619759,-0.5926414749,-0.3832030974,-0.0853330547,0.1135842943,0.8881070695,-0.8216869842,0.7809325693,0.1961426442,0.2847224629,-0.4682450371,0.5722425146,0.1632461468,0.4145067355,0.6078511145,-0.598594785,0.4975557856,-0.6572165535,-0.463368492,0.7350590694,0.1046409147,-0.3420723427,-0.6890056679,0.3638562814,0.2049747206,-0.7750088819,0.3072429598,0.6981391789,0.4021475629,0.3778227099,-0.9655117447,-0.3443255826,0.1890687867,-0.1493635677,0.0662935549,0.379926789,-1.0188770349,-0.3446249843,0.1380246041,0.4233962376,0.0718221053,0.7930795514,-0.6332894385,-0.4667269,-0.5027058304,-0.0565365539,-0.3848735817,-0.2722357948,0.6487893503,0.6313119692,-0.3011485892,-0.8082303375,0.2043895472,0.2768150652,0.6070528165,-0.4542605333,-0.3422652467,0.7109956183,-0.2593587753,0.975740232,-0.9168888951,-0.3033036775,-0.2991123565,-0.8180146946,0.1007631896,0.0449303336,-0.2109421715,-0.2031050163,-0.6311487645,0.8940790576,0.4236468739,0.2278616474,0.4182680232,-0.9253533955,0.8789667711,-0.7461881229,0.1995258747,-0.4346721149,0.896761412,0.8723626072,1.1154706306,-0.1033135799,0.8914627556,0.8960952818,-0.0622808543,0.4138898154,-0.3554969743,0.2610794779,0.3214307018,0.4897931041,-0.4961794512,0.0065939686,0.2302408769,2.0349942814,-0.5503907141,-0.7491864533,0.8291880556,-0.7691326465,-0.2076772356,0.0554953755,0.568594371,-0.5727068906,0.1201424887,0.2958296185,-0.3766835319,-0.5233871259,0.7970540574,-0.9135586633,0.0873553019,-0.5270037324,-0.0901241738,0.6239077314,1.0833209734,-0.2490730067,-0.6982829382,0.1817557167,-0.0529819736,-0.5507804578,-0.7737720826,-0.7907741079,0.4310901284,-0.240628786,-0.499123697,0.7206862406,-0.4595315225,0.8771092166,0.4694794746,-0.6947373786,0.7802093667,-0.5799825128,-0.5209796119,-0.4773934968,0.9110025686,0.9510485829,-0.3659666861,-0.4184458069,0.9019536985,0.1576755445,0.6178925815,-0.0704773144,0.3887964857,0.981475739,-0.464146873,0.1252921267,0.9900040692,0.8158944244,0.0076642159,0.7028567961,0.6481067248,-0.4092551052,0.0438493815,-0.5573357237,1.0351772062,0.8451688026,-0.3748492715,-0.6562701751,0.3633294345,-1.0648026094,0.9255558454,-0.0536212212,-0.3253287725,-0.6562253771,-0.5259461009,-0.6662499419,-0.4520816714,0.5563672207,-0.7291701005,-0.1795369954,-0.6007440815,-0.5387573184,0.0815166687,0.3623606484,0.6510686872,-0.3727959493,-0.5118900352,-0.0214265389,-0.1432181186,-0.9533124627,0.1605342958,0.6144833873,-0.8373928454,0.1067714119,1.4645179042,0.0887561424,0.2901688638,0.1714829689,0.5120606583,0.1907491898,0.495789605,0.6684455806,0.6672048016,0.1572817428,-0.2853669049,0.2375634949,-0.0085184435,-0.2097939605,0.1537681096,0.7136057515,0.0084645541,0.344063023,-0.3081086261,0.2409007711,-0.5514182066,0.8805543202,0.0061546918,-0.7289946893,0.3606530287,-0.1632611439,0.3484121271,0.8883789539,-0.0905841262,0.3570540619,-0.2787882026,0.0913128292,1.0657217465,-0.3380658972,0.0540923828,-0.1906056235,-0.3935321472,0.5023551224,0.5028139855,0.1688591637,0.1694876504,1.4608568604,0.2034412015,-0.2040345849,0.9294111608,0.4909251002,-0.9459769264,-0.6025252596,0.0314175101,-0.2260317455,-0.6221424168,-0.3132405793,-0.4017266517,0.4094020892,-3.1046666819,-0.5293518806,0.9452428981,-0.0601361154,-0.619816661,0.8627004056,-0.466731182,0.3723868121,0.8061001702,0.3123424879,1.2055509118,-0.3048223762,0.0831492371,0.6082576401,0.60473018,0.0355901321,0.7400579413,-0.1370311373,0.6034685964,-0.1635958545,0.9641363758,-2.2866601504,0.0444444711,-0.588679581,-0.2107358816,0.8658977363,-0.2680031855,-0.2471334699,0.3837115215,0.0185398579,0.4870438147,0.5168863864,-0.527236819,0.4940800925,-0.8829735129,0.5302988076,-0.6178489201,0.2017232005,-8.4649741427,0.8066818009,-0.0673296901,0.8493764813,-0.5140471947,-0.384081229,-0.6967526053,-0.6929929378,0.3957788972,-0.0912172626,1.0918195535,-0.6410612709,0.3401257409,-0.2317962484,-0.2618512872,-1.2263011376,1.0707985132,-0.3811571056,-1.5876632863,-0.1311966751,-0.0290613887,-0.3546879198,-2.7499929697,0.4981504036,-0.21171007,0.3520215391,0.2463963242,-0.1033670452,-0.1804023051,0.0413829047,-1.0333753518,0.2938521104,-0.5476184147,-0.5410625225,-0.0248696076,0.2248818871,0.4524906127,-1.0622646306,-0.4177537723,0.2179440583,-0.3114438884,0.2369903422,-0.9267921369,0.8982297496,-0.3841047447,-0.7672452062,0.5999869119,-0.0791893762,0.9343949961,0.0219839678,-0.8939639006,0.9330510245,-10.8089028844,0.1608292287,0.0236919208,0.0919164633,-3.1264180199,-0.7489552525,0.6966865763,-0.6596541006,-2.5485289652,0.8601910606,0.1647049416,0.2484432851,0.735157268,-2.7584761481,-0.5501769565,-1.0144560662,-1.1560972485,-0.0154528678,-0.4988309928,-0.8321861485,-0.400839817,1.235907515,-0.5596826504,-0.2761673362,-0.3495246175,-0.9618157561,0.1451434284,-0.9456130837,0.5948665367,0.0559758189,0.7003613763,-0.759417046,0.4864261672,0.5507409178,-0.2402887909,-0.8979741102,-0.2913653327,-0.7146503252,-2.6166865059,0.6526045327,1.2612445503,-0.0903173047,0.5728346261,0.0934698076,0.2271636313,-0.7119922875,-0.7655807073,0.0003141593,-0.5612356013,0.6472612278,-0.9479913001,0.2148746081,0.1950997839,-0.856980842,-0.8614990841,-0.8770250653,0.5114503882,-1.3334546766,0.8883349885,-1.0738391047,0.3150082065,-1.2414099987,0.6788566186,-0.4211675778,0.0019515733,-0.1817165099,-0.2899967531,4.6807065793,-0.0368512995,-1.0386076293,0.8900054326,-2.1254650809,-0.8375080724,-0.0728009219,-0.9024462817,-1.4750451811,0.7102847076,0.1342826792,-0.6722776984,-8.6861004301,0.2108833578,-0.2073978762,-1.0672206993,-0.6061746613,0.1164058719,-0.1866911961,-1.4195895539,0.0285554947,0.6127333292,0.5016522266,-0.084484075,-0.1471317737,-0.5489150969,0.298445621,-1.0406015389,0.0369322652,0.4398658664,-0.9083819741,0.5575018998,0.3513942162,-0.5566898962,0.4087751535,1.4887449215,-0.9389141627,-0.2940678462,0.2564078351,-0.7621611772,0.2729033902,-0.511871424,-0.4150501699,0.2543851863,-0.329983309,-0.3267849039,-0.5898115522,-0.273786096,0.8178864602,0.7894452558,-0.2514646609,0.7268581633,0.3938992954,0.9668491215,1.054059816,0.0297332499,0.3209192432,0.3782192804,0.3406191435,-0.3092075541,0.7953629413,0.1348293372,-1.1322939596,0.0676615349,-0.3605600078,-0.6665318622,-0.4007483503,0.2644162082,-0.7506785298,0.7637022578,0.1823342802,0.4822690163,-0.6901923097,0.7950271472,0.5221399281,-2.0854512658,-0.6169449488,-0.3756747306,-0.4945558019,-0.9675172994,-0.890437165,-0.0998910026,-0.4332940725,-0.5556153663,0.1306647219,0.8990127452,-0.1130540531,-0.7787646509,0.4556612821,-0.0223410259,0.4476540636,-0.1981484675,-0.6630024123,-0.7029751866,0.5882209668,-0.9313072886,0.8473080815,0.5591042133,0.3606679909,-0.3478342649,-0.0845043249,0.0887211879,-0.5508705826,-0.4305085913,0.036989367,-1.1442642458,-0.236242535,-0.2390520845,-0.2821140933,0.0354668369,-0.7503945126,-0.4725070353,-0.4751798451,0.9616833447,-0.4971290035,-0.1746592745,-0.3538318175,0.3994267977,0.8174481911,-1.0776194329,0.7005575356,0.7548368957,0.1011363111,1.1318034139,0.1406814591,-0.1383346636,2.6256778317,0.0971337501,0.5667809121,-0.7875214185,-0.522891336,0.5817603857,0.7079618759,-0.4694767059,-0.0969624488,0.825488086,-0.7264363143,0.9366844784,-0.019613374,0.3587995767,0.1843146976,-0.4347435059,0.1765250482,-0.4190835292,-0.9065624787,0.5684821808,-0.0649249049,0.9116339449,0.7526158,-0.1936341913,1.0080992486,0.1150074414,0.6917159355,0.1852938872,0.8502969995,-0.0655081386,-0.5905029735,-0.0853084928,-0.7227432285,-0.3214141488,0.2884487823,-0.6184205349,-0.0835522082,-0.2480748633,0.5771696305,0.3166936767,0.205649137,0.3437352866,0.7935052558,0.6399849622,0.8826078778,-0.0163746101,0.0294637505,0.4015191108,0.6732544512,-0.9114170659,0.9883796753,-1.1070116148,-0.4754346194,0.1789184898,0.0896282701,0.7351063176,-0.6107720296,-0.7330101447,-0.0498973692,0.2336296827,0.5001317748,-0.4900910757,0.5758373063,-0.325898228,-0.7694260873,0.2543842291,0.8082993339,0.7835449723,1.7612299002,0.9371912007,-0.7892055943,-0.2509354473,0.0036912198,-0.7945261705,0.0455622495,0.1690652717,0.5741445896,0.3620207084,0.6544304562,0.1498182901,-0.3854463954,0.5675793363,-0.4955613671,0.355914012,0.7097279011,-0.9205190867,-0.828317,-0.6591555426,-0.2843773273,0.6356721206,0.3409024912,-0.3747622442,1.0133756893,0.3868882387,-0.1600995755,-0.2765228014,0.8648165465,-0.3150875196,-1.0370650942,-0.3848365969,1.7160896974,0.7555407271,-0.6751653782,0.4107603479,-0.2111399618,-0.3359575414,1.0200805393,-0.5820271942,0.9773489336,0.6830157685,0.677322369,-0.7761525755,0.6271867601,0.2619833492,0.2572018251,-0.0561199556,0.1748028599,0.9456860124,-0.3708762048,-0.8491569727,-0.8690298747,-0.2774563438,0.6772027956,-1.3046339066,-1.0159373461,-0.8888439492,-2.9003527758,0.0203621461,-0.5832185382,-2.7252838635,0.178959764,0.8434680974,-0.697652625,-0.2835508341,-0.7309888179,-0.6901543126,0.3129916766,-0.793696099,0.4037932733,0.5635691226,-0.5470212509,0.4117770477,-0.2350074713,-0.7603346496,-0.5701647754,-0.3230451226,-0.4536397662,-1.056116959,-0.3961287376,-0.9105382044,0.3814412874,-0.3064713255,0.1481632576,0.3971520699,-0.2639860683,0.3685489231,-0.1664233256,-0.0561473318,-0.3210479813,0.4256342493,-1.0909719817,-0.5344880408,-0.4840126135,0.1121904984,-0.1593779325,-0.3834608274,-0.5594245097,-1.6425393153,0.2064443022,0.3974258822,0.4075235954,-3.5103946875,-0.0620183621,0.3520121404,0.1661601521,0.7312246613,-0.5831026123,-24.0584261372,-0.2931671511,-0.4689622379,0.5826908554,0.9504961706,0.8597467385,-1.0051344248,-0.7388640943,-2.1230528444,0.1363531197,-0.2772282517,-2.9415516188,-1.0437048291,0.0303953169,0.144106749,0.3759388044,1.9836086028,0.5681070393,-0.2380033334,-0.7158344828,-0.9433705792,1.0024086062,-0.4984108937,0.1364260569,-2.6542756478,-1.2593749296,-0.5929250029,-0.9691845008,0.1989255465,0.2847330155,-0.4586393061,0.0585621367,0.4390093036,0.1334719583,-0.9939111529,-1.048329226,0.4807670577,0.2865201033,-13.9395971668,-0.4527539928,-0.5377538191,-0.5169877147,-5.6665273827,-0.8642064323,-0.5297143956,-0.1736748058,-0.6247769219,-0.0783950853,-0.1289452997,0.1170901091,0.8726502687,0.0076874107,0.1104005525,0.2843969323,0.6333209364,0.8655520658,-0.6931598259,0.6762133007,-0.2585010136,-0.9520500979,-0.128883513,0.8008401266,-0.2422907843,-0.4066730969,-0.7824542154,0.1420272034,0.7849203103,-0.8338380284,-0.9732808001,0.9190977945,-0.8852086954,-0.0245042457,-0.8495006243,-1.045804251,0.7813680549,-1.6045370635,-1.054514676,1.0806068854,0.5351201927,0.0663988597,-0.8476335513,0.3781404541,-2.100185232,-2.1369462061,-0.8893114448,-0.5811151,0.57550223,-0.857546115,0.7809753651,-0.0626984628,0.4444414467,0.4463981073,-0.3838060887,-1.3060236054,1.1519035035,1.3019745276,0.431395436,0.6938607568,-1.4411858878,-0.7180587048,0.4928995596,-0.6418330316,-0.6037760764,-0.437443688,-0.2679049463,0.0554316194,-0.7221601277,-0.952292188,0.4712985188,-0.5445542657,-0.4767195519,1.0079050258,-0.3722304772,-29.5783526598,-0.6444345,0.7953430678,-0.5479373833,0.6764711521,-1.0439668001,0.2420906442,-0.0940342248,-0.7983924999,-0.1527125255,-1.4748228771,0.6015898402,0.6851884157,0.9594174597,-0.4429449943,0.42763997,0.2283488131,-0.997745612,0.2357436247,-0.7260565873,-0.4925209623,-0.5450182795,0.5685535758,0.3223484458,0.2839280183,1.0059471107,-1.2871296268,-1.4936528595,-0.160727611,0.6151195138,0.0152955612,0.7278722755,0.5731039792,-1.1648323275,-0.603207008,-0.3127015487,-0.2970396314,0.4158866747,-4.1536240333,0.7289843452,39.1330402044,0.8755989137,0.4839197541,0.0085789136,-0.5309885065,0.1992696748,0.1709862159,-0.0370083533,0.0310882742,1.0852494063,0.6368638157,-0.818836328,0.087465721,0.6330446476,-0.84477049,-0.6169934175,0.3867627535,0.3489708643,0.3754695042,0.2308469651,-1.1359599941,0.1440569437,0.8335977884,5.8340596644,-1.3307542013,0.5019979565,-0.6729757449,0.1850745002,-0.0352081938,0.6167125308,-0.7528990685,-0.9446719513,0.0170695229,0.8386128682,0.1453704119,-0.0108775833,0.6571945013,-0.5299588819,0.4323071039,0.4247402868,-0.4165855903,0.7137187136,-0.7328561594,-1.5199869605,-0.4017857798,-0.0742447232,-0.3273664848,0.0430556987,-0.2399778776,-0.0242924952,0.1053192668,-0.0657140007,0.4391214707,0.5063215653,0.3088455185,-0.3325841236,-0.5296387983,-23.7666679971,-0.7403400768,1.0872977036,0.9676661121,-1.5675918916,-0.245910004,0.2641882033,-0.8120582868,-0.2616619678,-1.3229350602,-1.0872746379,-0.3048825833,4.7026465757,-0.3945958576,1.5060907511,0.7942812137,1.1795232718,-0.5968387229,0.1713029223,-0.6844658895,-0.0369198702,-0.2022937107,0.3664918648,-0.2353283247,0.803138399,1.0645723647,-0.7286238111,-0.3138368087,-0.2905857059,0.4012584377,-0.1813745112,-0.0965398838,-0.1328787353,-0.1349844963,-0.5283574916,-0.3263135824,0.6534152747,1.8138424314,-1.1865655467,0.2825836302,0.1793601003,-0.0667989721,-1.2202021166,-0.7335587093,-2.1335439558,-0.8119221073,0.5950908408,-0.1373822017,-0.9312915391,0.5663613476,0.6525108368,0.2772359383,0.1363696972,-0.8225401806,0.2531627327,-0.2777295038,0.7585250968,0.530441159,2.2392524662,-1.0803371227,0.2245071735,-0.4786312845,-0.4372069789,0.4086083903,0.3867811634,-0.5038097345,-0.7442889171,-1.0550458839,3.9547359835,0.1360791986,-0.2425400018,-0.5887373286,0.5634530307,0.6676839843,0.563322199,-1.348184084,0.512803571,-0.0961733399,0.4758010376,-0.1505614407,-0.4485003559,-0.2805038636,-0.4848788112,-0.4905190935,-0.0519682935,-0.0116388859,0.2268311459,-0.8379201021,0.0449621007,0.1556524868,-2.4571639137,-0.659862092,0.6441146742,0.7337532326,0.2998724244,0.3459610859,-0.3787850935,-4.997951356,0.238397479,-1.0854921425,-0.6217935623,-16.159337758,-0.2202004913,0.9647474219,-2.1227500587,1.6238753508,-0.1239833218,0.2958906664,0.8605534892,-1.0806515402,2.9767717959,-0.8356369445,-0.1181146639,-1.2334875791,0.4379716287,-1.3519275605,0.3300856588,-0.9154941582,0.3984744783,-1.0950059214,0.2751534199,0.598912489,0.1409900801,-0.5030419446,0.7499125168,0.3670009929,0.6020031773,0.321529766,0.729961602,-0.2849614666,0.1526928254,-0.4928933487,-0.2440882067,0.3551939954,0.9695680651,-0.3921982311,0.8007093969,-0.9282651972,-0.8101880498,0.0627524419,0.7825183655,-0.2427421347,0.2539061725,0.2503368586,0.8361274135,0.7534454098,-0.0599317085,-0.3123611,0.9245515853,-0.827721451,-0.5414532691,-0.6090633854,-0.7887123227,0.2817443133,0.2736584995,-0.4305337185,-0.1931200971,-0.7299037102,-0.6310028739,-0.6717118349,0.4705524226,0.1970427039,0.28654079,-0.1829191634,-0.5190123941,-0.5345273865,0.3584379498,-1.0412736004,-8.5650609086,0.4476562134,-1.6366584842,-0.221865153,0.5989496722,0.1805700067,0.2841211156,1.5693155381,8.7339494817,-0.2072280054,-0.8776787614,-0.7580421555,-0.0109420512,-0.8456972308,-0.735316444,0.8753933218,0.8948402308,-0.5757681079,0.2894627323,-0.9031090661,0.2665669747,-0.7032429671,-0.972875363,0.002726989,-0.6781387805,-0.2871946255,-1.7570860859,0.1586550033,-0.0571115147,0.2769818756,-0.223048101,0.7704721931,0.1392541914,0.1912050984,-1.0552289748,1.1810259841,0.5128986621,-1.4968216038,0.2539724625,0.1141764581,-0.4690934561,-0.4069120133,0.5645103114,0.1746005916,0.6114780487,-0.5980899616,-0.4211529934,0.5330491178,-0.2206944107,1.1030292912,-0.7645705669,0.6596769236,-0.5841478093,0.6429104169,0.6677485946,0.7456493433,0.7365087861,0.2791434497,0.2590451951,-0.1971951063,-0.0527070268,-0.9479141952,-0.1829506292,0.0712550235,-0.9097444001,0.0939810927,0.7158184849,-0.7151491103,0.5643066681,-0.8345325371,0.9990353909,0.5653227075,-0.736282232,0.4629944301,0.2911097621,-0.5529949477,-0.3714339742,0.7599067528,-0.4038838645,0.7544974463,0.6487148422,-0.6203068491,0.4975372782,-0.6255151759,-0.3785808712,0.4374264296,-0.8948099234,0.4005382369,-0.1334904733,-0.9469014608,-0.9481246512,0.2041163772,0.824120737,-0.6881471102,-0.9087143485,-0.6345196203,-0.5788745221,0.9246575764,-1.0527003774,-0.318910615,-0.3441318406,0.9344247613,-0.7573897496,-3.6914545167,-0.635793351,0.3228670829,-0.1083998121,-0.5610692086,0.0534767018,-0.3369409204,0.0019123688,0.6084232852,0.0545104074,-0.420957659,-1.6896903259,-0.1447782375,0.8940036718,-0.6978629182,1.0372925527,0.5506651479,0.7289499537,-0.6072223795,-0.307330795,-0.1417938481,-0.9403311697,0.5747686897,-0.1559969501,-1.0901267099,-0.5460050827,-0.7094668515,0.3176994693,-0.4576493311,-0.6765910116,-0.1094243755,-1.3464099734,-0.6747544667,-0.4295813735,0.7434832807,-1.3920860853,-0.839484447,0.1624011269,-0.9828091038,-0.3231723848,-0.3105235688,-0.505370427,-0.3210653069,1.0979967344,-0.4758567122,0.2606642324,-0.4671648298,-0.1161758987,-0.1750756398,-0.0631191152,-0.6459361955,0.9123127193,0.6570353234,0.1077397127,-0.217037556,-0.2686962121,-0.669378505,-0.9042566988,-0.3322697111,-0.8610932135,-0.1742423404,-0.6680455911,-1.5462092453,-0.1325651816,-0.7292254603,-0.8121900023,0.642504436,0.3572270356,0.012612148,0.3248745372,-0.7851760535,0.4363973995,-0.2208859166,-0.7648151638,-11.101714806,-0.316998048,-15.3444325856,-0.884352942,0.6394864495,-0.3842210028,0.864065539,0.5083201134,-0.1854785762,0.0829861739,0.4169713665,-0.1776928802,-0.0380497858,-0.4359569004,0.0838883937,1.2151151127,7.6312143242,-0.0389749763,0.9793490209,-0.5561288938,0.2670912487,-0.7066912711,-0.427789231,0.8179562939,0.5287240089,-5.1128530738,-0.9983963541,-0.3793715914,0.2118492787,-0.5398295985,-0.1713097227,0.9978091736,0.9925581078,-0.1258297103,0.8409103699,-0.2285175965,-0.6895716548,-1.1370536435,0.8957025147,-0.132285363,0.4296867343,0.0710708397,0.545240585,-0.7095562645,-0.500390324,-0.8661614696,-0.0555658502,-0.9276089179,-0.0132694167,0.0691373508,0.8879879296,0.4397245206,0.4032386391,0.0170398581,-0.1539121456,1.0544067345,-0.594107045,-0.9208137767,-0.7300250102,-1.3980375767,1.0519233973,-0.4733981584,-0.7500219439,-1.1440601362,-1.4035077768,0.2909187373,-0.2691425125,-0.5450345615,-0.5570861566,0.0157809644,1.4967749585,0.4363591385,-0.6600263185,-0.1831873647,0.4949189243,-1.3689792891,1.206168825,-0.9467985929,0.515920471,-0.2416707813,0.3742893013,0.1320192185,-0.6362997372,-0.6219540644,-0.2249754199,-0.6725139586,0.9218566934,0.5462958186,-0.3877087043,-1.5404322254,-0.2674474449,0.3717221575,-0.972739972,-20.42073213,-0.0517719399,-1.9864430195,-1.0659556469,0.628707902,-0.6885432833,-0.3007538538,-0.4461081878,-6.2985125968,-0.5429532587,1.4815832681,-0.0717995575,-0.4420067358,-1.1395761042,0.822615789,0.1827302495,0.8473162042,-0.0816937427,-0.1605129432,0.1831558139,-1.2476493495,-0.5525400918,-0.826636,0.4584877374,-0.7866582213,-0.7339734137,0.2150598185,-0.8327729482,-0.7469956605,-0.4233306466,-2.382920738,-10.8750848021,-0.6814306122,-3.1687292263,-0.2109967192,-0.7463673232,-0.2233722692,-0.2607768756,-0.1225012082,0.0719903977,-0.5796046305,-13.0717653198,0.5018905687,-0.2097390849,0.4160567509,0.4171588389,0.5937241594,-0.6349106784,0.8580013034,-1.7284592718,0.5820880488,0.5324945728,-0.2462508244,-2.2805444502,-0.0173328153,0.2078639811,0.7732136582,-3.6692318382,-0.6283891607,-1.9252103201,0.1475205432,-0.7172279261,-1.0128315372,0.4209682917,0.0410321972,-0.2349158074,0.2134034165,-4.5456123131,-0.649110005,0.3035640567,-4.2754989977,-5.4958366009,0.0736478953,0.1875208662,-0.9685940337,0.3693291073,-0.9376994437,-0.5273612008,-11.8264297846,-1.4914801899,-0.6668173865,-0.9058540731,0.1782365608,-1.0790533739,0.0620423583,0.376644176,0.1120723525,-0.6540689724,-0.5178808269,0.7993651762,-0.0293202093,0.5644205982,-0.2300912711,-0.617568884,-0.2623394702,0.501104852,-0.123346859,3.4440059031,-0.1382589687,-0.8068048053,1.0078270581,0.3089385542,-0.0720945282,0.4785466055,-0.3342821664,0.969454016,-0.1419200812,-0.9430488459,0.6257831509,-0.7253971703,-0.1077034226,-0.572956304,-1.0081358526,0.0290105991,0.7577815656,0.4275088982,-0.1064361125,-0.8776451997,0.3929466895,-0.5888534772,0.77253425,1.0319964153,0.6021136557,1.0044917309,0.3389138726,-4.0288187715,-0.7418904803,-0.7770178557,-0.6221418539,-1.4729656271,-0.6519671881,0.9650910785,1.1441433182,1.9988401465,0.4119495485,0.844780612,0.4836232037,-0.4489618877,-0.6347649511,-0.0015622165,0.5207489504,0.5131964872,8.122238098,0.7020969338,0.5812715143,1.0143074645,-1.7422521614,-0.3518781557,0.3157541713,-0.061918517,-0.486406733,0.6953408775,-0.8593436375,0.4117382756,-0.8389705535,0.074988339,0.7361850144,-0.6822980388,-0.1111918864,0.873228402,-5.3185773797,-0.319733466,-0.2315453634,0.4648513678,-0.3624725958,0.2727527299,-0.4400081874,0.1943571147,30.0244916256,0.001874119,0.0311368846,1.6599956829,-0.2124308926,1.0570317554,-0.0107822563,0.4998821442,-1.0504316017,0.2401232306,1.2252985477,5.9520579212,2.8357683213,-0.4881898022,0.237460695,-0.5773664918,-0.764162771,0.1250586349,-0.8797491814,-0.7293692834,0.6723406396,-0.3812672777,0.9005639253,-0.5570004932,-0.4642933788,1.2058006871,0.4396632033,-0.7239851117,-0.4641675013,0.8643280806,-0.581291694,0.4967313659,-0.4532294453,0.5465959205,0.1150883215,-0.4820577937,0.5062778987,-0.7614232155,0.1223781308,-0.6948695755,0.1490292979,-0.2245881808,-2.2402312405,0.2300318456,0.0997331352,0.2933707448,-0.388196984,1.0072882464,-0.764331676,0.7106302356,-0.6409249397,-0.1513542749,-0.4135817578,0.3827962748,1.2036520786,1.1364730892,0.8823404846,0.8968068938,-0.7593460378,-0.227543928,-0.7394392224,-1.2068867852,-0.4847726573,-0.8179406092,0.5706261804,1.1295734455,-0.3257567013,0.6594625065,0.3136354778,0.5141586671,-0.4305661925,1.0971363805,-0.7480682138,0.188668818,-0.4137089534,1.3581992683,0.014452292,-0.7971763424,-0.7434734663,-0.297427057,0.7496580658,-0.4141002303,-0.1414135649,-0.1352967848,0.6700185724,-0.4322678829,0.8704143693,-1.3597855963,-0.0689772372
   -0.1828453939,-2.1117931143,0.0444578707,0.3392322897,1.0260536276,0.4091863282,0.4093639771,0.9025467183,-1.1594033962,-0.8130932637,0.1210716384,0.016455862,-5.528434023,0.4351044094,-0.5761762573,-2.3842630116,-0.7012763072,0.4577347513,-0.8901964456,-0.223966124,-0.4259368128,0.5337650178,-0.7808934724,-1.2611536051,-0.2935560876,0.3524241195,0.3033325218,0.9035142946,-1.322083535,0.9867871484,0.2362100147,0.143959321,0.2247169125,0.783487796,-0.791387454,0.8845641431,0.3701046485,0.6452179608,0.6124434468,-0.8090176317,0.2044543394,-0.3840673235,1.0388237472,0.0288935903,0.6331238722,0.0992941031,-0.4251538635,-0.7644014144,0.7857205554,-0.7050341428,0.3470512041,-0.9302365433,0.3371753756,0.7761439627,-0.9160768053,0.7687740347,-0.4046432056,-0.8298023162,-1.8556020485,-0.103635618,-0.010557236,-0.7067856696,0.7735866854,0.1517113988,-0.0212749146,0.568722011,0.1679864253,0.2255898089,0.2474106591,0.6386975301,-0.9834617168,-0.6009373941,0.4875329237,0.0367400631,0.7906349439,0.0190098795,0.5298595218,-0.2219953456,0.9483687158,-1.0223933785,1.6662339329,0.3108539693,0.9829737845,-0.0018909509,0.0315956233,-0.2684641999,-0.2744574307,-0.2835709459,0.360556602,0.2445900771,0.1743865925,-0.7655179907,0.7830685315,0.7050624847,-0.1521596662,-0.0749849749,-0.2127021693,0.3509487862,-0.0254939738,0.3544774173,-0.0257004618,0.0872703304,-0.4385164638,-0.1411553545,0.409059545,9.0650814418,0.0918865871,-0.5877951422,-0.6517132383,-0.9127067184,0.7321498466,0.1152773748,-0.086952837,0.8111875874,0.4982118848,0.8016568846,-1.6591055112,0.2486727807,0.7920782137,-1.0086597047,-0.9069257369,-0.7083518189,0.5421557128,0.3121651484,0.1062378611,0.1604590934,-0.5573269801,-0.6681359191,0.2862205953,-0.2723024654,0.170628266,-0.2982906676,-0.8535506962,0.3604675433,0.5577294713,-0.545122707,0.5076074664,-0.411878803,0.1526137435,0.6157923747,-0.8272142125,-0.8511045926,0.0125104437,-0.8827468192,-1.1700208152,-0.8257043471,-1.0173251649,0.4800729408,0.0739957007,-1.2096385936,0.3134750871,-1.1772221432,-1.3910063852,-0.7639600178,0.4985120007,-0.5871616611,1.1044312804,0.2769079295,-0.3413631528,-0.1956632714,0.7704021318,-0.4670204729,-0.7485679795,-1.3792547578,-0.6876425299,-1.5771769174,-0.5626942581,0.3816062899,0.0836718683,-0.1509801251,-0.1863872034,-1.1813801879,-0.4941560128,0.0241683401,0.3137862035,0.10698513,-0.1663576376,-0.9403135542,-0.2546848779,-0.310751091,-0.5699653851,-0.1748655174,-29.6346191488,-0.1391161216,-0.1450217058,-1.3049611559,-0.884929942,0.3075366333,0.1474712205,-1.21556958,-0.1959024151,-0.7031017129,-0.9976370362,-3.6644126882,-1.2288825696,-1.1706648751,-1.1435760428,0.3190177729,0.1271358192,-0.9704332709,-1.335232671,0.0413435726,0.4650425366,-0.6386584606,4.2443637637,-0.2314443055,-0.5619577272,-1.1368861368,-0.1169575173,0.7840537717,-5.5660173431,-0.0234433754,0.4519966391,-0.2695815925,-5.2816709333,-1.2544816193,0.5277903109,-0.9369975058,0.0892750758,1.0010362102,-1.3259307841,-0.9073284452,-0.6201659168,-0.8607516901,-1.1747079069,-0.2083324001,0.4029326487,-1.204839305,-0.0892056575,0.4436252977,0.4404239768,-1.2598126742,0.9643056316,0.2770294351,-0.5977222144,2.0091225669,0.188721919,-1.1031741836,0.3772508371,-1.0699572157,-0.2244020398,-0.8296155567,-0.0808657653,0.6211129786,-0.163885039,0.2990472003,-0.91981624,-0.0910357776,0.4173151857,-0.1711157165,0.8370000138,-0.1546204514,0.4802884986,-0.2524621851,0.7778595659,0.2239776933,0.9302943728,-0.0712691506,-1.1286967672,0.188062112,-0.8162661388,0.1747689719,-0.3775499172,0.4921695936,0.8204605878,0.2104677177,0.2028317513,0.1223527158,-0.071394972,0.8599933288,-0.6680412555,-0.5275287069,0.7647137364,0.6380495546,-0.5343844658,-0.1862002744,-0.4013832476,0.4638087644,0.5488017931,0.4042748117,-0.2337838135,0.9254684503,-0.1583437757,-0.9360287078,0.4086076268,1.1652450157,-0.0045379371,-0.5107804321,0.9958937234,0.4953186283,0.9736007413,0.8096519279,-0.0782024219,-0.0528192964,-0.4372702322,0.5687123861,0.5597026313,-0.4497952332,0.0315597283,-1.0293424853,-0.2330404854,-2.4998750305,-0.7999571262,0.6152164679,-0.3194752771,0.7851982727,0.1261875617,-0.8945904497,0.5387517461,0.7020740833,0.1480152066,1.3821894809,-0.5092543316,0.2429516241,0.0906983638,-0.8134799741,-0.3246299776,0.6440549531,0.5115991033,-0.2158639908,-0.8628762805,0.2349432561,0.3027041826,-0.5273727309,-0.9066912329,-1.1210286409,-0.5748111813,-1.01588843,0.6701499908,-0.4036036534,-0.3528538951,0.9235280266,0.4982600166,-0.0395224888,-0.7174573408,-0.0394009501,-0.1584998641,-0.5976105123,-0.4472724229,-0.7812531539,0.5403381088,0.0069018565,-0.9247044329,-0.4535630259,-0.7791597096,-0.2681556728,-0.1206704573,-0.7824925208,-0.1947855894,-0.2607921035,0.4793398683,0.5910807621,-0.6123958632,-0.586190522,1.3506986185,-0.5521472247,0.5868671576,0.693286092,-0.0476308659,-0.2732918722,-0.0124976952,0.3736025655,-1.0134360502,0.951783122,-0.0118782834,1.1107866073,0.1656947521,-0.5055652276,-0.4110406673,1.6353541288,-0.4370603463,0.4678840973,0.0721585686,0.8437342067,0.2200636243,0.2590481752,-0.4872023434,-0.3915653105,0.3847215625,-0.7537117712,0.5903532851,-0.3587079979,1.1247106341,0.6323288014,0.7125358161,-0.1379345915,0.6224400082,0.8718278936,-0.4227301747,-0.7925606143,0.5315461057,0.1971817139,0.8452734635,1.0507009065,-0.3867051688,-0.331159364,0.5212431253,0.6377871053,-1.1991436766,0.3037324759,-0.6910980265,1.0363219589,1.161692395,0.1628155049,-0.2386808343,1.0863545162,-0.7242186815,-0.4220391758,-0.3482855421,-0.6575517012,0.8340081898,-0.5403093794,-0.5072913639,0.3940873771,2.2229539003,0.699216348,6.5044872067,-0.1699996639,-0.8931842026,-0.0885523994,-0.3375860212,1.2429629914,0.3841346414,0.3839202786,-0.2200294124,0.564482278,-0.416359309,0.1420604398,0.4442621258,-0.9347351215,0.5112932694,1.2619574228,-0.8487132708,-0.8866203384,-0.3323039159,0.4189684064,0.6425890154,-0.6991345772,0.6165468836,1.0678245383,-0.5835216004,-0.2147629176,-0.327554811,0.6650581187,0.329169504,-0.225161343,0.9434561381,-0.4680716295,0.2822010883,-0.3196674708,0.9016072883,0.1705244451,-0.8758208849,-0.6815720954,-0.8274283775,0.738134096,-0.5638526202,-0.7583520645,-0.9092795721,-0.6841431413,0.532287117,-0.9904877028,1.1315051845,-0.0336492679,0.6615443169,-0.128332473,0.2734050393,0.6435398623,0.7437825992,-0.3544499451,-1.4365210291,0.1476418529,0.1383988755,-0.6270193546,-0.5339556675,0.4891353768,-0.7694892276,-0.6115798353,0.6555309228,-0.6231779776,1.2574498982,-0.1773762189,-0.7818853222,0.3512060042,0.1774152637,0.5104373859,-0.6208184772,-0.5788111806,-0.6471024563,-0.1282238096,-0.3970372222,-0.3335827935,0.6256343578,-0.4994323597,-0.4980306386,-0.4141719048,0.7702161019,-0.9357557943,-0.0823776935,-0.80843281,1.2606869903,-0.0526888469,-0.4028892278,7.2992877218,-0.0026857921,0.628680464,0.3260013764,0.3964874271,0.8094404154,1.2116416437,0.2305922727,0.7657547073,-0.3484085677,0.6517998477,-0.7491079508,-0.9456226501,-0.7425131545,0.164234965,-0.5255626342,0.0980144919,0.1292093928,0.9253962257,0.4681848833,-0.5577207657,-0.9524998169,-0.5787413508,-1.3943746675,1.0972938941,0.4214656698,-0.0096112846,0.042715569,-1.4709913583,-0.2331143962,-0.4747552,-0.5404806155,-0.7893848913,-0.4774809231,-0.8105194631,0.272133888,-0.1776062422,-0.8842136966,-0.557183022,0.9983235654,-0.4316815004,-0.5920704108,-0.7635191691,0.0117274841,0.2971488349,0.5376044937,0.1809675027,0.3336351457,-0.7961781208,-0.5963314937,0.2348084755,0.1455659004,-0.8281774115,-0.6805177516,0.1281329492,0.9560182455,6.2338105392,0.9278109069,0.7002525719,0.5872922646,-0.0463896424,0.6772885709,0.5673183034,0.6066948392,-0.3671845891,0.4143412815,1.2606267586,-0.4314437081,1.1230963572,-0.8230102132,-0.1010838823,0.3037025837,-0.8891780939,0.7347452259,-0.0772464595,-0.7429921432,0.6582913194,0.5001477112,-0.733814391,1.5009351002,-0.4165550575,0.7545034801,-0.5162474264,0.1884498179,0.7756426696,-0.0109628242,0.4957836509,0.0234168364,0.1130183208,1.2731502782,0.8714222472,-0.7002548918,0.6667706604,-0.8256846007,-0.9468631311,0.1289874805,0.7299616565,0.540069376,0.7699366777,-0.2083306009,-0.1552586006,-0.2541459078,0.0784630776,0.4407367583,-1.4422649824,-0.5342025821,0.0075774572,27.692171897,-0.2185566614,-0.006514362,0.9986002884,1.2395259506,-0.7239418492,0.3403328234,-0.380426775,1.3511219992,0.1769968885,-0.43499864,-0.1679942642,-0.4829897952,0.9483329373,-0.4010765929,0.8412584849,0.8843479895,0.045456781,0.5476465633,1.6928397606,0.0614376074,0.8302616223,-0.6088070538,-0.6253268549,-0.3778784728,-0.6022245131,0.1213457421,0.0809255647,-0.1775534953,-0.359236295,-0.3926165233,1.0064681453,0.0451839422,-0.0011815919,-0.6352267315,0.0933884608,0.7830564242,0.725764304,-0.0670552698,0.8325234103,-0.8217748351,-0.5796731759,-0.3287218844,0.2917446706,-0.4891481145,-0.810924087,0.4048174182,-0.8371078246,0.4931717315,0.7456769104,0.0091212974,-0.8183073864,0.006072957,0.3334328778,-0.858397706,0.3943825157,0.5046369923,0.469546104,-0.327746731,-0.2377091394,-0.6754231032,0.1434782315,-0.6657311386,-0.5643441885,-0.7743791754,-0.2867814293,-0.4176651527,-0.4513988283,0.5593581388,-0.633053216,-0.2821410835,-0.8012776396,0.7033318716,0.0939861956,-0.2670462828,0.0669930301,-0.4723710269,0.7623251939,-0.1891717044,0.8263193969,0.0295621658,0.0272229485,-0.041327284,-0.3339967334,-0.1258816169,-0.4033975796,-0.6630373722,0.4725142803,0.0599949098,0.4402913106,-0.0949151521,-0.6069013414,2.7268699204,0.3864041675,0.7092564843,-0.1927360428,-0.5671635288,-0.6000826823,1.650663878,0.834839024,0.0752867413,0.8337386474,0.7420188847,-0.0896325669,-0.6468521965,-0.1942982214,0.3754693794,-1.0189700174,-1.4580409873,-0.0597244681,0.4048731267,0.4857750262,-0.4557395289,-1.0027580075,0.9878862558,0.7216137876,-0.2883630913,-0.6088029808,-24.750163057,-1.353733929,0.3522573321,-0.2480972045,-1.5040610608,0.9870928046,-0.420697427,0.1809448692,0.1125031724,0.2875759378,-0.5565101342,0.0087852503,-0.1132308991,-2.5252898153,0.144322982,-0.0482047377,0.7506848436,-0.2623092409,-0.8842578361,-0.989921236,0.0776882195,-0.9830882726,-0.3631892182,-0.7761993511,0.0803195266,0.1275229091,-0.4895105567,-0.7508228743,0.2849128476,0.9144030375,-0.4488147189,-0.8421306373,-0.1622240738,-0.2079001461,0.9967522202,0.8128073858,0.9518619329,-1.0257172917,0.2778378973,-0.4831594184,0.4747605478,-0.6950752041,-0.0269822441,-0.1081332119,-0.1073442701,0.4324509643,-0.1545175328,0.0394449277,0.203619205,-0.5217744408,0.9952533785,-0.740973511,0.9396590421,0.4753650018,-0.7513511797,-0.9734990411,-0.4823704356,-1.4535412362,0.5244612481,-0.2233693017,-1.6588786846,-0.3069496797,-0.1329345265,0.0524009475,-0.3262669492,-0.5671357177,-4.5128494599,0.7497308679,0.2995741796,0.8985626587,0.3148804289,-1.0806696905,0.861180769,0.7174562301,-0.8110889952,-0.2251064148,0.4627010412,-0.5494904189,0.9953929044,0.512662126,-0.1126661977,-2.9874061861,0.2737485358,0.3714869935,-0.2652569129,0.6368649594,-0.2409804869,-0.7966066271,-0.5592613971,-0.5145417338,-0.7702269453,0.2229845284,-2.5621877668,-0.4265091759,0.2073172579,0.5150105665,1.1831208614,1.1432084277,-0.2769793227,1.0113491637,-0.2005141751,0.5761740535,-1.0499255666,0.6267533973,-1.0436284526,-0.0460410979,-0.8340758533,-0.1999815086,-0.3987250177,0.3911696641,0.3423008211,-0.3644429609,-0.497024427,1.1020714398,-0.5119996796,-0.6171418959,-0.0626970454,-0.7256203222,0.5000102799,0.1465267974,0.147119588,0.5904508874,2.1389585238,-0.2665825525,-0.2997664135,0.7436006042,-0.9414837246,0.5853081208,0.0879170364,0.6181448189,0.3925229945,0.1415854052,-0.1295868209,0.5376537967,1.0720419328,-0.0612171608,-0.8584454633,0.3058238111,0.3562646833,-0.0206692707,0.0694105493,-0.9550509236,0.6609655981,-0.9851585216,-0.7361286215,-0.2939420474,-0.468835991,0.0287140117,-0.0848892443,0.4085414461,-0.228314446,0.4815083342,0.5283020781,0.841344983,0.0313064539,-0.4045030406,-0.4369114823,0.4979311276,0.5805487887,-0.9606937541,0.522130321,-1.0068890741,2.162796857,0.560186303,-0.8845532433,0.5212778695,0.0963512416,0.5528457347,-0.4944269224,-0.4233157344,-0.3654993084,-0.0807460855,-0.9762412845,-0.6786250989,-0.175425821,-0.1249658669,-0.1111907489,-1.1967020485,0.4618520459,0.5263515871,0.8323633628,-0.2751053544,-1.6673385688,0.2721829019,0.7246203724,-0.7733505911,-0.0587354334,0.0415299824,-0.3580604529,0.4994799596,0.5909393961,0.6884603485,0.337952221,2.7059493031,-0.2463725142,0.9383850832,-0.8413437203,-0.4673865301,1.160864611,0.0370155863,0.603771023,0.1938861382,-0.6860158327,0.407100505,-0.0507794121,1.491187951,-0.526474381,0.2231522767,-0.1409710265,-0.5700416465,0.5371514063,0.9835549818,-0.5281453168,0.0932498246,0.2727725355,-0.4797236385,0.2250955796,0.7205247831,-0.118143184,0.1142422475,-0.9545961645,-0.075593209,-0.6622648977,-2.6801534282,0.2037388044,0.589765163,-0.0565545933,-0.2682522276,0.4367002468,0.2541144447,1.2405089818,-0.2198672534,-0.1986436812,0.1565748804,0.0684545451,-12.2773610737,-0.3180682039,-0.8978601258,-0.0880623012,0.038133071,0.3809754651,-0.2257420055,-0.6864020217,0.6685057638,-0.026897413,-0.2540405728,0.512600443,0.5270222842,0.3504382196,-0.3969468512,-0.3290825909,0.732761276,-0.7506216625,-0.3955674181,0.5042096419,0.0765822878,-0.2300125842,-0.3107897337,1.012783405,0.8222303176,0.7467916319,-0.4691872016,0.2956957355,-0.6917772105,1.2561305799,0.2615315744,0.0423994449,0.6059330629,-2.8014493501,0.6668827086,-0.4093694691,0.4391003255,0.8339127655,-0.8343946956,-0.2250130999,-0.4836026665,-0.0303841625,0.3637102648,-0.1351410686,0.2078873314,-0.7110003402,-0.160471498,0.0487852425,-0.2753436204,-1.2209137357,0.8193714571,0.3750987598,-0.9297925569,-0.9162283699,0.468271056,-0.5129440688,-0.8128942504,-0.9385459213,0.7443054179,-1.0947899588,-0.2639114431,-0.4576647977,-0.9030808365,0.1686545979,-2.2514924104,0.9552182998,-0.3980642684,0.0164990615,0.3925442717,-0.1564914352,0.7101454404,-2.2092821888,0.6250380787,-0.2292857674,0.1056890033,-0.1090859655,-0.8063385796,-0.8809415481,0.5308195599,0.3338842108,-0.1096742564,0.5661702571,0.0866473161,-0.7528913093,-0.8640378961,0.5887977346,-0.5245715534,-0.3134409102,0.635102507,3.1380994153,46.7301142171,-0.1332124736,-0.2205199509,0.5017678587,0.8020481619,0.4104053562,1.8860601055,0.0023600702,0.7040173706,0.011326964,-0.7420203098,-6.6333449679,0.5937055415,0.7696283141,0.6466376098,-0.423313288,-0.2339571162,0.3314640991,0.2216748793,2.2365114848,-0.0428127778,2.4996923041,0.2603837495,0.9447155007,0.4410357439,-0.3409618495,1.4683120748,0.8000720841,0.9554118853,0.7306888123,0.5331878465,0.2705195735,0.4433516168,0.8072541615,-4.1966076501,-0.2679130814,-3.7608317213,0.9467020017,8.348134299,0.2194412388,1.5280155936,-0.4099709712,0.1524798324,1.3381577514,1.2447812718,0.3487233032,0.6382035417,-0.2937143844,0.2280018948,0.8912755056,0.7342868932,-1.2587588977,0.9167691107,1.427678056,1.4710019496,0.1083236862,-1.9633334986,-0.226773185,-0.0464593995,15.6725478069,0.087629595,0.5990159578,0.2574877506,-0.1181348526,0.5531840656,0.9354645811,51.5553369991,-0.9137942893,0.1924763518,1.4828022198,-0.754037409,0.273003739,0.4669159953,0.4807309414,2.0150315263,0.2769257377,-1.6891634173,0.1374400509,0.3920770853,-0.6806667206,0.1885072688,0.9110407153,-1.0424623286,-0.0881091166,0.1368237602,-1.549877986,0.5355928058,5.3824448738,-0.6528507589,10.0609716747,0.5041589586,-0.3581297959,-0.5858306584,-0.2511406823,0.2297781832,-0.0510360687,1.147009076,-0.9614981907,-0.5139445304,-0.4279718166,0.9124793215,-0.3913031294,-0.9058123076,0.3256675655,-0.7892069186,0.5133118554,0.1484012896,-0.5277848512,1.0115382925,-1.1308105452,-0.3321418667,0.3388088585,-0.12048903,-0.4824021709,-0.3872806264,0.6560780152,0.1690264848,0.605569493,-0.2352668225,-0.8342205584,0.4861427044,-0.939102314,-1.556828489,0.5482828039,0.3484570578,0.4690412586,-0.7202454524,-0.099913006,-0.4739654919,-0.2450896009,-0.2546767421,-0.7934708205,-0.5319799353,0.8760085615,-2.6845763569,-0.2674315544,-0.518084002,0.322927643,-0.2876636138,-3.1054462946,0.6478679449,0.5950560909,0.1900863373,0.2442021816,0.3276449484,-2.0658758131,0.7298036758,0.4423411413,0.469128809,-0.8940751388,-2.0326048189,-0.523219573,0.1765593283,-0.1442844056,-0.7312760225,-0.2688766562,-0.8409060595,0.8429016232,-0.7898729506,0.3494194062,-1.533816952,1.9896908251,-0.3354063597,-5.6434317762,-0.1933380585,-0.8042819854,0.2226290268,0.1306658091,-0.5190390251,1.7856958489,0.3132497907,-0.6288428783,0.1900901922,-0.2772825098,0.0837629476,-0.3142456007,-0.7166518672,-1.1832398603,-0.6451059395,0.0304613047,0.6313978666,0.0678602368,0.3765533312,0.1880162239,1.9475210355,1.0027802274,0.0754844518,-1.1618756269,-0.6694414574,-0.7441329705,-1.3919142871,-0.5372140332,1.6630418532,0.4620684218,0.0031394676,0.7680378358,-0.5505618253,0.315657491,-0.0479069224,-0.2643030017,0.3985370053,-0.8504693044,0.0559779183,0.0427102651,-0.5350391506,0.0188698573,0.1591311178,0.3448796741,0.2782156806,0.1149758628,-0.229201434,-0.7798326218,-0.9100163499,-0.5358579276,0.3203250124,-0.4417767286,0.212141708,0.1121843735,0.3297247526,0.2801405445,0.657890559,-0.3857234164,0.2321467368,-0.2713843398,-0.7573758132,0.7116870392,0.3480660788,0.0142354729,-0.5596779777,0.3819967879,-0.3723117078,0.9970175273,0.0657094498,-0.7437738724,-0.1848836921,-0.8478795453,0.1139691675,0.8429819606,0.7956588975,-0.1308141773,-0.0527643711,-0.1984782644,0.5887357955,-0.3550559596,0.2698023379,0.9836778807,0.7829789541,-0.9048768161,-0.6484372079,-0.7954050614,0.3696699414,1.4626998117,-0.1270416194,0.1659336154,-0.8854604589,0.6711761836,-0.3856466753,-0.1515603691,0.0598697219,0.1553511026,-0.4177614971,1.5902757956,-1.0413755116,0.412171344,-0.8323267306,0.6711817172,0.1225707652,0.5972016031,1.0440530848,-0.0614469254,-0.4871453145,0.2011689261,0.1644539466,-1.2804222786,0.6972123707,2.3477805252,-0.6839785956,0.4236380235,-0.9721092466,0.2804490359,0.7512041367,-0.724505255,-0.0775101927,-0.5043752028,0.6757691823,0.3038646691,-1.4533976654,-0.9284537439,0.0011744061,-0.1258051138,0.4264770701,0.6888398191,-1.1179439247,0.1997919669,-0.9163015861,0.3762384244,0.4777095241,-0.3126835115,0.6447701432,0.1467947019,0.5377796789,-0.6749725415,0.2042942439,0.4838845654,0.9734586528,0.4360537698,0.5641522062,0.0870883766,-0.6370781411,1.0654871773,0.218834723,0.7788010546,0.4771631233,-0.8642830285,-0.4803197654,0.1319211712,-0.1880701284,-0.9096387549,0.2557215416,-0.211197264,0.1341987237,0.7991192307,-0.2876939355,-0.0527326243,-0.2648134011,0.7634451402,0.8573552965,0.0092014019,0.6673529949,-0.1321873248,-0.515346971,0.0383803863,-0.1030979491,-0.573641483,-0.5268720279,0.124871146,0.5731347499,-0.7906125907,0.7655763827,3.1196071256,-0.3244033182,0.6787451688,1.6451484732,-0.4282136236,-0.1432047463,-0.057543104,-0.5906863638,0.8714861252,-0.3589769126,0.5353534495,-0.3447749747,-0.7221796825,0.8118585462,0.5234116512,0.9480038293,-0.2144728151,-0.7298121409,-1.0103819436,-0.2476911099,0.3984730681,0.9592354708,-0.0407937323,-1.6077858021,-0.5077667801,0.5538146436,0.2654423722,0.8755086508,-0.112731739,-0.1395745545,-0.6455096014,0.6228671919,0.7363835442,0.6373484875,-0.2773453523,-0.848460084,0.1819848132,-1.0925829479,-0.9292709161,-0.8545188898,0.5090681257,0.8088968567,-0.2635278547,3.3547935816,0.6544293792,-0.345781979,0.3821716739,-0.2723841065,0.4571556384,-0.5865841004,0.0653900213,-0.3723158501,0.9749994881,0.3935830615,1.1293551628,0.8759070405,0.0003296695,-0.6454743644,-0.4631819629,1.13723539,-0.6000566892,0.2021304057,-0.2271896193,-0.11386691,-0.7041248609,-0.2542848066,-0.7311223746,-0.5548911202,-0.2719288208,-0.6766670239,-1.0765336728,-1.0695946259,-1.0884465621,-0.4181372052,-0.5737073179,-0.6805896385,0.3520003871,-0.442849157,-2.5641668747,-0.84683346,0.8494543948,-0.7873059166,-0.2421399478,0.312942459,-0.2111717735,-0.5029063648,0.2427662569,-0.088505521,0.0112846495,-0.6010604047,0.7355075717,-1.1664397051,0.1477821408,0.5839014448,-0.8662251468,0.3608696575,0.3159531504,-1.0187625033,-0.9947736222,-1.4011236798,0.5988341624,-1.8853702299,2.0333344073,-0.967862425,-0.5894398417,0.6121403832,-0.7169182701,-0.5970320028,0.8786519652,-0.103469577,-0.9956680498,0.5215482453,-0.0885888705,0.2749495089,0.461880644,0.6707003001,0.590335651,0.6684960489,-1.1718569878,0.5758868087,-1.1716905324,-0.913216773,-0.2911459968,-0.1236691641,-0.5136778733,0.1657145538,0.4976524804,-0.6581748599,-0.5881234249,0.1552328633,-0.2598539909,-4.6120879624,0.5935277498,-0.5096269525,0.701926424,-10.5486135226,0.4803278681,-0.4377871675,-1.7991217351,-4.5390476542,-0.6007503945,-1.7088311299,-0.6879209723,-1.1895110596,-1.0008537372,-0.4525123974,-4.8219434841,0.365414331,-0.8252784213,-0.4595057245,-0.3820864396,-0.9905700785,-1.2332838396,0.1473329102,0.6840945299,0.4620286917,-0.1642166789,-0.4608861541,-0.3896863481,-0.0580986172,-0.5782556428,0.5348687629,0.7233615867,-0.7080710929,0.1438523781,-0.9096330499,0.4108740114,0.1247499897,-0.2488647621,0.6027514962,-0.5051269433,0.3737725316,0.648440165,-0.4349184738,0.5046153611,0.5139125847,0.1652668184,-0.1260690211,-0.7944828472,-1.1925135775,-0.0562497944,-0.0033681786,0.5452460321,0.0191101568,-0.2483820483,-0.7208450281,0.3123984915,0.2580396812,-1.1405308135,0.3653642456,-1.0265986869,0.5804426525,0.344572427,-0.4154691944,0.1216344248,-1.1358066035,-0.1461746405,-0.5363243828,0.5556701195,-0.3664785255,0.4592664136,-10.0821072992,0.0662330279,-1.7269638866,-0.8005462217,0.1263542106,-1.06106189,-1.0636856043,0.63107307,-0.7933020351,-6.440658208,-0.9541806548,-1.1900005972,-1.1032609446,-0.4425485209,-2.3660080443,0.6348929551,-0.3420427992,-0.8738807153,-0.3368065832,1.1099487965,-0.898851515,0.3943002018,-0.3662764358,-0.7236352424,-12.5449507613,0.5282903736,-1.186862234,0.1956172474,-1.0934432588,-0.1919951296,0.4774732345,0.0959438026,-1.0770089841,-0.1644037164,0.2538140011,-9.7981159458,-1.0247208908,0.6714194149,-0.9538162037,0.3333745637,0.046970051,0.4313460179,0.3806455718,-1.3109174586,0.5304392826,-1.0813444474,-1.1670426086,0.1918134542,-0.4719431614,1.084613459,0.5737715591,-0.6958025428,0.0140480754,-0.9422682895,-0.7151045767,0.6351495165,0.8431954981,-0.5244017029,0.2308886303,-0.7305564838,0.4110244483,-0.2705792169,-0.5371749853,-0.9497292836,0.100206366,0.4749502486,0.4044361164,-0.1687218712,-0.8975796436,-0.4016495641,-0.1730507257,-0.1058393665,-0.7593910904,-0.519541622,-0.1084833834,0.9045763248,-0.229785137,-0.3976717818,0.2885139075,0.1676839259,0.4832314942,-0.5988687356,0.1675988285,0.5323366626,-0.0552263408,-0.645325911,-0.0609344721,0.2418977528,-0.8827744876,0.399436835,0.0836611527,0.9218816868,0.6843468156,0.6805710398,-0.3445078857,-0.7004877715,0.0706747555,-0.3672655457,-0.4901778604,0.495423642,1.0233389568,0.8295854672,-0.1237422329,-0.6545266087,-0.4576973534,0.5796151518,0.2325873465,0.5092929243,0.3049849416,0.9747237845,-0.0896449242,-0.7189190649,-0.8353187597,-0.5025496231,0.5796734019,0.6812705303,0.0068020119,-0.3534497811,-0.1593664709,0.6771734092,-1.0241823663,0.0560323356,0.530918177,-0.2590082974,-0.6180874286,0.4762294064,0.8794099796,0.1521596719,3.7640677459,-0.8697645136,0.0909248347,0.3301625338,0.3293809993,0.2391128395,0.9352841986,-0.1594675064,-1.1536773055,0.4605093298,-0.4063864679,-3.4957885516,1.0071229296,1.5082809699,0.0830480875,-0.3137806164,0.8531201662,0.3895323562,0.3103912992,-0.8484431333,0.1618252982,-0.2465910275,-0.6824066735,0.0711384431,0.6836480697,0.0448938918,0.5854894465,-0.6424076326,-0.9011679358,0.3026445137,-0.1589795836,0.6515501738,0.2910378371,0.215762428,-0.6555270201,0.7126279962,-0.6988163789,0.2625653981,-0.5164296376,0.2141019091,-0.0183372865,-0.1678800117,0.2477415163,-1.0562287822,0.8230813536,-0.4293831977,-0.7568387656,-0.5410376199,-0.785750462,-0.8179547143,-10.3754329157,0.8871144144,0.0414287745,0.9137752296,-0.2666284955,-0.0733687855,0.2754487507,0.6246875213,-0.022208866,-0.4186731635,0.3701948192,-0.700168083,-0.285199273,0.4561829543,0.1645921467,-0.003339944,-2.6518229989,0.845847723,-0.4774479095,0.1150172508,-0.0164922641,0.7759626108,-0.8133390556,-0.3951003145,0.0687572589,-0.7700004818,1.4205328885,-0.1746502235,0.2345699899,0.0693911618,0.7842145382,-0.8339319233,-0.760434344,-7.8976994091,0.7882742104,-0.5327362199,0.5011996425,-0.930740951,-0.6250932237,0.7328355746,0.3795483402,-0.0928021903,0.5341907018,-0.0048942851,0.8893139192,-0.9365534078,0.5238205012,0.708288838,-0.1369493468,-0.721660923,0.0745820206,0.2821981163,-0.1983647784,-0.4791854663,0.1708119619,-5.9175187326,0.7825236248,-1.1467238521,0.3230354729,-1.7799917999,-0.4003081311,-0.636647572,0.0098696785,-0.8950868144,-0.5366030886,0.3815733902,-1.0714860784,0.4532319602,-1.0782640693,-0.4209610393,0.1966560156,0.5341073349,0.1111384442,0.0360124736,0.2091595349,0.2290565691,-0.1045640238,0.7712362526,-1.0255275859,-0.6415756727,-0.1119590787,0.935593358,-0.7329614373,-0.208640388,-0.1663894795,-0.9334891815,-0.9372723386,-0.1455703973,2.1462251561,1.3203964203,1.5514901094,-0.9433253682,0.8869242578,-0.7667082058,0.9316765807,-0.900539481,-1.8501241434,0.402961016,-0.0943699241,0.527447016,0.1002677042,-4.1408434635,0.0195822321,0.5833811809,0.074568453,-0.4856841964,0.5816531018,0.101854229,0.4868392,1.0409211925,0.7655138751,-1.258251442,-0.4882050307,0.269577528,-0.3586903581,0.3230052809,-0.2120332538,1.1851738625,0.7625992596,0.1540117283,0.5331829528,5.6689533232,-0.0374288184,0.9059181863,-0.2811026976,40.2533475136,-25.7001290412,-0.8407161946,2.8888019908,7.1277366984,0.9533541391,-0.2167392123,-0.603572573,0.6367600658,5.1257705303,-0.7827519708,0.8581165757,0.0078903547,-0.9294009161,0.7760094652,-0.6383485537,1.0171068026,-1.9403094489,0.0943676332,-0.9467502257,0.3114558662,0.6978149981,0.0647025976,-0.2230887374,15.9258992634,-0.1372596593,-0.5674190919,15.7078439213,0.4812408175,-0.0000912404,-0.3492048163,0.8925050264,-0.1626497892,-0.2439555406,-0.8540328891,-13.2819435469,-0.1957225131,-0.0126830149,-0.9072678396,-0.5041496256,-2.1204494203,-0.1356024741,-0.5410212804,-0.4608494731,-0.7360268138,0.8795029202,1.9115648694,-0.0666833762,-0.2824645985,-11.7878610596,-0.5023776492,0.5534937231,0.6261669398,-0.8060663567,-0.0764248773,-0.7744667221,0.6803579512,0.2120009258,0.3187247795,1.0641526873,0.2218256499,1.6630288673,0.2786358663,1.0851663362,-0.8343256372,-0.5546663606,-0.3298160805,-0.576126364,0.3674018112,0.3492958199,-1.0822674501,-0.3640222706,0.5692538171,-1.0893503902,-0.9127528021,-0.4258839049,-1.1951213071,0.147266346,0.6348613484,-0.7841930448,-0.4001018013,0.6720064079,-0.6180921153,-1.0443453857,0.2395420959,-1.1261062025,0.69021798,0.377140598,-0.2012213553,0.0213110289,0.6141188295,0.0758354979,-0.7793110783,-1.0258272744,0.5332199295,-0.1198211177,-0.7363314557,0.6876385629,-0.7964018415,-0.284510706,-0.3258920247,-1.2251541364,-0.5231039483,-0.6006442857,-0.0945210543,-0.9200157211,-0.9104783111,0.3163399438,0.6230646265,5.1833275245,4.6649574807,-0.1749091438,-0.6388007628,0.6701741984,0.1526818305,-0.6868010343,-0.1697802379,0.7387492347,-0.1810009494,-1.1429309147,-0.0604346959,-0.1017830324,6.6857418723,-0.9945396656,-0.9437936826,-28.7532534305,0.499213301,0.2295250189,0.2914690796,0.2048706829,0.508921149,-0.7100965796,-18.2354427336,-0.7238110403,-0.3682859048,0.0276492318,-5.4220070398,-1.2405581061,-1.0133987737,-1.5756718322,-8.7703808646,-0.1276431263,0.4759212629,-0.7630595611,-0.7298608798,-2.0862940831,0.3839608899,0.1637485539,-0.4790656024,-0.1775787681,0.3411721905,0.6215970776
   -0.1887410988,-4.9128602431,-0.7611381467,0.1299616423,0.5946989741,-0.1157286138,0.1297904597,-0.4682128916,0.351728453,-0.7724455179,0.6034205986,0.6166894131,-1.0580218208,-0.9341021137,1.3341864358,-0.867095967,-0.2049927676,-0.8306795894,0.7723456026,0.5729788959,-0.8292929309,-0.4920657171,-0.7061069375,0.3331187728,0.0666562841,-0.0761791748,-7.5955797145,0.1845915199,-0.542454566,-0.0830860758,-0.5924622692,1.141359201,-0.6939047181,0.2071572694,0.1149629023,0.3367129853,0.2638037422,-0.753465886,0.0169639598,-0.4634428515,0.4865252448,0.7482874772,0.5502252192,-1.0140891936,-0.1588239912,-0.1924061248,-0.7883884535,-0.5874529413,-0.5355681184,-0.9979594634,0.7040914234,2.5769596606,-0.5277682012,0.60604571,-0.2622719409,-0.7210760203,-0.8781820924,0.942607634,-0.9671547547,-1.1409019291,-0.3658090344,-0.3539541372,0.9470788837,-0.4429788713,-0.255165003,0.2082966353,-0.162750253,-0.3933517515,-0.4433318322,-24.4874576189,-0.190908909,4.2976134663,-0.1881075344,0.3507844818,1.0621053933,-0.8202433173,0.7692358634,-0.7393710618,-1.0096575101,0.1221617099,-0.5335689676,-0.3270096385,-0.7171438947,-0.8119564971,-0.3954911401,1.2534763208,0.3412008617,-0.4035966717,3.9569769785,-0.5657895488,0.5676697775,0.5945061519,-1.0009762266,0.4255390565,-5.421541991,0.0661164203,0.124719878,-0.3453002702,0.7569304555,-0.8563602993,-0.7575191815,0.3319117506,-1.1513531986,0.4788363617,0.878150322,-0.0497997615,-0.9635898449,-0.5491258415,-0.9592402644,-0.167299609,0.8226197348,-0.696343246,-0.9230717182,-0.713198786,2.1929777993,-0.5638974211,0.3727198938,-0.8847865029,-0.1257556911,-0.5994975002,0.6283299061,0.3984509424,-0.0456352295,0.1328441148,-0.1372213742,-0.0320984304,0.1084804066,-0.4522240614,-0.6818007574,0.1662495141,0.0848598223,-0.5246953486,0.2568336936,1.0825692814,0.3779154098,0.7526807796,-0.6185143998,-0.0132624412,0.1467459988,0.3187489591,0.147855223,0.6811339804,-0.9973544894,-0.348268988,-0.9389065241,-0.0354092334,-0.176652108,2.1740325905,1.3833446255,0.5703196684,-4.0835760875,-1.3278813055,0.3557340767,3.6341190352,-0.6837174397,0.3855822015,-0.7910913953,0.7745102512,-0.8626222056,0.8075330296,-2.5598201163,0.3698465759,-0.1239720955,1.0310233081,0.4949171104,-1.041991205,-0.0715216979,1.0787566129,0.6010261821,1.0075062548,-1.2188410857,-0.7693533773,2.289169655,-0.5537537061,0.8919136216,3.0337194797,0.95857854,0.7566642738,2.0886826219,-0.0192385122,-4.2069519619,0.886022988,8.8028802708,0.9180990732,1.4350006167,-0.0502309873,-5.3218501661,0.5961701275,0.5393455675,-0.8511234056,0.0751556249,0.2796687559,-0.8783208965,-0.0640054079,-0.7731289896,0.0462087978,-0.8911817363,-0.3667501762,0.6496525825,0.3003263732,-0.9904087948,-0.5914118564,-0.6637851717,-0.4028442357,0.4717694268,-0.5430291566,0.4377766508,0.3773853474,1.1498297365,0.7127793635,0.0832611186,0.0328127333,1.2554204757,0.833148924,-0.5586228407,-0.8402119604,-0.5894530631,-0.930098472,-0.4693242451,0.5665113621,0.9110088548,0.1170095404,-0.4340700395,-1.1203412433,0.9410045881,0.7685737233,-0.4586367563,0.4876128444,0.2720518278,0.7727169219,2.7893579554,3.9803791761,-0.6052775123,-0.749113417,-0.0501978789,-0.725329425,-0.1359793491,-0.0704094977,-0.7315182166,0.4587849554,0.4812150362,-0.6627559506,0.6181799417,-1.0075385627,-0.2136745157,0.180423882,-0.5768736844,0.7602088185,1.1192135688,-0.3758022977,0.4844567585,-0.8746480887,-0.6939090417,0.8969859442,1.1043825151,1.2961882109,0.5711657001,-3.2263705928,0.5810956109,1.2068477763,0.8303494413,-1.558281876,0.0266123478,0.859103865,0.8600607518,0.197433887,0.5951101664,0.1898719126,0.886570435,-0.4572570362,0.3887104172,0.2922042806,0.7720451494,-0.5320741961,0.1867894776,1.2057453759,-3.1507575675,0.150226174,0.5388922504,-0.8342898474,0.353224069,-1.1165351284,0.0548002409,6.2985503308,0.01822528,1.5458834261,0.5682128777,57.9056193006,-0.7884514739,0.047624691,9.5576123611,-0.3536113207,497.3031135222,17.5589364735,-0.2895555869,0.1582031685,0.9386882063,0.6158303519,-0.1173461941,0.4910076686,-1.8123404946,0.3802981545,1.2953300175,-8.2832157186,-0.0053950841,0.319541762,0.709749486,1.4778918962,0.1943098327,2.6454964064,-0.014879855,-0.3620013007,0.9390466528,0.0657786333,-0.8261417044,0.9498715347,-0.1523320845,-0.5947666748,-1.0384870073,0.7384524329,0.225225752,-0.1955733843,-1.0492834679,0.5788740923,-0.6768339114,0.5544617765,1.6197136373,0.6314421793,-0.899164047,-0.661223169,1.0800206939,-0.3013887305,-0.9563368125,-1.5494936907,-0.592552595,0.2072340655,-1.0808527667,0.3208014932,-0.2217180927,0.1879018274,-0.0489112228,-0.5366901392,0.8314030644,-0.4560302648,-0.3860239078,-3.5479198985,-0.4476067455,0.4030641839,-0.4139396861,0.7440762137,0.837390167,-11.035769246,0.1497955566,-0.8406012941,-1.9748356937,-0.485277807,-2.4064586869,-1.2024120407,-0.2877837806,-0.0840468976,0.7450872932,0.6697270388,-12.7337056821,0.0836027555,-0.0095995261,0.3789314741,-2.2807983133,-0.4925227951,0.3500658066,0.4108856313,-0.8597012826,-1.4881641935,-1.4247930103,-0.2168700367,-0.3735730252,-0.0928651594,-0.6130854276,-1.4279073427,-0.1068323185,-0.8489165976,-0.9185374303,-0.777262641,-0.8055857518,0.1675757248,-5.2251570043,-0.7369291963,-0.7819874965,-0.2708405298,-2.899163554,-1.0263020771,-0.0560032015,1.6453944833,0.5846056054,-0.6626510375,-0.9416507384,0.2296655542,0.3713303329,0.3928120457,0.0672884645,-0.2672160989,-2.0420372523,0.2084342565,-0.850579058,-0.636097006,-0.099123252,-0.1642130713,-0.8872786721,0.1643375315,-0.5019326706,-0.1622182219,-0.3664031448,0.2642750997,-1.2962763014,0.2647150215,-0.7792807866,0.0514951585,-0.7837429088,0.0277373727,0.078079543,-0.1131118294,-0.4258359704,0.6039557317,-0.9283648341,-1.0430585813,-0.7822747556,-0.3685057035,0.5746175944,-0.2745129382,0.7626493145,0.4949032014,-0.9491974247,0.7930368316,-0.1068154333,0.3369769074,-0.7997489393,-0.0490689546,-0.0431764343,0.0088635991,-0.7934623685,-0.6520226281,-0.3288747139,-0.1854535219,0.6230906067,-0.4190649367,0.752895467,-0.1133254698,0.7914179687,0.1420761093,-0.6533911401,0.7404767389,-0.4141448115,-0.459885526,0.9704730707,-1.1351320119,-0.1601088785,0.2658234237,0.3563533013,-0.2312250798,-1.0067016841,0.8406377681,-0.8596867562,0.0209616527,-0.5840285764,-0.5928616624,-0.0247412529,-0.7341687558,-0.5448447349,0.4168628896,-0.8664725017,-0.5203179247,0.2859917392,-0.1882892846,0.3859393481,-0.1494183715,-1.0737056688,-0.2936625703,-0.1594499571,-0.3394009142,0.4634937297,-0.7623482093,0.2464845101,-0.1420781307,0.7064567411,0.7749516197,0.4309621862,1.0952408377,-0.1096455697,-1.3083259402,0.0956498165,-1.1547156448,0.0120600718,-0.9470586351,0.2393452675,0.3436257893,1.0203214288,0.001289732,0.2880088504,0.458636948,0.2499204961,-0.2860704726,0.4952287615,-0.7520173324,-0.1241557905,-0.3365811627,-0.7486319611,0.066128053,0.7586713353,0.085868928,-0.2908238681,-0.8636967377,-0.1169855839,-0.4776125951,0.3808156079,0.7489636031,0.3010220973,-0.4186323376,0.2820797429,-0.750020651,-0.196319684,-0.562729679,-0.2315650004,0.9464179171,0.7139733277,1.9824879634,-0.3630502769,-0.1478969708,-0.9060737207,0.5926466269,1.4988735354,-0.5641796141,-0.2589551357,1.2442718604,-0.6995116562,-0.7813168531,0.0485276069,-0.2388975065,0.3363964781,0.4889854147,-0.9546175244,0.573173466,0.6472999518,0.870417513,-0.5144554638,-0.3810735096,0.5795191343,-0.1998383262,-0.5579769992,0.7272332686,-0.5621809993,-0.2341744417,0.7564994237,-0.6816042368,0.0836600448,1.5766905142,1.0474622968,-0.0151466554,3.9663352216,0.2558110066,0.5181504905,-0.7060139027,-1.0458960203,-0.72188477,-0.7325091619,0.7310881522,-0.6724746737,-0.0730975462,1.008418202,0.2083587491,-0.2498900845,-0.5174902364,-0.493060019,-0.7287384278,0.039899508,0.437456955,0.283407038,0.1716613751,-1.0144034662,-0.5018087346,0.1442482865,1.4447376602,0.8664021528,0.9322249038,-2.0916497541,0.984880454,-0.9876162616,0.4272530361,-0.64118007,0.4663378879,0.4059672983,0.0266433617,3.8335990216,-0.2205470867,0.050719522,0.5937176194,0.056534594,0.4108008456,1.0097142478,0.9941073273,2.4121751576,-0.831558923,-0.1078870071,-0.2936297796,-0.3644844399,0.5174059931,-2.201139277,0.6818984737,0.1533947358,0.6239871951,0.3901918835,-0.2351025317,-0.6696995906,0.4835630324,-0.3897240084,0.1662228437,-0.7776015143,-0.2578866607,-0.829819173,-0.9909287681,-0.3978791678,-0.3323999049,0.3558326989,0.5965051948,1.0723392324,0.2471882688,1.5213699677,-0.5988945217,0.2009203049,1.4330517234,0.3767547577,1.1055204106,-0.3957212258,0.8014863697,-0.1363856307,-0.092480077,0.0066659195,-0.3219539315,1.1831172911,0.8958235329,-0.7360709039,-0.2107432761,1.0237049046,0.2743827941,-0.1887892948,0.0044128191,0.3169191436,1.0060363652,1.0480003503,-0.0001766205,0.9814643959,0.0603774438,0.8332412899,0.167977126,0.3816573102,-0.3881074664,1.4408355919,0.7227756611,-0.2188065675,-1.5644148887,1.3594161544,-0.2162407947,0.608412261,-0.3309351531,0.1366679511,-0.7408861383,0.4496872941,0.684821712,0.8907956622,-0.8232020683,0.8224817582,-0.6884999482,-0.0801002112,0.5672661516,0.1902633408,-0.2037707319,-0.234400975,-0.0183641184,0.5514356456,0.1704315545,0.9427535058,0.994103422,0.6210196605,0.6767309628,0.4865629322,0.3932281038,-0.1241297801,-0.2528000759,-0.447113859,0.4430675608,-0.643963266,0.2029460639,-0.6885331099,-0.5716528257,0.370379922,-0.4419347998,-2.2396002292,2.5630067798,0.3636117248,-0.7578950926,-0.6414493563,-0.3682912605,0.1401232294,-0.3148537781,-0.3447753785,0.7455713142,0.3863900061,-1.1955659583,0.5134817516,2.3353204376,-0.410976308,-0.5473398621,0.1013318403,-0.3367417138,-0.1009023101,-0.6165073997,-0.5396536709,-0.1923811335,-0.8974048902,-0.2309403247,-0.1276266349,-0.0551780331,-0.3092123559,-0.309570339,-0.7293114601,-0.12866018,-0.0514691903,-0.33123529,-0.4974237434,-0.7544925534,-0.4015738318,0.1882417326,0.095714665,0.4947485122,0.9170156341,0.0859031685,-0.9445651775,0.0510503562,-0.4701912445,-0.7382122123,0.2012310265,0.5543335841,0.1425616793,0.3714616055,-0.6286913521,0.0241416726,0.4608075592,0.7514081674,0.2254615316,0.8419530885,-0.6555520896,0.7900607898,-0.5215180778,-0.0481786676,0.5692991707,0.2188035352,0.1150848216,-0.3997711256,0.2843173472,0.4329940279,-0.4007670953,0.6230874156,-0.3331273978,0.5529543648,-0.1216897401,0.3736108441,-0.7755553996,-0.0355242774,-1.0553635119,0.4814605658,-0.1222625326,-1.0002239764,-0.3731709585,0.0853556995,-0.6212422823,0.7023537922,-0.9792342065,0.7414768681,-0.9748215163,-0.2472731487,0.2899553645,0.5367304305,-0.8745015842,-0.873448975,-0.6735504334,-0.0791853358,-0.7796179085,-0.0968085907,0.2444835255,-0.1061299279,-2.625014061,-0.6798255496,0.8162612949,0.8539312415,0.463665394,0.6902705109,0.1274574904,-0.7200407789,-0.7601774738,-0.2924881357,0.3250437574,-0.1997070731,0.7868229531,-0.5193277384,0.6640587677,0.0547199623,0.5791600905,0.0943502697,5.6721991535,0.9461861882,0.2571037951,-0.5510286322,-0.8300992798,-1.2018940833,-0.7706714648,-0.3757647612,-0.959414612,0.3568908657,-0.7578554765,0.1399035226,-0.1268034862,0.7303298682,0.2403319014,0.9288214914,4.4679126883,-0.1058876045,-0.5907955714,-0.6105461726,0.3163792463,-1.0479508284,-0.6142739979,0.5836711761,-1.041300006,2.7838922523,-1.2739833838,-1.0047325846,-0.260469554,0.1837021258,-69.8498836609,-0.6277046652,0.2980013811,-0.244366429,0.370373793,0.2790223137,-0.6308165047,-0.2749743118,-0.3977117538,-0.6218165202,0.6335397938,-0.6940984574,0.138076519,0.4264061328,1.4992021089,0.3601006949,0.1959123345,0.5577448154,0.876308078,-0.7316952892,-0.0669286327,0.3154872529,0.412361382,-1.4470498584,0.4724040417,-1.0583049324,1.0411054881,-0.7534724673,-1.1826870648,-0.1901266323,0.225426572,1.0900480623,-1.039028028,0.0007675629,0.5935740779,0.3011613746,-1.4242525686,0.2675913821,-0.7690859326,0.5312169896,0.515489118,-1.0126905044,0.3146931912,0.4815655839,0.2028851369,-1.0535418214,-0.020135838,-0.2457173929,0.3518521566,-0.2675752142,0.0887966954,-2.1658373996,2.2908567071,-0.2180445484,0.6548511538,-0.2245016647,0.5556786005,-35.849165485,-0.9485980936,-0.8207870853,-2.269288785,-1.0128964655,-105.1381140059,-10.9085328154,-0.3000103993,5.1536861553,-0.0164667534,-0.5109169618,0.4509637702,0.8088201537,-0.0158631286,-0.6724603285,-0.9350483617,0.0957277534,0.801223352,0.1637237382,-0.1562556643,0.4424635728,-0.8518715052,-1.4520419418,-1.3569261522,1.7571499581,-0.1742306979,-1.0471255636,0.5970487026,0.2903606333,-0.89209165,-0.0155705627,0.9731079862,-0.0013653778,-0.4922083877,-0.6980264721,-0.5000485348,-1.3589497417,-0.819008225,0.2713654887,-0.2106018948,-0.1299647999,1.018904939,-0.0008173353,-0.2100705822,-0.4687397857,-0.1166494313,0.2140370928,-0.9312780857,-0.09999989,0.2008686168,-0.7339912871,-0.0692080733,0.830871909,-0.5741200883,-0.3251439437,-0.2492841518,-0.1633088458,-0.3615960766,-0.8215789504,-0.2165202923,-0.2361049976,0.5594913732,-0.2774810329,0.3173256194,-0.6520671686,-0.7411708774,1.7011237079,0.4032041593,0.3608041522,0.3346316584,0.0777928173,-0.7550498796,-0.1111715893,-0.7325774773,-0.8861247708,2.790710498,0.9572996409,0.5416696439,-0.5126496597,1.0923311109,1.3928728551,0.9267915484,0.9591951871,0.0110969366,-0.6311730117,-0.346450334,-0.319499617,0.1336534822,0.1425583926,-0.0956266701,1.9915271476,-15.728474187,-0.4218076188,0.2796912994,-0.4042611265,0.3214747337,0.3507758002,1.2027553585,-0.9572752579,-1.2573125919,-0.7447163518,0.0768067738,0.4473889468,0.3889395555,-0.0949361431,-3.9763478015,-0.8859305376,0.5926207881,0.0359556642,-0.7771805049,-7.8829036905,-0.405424256,-0.3114723199,0.3750184629,-0.7931747651,0.5003881033,0.7838765242,0.9453068771,0.2389206778,-0.6071888406,0.645324863,0.4604849753,0.8183227868,-0.2732105744,0.5520732784,-0.665137062,0.1650768811,-0.5813953385,0.5466886337,-0.7262162017,-0.4999361272,0.0644544284,-0.2370162289,-0.380475695,0.8999572673,-0.2118053197,-0.0111658344,-0.2152746674,0.8461652534,0.6384095994,-0.6169869814,-0.712159797,0.2068594258,0.4393476775,-0.2876930822,-1.2373385987,-0.2020334767,-0.0753127406,-0.9413656749,0.6613898132,-0.0099864789,-0.5978110415,0.1141834342,-0.0969733578,0.3226732424,-0.9835135823,-0.8156681864,0.2139510264,-0.4982564959,-0.0892012653,-0.3329484196,0.8898491713,-1.0252925737,0.6925476854,-0.2934708191,0.4184375367,1.4864685389,0.1136429002,10.3654825341,0.155448269,0.82675711,0.2292708483,-0.7372002268,-0.1587863049,0.4816090936,-1.2809445432,-1.4861313171,-0.1130395791,-0.6352576719,-0.4254629549,0.4978039825,0.301163004,0.6178964869,-0.6827170565,-0.5308533447,0.7821332386,-0.4702198849,-0.1225158063,3.0947883226,-0.8863047145,-0.2624700664,0.448207853,-1.1564081779,-0.5223219954,-0.5715425749,0.3119699522,0.4027649666,-1.0181609009,4.2761203361,0.8343942687,-0.8341570705,-0.2306587084,-5.0433296278,0.6519867239,-0.3912694093,-0.0328393318,-3.4309520614,-5.589430212,0.355387432,0.1564704243,-0.3217827484,-1.2771220596,1.2781652004,0.8146418381,0.0193696892,0.1270373402,-0.7490075556,0.0178415817,-0.7603648704,-0.2410896641,0.6426958887,-0.5864307522,-0.0471514032,0.6023260347,-0.7928372497,-0.7179265958,0.774420511,-0.0737196659,-0.4450125072,-0.3331634615,0.2460124562,0.6078211212,0.2040695594,-0.6631243734,-0.1776653351,0.5137718303,-0.2706800566,-0.4781701877,-0.8288553484,-0.0798974907,-0.2494300261,-0.4181617722,0.4364470678,0.5426062961,0.0308935099,0.5204115598,-0.7185951526,0.9959602945,-0.3024760988,0.3440117029,-0.5803630979,0.1685032247,0.7091657102,-0.8735671427,0.5318688575,0.040130382,0.1918675683,0.6360807092,-0.4557450462,0.4804874634,0.6464196403,-0.0843150606,0.0251174429,0.2613477239,-0.7962913156,-0.7275741337,0.4056888199,0.321253111,0.603762416,-0.2055831035,-0.3186239648,-0.1890022198,0.8683998531,-0.3777954106,-0.1283960061,0.5139462058,0.1975958871,1.6235190236,-0.8209946757,-0.8892178494,-0.5878924799,-0.0503699351,0.8053658443,-0.2416170335,0.2880667603,-0.0401796621,0.8563448313,0.3891893076,-0.8268279244,-0.8321347176,-0.4223294029,-0.2158916517,3.0550487282,0.0727715498,0.429213961,0.6392761722,0.8695387581,-0.6280219474,-0.8546026659,0.8695385386,0.8582147893,-0.4301870858,0.8184760603,0.9043984041,1.3108908888,-0.9380107669,-0.2241034748,-0.3491929482,0.0299526917,0.8557123287,-0.5724072664,1.2222732003,0.0353480206,-0.8104564819,0.1182537018,-0.0547374562,-0.5005932653,0.1990899422,-0.6786341017,0.8340531777,0.0801993866,0.6605891905,0.4105852127,-0.8238658834,-0.1236868384,0.0892067876,-0.4349334516,-0.1633502797,0.2368767262,-0.6692232915,-0.8143405027,0.0003645158,-0.1859005287,0.2038856291,-0.0275991195,-0.7538238368,0.6336831921,-1.1375196286,-0.2458636938,-0.9666008867,0.119142417,0.3329155574,-0.1409199825,-0.9726237826,-0.7760476553,-0.1549153245,0.6274781163,1.366869481,-1.1518098061,0.050185212,-0.3482952805,-0.5652111188,-0.3433580166,0.4070029905,0.3210186827,0.6648994956,0.6743096977,-0.3756773945,0.0799717647,-0.0179122799,-0.0656480967,0.6515309625,0.6866875644,-0.4816537885,0.4158963491,-0.0926782798,0.5426391033,-0.555573428,-2.1011636873,0.5740774784,-0.4319219149,-0.5767195908,-0.5131161805,0.1578681637,0.800557318,-0.1500385384,-0.5172581776,0.5858089223,-0.5542837674,0.9320178478,0.5702107279,-0.9170966866,-0.6335418524,-0.0206261373,-0.6761271035,-0.6597083694,0.1945213411,-0.2938565554,0.0997822018,-0.8122294595,0.0924909799,0.3310445356,0.5173938048,-22.5573736933,-1.1053855472,0.364053693,-0.0930712445,0.7417817117,0.8239476059,0.6775135577,0.3553111961,0.2619936634,-0.3978294755,-0.2680202776,-77.8766543057,0.4751421642,-0.8859492036,-1.3788783319,0.0334794104,0.4821555397,0.4929342094,0.5807763961,0.2148898105,-0.9496275041,0.3558233258,-1.1900859403,0.0278181969,-0.98031785,-0.587710627,-0.1668306782,-0.7901229663,-0.4072555726,0.0303157596,-0.6722015023,-0.3264189247,-0.56326184,-0.3526855248,-0.4302894944,0.3511578732,-0.015386774,0.0312374665,0.4474097571,-0.6459042422,0.2472582593,-13.8022457961,0.6586455775,0.0207989532,-0.685466817,-0.573381979,0.3136377511,0.9608524586,-0.5453903468,-1.1681511619,0.7336124404,-0.3375996023,-0.1123060506,-0.1566952923,0.0434965933,0.2981859053,0.4711095282,-0.4458642491,-0.3470855975,0.4656665444,0.8787511932,0.5731690375,0.0646051525,-1.076747751,0.4515590402,-0.3339300834,-0.640778431,0.14869161,-0.1400197621,0.6221745529,-1.0027163481,-0.1004934371,-0.7124396444,0.3554192712,-0.07405918,0.185520645,-1.7169744148,-0.3288215441,-1.125562154,0.3031764692,0.2479567405,-0.3401738116,0.2374534546,-0.7903868747,-0.3424681666,0.8220904041,-0.4430738142,0.9350883668,-0.1214215776,-0.914057081,0.4195164798,-0.3629314605,-0.1426076174,-0.5564516447,-0.6771951499,0.5173442139,0.6689390814,-0.9409702977,-1.0139089365,-0.4310688889,0.2597480391,-1.1809935612,0.4908809178,-0.413760896,-1.095858601,0.0948542389,0.0075972994,-0.6534111096,0.388527763,0.3175263922,-0.5746840565,-0.6906247725,0.1365739933,0.3635398021,-0.8251446405,-0.5396202252,0.7858669669,-0.0312343436,0.0980911229,-1.1716783171,1.2084602342,0.5471471454,-0.9039576431,-1.2928020647,-0.0345912529,0.5253893812,-1.0907918033,-1.2457225876,0.5182241427,-1.0368321232,0.5594539747,-0.2539074758,-0.7078540854,-0.3244967113,-1.2451196319,0.2103585164,0.595694214,0.3857019973,0.6651890187,-0.8469778266,0.2233250848,-0.9140530916,-1.0370750336,-1.179483706,-0.4421292261,-0.0726074607,-0.049658104,0.2291213874,0.4870435357,0.0137312357,-0.3139340261,0.1197062331,-0.8758673691,-0.7616297203,-0.2958055996,0.8132059303,-0.7626123087,-0.2093908368,-0.4026765677,0.9138646301,-0.031882525,-0.8572596874,-0.1374213179,-0.5038257242,-0.7762056412,0.3338232808,0.7514361434,-0.9804029793,-1.2284335022,0.7253010592,0.2489342937,0.1284885809,0.3976961487,-0.616344272,0.3181109735,0.557935894,-0.6721930328,0.3195575288,-0.1036112716,-0.5040699492,-0.458546686,0.3705675057,-1.3634326235,-1.1212997019,0.7215475719,-0.8247901242,-0.7433662489,-1.3161029908,-0.9663407351,-1.114585646,-1.0569328391,0.4083271298,-0.9369561173,-0.5760393495,0.7067394147,-0.1366884384,-0.173270153,0.3328190038,0.7510962898,0.3779313763,-1.2251342809,0.7356894647,-1.1165400399,-0.272197381,0.1719150195,-8.8404933969,-0.26049104,-0.8245885713,-0.7180624188,-35.4855109544,-0.6711082283,0.4098329241,-0.3384908888,-1.0764956614,-0.5578734133,0.342331987,0.1270977837,-0.5358613205,-0.9317961922,-0.8503296849,-0.0692478793,0.1899762439,0.4037212748,-1.0663760491,-0.6768372302,0.5924109079,0.1964133862,-3.9028127734,-1.2072185435,-0.9132865872,-1.0631622338,0.7350674158,0.4352873859,-0.6745618887,-0.4785160127,0.2527226141,-0.553862768,-0.5935007992,-0.6097660714,-0.8376044621,0.1025260769,-0.086469299,-0.4133067756,0.2058235411,36.555643174,-0.4674259995,-0.1155260108,0.6498284384,0.3249171178,0.2152389679,-1.0292782517,0.9373410855,0.4233110383,-0.4753362103,-0.4586454344,-1.3544931431,-1.4307504896,0.1306589925,0.2347048312,0.5731487339,-0.4604940995,0.5419082454,-0.3095887172,2.0607831232,-0.4652915983,0.0684617201,0.9277265447,0.2747369756,-0.2983808288,0.7645951897,-0.5692879511,-2.5621807836,0.9486344129,0.774123927,0.3849794375,0.7221287346,-1.1526902888,-0.0205053908,1.0372787244,2.540335105,-5.4660996252,-1.7039381853,1.6784201012,-0.0477892009,0.7134360945,-0.1244428344,0.8297506717,17.6747850802,5.4329546725,1.0893396011,0.7733607895,-0.0487187704,-0.4530175097,3.2446361749,-0.2271031147,0.2918475602,0.6787727297,0.1272760289,3.5520535001,0.8756695102,-0.3160357575,1.1181435773,-0.1983183746,11.9289068484,0.1318149144,-0.5889454654,-0.1142850583,0.1930840949,-0.2419854494,-0.5845970683,-13.4481389496,0.717224869,-0.502844043,0.051862641,2.4879547447,0.6292434963,0.8863041779,1.810654579,2.9854020801,-0.1508706666,-0.6409760527,-0.5996061443,-0.9613693184,8.4495011279,0.7008001143,0.9465634326,-2.2236531758,-0.078177864,0.7207476538,-0.4694288226,1.8709806883,7.8632572052,0.3947515844,-0.1241468194,-1.2735100048,-0.2945676749,3.4096597154,-0.1198355654,0.6831384492,0.4532381799,0.124087771,-0.4411650173,-0.2482917938,0.1620112186,-0.1881231267,-0.7732179883,0.3369337125,1.2667021199,-0.0000324418,0.8679692986,-0.5878504753,0.1096185204,-0.9243104152,0.8695881003,1.008267779,-0.8387965221,-0.4506668679,-0.4569922478,-0.0607354357,-0.6705175376,0.5192545288,0.542660763,0.2098853755,-0.4770608735,0.6029227636,0.1599574657,-0.3557610457,-0.8972172005,-0.9003773478,0.9859939186,-0.8570993305,-0.6643651,0.3697513832,0.9475587022,0.6682625905,0.0770237919,0.0619465997,0.474596806,-0.7978089877,-0.3521175623,1.3124493304,-1.1002513699,0.6686065844,0.9975033776,-1.3450787921,-0.6375288099,0.4964798272,-0.0431548621,-0.0145387274,-2.5309281651,-0.4675752369,0.6166053544,-0.2055896888,-0.5568682882,-0.3792548288,-0.3565856526,0.1630775565,0.60227891,0.4042327155,-0.141456486,0.9071909663,0.6909967748,-0.0957327114,-0.4276188471,0.7522770277,-1.4707304032,0.1109861618,0.1742788983,-0.27909931,0.4442138057,-0.0629151045,-0.5392638638,1.0073492563,-0.3289672628,-0.0100016784,-0.5905283032,-0.9138818914,0.5859274105,0.1776492664,-2.7645831209,-1.2408831454,-0.5677316995,0.5001695842,-0.2185035297,-0.2004553709,0.4503184052,-0.7270585735,0.2936547832,-0.7324730819,0.167583777,1.0633360637,0.9414802042,0.4947678574,0.2488648207,0.1107100173,-0.36163789,-0.3405798207,-0.309881248,0.6893059284,0.9750603889,1.0478847247,-0.8716025102,-0.4009253586,0.681111275,0.5215619395,-0.8033999555,-0.5830286312,0.7844321747,0.8624870514,0.291391784,0.679787845,-0.5191561456,3.3073192994,0.264861501,0.7122776929,0.3879190166,-0.2354929642,-0.4022692371,0.1641047293,1.1119278528,1.4899604112,1.0959877737,-3.0191627293,-0.4377348355,-0.4554665534,-0.1667788764,1.0529956278,0.0257507235,0.5298318182,-0.9078554262,0.2551345734,0.6227164356,-0.5831501072,-0.3945033253,0.4681010463,0.9047124671,0.9297219532,0.1452590448,1.2012845001,1.5407219459,-5.005676742,0.7530614059,-0.3088868482,-2.8044575842,1.5186524631,0.687376632,-0.2675279024,-0.4795065214,-0.2185955792,-0.0694872563,-5.1698096309,0.1259006056,1.2295520786,0.8128616951,-0.1314480701,-0.3737242857,0.17740166,-0.3154991369,0.2168619477,0.4306469131,0.4055740643,0.0581763472,0.5682936483,0.255497042,0.4959645137,-1.004730567,0.3896523832,0.4731042923,-35.5830142081,1.1208686132,2.1264300831,-0.5169111259,26.6003449037,0.4469445386,1.9292702021,1.2216601204,2.3427371837,0.652549735,0.1362599273,2.9103082098,198.1280542819,0.4134868874,1.467144358,-0.2620404642,-0.1772678759,1.3837052181,-0.6323942775,-0.4165131793,0.6896673042,1.2408364962,-0.0876254579,-0.056156028,1.1869958494,1.5201461169,0.3489738317,0.1598304423,0.489190552,0.0660868914,0.4289148607,1.1095034235,-2.1267829558,1.1488783531,0.8564853863,-0.1177330511,0.001524968,-0.4366048864,1.0625315948,-0.5895113915,0.5591818476,0.37735914,-0.4200244793,-0.7980590241,0.4801305459,0.8682105601,-1.0464743502,-3.7353285848,-0.2812857242,0.0987441133,0.548009064,0.7235379975,0.3240323609,-1.1315088265,-0.7261622468,-0.9250583306,-0.3606057849,-0.5859524456,0.4156869676,-0.5623837766,0.2182621441,0.7106802841,-0.170414745,-0.7191031366,0.0594435317,0.2583144507,-0.4278661978,0.5032118183,0.480122214,0.6142587979,-0.9556930454,0.1414081912,-0.3452407284,0.0167015734,-0.0581176106,-7.52552115,0.8553613762,-0.1533414838,0.5663970111,-0.679619137,0.4808854302,-0.8766362904,0.7676085885,-0.6896101181,-0.5450408296,-0.7792956552,-0.628902586,-0.7340264555,-0.5206901101,-0.3798175732,-0.789098912,-0.8762358133,-0.2031667729,-0.599226296,0.6531521795,-2.6854606923,-1.2341986836,0.8790104901,0.8133646911,0.2047796896,-0.6196002358,-0.2447478543,-0.8536101804,0.4804997105,-1.0314665195,-4.6706125198,0.5006095331,-0.5351755384,0.4617777879,-2.4962589848,0.2484450998,-0.024644384,-1.6390347442,0.1887248917,0.0007299943,-2.1358971737,0.7099707491,0.3686729249,0.1645444902,0.2499441636,0.3748096182,-0.166235467,0.5662279695,0.4604171114,-1.0218513067,0.8446088861,0.0985667227,-0.6522804034,-0.1292861835,0.5434539404,0.0586011526,0.7595284904,-0.4502674243,0.4581265062,0.4077978725,0.8294899022,-0.0405288437,-0.2367054436,-0.7153340098,0.5664302864,0.6893859297,-1.0236389032,0.4644783891,0.1703246832,0.0795309376,0.1727472921,-0.0414649266,0.3976151369,-1.0892743985,-0.2050646298,-0.0973495399,-0.4521799133,0.5053029546,-0.7234840296,-0.6224479839,-0.0084960772,0.900689091,-0.7545034099,-0.0129059736,0.0851601803,0.1274729094,0.4606566611,-0.4673451366,-0.6258673865,-0.2860424971,-0.2167783973,-1.0148361781,-0.8635414625,0.3874366103,0.2474531737,0.7998818376,-0.4791845201,-0.3780497587,0.8472432421,0.7282399318,0.354469614,6.9899767324,-0.0228376126,-0.8958245541,0.5772984138,-0.7952382968,0.4809887634,-1.0179380124,0.7384080186,-0.1236433576,-0.0100324053,-0.0083596507,-0.4133022204,-0.349860587,-0.9058389753,-0.3951383982,-0.8340566494,0.3759430045,0.2405451526,-0.3818624001,-0.0923484811,-0.7358508255,0.8361058936,0.4874198975,-1.3306880244,-0.928477093,-0.74600754,0.8721833961,0.7101724299,0.1392310374,0.5087098577,1.3831361368,-0.4556380129,0.0820244599,0.9064488245,-2.1173115102,0.5783918176,0.84316015,-0.04389746,-0.1923858083,0.1017577854,0.0473506259,0.2102385195,-0.0593281705,-1.3573852808,0.1908078346,0.1582696872,0.1748694095,-0.6899597379,0.5969498275,0.3045363675,0.7913291577,-1.7124206574,-0.1120813337,0.2953909596,-0.3032423617,0.8284578746,0.9765302758,0.2028181975,0.1637211221,-0.9045626967,0.8405464247,-0.3738526,-0.8235094537,0.3712220266,-2.1693117827,-0.8293293808,0.3729324053,-0.4374366244,-0.4145090072,0.8194426274,0.7347585727,-0.4862686069,0.9323384573,-0.2045891625,0.8384515229,0.3911380578,-1.6169775846,-0.20306375
