encog,BasicNetwork,java,3.4.0,1,1670709715505
[BASIC]
[BASIC:PARAMS]
[BASIC:NETWORK]
beginTraining=0
connectionLimit=0
contextTargetOffset=0,0,0,0
contextTargetSize=0,0,0,0
endTraining=3
hasContext=f
inputCount=784
layerCounts=1,75,101,785
layerFeedCounts=1,75,100,784
layerContextCount=0,0,0,0
layerIndex=0,1,76,177
output=0,0,0,0,0,0,0,0,0,0,0,0,0,0,0,0,0,0,0,0,0,0,0,0,0,0,0,0,0,0,0,0,0,0,0,0,0,0,0,0,0,0,0,0,0,0,0,0,0,0,0,0,0,0,0,0,0,0,0,0,0,0,0,0,0,0,0,0,0,0,0,0,0,0,0,0,0,0,0,0,0,0,0,0,0,0,0,0,0,0,0,0,0,0,0,0,0,0,0,0,0,0,0,0,0,0,0,0,0,0,0,0,0,0,0,0,0,0,0,0,0,0,0,0,0,0,0,0,0,0,0,0,0,0,0,0,0,0,0,0,0,0,0,0,0,0,0,0,0,0,0,0,0,0,0,0,0,0,0,0,0,0,0,0,0,0,0,0,0,0,0,0,0,0,0,0,1,0,0,0,0,0,0,0,0,0,0,0,0,0,0,0,0,0,0,0,0,0,0,0,0,0,0,0,0,0,0,0,0,0,0,0,0,0,0,0,0,0,0,0,0,0,0,0,0,0,0,0,0,0,0,0,0,0,0,0,0,0,0,0,0,0,0,0,0,0,0,0,0,0,0,0,0,0,0,0,0,0,0,0,0,0,0,0,0,0,0,0,0,0,0,0,0,0,0,0,0,0,0,0,0,0,0,0,0,0,0,0,0,0,0,0,0,0,0,0,0,0,0,0,0,0,0,0,0,0,0,0,0,0,0,0,0,0,0,0,0,0,0,0,0,0,0,0,0,0,0,0,0,0,0,0,0,0,0,0,0,0,0,0,0,0,0,0,0,0,0,0,0,0,0,0,0,0,0,0,0,0,0,0,0,0,0,0,0,0,0,0,0,0,0,0,0,0,0,0,0,0,0,0,0,0,0,0,0,0,0,0,0,0,0,0,0,0,0,0,0,0,0,0,0,0,0,0,0,0,0,0,0,0,0,0,0,0,0,0,0,0,0,0,0,0,0,0,0,0,0,0,0,0,0,0,0,0,0,0,0,0,0,0,0,0,0,0,0,0,0,0,0,0,0,0,0,0,0,0,0,0,0,0,0,0,0,0,0,0,0,0,0,0,0,0,0,0,0,0,0,0,0,0,0,0,0,0,0,0,0,0,0,0,0,0,0,0,0,0,0,0,0,0,0,0,0,0,0,0,0,0,0,0,0,0,0,0,0,0,0,0,0,0,0,0,0,0,0,0,0,0,0,0,0,0,0,0,0,0,0,0,0,0,0,0,0,0,0,0,0,0,0,0,0,0,0,0,0,0,0,0,0,0,0,0,0,0,0,0,0,0,0,0,0,0,0,0,0,0,0,0,0,0,0,0,0,0,0,0,0,0,0,0,0,0,0,0,0,0,0,0,0,0,0,0,0,0,0,0,0,0,0,0,0,0,0,0,0,0,0,0,0,0,0,0,0,0,0,0,0,0,0,0,0,0,0,0,0,0,0,0,0,0,0,0,0,0,0,0,0,0,0,0,0,0,0,0,0,0,0,0,0,0,0,0,0,0,0,0,0,0,0,0,0,0,0,0,0,0,0,0,0,0,0,0,0,0,0,0,0,0,0,0,0,0,0,0,0,0,0,0,0,0,0,0,0,0,0,0,0,0,0,0,0,0,0,0,0,0,0,0,0,0,0,0,0,0,0,0,0,0,0,0,0,0,0,0,0,0,0,0,0,0,0,0,0,0,0,0,0,0,0,0,0,0,0,0,0,0,0,0,0,0,0,0,0,0,0,0,0,0,0,0,0,0,0,0,0,0,0,0,0,0,0,0,0,0,0,0,0,0,0,0,0,0,0,0,0,0,0,0,0,0,0,0,0,0,0,0,0,0,0,0,0,0,0,0,0,0,0,0,0,0,0,0,0,0,0,0,0,0,0,0,0,0,0,0,0,0,0,0,0,0,0,0,0,0,0,0,0,0,0,0,0,0,0,0,0,0,0,0,0,0,0,0,0,0,0,0,0,0,0,0,0,0,0,0,0,0,0,0,0,0,0,0,0,0,0,0,0,0,0,0,0,0,0,0,0,0,0,0,0,0,0,0,0,0,0,0,0,0,0,0,0,0,0,0,0,0,0,0,0,0,0,0,0,0,0,0,0,0,0,0,0,0,0,0,0,0,0,0,0,0,0,0,0,0,0,0,0,0,0,0,0,0,0,0,0,0,0,0,0,0,0,1
outputCount=1
weightIndex=0,75,7650,86150
weights=##0
##double#86150
   0.3185250586,0.3389267667,0.1463697582,0.2365819804,0.2780056973,0.0815857389,0.1815658061,0.3204007796,-0.8477766146,-0.898234874,-0.6420047732,0.1329627252,-0.1770975589,0.0578069708,1.0714458313,0.6709050554,-0.2101343773,-0.4899504988,0.4144582334,-0.2857078468,0.551539076,0.0539872585,0.0608786324,1.0956696745,-0.1780295942,-0.5509860543,-0.1778933934,-0.224870493,0.7472002605,0.5452287627,-0.0987413784,-0.2117783331,0.4496233843,-0.0814269214,-0.8734965022,0.0430283264,0.1865811514,-0.5915924095,1.0590863426,0.4954425139,-0.7946612623,0.2215672667,0.988777517,0.9027260155,0.8594944448,0.6714593529,0.5059420225,-0.3417230487,0.6859496895,0.8649488139,0.9993761484,0.5520466126,0.7290487,-0.5709201463,0.2089508882,-0.1386131416,-0.0956656794,-0.2696386684,-0.6943719726,0.5008586133,-0.4075919692,-0.4140153489,-0.2724776279,0.828829326,0.895064792,-0.4984870721,-0.5618687422,0.4034680842,0.6265849363,0.315586794,0.980280726,0.3975052289,-0.3262026206,0.9720553197,0.3682079205,-0.6508374281,0.2355263079,0.8847004119,0.2985128481,0.1861008176,0.8961103931,0.3587232786,-0.5112862197,-0.8027534771,-0.807718119,0.5541353272,0.4648034308,0.8709727543,0.3232719157,-0.1835845885,-0.732671491,-0.8728702657,0.6116344674,1.0292401294,0.5017958497,0.7558454632,0.6609964581,-0.7883778835,-0.5562967786,0.3975121279,0.8358534854,0.0613655275,0.011241018,-0.4266896214,0.9433727435,-0.7363653135,0.3991016296,-0.6518784315,-0.8193689963,0.3760448362,-0.1954822876,-0.1577243558,0.8010531864,-0.8370496323,0.5909708082,-0.8237687503,0.6448189836,0.7332775465,-0.5036343936,0.7942376796,0.6007604556,0.8809026397,1.0544024676,0.210285136,-0.3968510355,0.3191278923,0.7933749467,0.679521001,0.9234253278,-0.4252246695,-0.7137287173,-0.416574537,-0.1182634127,-0.20099645,0.2486932561,-0.2879876553,-0.2823407791,0.7985527555,-0.7324641134,0.7657116166,0.983225302,-0.2545658335,-0.5536018928,0.2118366622,-0.0348011732,0.8669321457,-0.8047695126,-0.3040948289,0.4090842902,-0.1668559512,0.1715031296,0.9640382554,1.0839100302,0.138237158,0.9936307087,0.7201830808,0.917704857,0.8719228879,-0.029438646,0.5244941043,0.5842353874,0.9524346526,0.5123148023,0.572874794,0.4751736018,-0.8756496145,0.4544504962,1.048505663,0.9274465957,-0.3431721107,1.0547541304,0.6824540192,0.6743367008,0.2590399974,1.0325744858,-0.3161708639,0.4250464439,0.3457748885,0.4950360588,0.5154279111,0.2206599983,-0.0968815845,0.6416102527,0.9854497978,1.046986833,1.0680459158,0.1740792361,-0.6477838145,-0.1951208852,0.9710426062,-0.680585328,0.3648524242,0.7899476254,-0.7024727683,0.3168816721,-0.4171115816,0.625155059,0.3353758458,-0.7928337025,-0.7163244657,-0.5085014703,-0.1362568899,0.0694803427,-0.2718977038,0.9988298429,-0.689160791,1.0320773936,-0.183055484,-0.6239187695,0.8253906128,-0.4782827205,-0.1540757076,1.0755743783,0.8027684419,-0.6649677246,-0.1790287453,0.9754968898,-0.3158158615,0.9258887128,0.5231367557,0.0483348296,0.7124312355,0.4626988805,0.8759103571,-0.2202598567,-0.3771863301,0.5556240865,-0.2564594739,0.6384735347,-0.6327945482,-0.0400055243,0.0469031991,-0.5648738079,-0.4446931954,-0.7669207019,0.1053703183,0.1303026093,0.5434183638,0.0340596943,-0.4590096026,0.9923671006,0.4552255184,-0.0523553228,-0.1173550536,-0.6112324196,-0.6552358749,0.2621337713,-0.1064259834,-0.4728933843,-0.5381876251,-0.8637084144,0.9692699823,-0.094115003,0.2700944762,0.9235338808,0.4502464397,0.065237783,0.075467314,0.3901876161,0.8043645871,1.0658542845,0.7719287415,-0.3632817569,-0.8926483318,-0.6200354993,0.5691059744,0.4895604059,1.0227245879,0.3483615121,0.0189779665,0.1982260708,0.9676805333,0.513368144,0.5799384139,-0.2952383946,0.1226211286,-0.3502370908,-0.3970294115,-0.3848132677,0.8930007606,0.0035833679,0.9989412786,0.6829361179,0.3474463273,-0.1648333501,-0.1080825798,-0.5539644539,0.9066539015,0.3236668581,0.458837033,0.0300970638,0.9857057112,-0.6005070435,-0.3718092271,1.0822998957,0.9337198697,0.2066382196,0.7735420459,-0.5994102805,0.5031211554,0.8432568683,0.9464666857,0.2842206232,-0.3845499815,0.7196392949,0.7237800561,-0.2163888338,-0.18917663,0.5153086262,-0.3695269645,0.652423718,0.7488806818,-0.3540846735,-0.5063769842,0.3147916136,-0.8316990892,-0.3830914652,0.7264247641,-0.5339768186,0.8275611226,-0.2379060233,-0.6165279642,0.7478207964,0.8348045882,-0.6932942655,0.0959763732,0.8445159821,0.1255058682,0.7927367989,0.7043077083,0.951074633,0.4141399877,0.6201606134,0.7492448452,-0.8283380555,-0.7794627848,-0.1131889031,1.0437402096,1.0486491407,0.2443611589,-0.4787110706,0.9067665371,0.6285479646,0.7729169283,-0.5555046578,-0.6188154329,0.0911608743,0.8982260376,-0.1863577066,0.9799883759,-0.3387954115,0.2032292141,-0.1240381058,-0.3750536073,0.5226984611,-0.7029083389,0.9802319594,0.1707397737,0.9247096878,0.8508951542,0.5317067613,1.0034323326,-0.5862627126,0.7380863865,0.5503781517,0.7481559065,0.1946024014,0.8935103795,0.5700952674,-0.7553873357,-0.5391197321,0.8000718838,0.4793661107,-0.8421203731,-0.4336167573,0.7727023564,-0.3748654494,0.5591797289,0.2925343228,0.3320190514,-0.8078094846,0.6220971466,-0.3734658973,-0.2394073919,-0.7372520276,0.5105840982,0.7541739822,0.13178733,-0.7996362414,1.0041219323,0.5298632148,-0.2400365634,-0.5029770132,-0.6658872472,0.2248248492,0.1826984784,-0.3660175675,-0.8922916452,0.5752388874,-0.7291466147,0.7967563557,0.2674173044,-0.7540380865,-0.0306361228,-0.7938755608,0.8415858891,-0.1756818482,0.0746753016,0.1857608129,0.3962023668,-0.443629369,-0.7562149539,0.9311142649,-0.784461881,0.8814177124,0.4696738,0.5893898299,-0.5354050203,0.9083709375,-0.7877443059,-0.2767356777,0.254809132,0.0348125605,-0.0232776458,-0.4047192191,0.611700207,0.6281220579,0.3794390084,-0.1945672764,-0.53893863,0.6694068824,0.2717936138,0.9454968887,-0.8011299516,0.9598665866,-0.3613168386,-0.3617450396,-0.5512611421,0.3132015069,0.7050691378,0.8570654469,-0.8578577258,-0.3911208359,1.0794539699,-0.5059002154,0.4460925914,-0.3941780057,0.1509148606,-0.079934896,-0.6530435607,0.5926816171,0.9163804094,0.1953624917,-0.4231690753,-0.2413543283,-0.1623139052,-0.3408914675,0.4349738541,0.3903610108,0.1807534778,0.564291591,0.5710898566,-0.1399307381,-0.4180075625,-0.2172184722,-0.4787298355,0.2414946635,0.7677768191,-0.6962513205,-0.3680568348,0.6495000006,-0.4711704712,0.6876996332,-0.7950116577,0.6076374662,-0.1726236039,0.7923281411,0.933532345,0.397305313,1.0166017214,0.9747481258,-0.4213415248,0.0470705245,1.0756372025,-0.5395208202,0.0801345148,-0.842338599,-0.4956892019,0.8287579926,-0.0321168544,0.7627283098,-0.6859082696,0.2722513711,-0.2481605734,-0.3820388557,-0.4505074265,0.3670128647,0.9538726529,0.2442469427,0.8537496929,0.7664108969,-0.2553675101,0.6894362758,0.5620883809,0.0415964877,-0.5133490129,0.5719682019,-0.4010800468,0.5036179697,1.0652496781,0.5724547083,0.8625993737,0.6305948918,0.5809798806,-0.7780422099,-0.4487255735,0.1466834655,0.1086508381,0.8308207131,0.3018746304,0.2551771542,-0.5755382323,-0.7812102112,-0.3033150815,-0.1591992949,0.3897277598,-0.758428007,0.2029652683,-0.0738144257,0.2007977792,0.2292497131,0.817818982,-0.2852322883,0.9844326567,-0.2450978186,-0.4427948989,0.0618985526,-0.4098421839,0.9237772765,-0.731810847,0.2286624005,1.0575894613,0.5882880212,0.8976705454,-0.5519437792,0.9065463195,0.5455239654,0.9835044224,-0.6567683807,1.0442701037,0.1156939839,-0.3648066977,-0.3354202419,-0.1628201092,-0.1307756038,-0.1389134516,-0.310580148,-0.3208655469,-0.5281752405,0.6935785438,0.0480989833,0.1490014408,-0.8075982881,-0.651246103,-0.694188812,0.200152989,0.0325508651,-0.2031574006,-0.7866797353,0.0379764379,-0.1515929278,-0.7529544711,0.0166093222,0.1466822342,0.5811745846,-0.0127373789,-0.4113453718,-0.4708380775,0.3597480515,0.0551713973,0.1193768671,-0.3155245724,0.628894492,0.8825391165,-0.2350809161,0.1006377864,-0.4605590807,0.481528838,0.6600513133,0.6469614233,0.2945664408,-1.0261650143,0.0381599428,0.8406159848,-0.9831647854,0.5961834141,0.6900190524,0.5351536584,-0.0003887604,0.677795855,-0.7649969976,-0.2972861924,-0.113410659,0.5793020835,0.6416694418,-0.0593573736,-0.1464297487,-1.0070399915,0.1357688616,-0.3534349694,0.3934494606,0.2168193581,-1.0595284871,0.1656628532,-1.0880298052,0.9682403766,0.1020626907,0.5481046233,-0.0621249472,0.7439974748,-0.5096902064,-0.5635045238,-0.9150039537,0.5159987871,0.7116773844,-0.5829354152,0.1176733695,0.4505113292,-0.0991895703,-0.6939905717,-0.9869578671,0.5862168833,-0.5971152082,-1.0853521753,-0.0476241161,-0.8789011344,-0.741164399,-0.2575601962,0.3511181753,0.501743936,-0.9616020457,0.2745019298,-0.5206499557,0.176142003,0.0040848294,-0.8500029145,0.0340424261,-0.8266834814,0.88381465,0.3977822328,-0.0317984099,-0.7847913393,-0.377711616,-0.3646576077,0.4584470888,-0.7353239367,0.4300097844,0.173488592,0.8063966137,-0.8980339477,-0.8925625267,0.3875900148,-0.4615351365,-0.4927275788,-0.9532401508,-1.0196614502,-0.9618558765,0.0273233159,-0.5018118568,-0.8531681545,0.5643483043,0.7920262033,0.5671928934,-0.9605853037,-0.2311648463,-0.6357148139,-0.675880526,-0.8038199768,-0.3656348843,0.2337318265,0.5835888534,0.2336430236,0.5939533131,0.8206610232,-0.7389491337,0.7987715477,0.3876092875,0.3730157818,-0.6399174977,-0.7927542579,-0.837809824,-0.2736211392,0.3675683887,-0.1697702573,1.0871824577,1.0093250786,-0.6182240879,1.0637830708,-0.3642913439,0.3034100803,-0.072791469,-0.3537297802,-0.043506135,-0.8385824296,-0.4631489668,-0.7822844922,-0.2360497179,-0.7910651676,1.0879130353,-0.6083917588,-0.572015258,0.7615320425,-0.2591135938,0.9838285773,-0.1983906571,0.1287260276,0.5774342886,0.2056508839,0.0014046998,0.9654098378,0.3676132188,0.1777909632,0.2716414774,-0.6934325774,0.0834035669,-0.7481668185,-0.2684586616,0.5421775112,0.2143348923,0.7532513217,-0.0145134745,0.056217118,-0.6807961434,-0.755032838,-0.8842425254,0.964854116,-0.5166912778,-0.1825178134,0.1316251537,-0.5121126612,0.7426866914,-0.1081311762,0.014365611,0.4118092713,0.9544492785,-0.3198068722,0.6169057037,-0.455720262,-0.1229728233,0.2640535641,0.4689181212,0.2849595022,0.9141699929,-0.1610547282,0.7203742658,0.4015562267,0.6426548073,0.7895711909,-0.0947922875,0.5248528712,0.9656337945,-0.1602522283,-0.4457795363,1.0238012047,0.3484192357,0.5971653062,0.4145236416,1.0847650005,0.6766613748,0.5466189054,-0.1738427108,0.2579631837,-0.059476361,-0.8009125679,0.2258472817,0.8820026028,-0.3624817109,0.8627882713,-0.2240958923,-0.0037092602,-0.3810882258,0.5344859874,-0.1055041209,-0.0277646696,0.1067117261,1.0466324346,-0.8714313339,-0.2902608741,-0.7104155612,0.9036029058,-0.231819496,-0.407821242,0.7072399527,-0.8417359205,0.5513919393,-0.5632665332,-0.5231376653,-0.2344372921,0.6332138148,1.0013013292,0.6215620656,0.7670990141,0.6508762773,0.1002062174,0.5251336159,-0.8264356485,0.5788974606,-0.1800120241,0.3159842082,-0.7943460717,0.8549490814,-0.7287791848,-0.7283719142,-0.0360399646,-0.8624556156,0.1353228034,-0.6676259018,0.6277964789,0.3247215284,0.6545289385,0.0503974661,0.5146279803,0.9362767278,-0.405079963,0.2384171875,0.3083439034,-0.8093272479,0.6748324529,0.3703254187,-0.1247258377,0.3864579343,-0.5209042096,0.9302918666,0.7468122532,-0.0116977399,0.119969084,-0.2826773142,0.8176426977,0.5527263495,-0.3236654734,0.3571461164,-0.6797103634,-0.6564789879,0.0314049288,-0.8356544074,-0.3744321682,0.4134715852,-0.2242520101,0.1847413108,-0.0466978827,-0.3228534875,-0.5075118435,-0.3436466844,0.577502116,-0.5281163947,0.8067434581,-0.3298175451,0.1327905918,0.780180208,0.9489274296,0.7227536239,0.9007325169,-0.3356896209,1.0901765426,-0.7272288449,-0.06731339,0.6764114805,1.0850374867,0.8930132888,-0.0663428461,-0.8268143795,0.8509326541,-0.1620287898,-0.2703049684,-0.624236568,-0.6628443189,-0.5342809366,-0.2781516065,-0.0979668736,0.0472894585,-0.8959276986,0.5176892514,-0.4669480421,0.0373231865,-0.9507679837,0.7372173365,-0.5167803701,0.762124021,0.4698655975,0.0209971508,0.5969347864,0.0059241385,0.5693427291,-0.9947946285,0.1592894652,-0.0849690675,-0.7607328868,-0.1224267483,-0.2831806922,0.4062070316,0.8324248488,0.6915230006,-0.8650510411,-0.4941070346,0.1219708343,-0.5033351683,0.8144253574,0.3948265132,-0.993460592,0.3132501059,-0.2812848585,0.8987918399,0.0015680801,0.5042780347,-0.9786142259,-0.6704169677,-0.8031933664,-0.3811405235,-0.7939405226,-0.361467951,-0.5918804365,0.6035736771,0.0152413036,0.6343072098,0.1242013244,-0.675169139,0.4689175849,-0.1332294873,0.6334572861,0.8309054963,-0.7796441217,-0.8087307502,-0.5518662956,-0.2906949931,0.4306679858,-0.8519265033,-0.780035536,0.4589021706,0.2964523149,0.5353916038,0.7883014114,0.6988025344,-0.796141956,0.5877622191,-0.2596078225,-0.0423082042,-0.307824504,0.2460331999,-1.0237955776,-0.3386775031,-0.9775077751,-0.3845264819,-0.8509675771,0.0671776125,-0.9192679586,-0.0424631334,0.2698464866,-0.1823989539,-0.5920714185,-1.0654114929,-0.9717928878,-0.2842238061,-0.0850045954,-0.1651019086,0.43129167,-0.898893366,0.8584646761,0.7669468564,-0.1530526747,0.6047533535,-0.7327815696,-0.3914101601,0.1916944393,0.5263732608,0.5859118766,-0.1486669612,-0.0339695252,0.8336703836,-0.8423812049,0.5899375987,-0.1533321382,-0.4374627537,0.8336946368,0.13967611,0.7581073149,-0.2804382159,0.8741621007,0.3395053729,-0.9029677422,-0.9415034584,-1.0932567313,0.4531834526,-0.6455923952,-0.6600113621,-0.8301031471,-1.0532342188,0.874427437,-0.0681490817,-0.5681994922,-1.0550162148,-0.7935784824,-0.6844754562,-0.1687973727,-0.016869009,-0.5887360148,0.6793827893,0.7333919266,-0.2400154157,0.40766385,-1.006601372,-0.8298971474,-0.7358833095,-0.218465675,-0.6439981994,-0.8464365063,-0.1863026728,-0.8821700817,-0.2504239255,0.2933026456,-0.8256698622,-0.679652691,0.5900721327,0.6047368686,0.697974018,-0.9655287947,0.3630885881,-0.1000447474,-0.762843087,0.7537842429,0.1117085131,-0.9787823919,-0.5436283091,0.8358407925,0.1801321584,-0.2399584141,0.372534429,-0.0544636147,0.2943057802,-0.4163894615,-0.3359258335,0.3941383468,0.5095496387,0.58219431,-0.8362202733,-0.7001603429,0.1309456851,0.1619841298,0.4557602789,0.3533220905,0.8852162792,0.8933705499,0.8090901526,-0.5272576719,-0.7894122216,-0.8924133819,-0.3449604801,-0.7765950123,0.8629734947,0.1638457872,-0.8404083462,0.0092943057,0.5012518494,0.2342146966,0.4354073143,-0.747387779,0.278084326,0.8127337711,-0.1952713028,-0.3557021906,-1.060354975,-0.9066956425,-0.2299852712,0.874539558,0.1844894931,0.6683916015,-0.356247541,0.889887365,0.3618299862,-0.7496728708,-0.3863318622,0.4656357788,-0.6013928759,-0.6776785645,-0.0877215855,-0.1275091312,-0.2016245126,-1.0968879539,-1.007694534,-0.2089760762,-0.9124449718,-0.1505195749,-0.6775624501,0.0635359313,0.4998958394,-0.7314974278,0.3624950138,-0.0854160772,-0.1989090551,0.716617887,-0.4901740619,0.4653503484,0.6950958794,-0.9329947797,-0.0635122426,0.8528885415,-0.91990185,-0.4827276578,0.234137839,0.6930296777,-0.0898796739,0.6895965069,0.0844468415,0.1243439731,-1.031367732,-0.4796018764,-0.0514777947,-0.1005068961,0.6347627912,0.4768551558,0.8817962854,-0.6608812267,0.41488815,0.4403759049,-0.1346172594,0.8375260161,-1.0031238271,-0.2578187874,-0.0616084437,-0.9939373377,-0.4899516986,0.4117809968,-0.7994265743,-0.9891950416,0.5279244808,-0.8131165436,-0.3547321352,0.2522179844,-0.585171814,-0.943090532,0.0697471399,0.7643673355,-0.5705755654,0.5311893119,-0.3435372027,-0.3038380069,-0.5434448643,0.8236776992,-0.859781452,0.3184925384,0.2442834156,-0.9380989923,0.1166061063,-0.6843093161,-0.8179328893,0.4522987351,0.0991161742,-0.0714555032,-0.0903388492,0.1002869201,-0.8115332426,0.3492103008,-0.7795270159,-1.0705129642,0.7859070637,-0.1367200892,-0.0611889387,-0.1625803151,0.7820749041,-0.2009926917,0.2663185706,-0.1916378287,-0.5957385266,0.6280861524,-0.2650911626,0.4304209776,-0.6071034825,-0.8347661531,-0.8711714197,0.847324605,-0.6935983815,0.6174639179,0.7587892087,-1.0851494311,-0.6657468331,-0.3767169642,0.2666623503,-0.767269144,-0.7197406683,0.8168589807,-0.4374550627,0.9945462851,-0.4331567348,-0.5823400767,-0.0054023732,-0.6168676138,-0.2054304856,-0.3892138219,-0.306287192,-0.7037882566,1.0751919654,0.4535534901,-0.4492613457,0.4073262681,0.9060160224,0.9931857755,0.2477004419,0.0399273212,-0.6236926603,-0.0092347676,0.2169033912,-0.1805445999,0.6528415697,0.1424987952,0.7120721711,-0.835998455,-0.1706592198,-0.7592245166,-0.7419957414,0.5296547554,0.6167008764,0.4848784533,0.1745878079,-0.186333664,0.4936264041,0.8664923223,-0.834826979,0.1825256693,-0.465055803,0.7778988005,-0.4888307903,0.8782783691,-0.1470844755,1.0670841824,0.0761159368,0.8112064668,0.0667952704,0.7922940565,0.7659268429,0.016142997,0.6919156844,0.0333065352,0.951553434,-0.3444708485,-0.6341296555,-0.3306421054,0.2161643061,1.0464730739,0.040286644,-0.3288920669,0.7873096713,-0.046543336,0.5341144915,0.4952513162,-0.7549154177,0.3853470809,0.4296729563,-0.6424756685,0.1451900106,0.9477662335,0.8270285243,-0.498394532,-0.574267499,1.0067373814,-0.3735469732,0.8663776873,0.1621751685,0.0158189548,-0.4501312795,-0.6679005251,-0.4485308295,-0.3105411103,-0.2044095028,-0.0151371694,0.4178463696,0.2510301106,-0.2659319364,0.9875282888,-0.424995687,0.5842333392,0.5346148249,-0.2495796572,0.016582209,0.0138228096,0.0398993839,0.0988712038,0.6934038184,-0.4375634109,-0.7348280618,0.6198096327,0.5453803855,-0.3567129787,-0.0617105359,0.529851715,-0.7084324277,-1.0639945851,0.2499305797,-0.1993098278,-0.5062853642,0.8649206949,0.8340589093,-0.6737410146,0.4426024358,0.8911552431,0.8967939543,-0.2827205788,-0.1928255163,0.826021434,-0.0926547023,0.2589588391,-0.0372713443,-0.3219721702,0.4359651987,0.5140376428,-0.0971904862,0.6375880445,0.1532826683,-0.7746459853,-0.7551200789,-0.7198168084,-0.9746143186,-0.106224894,-0.0472084583,-0.9272671355,-1.0605368523,0.5590906989,-0.2093476808,0.0704351048,0.1723451493,0.3188690866,-0.9863816136,0.4165373709,-1.0401995021,0.3327738089,0.6286828343,0.4974304232,0.4489617811,-0.3404289763,0.2371201876,-1.0601958074,-1.0198266765,0.2775493829,-0.6502442201,-0.6651896699,-0.385416772,-0.4679970857,0.1171415298,0.6613352248,-0.5567055965,0.8018517066,0.8423626431,-0.9009354721,-0.4149546337,-0.0816405725,-0.556441731,-0.5527720141,0.7053982733,-0.1872413456,0.5301919293,0.2687090495,-0.2030855227,0.8868795971,-0.8746611075,0.5614323809,-0.6357565412,0.6704951893,-1.0234911689,0.1200350396,-1.0013187279,-0.3430535206,0.5964895121,0.6209030941,-0.7192608322,-0.0015198388,-0.4561029957,0.513502197,-0.6538015095,-0.5054143869,0.8556294065,-0.9565139824,-0.5757500734,0.5534445976,-0.9112724423,-0.4846524463,0.5812403142,-0.170292754,0.4263202921,0.6532587073,-0.1309197585,-0.8010228134,-0.0592401647,0.5356450856,0.3162727858,-0.9493424526,-0.393742335,0.3790605373,-0.2833376207,-0.5159658515,-0.8332902725,0.1980685901,-0.8079413674,-0.7823221199,0.544010994,0.5264557643,-0.7140380362,0.1249899905,-0.69968034,0.6080003612,-0.7192879352,-0.4286293094,0.1233857842,0.4660280373,-1.0358230507,0.6702604025,0.7577798229,0.4971976554,-0.0301787505,0.4170302477,0.8028131096,-1.0793551012,0.2412007333,0.7032442628,0.8556884243,-0.8825620492,-0.9422331589,-0.9584579593,-1.0763981324,0.2531682221,-0.1631956899,-0.801235162,0.1949390488,-0.2853478633,-0.3336017068,-0.9487536236,-0.8912528245,-0.546673729,0.5000676843,0.0342728886,-0.8998267146,0.8448678585,-0.0294993808,-0.1961731934,0.7997882091,0.5923865405,0.8552229276,0.6319791624,-0.5443404284,-1.0458492711,-0.1882865284,0.2504607886,0.2850730372,-0.4865446049,0.146676196,-0.2552843161,-0.7630797837,0.0084522523,0.1689797393,0.5956800261,0.2475386639,0.1809837716,-0.9600176445,0.4656339192,-0.2118390794,-0.1155299787,0.4559120232,-0.5376134291,-0.7548655927,0.8748903685,0.4145764,-0.5501647179,-0.1960842679,-0.4340285334,-0.8414891764,0.8466787374,0.4303622043,0.7770267883,0.8945982525,-0.4486174285,-0.5673719187,-0.3961156565,0.3704353707,0.1328508421,-0.4242883023,0.6891878107,0.699650902,0.2920139665,-0.7280626633,0.66050083,-0.2308202483,0.4930139492,-0.3083962242,-0.6097873394,1.0429071856,1.0148122357,1.0376296928,1.0721023367,-0.1516624692,-0.0864125117,0.3028137545,-0.795353453,0.9613584895,0.8780830483,-0.8740186523,-0.6830201583,0.3356697549,0.2104335107,-0.0492971754,0.9138878073,-0.4544584098,0.2461687234,-0.2382808908,0.1543869502,-0.0966238415,-0.684798875,0.7837799033,0.4742543306,-0.6408486691,0.1884429307,-0.0235193912,0.0867467433,0.1384666825,0.1365761479,0.9295964576,-0.1130251708,-0.550607575,-0.3588456071,0.443868203,0.6552540664,0.0861924874,-0.2472979573,-0.7703054755,0.6466739027,0.0438726676,-0.0076971864,-0.7809493802,0.1926751594,1.0137349974,-0.2210441299,0.237907179,0.4446860531,-0.3061523357,-0.730619535,0.5571541493,0.1001584424,-0.0388691113,-0.6429303764,-0.2711227417,-0.1531400316,-0.6621931382,0.4866972135,0.3788230802,-0.4709973139,0.2910246203,0.2223432414,-0.2529392582,0.8048514301,-0.1434742271,0.1726846901,0.6072864531,-0.8788926724,-0.0818605279,0.9568885541,-0.0712060827,-0.8695140007,0.7806543258,0.0806337132,-0.5372363297,-0.6205220383,-0.50344151,0.7818416995,-0.5749621992,0.9714784432,0.1754877837,-0.4444515532,0.6098766879,-0.838590044,1.0951470847,-0.1444619807,-0.8250773152,-0.7000594912,0.6872506295,-0.1337302276,-0.8157329121,-0.0279772458,0.6628027664,-0.4682035754,-0.0485492125,-0.8275099204,0.0704055571,-0.3850772656,0.9484214631,0.1542720613,-0.4181636375,-0.6149803851,0.0009227406,-0.3365297854,0.9064105408,0.0062090555,0.4898468824,1.0181782537,-0.0814306277,-0.6244834757,-0.6108292661,0.8613123703,0.8609784675,-0.4196522602,-0.2380724345,0.4888582354,0.2001001434,-0.4061746475,-0.0703374566,-0.7919585299,-0.0524109702,0.8119696036,0.5209418144,0.9141139645,0.2980102159,0.0839184807,-0.3595060339,0.9093188367,0.8732333551,-0.2386237881,-0.3700734744,1.0275914372,0.721313026,0.157137093,-0.723267961,0.7638155134,-0.1119688523,0.3335403514,0.7718115719,0.7789556697,0.9016949836,-0.4875805496,-0.4239702692,0.8917768485,-0.0166147391,-0.7425665698,0.8449935769,0.2594623345,0.7157135041,-0.2259968687,-0.1828639551,-0.122736949,0.2429619239,0.043966366,-0.5551236258,0.6544298267,-0.878595877,0.1595543801,0.7722915804,-0.6158434407,-0.206730163,0.6806526764,-0.0602198776,-0.1430857218,-0.2150548823,-0.557596778,0.4789477847,-0.809636466,0.0286733073,1.0411653371,0.540429489,0.7694797618,-0.6535643221,0.6930524619,0.4837328884,0.906449296,-0.8260984633,-0.4940312128,0.8655906852,-0.235268663,0.6233283895,0.5339719019,1.0260941328,0.4532243947,-0.1182403355,0.3064097367,0.7734438026,-0.888570051,0.9616207062,0.6802909437,-0.594980444,-0.2195199997,0.1733456252,-0.5197535373,-0.248200728,-0.1623178261,0.092153658,-0.2498107299,0.1164628925,-0.4596333632,-0.6956091819,-1.0718064671,0.6976078402,0.7885705166,-0.7413182099,-0.0543621859,-0.1171007771,0.0082354483,0.1857298901,-0.3359101274,-0.5598785071,-0.2133043689,0.8106883729,-0.7692483922,0.6536057369,-0.0082975601,-0.1870389372,0.748929954,0.2534384092,-0.407491686,-0.570055556,0.1571151372,0.4280900889,-0.0647826709,0.4540801168,0.2102787476,-0.6402107826,0.3125831657,-0.8723074165,0.3713628495,0.0942444827,0.3627472377,-0.0728340369,0.0563480231,-0.335748211,-0.3435685258,-0.1662348042,0.2014755617,-0.0330132979,-0.0428084658,-1.085027127,-0.732635693,0.763369733,-0.7051005134,-0.2395226701,-0.9787559638,0.0296753895,-0.3058736521,-0.3126773303,0.5963278822,-0.772160243,-0.3194492833,-0.5864442313,0.804207756,-0.9320375037,-0.1634273208,-0.0633573261,0.0758455935,0.3132627039,-0.7007480059,-1.0140657137,0.543124057,0.8630686115,-0.1023182131,0.325165823,-0.4867456149,-0.9928328579,-0.1498986149,-0.0644295595,-1.0105991782,0.2914662667,-0.5193926125,-1.0891701038,-0.9450901512,-0.3849780808,0.4370988874,-0.9491889218,0.2329844185,0.2745057634,0.812933033,0.7470592779,0.2995809006,-0.8364995184,0.3259767495,0.3882594889,0.4182381863,-0.7467283566,-0.808488323,-0.5925545286,0.770437264,-0.4186182893,0.7201661568,0.8257497312,0.1241240622,0.7809461606,-0.8434306461,0.7804156038,0.707297389,0.5348740975,0.3753722112,-0.1262094842,0.1733371741,-0.9857606669,-0.8954656268,0.8178755943,-0.424221244,-0.1351521561,0.2429672182,-0.3466334456,-0.5659773451,0.6706225089,-0.4168034398,-0.3663973101,0.6535299315,0.4597060823,-0.6121874807,0.1918812431,0.3067057929,0.4763733534,0.8187335453,-0.9617612748,-0.8514789527,0.851512069,-0.0760660612,-0.9493273615,-0.1803256742,-0.1008974332,0.7262038236,-1.0009959324,0.3002875344,-0.7991978264,0.3972452536,-0.5621693597,0.6526033829,0.3880173356,-0.4582819337,-0.5374628348,0.0151040449,0.3746016069,0.1672135157,-0.5064122843,0.853025667,-0.091747839,0.0306963364,0.2125114212,-0.652734334,0.2443763964,-0.0118388752,0.2711566672,-0.1698248894,-0.115684022,0.3747241243,-0.3387628743,-0.720021093,0.1281871996,0.6242313293,-0.4202808091,0.0708745536,-0.0704303814,-0.4880496208,-0.7442270541,-0.59465523,0.5231874424,0.5207633937,0.8369342331,-0.883413787,-0.6023643554,-0.9310080331,0.5984688938,0.0323920173,0.2611207574,-0.066748995,-0.887799753,0.2138323783,-0.5194190776,0.3637462099,0.8662278395,0.0480154203,0.7805476486,-0.8017527508,-0.2917925744,-0.50019094,-0.28991234,0.3419349361,0.3758452044,-1.076304746,-0.8363398216,-0.9577399676,-0.7164448695,-0.6957769595,0.0902469788,0.0750253358,-0.3772335819,-0.3147769548,0.7456218388,0.7352857759,0.0371885696,0.0605932151,0.8347354884,0.7192167932,0.5846790859,0.2411202143,0.040353665,-0.4591686843,-0.5982503246,0.1739087257,0.0042978694,-0.3200056423,-0.8774856057,0.5269394999,0.1669435389,0.4106181446,-0.7461260183,0.8623117597,-0.3106863547,0.0033482754,0.19253407,0.7931363257,-0.8582645344,0.5082724487,0.8719284274,0.5122392294,-0.2923974956,-0.567270716,0.8182527351,-0.8867638832,-0.7610627629,0.2734892322,0.8736014295,0.9247854621,-0.8649425088,-0.6655084469,0.0248080896,-0.5211084708,-0.0579622959,-0.1606241024,-0.6961104798,-0.1899545341,0.9889480932,0.93221706,0.8253964151,0.0025466048,0.4277953488,0.0330157576,-0.2864957999,-0.5254867895,-0.1277436975,0.0150537458,1.0780876852,-0.7119737023,-0.788285931,1.0996248963,0.2986443706,0.9424684241,1.0235718956,-0.5949476576,-0.0112911255,-0.8567828012,0.9125919944,-0.7564815996,0.4332746763,-0.1443627492,-0.033265925,0.082038583,0.5261163683,-0.1384007721,0.4709329794,0.9479618966,-0.6302645739,0.6927864313,-0.6715954281,0.8983209994,0.0012978439,0.7808316788,0.7296289836,0.2048071295,0.4921464504,-0.5010507791,-0.5828299254,-0.3486817769,-0.596634748,0.2091615429,-0.6867579678,0.7387370926,-0.2521884455,0.9320195611,0.7704394152,-0.4697576594,0.1542790984,0.696618978,0.7156296876,-0.0083298182,0.5665638248,-0.2322937119,-0.5143455252,1.0842292304,-0.4385171503,0.2649750127,1.0465313234,0.1455154572,0.5292734703,0.7093782684,0.4942757096,0.0442159922,-0.9709666721,-0.1455320887,0.1739957065,0.6078757415,-0.0821146805,-0.6031846415,0.4189038816,-0.6997872313,0.5240912767,-0.0824801981,0.7739038393,0.2360348585,0.5490812525,0.6134018297,-1.0243201961,0.1066438292,0.097808753,0.0479925981,-0.6941452011,0.7695535221,0.1543372841,0.6511688029,-0.6720303565,0.0548959473,0.4831959724,0.1410702859,0.3396458229,-0.7505635416,0.1618550015,-0.8993453335,0.1699084081,-0.1146116103,0.8566195431,0.3024238285,-0.9965353155,-0.9189509151,-0.8150173462,-0.9415923731,-0.4727936767,-0.2194977511,-0.2059229033,-0.0608127258,0.4192559023,0.7563997134,-0.1389126815,-0.1173977298,-0.2803100429,-0.9359760545,-0.7819633719,0.8231359045,-0.6712349831,-0.3682563103,-0.036698442
   -0.6318329089,-0.1825749851,0.2016168782,-0.9618211975,-0.0247821616,-0.0334407839,0.6879307379,-0.3261227203,0.2818191844,0.8929846005,0.19967967,0.5393085445,0.3722273917,0.2813246961,-1.0500723149,0.0493830096,-0.3201142244,0.5293933304,0.2951203861,0.0419994011,0.698233118,0.4095575628,-0.5935880647,-1.0610559594,-0.5481146935,-1.0046122319,0.8313534568,-0.1801322021,0.399530506,0.6933338125,0.6646306304,-0.0521646994,-0.7247312664,-0.2369777939,0.567858943,-0.4503257481,-1.0305356084,0.4978939243,0.2172947313,-0.9460126579,0.4115903742,-0.0386982983,-0.388058936,0.8018607986,-0.4033704987,0.1542804558,-0.5934551404,0.9207079895,-0.0232438641,0.1242631573,0.947974863,0.6921622816,0.0258331909,0.720028758,-0.8248458417,-0.7519630661,0.6825023068,0.897774574,0.415550401,-0.0689824835,0.9082213527,1.0403902006,-0.0522657321,0.8444725922,0.8981282035,0.4040591997,0.2755653283,-0.8025015526,-0.6327867022,-0.8388952935,-0.0712476246,0.5181657852,0.3607971043,-0.8594997888,0.3610187365,0.3432381937,0.1033970824,-0.7933355953,0.2969456938,-0.3154734904,0.9365736104,1.0398239307,0.7280552825,1.010819209,0.7427830417,0.2481687032,0.5865403052,-0.0795863781,0.447922963,0.4088710374,-0.1290895817,-0.1333045078,-0.1186177385,0.9834922451,1.0470828791,0.3858562166,-0.5969651615,-0.7143289488,0.2190787998,-0.666403905,0.0199753285,0.448588015,0.4767248454,1.0406949496,0.1147621789,-0.4287280584,0.3231312892,0.7971857017,-0.7127452531,0.9544024694,1.0348912973,-0.7352851742,-0.806472716,0.6175546513,0.7461794448,-0.5245581888,0.4026739011,-0.889685514,-0.4398099348,0.0676417255,-0.2800487591,-0.800288445,-0.0393888947,0.4921386685,0.6016127127,0.2338742285,-0.2587897081,0.176770663,-0.1663620617,-0.5196120059,-0.0127402963,0.2860007913,-0.7292115901,0.7149699284,0.7781755198,-0.8733828419,1.0189070611,0.705087345,0.4424831503,0.5117714914,0.5415450355,-0.3653469586,-0.0754068614,-0.6660358233,0.6247965428,-0.2990814852,0.5638783326,0.3654116376,-0.473742998,-0.7591840777,0.4156418006,0.5846680952,0.8227227391,-0.6097570718,-0.0446984819,-0.8334857439,-0.2211029502,0.8089726619,-0.6019891001,-0.4676711898,-0.2592354625,-0.7679617024,0.193624067,0.561129614,-0.3076436443,-0.5671592238,-0.4315710828,-0.8144447268,-0.7892109076,-0.2250947277,-0.632499326,-0.412175335,-1.0864425121,0.374764421,0.7423219615,-0.2120484427,-1.0516710125,0.6937738306,-0.3909919977,-0.9015329404,-0.4011120061,0.6676908792,-1.0068097849,-0.9832404233,-0.5278417384,0.5583978009,0.7076232854,0.5769431453,0.7677391526,-0.2683736282,-0.6530194696,0.0856703435,-0.1044296414,0.6096342798,-0.3354347821,-0.3622940917,-0.1286377099,-0.5699255692,-1.043856742,0.6757005866,-0.0466285788,-0.914575536,0.2289008238,-0.0225334308,0.0051608872,-0.3629980226,-0.5034672304,-0.9449877606,0.3371217111,-0.1734210984,0.6571466261,0.6361325698,0.7267710247,-0.2193006382,-0.2434507767,0.868465244,0.2560091939,0.4247210927,0.3415005232,0.1315946897,-0.0941890178,0.2491205847,-0.3309584307,-0.8391502978,0.02888253,0.0360016239,-1.0495388808,-0.1173754665,-0.2407801328,0.8050798873,0.3430289811,-0.8994625094,-0.3174034682,0.8128038823,-0.4469927925,0.01305441,-0.2584930841,-0.3653839622,-0.6389787069,-0.1066563053,-0.3769261209,0.6701686145,-0.1878260499,0.4915509959,0.2662465321,-0.4497590282,0.4496594074,0.4635238876,0.7138599761,-0.9146741585,-1.069738177,-0.6556320376,0.118600041,0.1654209473,-0.9658403057,-0.831428117,0.0055125,0.3483155984,0.7625958444,-0.7865556441,-0.0154305427,0.6099400623,0.6444264554,-0.8370047681,-0.815760096,-0.2578341695,0.7472574519,-0.1912576012,-0.8590805202,0.2640411078,0.8883634414,-0.9983279573,-1.0026201859,0.2601709576,0.4000017693,-0.1943599046,0.2600609324,-0.0040998699,0.4440759922,0.6075667814,-0.8254074449,0.138269193,0.0797813003,-0.3078771678,0.6520301269,-1.0499040136,-0.7758537026,0.2502096316,-1.0172003862,0.0317912471,0.2187634015,0.0053031326,0.1631465914,0.5794184777,-0.9127120789,0.8683341015,-0.0516969922,-0.6186269158,-0.2528709429,-0.4435293443,0.5524170046,0.5661104725,-0.5230794631,-0.3929943803,0.4558774091,0.281728383,-0.2966754106,-0.1039893422,-0.5455386208,-0.2409410568,0.3882512199,0.2659616332,0.0027664939,-0.306799544,0.0807916468,-0.935635594,0.2942106731,-0.8607395522,-0.8087846649,0.5463613715,-0.7167691149,-0.5846909038,0.3441189301,0.045163282,-1.056128816,-0.746643905,-0.7819287895,-0.0393742651,0.3542493815,0.0312478681,-0.9748523586,0.1793913076,0.5770565453,0.7859182696,-0.679576531,0.2610895898,0.1556276011,-0.0079984064,-0.1434140971,0.8296668205,-0.9596988752,-0.8025299867,-1.0047026283,-1.0437837033,-0.4094829819,-1.0339242208,-0.1327342197,0.1806986598,0.5389284497,-0.665354587,-0.2841597255,0.297259317,0.3033141971,-0.1135165834,1.0611730177,-0.3046639776,-0.6960873562,0.1438941912,-0.5993267557,0.9578623431,0.6041907172,0.4636440698,0.0545378478,-0.1062156318,0.7396853045,0.2937422366,-0.4793431922,0.9332378405,-0.7080961539,-0.4552803606,0.6031358505,-0.8518186382,-0.4510508771,0.5096334429,0.6829007198,0.746582731,-0.8268578573,0.7251144302,-0.7360889839,-0.6520093683,0.9483169146,-0.5983210628,-0.8172610277,0.4187071626,-0.5902742438,0.7009035763,0.8168548968,0.5841288747,0.8521253345,0.5550825408,0.1373609109,0.8845070964,0.3577552505,-0.5040154034,0.3349077539,0.1187458674,0.4109658895,-0.5239998828,0.4793083803,1.0215711458,0.3424102289,-0.8028534862,0.9054102586,-0.5179406569,-0.3482451207,-0.8576180473,0.1960362082,-0.8742494134,0.1241285911,0.146273588,0.3727237756,0.1407596613,-0.3200920929,0.7746131093,-0.0816553821,-0.1043393381,0.3568479048,0.4623024373,1.0060566555,0.4139117922,0.7615597633,-0.74335377,0.321498325,-0.3393453364,1.0726661997,0.8802835793,0.4303479219,0.6329171407,-0.5626071319,-0.6645515302,0.6489796179,0.0045596764,0.2375402882,0.671114456,-0.5808940706,0.0533449054,-0.4716470001,-0.6866430927,-0.1870038685,-0.7375469113,-0.2655107231,0.1754587215,0.6265104757,-0.5817017161,0.160995598,0.8992528398,1.0743651576,-0.5421443163,0.2426108804,0.5184449147,-0.0702223282,-0.768488368,-0.2478701651,0.1216909668,0.3151655213,-0.1191423052,0.6643795206,-0.7378343296,0.2458216555,0.8435750299,-0.1779518259,-0.4069795731,-0.1963546975,0.1567965027,-0.074939671,0.8675969225,0.0915297916,-0.8253310112,-0.6535977707,-1.019100188,-0.1770894238,-0.3213790578,0.7286238568,-1.0479437945,-1.0659356948,-0.6184232378,0.6160070567,0.1387986408,-0.9304763631,0.1716086298,-0.3392198835,0.6617890387,0.486937315,0.0366410743,0.4270237497,-0.9165843462,-0.0132642,-1.0457915516,-0.442690352,-0.014556933,-0.3680370076,0.1799426309,-0.4857824664,0.5317881916,-0.4301429691,0.2050846478,-0.7467367579,-0.0101964181,-0.3024771748,-0.6962204301,0.2338387433,-0.2766550418,-0.4471618022,0.2691042309,-0.9338782233,0.2645816939,0.5489587897,-0.9493735516,-0.3323882991,0.5877450378,0.6691063794,-0.6437274487,-0.2373703956,-0.4791015916,0.3019126626,-1.0591157484,-1.0661030832,-0.0464853717,0.2329808258,-0.8380329863,-1.0533428992,-0.9316167536,0.6688567289,0.0234716901,0.8548714231,0.2164581659,0.4424412213,-0.3839864117,0.6700549877,0.7740498175,0.5065933158,0.0598047781,-0.2030186447,-0.292521336,0.5659974699,-0.6007629137,0.370694042,-0.2938240412,-1.0915447152,0.0836619146,-0.4477915895,-0.9248070075,0.1100855794,0.4782089296,-0.0731004051,-0.7123596912,-0.2851944209,-0.1612251525,-0.2505390608,0.2532450497,-0.9450300501,0.5412545063,-0.0373145248,-0.7793470397,0.6168909709,0.4307150578,0.7813085025,0.54234086,-0.926452054,-0.1812305997,0.405930272,-0.8699012591,-0.4338793933,0.8605326206,0.070969466,-0.6897508502,-0.8075035866,0.7625359557,0.3556553919,-0.3517644046,0.8891682843,-0.6871029313,-1.0781426198,0.6365700655,-0.11098938,0.6062660539,-0.1741898291,-0.7087061654,-0.5570347057,-0.170937957,-0.0271827555,-0.5237581177,-0.286498419,0.2943154508,0.3167511899,0.4000553831,-0.746349993,-0.3822803729,0.1278209474,-1.0075269741,-0.8916864582,-1.0820804864,-0.4511612163,-0.2635391233,-1.0218066094,0.5093565427,-0.3664027887,-1.0029941846,0.1460768351,0.0809525135,-0.3520817534,-0.4944403929,0.7926941486,0.5228456976,-0.919051115,-0.3782194926,-0.845292465,0.5502666341,0.544087181,-0.5364786097,0.8480364344,0.5363297522,-0.8124968826,0.8500192806,0.7439616759,-0.9946877978,-0.1743118465,-0.2338885733,-0.5853986547,0.510526971,-0.0082679846,0.2795460593,-0.0742056555,-0.1323415254,-0.3951900362,-0.1117707375,-0.3685866093,-0.562303673,0.4592976132,-0.359262508,0.5006341613,-0.0580078703,-0.4838952332,0.7124145039,0.2825377903,0.5502405444,0.7781890739,0.5253083017,0.8548061631,0.7565005161,-0.906178367,-0.3426968184,0.7427416665,0.7648483261,0.6229705265,0.4049890836,-0.4360609984,0.7774809568,-0.121781808,-1.0715197491,-0.4779166268,0.0676911516,0.7933607236,-0.9064560755,0.490657756,0.7512989651,0.4339535669,0.6092838247,-0.6916934937,0.7685595473,0.7876244282,0.5243915107,-0.2751232478,-0.1844351693,0.8864578787,-0.5402703175,-0.5346566138,-0.6109860161,-0.1170724792,-0.5354496007,-0.450337428,0.1567651898,0.8573712858,0.592052749,-0.5801398169,-0.6281040464,-0.46092079,0.4168323811,-0.3648946299,0.23611823,0.5787056789,0.7095837226,-0.1081973804,0.1625901366,0.7660566374,-0.5823683483,0.4220058615,-0.2116413095,0.7506995573,0.8522432096,-0.691425021,0.1291027988,0.5200734139,-0.5944996073,0.1150927986,0.5655715269,-0.0002573364,-0.6834135675,0.6843910826,-0.1293129805,0.1434266916,-0.6094951648,-0.4357296583,0.7420668176,-0.1117508207,-0.9421209857,0.3238940581,0.297905791,0.7356404865,-0.379646563,0.5902910472,0.1996641446,0.1984044467,-0.8982067985,0.6808243896,0.4984819828,-1.0303202015,0.2553247644,-0.0409554273,-0.5797328129,-0.5307648482,0.3581859381,0.2102938594,0.5343683402,-0.7959585834,-0.1219838593,-0.7689006884,-0.259922868,0.5931569143,0.2238678816,-0.2814173596,0.8522637512,-0.6066567992,0.6117606611,0.0151123581,0.4424952563,-0.1556870536,-0.9904828683,0.2896284558,-0.6063498249,-0.3470362555,-0.3700277407,0.0463508954,0.4034111252,0.2796094721,-0.0842903651,-1.0343700281,-0.7045388474,0.2760940878,-0.8675471934,0.3032261233,0.5938442008,-0.1553091351,-0.6855505776,0.2653971887,0.4498033899,-0.0544152154,0.8726797289,0.2274730241,0.7687205551,-0.5062947244,0.8445698631,-0.3291869364,-0.477945055,-0.0046555746,-0.5486458204,-0.6357716049,0.0304432058,-0.8545691473,0.5466391461,-0.8413163282,-0.9623602214,0.0245794814,-0.3153747717,0.857085402,0.7560139355,-0.9682826896,-0.270935878,-0.8787712366,0.6395586845,-0.8852197503,-0.1907572695,-0.1234879908,0.1896406028,-0.9336373977,-0.7584841646,0.4101398148,-1.0687178133,0.4283532546,0.1193931039,-0.8393315928,-0.6150508922,-0.9519853032,0.0880549769,0.1061831658,0.6269684192,-0.6271440935,-0.6343424183,0.4288720611,0.6837336242,0.0262792104,0.41028025,-0.1047010283,0.8724368022,0.5704107466,-0.8522236352,-1.068011487,0.1609008906,-0.9500612521,-0.1107879048,0.0597982784,0.5103201864,-0.8986704269,0.2951018685,0.2607734009,-0.3458014268,-0.0703788784,-0.682740238,0.1431664612,-0.5657967443,0.3166477416,-0.3456951945,0.4294800916,0.0626241573,-0.1225799283,-0.6027350902,0.0388740754,0.6671560566,0.8614143737,0.2025958496,-0.5089672603,-0.229189621,0.8328835599,0.1228023154,-0.2950107573,0.8353129048,0.6526781014,-0.3799565458,0.6903035699,-0.3092348034,0.4873572891,0.647147371,0.0740658501,-0.6307875342,-0.9323657609,0.154704421,0.2230503299,-1.0898068085,0.4963891213,0.6059371098,-0.0868853581,-0.96834018,-0.9153741954,0.4482437198,0.613787067,-0.5814774935,-0.4399381533,0.8778394061,0.6730810208,-0.8935255475,0.9116818484,0.6852368155,-0.5102777752,-0.4207800925,-0.719946987,0.1037978918,0.8274908741,-0.8834540931,-0.1654422466,0.0629563424,0.9622193246,0.9683941985,-0.5219300304,-0.4622832854,0.425357327,-0.885115532,1.0546329817,0.5370710945,-0.8911892867,-0.5481926529,-0.1169121421,-0.1008963831,0.568130054,-0.2915887761,-0.4629932616,0.9098362814,0.0735733729,-0.7483588984,0.026280044,-0.8827655872,0.3429855923,-0.6357161527,0.3033164951,-0.8957177812,0.0508169165,-0.1980957514,-0.6583666181,-0.4817732266,0.6549271324,-0.5203288893,-0.3188910303,-0.2767019782,0.1226375299,-0.1106838766,0.5439380279,0.2049334173,-0.0675304223,-0.4572736674,-0.7148449282,0.749777045,0.975787112,1.0549975447,0.2354986331,-0.8898185127,-0.6913989207,-0.416787633,1.0895173346,-0.6151825362,0.2152300928,0.7582516851,-0.5606478833,0.1982123074,0.5692583746,0.7378489913,-0.3861300994,-0.7202463413,0.1864755872,1.0807687023,0.8760087618,0.4533442546,-0.500107076,-0.3394447198,0.7109945932,-0.1026792802,0.352683884,-0.2864299877,-0.5714230969,0.8604038984,-0.8902988101,0.035903024,-0.6988753512,-0.6782210274,-0.4695040469,0.2530335348,-0.8194058922,1.0277632118,1.0267357415,-0.7682617203,0.3078298738,0.0824237421,-0.640001228,-0.3924127204,-0.6315924821,0.9553711493,0.6540723169,-0.5019370601,0.4950555446,-0.4278776046,1.0220947557,-0.6474890628,0.7302784633,0.3522544225,0.4889933198,0.9072994904,-0.641063729,-0.8819260078,0.3484452244,-0.3271051623,-0.1409827398,0.7047803094,0.8323573017,-0.8888660496,-0.4869941329,-0.1336536689,-0.0572445241,0.2523932499,-0.0491270394,-0.6355445571,-0.4695572204,-0.3734818963,-0.4781352169,-0.6180140836,0.2360242021,0.2382041176,0.2666272107,0.8574300391,-0.6629803505,0.0668418706,0.7548291153,-0.6766389393,0.192677785,0.7450271064,0.376036086,-0.2072998036,0.0997395799,-0.3601311599,0.9555890969,0.6415833653,0.0153992968,0.4069091871,-0.8263150071,-0.7947585751,1.0019077395,0.762110017,-0.191974649,-0.2408113292,0.8584913845,0.8244427183,0.4456051673,-0.7137132494,0.3535201815,0.0314306315,-0.236635126,-0.6885706189,0.6703322151,0.3682615939,0.8417125465,1.0623513081,0.2514995965,-0.2513505585,-0.2159847313,-0.8506867949,1.0563495342,0.502188461,-0.4590917946,0.0920029748,-0.229456553,0.9489369905,0.8573666099,0.304639372,-0.598144379,0.353809477,-0.2980258256,-0.1312706376,0.2424717397,0.2280809394,-0.8381863634,-0.3410066893,0.7865322328,0.866622324,0.3751759225,0.0959759499,0.2582838267,0.7009109576,-0.6974223909,0.7857211888,0.1528130993,-0.3223564986,-0.0504695627,0.9621039906,-0.0573512119,-0.1421012729,0.7017644198,-0.2462455156,0.833924525,-0.7823388976,-0.6925536273,-0.4381148878,0.0780743307,-0.3867854357,-0.1755287567,-0.7209411901,-0.2844362673,-0.582904534,-0.6402836774,0.3376367596,0.0921693559,-0.3040452784,-0.1504205448,-0.1424371123,-0.1772424779,-1.0190493641,0.1086427745,-0.8655536782,-0.9622429598,0.1243030949,-0.1804935798,0.8711571055,-0.2408680123,-1.0822802013,-1.0172153786,-0.678694658,-0.6442614309,0.7171991077,0.0267278266,-0.4136764371,-0.0092446288,0.8394094508,0.195577978,-1.0562480014,-0.0781232087,-0.9355599229,0.19596832,0.1736638211,0.3581667161,-0.0289393442,-0.4819187649,-1.0710024426,-0.2614976543,-0.0365852881,0.1774483143,-0.7561437934,-0.2576378249,-0.0914422053,-0.1502857483,-0.139441229,0.098856558,0.2018852665,-0.962104472,0.3595615829,-0.4567467349,-0.3940349786,-0.0948903576,0.8537716712,0.0473426894,-0.396944561,0.0710256227,0.1630808746,0.5575938204,0.0710840219,-0.5518718735,-1.0391912237,-0.9636497712,0.1983578742,0.4827897448,0.8923235203,0.0984786324,0.8557087897,0.2000389113,-0.7973784361,-0.0222812494,-1.0340300081,-0.0489488127,0.1337480677,0.4406777189,0.5235467624,0.786353158,-1.0385906424,0.8977292234,0.2461536381,-0.7860614195,0.2755854889,-0.8498882812,-0.6221793047,0.2971052337,0.886078824,0.1510344642,0.2035357177,0.7761382362,-0.2005140912,-0.2773537384,0.5819797238,0.1598548012,0.4473229035,0.0120686846,-0.8153983691,-0.1055932278,-0.3039369193,-0.9310284342,0.8192753383,-0.0872815967,-0.1089377176,-0.5249389833,0.5057177602,0.032394366,0.1672995565,0.8411314018,-0.1710334321,-1.0653511434,-0.9496046309,0.5320141095,-0.0522157441,-0.2680708123,-0.3011210609,-0.1448008496,0.5170195308,0.5653125508,-1.0481049021,-0.3297954456,0.5425425137,-0.468471185,0.1429777464,-0.0351022985,0.6630369834,-0.7097924964,0.0096461545,-0.9714070979,0.193984971,-1.0826011267,0.4847824296,0.6813788499,-0.0309373112,0.5381625306,-0.8069127646,-0.4705820841,0.5228973342,-0.501324554,-0.8121005205,-0.0911277257,-0.8455040817,0.745960897,-0.3856076717,-0.8797944862,-0.6481614923,0.3180661272,0.487233458,-0.4619111576,0.0765231707,0.1485264952,-0.3062658582,-0.6575447866,0.8001339897,0.6190397707,0.1353628398,-0.3588275077,0.1072777334,-0.8610390711,-0.0765111282,-1.0755791095,-0.4593320069,0.4863701686,-0.9174774891,0.4037664373,0.0007588435,-0.3919573928,-0.4714612136,-0.6617872446,-0.3729427042,0.1965296005,-0.1401394253,-0.9805232085,-1.0531752369,-0.5394301777,-0.9788618263,0.7335637459,0.2640463448,0.3361745067,0.4781593096,0.3209999366,-0.839154639,0.7234210692,-1.0937444502,-0.4750440042,-0.9880880347,-1.0472947568,0.5057432032,-1.0465764126,-0.0301457511,0.6841494189,-0.435475112,-0.6338125344,0.0542636415,-0.2720759272,0.2855830217,-0.0498844476,0.1730342774,-0.1511351184,0.7814890988,-0.9196592076,0.13681353,-0.0941389842,-0.46202504,-0.6336354536,0.4011974821,-0.6362547324,0.2066002147,-0.3373717062,1.0539343183,1.0269342852,-0.3621448524,0.4849278594,1.0780757164,0.1606786012,-0.3845363867,-0.5148045938,0.3646902295,-0.6113827032,-0.0825147816,0.0039004813,0.2677155008,0.6709928467,0.2163284831,-0.1578043117,0.997415197,0.6514735276,1.0943677661,1.0998221478,-0.0280779265,0.1553231896,0.1189563456,-0.4371757881,-0.0150973943,0.9955842433,0.9763828768,0.3959322408,0.5384782303,0.8987059965,0.5955900359,0.3200386389,1.0971729422,0.2433007287,1.0294448547,-0.1235125688,0.1736802673,0.8232879079,0.8428076506,0.6226211937,0.531875691,0.5752090506,0.0424593238,0.8811536865,-0.6168379776,1.0347423577,0.959112328,0.4427410856,0.4027810329,-0.0854667717,-0.2980352132,0.0177566151,0.2117687874,1.011763247,-0.7832932547,-0.7537114457,-0.37379096,-0.1311997453,0.7513941843,0.4714178693,0.8641352559,-0.8525212113,0.8733676715,0.0377858526,-0.5198792061,0.3558518943,0.7599755839,0.5299218821,0.692293208,0.9432177846,0.7791763675,-0.3840084153,0.6043245964,-0.764633862,-0.2040675769,-0.8977473039,-0.4618071351,0.8849630508,0.6501004006,-0.4126340929,-0.1278555538,1.0330848674,0.0404032742,0.4973933641,-0.5309419614,0.9112187277,0.5605521197,0.1261547885,-0.1884416166,-0.4801638739,-0.5813538059,0.7032007654,0.5590593754,-0.7193292783,-0.0290226244,-0.1363104677,-0.8481985366,0.3739754117,-0.6521603231,0.6647644336,-0.2853698342,-0.5063736747,-1.0098401792,-0.0757616173,-0.9263079068,-0.3978817768,0.2844156099,0.5590289537,-0.3077374161,-1.0267228354,-1.0550815895,0.0874165666,-0.9054418709,-0.7538424372,-0.8364374136,-0.0076465468,-0.3623735382,-0.6875472016,-0.3780937721,-0.8430221491,0.5758525295,0.7642312446,-0.9953784035,0.1165063333,-0.2723530746,0.5449109588,0.762147881,-0.6797817742,0.63142781,-0.496666413,-0.5949198295,0.3004871412,-0.7828667749,0.1561638491,-0.7895068421,0.4877598309,0.3522157202,-0.5079012455,-0.7568497421,-0.8573842019,-0.9151081491,0.4561285428,-0.4428297452,0.1968496079,0.021607961,0.6509113913,0.8564022608,0.4760497235,0.121078857,-0.1280734108,0.7638407119,0.5315356462,-0.2697341184,-1.0609417123,-1.0470763661,0.6631288074,-0.2499087887,0.751436233,0.8101357216,-1.0461057755,-0.1994753052,-1.0087674142,-0.872884354,-0.9203375693,-0.5156487431,0.249842013,0.1995878584,0.0247003268,-0.2650664652,-0.9329196044,-0.4376264876,-0.7288218225,0.8949482833,0.4090224849,0.6113369902,0.2041308993,-0.2211008044,0.3166567485,-0.4519922789,-0.308275798,0.6740486035,0.2050001284,-0.7991877388,-0.2654973144,0.7078792411,-0.5855890666,0.4414734704,0.5932499932,0.6948390802,0.5468637541,0.1411843226,0.0932315417,-0.3266451741,-0.4953510612,-0.8182353633,-0.5453368399,0.5607042272,0.1536960953,0.4292413344,0.1014802232,0.72274784,-0.0570517104,-0.7208122133,-0.7676151835,-0.8250706649,0.7826716551,-0.5254035564,-0.8469710939,0.704232641,-0.2173895267,-0.8829732574,0.7724107899,-0.3007352551,-0.7198703634,-0.7285790938,-0.2535097395,0.0960142647,0.6610787879,0.7301188204,0.8937107794,-0.8612085556,0.4556079987,-1.0413093577,0.8233365076,0.402488768,-0.4569698624,-0.7077047072,-0.4495433987,0.0051887695,-0.4280271233,0.2699723209,0.1467986804,0.5951443407,-0.0334477151,0.2229176355,-0.0022481789,0.4962918277,-1.0204869602,-1.0001844915,0.588180689,-0.4527681448,-1.0513221313,-0.726049364,-0.8072161088,-0.8204220938,-0.0128904144,0.0275490406,-0.2247507071,0.0014811699,-0.1731367476,0.3491511827,0.7304769976,-0.8096388131,-0.4414562278,-0.4472268871,0.8286336762,-0.7978335836,-0.4521347708,-0.4410588835,-0.6781357155,-0.2744772467,-1.0088041381,-0.0924347659,-0.1241674654,-0.7784072739,-0.0230308657,0.1163836875,-0.3952774912,-0.8523132567,0.2541848563,0.6157297162,-0.0114398737,0.7112133923,0.8448663054,-0.1963498753,0.1962219616,0.2262260918,0.5773559365,-0.426759279,-0.8708987755,0.4468468152,0.5564797051,-0.6365865639,0.3963346336,-0.8012825424,0.2008176465,-0.1129098896,-0.1857338716,-0.0280388788,0.6247519062,-0.4798427213,-0.2282000093,-0.4599298891,0.4388670849,-1.0356417923,-0.6710011403,-0.2168585544,0.7023746895,-0.1046485035,-0.8797371031,-0.4948655602,0.5281698981,-0.0865970364,0.7145633032,-0.594734387,0.4270573119,-0.2138846675,-0.7953522524,0.3563079467,-0.163423227,0.6904080811,0.3813348171,0.5254011788,0.6649322049,0.2414958759,-0.7108498282,-0.5597458531,-0.1725569429,0.0991755196,0.3764756239,-0.8869832861,-0.8913636073,-0.6534978675,-0.3045725277,-0.7432274742,-0.9706614211,-0.0042819917,-0.2822809597,-0.3292362501,0.8656060651,-1.0704494599,0.3088497279,0.6605135504,0.672335249,0.6664112592,-0.8184440713,0.2606014974,-0.0686044479,-0.3108916554,0.4006103891,0.8461956391,0.0430614597,-0.8830959634,0.6222359177,0.0827573626,0.6698405518,-0.9374974433,-0.3624034282,0.864819174,0.5787740008,0.6357854673,-1.0135795666,-0.6380207075,-0.8050756373,-0.2551563242,-0.0655903931,-0.5976214295,0.5098684923,-0.1313756273,-0.8598213495,0.1855880147,-0.1932510804,-0.9911744849,-0.2010579017,0.4844045282,-0.9954796081,-0.997432859,0.3674681137,0.3846874922,0.8324092563,-0.5893840374,-0.132543804,-0.9302452933,0.6874651594,-0.9994140174,0.4436175066,0.6669596782,-0.1040525403,-0.001769992,-0.487734931,0.5588111015,0.6703774699,0.8974295302,0.5814234753,-0.8184489363,-0.9843199662,0.3016831671,0.3946124509,0.8150617479,-0.1904182046,0.5143130227,0.4959044181,0.4098249536,0.2105810636,-0.3236057175,0.6088555307,1.0170018199,0.3983996677,0.6579511273,0.9855905389,0.8025264506,-0.0570810557,0.9029938435,0.7926885051,-0.7831309343,-0.5166607707,0.8846749955,0.9313772357,0.0130668815,-0.7913796146,0.3143642714,0.9345199814,-0.4826140176,-0.8822053371,-0.2948856025,0.8420475387,0.0203385023,0.3921324739,-0.0054103008,0.4210377064,-0.0602243049,-0.4555600092,0.2445446959,0.0152185085,-0.6397678849,-0.5409980637,-0.1443040995,1.0527734911,0.4136832241,-0.2800936706,-0.1825090772,-0.8331505765,-0.5098952974,-0.6788349084,-0.5022440646,-0.5813444708,0.8494884744,0.7833067754,0.8906820185,0.8007564584,-0.5265096161,0.031677168,-0.1941177136,0.7300887221,0.2384869924,0.1283581828,-0.4846133951,0.5140523861,0.4833040315,-0.8569855433,-0.2243609591,0.6194355973,0.7517536725,-0.2278305042,-0.2585069705,-0.1892931853,0.9424529007,0.3996062941,-0.1744154171,-0.5335944988,0.8246819215,-0.6666540808,0.7891794664,-0.8792863236,-0.6372422547,0.3382316463,0.5352042781,1.0187904468,0.7800266609,0.6955060647,-0.3713117361,0.590374468,0.6297745049,-0.4950048501,-0.4386177332,0.9099941651,0.2230397829,-0.4729992314,-0.8118312247,0.8863659487,0.4928856428,1.0754118372,-0.480607995,0.9877057484,0.4867680127,-0.1963247073,0.3447493106,-0.6229831758,0.625766404,-0.6495044035,-0.2785088528,0.7085027917,0.3552030099,-0.5545292597,0.4156980696,0.5094437013,0.6421178756,0.8244583901,0.2800273082,-0.0535383384,0.4720377984,0.7170177418,0.1300831558,-0.4186970347,-0.7586115956,0.061256834,-0.0428127944,0.6588020582,-0.5458305535,-1.045342638,-0.3905169052,0.5031493862,-0.8822487807,0.3427483735,0.6855073424,-1.033142443,0.6197330795,-0.1264800803,-0.7564099806,-0.3411802922,-1.0066892465,0.7826635274,-0.215081791,0.1061219776,-0.7508649114,0.2196798255,-0.9878836934,-0.5648306264,0.5067813423,0.4723506026,-0.6241212589,-0.5791279367,0.3691466786,-0.426397335,-0.0434707498,0.8369019099,-0.7473800585,0.1952205617,0.45190332,-0.5596524092,-0.3803758544,-0.1297123417,-0.2042991668,-0.5090842191,0.6172130835,0.5553676211,0.6027295249,0.0053877139,-0.0225536246,0.4168304993,-0.384455475,0.5401473763,-1.0788511669,-0.2102462509,-0.8435957116,-0.4509281971,-0.9876158635,-1.0548064975,-0.0213128017,0.3238533023,0.1857418489,0.0799117086,-0.4717420596,0.1695400212,0.5726698697,-0.7716058115,0.8762802513,-0.4206651328,0.618851004,-0.2220838719,0.8554890134,0.3859303099,0.2735820959,-0.7452814405,-0.9168054134,0.5073706917,-0.7597528726,-0.854030319,0.0176865052,0.8059324619,0.8458623412,0.1763634529,-1.0736381716,-0.424251372,0.0830573281,-0.1935999319,-0.9347035278,-0.6997134161,-0.7455652809,0.0260697538,-0.4137346307,-0.5864486864,0.260852009,0.0220380379,-0.899221342,-0.5960973397,-0.5308936485,-0.7206109283,-0.1428245775,-0.6901901201,0.6722732382,-0.8210016444,0.4277603376,-0.8105055556,-0.6637131143,-0.2649090078,0.5506066174,-0.3465702557,0.3971262931,0.4486525455,-0.628739854,0.8440231078,0.5477590884,0.7942055041,-0.0130332028,-0.5154597342,0.1292594903,0.3384481773,0.9388998082,0.5370251703,-0.1259818956,0.6844896928,-0.1043993747,0.2083846178,-0.4514663128,-0.4181117291,0.4253563542,0.1282365523,1.0382540476,-0.128858367,-0.3050240609,-0.4939190119,0.0225397932,-0.6218765704,-0.5551990471,0.0245041762,-0.2675475755,0.8620362645,-0.8432556499,0.651151039,0.1737172536,0.1942068786,-0.4203000822,-0.4728627249,-0.4508217547,1.0778386961,0.0211332507,0.0079555377,0.6093892738,-0.818168123,0.7453960474,-0.008623586,0.8491556506,0.2666099541,0.7817050981,0.8443191974,-0.796147656,0.8866133268,-0.4561927434,0.0992014448,0.4126953034,-0.8275086364,0.1369828425,-0.0239121295,0.3100626546,0.7020355464,0.9174862138,0.2247267049,-0.1592448475,-0.2195955447,0.0932794483,-0.5098280284,0.6606384287,-0.7805628988,0.7664377344,0.9224117428,0.304813766,-0.3282334578,0.3042058685,-0.7720841267,0.4269860013,-0.0871597092,-0.5345815853,0.2927129621,0.1349767816,1.0855540705,0.3736018439,0.8089792671,-0.2804047113,-0.2235722954,-0.8205081648,0.9371823028,-0.5233836903,-0.254272988,-0.059672852,-0.4849557222,1.0544619961,0.7688997357,0.1796481952,0.3401486453,0.1794952037,-0.2523690885,0.4604756461,0.3007699583,0.8944030922,0.4373890354,-0.1033248552,-0.8533465544,0.543656168,-0.3139017513,0.0321391641,0.0327949885,-0.7475687189,-0.388618663,0.7538720738,0.812074529,-0.6673118493,-0.8929458785,0.4423677673,0.1524853441,1.0403813976,0.8891513475,-0.8345893236,0.1774097224,-0.8486017067,-0.0853680826,-0.6818224486,0.459216606,0.9751641298,0.190806802,-0.8363126879,-0.7938048492,-0.8187554721,0.4278978483,-0.167783641,0.9148797146,0.5738895923,0.0041227646,-0.199291401,-0.4743139202,0.8728928696,-0.4284677114,-0.2083561208,0.0397923593,0.0371539146,-0.6245867873,-0.608840956,0.8658547767,-0.4166227282,-0.4198146956,0.2659942952,0.722308386,0.068684715,0.3483476515,-0.3749750865,0.7649821698,-0.3876427649,0.7554980726,0.5640597205,0.539879543,0.2301929883,0.8976080854,-0.4496879472,0.5290563433,0.7979460547,-0.4225993227,0.6115197597,0.5901674126,-0.8813201539,0.5219127025,0.1907943466,-0.1494779406,0.5592003142,-0.6329074752,0.6760459492,-0.0232167597,0.0869032231,-0.7253671247,0.0640802661,0.7422032012,-0.3811564489
   0.1573340237,-0.8841963705,-0.0118436798,0.8184389816,0.0718257315,0.7309457637,-0.3872338304,1.0092947759,0.7852695956,-0.5518948587,0.6289169434,0.4084901185,-0.107280323,0.2519812934,0.8760335201,0.7991182409,-0.2745452078,0.7640600847,0.1329548088,0.3531487607,-0.574996444,0.0376871733,0.3209719498,-0.7500494113,-0.4139967492,-0.1367956039,0.6178398476,0.1357027086,0.6639108199,-0.6630909004,-0.2903793831,0.8652659209,-0.1318653861,-0.4709474904,0.6352164925,0.7485137234,-0.4158728804,0.289086399,0.4856675678,-0.2950467741,-0.2744771795,-0.4257222792,-0.2024399188,0.0273428443,0.7124570864,-0.1637596537,0.3483782039,0.1293698592,-0.8017031113,0.2144588607,0.3119201713,0.4276251588,-0.2714962571,-0.0849563017,0.7369760865,-0.4850542083,-1.0637627773,-0.6679862432,0.8408386194,0.8258525612,0.2550740832,0.6280884071,0.7958240358,0.727824449,-0.2978223215,0.1086778038,0.1838216841,-0.4884181697,-1.0832717525,0.4124941951,0.6799540829,-0.9209923501,-0.364787408,0.7987390264,-0.2002765317,-0.8707471743,-0.3657966365,-0.4782979691,0.3438121387,0.7069035199,-0.7598872343,0.3289721471,-0.9970366339,-0.6648090889,0.0658478047,-0.188165379,0.0910235727,-0.1313829013,0.5825399993,-1.0564371208,0.7830480369,0.656022644,-0.4744307549,0.0454065588,-0.2974334711,0.679978286,-0.7522473837,-0.8935831126,0.0082638359,-0.0950060755,0.0769512114,0.2739015325,0.3180493146,-0.9255139192,-0.0817962399,0.2002362383,0.740787126,-0.1556410841,-0.5568633871,-0.9297565478,-0.5248019829,0.3299632513,-1.0763376531,0.0404304514,-0.6541055961,-0.8476267671,0.0047376905,0.3132776134,-0.7490359108,0.2243441734,0.1576508465,-0.8311544729,-0.657036455,-0.5363903467,0.3557113717,0.9873905934,0.9093835681,-0.5116017943,-0.888501677,0.3668549538,-0.7364917074,0.6685854839,-0.8073220529,0.0424691168,-0.8012309005,0.574892052,0.5744050167,0.2264269434,1.0925617899,-0.8761528682,-0.5669125893,0.6229539646,1.0979517912,0.3850021482,0.024918092,-0.5049094333,0.0483970379,-0.7018889682,0.8743961956,0.4752243136,-0.1593685831,-0.3488601329,0.5419717291,-0.4857368525,0.4220850554,-0.2245391872,0.5699601426,-0.3607898593,0.3685374926,0.2033887061,-0.3839873501,0.1860463962,-0.6953770519,-0.015691218,-0.0530451518,-0.0413075211,-0.814651275,-0.2415916122,1.0150728076,0.6387444872,0.3496500979,0.3210100573,1.0487228233,-0.4068291224,0.7536324669,-0.1189882053,0.1394308128,-0.3409927677,-0.0675641409,-0.2189925834,0.6462926002,-0.1130246711,0.0596232177,0.1233364566,-0.7518744505,0.7540198814,-0.0838477216,-0.8629578397,0.6468522418,-0.7964086726,-0.6561581054,0.6487861309,0.5990409043,0.4294261695,0.1593895645,-0.8176998689,0.4674345241,0.5667510745,0.6262742652,0.1525007065,-0.6075514893,-0.8214912302,0.0555990464,-0.573007743,0.7571051597,-0.7952947476,-0.3375400733,-0.7238744877,0.2130958345,-0.8975497629,-0.8879035427,0.5140250644,0.514159939,-0.1952713909,-0.3593794672,-0.3397360851,0.5575082712,-0.7270096679,-0.5751441135,0.9206268175,0.334403151,0.7783062537,0.556168621,-0.7477236796,-0.2435323077,-0.5044627147,-0.061350698,0.3887205546,0.9554597734,0.2702239733,0.2113401839,0.3729485308,0.5189855852,0.9031430575,0.0878844524,0.9082863473,-0.3991686828,0.5773547192,-0.08005167,0.8739037827,-0.7043613805,-0.4228042849,0.6857548393,-0.5217211491,1.0568297133,-0.4765617883,-0.0644191827,0.5775044449,0.1512924949,-0.8889424607,-0.8249344547,-0.0515953125,-0.0937670726,-0.4809276177,0.3013842932,-0.7766890075,0.3425200177,1.0243090534,-0.7295820921,0.1656139377,0.3721085653,1.0137356774,0.5621866863,-0.856009873,0.4611630108,0.9090718165,-0.2529764866,-0.739423284,0.7089823196,-0.3364770138,-0.1041616176,0.1214490746,1.0362977358,0.5982040358,0.6886869415,0.2139673816,-0.4292107537,0.5321043953,0.1214765385,-0.8689941849,-0.3506042535,-0.5797403549,0.6634185834,-0.4708905996,0.2255800501,0.9812929691,0.7228559442,-0.8707303502,0.7687361269,-0.8336996229,0.730875981,0.5623929388,1.0372049211,-0.7926087118,-0.2930879046,0.7213102803,1.0868038242,-0.4301924434,0.2295472416,0.5258400912,0.2134000798,-0.4430931375,0.3198068982,0.7255862824,0.8627854877,0.2731722311,-0.6617218085,-0.6264396171,0.5643430167,-0.143886922,-0.6801817067,-0.7411799235,-0.0670110505,1.0128473491,0.6992735747,-0.3144152931,0.6611554961,-0.68426332,0.0167294922,-0.3589128752,0.8362402542,0.8949254075,0.0810647015,0.0624543653,0.4838900485,-0.23930883,-0.2932189552,0.5610866987,-0.4044605569,0.0768818729,1.0480589137,-0.7850267746,0.146688353,0.4979179749,-0.6146035569,0.528325096,-0.2557954074,0.8666185663,-0.4281409695,0.5962558586,0.6322268125,0.1301198852,0.7976468829,0.3039626396,-0.0203454474,-0.4091337716,-0.6338566428,-0.7183727175,0.6511689705,0.8281865078,-0.1387266671,-0.699315495,-0.7763661173,1.0212044577,-0.5265566984,0.1264453749,-0.5809374107,-0.1606512993,-0.8339596882,0.2475307013,-0.0039149695,0.6684685458,0.1973915308,0.6275284301,0.6990627243,0.9000584399,1.0093769136,-0.7271113593,-0.306071306,0.1423159769,0.9521429861,0.604215476,-0.5278232784,-0.690848158,0.0248102047,-0.1025988813,0.9109681533,0.1810234667,-0.4558232731,0.7256897882,-0.8864918111,0.6588522141,0.1779337331,-0.527109022,0.4643598328,0.9323681346,0.4531270699,0.0238981868,-0.4313123294,-0.0007795598,-0.8933086644,0.525991653,0.238996638,0.9443752441,-0.1634288556,-0.0971321361,0.0305877186,0.7173581353,-0.3528851156,0.1669358203,0.2373612365,0.6069803171,-0.5736561837,-0.7826709174,0.0798277283,-0.1691110452,0.0938790645,-0.2117710025,0.1606658024,0.4138609471,-0.4716376148,0.8742762537,0.8393751156,-0.2167729193,-0.0480952255,-0.1502615523,0.5109504973,0.2091600593,0.9143227068,-0.6501409755,0.2492759518,0.4309604878,0.1791955815,0.512744512,0.2759778621,-0.2062126481,-0.2737289794,-0.5100709724,1.0842696449,0.5386565513,0.4601374089,0.3542087331,-0.7688330661,0.7514665385,-0.5041227798,-0.5857622854,0.5139928144,0.1560161226,-0.8465174724,-0.0384805896,0.4378509833,-0.4819216116,0.8627100131,-0.3013579508,1.0894947756,-0.7049784505,-0.53692964,0.4578541419,0.4583238745,-0.3104365626,0.97898263,-0.788436731,-0.6819712286,-0.3803951927,0.2768044363,-0.6108792279,-0.7083464888,-0.603058847,0.853601299,0.2953466822,-0.3025840259,-0.0028855178,0.3323243211,0.0711789621,-0.4471489735,0.3104220477,0.6115471503,-0.1644550674,-0.621405375,-0.2147227627,0.4543290433,-0.5709903938,0.5952263678,-0.8125999553,0.4701929562,0.9403350278,0.8104194651,0.7518499392,0.0854753918,-0.2372615335,0.6089694488,0.9186969852,0.7628256788,-0.2911615617,0.7026897617,0.6537309821,-0.3675673628,-0.0101374284,-0.867520063,0.6415194472,0.2684234689,1.0795385554,0.134261235,-0.0188485406,0.4525094634,-0.3659336365,-0.6679463833,-0.7600559127,0.1438271696,0.6974518401,0.4701800736,-0.8232894537,-0.884792211,0.8012727856,-0.5568389677,0.0440516159,-0.0018947416,0.1205070735,-0.7586659477,0.4771225556,0.7181847046,0.1745300534,-0.6336591682,-0.8501730985,0.2466866279,1.0288155085,0.508536886,1.093023083,-0.6415553027,0.2588108088,-0.7251470658,0.571351807,-0.6577769352,-0.2044711291,1.0237214185,0.3704652208,0.1340642306,-0.683454108,0.5757616003,-0.0422838435,0.2716214355,0.4610937761,0.299226606,0.9766023484,-0.4178247442,0.7787632435,0.1487394437,0.5146088438,0.7127854452,-0.7220668688,-0.2199539358,1.0240265147,0.3249673277,0.7805982103,-0.0874707011,0.1070655628,-0.8026196396,-0.5468814391,-0.6604640313,-0.0050263134,-0.4834422133,0.922597401,0.3029598641,-0.7393257173,-0.2580949871,-0.7065455339,0.8119664256,0.9906726654,0.8592856638,0.3115821731,0.5184060936,0.5696105385,-0.3515434737,0.2796653131,-0.4401279122,0.0448072979,0.928616575,0.7203197586,0.3069694889,0.583341518,-0.5944321334,-0.5199391667,0.428023989,0.761534841,-0.1351279716,0.88094316,-0.1725042923,0.3464911366,-0.4196110302,-0.7512023765,0.0918311883,0.4127202414,-0.0932207679,-0.4185690606,-0.1653887449,-0.0915796586,-0.3930723843,0.9228544321,-0.3602447611,0.3065466756,0.9800076961,-0.1578277509,-0.6616228364,-0.5905476854,0.5791456715,-0.2383000201,0.8761710887,0.4191356676,-0.4393143058,-0.3695983934,-0.3297167069,0.5771265792,0.1811762428,0.5513047426,-0.722011892,-0.546811341,-0.8044275024,1.0936428303,0.0853301558,0.1224665232,-0.7730627755,0.9383297659,-0.6776692157,0.6411783161,0.4708270707,-0.1200623301,0.4171997152,-0.3947131954,-0.0788716208,-0.7286373056,-0.5043848833,1.0368015161,-0.1052655724,-0.6737100471,0.7996705873,-0.5880321186,0.9353902844,-0.3260773943,0.0230563201,0.9517568703,1.0088640322,0.354818063,-0.1413852696,0.9760725063,-0.5984646879,0.2381133893,-0.8341964056,0.9321855201,1.0161602923,-0.6175377213,-0.1476451572,-0.0748404944,0.6223162043,-0.7016641139,1.0547153933,0.3474182355,1.0378204775,0.1509095902,-0.6416396336,0.1630220626,1.0227256993,0.3570700601,0.2902941326,-0.2842690478,-0.7802202561,0.50877538,-0.7288769845,0.2183141595,-0.3222259708,0.8666079607,1.052671741,0.0719332114,-0.4799272512,1.0306696626,0.0548720722,1.052121053,0.0066904853,-0.1170958157,0.4343419877,0.3313485308,-0.4032848702,0.992604485,0.8883801162,0.0076684101,0.6885904865,-0.3799096215,0.4944854066,-0.0492540573,-0.2576134453,0.1444290978,0.2335670237,0.7534080039,-0.3128277702,0.1105346609,0.7155064478,-0.6840432536,0.0801702706,0.964610794,0.5378125978,-0.3688650356,-0.3190864299,-0.4846267816,-0.7763715384,0.0553654809,-0.2695367853,0.5366070939,-0.4543336677,-0.4613359754,-0.7470811567,-0.1337445053,0.865880568,-0.6316399329,-0.2188406677,-0.3689277646,-0.5140425546,-0.3975077559,-0.2281218297,-0.5110356624,-0.3939670013,0.8598799048,0.3215114966,0.6651126803,-0.5715603551,1.0147338146,0.815862503,0.2124678729,0.1713404457,-0.1038138777,1.0816386578,0.6735669623,-0.4314529739,-0.0777631053,-0.6765239178,0.1065432602,-0.7644487411,0.7210051031,0.0796211344,-0.2927209841,-0.7931589336,-0.5115827372,-0.6905526808,0.2131842485,-0.9026647829,-1.0412090086,-0.0469613437,-0.5460159159,0.8712403877,0.4777079553,-1.0327133008,0.3982777138,0.2506308168,0.866671044,-0.6483165402,-0.7769683574,0.7347045312,-0.0524765187,-0.8821861843,-0.370034069,0.2618632119,0.6924969511,-1.0875287793,0.8825107602,0.3084618229,0.4128358019,-0.5672824327,-0.7071074233,-0.5630627432,-1.0842682997,0.7208851527,0.0368190364,-0.0902392842,-0.4091445243,0.4891738194,-0.4831203924,-0.7627207487,-0.0105711675,-0.7517317165,-0.8003962115,-0.3082916649,0.1617766559,0.8117751853,0.4718284115,-0.7087139554,-0.7044644603,0.7664832953,0.0114918213,-0.1914728385,-0.9829500925,-0.3802239492,-0.3395051518,0.1975313681,-0.8818270954,-0.1247828757,-0.9213534832,0.1938967558,-1.0026863023,-0.3572861312,0.6389824517,-0.6290605294,0.5422352432,0.4947755039,0.4400385826,-0.3689163067,0.3477780363,-0.9944498924,0.5511126902,-0.3813955306,-0.2990333677,-0.7898774793,-0.2301044194,-1.0311637813,0.5200424516,-0.3671932997,0.6431408284,-0.870567175,-0.402730321,-0.415226473,-0.8446330135,0.0564475421,-0.575146551,-0.1712798765,0.113997295,-0.8581333773,0.1368623612,0.1487473102,-0.751803392,-0.0471685808,0.4510011765,-0.7175157844,-0.35575687,0.5593443542,-0.7101164543,0.7407293366,0.5928910244,0.1553392825,-0.8708023881,0.1774803267,-0.6902597022,0.3664343058,0.0556882174,0.6157711601,-0.8531778906,-0.8607937263,0.8558592186,-0.5468429508,0.4694049681,-0.2485243825,-0.3227028985,0.1273891062,0.93866586,-0.2171968189,1.0883294061,0.7644449906,-0.2689014153,0.4988543501,-0.191360775,0.2076444122,-0.8264378663,-0.8878903127,-0.6480532257,-0.4052057787,-0.4344209808,0.6140137363,0.3709060391,0.4101950671,0.7678144399,0.1905788553,-0.8808881896,-0.3814257396,-0.2055092378,-0.5291851808,-0.1441350945,-0.5869991534,0.5083194583,0.7899782069,0.4740267119,-0.608869945,-0.619966649,0.5861487632,0.8327983021,-0.0594628175,-0.7745910386,0.2782775048,0.3334815947,0.6150776134,0.2998354474,-0.8466792511,0.9238564264,0.118730658,0.2585395188,-0.7733988973,-0.8397803081,-0.4940417278,0.4934922413,0.046824126,-0.464186933,-0.4797072011,1.0720917701,-0.4629487996,0.9988838431,0.5003049074,-0.8723217418,0.6243329575,1.0320064807,0.2659330531,-0.0870416329,-0.0822693121,-0.82441156,1.0877623034,0.5887731352,0.2174650754,-0.8623030636,-0.2931628055,-0.2023004129,-0.4248708024,0.2167681622,-0.3338455132,-0.369125932,0.1688714445,-0.7326112638,-0.341811459,-0.5534320438,0.6343221562,-0.1990251179,-0.7455677644,-0.8368697102,0.3141814103,-0.784857397,-0.4074457362,0.9492950646,-0.3638923095,-0.4789466087,0.8518582835,0.1467317722,-0.5331702752,0.1969640099,-0.1898160221,0.7293686515,-0.3492986519,-0.0218283428,0.2198774648,-0.3994642986,-0.0766213296,-0.0031319986,0.1683368667,-0.8536486265,-0.2143372184,0.0604319135,-0.1266941389,0.0035607704,0.6719362788,-0.6773013583,0.0493261163,-0.0896548028,-0.3079917872,0.2722344147,-0.2904256313,0.1727003901,0.3795179543,0.7486819043,0.9812932277,-0.3840957719,-0.43863416,-0.6348660271,-0.2364771863,0.7894330143,-0.7960634229,0.5380967477,-0.8003636777,-0.8955506063,0.0569843842,0.4833015898,0.4815378974,-0.4766957594,0.6386684613,0.0230691665,-0.5625742458,0.6314989128,0.8040750505,-0.8926388193,0.8227860038,-0.8631677808,0.1894583319,0.5939426699,-0.3607848102,0.5333106318,0.794113311,-0.2024307405,0.6471051769,-0.1939136355,1.0251169149,0.7375125996,-0.5627831154,-0.132803758,0.7092287823,0.4865734118,-0.6851824803,0.0283482172,-0.8207865194,-0.5818444616,0.8693185034,0.2802457504,-0.4176332084,0.9284854576,-0.3830787174,-0.591354207,0.8681020727,-0.5715483479,0.8174171456,-0.1956632565,-0.3812225983,1.0852422963,0.8203797244,-0.795493715,0.9912338097,0.6293718414,-0.1213362819,-0.6531456174,0.5668231031,-0.7273075727,0.2865461454,-0.7868943504,0.9026603432,0.0875040995,-0.6445419278,0.3238160333,0.5472786667,0.9476217342,0.7119014772,0.968229744,1.0452205289,-0.7681995129,-0.5976505481,1.0472215359,0.2304400131,0.8058752854,0.9648283428,1.0992785847,0.1158115275,0.3471204314,0.2819526147,-0.2635674943,0.1758420823,0.1514453352,-0.2781983173,0.1637862385,-0.8247812846,-0.5862432385,-0.7065215424,-0.3597029762,0.5327199694,-0.4185035722,-0.052639577,0.103037972,0.8256800083,1.0945818471,0.4458645406,-0.5290590158,0.3880955906,-0.5823584775,-0.187403053,-0.5306781393,-0.2548227339,0.9081845069,0.2725823312,-0.1079710689,0.5944636777,-0.8296136114,1.063993344,0.2153071855,-0.745454749,0.0706098485,-0.2882246049,-0.1223953231,-0.0122205153,0.3909537849,0.8415747858,1.0742603609,0.1892228374,0.1751799894,0.067146674,0.4143481436,0.8592794232,-0.1197949908,-0.8879815909,0.170230786,0.0986402452,0.7422287843,0.5109031186,-0.0861478732,-0.3176895048,0.2833894219,-0.8207212043,-0.8589233303,-0.2163741564,0.5705030376,0.3754145403,-0.8580712553,0.4990371188,-0.4449270961,0.5405464512,0.7299396761,-0.3783011627,0.0730482293,-0.2079159826,-0.3904318598,-0.7147580674,-0.4630079196,0.5106933562,-0.0078708028,0.0536281032,-0.2450273182,0.2792878271,-0.5389117718,-0.1296918399,-0.7094588754,-0.1615076681,1.052933525,0.5978716134,0.5203739348,0.7723714857,-0.7626280289,0.5841163129,-0.4859061102,-0.8572434696,-0.6639284638,0.9772761336,0.6418802456,-0.1643421037,-0.5039401306,-0.5131752788,-0.0575984844,-0.3854248397,0.1892572646,-0.3725823126,0.5913986502,-0.3934138265,-0.697757424,0.1195569291,0.745358892,0.824418821,0.2625225253,0.1239124801,0.4107103339,0.3363679796,-0.755385054,-0.1449052463,0.8199039421,0.3365847665,0.7793372147,-0.6602592556,0.8429139573,-0.4260936439,0.7003056934,0.7318746594,0.732703809,0.9328579101,0.7324932358,0.1574070866,-0.2438675304,-0.548700333,0.8139133112,1.0449304863,0.0038252346,-0.8273038184,0.9215502282,0.4285691583,0.4405219185,0.4689624166,0.2992774849,0.9034187788,0.1054557455,0.8634759635,-0.4663713309,-0.4043781241,0.6725623772,-0.6917800866,0.198605254,-0.8709126501,-0.795656414,-0.6647164766,-0.4522676143,-0.5555814268,0.979185308,-0.5674074838,0.9481065229,0.4438889657,-0.5906312969,0.6110219933,0.7673925302,-0.8596140948,0.8942992557,0.8222322115,-0.0191079462,-0.4093282138,0.0441135765,-0.8997058281,0.7592686219,0.9488018107,0.397698512,-0.4672579495,-0.1649625427,-0.7186584678,0.9198918359,-0.1809343667,-0.3980726497,0.5767882527,-0.4689474892,-0.2433060102,-0.2400713445,-0.1461510062,-0.6614154721,0.3792282018,-0.3408689688,-0.5482503033,-0.8525147989,0.5153481211,0.3458489912,0.3770415208,0.2747069205,-0.000801881,-0.7149395746,-0.4202520822,0.9019990033,-0.5266915088,-0.8852289063,-0.3263149024,0.9647894792,-0.1473805916,-0.1175467047,0.3551096891,0.8954816539,0.8761836676,0.8981499489,0.1565408965,0.9913871168,1.0922057662,0.2076505029,0.945058515,0.978365923,0.9038930216,0.6084191237,-0.183924938,0.2518846996,-0.6488077579,0.6172450207,-0.0630213048,0.5145713198,0.9300139818,0.5512575508,0.914171817,-0.3389797155,0.3089016375,0.8820188541,0.6008607675,-0.2584274701,0.4783397773,0.8975034427,0.838955035,-0.8824473707,0.9265770488,0.0113509285,-0.7494664661,1.0939193461,0.7334432544,0.1601657087,-0.6941859799,0.9628035574,1.0642379433,-0.3695115748,-0.5443908012,0.5965876491,0.9344694273,0.9221155188,0.0900536871,0.0420673102,1.0567770769,0.9314461008,0.8004377476,-0.4293384347,0.3047259788,-0.2765001592,-0.455038751,0.9585154121,-0.8889428431,0.5451453776,-0.3154917016,-0.0807116381,-0.3934673887,-0.8237528465,-0.4060103693,-0.6934992457,0.5219797806,1.0817892293,0.4692495324,0.8077460752,0.5570478957,0.6389133014,-0.211721694,0.1357354128,-0.111732524,-0.8217754275,-0.5095304881,0.8883976171,0.6517468875,0.6251412901,0.7932096545,-0.517927748,0.5752797837,0.4761324378,0.258271579,-0.1565441981,0.2991047966,0.1064889326,0.6184206982,0.0594208979,-0.592249633,-0.1891404649,1.071015283,-0.0995038517,1.008641965,-0.1143655804,0.2624019372,-0.6036086911,-0.0886334986,0.818064466,0.2728708289,0.606199375,0.5921683195,0.4637644822,0.5957198424,0.7997634429,0.5968943037,0.592982015,0.071634598,0.7623449559,-0.1137089437,0.5990352969,0.4635827998,1.0336909484,0.1417620659,0.3397675882,0.1516362361,-0.4605369968,-0.6902014386,-0.0905619937,0.1784038506,0.2792158845,-0.0995051846,-0.1776541147,-0.072652093,-0.6528366386,0.3175865544,0.3528879072,-0.2893445399,0.045919317,-0.2596027943,-0.2631145083,-0.0245067348,-0.719997386,-0.982144595,-0.9981392049,-1.0252278808,0.6943996547,0.2925667764,-0.8154232533,-0.5573769851,-0.5151809157,0.3136204373,0.4440895043,-0.567769638,0.5370119004,0.6487427973,-0.0872477549,0.2219046925,0.367683088,-0.4640974435,-0.1752175964,-0.9746351551,-0.6169408193,-0.653178938,-0.0635311188,-0.8135602943,0.1528452846,-0.5220280483,-0.8574732843,-0.9799635217,-0.6755565813,0.3695596027,-0.2487516956,0.8815301555,0.4402317904,-0.8231202254,0.3935504779,-0.0834120225,-0.8326204974,0.3978719624,-0.3201105442,-0.6145742844,-0.9756147805,0.8342909998,0.1705351576,-0.8454682315,0.0098503842,-0.5106717183,0.0341086695,-0.8200562854,0.6574944577,0.0218427341,-0.6623532134,-0.1652458583,0.2711205163,-0.4241435999,0.4141362502,0.4733425368,-0.1999304591,-0.9259720948,0.8000482837,0.5692647882,-0.8770043378,0.3084437317,-1.0188161595,0.3545800831,-1.0087125196,0.5267971559,-0.218231966,0.5597656645,0.8651867519,0.8714778873,0.5752841243,-0.7787862599,0.4537985273,-0.0448081034,-0.7467433541,-0.8651545506,0.4958486445,-0.9248979323,0.874247506,0.6353726467,-0.7942176621,0.1009163918,-0.6197789856,0.7679695735,-0.1979118556,-0.2810968137,0.5352371337,-0.3182614262,-0.0867641203,1.0513195465,0.9105298154,-0.5571218716,0.3426012443,-0.3490663178,0.7082261504,-0.7936092164,-0.8243154201,-0.5893067791,-0.6912370726,0.3203301287,-0.6541126101,-0.0252282107,-0.5652576602,0.1331367011,0.4405518264,0.6532598198,-0.6979110081,-0.7486522249,0.7870470238,-0.8711969231,0.3565192424,-0.3275521124,0.0504554086,0.9751494933,-0.1277858293,0.6405146925,0.8760655507,0.4176622106,0.3048076675,0.4898159322,0.7362251436,0.6292905254,-0.7679855694,0.5424685829,0.6276528702,0.9051235363,0.5154795887,0.2349121428,-0.4796932785,1.0257370751,0.179915689,-0.2935063393,0.816688627,-0.3226186734,-0.8507953252,-0.0764223235,0.3902257116,0.0989066084,-0.8263741772,-0.0529008938,-0.561069261,-0.4952377273,0.8761055877,0.9936090807,-0.4666708163,-0.8277653359,-0.2436925249,0.1574706512,-0.6422616827,-0.852862434,0.7453832477,0.249947535,-0.4442205984,0.5859179846,-0.7269697986,-0.0198113156,-0.6963395912,1.0677899658,-0.5644136597,0.0913024001,0.862072429,0.0322469364,-0.3756571883,0.0522969183,0.1756516009,0.0854258009,0.727983926,0.1568799732,0.445729276,-0.1834403741,0.4791427771,1.0758845537,0.7907725109,0.4370869274,-0.2597175218,-0.3314719811,-0.5072269062,-0.0358584256,-0.0449329287,-0.3480503398,-0.583711688,0.3175993822,-0.4183215662,0.7453071877,-0.1420938005,-0.4060410067,0.7257911769,-0.1678677549,0.708674415,-0.1712892269,0.3100590998,-0.9507262998,0.020490646,0.0063506133,-0.3479534958,0.2940788484,-0.2875226032,-0.9730602545,-0.071199661,-0.7612919245,-0.7238622265,-0.6623574321,0.0363972586,-0.427917429,-0.5587804921,-0.2255383265,-1.0773974266,0.0519709014,-0.1591591602,-0.0786699589,-0.0975758149,0.4408751091,0.482811869,-0.1268428586,0.3130589667,0.7581727159,-0.6248256516,-0.9787046368,0.4371614013,-0.8925899041,0.7305574589,-0.2240546023,0.8018495537,-0.872145866,-0.4194927186,-0.1203805694,-0.083714866,-0.5838031602,-0.6191462744,0.3261148451,0.6987746656,-0.2011651063,0.898770477,0.3016501427,0.4954959089,-0.0892865689,-0.0793495092,-0.8667326908,0.5610903677,-0.4527970927,-0.1240287626,-0.4928437138,-0.209646462,-0.0900068399,0.8911406598,-0.0063408205,0.6026818204,-0.3033673779,-0.5920413452,0.6027244668,0.2671509331,0.188205915,-0.6313949784,0.6606912792,0.4153550964,0.829257096,-0.9189401694,-0.6165494294,0.2467436238,-0.5928903022,0.5033614719,-0.9117003464,0.8101947831,-0.6776571802,-0.282476257,-0.4899556696,0.264322624,0.1434725724,-0.0869131531,-0.248284118,-0.818414373,-0.342496964,0.7007191781,0.6443787917,-0.4149650958,0.1235558496,-0.6160455461,-0.3509512835,-1.0851912219,-0.9720038299,-1.0800805314,-0.8265305525,-0.211711348,-0.0282402086,0.144897676,0.3824296098,0.4151305582,0.5366789526,0.4295899306,-0.9896491498,-0.4296034683,-0.6657588265,-0.1933560377,0.3980511717,0.3772029157,-0.5777459463,0.5179613786,0.327102285,0.5298404488,-0.7842707643,0.2184348713,0.606078809,0.1157551834,0.0361628539,-0.7820380773,0.1805373997,-0.7150250979,-0.172616604,-1.0302995209,0.6850575557,-0.0512745489,0.593102078,0.4931440652,0.0259740252,-0.6317483173,0.7841969264,-0.7395509441,0.137338443,-0.1300345045,0.304046888,-1.0934677913,-0.1513395904,-0.2073274314,0.4597666036,0.8957719088,0.3021163439,-1.0864733087,0.3992761544,0.5261129848,-0.9047241044,-0.9307985486,0.0855529004,-0.3151055364,0.6722256153,-0.4208140276,-0.7992714547,0.746118782,-0.2413878058,-1.0532896891,-0.6931293433,-0.8553974291,-1.03068434,-0.9550048115,0.804247645,0.8812945733,-0.7278322476,-0.1939134644,-0.8610984012,0.3220249818,0.4889177152,0.190985486,-0.4291511449,-0.6400221496,0.7812331636,-0.4669164306,-0.4815688114,0.3676574647,0.1899601241,0.4951048941,-0.9225689396,-0.2455227569,0.0225333196,0.3157706688,-0.8579077109,-0.1086323737,-0.6022663517,-0.6235069887,-0.9097745558,-1.0731266438,0.863489857,0.4909952181,-0.3639839319,-0.0108989718,-0.2189121897,-0.3437891025,0.4130570585,-0.198347148,0.7552721911,0.6661130577,-0.2357357671,-0.0024377533,0.4337467949,0.2526021895,0.0431426466,0.6336197731,-0.4283748923,-0.1749674001,-0.6922650814,-1.0852639406,0.6515164759,-0.697626038,0.7963645126,0.2089129869,-0.8632697025,-0.8879276215,0.273954079,0.7075871998,0.1425039764,-0.8365705637,0.0187191096,-0.5629813898,0.2642123058,0.0192909123,-0.5807017848,-0.2113443203,-0.1485631067,0.0436556801,-0.6775756408,0.4949456636,-0.6417411488,0.3519413523,-0.5580053982,-0.3933671048,-0.0459575394,0.4631847489,0.0481890781,0.620492297,0.714289865,0.763680715,0.1826022585,0.1733059566,0.706047179,-0.5701813436,0.3937884442,0.7629447612,-0.1821943645,0.0414633263,-0.9796596261,-0.7996884115,0.5579529817,-0.3123368728,-0.0279874295,0.1625388934,-1.0610869791,-0.8588907533,-0.0359381693,-0.7479090766,0.7452720918,-1.0666618328,0.8480624427,-0.9722697938,-0.3814771498,0.4029625417,-0.4000988893,0.1078334006,0.7748937898,-0.8283897729,-0.8250673642,-0.2500138058,0.3209652732,0.1347060568,-0.5416063502,0.3469651457,0.8228071728,-0.1693194765,0.1157244374,0.1798049153,-0.3808397831,-0.5185290904,-0.8704524284,-0.8631642815,-0.8616106315,-0.0729900225,0.14829565,-0.6445863298,-0.5779980499,-0.4020802743,-0.0135324421,0.1299923591,-0.2029630366,-0.6977554084,0.3837574383,0.730206064,0.4076039857,-0.5832519449,-0.3790053835,0.0827623216,-0.2778357566,0.1938912495,-0.2635740743,-0.8912185695,-0.8920188293,0.3701716028,0.8069877035,0.4833189765,-0.7006101212,-0.2561418457,-0.935509114,-0.2709778973,-0.8848152224,-0.121066471,-0.148322524,-0.9876505434,0.692216795,-0.3783210322,0.5209401925,-0.2196685931,-0.1694101628,-0.3532567095,-0.3860514989,-0.4206373849,-0.5989878567,0.8211795179,-0.4091366194,-0.2179156471,0.5460662655,-0.703696023,0.0106886449,-0.7956849191,-0.1555534211,0.4368426433,0.4429142574,-0.0212703237,-0.5237367913,0.8549039593,0.8695952893,0.1248822785,-0.7133714092,-0.1228158302,0.2950394757,0.6385435395,0.8184738332,-0.6358868765,0.2532355827,-0.5663753451,-0.0017689676,-0.3948187185,-0.1024002133,0.0463597077,-0.5020366568,-0.484025554,-0.7444704256,-0.2411068236,0.4752572971,-0.557172111,0.5403348658,0.2873128076,0.1892770988,-0.7648787773,0.8736950824,0.4899729996,-1.096786169,0.4909147925,-0.9322549886,0.4029195365,-0.1497177073,0.6150622809,-0.4720374063,-0.1980695923,0.6733999596,0.7360990638,0.6837401622,0.2631522835,0.6613744333,0.876309806,-0.8562221418,-0.2618172284,-0.3387564751,0.689306275,-0.5020047615,-0.9370798505,-0.2234331575,0.6530865897,0.365080989,0.703886884,-0.1991294766,-0.9226246952,0.7623301898,-1.0866859993,0.4547873004,0.5452816624,0.4197425123,-0.4457428284,-0.4506407328,0.2950820473,0.6878239057,0.3326302261,0.3074947744,-0.1823766978,0.1389773509,0.5728633695,0.7909311172,-0.4577266374,0.5315476957,-0.7678077601,-0.0496436851,0.724330549,-0.7012755563,0.3151957032,-0.6166359093,-0.5513048572,0.0180634522,-0.494927355,-0.3263771048,0.5309041397,0.5826949799,0.4422290955,0.4625008904,-0.6913115148,-0.606085176,-0.8677775973,-0.6188896383,-0.7910506065,-0.19203197,-0.7202268001,-0.1694352613,0.1948591647,0.6060395515,-0.0260477321,0.397913824,0.2404890112,-0.5159760341,1.0702629963,0.9116007864,-0.6110761692,-0.8685968628,0.030918713,-0.5029351189,-0.7372264442,0.4091583469,-0.8595922388,-0.4360472034,-0.8342399046,-0.1508873156,0.784363495,0.6955026198,0.0584352044,0.9416834313,-0.2293205652,-0.8041449837,-0.6557397554,-0.1247642144,0.7578527883,0.6751674991,0.8432441281,0.0657321229,-0.0587024818,-0.1721884438,-0.6169200463,0.9490255402,-0.4570499913,-0.0056137911,-0.0531437767,-0.5731205332,-0.632334322,-0.1662954397,0.854156149,0.2027224699,0.3042948637,0.5553072041,-0.8633955938,-0.5122576166,0.1474619044,0.6743738708,0.1682318462,0.380197213,-0.5185947341,0.3392941043,0.0193953272,-0.3301546179,0.2366682331,-0.2314724398,-0.135367941,1.0668201663,-0.3377016883,0.5924479421,-0.2165474556,0.7640669947,1.0413399161,0.0817869003,0.8119795503,1.0790831349,0.1005543792,-0.659828507,1.0627320586,-0.8339777357,0.5901772383,-0.6374887786,-0.4835140525,-0.4827381895,-0.7977890145,-0.8707199968,-0.390337216,-0.0072491763,0.5873415608,0.0463619655,0.3764457104,0.7927026521,-0.8692656817,0.6087098186,0.2131348324,-0.4798045867,0.7299425344,-0.1019867559,0.2917803105,0.1434461166,-0.2198526889,0.4974842087,0.7646231035
