encog,BasicNetwork,java,3.4.0,1,1667680850304
[BASIC]
[BASIC:PARAMS]
[BASIC:NETWORK]
beginTraining=0
connectionLimit=0
contextTargetOffset=0,0,0,0
contextTargetSize=0,0,0,0
endTraining=3
hasContext=f
inputCount=784
layerCounts=9,75,101,785
layerFeedCounts=9,75,100,784
layerContextCount=0,0,0,0
layerIndex=0,9,84,185
output=0,0,0,0,0,0,0,0,0,0,0,0,0,0,0,0,0,0,0,0,0,0,0,0,0,0,0,0,0,0,0,0,0,0,0,0,0,0,0,0,0,0,0,0,0,0,0,0,0,0,0,0,0,0,0,0,0,0,0,0,0,0,0,0,0,0,0,0,0,0,0,0,0,0,0,0,0,0,0,0,0,0,0,0,0,0,0,0,0,0,0,0,0,0,0,0,0,0,0,0,0,0,0,0,0,0,0,0,0,0,0,0,0,0,0,0,0,0,0,0,0,0,0,0,0,0,0,0,0,0,0,0,0,0,0,0,0,0,0,0,0,0,0,0,0,0,0,0,0,0,0,0,0,0,0,0,0,0,0,0,0,0,0,0,0,0,0,0,0,0,0,0,0,0,0,0,0,0,0,0,0,0,0,0,1,0,0,0,0,0,0,0,0,0,0,0,0,0,0,0,0,0,0,0,0,0,0,0,0,0,0,0,0,0,0,0,0,0,0,0,0,0,0,0,0,0,0,0,0,0,0,0,0,0,0,0,0,0,0,0,0,0,0,0,0,0,0,0,0,0,0,0,0,0,0,0,0,0,0,0,0,0,0,0,0,0,0,0,0,0,0,0,0,0,0,0,0,0,0,0,0,0,0,0,0,0,0,0,0,0,0,0,0,0,0,0,0,0,0,0,0,0,0,0,0,0,0,0,0,0,0,0,0,0,0,0,0,0,0,0,0,0,0,0,0,0,0,0,0,0,0,0,0,0,0,0,0,0,0,0,0,0,0,0,0,0,0,0,0,0,0,0,0,0,0,0,0,0,0,0,0,0,0,0,0,0,0,0,0,0,0,0,0,0,0,0,0,0,0,0,0,0,0,0,0,0,0,0,0,0,0,0,0,0,0,0,0,0,0,0,0,0,0,0,0,0,0,0,0,0,0,0,0,0,0,0,0,0,0,0,0,0,0,0,0,0,0,0,0,0,0,0,0,0,0,0,0,0,0,0,0,0,0,0,0,0,0,0,0,0,0,0,0,0,0,0,0,0,0,0,0,0,0,0,0,0,0,0,0,0,0,0,0,0,0,0,0,0,0,0,0,0,0,0,0,0,0,0,0,0,0,0,0,0,0,0,0,0,0,0,0,0,0,0,0,0,0,0,0,0,0,0,0,0,0,0,0,0,0,0,0,0,0,0,0,0,0,0,0,0,0,0,0,0,0,0,0,0,0,0,0,0,0,0,0,0,0,0,0,0,0,0,0,0,0,0,0,0,0,0,0,0,0,0,0,0,0,0,0,0,0,0,0,0,0,0,0,0,0,0,0,0,0,0,0,0,0,0,0,0,0,0,0,0,0,0,0,0,0,0,0,0,0,0,0,0,0,0,0,0,0,0,0,0,0,0,0,0,0,0,0,0,0,0,0,0,0,0,0,0,0,0,0,0,0,0,0,0,0,0,0,0,0,0,0,0,0,0,0,0,0,0,0,0,0,0,0,0,0,0,0,0,0,0,0,0,0,0,0,0,0,0,0,0,0,0,0,0,0,0,0,0,0,0,0,0,0,0,0,0,0,0,0,0,0,0,0,0,0,0,0,0,0,0,0,0,0,0,0,0,0,0,0,0,0,0,0,0,0,0,0,0,0,0,0,0,0,0,0,0,0,0,0,0,0,0,0,0,0,0,0,0,0,0,0,0,0,0,0,0,0,0,0,0,0,0,0,0,0,0,0,0,0,0,0,0,0,0,0,0,0,0,0,0,0,0,0,0,0,0,0,0,0,0,0,0,0,0,0,0,0,0,0,0,0,0,0,0,0,0,0,0,0,0,0,0,0,0,0,0,0,0,0,0,0,0,0,0,0,0,0,0,0,0,0,0,0,0,0,0,0,0,0,0,0,0,0,0,0,0,0,0,0,0,0,0,0,0,0,0,0,0,0,0,0,0,0,0,0,0,0,0,0,0,0,0,0,0,0,0,0,0,0,0,0,0,0,0,0,0,0,0,0,0,0,0,0,0,0,0,0,0,0,0,0,0,0,0,0,0,0,0,0,0,0,0,0,0,0,0,0,0,0,0,0,0,0,0,0,0,0,0,0,0,0,0,0,0,0,0,0,0,0,0,0,0,0,0,0,0,0,0,0,0,0,0,0,0,0,0,0,0,0,0,0,0,0,0,0,0,0,0,0,0,0,0,0,0,0,1
outputCount=9
weightIndex=0,675,8250,86750
weights=##0
##double#86750
   -0.3139214743,-0.1472268138,0.8437581426,-0.5802752024,4.84667404,0.0084814172,-0.3827619817,0.1739737468,0.1221291527,0.0050696971,-0.2484028183,0.6042520483,0.3604120846,2.6375540617,-0.0124189597,0.0313196335,0.1417212131,0.1568737246,-0.0610361443,0.6873317065,-0.0519035206,0.0029170879,-0.2336103284,0.1598053759,-0.7975100426,0.5091743892,0.0049425128,-0.3559739862,0.1248378821,0.2724599133,-0.0930362486,-0.5084476045,0.1983068641,-0.5579629449,0.0013052785,-1.0405688481,-0.514470024,-0.2187644037,0.1000916439,-0.0006908157,1.0616217757,-0.1728659908,0.0462410016,-0.1216811529,0.0746727954,0.0645221041,0.0656722964,-0.1043639924,0.1066755681,0.4995880645,-0.0075014202,-0.1599552037,0.0615258279,-0.1014162417,0.0895124442,-1.4653141161,-0.0253754801,-0.3956421218,1.0010905507,0.6438658237,1.9762517593,0.0444092693,0.03849323,-0.1832615056,-0.0371826234,-0.0989146229,-8.4280675568,-2.3147316296,-0.2210455048,-0.3702674499,0.2642436466,-1.5251306994,-0.4274043829,0.144963822,0.1827161153,-0.0630247394,-0.033986988,0.688297493,-0.8582688021,-9.7509349542,0.1107652379,0.4447921526,-0.3331693172,-0.2332316718,0.1637663975,0.1621542992,0.2449280184,0.2227188544,-3.1577764632,-0.1058836836,0.0807009485,-0.0608566231,0.0629012269,-0.1389163449,0.1307937692,0.0137729112,-0.8929108801,-1.0214699273,0.5002472426,-0.0620208713,0.4964592385,0.6597486566,0.1431739747,0.0672450813,-0.1062424211,0.0838677999,1.1344539017,-0.0789932803,0.1645088727,-0.1939686622,0.264369323,0.475006884,0.075984619,-0.0678845772,1.1745723598,-0.8415167524,-0.0972193625,-0.1767727316,0.8270442393,-0.1717330254,-0.2093248396,0.0773667231,-0.1934973258,0.0905512979,0.8623728006,0.4394573812,0.1864664597,-0.2346087802,0.0547134038,0.2613502023,-0.828436577,-0.2615014186,0.5358783707,-0.5782822169,-0.2828693093,1.7391412529,-0.0138803591,-0.1782291184,-0.0218874602,-0.1407797318,-0.2657057618,7.767912503,0.8757218782,-0.1366364472,-0.5922891423,-1.9559669412,-0.9103091015,0.2163968931,0.0228917303,0.2715421161,0.2048762189,0.1350705558,-0.8255077829,0.1475226343,1.5178017609,-0.0909634476,-0.3300322544,0.4987691938,0.3492460407,0.1950132407,0.2480875484,-0.1703163823,-0.3212674215,2.9462340596,1.1998593164,-0.0917385281,-0.0710863593,-0.0696895464,-0.1054894211,-0.4499711689,0.0596061252,0.0479042455,0.391287101,-0.2659587155,-0.2652578425,-0.0182946908,-0.0039834486,0.6154169458,-0.3514445778,0.5781943533,0.0964082181,-0.2917990925,-0.1273457965,0.2837504467,0.1299013986,0.1689995531,-0.2056367975,0.0017349747,0.3031442673,0.301684957,-1.6506582994,0.2538603542,-9.4411575175,-0.3235795365,-0.0270879002,0.0912131373,0.0035502858,-0.0516140803,0.222698669,-0.4989539202,-0.0633566348,-0.0450829237,1.4940029161,1.1346007214,0.7680951057,-0.4243088069,-0.4951780979,0.3609050231,-0.3335805481,-0.280988504,2.0763884377,0.0265163637,0.1413410965,-0.0262509349,0.146498513,0.2829930754,-0.1969183402,0.2573198957,-0.249515802,-0.4351308494,14.8277898767,-0.5317472189,-0.6255541568,-0.0344187439,-0.0431745488,0.0788302883,0.0078020633,0.9323005519,-0.5083343237,1.1307336568,-0.0252915035,-0.2540370145,0.0227292348,0.1050707467,0.1105396691,0.1562395487,0.4774024461,-0.1407594216,0.2032866336,0.0955311494,-0.524881318,-0.1580025881,-0.6618992332,0.0847141632,-0.3207139104,0.0140623437,0.3902037044,-0.0891733977,0.0378727163,0.2946823659,-0.341026592,-0.071088683,0.0674621958,-0.0258138204,-0.1940934567,-0.0600184045,-0.0866705277,-0.1439249495,0.0777333161,0.0741622076,-0.304342088,-0.4192164484,-0.033394169,2.0904163714,0.4888361257,-3.3549740728,-0.0628337566,-0.4457860357,-0.1361891312,-0.3507747889,-0.0510098375,-0.2470789727,-0.0974656817,-0.1693817566,0.6746222035,-0.270721949,0.0872414771,-0.2459099398,-0.0940814148,0.2186681594,-0.4470528864,-0.3009158501,-0.0302539544,-0.1826900396,-0.1373754094,-0.8361186898,-0.050705697,-0.2888877633,0.3210577542,0.0039573134,-0.0923265571,-0.119338038,2.9004841464,-0.1882921917,-0.2118574471,2.5281216021,0.5954295717,-0.0620279687,-0.1651847795,0.042265709,0.0805377135,-0.226504311,-0.5972104462,0.2971118983,2.4945487809,0.6697961484,-0.989496911,0.4241779844,0.2167602492,-0.1247840729,0.020455862,-0.060226494,-0.4152656095,-2.8226457797,1.2899638134,0.7309437771,-0.0255693894,0.2150219444,-0.1801919235,0.752368146,0.0043860968,0.4232928844,-0.1025413483,-0.4015932576,-0.590827987,-0.0874249138,-0.0671352362,0.4912670372,1.4493968755,-0.0841465564,0.4881917724,-0.9224940697,0.0553225538,0.0919992976,-0.0326263133,-1.2659464785,-0.6019051291,-0.0420986865,-0.3113584925,0.3298474943,-0.0427602233,0.8147238899,0.0995961919,-0.1595779567,0.1311692379,-0.0792873919,-0.0387850653,-0.2255807054,0.0031741044,-0.7602212595,-0.0518632828,-0.180066384,-0.3932747126,-0.1883747186,0.7793478023,-0.4694949065,-0.1924136344,-0.1060479229,-0.1434775573,-0.1311848832,1.6380008124,-0.0749098871,-0.1066797972,-0.3248327325,-0.0137350213,-0.0708814537,-24.3393097302,-0.0864634047,-0.1868947472,0.1328576235,15.9042923307,0.1019702804,0.2154388404,0.0637907129,-0.2430121359,-0.1422647835,-0.3593716094,-0.057334046,-0.0261308513,2.8152070592,-0.0116588746,0.7623983773,-0.2031657517,-0.0235107421,1.5964552176,0.0686105836,0.0314945451,0.2448290665,0.6222309624,-0.1251813344,-0.073472258,0.022052889,0.4603649571,-0.0896960236,0.5706507568,0.0589631107,-0.061333612,0.4525789032,0.159726477,-0.7020536592,-1.8445483224,-0.0256282968,0.0577071808,-0.1374208375,0.0270258806,0.2181039168,-0.1503818357,0.0180850513,-0.4761292471,0.0435953023,1.6704154529,0.3440917196,-0.0969770379,-0.1848414032,0.1709519031,1.1540915266,-0.1081235766,0.1908164124,0.0622776525,0.1403331649,0.0083409242,0.2090352241,0.5896095539,0.4101425345,-0.6131126946,-0.5525308886,0.1314633116,-0.1364596402,-0.0378702145,-0.3621592908,-0.1545350496,0.4674196675,3.9744041349,-0.2767166949,0.056926073,1.7552523378,0.041093757,0.1702316613,-0.1703965528,0.0210442542,-0.1857619019,0.1474359777,1.0021611288,0.0057118343,-0.2329765074,97.7520460158,-0.2183997937,-0.4620275262,0.1361508557,0.198346537,0.1663187512,-0.2014220301,0.8543733515,-0.616638935,1.1553749094,-0.0806970052,0.188818314,-0.1817310169,0.2438325464,0.0189048052,-0.0333938886,0.7535176529,-0.4634268356,2.2559782378,0.3083072812,-0.1347969334,12.3788754524,0.1113673348,-0.0934787155,-0.6620621271,0.7622231567,0.2156394336,-0.5040873384,-0.4000097106,0.5579090564,-0.3637837026,-0.0268822115,-0.7807081401,-0.0054547873,-0.1655459201,-0.1254836485,3.4115276358,-0.1901549242,-0.7231232982,0.1441763924,107.326351443,0.3748532796,-0.121120347,-0.2373415775,0.4396424221,0.2338130612,-0.1273633895,0.4899046828,-0.3017266679,-0.2598104107,1.3588528025,0.5944574887,-0.0820143451,0.0880739393,0.2219916104,0.1963674219,-0.0458285327,-0.1253258799,-0.1564743643,0.5560373057,-0.2243409461,0.4112634694,0.0096865454,-0.1930937604,-0.2111858982,-1.1197763887,0.0447996722,-0.0127449181,-0.0161529614,-0.2546225591,-0.2381616009,-0.0996503497,0.7454674319,-0.1083459206,-1.2171597542,6.2252506575,-0.7702063384,-0.2678919938,-0.3082906014,-0.2551886975,-0.181364416,0.2952058402,1.0129042642,-0.0875178366,-0.5072671987,-0.1559957615,-0.5746843047,0.3164092144,-0.0638195404,-0.1411261805,-0.2532132917,-0.1421288415,-0.1692323582,0.8769689566,0.9334573518,-1.3766999287,-0.0354197256,-0.542623858,-0.0472014425,-0.750443742,-0.0596897835,0.0996542885,0.4712101646,-0.7584329936,0.1333441043,-0.0925577821,0.0807693378,-0.4756507588,-0.1354149158,-0.1822388077,0.3685870477,-0.7624528515,-0.1014702579,0.1162410907,1.6256803297,0.0672567698,-0.4354146176,0.1896793208,-0.2557706918,0.0986624911,1.5950024018,-0.3567273767,-0.1139968789,-0.2650622305,0.0190586214,-0.0546395549,-0.0271436688,0.0421277676,0.0438912142,-0.6613747637,0.3064987055,-0.0766861354,-0.30848576,0.0750188694,0.9224468793,-0.1989348934,0.0353771058,0.0657368737,-0.0757266006,-0.0534723136,-2.2739533226,0.0267241301,0.2176762939,0.4227139908,-0.0025469304,0.3124102834,-0.2274505306,-0.3010711505,0.1516075699,0.284467254,6.5522384096,0.3940471329,-0.4467515386,0.0557497657,0.5267162565,0.0097387766,0.0354016796,-0.5102170106,0.5602448414,2.854952596,-0.0088859735,0.3766165475,-0.0660767608,-0.2894933905,0.1418549766,0.007169245,-0.2581594029,0.3130865533,0.0944877662,-0.2234290084,0.3570032904,0.0441316314,0.1639573936,-0.0112599398,0.7318035375,0.0955095458,-0.1303586909,0.0635563552,16.6904065935,-0.8504295747,25.4611852788,-0.2124104409,-0.7421433813,-0.0858227438,0.0999738347,0.0709897947,-1.079660653,0.0494397301,-0.0404375828,-0.0566014049,1.0633798522,0.4996669015,0.3797301773,0.1577944427,-0.0585369759,-0.9843958997,-0.0381935466,-1.8402220235,0.1327662171,8.9882668923,-0.0503273114,0.0947073349,0.0424480991,-0.0104102675,-0.4640698119,0.3761330035,0.1454641861,0.0469800791,-0.0077560037,-0.0721303995,-0.04431523,-0.275749622,0.2851947862,0.0295370872,0.0268539992,1.0474334697,0.5308296476,0.023541478,0.1088316446,0.3490569227,-0.0905442975,3.5032272866,-3.9793568974,0.0725944434,-0.8926137889,-2.0155238977,55.2229852145,0.0585219776,351.7701191198,-0.2310799016,-32.5151354037,-6.0405265445,-5.22352159,8.5021189147,1.0190702407,0.6232052896,-1.5615859683,-3.4796408496,-3.5131119976,-2.2966442145,-12.6989769407,-0.7703774323,-1.2511870947,2.765423105,-4.1141994573,2.9339992006,-30.8524380058,1.0239015514,0.2261004994,20.1294299584,-1.061158427,1.0092197835,-0.2358458675,3.3077673005,-3.6501789723,-3.8372483464,-6.4097965274,-0.8277668336,-0.3226869798,-103.8828289157,-2.3873355509,-4.3555256091,-1.0881814731,-1.6802090981,-2.0232843938,-3.2057635403,-8.5055648002,0.0333160317,-40.8305640681,-15.5208356628,21.2548919986,1.2224603567,-10.6386670937,-6.6775721726,-2.8702535863,-1.163145205,-9.5343655925,-0.3402658654,-1.440958049,-0.126220161,-52.4734214601,-5.6039281718,-2.0009610203,-1.1126193979,-2.3829386624,-1.7965579039,-3.6746269801,-3.5056797837,0.233971522,-1.7196833444,-1.6028352088,-5.171187385,-0.2225427908,-0.9316979262,-4.3121853282,-11.8973541643,-1.0475699681,-2.0399863441,-26.373947926,-2.5525087084,-4.157243702,-2.0095895176,-6.5730882099,-0.1033670452,-0.9366378842,59.6379307019,1.7210013083,-0.4657427805,-61.1099410378,-3.5033501076,-3.9646272374,-0.8071559526,28.9906602663,-7.535439576,2.5625399537,14.5917405537,1.5305039278,17.8104365569,14.8869719568,0.0031401497,0.4777694051,-1.8106912224,-9.3264470016,-0.3602693294,1.1780073456,-0.3893376018,-2.8113686271,-1.7571730273,-16.1171630763,0.0790920799,-1.3626283129,-0.5931607442,-2.9499091423,-1.0080036038,-0.5684717751,0.2581356223,-8.7700119684,0.7623595771,-0.6610387694,-16.5145372844,2.4233603794,-2.1412981091,-0.8845111262,-10.7690354162,-0.4551701339,-1.0501040099,-0.892083095,0.6569719201,-6.7504579722,-1.9474318743,-0.7279454327,-0.6297973678,-0.8414765744,-2.2317487064,-3.2407917247,-2.4779813132,0.2573357403,0.2410743578,0.6596754422,-1.1660070401,9.8863702898,0.3963871578,-1.5083109704,-1.3865289709,-1.6976371105,-1.7529508395,-8.7866444347,-0.6744209044,-1.2417933371,-5.7538477343,-5.9972320199,-3.8836245777,-3.7205704055,-7.8462381756,1.8665434039,-0.3305937658,-2.8256062324,1.3642095661,4.0034576767,-0.2260497019,0.1694872594,-149.2925762241,-3.1676048966,-0.4920603599,0.0370686181,-2.2799478012,-0.4998261851,-7.7735358534,-1.0151402789,-2.3753819001,0.869018974,-0.5503736179,-0.8734939896,-7.3801455096,-0.4275245877,-0.0838421254,1.5688020467,-0.0528128934,1.400120654,-1.0171179772,-1.3673574943,-4.7759529157,-0.757119994,5.1432675125,0.7102847076,0.060966887,-20.1629827175,-11.4759108741,4.9758225921,-0.6416396547,-1.9315505673,-0.9170140346,-0.6199834439,-12.3433852184,-3.3021616818,1.0638531322,1.1232552777,0.0449429846,-1.0802723638,-153.8417569164,-0.8431645099,0.8715326698,-1.164865082,-0.9379909309,-0.1295963811,-7.0048294989,0.3944344426,0.2408555782,-1.1815620449,0.7262144855,-6.3639269096,-1.3806983446,2.0723113923,0.5232984553,0.0817633092,0.1990094495,-0.7265273541,-0.2763727175,0.2268542439,-0.4726381263,-0.7928241244,-0.5493098911,-0.2633392082,0.6199112435,0.3511664529,-1.5015028189,0.114541407,0.608417913,0.7764522297,-0.0367646434,-0.0997801901,-0.7573673042,0.4674994383,0.4392943789,-0.3035940734,-0.170977751,-0.9279265616,-0.056011413,0.2992015439,-0.3797209903,-0.4539001808,0.9848201043,0.2740122666,-0.3469709866,0.6030600449,0.2488295656,0.4931529677,-1.369468179,4.777721313,0.1810356106,6.4433992401,0.2228968187,0.1977615736,-0.0429129108,0.0191559067,-0.6874549281,-0.2589210844,-0.2663469317,-0.183281431,-0.2185810814,0.8333447933,0.1163198868,-1.571722988,1.2624435965,-0.3536362223,0.2671735234,-0.1265631203,-0.1988148474,-0.0959671771,0.2577651473,0.1245662243,0.6306729529,0.4978747379,0.406309932,-0.1982038632,0.0725709703,0.2877446688,0.5257321318,-0.4163969136,0.8143007242,-0.9351577806,0.090534856,-0.2075184982,-0.1530520421,0.791892438,-0.7503945126,-0.5024741556,-3.0124537714,0.7064469639,-0.697456172,-0.6613282825,-0.3899161773,0.9772526502,0.6038327781,-9.9871888587,0.1702391696,0.5574473198,4.3441012398,1.0676922452,28.7759313492,-0.6058563038,0.1048791613,-0.0760168283,0.4909544147,-0.5686073545,-0.1671647265,-0.1092587774,0.2407513376,-0.286741026,0.2109914692,4.6722766841,-1.1077954996,1.025472171,-1.3483966592,3.0446073504,0.7955649693,-0.6351880992,0.7228018532,-0.2963613867,-0.0108263189,2.5208724381,0.703328505,1.2135100276,5.0158079606,0.2348420731,2.1674169387,-1.2134220292,0.3115684087,1.9161126591,2.1293117932,-0.2773919262,-0.8991969728,-0.9472821686,-0.3341696566,0.4223074568,0.0262387289,-3.2457287,1.8377230243,0.2700103989,0.1365189553,0.834536407,0.1937831424,27.0952587302,1.4470548555,1.064542215,1.1741901165,1.7486113079,0.9885659926,-1.1004467459,-4.8572081686,-1.564369386,-11.5771828877,-0.2223817295,1.3225644078,-0.9859750604,-1.5979489631,3.4624917465,-0.2388108305,-0.8888204852,0.0636867932,1.5693233258,1.1464922621,-0.3820571603,-3.4384868159,-1.6023428686,-0.2994999948,0.6187664807,1.5398544778,1.3922792362,0.0352920071,0.9531861352,-1.7579305903,0.5561936096,0.4077719505,-0.8822034705,3.106589114,0.109011844,-0.2242867875,-1.5911589232,0.3552663416,-0.5105550423,14.5765090244,0.6820465831,0.0759579261,-0.2459953405,0.1079165078,-0.9205190867,0.0955250042,10.0088819789,2.3977757737,2.3606623137,10.5786971464,-0.2272463101,0.852597502,1.1977591147,1.6081599996,1.8301880219,0.8767720396,7.5218374874,0.094507053,-7.8443434822,-1.048523622,1.6502152382,-0.5105258026,0.9007422129,-0.6492995271,-0.3394338756,1.8012790066,0.2467381078,0.8333523794,0.7141835904,0.7438006357,-0.9208707219,1.3890578341,18.1468082391,-2.1714302805,-0.3785433256,0.2113363766,0.3258329442,-2.163162271,-1.4302278042,-1.3559426374,-2.8560890583,-0.1801130338,-3.3697401956,-2.5021906215,0.5133215286,-3.3184131693,-14.407191535,-3.4536264195,-1.6992201406,-3.4810030368,0.9938440472,-1.2436915888,-1.2272280015,-2.3089561965,-1.535840606,-0.4924777247,-20.2361041977,-0.6948216304,-0.4421085244,-1.4579234762,-0.7479041919,5.2740180657,-1.2863643048,-1.6612639768,-1.0969278211,-1.2841187277,-4.6270256495,14.9796931229,-4.9466206802,-1.4550629657,10.2992952151,0.7105900877,10.4350504717,-0.8418036658,1.3651790049,0.5042592744,-1.5411595376,-1.11081749,-0.071723137,-4.4186862606,-1.3220434343,-1.1215383613,-2.693154604,-1.9224366537,-1.1881943672,-1.4994964792,-0.7221117897,3.1554531767,-23.1498498491,-11.0645500792,-0.3220075887,-1.4639479569,-0.3584112658,0.5532427598,3.7199824512,-1.6420104976,-19.5357263637,-0.3442333556,-1.8900016429,0.4048946869,-35.6395269662,0.0498602295,-0.6974378217,-0.7698449317,-7.5490823902,0.1363531197,-0.9961525312,-8.0865675073,-1.3784328599,-0.8109195411,-4.3461712158,-0.5617785875,2.8007294785,-0.425146221,1.8891998067,-4.0693121829,-1.4326058064,1.1428733163,0.0032415672,-11.5885994946,-14.3908294662,-8.4089439958,-3.3284400458,-2.3501637291,0.173772689,0.6708046066,-0.1905301834,-0.0336904451,-0.4605230356,-0.2618637578,-2.9731750423,-7.6297608391,-0.1976280769,-7.5509051668,-25.5307221541,-6.9732171538,-11.5142460808,0.2432076732,-9.6821573027,-2.7322654293,-0.8543939941,-11.2362556933,-1.4281111071,-45.442635547,-0.4704610301,-0.3981318167,8.9563296362,0.1707141418,-1.6668379287,-1.7967592158,-4.8979676837,-13.5336666446,-1.3678315708,0.2678410207,-2.1258227525,-1.8641160296,-0.2542662751,-3.28752851,0.5816571586,-0.732217757,-1.7123609218,-0.8772954144,-7.4612831733,-1.8558226403,-1.5486385414,0.7807117833,-3.9854264155,-0.5681788376,2.978146501,8.817874627,-2.0983407882,-10.5655261194,-3.6587844626,54.2223121643,2.6512971353,-0.1523860421,-2.386431815,-2.55532574,-2.8288845869,-4.8972887885,-1.577172817,-1.1123266851,-0.1583525347,-0.2367075848,-5.0105849099,-0.7348063235,0.3341244997,-4.7119799482,-0.0276202303,-9.4278989872,1.8443189135,-1.3644855259,-0.0896668653,-0.0739163813,0.5872763623,-1.6684736075,-0.8577793427,-6.2847018964,-3.7261372011,-3.8579855371,-9.3703447134,2.6493784316,-1.729891493,-1.6526856687,-0.2588595822,0.4764976371,-0.4767195519,-0.0611608113,14.7476692557,-51.1998577559,-0.8830304442,-1.3838437988,-1.671990368,-1.4638109003,-0.1459287974,-5.4583056648,0.325189365,-2.812948596,1.715032482,-2.3699498386,-7.6263607234,-10.5805688403,10.067637116,-2.3187937645,-0.297169339,-6.414112356,-0.9166107462,0.2797247415,-4.0742588676,0.025182059,-0.8426191767,0.8620443465,46.0505414825,-0.8042083079,-13.5208108351,-3.2705748233,-3.3043921825,-1.3741978829,-1.7159854264,-1.7358829878,-1.7688945326,-1.5582583726,-2.5475469463,-2.0891297484,-1.7268016129,-1.9211544604,1.6760326568,10.529418907,-0.743200391,12.0363790786,-17.7003179443,0.3421321602,-0.5205336749,7.3127946404,-1.714023981,-0.6447149637,-1.0050527385,-0.5056556468,-2.3503414015,-0.2771252062,-2.8113709426,-1.7773148094,-1.5403225824,-257.5200324982,-3.1154166566,-2.0931621486,-1.6866026178,-3.0980713394,-3.1669580959,7.1511205223,1.4514771323,-0.642243977,-28.6190024932,-5.6936542994,4.8632297071,1.3238959078,-1.8924846743,-4.4389360876,-2.4529639886,-3.7613269737,-1.4513044713,-1.2727827222,-1.5396008656,-2.4062545739,-24.5910830639,0.4083909177,-2.4870167741,-1.4166429162,-0.9796509878,8.383906981,-5.3813150023,-1.8440636127,-0.9522938853,-1.3679686546,-1.9128192818,-7.7021972932,3.2211685484,-6.7023783485,0.5278939939,-1.6161511481,-1.8674305255,-3.5499226145,-57.0486349383,-2.1750375105,-1.5734827124,-2.9710629991,-15.8471706047,-0.7403400768,-0.841890853,7.4613742194,-7.2131061813,-1.4622804126,1.5968557891,-2.7691356934,-4.0088557305,-1.6139766068,-63.7726701416,-3.1282538358,0.605040295,2.7060632022,4.6539280699,-3.6068848098,4.2347863189,7.4520092941,-1.7959666242,-3.0165513367,-3.046208434,-2.6443494694,-1.5612192906,-2.322877569,-1.1173563222,-2.6487216935,-6.2219656052,7.05752862,-2.6686839661,-1.875122209,0.7661386321,-0.3325577585,-0.0995390802,-0.9568167115,-0.5038197483,-0.5880060495,0.4050112633,1.9895685185,-1.1959469253,-0.7204234072,-0.0988664122,-0.4266428569,-1.2968442035,-1.076964794,-0.5155701159,-1.6466642671,0.5383185474,-0.7540857991,-1.1046139901,0.4268723494,0.845544725,-0.0320010522,-0.7204841764,0.4841629226,0.4831388828,-0.1557287465,0.4711105944,0.1875368189,-1.7057461575,-1.1274991038,0.5155841207,-0.8335275275,-0.6231525417,-0.0191071872,0.9238288248,9.1024004842,-0.8070654326,-4.7636210937,4.004391184,-0.565349428,2.4045736049,-5.9845644528,0.4119235292,0.6611510748,0.2412947697,-1.1948062257,-0.2341755915,-0.4445132306,0.3796810104,-4.5483622336,-0.1937626894,-0.3827977356,-0.3419449648,-1.3414587433,-0.0398204236,0.3518025582,0.1203694657,-0.9979972027,0.1415982902,0.0241953659,-2.6190429721,-2.9703837575,0.5698301618,2.0267778755,-0.3173037736,0.2088784566,-0.6809595162,-0.9311205774,-0.0999358595,-0.6541854244,0.0141208155,-3.625514382,-0.2202004913,0.7634966768,-2.5159576521,1.2681194309,-0.5203589551,-1.2208655574,0.5180192152,-0.8168811621,1.3644769516,-19.3309350872,0.4327824126,-0.4383586303,9.242389978,-1.5010885718,0.7081195175,-52.9732631291,0.2192204259,-0.8375694521,-0.122002234,0.6309398143,-0.2567106736,0.3746957012,0.6988698612,0.3433844314,-0.1257921843,-1.0817716092,1.2540620257,-0.6337250359,1.7442859532,-0.3800810531,-1.0600802059,-0.7562689033,-0.3590898376,-1.9232491908,0.5274570861,-0.5262273962,-0.6146556105,0.20064819,0.9949160713,-0.6585277541,-0.0762520064,-3.2009149831,1.7952262882,-0.0480265325,3.1100834268,-1.6057947968,0.0974721352,-2.8795411001,-0.3944341428,-2.0733699929,-0.9181800778,0.3689099018,0.7110211887,-0.0673057318,0.0818351569,-0.8615737876,-1.3595367234,206.2408315317,0.492690356,0.5520067039,0.2306036747,-0.45232103,0.3527300772,-2.0837951529,-2.0459752487,0.1737948526,19.7733614918,-1.0663494333,2.5312966597,4.4472468736,1.2211727958,-0.2172976818,-0.0029649345,0.5552866275,6.1200139412,0.0538484,-0.8897029334,-0.536675965,-3.7536073788,-0.7352106113,-0.4543146671,0.8745761144,0.6900299687,-0.2933039801,-3.4251434826,1.0412931309,0.926489397,-0.6192734652,-0.9410727918,0.3457480944,-1.0231371485,0.2986276775,-2.8819399276,1.0325334806,-0.8007013837,-0.0097812781,3.2800391767,1.6396753483,-0.5812793068,0.6920411862,3.8985033443,1.1810259841,0.045259474,1.5692455929,0.3466056747,0.225076164,-1.6897977828,-0.1756921499,0.4183149437,-0.0219463385,-5.7441248698,0.3962165158,-0.3901570923,-3.9591582018,-0.7664673738,-10.9066498154,-2.3474276484,1.9808355988,-0.4008683947,0.5967416211,1.3270875502,-0.0239392062,1.3938367197,0.0994031301,0.5033829934,0.5124794511,-0.1419154626,1.388303729,-0.1950961265,-2.8373494553,0.2946515113,-2.7854562952,-1.0780088022,-0.9182581621,-1.5475120267,-1.087164647,1.0405496379,0.6261112279,-0.6196630987,-0.9054239843,0.0001613889,6.2956096521,-5.9473656709,-1.0662943785,-0.4618756411,-1.0998919856,-3.2378807727,-0.4112859601,-0.7073163144,-0.776463447,-0.9720763434,-0.0681164342,-5.1649489473,-1.1632304675,-1.9502469646,-1.2955622703,-1.1326941223,-0.5817029095,9.9156731186,-1.0684381019,-2.3867219194,-0.9958389911,0.3033488069,0.6614297108,0.0547841614,-7.5483107343,0.105672381,-6.9859768179,-26.9049056053,-27.8073770065,-20.3450823472,-2.2131168061,0.5783014093,-0.9370257939,-7.0355795257,-0.7851122739,-0.146110438,0.3723969437,-0.3602529119,-16.0801680673,-1.9261786339,-0.2258571918,0.3663746093,1.4704228864,-17.2440645425,-4.411428215,-0.5333677141,-6.8251394521,-0.3149392495,-0.3596906163,-4.427645292,7.5409979518,-0.872005477,-3.6611374943,-2.0232430834,-0.6432147146,0.4154720732,-9.7537554617,-0.7403115565,1.6664635166,-2.5187522366,-0.9372431766,-0.4295813735,0.5518391916,-5.4567521903,-1.4478420275,0.0937390722,2.4003679976,-0.5825247121,3.0420691861,-1.0029239712,4.1248699318,0.4261070368,0.1117837983,-2.1682543227,-7.2062479461,-16.607788574,-70.2545898063,-7.880775199,-0.7554774353,0.6069633648,-0.5667462879,1.1436828319,-1.9288451416,-2.1248738114,-1.0627770565,-1.7637370079,0.8684204552,-2.8329359895,-0.4114028423,4.3996365341,-2.9994059342,-0.6283731447,-1.6431201708,-5.1847260729,-0.8548872162,-0.9560150715,-2.019022944,-1.2386659987,-1.9674604656,-0.9088508463,-0.3238390227,-3.8097082147,-62.6738192986,-4.1720692531,-11.1365618117,-38.9456697149,11.3038053771,-1.607416695,-5.2110883371,-1.4221084369,-1.200502254,-0.9626422548,0.0562560581,0.234985867,-1.863025357,-1.7236225924,-0.8315611319,0.3678751369,-30.2487698663,-1.6407670601,-5.9641452594,-1.4144622196,-0.6666678702,-2.1886289848,-4.4854200362,13.5099102367,-4.9990708733,-81.9373866676,61.6899951769,-8.3039613744,-2.3588324106,-5.0313326554,5.2652549898,-0.1982523025,0.4762966494,-4.4898680945,-1.1485809967,-1.6283878049,-2.1537012338,-28.3439096075,-0.274706559,-1.2800260163,-0.2849154177,-0.3837318087,-2.2748834357,0.7170668647,-1.198861792,-25.4739479071,-4.4731585345,-1.9416561173,-0.90109634,-15.1857221084,-0.5713667051,-27.5211703939,-2.4597443295,-2.1075400775,-1.1073799131,-28.8952189241,-1.2365563914,-1.2887496899,-2.1144467589,-2.4899582392,1.0519233973,-2.1600569804,7.9980504336,-2.0098755633,-5.169624117,-32.8872766934,-0.018486771,-21.4301782652,-1.3657032885,28.4877344749,5.3147830834,-3.1549406224,-5.8120116333,-9.0215368591,-12.9450673128,-54.8665060375,-11.9569605424,1.1988237668,-0.7133791117,-12.5257403402,-2.926409987,1.1483911013,-1.7727476018,-1.7848249952,-11.8779246781,-2.2076098005,0.2827969176,-0.7937732178,-1.270137766,-2.0638694707,2.7103542749,-2.039710415,-0.3791679376,-29.3894831569,0.2423283531,-2.6269534256,-5.4363037079,1.2867491637,-6.3205431022,-0.9990240536,-0.3352498065,-36.133536248,-0.8299960567,-2.4613876187,-2.5056132875,-18.9128225916,7.9785033429,-27.5419500148,-0.8390257978,-0.2577048045,0.1051567286,-1.4369184742,1.6256403831,0.57546271,-0.3059179377,-2.0166242403,-0.7641819088,19.2342362992,-1.2971372601,-0.8596920239,-0.9306027091,0.8782815427,-2.0721638825,1.1543192065,-26.7480146454,-2.4601022483,32.7931795454,-11.1452710755,-47.1863480179,-16.6751268415,-0.051890636,-4.3225320935,-0.7105745468,-4.2719090742,-14.4810525516,-0.8877907747,-0.2907117429,0.2112079746,-1.9220748564,-2.1347497096,-0.832606429,0.8358872387,-13.5358713609,-2.8094355333,9.7344517215,0.3142232844,-23.4984575606,0.3161753084,0.0554551594,0.1093802165,0.9389604125,-2.4073640958,-26.5289849,1.7422534466,-0.6850566704,-1.6377060298,1.2896733789,0.3043696002,-4.9323130097,-0.7921402769,-17.5055669135,-0.649110005,-0.4699036691,10.9430935948,-6.4998029356,-3.6733614863,15.9133187891,-1.5425533012,-1.2881385416,3.1859728793,-0.5447378184,-13.0828492089,-0.2896885666,-3.7677503917,-7.7204537103,-11.8198785992,-46.1856614389,0.9222926699,-1.6253207635,-0.322855517,-1.1778071842,-0.6571916238,-0.5230432585,-1.7220938802,0.369776879,-0.0508047452,2.6742448175,-1.8655322666,0.3503243755,-4.3974595608,1.414115202,-0.7625519372,-0.6142434771,0.7034573882,-0.0151125541,-0.2966158903,0.3387918338,-0.8000765101,0.0423133114,-0.8029743103,-1.015544522,-0.0355018467,-0.2255464851,0.1348418469,-0.7120833894,-2.8000149553,0.5058418115,-1.1041148748,0.1200522159,0.0952597775,-1.2954223392,-0.314311177,0.2735140649,-2.2581833099,0.4302723293,-0.2189184816,1.0284597498,0.7158267271,-4.1010401506,-0.819360285,-1.0948894225,-0.7571600662,-0.3982579965,-0.2149254679,-1.169889595,0.4601919797,-0.9698153609,-36.1873656173,20.2653080835,3.4428989702,-4.7055650324,-0.4798065017,0.8723086431,0.6311296562,0.9263841025,5.500655598,0.8392447793,0.311312556,0.962911903,8.803493663,-2.1242133196,0.1131246474,-0.5945814338,-0.1995061067,-0.9821379059,-4.0949264424,0.1261800123,0.6006624264,0.0257247967,0.2911573545,0.8175963418,-1.2403070603,0.7475145179,-2.3516069448,-0.3601332616,0.0203241266,0.7372513676,-3.7713140663,0.1423798418,0.0418397809,-0.2014875436,36.1442321825,0.001874119,0.071331509,-62.5320151486,1.9970805298,0.2525329915,-5.4616792989,0.1095991114,-0.3447318802,0.7398069156,8.1729189342,6.5523266975,0.3015337449,0.339561189,0.9259118064,12.680523356,5.9694511937,-0.2290676317,-0.7142042089,-0.3445272686,0.474404807,-0.0140612431,0.1935713779,-0.6847283695,-0.3893509308,0.1306136449,0.2938273236,-0.6184942781,-0.7054396811,-3.3898988618,-0.1929050298,0.7653331761,-1.4591921384,2.4536652718,-2.4859174243,-1.1225270616,0.0237623302,-63.2139410924,-0.133136389,-9.9892267558,-1.3884594381,-1.1355229929,-5.5843445832,1.5211895203,-17.5011357443,3.0337591852,-7.4634048637,0.895220059,-60.955476391,-0.2607699158,-8.2734416324,0.1567969793,-1.1286672755,-4.7443395719,-0.5673149806,2.1925128805,-0.8134668508,-0.2625595659,-14.540072395,-0.5064584187,-2.1864987435,-1.9526761021,-4.6184571983,-2.9256634523,2.0689251524,7.5996558343,-14.818434903,99.4941165577,-7.9455511286,-33.1041119889,-0.2865266262,1.0954205903,-10.2145981705,-0.60264725,-2.9615935781,-0.4683380124,-3.6310184382,-1.1176768358,-0.0086012347,2.3211698985,-4.8158491412,-0.5271474025,-0.8478504737,0.9643766751,1.3029164112,-33.9954397503,-0.7393876212,-0.8973308572,0.4293147434
   -0.3487133166,-3.5078683282,0.9472160967,-0.4215897036,-4.0642792791,3.1984206,-0.3993742717,1.1532156846,0.7280306084,-1.1182359486,-6.0625025008,-0.6883582599,-8.018785748,0.4351044094,-2.591188947,14.7187991538,-7.7157788904,-12.1361646112,-4.0260635199,-1.5754345389,2.7403499561,-1.6744652704,-21.1474433893,-12.1771622124,-0.3631860306,6.9662744429,-4.9799675867,-4.5658236428,-115.5813346294,0.6455263491,-0.2016358234,-0.0576103263,0.2171449493,-0.6053076266,1.3093087145,-0.3651535609,0.2909539037,-0.1572444121,-1.2709592048,-14.9261825215,-0.1211457083,-9.1288579296,-0.3219734617,0.0339222487,-1.4197894698,-2.1255478596,-1.44077792,-1.9448700453,-2.322138266,-3.637584204,-1.0518717408,-4.3304217089,-0.3189444978,-3.0894725442,-14.5796810938,1.57909599,-9.561757474,-3.085060564,-4.406112177,-1.2372308163,-0.0559931805,-0.8831467126,-0.6889863106,-1.021760471,0.9321188053,-0.0392975161,-1.1256428839,-0.693851581,-0.4179709103,0.2090109451,-19.1098277823,-1.6735580038,-0.459798597,-0.4027887302,-0.9138927221,-0.3162194106,-3.1567537075,2.7145071826,1.9679377293,-11.8681220294,1.399649607,1.0240115547,1.8414297398,-5.8861486014,-1.9785584458,-1.2745442905,0.3635576455,-1.8683653068,-0.0471583032,-0.9706658379,-0.3513942093,2.7377245078,1.6974032042,0.0768729343,-1.2147445229,-2.7307025559,-1.1930754384,-23.0682478227,-0.4702835193,0.3472272522,-0.631932907,-1.053616987,-4.2950860274,-2.8958437771,-0.7199915147,4.9057810413,-2.3807104167,-0.6064425322,-0.7756950649,-3.4421868703,-0.5263002111,-1.3053345351,-2.8991012721,1.5614830376,0.4982118848,0.2382542551,-10.8324998534,-1.2241690709,-1.3212752776,-2.9503871161,-2.3115763598,-4.2628426065,0.9948200631,-16.0357494849,-1.4146813893,-0.9998934632,-16.2370602532,8.6746902234,27.6627993351,-6.5425169004,0.6888060828,-1.1308638587,-1.569103893,1.7661825315,-0.805084857,0.1775408414,0.1587111628,-1.006275205,-0.6201722233,-0.2725625673,-2.0121412277,-2.0694209935,-11.7568306121,-2.1308355088,0.2223805993,-3.3361535467,-1.7909566103,-0.7988786833,-0.4644795746,-1.7152397806,-0.1167380201,0.0759180533,0.8349143802,-1.338505359,-1.228837868,-8.1243472734,0.6336745311,-1.349284564,-4.2395211932,-2.0980127668,-4.0931793921,0.0150840967,-0.3931236137,-1.7251693643,-1.621283667,-2.4137069625,-1.4528251642,0.9752028521,-0.935916715,-0.7339512246,1.3211167054,-0.0303158958,-1.2463713862,-0.4338861298,-1.4239948989,-3.0601789149,-2.1753836096,-1.5280489639,51.7286780623,-2.4345946496,-11.6029739949,-5.4721736305,-29.2785353128,0.3665070126,-0.5257013366,3.1522009612,-0.6374434369,-1.745835761,0.2343861742,-3.6099317734,-0.7968573501,-1.2917503721,9.8209605412,-3.5064694265,-1.7682134422,-3.1129689357,-4.9497290385,2.2599663863,1.3380732126,-1.5042923807,-7.1273651662,-0.6361115986,-0.0046280194,-1.9943323833,-8.6630650936,1.250085959,-4.4417665422,-2.981214553,0.4239722024,1.357433658,-4.1970064513,-0.5820335773,-0.2692010455,-0.0969658486,-4.523446743,-1.2544816193,0.9242596276,1.5914211079,-3.8356451376,3.7321061518,-6.097070701,-1.6754841966,-2.5387657361,-1.3385450934,2.3952990826,-0.706309501,-0.8389882934,55.1134223415,-3.4669146797,-16.4416036914,5.9993723052,-3.7579525546,-0.569846376,-0.1546218926,-3.0314332773,0.5628059919,-0.8193303538,-1.5670345978,-0.1834640601,-1.0517797436,-2.3393373573,11.5138561904,-0.7789892167,0.0304530699,-0.6763668967,-2.049426877,-4.8153849961,0.177649276,-1.0668341139,-1.960857022,-1.0437811605,-3.2401098974,-1.0628916804,-0.8036230677,-2.4587840911,-5.5323772031,7.7197624738,0.1466841715,0.9311089168,2.4733747057,-14.9301159142,-2.8590509487,-13.9114260545,-3.1728177483,-5.8267091196,1.6297562756,-2.2454354381,-1.0935762329,0.0984740862,1.4531843182,-5.6615148042,-7.3456063783,-11.4970836043,-0.9090834999,-14.3472428349,-1.7504156786,-2.4081755089,-2.2480746535,0.8030665347,-17.1280165208,-0.0610969176,44.0245616579,-12.9266757311,-13.5406082669,1.0011129967,10.0533173638,1.3053121104,-5.043571865,-9.0861200319,-5.3598651828,-7.8895982782,-0.6315273899,-2.053773089,-0.1211013994,-2.1127706924,-0.7718367321,0.5695090021,-1.7378820849,0.4243810179,7.0531149396,5.3082660345,-4.2498204853,-1.7512967972,-1.2801556193,-2.4159838783,1.7477138891,-2.9103783784,-3.0192290341,7.3906775192,-2.1719463934,-3.8621828422,2.9842878439,-1.715988341,-7.4847490521,-1.4442213644,-11.0177201432,-0.3246299776,-3.5211304652,16.4159278175,-3.5263935208,-13.5378893039,4.673854776,-1.9002051941,-2.9975476275,-1.7984439076,-1.5835875855,-12.9935107409,-1.956959552,-18.7415949947,-2.4202795647,-50.1794244981,-15.3786271104,7.6421193807,-3.0968363969,-2.4361744524,0.3124521612,-2.8536639902,-11.0642516249,-6.3097156669,-2.0884734846,-2.8411779031,12.6553101996,-1.2962114844,-2.0003679336,0.2076391267,0.3151750257,0.1336317211,-0.4969718025,0.2021353539,-0.2142710434,0.4396306595,0.695544928,0.7324273872,-0.4861588902,0.5521282306,-0.4621237522,8.1217323053,2.8460720011,-0.4157593608,-0.0984700958,0.2981885006,-33.982025529,-0.8244831228,0.1330266982,0.4066778354,0.8359903478,1.7193692566,1.6795919925,-0.0618862625,1.0742983963,-0.2961666014,0.1658191179,0.2717921131,-1.3674471846,-0.3562626959,-0.1303098758,-0.5381580445,-0.4929734061,-0.1882231493,1.1447915377,-72.1022680232,0.5785081698,1.7333732019,1.665160126,0.769360141,-3.0065948718,10.573370038,2.2148738562,-0.5014533723,-0.1599509382,0.141873121,0.7456068263,0.7726187294,0.7083303206,24.7982352479,1.1738984345,0.2856163278,1.0951557767,-1.3506348202,0.5299193165,3.2200545964,2.0752281958,0.6208354001,0.675637952,-0.4515664207,1.1187480275,6.570556805,-0.14576884,154.2665638792,-1.1088313552,0.4652186081,-1.2220186961,-0.9434480801,0.033816677,1.5013531284,0.3076792099,56.1791209813,-0.1699996639,-0.3615437586,1.3677225518,-0.9516726902,1.1393538259,6.5303697272,0.5534133443,-0.6740164089,-1.104995721,-1.6475314105,-1.6664933706,-0.2415812678,2.5768621562,-1.7049150744,-13.7278766702,17.9711739908,2.8251623223,-0.1895837269,0.8601634285,0.8546830528,-0.159927575,2.5694121707,0.8139267615,-0.3843528191,0.3283141794,1.0280553678,8.8740185331,0.3701354848,-2.9752223131,4.9597001451,-1.3640902149,-0.4741470571,-2.1179538228,-0.7692871035,-0.462616729,-1.1442052454,-0.600526685,-1.1141260962,0.8672681794,-1.3976020077,6.0554685374,-145.0019501344,-1.4687487798,-4.5969104521,-1.9719287612,-0.061292466,6.0145802289,-5.862405767,-0.7413967353,0.1386131374,-0.0953894607,-0.9600894471,0.0753250235,-2.3128510061,-0.5407059643,-0.8208186142,-1.8004301864,5.6476142717,0.1079097805,-1.8357033557,-1.4862461974,0.6722894968,-0.8118080403,1.0425156821,-19.5063170247,-1.4509580239,-5.2063124709,-1.4882976218,-5.6970311539,-6.75825429,-1.17208758,-2.1991931057,-1.2232773463,-1.9195277927,-0.3427336919,0.8355088518,-1.1739946561,-1.2347308101,-0.5573049905,-0.7335337205,-1.5150821221,-0.8820763132,2.6590429789,0.3774186583,-16.4217026953,-3.5876391237,2.3760156706,-26.268762616,-0.0739188116,0.0446569183,24.4116612605,0.2799305817,8.638849182,0.0016389984,0.5256084775,-1.1880807075,-0.8787020638,-1.08487229,-1.667853512,-1.4613626412,-142.0395109932,-0.5255626342,-0.0528887238,-6.6965658552,-4.81206848,0.1669454789,2.7544634555,-1.7486313898,-0.4414658917,-2.4917607844,3.3793215391,-0.5754277076,-1.8502827589,-3.88787126,-3.9344393703,-10.1046058692,-44.5543999677,-11.1976127458,-1.9835776123,-1.1795804392,-2.0785443253,0.2683346248,-0.9942761192,-2.1984640674,-1.2324648729,-2.8268434765,-5.4867246549,-88.8540012445,-1.387249827,0.6322210553,0.184897971,0.4739086269,-0.3760557267,0.4314794056,-0.0129463624,-0.6135524042,2.0168774696,6.2789566079,-0.7623570338,0.1287819507,0.704156958,5.0585093803,1.5381232476,1.6963348372,0.8512383888,-0.881281683,-1.0026124878,1.9731862923,2.1082386447,0.2145107844,-0.6335764679,0.4646795846,1.6345726736,-0.7596923456,0.8725288506,-1.0211197957,0.1831837023,0.3353609598,-16.5248231585,1.7552774532,0.2986716072,-0.4683631927,4.5603918806,1.6145770531,2.2188960647,5.808231746,1.0348148598,-20.9334545426,16.3220788132,9.2892030947,0.3270888498,4.0429148528,0.9680907105,-0.4695616027,0.7783233214,0.0870515482,3.2637612375,-0.6311770972,0.4417286342,4.4421393416,-0.457434332,-0.1737761945,1.1620391733,3.5721838537,4.0342619909,-4.7375855189,-0.2151347642,-0.7709433509,1.0300907884,0.1798194351,2.9137028645,8.0995648784,0.1757282155,22.4839452401,-0.0771491544,-0.5145303585,-0.0608423573,-1.6340152376,-0.4879072645,0.8482240651,-0.4569146946,10.3754282326,0.1769968885,-0.2083743052,-8.5580648672,4.9461773412,0.7268724277,-1.8726603398,0.7170200122,0.9662422693,1.5850086956,1.6363570192,2.1995080242,-1.9076810953,-23.5687022293,-7.5232219331,8.9179531351,9.6465650761,-0.7730791205,-0.6898850517,1.2475395621,-0.3861523551,0.7501550084,1.1508961602,0.5910669499,0.039185507,0.1186015173,3.346780002,11.8885318158,0.8525757088,5.9022265206,-16.7066997841,0.1499341385,-1.1696144058,5.6450266502,-3.4607316063,0.1989575757,-2.7224135676,-0.1872342558,0.3666523991,1.4259896303,-0.60963836,0.3407660501,7.9268991841,-1.2201425465,1.2707419557,24.9962792976,-3.8723797471,-1.0032624031,-9.1211753329,-4.1608621722,-6.3785227793,0.4824196022,-1.6101794377,2.2733657563,-1.2088829741,0.4038947816,-10.7226130195,-11.0466848032,-16.884533467,-1.5899082076,-0.8080939322,-2.2989352994,-1.7058180416,-3.8976440617,4.1793548492,49.7157112053,-0.5975262121,32.0363239327,-54.3462778588,-2.6012989435,-0.8527939667,8.0196263142,-2.6513562754,-2.8462664243,-1.8407807275,-1.0188737898,-2.1985426442,-0.8313265122,-2.8098757202,1.9434672477,0.6828681165,-1.0962582531,0.1944034967,-1.2489689159,5.8605171579,2.8498693465,2.1924845717,-1.8825654451,-2.325123292,-0.7376402464,1.3107468146,2.2045406712,-0.9815039921,0.6438148307,8.4897185869,-0.5991477258,-8.3453309219,8.7259748332,-0.9164640915,-5.8049017553,-0.8915184148,-0.8285413891,0.4048731267,-6.4758356492,14.9498547776,-70.5042702417,1.121831941,18.5211714763,-1.290839473,-1.4958474922,-22.3794510639,14.4157034347,-6.9618660675,0.4890784571,-6.3613847879,-0.2012686781,-13.5461166069,-10.6091874768,4.0405846267,-8.391918167,-0.9796827212,-0.1456177884,-5.6318131678,-2.9036416276,-6.5679287935,-0.2214342605,1.0257586674,11.6229981484,-0.6049589495,-1.4583600886,3.8232212326,-0.1215938421,0.5850338495,0.8717623268,1.6098493248,-3.0575495691,-0.670323165,-0.2175848323,3.111533113,1.043724271,4.3521341367,-0.5878486749,0.7165211368,-2.7383306133,0.8800484013,1.4383167762,7.9582847959,-1.9529110798,-1.2332261499,-1.8345344118,-0.2468076193,-0.2752562516,-1.8687037491,-1.7254578183,1.7631953979,1.5764490953,0.3731499251,-0.0119069339,-0.3784286106,251.9985788367,1.1726502779,0.3277679445,0.9383596372,1.9071400954,1.4161559901,0.4874351891,-0.4679453259,0.1328526986,14.5592408488,2.3811409587,-5.4573111393,2.0981375,0.2395727425,1.1000725091,-0.6771470528,-1.1527094711,-2.7517766963,0.3780942715,0.1591400087,0.7249612698,-7.0426344417,-1.3530575544,1.1604277412,0.5278556735,0.1429545656,1.2977883276,4.3368218437,-1.1136872399,1.0758892474,0.5363316063,-0.3001628362,-0.962853477,0.167937853,0.6617832734,-1.6474243041,6.5024165799,-0.6463539609,-0.8328858282,16.6523163383,-0.2329104639,-1.1313389246,1.8363378666,0.8472744665,-0.4265091759,-0.2963265898,6.8177643539,2.142320149,1.6702266627,15.8918290923,0.8723884167,1.4129181076,1.6412439086,3.675167849,-0.3667537525,0.7228827835,-0.1693926181,-1.4324875467,-13.6499915434,-287.2971999147,-0.2433833754,0.3709738358,-0.4161129611,0.6804546984,0.5501905574,0.30425001,-1.3496867257,0.0789558291,-0.3719942079,1.2865132791,0.5291089647,0.0067640638,3.1846962823,8.8013851076,7.1312938297,-0.1242998095,2.3576646576,-3.0205731115,1.3187838236,11.2124042246,20.9017290066,1.2437103822,1.7042560047,0.391515782,4.012627022,-4.756180801,-0.8252313989,0.1100610254,-5.6489491208,-0.2062310625,1.3298904367,-5.7206907106,0.2016781818,2.9833354952,-1.327075829,-4.3698144788,-0.0324890374,1.2396654429,0.4450903791,0.8234751531,1.1262437887,53.594245163,1.4574490723,1.9996147354,1.4610297075,49.4429479667,0.8780345034,15.6981246536,153.1719430333,0.4309632327,-4.6997796527,-0.2972524678,-16.7087694028,-2.4838336722,-0.6322215779,-0.6441307224,2.6075907219,-0.3338875249,2.6254593876,3.5443560637,0.1686202601,-0.3616705861,-8.1817546695,-4.4042721257,0.3062440875,0.3271433419,5.9236714199,-1.2059728326,9.9548341894,-0.6040199963,-1.5186638074,2.1807094464,0.2438641481,-1.9158019454,7.0323907371,1.6540839936,-1.4506122624,0.7009543018,0.9012190695,2.095092873,0.6350535731,1.7613950672,0.2855848199,0.5262503632,5.8656394001,-0.2463725142,2.7056398879,-8.5616924654,1.5131926468,-1.3750718211,1.9434253781,1.1621550249,10.1667949398,0.5242719915,-25.549502139,2.9088746736,11.2565949789,9.3910029194,-1.6616151268,-24.7595902519,-31.8985943738,-2.0116192588,4.8071396784,0.1908701326,-0.0630933163,1.0502555299,-2.75801242,1.4383623365,0.931307983,-0.174999742,0.9936443684,-3.454708055,0.5084215617,-6.369167225,-1.8536764158,-3.2619195138,-0.5462728639,1.0073415335,-7.1185690882,0.0903047268,1.0869745955,-1.1117446486,-1.2927279646,-41.6793637924,-0.3102084926,0.4420490315,-10.6164610368,-2.1915544454,0.0889081336,-4.0670534691,-3.1659894296,0.1257280894,-3.0855080155,-2.1469421911,-1.1383642222,-0.574096757,-4.0879854077,-0.1407220338,0.0152654975,-1.7418959619,-0.8873501716,-0.8713729757,-89.7213351647,-1.1235896622,-1.0061169233,-0.0189883497,1.2811718428,0.3721206511,3.6830557267,-2.4833121007,-0.6271932401,-10.26584717,-0.5680072891,-5.4459826035,-3.8823995685,-0.1353569069,-5.5519854222,-0.7968840691,-0.7177607142,-6.5728796829,0.5421692403,-0.7432935603,-0.3901558596,-7.7674097994,-9.5191600342,-0.4171668418,-0.838086041,0.9275520025,-2.0237400765,-1.9801475436,-1.6778514131,0.4812524375,0.55626993,-0.3408657052,-7.83789376,-1.6642586219,0.5364438463,-21.877105518,-0.2063444373,-2.9526690752,-0.4364405629,-28.883583001,-1.092152561,-2.1161857939,-1.5394322305,-6.8145822585,-0.2639114431,-1.4613428524,-12.00016955,-0.3386698738,-3.938486415,-2.3504286901,-0.7894483382,-0.5552924017,0.0679916299,-4.2518292561,-3.1368276774,-6.6297999626,-96.9838761964,-0.4948957963,0.8074948917,14.1708788234,-0.8209160686,-1.8863907069,0.2735299675,0.5872264749,-2.7600610366,-0.9282238896,-1.3827486648,-1.4649939869,-4.488362908,1.4817391665,0.2636890021,-0.7115613759,-1.9091788557,5.4302617816,47.4463360178,1.9780597408,-0.7629983238,5.9080363889,1.2935602025,-0.5879725043,2.4959662136,0.3558177833,30.9538288684,-0.3621948734,-1.9932973349,2.4003012862,-2.6148643305,-0.0965820367,11.2722518613,2.2334341644,1.2291747915,1.7597651288,0.5383350362,3.6238788079,1.54100561,4.8799526675,7.7189123073,-0.7562787278,1.2987160259,-0.4666720435,1.7853490268,6.7030906761,0.6485898584,0.5692847345,0.5770575975,-1.7854464067,-1.4621010147,9.9541740453,-7.6736671853,1.6220259188,9.0235243552,-10.2801959066,23.6177953389,-14.147389029,4.768400452,2.5493493726,0.223855635,3.0468253102,2.0444285174,-2.118520012,0.730333578,-1.0958833511,16.7567953018,3.5487921746,0.2470644876,-0.6749046361,0.0805664668,4.4566571799,3.4517453796,0.9713539493,1.316622505,-0.617606659,0.3281610864,20.2990284346,-11.6665342249,0.5630104216,11.0299767306,1.4022676848,1.5077774707,0.940791133,55.7910605365,-1.0647957074,-0.7078692549,2.2973555069,3.8545333208,0.273003739,0.220206611,12.9795447695,-4.256501775,3.9252339694,13.5880497807,0.9006506094,-0.9588551069,1.0937116012,14.2216595895,-0.8038033625,2.6062351182,71.497711443,5.485254478,-6.3331210986,26.4469538291,8.2717259307,-0.8338478876,9.2700339374,-0.4773769866,0.7604956711,0.2028920838,0.440577046,-0.1098139316,1.9259774327,-2.6075514262,-4.7875307536,-0.4427131278,0.2532281716,-1.9676782018,-4.1565831686,-0.5814352727,2.1904699929,-13.1089267517,-0.0890922454,-0.7585692766,-31.5407241008,0.5967208963,-25.7252071069,-0.5020468055,0.4453353724,1.0118749651,-2.9858344074,-1.4835980676,-4.4866422871,-1.9128741898,-2.6201740426,-44.4088451232,-1.4591809793,-0.606432593,-6.4481264206,-4.022675799,-6.2049619273,-0.1892747927,-1.9887276614,-0.8888615146,-1.7373930637,-15.1860817021,-0.5613120108,-2.8232284956,-1.306203758,-0.1509535412,1.3763494161,-18.5225359985,-6.1447150566,-4.0112074429,-10.4525680425,-20.9940915101,-22.1666122698,1.6431136504,-5.1506176246,-5.3999540948,-0.1030501363,-4.2319282909,-3.4425813524,1.8621584609,-0.0195719287,0.4956298623,-34.5650049092,-57.638436494,-0.7123066402,-0.3916813198,2.4632820654,-0.2869228914,-7.1761913485,-3.5932744477,-2.1554337483,-0.9073203614,-0.0694148488,-4.7837742637,0.2431928923,-1.202171334,-60.6818311724,-1.0473141773,-2.7070311189,-1.0423411088,-5.1991140926,-0.891131515,-0.5894034409,1.6289173331,4.752495553,0.1900901922,-1.4465824535,-655.5014860804,-3.0124603243,-1.4153334889,-0.5668211241,-1.1793138226,4.6600278702,-0.2718399761,6.6820103439,-8.0385665815,-0.6398328141,57.7416820906,-0.102086411,-36.7116389489,-53.9258706635,-15.3372491752,-1.8383376892,-1.9116082018,-1.7807488565,0.6471732902,-0.4879287045,-1.5163042479,-0.1885063414,-1.5255212703,-3.350304185,0.2831163513,-0.7262702991,-4.8259709639,-4.4037627025,-1.2177188688,-0.3835688166,-2.2067153216,6.1377799347,-0.7740029662,-17.9695932267,0.0778715091,-1.0671159736,1.1287886819,-1.3781472098,-2.0575023473,5.0994612817,-1.781274375,-2.0026155492,0.0746303002,2.3669287968,0.9191877821,4.6203155798,0.0676010273,-0.4871989587,1.4750313539,1.9504252255,-1.3547488765,-0.0397607932,-0.5333898036,-1.2506854181,-1.447462323,6.6471597514,-2.3704889157,-4.4731291728,-0.5845877754,-2.6089112932,-4.1965689869,-0.8383602756,-4.8452897399,2.6050032049,-111.5090351,-3.588701079,11.7317250382,-0.0052805204,-0.7144228025,-61.3675196995,-0.7251660152,0.8251209516,-0.6832554593,-3.5585488471,-1.5470325462,-1.9894868543,17.2180712323,0.8134790545,-1.7130690692,-0.7272169565,-4.3609905014,-2.7586354621,-10.6762047401,1.1178815906,-1.5194847403,-1.4842390076,-1.5010693681,1.8850583589,1.538899753,-0.9634566671,2.2472070637,-8.3108618111,-1.1943463431,-0.7571752945,4.0911439012,-1.8143483976,1.048384462,-0.9131529424,-7.1232005993,-1.2804222786,-0.5450570466,11.6152332908,-16.2687832992,3.4827113692,-3.9196539379,-0.6682202459,-3.408331821,-2.3535256936,26.6571186981,-3.4312413596,-0.8398757693,-8.1399792622,-1.1029722252,0.582289698,26.4601790675,7.7099355109,0.7369179681,-1.0313255435,-6.139671962,-0.0039204802,-0.4575648607,2.5233583263,-0.2946189487,-0.9693171896,-1.083698732,-0.3117019163,-0.4791509476,-5.1065017219,1.242918612,0.2510092748,-0.2768174239,1.4958410053,2.4689959852,-0.4567982319,-1.8084195296,3.3603088445,0.8289047888,0.4508879448,0.2138241482,0.8643880388,4.0512933775,-0.5432861967,0.9911128868,-0.987243727,3.2820652995,-0.8496855018,3.0421874384,0.3816690096,0.2851571837,0.0150761877,1.1351441015,0.8746070659,-0.1172246393,0.3593816878,0.2118658706,-0.665935191,-0.4887159984,-0.1465812814,-0.9594512211,0.8114463816,-0.5991485612,-0.417330526,1.5245242706,26.3004394507,1.2703929025,-43.9357537651,-11.5055053022,3.3521954972,1.2867833876,-2.951572948,-2.2152890731,0.4428142453,-1.5116498738,0.5245866044,-0.5504832525,0.0910488889,-1.0272110941,6.9220630245,3.6593638456,0.1455605324,1.2201767847,0.7635499532,-2.4807263866,-12.7081345626,0.2209953473,3.9202621676,13.0652518826,-0.3041400124,-1.0987288949,-1.6859521009,0.2451813297,2.1769568747,0.3535603627,1.2772087528,-0.0305566061,1.5284807217,0.1083337981,2.493611423,-0.1887578001,-0.8012294031,-0.848460084,-0.2521288785,29.4335633733,2.2478889635,6.3288399677,-3.0354814153,0.4489467668,18.7481559253,2.8939572373,-36.5794152182,-1.2211628114,4.7577557563,-0.5849058161,3.1757231061,6.7022119961,8.9426939114,-0.0543089567,1.2296473815,0.3473920351,0.7477107737,1.2874077391,3.8793758281,-0.0919541448,-0.9414529882,0.2012586831,-2.2625060844,1.6826541661,-0.6459181564,-6.0960750703,-0.2151188758,-0.8393784398,-1.2536200539,-1.1683675852,1.3468746863,-0.8778527797,-1.335629038,-0.1184196913,-0.7924307568,-23.9195130081,-0.3308404362,-1.0085431728,1.5089219521,-0.1733014445,-1.854595563,-2.2894794306,-0.6374050725,-4.6147737657,1.583621871,0.0222027852,-0.4687551591,-0.8479297628,0.4694536749,-4.5505206238,-0.0995863852,-0.7702674615,0.5424999703,-1.5379737558,1.3407885829,0.3427731351,-3.2398575923,0.2702361834,-0.4175482505,-0.6534071482,2.143833359,5.9026093415,0.7171016155,-20.4195729307,0.3164311344,3.2239290296,0.6124070173,-2.9905702693,-1.6807207727,-0.82562539,0.298877411,-0.4518042405,-0.6501831758,0.3095775891,-0.2041496829,0.8705009298,1.4956801906,0.7083214154,0.3963423984,-4.0318049992,1.8894656598,-4.9832055019,-0.1875659081,0.0734839545,-0.1970456896,-0.3293382453,-3.259866999,-1.0942577263,0.0421168968,-1.6927618533,-1.273431664,0.148790473,-0.7123498623,-2.1361591152,-0.0256281931,-0.8292409916,0.5765847752,0.743523352,0.4803278681,-0.532110364,1.7098531797,-2.0455022265,-1.93966355,-3.2125013905,-0.8859171402,0.7982790849,-1.3863713335,-34.5358753753,-5.1365875216,3.623552219,2.3784390257,-0.0530321576,-5.6939662246,-1.166625468,-0.5010449793,0.1321266922,0.615690989,0.2561394614,1.3718721103,-0.2871272555,-0.6830628034,-0.1228254653,-0.9405567514,0.3669855219,11.5935288246,-0.9915274116,7.2147915992,3.0686441965,1.2199154869,-3.3217009575,-0.2921890683,-1.4847826673,-0.459041634,0.3837404906,2.8888208524,-0.6603058522,0.9572238501,0.5802191888,1.5529045746,-19.3518099464,-4.5033823626,-1.1869504715,-10.6826480734,-17.0363883293,0.5718602804,2.5083277197,-1.186967633,0.0339674252,-0.3255503034,4.128238104,-12.8870545922,2.6307983789,-0.957832591,0.6247539983,0.2232771395,-10.1333797547,0.1884784018,0.2393245994,-0.9022252203,0.3951233307,1.7292370868,-4.0344297969,-3.4103061181,-7.215604117,64.6729003961,24.1073069748,-13.8986325874,0.2057231507,8.5704650822,2.4953198292,1.2750723017,0.9509820245,-9.4995017884,-0.8653987106,-1.227619308,-1.88116224,-5.3642235807,-5.3779141266,0.7577316695,-2.170450919,-0.4898148425,-5.6116463516,4.8800262472,-4.3396812869,-5.2818973379,-0.1625588974,-0.7134855302,-4.976350829,4.0012899618,-1.1639900057,-4.378371226,-1.0607088015,-1.0058249716,-0.3313001481,-37.8698173358,-0.9272301935,1.020035709,-1.4157083373,-10.0148453215,-1.0247208908,0.9622914929,-7.1188492414,1.3150077662,-9.5539272541,-3.0976702059,0.3746548915,-7.0377621557,1.6811821045,36.7774926275,6.1022756109,-7.8290426224,-3.4006676118,-9.6320945355,-1.0856950028,-38.9084075452,-4.5327304555,-0.8296751804,-0.8026029975,2.0039498149,0.9121774305,-1.3190929904,0.0891040217,-2.5751495077,1.0665528422,0.0359265971,-1.6484481451,-0.9384894771,-64.7159430653,-0.8927888278,-0.548726762,-0.7822042086,-1.1020217902,-1.5890223843,-0.4367528505,-2.2020328659,-1.9575676556,0.0122081625,-2.4831476921,1.3595611113,1.8740047594,-0.430569155,0.7263536681,-0.6091623813,-2.4127814348,-3.0434787776,0.39123975,0.8422213253,0.9588676349,0.4618506099,-0.9641359122,-1.8306265677,-2.7280235651,0.517134028,-0.0406290856,1.520909475,0.3554032865,-4.4347824727,-0.1812843272,-1.1328818046,0.1713781814,-0.7644483915,-0.1875200601,-1.9275157131,3.8292440451,0.0369296582,-101.4081847364,-12.3949891645,-6.8423523765,2.1175095234,-3.9844617265,-1.5891664397,0.1673128042,0.5089340451,1.3497514703,0.6786691312,-0.5663526445,0.3856980928,1.1615180504,0.5338121481,-0.0284353818,-0.3820513104,-0.035010129,-0.1646234561,-3.6613287181,-1.2902647723,0.0011790936,0.2164229165,-0.2623646427,-0.8906889759,3.4493171334,0.5307955612,1.8497568741,-1.458624423,0.8445553899,0.438345939,-4.0313725809,-0.0651130171,1.3033402844,-0.5662154433,0.424594216,0.4605093298,0.9643231463,-3.6249590931,-0.4021698774,-2.6714096719,-19.3157081176,-0.7544108943,0.0429144937,-0.082109507,-49.9975317103,-0.7108079618,-0.0643443898,-0.3102667701,-1.4489699282,-1.5992126717,13.3296977023,-0.8907269774,1.6591281697,-0.0112104147,-3.4309392982,0.5232047386,-1.7149458991,-0.7617197551,0.7194980464,-0.6750000968,-0.5337210597,5.372943309,-0.5934946326,-0.5599493884,-1.3303969364,-6.2569507832,-1.2016172355,2.5475302445,0.0756193061,-2.5786245487,-4.4795064911,-5.9063514975,-2.371017885,-53.2000451152,-3.6927302052,-4.2025412409,15.2430572395,-3.6025654038,-0.8145739584,2.5772097229,-0.927297181,-13.8786251983,-3.0691693685,-2.9611347218,-5.2737738537,-1.327426166,0.201102899,-4.350983205,-3.0300609907,0.1621967987,-3.5422977791,-5.2082464995,-21.5429530803,-1.3381935931,-4.442612637,-2.4970172054,-0.9034162037,-11.7214603849,0.2972709144,-21.6565901015,-1.3259546761,17.3243987669,-5.0552756109,0.9496370608,-1.6220372668,1.0381879626,-22.1815190403,-2.590836959,-4.0505492223,-13.9684233752,-14.0548752648,-2.2420018286,-1.1145816249,-1.4594878014,-53.3028847949,-0.9574958365,-0.9070590201,-0.2862083381,0.4769307191,-3.1620104022,0.9264575641,-1.4679427393,-0.221693793,-0.9000349067,-0.711806422,6.7484147276,-2.6110993218,-7.549229055,-2.6200083164,-2.2894210601,-3.6818287419,-3.0995522269,-0.9956266465,-3.0282342409,-5.8442108863,-1.1195063818,-0.4003081311,-6.0437883279,-506.3562288318,-3.0795609762,-1.6909462631,-23.1860263791,-3.6670427771,-1.0069164185,-4.5001798287,-17.1198398117,-6.1868767608,0.8697344905,-25.6978112259,0.0675879728,-2.9427034124,-3.8754123718,4.6684846177,-1.4373983603,-3.9568175795,-13.1234794669,-4.6006735517,-1.6508748641,-1.1638088005,-2.3163964052,-1.4146871949,-0.8418214868,-0.80397965,-1.6924244405,101.9601813955,-3.9161329659,0.0079946449,-5.8181804338,-5.2053648817,-2.6092850549,-0.0944929336,-4.0980526555,3.8243201099,-0.6482412994,2.4518267851,0.1177815697,-1.5157727173,-16.4984646028,0.8815239142,-0.1136748556,-2.6491320515,-4.1198748258,0.4908562839,-4.313741944,1.1212529433,-0.8124706399,-0.6165209148,-2.0224173823,-20.9565576931,0.7988228166,-2.7431866715,-0.7784266703,-2.0249730939,119.5790375074,0.2410720865,0.030494896,-0.647114033,1.2619786708,-0.9851096097,6.2211378481,-0.0850208889,11.2704810073,4.5852420587,59.3962411216,7.1841529963,0.1644255619,12.6010542249,-4.533337729,-3.935602263,-0.4442186119,2.0199038901,-0.2679177124,0.0950407332,-0.0412918608,-3.5280614808,5.6986183403,-1.7666430947,-1.0334619154,-3.7992245954,1.6219901392,-2.6564641762,-0.9315137316,-2.0089246566,-0.5015751385,-1.281315899,7.2707410258,-1.6137442603,-1.8784345129,-2.0491059,-0.0448085228,-2.3989694115,-2.7828185876,2.17240312,-1.5549881095,-1.380626169,-2.340273198,-16.5659074878,-0.1957225131,0.1706203293,-6.1045461053,-3.2814256303,-6.3299784461,-61.744152477,-1.657701523,-3.9866125732,0.0858910424,-44.6077039186,4.7849221139,-3.5134045467,17.7590571261,-31.7111746145,-9.7077277221,2.0777403842,-1.7637916786,-3.8737953516,-0.5818731918,-9.6156772282,-1.664657108,1.0383540631,-1.8549844371,0.3443571936,-0.355679484,1.9487662104,9.5640716421,0.3772421975,41.2675618556,-2.4467093334,-6.2677370838,-2.1084591031,1.2077886635,0.649041251,-3.2263461152,-5.6877843047,-45.0244118868,-2.9178436464,13.8774825925,-0.67398583,-4.3325018379,-2.2188638207,-8.8787686039,2.1673964418,12.0338745808,4.0676739095,-75.4436435132,9.6450466815,-1.3387699179,-3.2519239851,-1.5750285039,-19.6792846282,-4.9378827601,-3.7884354359,-0.0893515517,-0.3491425051,-3.5537112273,-6.781629073,-0.0870660118,-11.0188012861,-1.9709543734,-4.4530391009,-0.9261076227,-12.4534608842,153.718846095,-2.7217164177,-16.4764276572,-13.6014985311,1.5785063974,8.3145467453,-10.724681754,-24.78572314,-0.2395444596,-3.6064884419,0.9690696559,-0.0866338821,-1.5967209533,-0.136078641,-31.8422376612,0.0706282419,-1.9388349088,-1.860075843,-1.4708890223,4.759224038,-13.3239677595,-5.6905824292,-5.2412795128,-1.4568177992,-1.975052011,-32.2206500099,5.0172266313,-59.1078432306,-0.798638584,-1.6447549194,-1.0616076819,-7.0426453484,-70.0107276242,-4.1059168265,-2.7572876972,-2.2137880386,-10.4612498659,-1.2405581061,-3.5148295369,49.0244068273,-52.3159510773,-3.259686473,22.9945198586,-3.6786757592,6.1115234272,-7.9198221731,-21.3950474075,-3.4507162492,12.1492783524,-120.0918802488,2.4878752697,0.6981777559
   2.7529787391,-29.7131773995,4.5630062406,-1.2796735528,-14.3710579619,-42.6465053568,-89.4934360974,1.2915690356,-2.1606420864,-4.5160051611,0.6890459068,-1.5449235681,-2.5946936002,-3.9899096636,0.4225450128,-0.3198420126,-0.2657594682,-2.4880302969,-1.5960701473,0.8650333368,-1.1817903543,-3.9743608322,-0.4192974898,-1.1197216683,0.0496729078,-3.5337359036,-23.8387359814,-0.6084073852,-0.5229027646,-0.8701078382,-15.2964953866,0.7242995145,-2.6424615658,2.0309163504,0.9638712802,-0.7956713847,-2.3760336868,-3.8211445945,-0.0035673327,0.2914607075,0.8543503561,1.2086410386,6.5022973407,-0.8248164484,-4.1625282027,-0.6962696346,-1.5400757914,-1.4215519873,-1.5511556756,-2.130945748,-0.4443938357,17.1152830276,-1.8139192191,1.7169507204,-1.1903690571,-6.6512810998,3.2059277191,0.4574509844,-2.0166503377,0.874631404,-0.4063615456,-0.2245284479,1.4037089084,-12.5613763205,-5.3069173119,0.4761225321,-0.3023070201,-4.8929618276,-10.6277652463,-25.0735504717,-0.8918123332,1.6509551652,-0.1110892847,0.7314818192,-1.3578121044,-6.761196075,1.3782950228,-16.4445073952,-5.3000066661,0.1207460947,3.3318571861,-1.947443972,-0.5199398876,-1.6653212483,-0.5548019319,-6.6956310238,0.3412008617,1.5344548013,57.5497377046,-3.1226267774,1.6491606375,-5.415216969,-1.7766790851,-2.0672425087,-8.4230642332,-3.600994914,-2.3951567587,-1.0528835507,32.5517788662,-2.8404237157,-5.5905502903,-17.3585998544,-6.931907699,1.642396943,0.9236911198,-0.9417304554,-0.9270157118,-2.5955453294,-1.4947960443,0.4673279436,0.8327117403,-1.1224014795,-15.9583446423,-0.5567371783,-5.0829373629,-1.8821135095,-39.8238684945,-1.279368002,-1.6195162158,-15.3376077756,-0.6064884615,-4.517652123,-43.4241326871,-1.1554484428,-308.8938176348,-2.4571866253,-1.5391070548,0.8323804704,-4.3292630098,0.1042343431,-0.5516746252,-5.0963574096,-2.5314793083,-2.7895654096,-0.2047101998,-10.0416560744,-1.6012702081,-2.7868251434,-1.9307848161,-1.410099397,-1.1623179334,-1.2243463335,-4.7648252137,-0.13828847,-2.1342075976,-4.630485497,-1.8242245825,-2.1729927401,-2.0992236666,-2.9129496707,13.0835826122,-3.2974818101,81.7461633014,7.9668716222,-19.8940748981,10.9373373757,19.3087829141,-5.0208266719,-3.0091509635,-7.9746681962,-3.3768962131,-3.3002297918,-1.9581727573,0.0525574289,4.6914331404,-1.6610303606,-1.8277341883,0.1363212832,-0.1997136553,-2.5812877287,3.4624027608,-0.9170618854,-1.3830020364,-1.0266659139,-0.4801634938,-0.3060835524,0.2734295112,-1.7533389671,1.1522267263,-0.5041803571,-4.9447579464,-0.8918850721,8.8162972413,-0.5531984106,2.5040761757,-0.1422604431,-3.1169645774,0.5961701275,-5.4498598373,-132.0965908106,-0.290626892,-1.9931979148,-11.001761204,-1.6982250219,-1.203352522,-0.9533767489,3.5433188796,-2.340124437,-0.7491694478,-30.9791608374,-22.0703179608,0.8259691893,-339.0650137061,15.642906105,-1.6872466749,-1.7041006246,-4.4487854633,-2.0407848661,-13.1148555275,-10.4492353828,-1.5413910477,-1.0262403525,4.3494294081,1.0135012431,-1.7819268749,-2.8384959838,0.2401694509,-0.981739257,0.071932539,0.1790538743,-1.3460123971,0.1264803319,-1.1215956735,-1.5307036484,1.001202933,1.75390119,-0.4866586482,2.0706142106,-22.8077553131,0.0779119829,3.0827924366,3.0989922307,-0.1122710252,0.0875742465,-2.5243255345,-0.1741928063,-0.1679421491,0.3875110147,-0.3139217638,0.489926447,0.1588422931,-0.8638301129,0.2862979966,-1.2235063036,-12.7798357804,-0.1041456495,-1.4911763112,0.7362737432,0.8592133465,-0.771930531,1.8842226737,-14.1514883675,-0.0770131172,-3.4742972718,-0.4510257577,-1.3838470268,-0.3587366391,-2.980758577,-2.7508215863,0.8047206716,0.3295668239,-0.8614051205,-0.690529298,0.7312655941,0.5560095834,2.7253671046,-0.2737050453,-0.1056864127,0.8428123386,-0.33462353,-0.1187147202,-0.578272872,1.6816963101,-2.9330406914,-0.0533604346,1.1234088653,-2.3514507706,1.6423110242,0.8932341767,11.7181059678,-0.0442825647,-0.8482174999,-0.3004668331,-3.4140199321,-0.1757501024,1.1742373611,0.2539971616,39.856463693,-0.7884514739,-0.1369870587,8.8873708046,0.0343296313,484.3344513518,7.3019700142,-0.3098405001,0.0243160325,0.6498966168,22.062576504,-2.123645586,-0.9201373061,-7.2564129309,-0.3011196273,-0.3374613847,-2.9987347803,6.8625042326,0.1187607282,0.7905087827,1.2924051176,0.2849054801,1.8059334126,-0.2551458365,-0.5034832872,0.7694499001,-0.2288397948,-2.7800316629,0.877658625,-0.7645152378,3.4082267801,-1.8320317131,0.5459592485,3.8255957455,-1.4996660181,-1.4830507993,0.1295569623,-1.5835982041,0.3377868708,-10.2546798037,0.0492057317,-0.1054950296,-1.8869386589,0.6234710969,-3.8426977996,-2.5056839461,-2.8168723636,-0.1689828126,-2.433708446,-1.9275142981,-0.4006336138,-0.4685476117,1.6609159041,-8.2474645646,-1.5561055889,-0.2516896271,-1.1861227697,-0.9763771384,-22.0194313645,-0.8955627665,-0.5433358106,-1.1855164468,0.3002117619,0.868096566,-23.7886307234,-5.3855078275,-0.4757488627,1.3199178659,-322.0110977966,-9.7926418707,-9.1371565398,-3.8214793067,1.1344256125,-0.0872577201,0.5207580594,-12.9617332871,0.4191820082,-0.2508146453,0.4228705906,16.3797751385,-1.910530169,-0.1100405502,0.3840726693,-0.7171511423,-4.7150200185,-0.5154524556,-0.9010558521,-2.5379007428,-0.8536280696,-0.9318793549,-7.7352755714,4.194091594,-1.27778967,2.7622820903,-1.7352443299,-0.4400748468,-0.2487051443,-8.2072586522,-1.3451998005,-1.2985679,-0.5304919077,0.1058391509,-1.0263020771,-0.1164120192,-70.232763574,1.628552422,-0.8599996703,-3.2847062362,-0.415051508,2.2952897531,-0.0866450714,-5.2213445309,-2.3151069354,-1.0712714883,-2.5271387097,-0.589237278,12.2410263446,-10.7752610515,-2.0045097547,-1.1301923734,-0.1758739443,5.5624575124,2.6788376525,2.0588089361,-0.4199361414,-1.8951721532,-1.4986422283,-0.5447725288,-1.9626335763,-1.2888912497,-2.7074651344,-0.4700668564,-16.9090352992,1.7825261345,-1.4702414898,-13.5347253833,-1.7234241417,-1.1270842556,-2.5409572175,-1.2358251302,-7.4784875227,0.3332431015,-0.724560941,-0.4351894811,-1.1060036978,-1.2280100421,-5.22853792,2.2028230147,0.0375161642,0.8443069062,-5.6941698941,-4.0548890465,-6.5235544273,-14.0169878258,1.1469393469,-0.1059705071,-1.7570744366,0.5866591598,-0.0848542323,3.5111020367,0.0436785416,-3.428302905,0.8065717196,-0.3040902858,-0.1560987479,-1.3267343313,-1.7302465611,1.1137162649,-49.862366936,-37.127883763,-6.0829930539,6.6876984184,-15.6823803693,2.6589793121,-0.135153115,-1.3422232753,-1.6294794887,-7.1536384769,-1.10008222,-0.8907219719,-17.2854161131,-2.0306354665,-0.7037119455,-0.6952118791,4.452485326,2.3947988216,-38.3807210264,-7.4467637517,3.0024976542,-0.8819649185,-0.7779376663,-1.0352992156,-1.5580532926,0.9934015314,-1.1915819403,8.2356308022,-3.6436129866,-0.0550513038,-1.5576687591,0.0085179966,-2.4778974361,1.6711860413,-4.0243724259,0.0120600718,-11.7941604505,15.0545685815,7.99741181,-4.6897831499,-6.5267484108,1.1632099233,4.1541278922,2.7011418858,32.0917773012,-18.4621977628,0.1621807363,-14.058186506,-0.0613589931,4.889542731,-32.1093145909,-11.5812883064,-0.2784945003,-1.3605521429,-2.9813620462,-0.8367299966,-0.2966526217,0.3495925448,-1.4406002989,-12.6491633228,-4.2664437062,-5.2766344141,-1.1174893152,-146.5455519448,-1.0878394385,-1.3294761777,-0.6860142754,-3.3227517953,0.9643518912,-1.3808117268,-1.484218578,-0.1467520458,-0.8164889983,-5.8800420703,-1.4386090528,-0.1250236146,3.1122561006,-3.1206085345,-2.8924554645,-18.4939697165,0.2916986264,-0.1571376913,-0.1871125353,-2.816258857,-1.6175401911,-0.2603363321,1.4151159996,-6.5538199488,-2.5747394212,-0.4083319047,-1.0985755569,-1.5823848557,-100.1948206212,-1.8774794877,-2.9126119895,-0.0058425823,-1.6407598509,-1.896915511,-0.9236606035,6.2916039585,11.4920616181,-14.5036882597,-46.133745759,5.17103966,-1.7758411786,-50.051792648,-13.3545880303,-4.4823110271,0.6376597701,-3.0562885412,-0.4490911786,0.0656193337,-0.2638041598,1.007625049,0.1273869506,-1.5244979969,-1.2829214972,-1.2573119888,-5.2330398957,-6.7422226137,-0.421982848,0.5762263716,-1.438244983,-0.7991200015,-1.528400191,3.1764872868,-0.245325639,1.7577896507,-0.5872446404,-1.4350615023,-0.4826488259,-7.7036638273,-0.9895382491,0.1061692559,-2.155376115,-7.3540423462,-0.2205470867,-0.7551875496,59.0519759532,1.666377973,0.8657641382,-0.8585719569,0.815710401,0.895823587,0.495704527,38.0951821926,-20.2181223292,-0.1177117188,-4.6651477631,3.4319085981,5.6117819594,3.3234033712,3.9639780256,0.9006764724,-0.7602398847,0.655140936,0.4196667611,2.0075078347,-0.4034897091,-1.657069323,-1.5254539551,-1.4685860404,0.9133274807,-1.3464571058,5.5068411165,0.2872984723,-9.3536835686,-2.4862460964,2.5600879215,-11.0346192175,-2.7384604623,-0.0179494436,1.5814202606,-0.724533644,-17.1292395618,-0.645069598,0.8330313789,-9.9476766588,0.7645948267,-0.2324139876,-2.3008376115,0.0156136209,-0.3890975324,0.1285106784,-26.2406352753,-3.3368677137,-3.0504268162,-34.1981347357,-0.0275799677,-0.5609704395,-1.1599534971,-0.9113971185,-4.1905959552,-91.4139353615,-0.9394730491,-9.0427411915,-0.142837835,-1.9095085103,-1.1308133064,4.4767846068,3.2021174211,-0.440356255,9.8417925554,-140.7949671262,2.855476163,0.3887439774,-2.7967438345,-1.0228593839,-12.8048469487,-5.9972387519,-1.2289397224,-0.8006416815,-1.4187967353,-1.2640477239,4.2008132709,-4.7300926431,-1.011161085,-0.6174542225,-0.7264378511,-1.1402574052,9.4327650677,-0.9766684732,6.1159684533,-0.1125381064,0.304389801,-3.9937394868,-0.4586401206,-1.0335178749,-0.6676316574,2.4552077882,-1.8533677629,-9.1878765745,-1.7046912911,-2.2469959098,-3.644613306,-8.9058594569,-3.779083631,0.370379922,-6.6147930424,9.4760882815,-12.4392093145,0.0952444196,-7.5260818401,-2.8806780679,-2.1972553371,0.3876211484,-37.4666729597,-78.3489866672,0.1285023141,1.0829752429,6.2181242268,-5.2697444421,6.291854569,-4.3628661073,-3.0735406256,-0.2693782418,0.6118310354,-9.3760426877,-4.5791307545,-7.0219940732,-2.1147564299,-6.0382310268,-2.1240230735,1.667983291,-0.6559496534,-2.1628044161,1.291724211,-1.1847553726,-0.6034630268,0.433632514,-0.4175052506,-0.5517738783,-1.3960149784,-0.6856867201,0.0703674,-1.5628705384,0.8601600629,1.1272339617,-0.0335494482,-1.245058227,0.3914896121,-1.811469981,-0.6555697959,0.5352398102,1.4779606653,-0.1280410031,0.7384035198,-1.3802624852,0.2081213082,1.3165195886,0.9182672078,-0.0735963976,0.9031275999,-0.7458597064,-15.9869324923,-0.9172990655,0.215440627,0.4807887919,-0.042686307,1.2107438368,-2.8114268177,-18.6778471623,1.1654225149,-4.4040637433,0.9419774377,0.2618832225,0.092165916,-0.1157836984,1.2418511483,-1.0176118885,0.3562687857,-1.7579765776,0.8159183442,-0.172361088,-1.2176129616,0.0134047361,-0.76779964,-0.6220603082,0.617422428,-1.6206387721,0.6728298646,-1.3951630753,0.4061377755,0.2814719969,0.8440823908,-0.9814173391,-1.3393454958,-1.7521662027,-0.3326997488,-1.1273535643,-1.3156840968,0.1500084181,-2.4636537719,-0.8881180674,-0.6116529383,0.790649968,0.7912290711,1.6472708639,0.6902705109,0.0134941113,1.1664677309,-0.9139906741,-2.1113332106,-0.1348275222,-0.1892536159,-0.5532013424,-0.2400480395,-2.4441722955,1.1735444265,0.739301627,0.6053795868,4.9280857829,-2.9508292794,-251.4030819092,0.3943318041,-0.9500239707,-1.0145982579,-0.8976203027,-1.065371411,-0.5729188293,0.6126726015,-0.5719765704,-0.0663023377,0.322851543,3.8216056789,0.1924049067,2.1798861467,3.4178265303,-3.7253039811,-5.8072719883,6.1076912544,2.7202398832,-2.4301332594,-1.2491420018,-2.2066615767,-2.1660521577,-10.0034470152,-2.6155868531,-3.3159548011,-1.5677642054,-0.8714997826,-66.1639782581,1.8889771596,-5.2159628364,5.7384108462,0.4028099405,-2.3887947952,-3.385180247,-2.0338782539,-4.7261428591,-3.6348514731,-0.0064966525,-2.0541946998,-1.4665308632,-2.2619952736,-25.5390254582,0.1208912582,-2.0497355757,-0.5228041014,1.5298300166,-1.8117674861,-0.2440857003,5.7817871868,-2.0657256948,18.4094561736,-13.269784211,-3.503645189,0.2454221057,2.0618755846,-0.1980715568,-1.3628106246,-2.9990009474,-0.4701000399,-3.2373779599,-0.8756616219,-0.8245280603,4.1769825829,-2.472005393,-0.898406001,-2.3874313689,4.0562090841,0.7579336493,-0.8047590415,-1.7231087456,2.2056247071,-0.9797472494,-2.2099542934,-1.4371369161,0.745829111,-1.0548916523,-18.7007367801,4.6330521086,-3.7449437518,0.4944204595,3.0925895586,-0.2631345829,-2.2874545256,-0.1878016882,-35.71500748,-0.9485980936,-5.2832843284,-49.5368074758,-5.2276310059,-107.526650433,-13.1095604208,-1.4048525812,6.0602858481,-1.0660194924,-19.8287854675,-12.3894145182,-0.3587875609,-7.0868833311,1.4314409203,3.9058688349,-7.0291787815,-4.0265840365,-1.0559301907,-1.7022256104,-0.0830340575,-2.515699478,-4.021501732,-2.8618845794,0.2815958319,-1.8608943811,-2.6765407236,-0.2091693082,-0.5602553512,-38.9862919188,-6.1278378781,-2.3986926381,-1.4973879171,-1.7347652178,3.8317370997,-3.0825395753,-4.9247437286,-3.0879536845,-1.2380693883,-2.4096053093,-1.8792344548,-2.1463061861,5.0208889654,-2.4820301234,-4.3957763757,-1.2469890183,2.1786738864,-4.7942993569,7.6181686632,-1.8994121422,-0.5911996294,1.2677987396,3.0026617821,-0.6284899327,-5.1453172992,-1.491218955,-2.4773262112,-2.5741186713,-22.7324925293,-3.0249660495,-1.89503221,-0.7561915848,-4.8066232272,-2.5495399307,-1.8705542329,-13.2989011966,2.5527134722,-31.414226673,-9.9873231523,34.4166011945,-5.4008941285,-2.5159919637,-14.8674977235,-1.9840769966,-1.8470828233,1.4795463537,-3.9727171264,-1.5675577473,-3.0172188545,7.9006503333,3.1587327089,-1.5306113698,-0.314217072,-3.9012525904,-0.8341889187,-5.6839402919,2.1134201278,1.3980577321,-2.0930699348,-2.2222111204,-1.1123943415,-25.6333104666,-3.1864141931,2.9022682157,-8.9680692921,-0.0617440369,-4.4389739127,1.6484503058,-3.6282512747,-1.1894106642,-3.5016121005,9.1824078632,0.4473889468,-2.5420957778,5.1279470737,-128.5764994891,5.948553096,-2.9465666465,-2.2998419358,-2.9653503739,-2.571225736,-18.1179209766,-14.4201456756,0.7395887098,5.7513959745,2.697454387,0.5868722444,38.0295215076,7.697793156,-1.5288915478,-1.3366701953,-5.5384491647,0.322157716,-0.8419715179,1.7132473554,-2.8783191442,0.506263672,-2.2888843351,8.5453550798,-3.0763468391,-2.9923716124,1.4494890052,-4.6168978465,0.0712493284,1.4668023456,-2.8749570012,-0.0607870105,-0.028304405,-1.2897870615,0.0268752052,-45.2004692236,0.0295065172,1.2464880858,-1.9958405137,0.3307682444,-0.9861623606,-2.6764964512,-1.2624558468,-0.2124466716,-14.8877487388,-0.3952009605,-0.8736438833,0.2419284749,-4.6392403054,-0.1348070824,-0.9171019526,-2.5892994141,0.1057324493,-0.79766962,-3.0558549552,-0.0600697786,0.0322270522,-1.1897984907,3.5927750283,0.191871811,-0.3274376292,-1.4004385318,-0.593528515,-36.3330247823,-1.1152629533,-12.9101791121,-1.8831872318,-5.2916949604,-5.4392551756,0.5169920677,-1.2738228649,-1.3614021735,-0.3083936623,-0.395354984,-0.1874915052,-9.0888453797,-1.1696350265,0.8681299203,-0.6143083973,0.6867089782,-0.4925878936,-6.4358659466,-3.4549345179,-5.0659055382,0.1622251212,-0.0245162935,-6.7908648225,4.6709274733,-0.7313293964,-11.2877174765,0.8955172464,-0.8633594577,-2.2029776109,-5.6961356504,0.48623063,-1.0693859209,-9.4140902076,-8.5060681184,0.6519867239,-1.1154703245,-13.9316337199,-127.2172167838,-11.0056733727,-20.3764370882,-0.5233682229,0.5640964668,-1.6771610428,4.7643687995,0.858392077,-1.2643069695,-3.1992376408,-1.6364110112,-5.6081263264,-41.7748942291,-0.9458758097,0.3936852006,-0.9851626607,-0.3973280569,0.6264513122,-1.2160761779,-1.986990632,-0.5518426013,-4.0100899922,0.0227029858,-0.6498889282,0.4825936942,0.5871552008,3.2434340571,-3.1107373364,-2.3133683173,9.4707442622,-18.8447097616,-1.294818511,-4.1419364902,-1.9499531077,-0.3339768077,-2.0160085969,-1.1067832896,-3.0846694711,3.441756724,1.0406454544,2.1503103304,3.651211161,-8.0203266342,-12.4498055136,-34.4203711059,-7.2832858256,-7.562163785,-0.1310698007,-1.7341782792,-3.5449487098,-2.38106982,1.3282352967,-8.6884837006,-7.5219575464,-0.2688828109,-0.3717818193,-1.6294394694,-0.0131788845,-20.4803876548,-2.4809571577,1.3134176718,-13.1159058763,-0.6228015206,36.2208450009,-27.1591278532,-32.887767949,-21.401898492,17.9618616558,-7.1269601516,-9.8362705554,-6.3878450832,0.5182530059,-8.4721255712,-1.1144223399,-0.9551908044,-0.1817856722,-2.8493415409,-0.533901088,0.480782283,-1.3608919017,4.3313579725,3.3925682556,6.0181628599,3.6189639545,-1.0553134631,-0.57711753,-0.6154056044,-0.5702635425,-0.1932516697,-2.6153589591,10.0357690075,-1.9701917055,-9.5226980475,3.3123824181,0.6747897209,-7.7198897108,0.9584543162,-0.4838358235,1.3108908888,-11.3088401265,21.0266183465,-16.8259769244,-3.7512525759,15.6600648377,-1.6182328213,-0.2293831064,-0.663172239,-4.4970051543,-19.5147565412,-0.7921463124,0.2299134098,-0.7383923336,-26.9996390572,-16.4689238344,23.1264526847,-5.4609419158,-0.5489470036,0.1352342188,-4.4375228466,-2.3831400509,-14.1926596304,-0.6320410179,-0.4280135238,18.8154143055,2.1527374574,-0.245588361,17.3057026053,0.4362301749,-1.8216554215,-2.4618183723,4.5798843388,-6.1216123776,-0.9620283027,-0.6161684843,-2.4007726622,0.5860924451,0.7375131892,-1.9025675,-1.6069738157,1.6584866924,-1.0668647284,1.6817392152,68.6910504111,-20.7952569355,-3.233414511,-33.0671778102,-4.9640075974,-11.6825402078,2.4559950784,-0.7882654373,1.937047737,-0.6462004203,1.9379365047,-3.3416085123,-3.1029819141,23.2453452904,-0.6401982957,-4.0931555065,0.0817809541,-1.8770826437,0.1671979526,2.7253838566,11.6495939224,-1.2376820819,32.6116330782,-25.6909197253,-7.8274071165,-4.2976389033,23.1464812468,-10.2714584576,-3.537514926,-4.791806293,-1.187926672,-6.1630566875,0.0157403948,-2.0097905207,-6.4867526608,0.2646993273,-1.8759591382,-0.0690762078,-1.2507238095,1.3307931897,9.3003849662,3.8045019774,-1.3505067265,-0.1382051866,-0.1995644786,-22.110048819,-2.1996657563,-1.5790557338,-0.8995248301,10.5105118673,0.1829601663,-2.1464443303,16.0361213386,-0.602280515,-6.1827496313,0.875004855,-87.8129874377,0.4751421642,-3.4305199066,4.2117725075,-11.5619850704,1.3753820521,2.3121441819,-0.6930287044,-6.3908303069,-1.1778861647,-2.0299710894,-4.2789029313,-4.8425141529,-11.8326492709,-4.6631427166,-20.9347090639,-2.2643889977,3.5615567189,-3.3400035861,-1.380081126,3.7974631776,-3.8103844469,-1.1405150588,-4.2493488185,0.3239406367,-0.438727266,10.8144478923,0.2833019403,-1.3622915457,3.8651115721,-15.8416304224,1.5302924782,-1.1104306188,-2.1496756142,-1.3038967514,0.1870963587,6.8863807295,-0.1593863445,-1.0608625876,1.3604045921,-0.5892746321,7.298405949,-1.8789687139,-0.5110140661,-3.7387688549,2.1880823806,-15.1496236528,1.0098775411,-0.2416595946,0.5304085332,0.1897599175,-0.253059506,-7.4082434761,2.4237709902,-0.8395083766,1.2295782296,-0.1942123687,-0.3098953271,4.5228528708,-1.2396034304,-2.0722446631,-0.9794494432,0.0747830621,-0.6263560296,-0.9567150145,28.162021415,-2.7073272717,-14.6068603275,-15.3882021773,-73.467454003,-0.574229651,-35.2642287183,1.0786946515,-0.3380728198,-1.2048504174,-0.187228578,0.8700061695,-0.2394307384,-1.3583836773,0.9438248409,-0.3065421695,-0.3390816759,0.61239638,-0.295572184,-2.6724747536,-3.1282697449,-0.246344742,-2.0170519097,-0.7001894537,0.1067032274,-1.760668456,9.2190891154,-0.2635508149,2.1014299193,-3.4330296722,0.5264956746,-0.1250317166,-0.2592960383,0.1404086663,1.1791252616,-0.8358921893,1.8526219957,0.3635398021,-0.5268908261,-8.9022069707,0.1229433503,1.4976391091,1.8970490948,-1.1614996826,0.7629182157,-1.4844826535,13.9383890566,-1.9091164115,-3.4859443074,-8.5028157732,-19.2030143292,-54.013089082,-43.6023457278,0.2607953108,-0.0689164998,-0.4542681539,-1.5951526879,-0.3535873253,-2.4858629183,0.3741496095,0.803975785,-1.7863113917,-2.097456088,-12.5132797812,0.105315924,1.8708969384,-1.1928935349,-2.9535189719,-0.5145259072,-0.0291719843,2.5895662209,0.3508654846,-1.3671946389,5.3059244828,-0.3824334366,-0.8256970095,-1.0343484402,1.706593763,4.1435413955,0.2685333255,0.0005959502,-15.4159771582,0.78192497,5.2605233271,0.6444871374,-2.7836291344,-0.4319492086,0.5081677771,0.114969171,-1.1782121442,-0.5259873537,-0.6542638673,-1.8044940122,0.0120100326,-54.5560117999,-0.1215380032,-2.4931288122,-0.6488892904,-2.4110128676,-0.0965325937,1.2463223395,211.6144818605,1.2613085963,8.4551910685,-1.3591105293,-0.0349892864,2.2794403787,-2.4224329887,-6.8371941324,-1.6591516144,-0.015996139,-2.7541855998,-1.096115821,-1.3742429797,-1.0562299327,6.4796491646,0.6158027575,-0.5997321448,1.0326959368,-0.2508080175,-2.3253345638,1.2249493139,0.5220385959,-0.6240605823,-1.0782456666,0.4675404971,-2.6709035167,4.7173319194,0.1223011985,-7.6797349253,-2.3206313022,-0.8954411799,-1.8320983417,-41.0605292574,-1.5040721943,3.0801094112,-0.9623579556,-7.3399637081,-0.5578734133,0.0162324524,-2.970081247,0.6286019657,1.7329182018,0.1684567153,0.0750673683,-0.0546262874,-0.0369746654,-19.8337587989,-7.4779364178,1.2545632368,-4.2344340262,-2.6770030908,0.3830035887,-35.6933011133,4.739565156,-0.8030880171,0.2296453749,-1.30892761,0.7114904008,5.3940774261,-0.5063170334,-0.8781360369,-2.4180421008,-1.3517649501,2.7563365483,-0.345979403,1.5565543217,0.1429226055,34.935728026,1.5651314021,0.1186924199,9.6275600524,0.0009282575,-0.7142291819,-1.9504257329,0.2907352969,0.1100431849,-0.77125457,-4.4811490732,2.1625185955,-0.5988161959,-0.0381397584,-0.5708505933,7.7137398447,8.5535026319,4.6758635818,-1.1908384069,-0.7154662894,-0.2502230155,3.6936122097,0.9180840324,-1.6741599499,-0.4786623641,0.3115386162,-0.1869913373,-8.3413885304,0.7562942535,1.2656938099,0.6959511124,0.5610472746,-0.08168283,-1.1697653476,3.2081708501,4.1474561076,-9.0308554533,1.0201793897,5.1275545942,6.5925643337,1.8677346924,-0.8219093672,0.7756766542,19.7177062241,2.927403732,0.0716062233,0.4457108491,-0.3716102338,18.3527380242,7.8139870839,-0.460279151,-0.1613363967,0.9810689474,1.4913947005,-6.6286312123,0.7881760946,142.6592531119,0.9897208176,-0.4713109003,12.4685689314,-2.1576980603,-0.361538198,18.9532445829,1.6154209717,-0.4879160378,-0.7320322719,-3.2167389343,0.7104443184,0.8024699834,0.3847199881,0.101322494,0.6292434963,-0.1990731862,12.2115906339,3.7854193982,0.1569284563,-1.1831030234,0.7658063916,1.1495853099,2.4064942764,-7.4328725868,0.3252365476,-0.3932024772,-22.4999179481,-0.6601533371,10.6654433875,51.2255878158,7.9507370948,-1.4714840202,-0.721937654,1.1993316614,-1.3625981391,3.1195952164,-0.4291648031,0.4527994463,0.1517874933,-0.4102405643,0.3099238249,-0.5336628889,-0.0460185642,-0.6458437423,-0.7880983426,-0.2815269407,14.3759657129,0.1286007586,1.2791129583,-0.7503989023,-0.4886546352,-0.7716833506,2.9947762226,0.8126846253,-2.8570451239,12.1197117862,0.3789026688,0.255505373,2.1435651558,-0.4116705361,0.2156744559,-1.5472648427,0.3299635256,1.1846081376,0.6384333147,4.8184977407,-0.8222015376,0.5089046899,0.394239066,-0.8795987558,-0.6499090711,-0.8460355955,0.5718081049,-0.1061480847,-0.0373287435,-0.7194425307,0.0407203523,0.3856334291,-7.2616545329,1.1091549285,13.7700246429,-1.0379649682,-3.1619425452,-2.1969343128,-2.57596797,-3.6354966459,-0.7086440311,0.4086341671,-1.3469553099,-1.2069963469,0.6280001493,0.2028365932,-0.2727516289,0.9877392798,-0.3299376788,0.5875513623,-2.1269445193,-1.4502790973,4.5883550606,1.1854938527,-3.5317383236,0.0080245473,-0.0562670087,0.2474212934,-7.4161722769,0.5921013178,-0.0875891775,-2.3251737428,0.0418694919,-0.3232486638,5.3192272368,0.2785508762,-2.9439134575,-0.286709654,-0.0723228141,-0.9138818914,0.8217833687,11.1294454604,-1.7039062614,3.1786089623,0.0614088697,-0.7336736485,-1.4209786483,-0.8015361814,-1.5916652882,-1.1646742125,-0.8737526904,-0.6854374504,5.7416759615,4.4670784633,8.0196971589,4.8927900297,0.3943180542,-0.0678056847,2.5132381149,-0.3259648597,5.778750727,0.6043312218,1.2406017482,1.5354007318,-0.5774712361,-0.0392931926,0.7387843659,-3.8457732795,0.8843616902,-2.601233153,0.9070264849,0.9663474623,0.047130566,0.5929958144,-1.1330430101,1.6772215762,0.1899453435,1.5900804598,0.2266388492,0.360050305,4.1131828001,-0.0632119565,0.7368789729,-0.8154674189,0.9653120383,-3.4491732235,-1.4133705347,-0.5413987287,0.0023249933,1.1709294244,0.3843494547,0.9217203324,-1.6617856048,-0.2586942723,0.3037926841,-0.7799186785,-142.9571002972,0.1950183343,-0.0340398899,0.7964148545,-0.7797915043,0.5319282259,-1.1902010462,-158.0343460131,0.8933583129,-36.4100610674,-90.3094915982,-1.025557255,-0.7123357,-1.0919246364,-2.7207544423,-0.2503593175,-0.6477885795,-4.8994783734,-1.4060075411,1.1549275886,0.6531223404,-1.3740201007,-0.9415191162,-0.287355502,-0.2936882292,0.1362296865,0.9779537224,-2.3713558657,2.8829204349,0.1209685831,-0.0432432332,0.4270384107,-1.3047253863,0.7311296586,0.3113740764,-9.9159252119,0.5113908138,1.8344783067,-0.5210510143,22.7663173687,0.3096580226,1.9102612698,1.1412402775,-0.279320653,0.652549735,-0.4495921541,3.6457994731,193.9912829248,0.3895754147,0.688792015,-0.3809188741,0.2093009141,0.1826322792,7.8417797987,-5.0195214861,0.1824884365,10.1405396225,-1.8711970251,6.8041551346,2.1770039316,0.9636975475,0.1937684951,0.1740565892,0.0621722741,0.0881769216,-0.4327131791,0.7799127755,-2.4408414355,0.0120334237,0.7055111013,-3.1128008896,-0.0710010346,0.0535507729,0.719070085,0.2778429261,-0.5974211779,-0.407124602,-0.9840138413,-0.9076163693,0.9927742145,0.6264165556,-0.8980717608,-7.4546571003,-0.4006096703,0.0300131394,0.3840680173,1.7803233591,-0.4644975258,0.65887379,-2.0616459399,-0.5227902956,-0.2861886846,-1.2748795148,0.207893225,-1.4134049515,1.7252436929,0.0347153249,-0.1860549743,-0.8046496348,0.0474272494,-0.1177264357,3.8327430989,0.4279563934,0.7888746073,0.5929802091,-1.1909206609,0.022848953,-7.4457312312,-1.0529614339,0.4679449555,4.8324421299,-0.4407927952,-1.8602307915,0.7750223766,-1.9337435483,-0.3792401236,-1.0978718384,0.4762238024,-1.8574438454,-0.5885398565,-0.8127758765,-0.6568013624,1.2230523302,-0.0841541165,-0.387904603,-0.9390089045,-0.9456318575,-0.6918808115,3.495252941,0.3392712846,-0.9605256969,-1.3185152336,0.8090618214,0.1605237002,0.9132881164,-0.9281823312,1.1932995567,-1.3815254075,0.2778914045,-1.331255469,-2.3245109097,0.2272271384,-1.3062309959,-0.1810530393,-1.2555046183,0.2484450998,-0.4201203062,-4.1800158238,0.5332380559,-0.5245242111,-0.8623747058,0.6555590002,1.1855054622,-0.1031440511,-1.3311444288,-0.1444461068,0.2789034297,0.4768363461,4.1106022152,5.6662078307,0.3988529125,-0.9223369787,-0.4563557644,0.0913017195,2.9788787338,0.7671237403,3.0960115636,0.5412649132,0.4362112584,-0.09337049,-2.1104865277,-1.2427688822,-0.3013417563,-3.8978995354,0.2585411331,0.1822760838,-2.3788979908,0.2619513915,-2.1628766665,-0.6768980222,2.4635221049,-0.3934265519,0.1339776416,-21.2507650942,-1.0192899843,-0.0071383827,0.9268179679,0.8745333937,-0.766066468,-2.6414609642,-0.7903307181,-1.2396373994,-1.7333528268,-1.4746950509,-0.5544103636,-0.5780049851,2.1255199746,-1.9219712522,-0.9330711532,-0.6830619706,-0.6608326064,-2.2299215432,0.6351674957,-0.1308170864,-0.3624695318,0.4630876982,-1.5543837659,-0.5364897325,-1.882315344,9.2765894672,1.6339076661,11.9221163545,-37.1216493869,-1.789315771,-3.3209265594,-18.6383948649,0.0558442324,-2.9191440637,-0.1049464881,-1.4438609303,0.2276517904,-0.4747803926,-1.0300031905,-3.9027942403,-0.1603010651,-0.5392295543,-1.2727453676,0.9038722121,2.3420446789,-0.5184515946,-0.5732298798,2.2262999236,-0.1790811534,0.1436448634,-2.8384191558,-0.1267177464,-2.0966252572,-0.0842833359,1.5808738275,0.1957272457,-0.5722142579,-6.0247062585,-1.4410926075,-0.5224148544,-0.1375794668,5.4193732791,0.5783918176,0.4793949581,1.8679772466,1.8446199049,0.0552761226,-0.5353036036,0.0414238079,1.2396679639,-0.8903112061,-30.6955445846,-4.8639619037,1.0752844871,-2.3931789352,5.2672063823,4.8789116954,-8.3943766171,-0.4868021573,0.1042101733,-0.0056212644,5.0944563263,1.3686412286,3.8619330197,0.3649367738,-0.0515960731,-2.3756507953,-0.7265944018,-3.0474634268,-1.3171355058,-1.8003674973,-0.2114055026,-3.7775094515,1.8206135341,6.9477720923,-7.2165120325,0.5564535106,1.2086064002,-5.4346303517,16.2455313018,-1.5840259506,1.2461518954,-0.2464624703,-2.3786336481,1.8940460973
