encog,BasicNetwork,java,3.4.0,1,1667683455146
[BASIC]
[BASIC:PARAMS]
[BASIC:NETWORK]
beginTraining=0
connectionLimit=0
contextTargetOffset=0,0,0,0
contextTargetSize=0,0,0,0
endTraining=3
hasContext=f
inputCount=784
layerCounts=9,75,101,785
layerFeedCounts=9,75,100,784
layerContextCount=0,0,0,0
layerIndex=0,9,84,185
output=0,0,0,0,0,0,0,0,0,0,0,0,0,0,0,0,0,0,0,0,0,0,0,0,0,0,0,0,0,0,0,0,0,0,0,0,0,0,0,0,0,0,0,0,0,0,0,0,0,0,0,0,0,0,0,0,0,0,0,0,0,0,0,0,0,0,0,0,0,0,0,0,0,0,0,0,0,0,0,0,0,0,0,0,0,0,0,0,0,0,0,0,0,0,0,0,0,0,0,0,0,0,0,0,0,0,0,0,0,0,0,0,0,0,0,0,0,0,0,0,0,0,0,0,0,0,0,0,0,0,0,0,0,0,0,0,0,0,0,0,0,0,0,0,0,0,0,0,0,0,0,0,0,0,0,0,0,0,0,0,0,0,0,0,0,0,0,0,0,0,0,0,0,0,0,0,0,0,0,0,0,0,0,0,1,0,0,0,0,0,0,0,0,0,0,0,0,0,0,0,0,0,0,0,0,0,0,0,0,0,0,0,0,0,0,0,0,0,0,0,0,0,0,0,0,0,0,0,0,0,0,0,0,0,0,0,0,0,0,0,0,0,0,0,0,0,0,0,0,0,0,0,0,0,0,0,0,0,0,0,0,0,0,0,0,0,0,0,0,0,0,0,0,0,0,0,0,0,0,0,0,0,0,0,0,0,0,0,0,0,0,0,0,0,0,0,0,0,0,0,0,0,0,0,0,0,0,0,0,0,0,0,0,0,0,0,0,0,0,0,0,0,0,0,0,0,0,0,0,0,0,0,0,0,0,0,0,0,0,0,0,0,0,0,0,0,0,0,0,0,0,0,0,0,0,0,0,0,0,0,0,0,0,0,0,0,0,0,0,0,0,0,0,0,0,0,0,0,0,0,0,0,0,0,0,0,0,0,0,0,0,0,0,0,0,0,0,0,0,0,0,0,0,0,0,0,0,0,0,0,0,0,0,0,0,0,0,0,0,0,0,0,0,0,0,0,0,0,0,0,0,0,0,0,0,0,0,0,0,0,0,0,0,0,0,0,0,0,0,0,0,0,0,0,0,0,0,0,0,0,0,0,0,0,0,0,0,0,0,0,0,0,0,0,0,0,0,0,0,0,0,0,0,0,0,0,0,0,0,0,0,0,0,0,0,0,0,0,0,0,0,0,0,0,0,0,0,0,0,0,0,0,0,0,0,0,0,0,0,0,0,0,0,0,0,0,0,0,0,0,0,0,0,0,0,0,0,0,0,0,0,0,0,0,0,0,0,0,0,0,0,0,0,0,0,0,0,0,0,0,0,0,0,0,0,0,0,0,0,0,0,0,0,0,0,0,0,0,0,0,0,0,0,0,0,0,0,0,0,0,0,0,0,0,0,0,0,0,0,0,0,0,0,0,0,0,0,0,0,0,0,0,0,0,0,0,0,0,0,0,0,0,0,0,0,0,0,0,0,0,0,0,0,0,0,0,0,0,0,0,0,0,0,0,0,0,0,0,0,0,0,0,0,0,0,0,0,0,0,0,0,0,0,0,0,0,0,0,0,0,0,0,0,0,0,0,0,0,0,0,0,0,0,0,0,0,0,0,0,0,0,0,0,0,0,0,0,0,0,0,0,0,0,0,0,0,0,0,0,0,0,0,0,0,0,0,0,0,0,0,0,0,0,0,0,0,0,0,0,0,0,0,0,0,0,0,0,0,0,0,0,0,0,0,0,0,0,0,0,0,0,0,0,0,0,0,0,0,0,0,0,0,0,0,0,0,0,0,0,0,0,0,0,0,0,0,0,0,0,0,0,0,0,0,0,0,0,0,0,0,0,0,0,0,0,0,0,0,0,0,0,0,0,0,0,0,0,0,0,0,0,0,0,0,0,0,0,0,0,0,0,0,0,0,0,0,0,0,0,0,0,0,0,0,0,0,0,0,0,0,0,0,0,0,0,0,0,0,0,0,0,0,0,0,0,0,0,0,0,0,0,0,0,0,0,0,0,0,0,0,0,0,0,0,0,0,0,0,0,0,0,0,0,0,0,0,0,0,0,0,0,0,0,0,0,0,0,0,0,0,0,0,0,0,0,0,0,0,0,0,0,0,0,0,0,0,0,0,0,0,0,0,0,0,0,0,0,0,0,0,0,0,0,0,0,0,0,0,0,0,0,0,0,0,0,0,0,0,0,0,0,0,0,0,0,0,0,0,0,0,0,0,0,0,0,0,0,0,0,1
outputCount=9
weightIndex=0,675,8250,86750
weights=##0
##double#86750
   -0.0715686417,-0.0610704426,-0.0436782586,0.1047053707,0.0041204799,0.2192499799,-0.027219727,-0.2846667781,0.0219966127,-0.0054013904,-0.1771116156,-0.1564810996,0.0814179186,0.1874927602,0.2745812742,0.0734841109,0.0853325056,-0.114798605,0.0299941031,-0.1014913529,0.7518706917,0.1163331318,-0.0906039679,-0.0757776389,-0.2193106227,-0.1826155208,0.0535736645,0.6436880444,0.0219740729,-0.0234018804,-0.0102215647,-0.0714234934,0.0072807469,0.1655784886,0.094917382,-0.0957401368,0.0391613491,-0.80338341,-0.0903810303,-0.0085727556,0.0593173247,-0.3757191537,-0.2861082254,-0.2062259203,0.0363119138,-0.10931081,0.0912008176,0.2686021669,-0.0118248059,-0.0885778127,-0.1342493447,0.0123211323,0.0139901845,0.0790349585,0.0261493708,0.0744651296,0.2981107397,-0.0421244531,0.0842628803,-0.2383913979,0.1232134106,0.4396583843,-0.256497506,0.0664460192,0.0469267968,-0.1361794723,-0.0353893744,-0.0593482869,-0.1301318804,0.0397181508,0.1189746194,0.0723035674,0.0424238322,-0.1313408705,-0.002966651,-0.1850638122,0.0632667179,-0.0694052506,-0.041650185,0.1844529783,-0.2430804887,0.1174626526,-0.1407639907,-0.0840028122,-0.0990577206,0.3768698248,-0.0840995007,0.1086309431,0.0222204741,-0.3234324537,-0.0111308786,-0.0418511235,-0.1540558206,-0.0733198215,0.0780623448,0.2521463373,0.1095363494,1.2418150856,-0.0481752287,-0.2382571104,-0.3719375114,-0.0712915024,0.5842550194,0.1345516038,-0.012640156,0.0038564505,0.0283418595,0.4266672068,0.3524335391,0.029707596,-0.1358750609,-0.0092353844,0.1748319676,0.0539368828,-0.000565896,0.1027185456,0.1302919816,-0.4544338276,-0.0657132274,-0.0097290152,0.4017548692,-0.2434563498,-0.0862030027,-0.0231440483,0.0085697796,0.305500753,-0.1091577837,-0.1208363932,0.1709305844,-0.1627913312,0.0153051029,-0.2689154613,-0.1390620254,-0.0086677192,0.1035625011,-0.0115051799,-0.3971662169,0.1526572788,-0.1363649518,-0.0960022454,-0.1002219094,0.0191004199,0.0424553129,-0.0849679467,0.0197788263,-0.0929457474,-0.081954709,0.0809493563,0.3264002868,0.0531979525,0.0227694797,0.0363172949,-0.1706655198,-0.0419512256,0.1182318924,-0.128820469,-0.0972691141,-0.4653072655,-0.0486834049,-0.0290646624,-0.3791553696,-0.1032535329,0.0911470189,0.011839876,0.1424571836,-0.0732568428,-0.0640161837,-0.0564430714,-0.0104563813,-0.0389197871,0.1958450579,0.0201046669,-0.1238455821,0.2382108467,0.099869369,0.0692159097,-0.1332649601,0.2861446401,-0.0502321964,-0.2097194478,0.047871937,0.0204417298,-0.0125306833,-0.096622109,0.0753578886,0.0820022035,-0.036515277,-0.1802440746,-0.0490600118,0.0573445509,0.0625440263,0.1605098294,0.2261710399,1.0492037019,0.1015285427,0.2670828385,-0.0916387774,-0.0518414753,0.1177314278,-0.1585958034,0.2060880832,0.2114112436,0.002348205,0.1584852734,-0.1094252923,0.0986724241,-0.1705421056,0.4990343007,0.0284837525,-0.0967309482,0.006046324,-0.1747855144,0.1253421099,-0.1428573077,-0.0920095725,0.1610268657,0.055181165,0.0860176957,0.031012635,0.0068861285,0.1212686901,-0.3307760576,-0.1415864836,-0.9160071116,0.0292249577,0.02357352,0.0284332975,-0.0307371917,-0.0650510017,-0.2545472642,0.0437060678,0.0292651228,-0.1093367391,-0.0157228163,0.1553978075,0.5907975778,-0.1757914085,0.0918379218,2.7898793379,0.1983242041,0.0100005304,0.240891427,0.0129272495,0.062923475,0.1049265699,-0.1535817526,-0.7819482573,0.0329101952,-0.0243519378,-0.2741064232,0.2685851544,-0.0513797809,0.0977788682,-0.0667158759,0.0845225489,1.7435867509,0.1188717621,-0.5433595502,-0.886687078,-0.0902786966,-0.0377797696,0.4196061307,-0.1729758655,0.6378200798,-0.1354588079,-0.0032898662,0.1740823926,0.0049367464,-0.0916823571,0.055428583,-0.0943059309,0.1213755986,0.180367784,-0.0468840259,0.0534046319,0.103890207,-0.181689237,-0.204538222,-0.0800083571,-0.1843458639,-0.0980933127,-0.0074731421,0.1351937176,-0.3161793893,0.1067535536,-0.0269652439,0.0177728354,-0.4323278445,0.0333832427,0.0506000322,0.6333737155,0.0736808836,0.0635767743,-0.1095889614,-0.0970646991,-0.0789529505,-0.0114128447,0.0242283792,-0.4073546163,0.4672468125,-0.012001095,0.0190421621,0.0092444285,-0.0518594079,-0.0812395549,0.0012670479,0.0177989596,0.1372016921,-0.2597187832,-0.0175415238,0.3291547309,0.1153294443,-0.1209003748,-0.0574647678,0.1457786923,0.294509238,0.0832317334,-0.0602745844,0.2198333562,0.0659738787,-0.0231856094,-0.0389849124,0.2057699276,-0.0028507046,-0.1544521648,0.5064247631,0.002566207,-0.051014475,0.7257191862,0.0019776496,-0.1002594105,-0.1383996722,-0.1986680791,-0.0625982943,-0.0167839937,-0.6040379903,-0.0806455083,0.0696082239,-0.026757701,-0.2711668019,0.0601871686,-0.0779153263,-0.0117174071,-0.318873149,0.0936194402,-0.1140702831,0.0111786251,0.2434054368,-0.2076247835,0.0026225405,-0.0082618136,-0.1391968613,-0.0064039896,-0.0564459773,-0.0241584661,0.1261316947,-0.019926466,-0.1847298959,0.1745350159,0.0952791183,-0.0172913071,-0.2609460525,-0.126632546,0.0496932156,0.0464576407,0.0914359837,-0.1174438344,-0.0797262492,-0.063737029,0.0983837116,-0.1596076694,-0.1433788261,0.0758323522,0.2695147614,0.0668168253,-0.1230744578,-0.1302407674,0.1849947739,0.0102324528,0.9283079327,0.0040204788,-0.1030283175,0.0188604955,0.0956693059,-0.0322020286,0.1807170673,0.0675107009,-0.059923884,-0.5470976475,0.1389612472,-0.0344993714,-0.06893037,-0.6549675903,-0.0688834674,-0.0997306418,0.2481460532,-0.2503386451,-0.1555990303,-0.0243227341,-0.1472452128,0.15381935,-0.1712187048,0.2157188777,-0.1345337094,-0.041818107,-0.1165536144,0.0742051743,-0.3797239736,-0.3371969038,0.0122287695,-0.2147250661,0.0822186153,-0.3271051197,-0.0296397921,-0.0728799143,0.0642735355,-0.0853260676,0.1020875346,-0.0917090315,-0.0056089144,0.1392979013,0.0228769161,0.0187568861,0.0447941204,0.1054282404,-0.0853659917,0.0424970036,0.0992180092,-0.005148721,1.1732699725,0.0094514805,-0.0946187131,0.1174588212,0.0845393623,-0.0622913408,0.0564365105,-0.1548087993,0.1673933173,0.0030551964,-0.026194049,0.1262588078,0.0092844078,0.0511985827,0.1189363145,0.0416914218,-0.0006773114,0.2858790607,-0.0751669899,0.1654693034,-0.2125886539,-0.0564783814,-0.0317112747,-0.0795729599,-0.1737806365,0.1681487863,-0.1080707408,-0.0368913202,0.1647951239,-0.0563923681,0.0102239222,-0.0590969177,0.0897399713,0.1443484601,0.6190399339,0.2050392697,0.2494477387,-0.1164399934,-0.0414430128,0.0545423273,-0.0213644232,-0.4027753857,0.0423253099,0.0395261518,-0.0100123166,0.0423209425,0.5547901687,0.0823155795,-0.1149070248,-0.2254364235,0.104485767,-0.0811511069,-0.0093328127,0.5462810951,0.5313930666,0.0919883841,0.3451042845,-0.1845140571,-0.6533180459,-0.0691920257,0.1112341801,-0.4075619601,0.1761916032,-0.0426683041,-0.0069727074,-0.0394785347,0.0575492653,-0.1333140043,0.2497825523,0.0508667156,0.0294463566,-0.1920120688,-0.037263525,0.0602911767,0.0831684849,-0.240130299,-0.0077400795,-0.0894041449,-0.1679733626,0.1111693081,0.0959720694,-0.099947769,-0.0385259546,-0.6236853953,-0.6764180425,-0.0540024452,-0.2131729879,0.1198872262,0.015950582,-0.0921948985,-0.0447294166,0.0450546132,0.0143151103,-0.0735592331,0.4866700306,-0.2468688502,-0.0981455812,-0.0382179661,0.1117776669,-0.2018891378,-0.0039154644,-0.0469908482,-0.0707063873,0.1033637409,0.0054254848,-0.1111759907,0.6538949785,0.1476695179,-0.069284333,0.1208200203,0.1577840607,0.1200742236,-0.1182734318,0.1240421762,-0.2868272496,-0.0071929939,-0.6950277065,-0.1023294827,0.0049080454,0.0029198761,-0.0079668309,0.7316739353,0.0677917493,0.3685866485,-0.1887176804,-0.054475814,0.0184971305,-0.0736816747,0.3077145254,0.146077175,-0.1724221739,0.4504869078,0.0675845441,-0.129210058,0.1023023427,-0.2121483316,-0.1885574919,0.0041712998,0.1035535913,-0.1832870674,-0.06850212,-0.2047820953,-0.1065162827,-0.2629794593,-0.0055662477,-0.1309889018,0.126366487,-0.1342194274,0.0130186772,0.0285676928,-0.3628818395,-0.1880105376,-0.039125249,0.1271486676,-0.0279751634,-0.7617837974,-0.1054002922,-0.1905052212,-0.2115066271,0.1551359294,0.0754267539,0.0046043932,-0.0981027995,-0.0051542098,-0.0515470074,-0.0928065855,-0.0424531414,-0.0874377538,-0.0726481108,0.514772677,-0.2680444074,0.0344803535,-0.0745561191,0.1153251186,0.0300385702,0.1363821367,-0.0300996383,-0.0713283964,0.1363435135,0.0973161207,-0.0486999711,-0.6515331894,0.1794001758,-0.5153555751,0.4588450074,0.014186204,-0.2157588943,0.364063781,-0.0340438795,-0.0800678063,-0.0759166261,0.6349766914,0.592811362,-0.0239468591,0.0215434521,-0.0764296131,-0.3386852004,0.1309613939,-0.1106942174,-0.083812799,0.0511582083,-0.276350094,-0.1840687008,0.3606389869,0.3212213275,0.2329254461,-0.2851620521,0.0243529552,-0.1858706264,0.0308020067,0.0672309369,0.0210682584,-0.0635158307,0.0796204915,-0.0281766394,0.0687442999,-0.1072151195,-0.1534167063,0.098219786,0.0903849846,0.1332857774,0.0809620335,0.0206421105,-0.0954801346,0.0382365888,0.0334395784,0.054655362,-0.0844426473,-0.0200417282,0.0823902029,0.140253519,0.1086449012,-0.0164460319,-0.12000812,0.2384758187,0.0234156463,-0.1458797827,0.172197755,-0.0338663119,0.0075870324,0.0294851056,-0.0802615787,0.0245632083,0.6073907884,0.2428400639,-0.3328977017,-2.1363320648,3.318161221,0.831070497,230.8939344853,4.4573796377,27.0675291028,-1.2996903539,-1.6334706221,-119.5607967613,27.2782283853,-0.1686353771,-0.4377826026,-0.0537909288,-1.0918770003,-1390.4005495124,-1.0764069103,4465.2714794111,-0.1880344904,2191.6741537331,-3.5655567205,-0.5824227912,-922.3997067882,0.9595543408,2.6046706199,17.1279683314,-410.8652800353,207.7982743908,226.9881462972,0.4795459959,0.4499668121,-0.0627560172,-0.8653400423,0.2675914225,-0.7871719058,-6.2621576132,-1782.9099042963,-224.3436155282,-3.2534534,-0.7541337787,71.8750850699,-1.9849324846,-1752.5763044311,-2.413129504,631.5605949857,-0.5369719416,-444.0605347198,461.5472128221,1821.6282300428,-0.8169562612,-2.6854515772,-6.4015488221,-0.6695003355,-3.2280796278,6607.1023467733,-0.5437180296,0.7601642652,-5.2800898915,-1.6079654299,8.5568613443,2.5366267079,-1.7461890218,65.6571321022,-2.5669392531,-0.5102616569,0.040433875,-1.3129661137,243.7895638429,-1.9489660034,-2.6083168301,-0.1567094299,0.5611887927,-3.2584599625,1314.42696347,-1.4078212471,-5.8982020994,-568.2100528622,0.9984535723,-5.0851449462,2.2803919072,1170.9811361759,-1.2028043898,499.0719079407,-1.5199017399,0.4181189523,-1.2276563659,218.0816940991,-84.7876706826,1556.5878397672,-1.1280148477,-5.8301008343,-3.1160382159,-1.2990678396,-20.5994725942,0.940588472,0.4404548118,-18.0893192855,2.0359036038,6.6923266947,-1.1691990005,0.5690872113,-1.6975614163,-16.1563708382,-371.7236709391,0.2021513553,45.7851069502,-1.8698597231,-6.4232915084,-0.1552948794,-0.9460100058,-4532.4508728747,2785.9938058597,0.2578406293,-1.871904527,-1.6796524558,-1.8730902658,-1.1881802334,-2.4095780905,4279.125534904,-5.9313689993,-1869.74117128,1.6925473154,-4.8806211815,-0.2746880732,-5.5569755492,46.3689951959,-358.8652208532,99.8003035042,200.5001876172,-815.8834182741,-5.7557992049,-4690.1906761193,-13.8428844972,0.1657602902,-293.5111193405,-0.691077929,-1.8320402906,-3742.5959036554,-1392.3205101075,633.8207324891,-2.7396091018,-829.6973408486,-57.4191555164,3002.1754371662,-0.0677463732,2814.7460466181,0.0327692191,-1737.453812732,69.5140270616,3493.5149542041,1.5881964814,-0.3394753281,2.0482671515,-1.5349131622,4.3539843176,-0.3649199726,-0.2246841288,-1.5703680301,-2.1534456517,-0.7232897278,153.336664869,-2.5564359498,-1.897794972,1088.8973029799,4963.4567429592,-1.490811599,-0.0590977189,-7.2672688057,33.490197419,-1.6230519748,-1.9086468344,-1.3095127873,-19.2965639651,0.3869043565,-6.9854951066,-0.5391616759,-1.6491680879,16.7376867604,-1.5126404689,-43.514782514,-3.1569073916,1830.4289958116,-0.383594611,-989.2965411958,-0.4037676253,-2.6191504712,-1.8103978074,-1.7078396344,-697.0665960294,4717.3448363642,-0.4683533549,-2.2435743808,28.341371817,-2.250775386,6870.0269714038,-2643.9246919748,-1.7682565876,-1.4246078309,-3639.4047830738,-19.3126854938,0.1619491109,32.460855819,-0.6091609533,-0.3119363089,-30.3107594924,0.7994358524,-46.9571138446,-3.6142247807,1923.9386608779,-0.2159214958,-0.192342774,-1709.049028126,-2605.7520276411,-4.6616755622,-1.6513939127,-8.823632114,-0.2625508019,1.3558371948,-8.8926057093,-7.3581543196,0.1985511708,-10586.9131741846,30.0839933432,-1.3327878084,0.0224538491,-0.6628059852,-29.6044304658,-2.3946898143,-828.9880612574,-247.7115925756,1.6351454907,-8.1675043667,7.3301756838,24.049143805,0.2425291675,-0.4326963334,-0.3806815898,1012.0248533196,115.7266349166,-20.1387200871,28.6061007986,-1.0204526527,96.194867419,-1.7019534368,-1468.4363035001,2.4214395064,-0.0450633133,-0.7687562536,5113.066403874,689.796320054,-704.9592695776,12.7413592088,-1.436986853,-1447.183279795,-0.6826700785,10.418561846,-2.7742277712,10.8319345214,0.8896522019,-3.6835861772,-0.4708885663,1.0838103248,0.1722449661,2.1564336066,315.492884027,1.2002867525,-0.0700969995,-0.7593918027,-10.8808700762,728.9961523802,-367.1114983786,65.4284598147,-1.0146064122,-88.0071430518,1160.3086529973,1378.5355676196,-3.9206664747,0.08020648,-1142.1956696442,0.0719781001,-2463.9727808887,-511.2907815425,-1.0303080896,-0.2672262437,-1.0592882198,-0.6301710419,0.6534075751,-11.537079998,75.0489790901,2451.3858030551,49.1870842691,-1.1700719414,1.9837500018,-1485.5024323296,16.0073062334,50.4090598048,0.8360317888,-0.5848211917,-0.3595861953,-23.0715843218,-3.5129323968,-0.8850048348,9.6511704266,-0.1377615591,-13.0890121053,1289.4924208893,-1.0724189784,1455.4006857527,-0.2404030649,-1983.5473331835,-0.2167121651,-1.3517292614,-280.6782645134,-333.3147874237,-0.2662700223,0.8371932305,-0.1922002177,0.3714125862,-264.1347052717,2.1528548525,-268.7104122001,-0.453492277,-1672.3080799977,-11.0479384388,-0.3412478664,0.7121286034,-0.5277110923,36.2793421106,1.6589814146,-58.3631322601,575.4657530531,29.6439495516,-2047.2511933543,-965.1720627989,0.3235971582,-0.9543493831,-4.7762900828,-0.7740007798,0.1341251344,28.2967369501,228.2198383147,-0.6964271012,-0.3669027532,-12.6377410753,6.8004066052,-3123.2381054273,18.6131248322,-59.7149595593,2.1184829254,-1137.9839736635,-104.7106441779,-0.1274442318,-215.9549610474,-2.5553168048,2.6269894152,-0.251342447,-3.7413375885,-0.4286524071,7.5596733231,-49.8940361896,2.5206338612,0.2204954874,-154.7779959021,7.8778313314,0.6909356168,-13.0356696432,2486.8837687753,0.7394855363,-0.5403419995,-957.3123433239,1065.0176756821,0.3907533935,-4.7629305597,0.5437398107,5.4436164745,0.4818622097,3.6732487403,0.6028621435,386.0771302815,55.8224672828,-0.7047573956,376.1750497538,-203.8740689408,977.3947952398,-0.4940191519,1530.3820701286,-0.4091105231,-33.0552444858,1290.5205966352,-2028.4678076656,-3347.6722456864,22.132477632,0.6651318659,-3.1166726172,1.2122702933,-704.1440716953,1628.669295414,-2.2119052943,-0.7285530607,1787.2941745771,-22.3157639563,643.3482913942,-0.3467322244,28.6568548064,-1.0865253223,1.2589096853,-1288.5332774083,-1.3597984756,0.207024167,-3299.2382548964,1644.9557275034,-68.1794568068,-0.8439363474,710.6004143785,9.7535138554,5.8442184518,0.3696285595,-1.2346549093,-0.2089654267,1070.4332640022,-27.5538030696,-5481.8912235543,-0.3719343081,-0.2034642638,-5.0557798806,0.933790204,4.7973109132,1.103925629,384.30367146,0.4497871383,485.6031167683,-1497.3588351662,4.8848680812,-10.9591767209,-1306.7955052557,-0.3481767279,1.2256889477,6.5920044323,-0.0776881442,3.5055712476,2074.9710545673,6.254575942,-12.1061158195,-3.6284312587,1.0718168959,-2.6323447632,798.4753953776,1.003506197,-6.3672378894,-1.6065736483,2919.5730205898,-414.0229207638,-4442.3341657325,-1.1383124104,-1.0768065028,354.3614414048,-0.8573363728,-1.8980853169,-3620.1285102931,-591.142091568,2.1079157804,68.0236459369,-5.021793275,-100.211488467,-23.9304805031,-1.7741141044,-2639.1804606589,-3673.1817362875,0.6070141883,-1.8197543014,-2.7758942412,0.2398978876,-0.8226956819,597.516733755,-0.6219256788,-0.5522416018,-3.9353159454,11.4328556458,-0.805583056,2293.8257684219,74.92797114,-0.1326137487,-1205.5058666385,-3561.7096144313,-1984.0210269567,-0.9236506992,-759.732197421,-0.6438432806,-4.1598401776,-26.2696375762,2400.1971872034,22.3598144861,-1750.6308847492,-1.0477721204,-2.9003177753,-6007.6310041508,-285.2753701119,-1337.031678233,2.2378471163,-1.1237608247,-0.6392058885,844.4202645071,-855.5929529106,-27.0680115277,1.7176180355,-1.1275451251,-5.7527760187,-0.5692357982,81.2666176093,-4320.3043574917,-0.3749301941,-941.4150756045,0.6044927018,1.2888182572,-2987.8906576587,-42.6254843441,45.1575280276,0.0556672638,0.2215759336,-1.0255300789,-1.1160313117,0.694796107,1791.8696478662,-23.8046991838,-2601.6956584953,-71.0472542506,0.0882315655,-0.9184530483,-1.417468117,2.104148334,0.3993976712,-629.6167528415,-167.6486091419,0.0875643103,-7.0151578489,1.463916552,-1708.3918335925,-1.0746344739,6.0207971877,0.9978158758,-1.6577713231,-0.3843082914,-4.2262766904,7.8330256747,-0.1327387796,0.4324234615,0.7564654221,-196.7355534819,0.4764034538,347.9199721858,-0.5366071462,-2421.2100029063,1194.6878123348,175.2701862644,0.2141862535,-11.5191152949,-0.2191540546,-0.8136142531,-1.4689222055,0.6528939697,0.2295597327,-0.3493632069,-18.9323818083,0.7222571601,0.036196607,-0.3602603913,-0.6023721019,2.2585206142,2023.6742823883,-0.1978711668,-0.5832125179,122.2799652251,-393.6088235249,-0.8729986183,3.7014932856,-0.5845557055,-7.3080866716,-2.0830673063,-3.4573916923,0.8206195372,-149.0199977351,-1416.389009836,-0.0306869346,-1.132901804,-78.2581241134,464.4361911669,-1.105081832,1.169572357,-0.3537436159,-0.5166721451,0.0109318284,2073.1543130259,-43.6677706308,-1538.1708354212,-0.1449136118,8.8507503567,58.0062920201,1.2936515715,-257.3427298036,5.2105519113,0.6875325338,171.568742787,172.1635256611,0.7872068094,-0.3474616037,-5.3156389452,-1.1405046691,0.4027527425,0.0598950683,-0.3070538861,1.0907526044,0.2386423666,-431.1243733165,-0.3456245801,0.6973845481,888.7747317999,0.9391135614,0.0114459566,-0.7695584634,11.6949868876,1.6847391529,0.2590780847,-0.1400668214,-1069.3606141368,-0.4033669531,1.3879334562,-0.7497823774,-0.400123839,-0.4797694468,0.3279094878,63.3795625055,-1.8591299659,-1153.3715475368,-7.5402705859,-1234.6465349603,-17.1589088751,222.2067585297,-34.5722227585,-0.3910585402,1176.9603984055,0.1630471943,-0.4419782626,147.1741731978,-240.6655029817,-4.6996248047,0.9703756921,-1019.3785669224,0.9431750949,-0.2386019424,0.2251606919,-1.6423414391,-1.4463467373,-14.8302653971,-152.4254285876,1.2018964049,-0.5392880577,-0.4130546257,8.6351632543,0.3457098504,8.8411735035,0.190969617,-1.3144426855,-1.0035901886,1.5981914894,-1.426104631,-1.1970179287,1.5580264729,1.4742951294,-106.0909278778,0.5002644995,-0.3538705541,-0.7149130278,2.4500147006,-8.6680260433,1.1431975549,9.4196253082,0.4605300415,-2.2934053552,-0.0457835426,-1.0006536231,-1.0280501885,-0.9052159619,158.3196152984,-0.9935636524,0.5484226672,-4.5105846245,-2.2834769437,-0.6993594722,-2.8448720918,-0.7795270422,0.1329247363,-0.4281093086,-97.3403322121,-63.3577061424,-823.4198610916,0.4375536169,2.7005591479,23.2308683759,1.4645608949,-2385.8521552534,0.1693404233,-0.2650515775,-20.7283039292,18.7088315033,-22.0988180439,0.4485923653,15.7708631247,-1.0265527665,1.1747412004,-10.803789648,0.9582107791,166.6746475782,0.0564117545,41.0199768537,-24.1302522215,1250.2044900046,865.5594987164,1418.0996774717,-0.5698258774,-0.4640700162,1.6359421901,0.6138432687,0.9760304901,-0.3230314075,2527.812919999,0.0715652594,2399.6708668491,-0.3352599043,-0.564199546,2.4774461746,-1.9258792271,6.3791714649,-1.1321502178,-404.4564605571,1873.6372155097,-2351.7725446855,0.5328271108,-2107.5575667398,-1792.1209907939,0.6635377975,0.1516151443,0.7348135818,-0.1769531685,-0.8186283166,1319.8578551729,976.4850876622,-1.2470355707,4.2115905718,0.4608382838,3423.9547234858,0.6574828864,1744.1238897391,0.2069922534,1478.9816872398,788.2948809091,1776.6974222324,1.0590103752,-1.4944472398,3.371012127,-0.6128971878,-0.8129658311,7.8290575663,1.8121011265,-1.3504292419,-0.3624766616,-0.9729338562,1203.4835795734,0.5433105739,-0.1438141636,1041.2646839909,-3.1359861185,0.1287749574,0.2945977549,467.3621069239,-2.6191453825,-0.5001794602,0.3288454972,0.063821275,-0.3382878903,0.125866764,413.2384919326,0.1379784131,6.0169837894,19.3635208284,-0.0250128034,404.7617656988,-607.7626959394,2.2979767037,-0.4421944296,-0.1995410414,-0.9112700811,-0.3083370076,183.000939898,25.9389750472,5268.0857307353,-1.1010581398,0.2720986568,7.8664238912,-102.2061430605,786.9308694434,31.0270011853,-0.1832529519,-0.8375564173,0.0434619641,-9.558216556,-2409.6191499968,1.3749763808,1.1143748417,0.4459376686,-0.0584190323,-2.6227767405,8621.5874688001,-642.3095850056,-3.0268284577,-1838.7204976791,-0.4277909493,-2.1489493125,706.4434489902,21.4713736242,-0.1478746553,-0.8662434645,1818.7052229056,-0.5172823776,-8.079479386,-1.6749549377,6483.4550649157,-1.2510432639,-1.0432702483,0.245502077,-3.4341734222,-53.1133620985,-0.3339291624,4.5093926676,-0.1817233513,-51.8437239111,579.7631126259,3.3931092166,-0.4427460259,389.4754769646,2.8038307142,-1.5254189959,573.203883045,-2.1655043078,-0.8688094295,-713.4595946644,-392.8394570225,-5.6309627007,-0.254564599,2580.8470535367,-1.1973840458,-35.1701610554,-1.5742965057,-2.1756417485,-2.6622278967,-1136.4924358744,-50.666254348,1.8458724467,0.6107636329,-0.4976348648,-2.2001204452,-1.6817922668,18.5493314148,132.9780659844,-3.6634032914,-2.5122713127,-3.4593653526,-1.1336268144,-0.8041448203,-0.881530537,-1.4099957987,-1585.7304240887,1.3527528439,-1.9793475229,0.09284123,0.7384787859,2190.8567741426,-1.6516344559,-0.7594500562,-0.451099345,9.4447934226,0.6016839985,-2.9008535112,-1.9216780706,0.223708153,61.7554914739,-1.7852714965,-17.6222605475,-3.3403759158,94.0362634601,-1.5211797454,26.5235047538,-1.3026089507,-0.0890946198,-1.8851613717,3301.182519881,-4.2369840648,-0.0337369966,-0.9240013807,2.8472905988,5.4425150923,-1.8147426031,0.4587501549,-1.9469055965,-0.3626505048,-22.3732509819,3517.7571098561,-1.2994305062,-0.3569792545,-0.2312585519,-1.0257715398,-1.7137021353,4.1753834265,1.8400583079,884.7945107574,2.6698930705,3420.2153016564,-1.3854926811,-1.6181125283,3032.9192140718,2.1833830806,-843.1265238153,-0.8368122794,-1.2886369165,-1.5715930497,-47.9667793944,-0.6977979991,45.9073833482,-0.8326910463,-313.5386402637,-4.774683837,-0.6444688971,-1.8301800318,-1.036289311,8.5931627411,0.9289323594,-42.5582881648,103.8747696515,-750.793106384,1.8454707833,1035.523385755,-4.8373825053,-1.43091441,-176.5370450072,-2.1896231198,-2.2402396738,-2.4157833023,1.1492709906,-23.3222739131,-0.5993180612,527.3392633732,-2.341893933,2345.3904069985,-1.4656141244,334.0811834918,-3.2435115906,1.9215512833,-93.9820215241,-0.8903962404,-1.7836236262,-1.2890686501,-2.0100895951,-2.0409927145,-2.8504911094,-1.9603218436,0.2455660204,-1.4083865249,-26.3723041695,-0.3522410696,-739.9001296953,-1.22036761,-0.4106242734,523.9421365983,0.0719025069,-2.1336825138,-2.3609000455,-5.4207144182,37.7216551924,4.8004118226,-1.7034364724,-1.3769046478,-0.9794679047,-0.6121908903,-1924.7884206815,-1.1951759159,20.4023466927,5.2694995178,-1.4844721307,-12.6536596291,6.6719327785,4.0890253287,-2.0880004151,4.5516143967,-3.7283411079,-1.9330116594,-33.8801015012,-11.9612165949,-33.5890692859,24.8212519003,-0.8464232297,0.0653578352,-0.0360644113,-2.0500948896,5450.3176394892,-2.5384044258,-1.5861257555,3980.2760046284,265.7421862443,-30.088457481,-4.3225419244,-4.4058120212,-0.810422143,-0.4616666979,1468.4425666444,-4.3651966805,-640.2266386142,1.6161417348,-521.0863908883,0.0792674488,-0.1184582547,1284.3700213742,-1.0104087271,-1.5390305109,0.4796853783,0.060246009,0.5780189488,11540.602953559,1.0500919868,-191.0334204379,-0.2863202385,0.2896553648,-0.5775653766,-0.4551817569,23.0918907961,-0.5254221227,459.0046606794,-0.8072779585,32.6136052995,77.1313271949,22.407448737,-0.2343395111,2048.8553760966,0.6092383444,-0.1696993059,-0.2964550529,0.4193360889,0.9730292939,1.1510310725,-0.4920145176,0.9780406158,0.1797296501,0.2664016556,-0.3524458969,0.3748503107,-0.4311603101,22.4669951343,1.9852912248,-3.1183837202,4085.6485034853,116.5239626918,-0.8212311048,-0.1948145442,-0.9837546417,0.9370551304,0.1376305823,2.4255531476,0.900456292,1.3955289394,0.0952499974,0.0571966042,97.5491694659,0.5496790513,-0.5064544993,97.9833668908,2.0332920186,0.3019129412,-0.4087904026,7.6847677142,0.4316658675,-0.0342456087,113.0385732952,-0.3122574231,-0.7056515854,-1.8589888153,3.2761786465,0.7045535316,-0.9905570466,682.0937028314,-0.9189854893,0.1107702047,10.6386308887,-0.1390773366,0.45853264,-0.5634564436,-0.3807879524,0.2822986812,-0.0218968082,-3.4747202313,-0.0350341463,-3.5782398665,0.4858215541,0.5909952296,-0.0082210803,1.0325423384,1.4353408203,-0.8992290723,-0.0782319716,-0.4731957726,8.8204478054,1.4290989403,-0.231670422,2.3869053795,-0.8557336164,-1.6488912349,-7.0258045172,-7.762634593,-2297.2871287375,-3.869889309,2256.0936252465,-3.3176208283,-0.0635455018,-274.3556070779,349.0567786277,8.4668176193,-0.0959482255,-0.7299668201,-0.3379382969,1.5184808559,-1.2508686434,71.541953951,-0.5690448329,-294.5027526406,-2.0639048776,-0.3153163637,-0.7218600778,2.264156278,461.8866700833,-1.6075868932,-155.4753949335,450.1691532304,-15.5115113668,-1.8787432156,-1007.4121238777,-43.9838691775,-0.5071264282,0.749475867,-1.7387056459,-1.6991675402,999.5836756221,2574.715217855,-0.7498150358,-1.5944567286,-44.122144987,0.5870164884,111.3485561479,-0.8062003394,14.5124970961,1.6343397335,2902.5138933882,-865.2989676336,-0.3196148982,-2.2604313087,-1.4829251147,-5.5617535565,-1.0179506927,-8.8836038818,-1.6887878415,-0.9959347538,0.0996383859,3.3843332032,-0.85924305,54.7565844198,-1.4882006104,5.2764078859,-238.1762151802,-1.43107613,-0.7315621633,4.2287704174,8.8471671447,-22.1934495773,-0.1046605562,-0.0411836533,-1.1395822315,-3.5256209212,-2.2328638821,-0.9011432963,-0.614796466,2816.8046894793,9.6612871668,-0.1469343337,-3.8483413823,-705.4663383006,649.5009963565,-0.9057029498,-892.4208252008,-1.7402633207,-0.4675090684,2.772573911,1.1162240545,-9.2609516653,-1021.9800322013,-1.0382951292,12.6479103712,-0.0323076433,849.8810540069,-5.8271940023,-4.8826336095,0.2472845113,121.3175826875,1457.1315581125,-22.1092381726,-0.8488529468,245.8841352011,-1.0247651457,-1.233082861,34.4141235177,-64.4743979178,-1.6196764364,2.4334950341,-46.3467805757,-0.8182747894,-0.9264054414,-287.779320554,0.1058695242,-0.1085779281,-0.6339719938,0.9765279558,0.5734890185,0.7729273257,0.5305021753,-941.2818873703,0.9362914714,-1.251676931,3.4434873555,0.8995250692,-1.5576693761,-0.4062262346,-1.4867914367,0.9995036406,-1.0179526926,-2.2174152762,0.7456266572,4.7176950453,1979.3894245024,0.9717156187,0.0588864438,-0.6063175698,0.67672691,0.6863603393,1.7584252498,0.5248686437,0.4949207702,112.1036111441,-447.5406385604,0.1773206618,-10.2463552761,-0.3499509977,11.0339297982,-1.5754416165,0.6396426012,0.6419341648,-0.4869899449,-1.0490466175,-0.7394382566,2.260701906,0.9668748494,4.3748693935,0.6343882552,-0.0354419825,0.1986066595,0.7085118845,0.7578927359,0.1584279154,-0.523775729,883.9992120746,-569.2246692141,1.0695952229,0.630093507,0.9113349341,-4.525173992,-6.7490747821,-5.9758509385,-0.1987574012,0.9132813828,0.1387149177,-0.6417892347,1.1497674078,0.8230616148,-0.9483760296,-0.6696161355,0.1276543419,2.3065785354,454.7790787406,2.3170501013,0.7161934107,4.4294641795,1.5707956622,-0.6229447717,-0.2396711763,-1.186293614,-3.4218757008,-19.5464843459,0.0937729618,1.4873862126,0.6959656711,-0.6085111021,7.6495774338,0.0264597523,-0.3350272443,0.7367143017,120.1007355369,3.8905427645,-0.8785256586,-2.8469962589,0.5948406071,0.8451181263,-18.4146748601,2.1368565581,-10.6530871376,0.5268612957,-7.3091597151,-1.0261360269,1.9440608762,-3395.5409346714,-22.295393139,0.9234953718,0.1363323748,0.0022617821,2.8091083077,-2.9781153787,1.3306300043,355.3319276525,-1.0730345811,1.0040720958,0.1129288575,-0.8868242964,0.0046383587,-1.1046193943,5.3204957466,-1.0627117953,-94.1565334893,-961.0314982457,0.3092757651,0.6547079407,1043.5411560877,211.7216206208,0.9315610438,-3.7998635343,0.3215057363,-1367.4107079661,-1868.519518698,517.500806685,-3.6869396477,0.0043780725,-15.1184503242,0.0353201693,0.6413933371,-0.0622104303,-50.7261175424,-0.3081635076,-2040.7444800554,-71.3578687848,-11.9080610278,-16.6789711193,0.1316392647,0.5237939237,-0.2869037123,-11.7307550773,0.3856476563,5.0224096574,-43.0691028796,-133.4740636422,0.4240229845,1.2810058252,-0.4435417915
   -2.9072251831,631.7958974766,-500.5277145252,0.323115092,0.4939432635,-2.8465243092,0.2945840157,-1.7026532216,7.1135032957,-1.0179004789,-0.0822439015,-1.0745464306,72.2613225223,-0.915207826,-472.1266361827,-503.6404728499,-0.0428962624,-2898.0127540681,-969.8002677244,-434.7301149377,-1.2156007749,1.8586949096,-0.7665163496,0.6718605173,-1.5444605161,5.794905466,1224.5203499553,0.8882250399,-1.2093943298,2.8924666469,-1.2000907405,-1.1443485241,1.106004631,42.3202483685,0.3547685685,2.9937737947,130.1293417921,6.0450244435,0.2752408323,-0.805815509,-0.1803311567,1.4060715137,-58.8513042123,0.0114883643,7.4283440222,-0.9908784683,3326.4059797706,-3.1180853472,-2.0161498737,-965.4817272672,16.3680738236,4.136050158,-1.6338305074,2.6871383865,-0.4409437789,-3.149494126,-0.3833078822,-1041.8222051952,0.0633232163,1.5696281522,-0.686437267,8.084870595,-0.3120410282,-3.4627285754,3.8295725587,2312.8763415344,10.3090519195,-2859.8277531159,-0.6789335661,3461.2228404911,639.3483220779,4496.0281360687,-1.1895771442,-0.3169591872,-1.5850864247,0.9257769827,1714.6393020828,796.822227096,-16.4535784517,-3.3893598964,37.1045946805,-0.6174438495,0.7505441873,-1.368931475,-741.0627602129,768.7019529617,3474.8684364104,-793.6121353272,-7418.8474029489,-1.4550154536,-1.625006053,-1.3863224852,-1.8001308117,2.3773678654,-1.4114665824,0.0078916236,-1.5178167795,-45.1207633368,-1.8942497802,-1.187443812,1.9505303551,13.7415138045,-1371.9035552438,-3157.7317025146,-1.1741284041,33.1309580211,799.3070325963,-385.3989586159,2108.1611870134,-69.0398944646,-1.459100959,3.7475165517,-1.4891143384,36.5569857008,-1.0819134811,0.135724151,-467.7091388328,-1.7294177647,-3057.5301113545,2.8349670623,35.0737099583,-2.7499766771,-1836.0341723218,-0.2952301553,-0.888953876,-2.2656206804,799.0454270171,160.6845981669,2.5008616748,-1.6953601158,19.5004050227,44.7277389284,-8.4619624205,367.3660626187,11.5228243872,-0.4883332158,6.5806097348,-2.9099347415,19.8569050369,-1.3790330278,-2.8498057511,-0.5606934522,-6.3155987199,-2519.1966038733,-33.3898995461,-2967.7292299989,-1.2118342615,1925.5601821122,-0.5193133856,-1.1950616015,733.5146579357,2186.9813142097,0.2799450418,-0.6860337683,-2979.8194882298,194.6407758609,4459.625970005,-1.6265369861,-6953.706358613,-1.0595175965,-3732.0804549955,-1165.757312504,-0.5079095631,-0.3559573217,-0.3185499818,-598.0815670246,0.050928045,778.6085046304,595.8112927714,-2.6077401552,-5.3250394791,2196.6049586616,22.9792729321,0.4791193346,-7966.4895559792,0.2366595964,-30.9471078635,6992.7625526186,6387.2023170983,4.8992611745,-2.9022178592,0.4065844858,1.4830419721,1412.0505511858,-0.1395827035,-216.6892483237,0.268212144,3743.8795408097,6271.699808624,0.3368732857,-0.8017262383,1.7281890275,37.6766373917,0.1276208156,1.3931168772,0.5835692018,-5.6380609703,-3345.4721175717,-5691.5147628441,-0.7456769226,-1427.5705677515,0.4167050288,29.0746768892,7176.8668664352,3619.7155248995,-0.9161933027,-0.5566701942,-23.3527491269,-230.0379924319,73.9477934492,-66.5234191802,0.8572715435,0.4839801368,-0.4388919652,-22.5079735439,-0.2050828004,21.4356603206,-1972.6873274054,0.1480452035,887.8891991904,2931.9611991858,-1076.4472611742,0.79370335,-412.8929989873,-0.1315529494,-0.8951389195,-7261.5829379042,-0.3848688532,11205.8480329765,-137.9288590247,0.5469106388,-0.5469443257,2422.0910792626,-6.1570932857,-27.0583269529,327.1700435006,0.627712566,-4.3886120957,63.9067167592,-1227.4651418286,-1.6483186506,606.9864231903,0.0201495603,-0.4836308925,-1130.3810698244,-0.5282118795,-639.4117398718,0.2706993717,-5694.6448522367,0.0509819473,-0.7981206314,1437.0443107252,-1.0528777976,-0.0696568884,-0.0550154567,-0.8010963066,0.0183320496,-0.4001047861,-0.8712514651,3918.8391697366,-0.470846872,86.3209522283,-0.3060222999,-0.0282512543,-0.3143264403,1.028979593,-1391.6922237687,2.1929453883,-395.7754875852,609.7715320225,20.2388104279,0.38538984,1816.3288585352,0.2900577367,0.2258228253,-0.3215061855,-0.1884054885,0.1950072933,-4925.7043515867,-5083.1219346834,0.374835011,0.1479469718,5911.839926714,-0.0305121144,-803.5483677496,-1.138322901,-0.6074764489,-0.5052537487,-4585.5359580553,-1402.6534469907,520.6240792525,-0.0562437751,-0.7498275452,-0.2349329289,-243.4813810154,-12.7371536675,1045.2582877984,-0.8596239638,-0.7528441819,-0.2412089318,0.0383822207,-0.2463779244,-0.2228944553,-32.6213706742,338.5125993933,-5.8139018846,-0.640778772,0.5203745878,-0.2157301126,1.0636396154,2.8688128295,-15.1659127193,0.2617718643,0.2226922761,-0.8135641895,-0.1398302541,-0.1108505425,-1380.733893114,43.4697502133,0.1277167692,200.2690700561,-7686.8820863714,843.3273675237,-0.958264983,3113.1830372031,-2256.2064267965,-0.4329227376,1478.3125989027,107.7806761932,-4591.782480796,1707.8542577531,-0.8278701165,2.0413692169,-1.9936143523,-2862.4640129662,232.0243180814,1.315938287,-1.0182493044,-0.7121185726,-957.608401724,-473.5201639856,0.4932743352,9.1234496917,0.0027326893,-0.3364499075,1.1386559632,7.308582986,-1.2961383436,897.781041423,-735.3593612692,-0.9222551022,-1.4926274499,-393.7304110918,0.9317012954,528.2601258199,0.6223311739,0.3382826213,1.0981979858,-447.0339512048,1.1757612005,-597.0537709895,-0.0367106527,435.1788562216,-1.2341810582,0.4120282216,-3.1527767454,-0.1638274038,9.0839884079,0.3653634908,-807.4633356329,439.9591908686,-751.7050559303,-0.2390969238,-0.9891566615,-5.6480207092,0.0652537515,0.3038392511,0.2798181215,-0.0941308469,-1000.9258608563,519.0917184683,3.7904467548,-0.1147504381,-0.2806169633,-0.0062157427,1.7595564047,1.6968962763,103.0624446896,842.8999727625,91.4726562975,-563.5044086016,2.4019162877,0.0020427295,3.8536363614,3553.7129401051,-0.4948564734,-0.3422992354,-0.9795755857,0.0935299225,-0.3117743011,0.7021636792,13.075955758,-19.1489260592,172.1638894784,0.8586571093,15.9903302697,-1.3382331,-0.267863283,0.4114985378,6.1636366179,-0.4325134455,-0.576893355,-630.8845427271,0.2566862612,16.0456200319,6.0673985331,2.1832875822,0.2587640328,0.2332269903,85.4572138486,0.6237944127,-0.4156009663,3.1171229125,33.3179950427,217.7769537652,-17.1327937269,-0.52903523,0.2597511938,0.4570508627,-8.1486028223,-1.095410545,-1.1905450462,0.4244800512,12.8891127075,0.8467852164,-1.0708682758,28.8169836822,-0.1990913852,-0.6673937809,0.6020570824,5.52975231,-5.31484644,-1.1062735872,-7.1290357754,-1.0845940328,3.1656693903,-42.8967188619,-1.9280682977,953.8057429154,0.0499923289,2001.6724064214,0.8593100002,-0.3619522322,3669.3244447248,6235.7600906759,-1.495686265,-0.8880528298,-4382.6169267091,-0.041241704,-0.9635941065,-1.710741142,455.3349396004,-0.3916391717,363.7382175737,-18.7789353456,0.3345868538,-0.4354934102,2.162110024,-103.8071022453,-1.497115847,-1331.6976549034,926.626990509,-1.4815279488,0.2655873598,-213.0684899673,-0.455548424,-0.2247330194,-5706.855932131,-0.5955974919,0.4187454144,2292.6794412908,541.1357968642,1.8664861259,-1.2149495282,0.1122257831,-3.7954850772,2100.2692767691,-0.5577462227,-3.5248173369,-0.9371390339,29.046596264,515.8877240773,-1264.2281929865,1.377696411,-0.5953632954,0.3646094154,1.972787764,1.7908557869,-0.9533398732,-2.8901225737,-71.7449356758,-4079.0761084003,0.8925882564,-22.4361079661,-1.1751600542,1.3670531044,756.1738908929,2863.196320944,0.0062063475,-0.7585701589,4.618937502,53.375771944,28.6971266647,0.5723447031,-0.2629622542,-3.1564565598,0.3470243387,-0.0657926586,-0.1650133145,0.1751923702,-53.505962609,0.2231614539,-1.0123953061,35.051553849,-2920.2216052754,-1.0769105177,-1.1479445971,-0.4897697449,0.5446013526,-793.8766717449,-191.5932048021,2952.3458457219,-0.9935021103,0.363378831,0.2115872197,3642.7075708886,25.4955696678,130.1833529069,-0.3085573881,-0.292610531,-2855.2131934644,540.5293798664,6.8007418929,0.3027379175,-1.9446706913,0.5152661826,2.1194057448,-43.462215622,-30.9148466219,-4666.0377124682,562.6681162361,-1611.1014780526,-54.0027789234,7.7994590361,-1176.1607017026,256.3775860925,-1.0324157835,-0.8660579163,-1.1224885959,-1.5458010066,9822.6489961935,0.2681118586,-1.1476418771,-0.6346047668,-428.0947415259,-144.2452791181,0.3389641718,7059.6779524541,-0.8818875117,-5.7640339574,-1237.5658482238,-2263.9105251054,309.3269247575,662.9687614093,-0.0745860113,0.0058255106,-4.7288393106,-1.6614036703,-0.8451026249,-0.4307076136,-1.6323565669,-301.8092474574,-0.1351056405,12.2190080413,-0.3145744528,-0.6838501243,-0.6168242441,-0.6967684386,-0.3069430514,1629.7821531342,-0.1081118164,-130.8162993166,9014.3764353416,8992.9327778522,0.8124727817,-3.6167168557,1.0926942255,-0.4051071559,-34.5970468338,0.44244733,1.6985486528,-1.6594170438,2.727038044,-0.047255745,124.7707320489,-1.1366847141,-0.0443037686,12830.5204857627,-1.146535529,-0.7935384327,-1.8722794484,620.4046777829,0.4443377898,-160.9367236556,71.7909753,-0.8224007106,-0.1287446943,0.3252207463,61.2033385055,0.5016548487,-0.4483752518,1025.7591935884,-1.2299102315,91.2506154934,-593.5412331182,-45.530372359,-20.9528391651,-0.1336899246,-0.508305709,-0.0673746493,0.4476676108,-4.0422066002,0.3543393141,790.4694611306,-0.4260674533,-3.3988934621,0.0509974532,6.2563145083,5209.701553099,-0.0567313362,-0.776685383,0.4455428584,-1013.8236025964,27.7335865218,0.6821444469,0.2903978819,0.1713388863,-0.1772416692,0.94774695,2.1506740603,1273.5290835195,0.2671082479,0.0168749464,0.2007467797,0.2074419546,1490.9522534287,-16.03004018,0.1233351373,-0.5919017353,-0.0769980184,1.0929848373,-0.9011536327,0.621756569,2750.474631096,0.1477486802,-5.4837737628,-0.595639558,-0.459177212,-0.9058756223,-0.7321771512,1.3983946741,-1.3097011131,-10.9326948323,-9.3812611755,1.2013703016,-0.4969542599,9.3775157779,11.7832072222,0.4760515087,0.4385785195,0.6882549025,0.5251851045,-16.025074075,0.6349391976,-1.7762388557,-0.2926552868,1.4712996122,0.7436402936,-0.6038873581,-1.0114207301,1.6088326898,1.1514352165,-7.8307643523,1.9515163378,1.6613678098,-0.8577845753,0.4896878259,-1.7671707811,-0.3300095564,4.2893553244,-0.5239038357,0.3480845151,0.6052751801,3.2303557357,2.1301023726,0.7240541024,-1.0078814943,1.8407105251,-2.5507426319,23.8921292107,0.4879780071,0.8183294853,0.6217348557,2.4989512056,-0.9458007835,-2.5397474459,0.8969517061,-1.0342347333,0.6895235105,-0.5844670324,-0.4058600866,2.3153984439,2.9062737787,-0.008228224,-13.9033893312,-0.4257651635,27.5751042774,0.3332221257,1784.1528368827,-0.5245644622,0.9804385583,-0.6966969645,2.2753489283,-0.9918515942,6.7985219778,-0.3030811836,9.222218739,-0.4713088694,0.8787153085,256.4327441231,0.9898039031,0.3211661207,-0.2747556208,0.2982577992,978.4005501428,-0.5541627378,-0.0129652702,0.4980962263,1.2830328243,-0.6610900042,-0.6025795066,8679.2425189581,0.185905219,6855.8753826781,0.3787602847,-4.6820081405,1048.7503407245,-2310.2785736382,0.8411692482,-0.5249507266,1.1454264703,5.0450372436,-1.1455177615,-1.6496738735,1189.7578778223,8.6108105503,548.124541633,-0.7750802301,-0.1563722671,-1.1298437522,0.6104937632,-531.7922450011,-5.601507085,6526.6793516899,1982.105680391,-1738.6170235083,2.9748689874,-1533.671039815,-2463.1523687993,0.3704592304,-0.9389500088,0.7534042039,4.2771370534,568.9304573683,456.6512549034,-0.715885945,-27.1481177104,-1108.4821154582,-135.1140466874,-13.5354039701,0.7146340563,-1866.4362090367,-2.3491112195,-1041.0691057909,-221.627747467,776.5947558045,-0.9124328029,-1.9539526052,-1728.7310143716,0.6935074187,0.697149268,-0.7296477961,0.8368643058,175.8214835421,-43.7867873117,-1.3417338736,186.2007818252,0.4165480542,-1.2448532901,-1343.5986609033,-0.0362091431,-0.3432477203,0.6496964864,-3216.9168883051,-22.4151344272,624.2218911814,-0.8568008616,-0.3986655385,2.6729504644,2.376178517,-135.7382950866,1.0202682098,-1.7717851719,-16.0887231753,-0.2134857739,5.270750015,3182.4277457129,-3349.7564768512,0.5434413343,2132.6460019312,0.7456685075,-0.3155616971,0.255018899,8.8998214545,-4012.7727790388,-2652.3554359418,0.8996937267,-92.0741642836,-3659.0731024499,4.5828173945,-809.7947486936,-3342.3344635665,0.7740288358,-4109.1207576235,2150.7425744826,-2242.1088849092,-42.2668766604,-1241.8102756094,-0.4795038636,3.8422256706,-4279.7463202241,-3.4606059355,-750.4810413807,2.1435780371,-2090.2457078625,1.2966178728,-1.1107524973,-1646.5135994264,-2252.7092959495,-0.4055955817,-0.5162671038,0.1412792812,-9.3020037105,-2.8837438503,-1.257958059,-924.7189901739,-42.2557449456,-1059.7202120475,1.3093215377,-31.990354683,-0.7545387269,0.8518988661,96.3595841005,-47.3559676488,-1847.7497183106,355.4277174141,1208.919144484,-4012.2640126427,-0.065139791,-100.3481915981,1.2089492611,-14.5326560771,0.1727233627,-0.8292032803,835.3667849401,-2837.8794421914,52.8246444605,0.4806843109,-1.2026162777,-12.8342283101,1637.4079033341,7.1815724889,928.167620967,-341.6652424182,-920.5218468446,1.1379036308,-7.8045810889,-1.4474510871,-0.4055255052,-5.8096776423,0.1430441507,-33.2328609015,0.4668301274,0.9018428529,54.5216865775,106.5485442989,-1.5101210691,-4.1265789498,0.1033992077,-114.3374736763,-260.4629998239,-11.5845907988,-0.854790857,0.0807713231,-3242.8172618723,462.3102788477,-28.0282788779,-0.0460479934,0.1935548621,-17.5124171483,-0.2889309475,-136.0032691568,-0.8883554516,-0.6223363396,2511.0343595277,-0.3788992681,5734.3736381113,-1035.0815007266,-0.0431129591,0.543813648,-4198.1059132674,-1.0711966105,-4.0805794017,34.0441544163,-243.5909051655,1396.0363207732,-678.9038568735,-0.7374013161,-76.4323111615,-92.9458068575,793.0205923731,-1975.4243070368,-5.1215873234,-0.5238268396,0.0165385852,-2959.4704767761,47.1884168686,-0.2474482786,-1.6129582861,-0.7988777764,1.1304842247,45.8958506317,-251.0386201145,-17.4325533448,-1.3106480651,-1867.7265537363,29.7105626818,-2.3391822162,-1711.7789152754,3.4607838198,-1.3016340402,0.6865490579,-2.7700124901,-0.7839009983,-232.6989288515,0.5575484488,-147.7823910711,-4.7796591397,-1521.3679651151,-8.0574135107,1.739521159,-4025.7183764042,-1.0687706522,-451.0678121128,1826.504614977,716.7148534027,581.5354918022,-381.6969044115,0.0694278793,142.9854307563,3506.7273238778,0.2095191233,110.5443392607,-0.1360531091,-101.7115152561,-1598.5087885593,-1807.9926092082,136.6313335228,0.8770988269,-0.4624040687,-0.5846432467,-2390.5162272141,-136.008277826,-888.1164581872,-3.8392155853,-2169.3116547071,-9164.089989578,-3218.5783399122,2.9198076041,-5.5042680035,-4.1790475504,0.0086224653,-9.2347923866,-1.799446466,-16.9221952732,1.1664449172,167.7334128284,-0.6508951543,-3497.2976207745,-98.4586702143,2353.5028913652,-1028.3901043638,-13.1687531454,-0.3461349221,-109.9146005433,-5750.000221357,-3151.2865297163,60.2899271499,0.800715266,-0.6728828428,-0.4697087727,-1.1443925533,-2638.5951019778,0.1160960612,258.8024390966,53.6977184385,-0.5840322437,631.6487479679,1346.6287693608,-1.0198734029,1.3905459905,-1113.1512001412,-0.388154448,-0.9620985767,861.3440702045,-3.1544563393,35.2815535622,1959.0145226756,0.3679004133,-4.9066492123,651.9912077446,-0.4759951097,135.9987590121,-1.9937930375,-1.5420735721,-199.3448357353,3437.5794994562,3.7128238277,-1.0630798814,-4.8902421374,-1.0686927549,-0.8351662872,0.7023728138,-2.3719030461,0.4399232541,-0.8517856114,1459.0599521756,1.9117684448,-0.1298411963,-781.1890833202,-4226.2700221476,-1.1680457449,-0.9179280917,-0.9702484514,-1.9943064222,-0.0571293748,-0.0627501798,1655.4077939374,-0.3195175178,-657.9736185883,-0.8490307602,-1.9384438546,1060.9884450803,0.114235336,-0.0409954552,-1.1404389122,-2.9346718724,-131.2721212977,-51.8374722349,0.5272476357,-5.2210587005,0.187043376,-0.3696496742,0.4555358321,-0.0094001549,-5.3486716012,194.160989388,0.685090938,3.7741134162,-0.3077030123,1.0435797745,-1.2786696293,-0.7526568844,-1.7431461116,-12.8023674411,-0.9186179785,601.2140647961,-2.4584244477,3111.940846037,-1.8956296769,-1.398300836,0.8136344807,-0.304590548,1.0843768023,-1.4867338095,-1.2771135206,-1.452253645,9.8725696667,0.3622036747,43.8228277113,0.8304076228,-1.2413462463,2148.7214960351,-1376.8878507051,-0.7954550019,-0.1815624036,-0.2645807474,-21.0683362203,-149.0942247791,1.3186769459,-1.5132952224,-0.4570485437,-1.0147163835,3.6868792618,0.1894386848,-0.9110462445,669.2152099958,0.1281369789,-757.1882737175,4.6615791647,22.3701216977,-1.3098705799,-1757.7952248051,-0.9910145433,0.5387749711,-1.1860019679,9.5644922367,-0.0866312104,1238.4679321954,-0.6961506032,-0.7025454269,1.9469264718,-1.0265312594,157.9557921983,2.974079673,-0.614891271,-1.334503033,-25.2256390143,4.0912339112,-0.3377516978,-2.2499152679,-1.2645692732,-4.9278818102,-385.6573297042,0.5260932013,-6.7950916565,0.4320398252,755.7269323299,-0.7354508444,3.3499200592,-4074.6089499622,5495.6678730884,5.1805616908,0.8681722184,-0.3205209698,-0.0463290195,0.4049367997,-0.7043253362,-1179.0812751184,0.7088852866,3164.4547035725,-0.2725307426,10.8105051976,-0.5517539042,-0.3061742846,2.2510262312,1709.4438783386,32.6260019173,-173.3589999473,-0.4963128284,3982.0686286234,3058.989936478,-0.6786149436,-0.4791967161,0.4649916891,0.1049419168,-0.0223111277,468.4089276723,2742.1426136751,1.820555985,-0.4958889639,-14.6607217653,2.3123644137,4702.8652882325,-0.1018766088,-344.6807661052,-0.1993301401,3274.0005757336,15.2691098477,-1699.4110824644,0.0959675518,-0.2648154075,0.9556091117,-0.9656340636,6.8604863115,0.8139788244,-0.6982565694,-1.8627953286,-275.5658802238,-0.7436359841,-2.1005277802,-0.6908400471,-2.2855870658,4.825302521,-12.4913893929,0.250185452,0.247234214,5895.9689139689,1811.607014324,13.5654326829,-0.8449080613,0.6364976085,1.6841394518,-0.0700065604,5.6967650457,-0.9563090695,11.860586057,54.5913035669,0.5721713886,-3860.4677297638,0.0537589312,-0.2079867639,-0.1977927417,-4564.6737146084,-0.0340606642,0.701368079,0.4129250998,2.1952783276,5361.6905294586,0.0255687679,0.1143167622,1437.571915025,-0.0829760593,-0.1993558317,1.1755410598,-0.194412732,-0.0278685716,3642.8004435509,-0.2751246821,297.1445301592,0.9762692095,-3.4289032087,0.6032772929,-13.8267308849,-169.2932275691,2364.3765784029,-2667.6138302821,0.3576475875,-1519.9647616174,-0.1161691517,-0.6758355096,512.7241583217,3390.8158836583,75.5805964423,5.1679874732,5.6225963566,-0.3285237649,-7398.5456508413,-0.6014082339,8938.7269028944,-1.7212045002,4556.9735741901,-7.5551082341,0.0328819572,0.566446945,-1.9774721759,-13.2569084709,6.5330344053,-741.4738195481,18.8273721403,150.6793084972,151.5686150781,-1177.0056331765,-1882.8131544974,0.4626335322,1.6185638421,-0.2366035125,-0.5064379705,-164.4550124133,2587.4068337377,1.2628920333,-0.0312212399,0.0444981954,0.1543941361,1418.9994331808,-0.7569728296,7712.6342736021,0.4342244218,-1108.2776876611,-467.6561997244,3087.2816980485,-1.6768988041,-1.9639402802,29.6567845263,-22.6470696362,-6.4421589297,8931.3902688232,0.2616934812,-0.6498235975,-1.0269475094,594.3487345348,-144.3438452031,1.6034353802,24.3377414655,-100.4772158001,11016.5442743706,-1.8138487348,-0.0344919778,-49.9066386037,4.382153225,-3.0233607733,-0.1335837398,-0.9266484123,-0.1026868553,0.0479304835,638.8362828857,-0.6494709388,-18.0287899284,-3.6458473417,-1.2678761742,-35.7169367534,0.5756922717,-1.8785985094,218.6102231842,-341.8590240567,-0.6442292753,-0.2407323014,2.2946816643,-136.9374876903,730.7684087762,256.2577716804,-1.1535491648,-293.6961004435,184.5204061333,17.8121864168,-49.540514918,-6.0540415288,-0.193077493,-0.3426086795,481.0215382769,-7.0989445651,-1.6113541553,-9.1516613025,-1.5658976326,7.2780373343,1031.9559406518,-1.8078207142,689.0291884091,-1.153868262,-11.4549802316,2635.0244417489,-2.352547915,4457.7684060844,-35.2863726431,-1.6333156995,-0.3213072215,-1.1533714095,2639.2048755011,-1.0595788443,0.361414555,-27.6729595778,-1.8361818103,1892.7398382026,1.2024680229,-1.6632490716,-2.433563989,-0.4139110014,-2.7012005175,-0.5466397685,-1975.0538493924,613.1558838962,8043.4520575599,-48.1204831277,-54.9247201114,7.434535855,-0.765170313,-2.3836996571,-0.0828075046,311.8092481981,-83.5001675407,-37.2769900712,-13.8568678145,2.4956678962,-39.6302105513,-0.4922742728,-4911.1779231793,-0.6453283308,-270.8420129523,-4.6824954436,459.3697807668,-48.71298677,-4390.721695189,-1.8508782999,21.531047446,-12.653711276,-1.4622058554,4.8323696525,-0.6884994249,305.3138030808,-0.8806720214,98.8049349066,-0.0815083886,278.2909315203,-1.2608597696,-0.8160824074,-1243.8013842585,182.3857984497,-1.8977136618,0.0747104382,-16.4512906304,0.6422341652,-382.7902773822,-1.5725013762,-1.3596551515,31.7632005053,1971.3349984744,-1.0340677601,-0.7516534807,-1.0117823622,82.0941436575,-3.8881248215,1099.2537606969,5.2712506798,-0.5527613305,-2.6837100287,-894.1300901914,-1.1812963657,-1.3144794467,-0.5102624693,-607.0888026041,-834.1000435087,-1.3778567153,-0.1584605374,33.1099209375,-1.1727359688,-8.4785996429,-245.0131852297,-2.281427462,-0.7463872986,-1.0958583783,1.6369002574,107.0903782928,-1.4532498572,-5.8132676962,-0.9325305693,-5.2297894463,-2.1019038196,-352.0300457141,946.9506192159,0.6243179737,-419.7426878104,-4.2476036428,0.2220508402,-747.7273786861,-225.2870409394,0.5587878387,-0.7519009178,-10095.1638399145,-0.2750494377,14.6478165455,-9.7868764201,886.2757671947,0.516619347,-2246.7674626927,-198.119556602,-0.8652805116,-0.3085063805,0.0438334683,-400.705097183,0.7201742808,-1170.5227061139,-346.4023864302,-5426.4800574957,0.5307339032,-5166.4849983406,-5394.8672044276,-0.0117443232,-6480.4385003815,-0.1412172848,-1.0644718733,-1945.3004596725,-2357.1609592628,-5.634317612,-25.5465461704,-286.948746556,-9.5417160903,1086.2210921974,-4.3310566119,-3.4013547719,-0.0146836781,-1091.7575570279,1569.9023771059,-0.9760906689,-4.050529487,-1.5465951683,-359.4290614943,0.3985550354,-27.0697028666,-0.860389139,0.847652451,-3517.5900240516,-31.4529975999,0.8844675808,-4394.7589341327,-0.1786241902,31.293545238,3324.4546504342,-106.0206141994,-0.138268228,0.2910254414,-5.0825651772,-0.7737211036,-1.4618584525,2464.1266464966,-0.2278959513,-14436.0009518902,-2.4773090648,0.5096898995,-0.6894725058,2.5188555303,-1664.5151249827,-0.231934133,95.7974509387,-165.6769125677,-3803.1690765391,-80.8363626365,-974.3541358413,0.253475155,0.0140474766,0.1222082568,-3156.2388581713,-2947.1289987331,-0.8852436123,-0.7405178189,1.3330321795,-0.6821632374,148.4437209154,6066.0087284364,-0.4759997966,-0.1754551377,1.2876542274,-4248.7018840366,294.2077768139,-0.3687964589,52.8702501329,-0.3788501315,0.2671615268,-184.4293714764,3.0417887561,-418.7664887593,-24.2861025293,194.7194252294,-0.7711331171,0.707083357,969.6686380223,5.7728695275,0.2512830806,-0.0645423486,0.8811394546,1.2867237882,61.8862096393,0.7273365992,1792.4737312277,1.1794005296,-10.8989994945,0.305187505,-3.8974090435,508.4756742884,1.4207104563,4.069320925,2.5888833565,-11.6433918147,-5.1828609747,397.3821198027,0.0571684169,-52.6156357986,137.495428803,0.1945620376,-0.5094627241,0.2558870314,-4.8308138004,-1235.4138432535,3051.9197851109,3.9225174672,-8.8417536298,3764.5903322137,-5.711921536,28.2053752972,44.5739307525,-18.9489676178,0.2524098627,4767.2025143895,115.2594301934,-3.7408286459,-2.2995407455,-3.1102310156,-0.7808841337,0.4605316965,1.8166965385,8.9980061193,-1.0197123983,1.0790767881,-35.5462108771,-4.9179293118,1568.0193103051,0.3501613688,-107.9538422452,-7.6440165166,123.0450402978,-0.8998025587,0.407795065,0.0178377027,1332.5692377088,-3.6561590707,-28.478630434,-0.2263910737,-0.2644615272,-0.0505240255,204.139625,0.0528644927,-28.078946189,32.4595436248,0.2623411392,-9.8443177788,158.0426634059,3.0869395204,-1.7804917497,45.2412793508,-1.0803378337,0.0718553408,-12.9085879846,-3.5347119986,3367.8178888385,1496.8899238512,0.1462791607,-11.9834433496,-5.1543501179,-1.9073274898,16.9331770774,-13.9069533955,0.4329151372,6.1525791849,133.9529527546,-82.8503602167,-1.6824013802,-1.0967022556,0.3551078226,0.3518536706,-1.3432828724,-41.7729836632,3645.9679371215,472.6035659446,-4227.1985622761,0.3494795002,0.280707606,-654.8676092443,-7158.4366609649,-1.5078987498,0.4390800501,0.7268722581,-0.1274271401,1113.3430505898,-1.4993411246,-5487.7528025409,0.528957512,-2.6711349544,1.5253037006,-0.6204666368,-0.4754196334,2.3083314502,-8226.5459771316,5.3794511753,-1495.8527858796,-480.158930353,1464.028137747,-136.810399948,12776.2893398364,2595.7171159088,-1.2646217443,-0.1328381369,-0.4306910967,32.9212535191,2013.8809355234,534.7384940232,-16.2734025727,0.2205917298,6950.9313075373,0.8152289899,-7527.1887697258,0.2131710532,-111.9414265163,0.0042379441,-5151.5935198483,-7.7557171217,528.807909862,0.3283561884,-0.0675897965,18.8571505271,-2451.6970349338,4.2867804314,-0.6990088172,0.1747513879,1.247066475,-14.4004044211,-0.882461213,-27.7335067429,-2.6450653761,-2.8622536508,1289.1141006267,-5526.4832533392,-1.5793487027,-0.6026320268,-0.9068062278,360.405117494,189.5246911776,0.2835150695,-1.4486986136,-0.1507275341,-0.7693742646,-19.3663255204,0.4957589287,-4071.2645276782,18.9446869517,-0.5160350426,242.5964321108,-2608.9824390607,4964.5211839926,2.045963574,0.6924314342,-21.028361895,-1.2003675068,-0.3398441612,-37.8767837442,704.843641395,3020.4650459946,-0.096008037,0.7505400172,-111.1932331518,-6051.9386746791,1746.112605462,147.4352034622,-0.7938001887,-1198.4031869983,-267.7549915644,82.057633097,1.8989496423,-853.0836944128,-0.4713481079,-4.2340155139,-17.810124688,0.7753188654,-4412.8389786577,-0.2872260109,-269.257100101,-0.4211504499,-26.0303092265,1605.7645015939,7.9467977397,2.3229491674,-0.7680884106,46.8824940686,-0.7130327441,1233.3549229391,0.3505357208,-3.6547312236,-1.8147764839,113.4154733225,-8.4543267082,12.6442398728,-0.2626238055,-1.1139428047,-0.0595261986,-3.646085227,9.507797621,163.3214595069,2453.1858684702,-0.0260499876,6975.3013148186,635.1981919301,-4.1516775762,-2.1340882658,-0.4891499034,-0.091632604,-1.8008968272,1.4211881811,8.6688755642,-0.5604980323,2977.7617850517,31.634853607,-1591.4776027253,-0.9277917606,-1847.7989563976,0.3702596094,2217.4636456742,5246.0758138063,3444.5615599537,0.1317933463,-0.1880108738,-4.7051420534,0.5806284991,-12.2869995272,-0.6698739657,-0.2899624221,-0.9913070919,-2.251989557,0.4608426135,1503.2188720212,-0.6872889847,0.1777849074,70.8105655497,8.3980758015,0.8977105273,34.1711903156,3.8688089125,-2.5961955885,-0.5876122252,-86.5455764329,-0.8653117305,-0.9636063798,0.0200288411,2.0910937699,-0.0960603861,-1564.6736709857,-409.1130030103,-0.0434756505,90.6904369535,2666.8863883454,1881.6875442541,-0.9227776044,-2602.1005796912,-0.8009403357,-3.39492724,-565.0365598814,600.8433062534,4086.9465490757,79.3865111169,0.0547085508,28.8080056281,-149.5617118091,-4836.1318614054,314.4001469139,-0.2980716563,0.4064995777,0.2439718239,-64.420682409,0.6550292852,36.6771471858,0.6675063967,0.3622216555,-101.9241266378,-621.5230526626,-0.845376108,102.7321038612,-0.0797920573,208.6573030042,1.2458709093,-0.1919362566,1056.7468955353,286.9614267984,501.8291085157,3.6219685285,2.2561725191,-0.1487138334,-7385.1773608776,8.6811110647,4946.4170545723,-0.6016702503,2779.3100623925,-1.3280962522,-0.4780314156,0.2834567789,-3.471768871,280.1832528512,8.9398402308,-554.2057635234,195.3481241101,-0.3237338106,21.4068947198,-1053.8150458298,-4387.2782095561,0.0203043274,1.2893853958,-0.1238030504,-1.1022999999,0.0641120136,4912.4514369764,13.047419621,0.1638328284,-972.6054812935,0.4207542995,35.8979733338,215.6835324906,1.1365728334,2.841984841,2320.6033194561,-1168.7542257658,-8.5709481658,-0.7729173253,-0.8629686254,1.1758996641,-0.9729126978,0.0045241665,1.379857007,30.332069663,-1.0316981338,-5.6077178101,2148.6386631312,71.5249741659,0.7646443634,2739.3327037796,-4.0426981255,11067.247658318,0.0182796109,0.4856411455,-6.6205628676,-2.1796509942,-18.4383864884,-0.9060420797,0.4340506621,1.2313740712,-0.713317183,50.6010179171,-0.0559337392,0.037729013,1.0674310751,-0.1147052499,2071.9624286234,-0.3117318012,-2.358471182,2764.8833551876,-6.6774906143,-0.112104813,0.2583609017,1.3164404761,-26.7405810031,1929.7101163006,1307.5788488269,0.6366327786,16.6813017576,5350.3773937331,-0.6487540756,-3.6404432855,-9.4138995215,-0.3485311187,-10.5096683218,-13.9271627661,-0.0357346563,-0.0371112037,-0.2353637522,-0.8813798849,-645.1621191849,-832.7785337084,-0.9915139192,6244.4061355482,8.9828825772,-3320.4814412678,1.5018802709,-62.5200045072,-3373.8695126936,-3591.8897840356,-1295.5655017643,-0.0311069532,191.0026825905,0.6000942519,1186.1881664726,-4.0018296373,-3529.2047006718,0.3481035629,43.0126850013,-0.4307415274,0.5836445131,-0.193615537,-1.6137975575,-5371.01904239,-3.4852212329,1760.1728502875,-2529.9449408684,253.4824060639,-15.8877180211,9922.8419119465,3307.7838550843,-0.6279587044,1.1806103819,0.5321435396,-1.2891341436,-2958.6276259186,-6133.8411106549,-18.5712586119,0.0015317567,953.4863533187,-3.1349223866,-4603.8202142454,-2.3744949571,-2997.892548022,-0.1719053327,-4329.8659309888,2474.1607146365,-54.0690143293,6.2690346751,-0.022192894,0.1996561487,-4059.7094210672,4.1574545884,0.1143852766,-2.4898710952,9.0199132566,-0.3672033261,0.1099108407,32.2762572359,-2.7162395224,-3.5127655911,854.2404240754,-3117.5505097466,0.3340599993,-0.150553831,36.9424528751,-2.8216413287,-0.7848675688,-3864.0736999846,-1.0673266762,-3.8980673768,-0.1746685464,6.296303151,-0.8993346416,-5419.7556805503,-1381.0365189645,0.2735484886,9.0177067242,308.5501092069,8504.2462754584,-0.5527786551,1295.9163130831,-7.2282716716,0.4932776648,13.7411121885,-2.5816373461,-0.1192883641,1644.5920455111
   -0.196085922,-0.2272595611,-7105.5157695959,-9531.7102214425,5.7543961118,-3212.9256914781,0.7407981372,-4424.4058508164,-2296.7583141505,0.0250323661,0.9163118123,-5701.702321059,-1.0881922907,-43.9659716701,-3475.244862149,4.9269573214,-826.8561063124,-2779.1214026602,-14.0865641361,0.0100994907,-0.5150945477,89.3450172859,12.5586031633,-0.4933114224,0.0819553445,-0.377869035,4.9695645667,-2502.3974456822,-1.9180966392,4646.3468153102,-0.395160882,4904.4431022013,-13.831963482,-58.1485752808,0.5699588726,-3.7045904606,-1.6302277107,-1532.0164411243,670.5800544835,-463.7734690064,-2108.2119220153,1.1511359902,-1512.443622531,-1426.6909153991,-1.1221781346,-1.0449583163,-0.9491823145,-0.3907144905,-49.9153035442,2253.5361661125,-9.698005003,-0.3194674221,-0.5630375822,-0.8773663217,2368.4214915743,0.2805692208,-3.486265239,-1.0336295079,-1504.6598798488,-2219.8375827756,-1706.4693634792,4.9678127013,-0.2720617116,5.271491434,-1.0063295084,-20.3277718463,0.8073264082,16.4205460662,-0.2834165707,8.734203546,-0.9621673346,2.132346631,0.0394513741,-18.3040075311,18.8152650212,61.7392372393,-0.5902183157,-0.4818310386,-375.4394238774,3277.5743302325,-1.2778309603,-2.44938461,-0.7692821903,8.2499423296,48.948072362,-1.1469548791,-0.4623152913,-0.0287000692,41.1811773892,0.6816640002,19.1780283648,-1009.9890882974,202.3365314344,0.7441209489,1.8747353777,-0.9602688106,-0.336793196,-0.9759136768,-5695.932769453,650.4718694069,1014.4921225993,-0.3511217795,15.9211322534,-0.9633458274,268.4353349292,-12.0034663601,-0.6781646534,-0.8209257282,54.6587639683,-327.340839762,-1123.9654217911,0.3303261072,-1.3862988516,-0.5350590176,4.6593958049,0.4588925535,-4.7816610143,-56.3949553464,24.4121452125,-0.1239290406,3.8495663344,-1.3042385896,0.2527228341,-0.2711257195,0.0271670875,0.8150211221,2.2326901983,4.2701757577,-2.4066131687,-1.1909662229,-540.1183257753,-0.7524144257,-0.7424962163,36.1912329267,-1.97015259,-5.6775947863,1.6179098996,-4.7145952928,0.4609075305,-374.4360613719,526.2943914854,7.3471867416,-0.0092819164,4028.9257944016,0.5748974567,23.0699987159,-0.4234311405,0.7830904745,0.5289631019,1117.0506650927,3027.6824128754,-41.4414832658,80.09437184,-0.5337628646,0.0022716318,-0.4496895978,973.7565947118,6.5807641396,-1.2546439791,2623.0991464975,-1122.0377528556,-146.521007603,-0.7113756671,15.373329624,-5.7702899149,0.5779270178,2.677218313,-1.4736903541,-0.9794204363,-0.2591894331,-0.5626065966,195.5666374106,-1.1776588132,-0.6343499479,1747.2065305357,-1133.3610678866,3.9175066902,0.3531968415,0.1116373385,1.3583170759,-0.5082570179,7.1105672492,-8.4080150288,0.7778247456,31.2957817765,-0.1478358684,1.1548504315,0.6783451508,0.1596344841,211.7721428723,0.5239528674,-20.0113228736,1.5683940555,197.7498608664,0.1597510364,-0.8315355603,0.9090898581,0.3352390724,-0.5005304979,6.1409410958,34.9383778703,78.7052071936,-0.0101390527,28.1248439991,-5.6276141406,0.524344147,-888.6551658942,0.3610104053,0.9057258327,2.3246766221,185.4675209715,-8.5641020039,1.1033162433,-11.2083782653,-0.2152249604,-1.1076894333,-6.1302072276,-0.205081902,4.1499606218,0.7691631397,9.2292502553,0.4229633323,2.2107513585,-5.0916666068,-1.8761764951,0.4641064263,-0.8294702055,-0.0397798939,0.4295696378,0.0097937263,-0.7590486824,4.9101071179,-0.2730248019,-2.0232268757,-1.7963213705,0.8670019202,0.335337435,-0.4845234605,-2.6543384319,1.1799944406,1.288818422,2.873205437,0.3479637159,0.8888412474,2.0312009998,-1.8152204743,0.5397111392,1.2223016142,-0.4778640253,-1.3297698431,3.8633697773,2.1551122466,-0.7046260635,-1.3056971871,-2.0460294106,-0.6368407926,-6.4671109634,-0.7661062923,0.4746747815,-1.9465165338,-2.0553792129,-13.7798424065,-18.0211381783,2.1836095898,-0.818647554,-0.8246163456,-1.3014869904,-4.2633950362,3.1502719508,-0.3704056245,-0.6214461073,-0.89422884,-1.0654596584,-0.0554059947,-0.3608362294,-0.2382182783,-14.9532029739,1.6748977072,-0.2945749264,0.3779531349,1.1665127107,1.6582581851,-1.9562059395,-1.8444671332,0.3747367333,0.0703236716,0.4390363555,3.1676394115,-0.002919604,-1.8941496922,-1.8308396899,-1.6549446767,-7.6529738658,-2.1150139584,-0.7386179128,-0.1251909254,-0.513967548,-1.4441278511,-0.3086271211,-0.1580257376,-16.850474517,0.8021363841,1.2754731376,-0.667116532,-0.9739832143,0.6913764395,-4.4104229918,0.0491633334,-0.8091521389,-1.4593683817,4.5716827979,0.4309729963,0.4560033545,-0.0784927548,0.4914744994,0.3029477094,0.1838527146,468.1056811632,-36.7122810873,-3.6173792954,2.5006819174,2852.6706212294,-3.643472694,-1.1432640757,814.0176590888,-389.8891629227,-12.9469928209,-1.1483988214,0.6982297638,-0.1879314991,-3.4319600921,0.1479134836,4.7808257686,-0.9912239956,-0.1406260987,1.7093640603,-14.8331555837,-0.8028610905,-1.2112757034,-27.3797317089,-0.9734568929,-16.3606638143,-2.6717027684,-1720.2614938011,-0.0539413241,-319.3816123204,-241.8771241154,-1.4534666183,-0.3578914525,-0.4209344583,0.1803837848,104.5256711812,-445.5030977824,-151.1023476777,-26.5352213437,-1.3913852992,-0.8065306634,-952.719730622,1.7907364648,-1343.7937325322,-11.8103697794,-1837.1374698679,3.9690961018,413.4653339075,-0.1905007085,-30.0176013817,-25.4002081177,-1.3360239842,-3.6078294901,-1.3261687246,0.3077249162,0.8132279895,0.8658640982,0.2626424335,-4.2923298095,1.3984114395,-1.2123999862,4.4422514794,4.5127747417,-0.3362004128,-0.4474230663,-7.9507134575,-4.1540376138,5.8870627782,65.3203980332,0.1621353358,1.3013518957,7.4804780654,-1584.0011136483,-0.7163473742,0.3766371286,-1.6082820427,0.3516084043,2.4107795951,-4.9054519871,1.304794109,-0.4805241043,-0.5195019875,-1.167004458,0.384061417,-4.0929997383,1.6908563016,-34.0652749601,-814.7730202696,0.3693115941,-479.8151644809,-0.949122639,-1029.9830693048,51.699680539,-0.1104951038,-1.3038308934,-5.0899462838,2414.6397979774,-6.9237725416,0.7995429577,8.1332943661,0.2562487902,0.0156205049,-429.853363621,-319.4676722012,2939.0457514421,11.7227625124,-2057.9796401182,0.3594695285,0.5966778423,4754.4532822423,-856.1392406447,-0.954662724,0.1858350028,0.2024683057,-0.8487694631,0.3979818794,-134.2684548082,-2400.3143804178,0.2612823893,-1.0519989996,-0.7259212385,-0.5434939074,0.1718291547,-1322.2577414393,-2734.6939619137,-1.7445596425,3151.6683293048,-1506.0881200991,303.6357206247,-2.9038866913,5064.4975086331,3981.7146846488,-0.4739890846,-0.1620485586,0.532846965,-417.7201523253,-1455.0013310566,-861.7871786778,-512.1882129936,0.9386025111,13.3927596011,0.9012185466,-2944.002295375,0.8836774043,-37.4434246149,0.1708982139,-462.9679131533,-0.150776555,297.4031616961,0.1111968675,0.6358176959,2.822715534,-5496.1238002582,-1.7105050342,0.5609245375,-4.9447266548,4.5118486158,162.340022027,0.2014533172,1692.5538741824,-1882.1768975188,0.3532617056,-99.1613053137,-4627.6031702106,0.8545589651,-0.2735341291,47.3606945113,-16.8063651913,-0.5104968791,0.439921355,0.0947154235,-0.5242026683,-1.2450236429,-6.0255771303,-0.1888867717,-3757.1844338419,2182.6826908194,0.9515771365,-0.7955313693,-4154.0527848054,6993.5925810647,-0.1811887348,-163.8682611723,0.2159816971,-0.9236508644,-317.1760572745,-534.6290516332,102.6067247307,4038.1574312275,-0.8412956137,-408.5320088702,-5124.4646269147,-8995.6032505238,-0.4506952791,-495.5801429163,-0.4399195887,-3877.467291386,-4815.6075209682,-0.9617437337,0.5230366258,-6349.0074981016,-0.0507571761,-1.9233896786,1.0845879838,1.39450672,12.8065282024,0.7058609648,6.9340891097,0.2129037434,-8.4555523996,-1.8050009814,1.568792137,-0.8035550961,-0.1740783734,-0.079109859,-0.78343799,-3.508426398,-0.2106098416,2.3704665746,-1.1254265656,-1.4121863736,-0.8462317604,-0.0631528104,-6.5965874883,-1.1768947017,-0.9533365552,-1.4862057947,-3.1558848334,0.6735083552,-1.3723591276,0.8048828401,-3.7563903511,0.7342813315,-0.6522244195,-1.191418066,0.6710231095,0.3909834733,2.6127786204,4.0256287154,3.0281443006,-1.8723442427,0.6055907778,-0.0601425071,2.2859579463,-0.1198093229,1.8762838773,-1.0919884169,0.0806231415,-0.6808154792,5.806252526,-0.7730285741,-0.7039637748,-5.7721671307,0.6132848201,-4.3547808426,-0.3121561662,0.4895171077,0.5656152347,-0.6185703911,-0.9766470725,1.7568780623,-0.1293320242,-0.4398488349,-0.7815297286,7.5028144906,-0.2211284473,-0.4789698105,-0.3825962214,-0.9155038649,-0.993276604,0.4103999366,-0.5975992978,0.5779020158,-1.4301488768,3.9795459479,-0.3059628267,8.8041591701,0.9480540969,0.5298531119,456.2354532964,-0.4753597977,0.4332277576,0.2432698459,-0.3287772511,0.732140632,-1.2267670696,-0.752998229,10.3864726787,-1.3271006701,0.9894909762,-0.58314522,-1.9974834668,-0.2660394931,-0.8120933135,5.1570161736,1.3434926773,0.2058755784,-0.8160989825,5.1546865002,-6.5769020265,-1.2718516578,2.8177412045,0.6107985381,-1.1449053102,4138.8379978665,-61.4574455484,17.4815762119,0.2003781227,15.4059218908,0.0570991961,0.323392247,-36.9186750022,0.6155318203,-102.9339557576,0.0535968182,-1532.0566502346,0.4817355487,257.0203349585,-0.3857442983,0.4793287593,-0.9081352932,-67.4248625568,2.2787272198,2.3634427867,-0.1963990744,-4.3353512002,1.3947384674,-13.9976201777,-3.5725105039,4.2971045654,-2.510475107,-6.5623718485,-509.5197004076,298.4794448393,0.3113584416,-0.5403642485,-1.0715916334,0.7435731868,-2262.8801178522,-3500.9335616688,-24.7697723247,44.3493882918,21.7243783524,-0.1546594682,-0.3687658116,0.5824750931,69.6933822449,-1.3515923775,-2941.2714104656,7903.0795349146,6797.2061929473,-31.6131545835,-1.0163007892,1.360373344,0.410937456,-6.4944285974,0.5824970386,10.5948064696,-2.3156439441,1170.8162048678,-65.8970039843,-57.6995144767,1.9459358101,1.4627030566,8938.2924519763,0.0886978784,-1.0156298356,0.1631424607,-5.2969686417,0.0004878179,8.2269610309,2427.9554149672,-0.2272073421,-15.1998242474,1.158025925,4.0148281598,-1.2038327835,0.8398624919,282.0471009532,0.4716287881,-998.938113658,-351.8922261269,-1110.6683193019,0.1397335487,-0.7375652497,0.4880561352,0.4026140512,-0.9308915132,-4.698534424,-2441.6172554408,-17.2716823843,0.7678075147,1.1884380709,-77.1397331347,5795.6920377755,68.4672343665,-0.4809935624,0.5180448856,-0.3214207427,4.8358408011,-10.482991225,1.3550625937,34.3550288824,0.7068837215,1.2067206626,-15.8328993531,-1822.6863579568,146.7248733577,-0.3456857793,681.9558990512,-0.0611862695,-0.6462368562,-1155.4421616419,1662.0950539408,91.3180358918,-0.4742757722,-2.0731032819,-0.9050185793,0.0653894721,0.3776243566,-2400.9687041949,-6.4285345246,1001.9118945028,2.0607618985,-0.4326152017,-0.4343313864,-0.5493966703,15.6833176993,-5.3067632419,534.5372162717,-134.2101592539,-14.3742939064,26.9544439207,22.905804777,-0.9879110061,-0.7638162887,-1.83854397,-0.1686613469,1.3015089532,3019.2775418703,915.7754556891,-0.4423423071,0.7150833608,0.4530607624,0.1815368474,2.080705945,-0.0287402725,-47.8712205217,-0.8199717815,-133.2220316463,218.7485203981,4349.8488303607,3.2746742845,-0.5599718617,0.4651388942,-1.0573363516,59.2590604845,0.9170291349,2.5190070157,-7.0932102815,-0.378505476,-1.3694201566,-90.5748446074,0.4307930273,-0.7282531006,4.151139181,-241.9896773463,0.1097425848,-0.7430636851,1497.5126213872,316.4051279015,0.3912992329,0.1606047624,-1.0303130003,-2.6543659339,-0.4306085039,71.6827167438,-0.440310234,-1.9048899691,2524.0191270654,0.6765829097,909.5202085952,-132.4138135342,4806.1732218473,-0.6197662641,-19.7682420587,-0.5290329716,-0.1001645726,-0.8020541147,-151.7718473624,11.1209488731,-2.6660240642,-0.3015875542,-5.5866151249,-0.3119447987,-0.1285662989,967.0135357179,-11.3409423736,-0.6702752584,17.035925832,-3126.824692009,-1177.862173758,0.2822456097,0.9286443551,-0.0727849038,-0.5145542535,-0.8060777647,0.3566076243,2570.9203933615,-6.2380643246,1227.0410433855,-2.6169746205,0.6126058904,1182.3138063089,-1642.7053680223,-1.5994888527,-0.5632688016,-1.6432497703,-0.755244182,0.2206783076,-0.0824851896,-12.8090675622,233.0319483715,0.5873966357,0.6381656845,189.9210894191,0.4625175476,4.7390584729,0.9562277913,166.1655200424,82.7261514517,-51.2452466578,-3805.8187795047,376.510626829,-0.6922934041,9.8829546821,-0.7070973169,-1.152660216,-0.4086216021,3345.5504628385,-2332.1019254093,-2884.9237523012,-1.5859692415,0.1010116819,2.4616735824,1959.616674904,0.1333467117,0.4544236002,5.9935350576,961.0794284397,0.8223931563,-81.5462784441,55.5955174773,2303.6637603517,0.1523475883,-2.3365704311,0.3301170974,13.8329078522,-1.1318266845,35.4550553637,-0.97282625,1043.3960497108,0.7881949337,-816.5970381226,-0.7798466017,-3.3946102016,55.4547483966,-8146.7611027826,0.6402872543,4170.0859844994,696.0802081581,755.9272254307,6773.5147664068,-0.3264237039,0.4761565012,-1.5895344875,0.1406303897,801.9600891307,-0.5033741596,-0.7873541896,-26.386004366,0.6854410596,-2.399149521,-1494.9150073557,1465.9601865246,-0.9856148568,-978.9530430481,0.7763090859,3.2402159911,-130.2806396774,3549.7040469238,-940.8349694201,-1.6306154626,0.2490620634,319.4614153286,18.2898259847,19.1095152392,4891.7014420926,1.1789358362,0.0834060177,-0.495565997,-0.506152687,0.9486585967,1708.7642851888,-10.6478682457,0.7738520741,-0.0241761672,0.0439077082,-4150.5357314646,74.9544472637,-0.9547504067,-673.6774925643,-0.4939588325,0.3621692817,-1234.6015711697,-2987.7413571722,-3.4858483256,0.4317210557,-0.2567991192,0.5010472338,0.1056251637,0.2158851092,-6525.7006889403,1.3305785115,1786.3371121362,0.3349820899,-0.4843913283,-9353.5040977759,-0.7943299035,1.3760406221,17.1011433857,-2.9417342555,-1911.5116169014,-2.6753762015,-1.053824419,1.8046853544,4.7578631155,-0.4895338056,-37.4417608368,-0.0213085164,0.8455408085,2118.4089650689,-5.5056725622,-0.3153052616,-0.3197041195,-0.466600461,-0.7317199319,-3063.8310369971,0.4914297365,-0.2643662161,0.3462035989,-8313.7602784744,-3265.383793467,-5681.3368099896,1.4910615509,-0.7726835661,0.839772049,-0.9325984151,-3.6303120005,-3.6470234518,-0.1172205255,0.1026982392,-0.6295821046,0.1098104042,-2163.6769454325,0.3266002011,-0.4404826146,-3719.4440852886,-1.2987713104,0.0339444057,-0.6458382021,-1.1727940409,720.2908298582,326.4566528034,-0.2208489197,-0.3632414018,-0.3971898919,-0.9385633809,1.618785355,-0.8774664072,-0.3315804633,-46.7844967207,-0.3933614126,8.4674470515,2.1053584336,372.4058599427,-0.3542315808,-0.391190266,-0.1722025119,-0.3464248905,-0.3178421378,-3315.7331756585,-0.9796140325,696.9543793576,-0.2956357956,0.1999353849,0.5981325632,0.5816227733,18.6692683989,-0.2265623,0.6930008881,-0.6131261613,-1143.4371107243,-6.097364697,0.6311958215,1.3710183649,-0.2282289105,56.6695562903,-244.591878304,7.9673994097,-3788.1945666523,-1768.8637014122,-3943.2296833396,-0.2182480882,-0.4609937314,1581.5203543034,-3036.2382590105,-169.4353404967,-0.6466441337,-7.7709915286,-1.158317241,-2.3438317102,0.4263930192,2453.4145801076,-3.2156323055,-2065.6349259312,0.389533075,0.6320224364,-0.5087931631,0.6725224828,-0.6345950185,-0.8836639898,-2797.1936420213,272.3168408992,-0.2405736996,-8.011886251,-318.4739071,-0.0377144976,0.4837064279,-35.3068775564,-1.070464789,0.3885595352,-1920.3475651264,-325.8857750976,34.0985783762,-1.7847051701,455.9564989228,-0.9279648459,-744.441272086,-1.0928856811,466.8148723745,-1.2255175749,-558.4620775366,-5.2730255299,-4605.6959351139,-17.7297150436,1.1380787797,1.4877390831,-0.886720583,-21.2831039742,-70.9459934071,-1.9482183129,-0.0554871055,7.1452525597,-11.0609695142,-4.5769287482,-0.6727812486,3.2187907796,-9.4754604149,-399.5773852481,-0.2104324933,-0.4869294764,1137.6619631223,1662.9444369725,-0.1471499201,72.4375640527,-1.1138250485,-4.6590022368,-0.200929018,-7.8546876209,-1.4729494835,0.4920762775,-526.8860479221,-1.0850524592,-584.088094903,-13.9063336546,-2238.78849381,0.741435118,0.8319309987,-0.9430325332,-4.0254299292,-1.6113538404,-1426.7102929587,-1809.5705874663,288.342895225,-0.5382796941,42.5474775551,278.85678642,1135.2438152913,46.8747119605,-16.6073723814,0.3854174483,5644.761989078,-8.9114607848,-21.5177436979,-1.1709725192,118.2970439214,-0.4454831145,-2.6865018266,2167.3907778434,-0.2031556636,1.6399582083,-0.2634197688,913.5245171102,-3.2179420673,0.2038721052,-1354.1647297678,-6084.3382007329,-10.5749515388,-0.6353782317,1.055064913,0.4335208611,0.0609204695,-0.0062023079,-6.9943092977,-0.0568035382,17.6040814659,1.0658085775,-0.3999272996,-294.3249472179,0.4285461299,-1.1094298646,-0.1733410588,-6.3934368884,407.0490717187,0.337668953,-1.0154163609,-0.0973927535,-0.4915689082,-0.3052580648,-1.9755731142,0.7621504545,-287.8991500186,0.6783123123,-12.1871678682,-1.6732298731,1.0131531704,-101.651308138,0.6925266506,0.7568440695,12.5319351881,-274.9514849923,-1.1652242098,-8.5780033608,-792.3434286807,-27.2212664881,0.9880641357,0.666250928,-5.532818546,-0.6619894944,1.0306492808,-12.3213178235,-16.83383556,0.4744054968,-3.7397380804,-30.7052311862,-1.556839218,-0.1550683883,8.0212189316,-1322.4727422412,-2.4357965837,-0.5844250897,0.452893477,-143.1445560167,2515.3957386575,58.8899533848,-0.2615407822,1.0172461937,-0.1423630023,1.3571682416,1010.6284512138,-0.6035323163,-1.6239541559,3.9872893871,-0.0806312695,360.1147866271,-3.0981954304,-0.846898717,-0.35211265,-601.2897973366,0.433871012,0.5020111613,-2144.3584431598,-719.6184249647,5.8256450006,9.6848175621,-0.086938323,-9.2038485395,-61.877627302,-0.598913867,94.5434901267,-50.6726970347,0.3587129853,0.553205879,-2396.2609459168,-0.4338429657,0.8575848642,8.6005073371,0.7692001765,-1.2554327352,0.9779104488,0.1664193957,2.5646735753,-3.81688116,22.1190593136,-3.6691559531,-2.4959453359,6303.4110070972,-114.6408117102,18.5541602955,-0.9122759344,-1.6981031219,-2.4486899724,2.7145911416,-1.8505777321,-72.9196281608,0.0408656689,-9.7368570603,-0.1879120936,-1.8468657843,-0.8891592449,-4.768841417,34.25630207,-1.6332491661,2138.2348251538,-174.2817463254,32.4909593785,-1.1240336718,0.4621187492,2213.8529562193,-2.1558938251,-2.6546005659,-2.2771423284,-1.2472124064,56.7753818337,-71.8715345396,3.0251100785,-2.928889572,10.297262984,-2.6020142741,4.5794656816,-2.3376295332,0.1385179475,-4.1334981529,16.6787192742,1863.0111948051,526.7635380314,-2.4298844281,-0.7199470503,-19.3569255076,-2.842277151,6.4976849972,0.6735464658,-2.5934463925,-1.8413997312,-6.3935039699,-0.8520786882,-11.0473378259,-1.2495690123,-0.6682716855,63.8339685541,-0.086033756,-1.5836825168,-2.2172722148,20.1976764952,64.5663834782,-0.7587606376,-5.0168080993,-1.3045715711,-1.4524801919,-1.7919126016,-2.4026486402,-2.3438947478,26.0991102422,125.5349899692,-2.031093493,-90.1754579119,19.5748223528,-163.9479102187,-10.0428227712,8.1331605265,-1.9558365016,-2.6007167054,-2.0214357862,2997.7000567738,4.7863247631,12.3149914582,-2.2377282254,1.4868624759,-0.3420639749,-7.7284924987,7.3301431556,0.0339601119,-1.6409631182,-1.6010416101,1007.2196306668,0.6656660774,-3.0874944726,1.927092611,-0.5291577853,-0.6188310781,-13.4261541861,2.3423418277,6.2545900288,1.2280362417,12985.5842696792,0.837902218,24.9472116903,7628.2702183734,0.4655505315,865.3650658664,-0.4309685564,0.1671179463,0.093220651,-0.4609705515,-0.4524214285,-5.8100671565,0.8004173734,-20.6653939381,-0.432505324,0.215247706,0.8665919137,1.784860257,2.7800183297,0.9689318028,-428.8209892129,114.4453993272,-11.7516679621,24.2464127473,-1062.5692644488,-0.0658751818,0.8470745138,0.5441088837,0.8154868205,0.6833007519,911.8356428619,145.5264285279,-13.1522451086,0.8723025535,1.1951644558,-0.5474044717,6.0729017847,-0.4240829469,4.0795988838,0.6563573546,15851.2839736795,0.4239043411,-2.2904130366,-1.3887272983,0.9332471521,-11.5329011303,0.1225888358,0.2629241995,1.1050104818,6.2955903545,0.622127014,-30.1379989741,0.8952520263,-6.1727536008,-1.6015179619,-0.3660806848,-487.1512682816,54.9990542248,0.0977772282,-0.6072677327,65.098420531,4381.2725050413,-487.1000388876,2.114461479,-0.2463761997,2.5047288776,-1.2549683046,1.7020405078,-0.3473645442,318.2445818945,-2.6034575146,-0.780684247,-0.9122085736,0.9009204905,-0.1693503079,1.2321881865,1.1711407271,-0.5661000764,0.7748321643,-0.4735178657,-4.9390643014,0.1310870116,1633.1261345159,-0.2371646238,0.0464484535,-1.2848087826,18.092570308,-0.9911205693,-2.2049209346,0.3587870739,-63.8499675177,-1055.7501240081,1.1951280697,0.6241149654,-2.1870078913,1.0322299221,-0.5737506538,-2382.8678549973,358.9046643018,1785.7527017159,-3.9030026837,41.7520746481,-13.9083709935,-0.7623725113,-1554.0134175671,-589.2056519958,-4.4665313513,0.148346128,-94.6983806176,2.2896113736,-1.2343319821,-0.2573592772,4113.3927976897,-0.7468451375,332.2094426564,-0.110374925,-108.4438690928,-0.7537363845,3.1591418865,-1.8516601363,0.3658376181,11.7654377987,-190.3695898367,-598.9468219669,-21.4947611183,-2883.3553203553,-1624.3539220767,-1.1507516423,-1.4911353294,-1.7026852527,-1609.1777515291,-2603.4908018801,284.6426272366,-9.2996269334,-23.4504467989,38.3165622688,-9.886082243,-17.5162764623,-0.2623119917,-271.5929909487,0.0498710732,-3767.36077262,-236.496198925,-2.4071668994,-1075.400225142,46.0006781244,0.6541353557,0.2384231282,-3.4629763014,-0.3291458842,2.3022090148,-8.1224533722,-55.8166703381,-0.7642172299,-3252.0693614829,2.9260028744,0.7507750654,755.8459943042,-2598.3086090144,0.0871706657,-0.9970053327,-0.7146767756,-582.3651939003,-17.4328366167,4.7413998076,-0.0999177458,-179.5026223802,-2.4013765853,11.2344221419,-1.5474398607,4.5011409586,-2357.1301626583,-1.3879879564,758.2029822924,-707.3610997604,604.0229244878,5.5950381392,-2.2648555892,-1.4975342862,-0.2385929405,-1.5086225972,-1732.6813392672,-8652.7702061891,0.4370882129,-0.9712264446,-15.6464036193,-15.9486680768,1056.0678043802,5509.7648740931,-0.5272363345,-1.571058343,1245.184173999,-186.0988723928,-92.700466469,-14.6489803466,-0.1676354991,-1.5409473033,-1.8813840227,-0.1331392758,-2.3968812122,-491.7370013002,-1.2168254095,-33.9818272345,-1.6838860091,-2.4995675962,950.2505989377,6.6089964823,-2.1371579763,0.011632409,0.0735082792,-0.158091333,-0.3813618118,-0.0619655196,-2395.0788225558,-0.8122949521,-1.2858904259,-0.3396270394,0.3756319721,0.8670504872,-0.9723681502,-0.3199972115,-0.6147962267,468.4511473351,2124.6691875161,-0.9402694965,-0.8793979288,-0.1593331949,188.7242718875,-0.5704204896,-3.8162964492,-1.2925032942,-3.7855006987,1281.8880093304,2082.6385874774,-421.1112939273,-0.1142235043,0.3671830064,-3.0876922402,17.9241615023,-1.3102563835,1.0710389819,-0.5697929612,-323.4934322562,109.7765698285,1.9617041016,-3.9294298685,-0.6837670697,-0.8891498862,-0.221842803,-1.386068123,-0.6428132954,-0.8006085459,-7.2492689777,0.5847031772,-1.4940971109,246.3799875471,-0.6264327998,-0.6168469058,2751.1392389068,-1505.5451561957,-1.2057327112,-0.959251353,32.6310585727,0.5657615153,-1.7422684552,-1.2438641837,-0.9280364404,-0.457413648,-1.36877694,3.8188769718,-1.3825757211,15.313096686,-119.3690581225,0.453267186,-1.4000343759,-7.5748231317,1288.658257023,0.354131867,-0.1454490922,-0.5229439417,-0.4325540858,0.4950411773,-413.0732541865,1819.3827247944,1217.7929027471,-0.3304892661,-298.075406349,-2.2066904141,-213.3647708958,111.87800349,-0.9236539491,-0.5520313356,-314.9060654085,2.506922119,-107.5474499596,-0.2442418305,-0.3945954105,0.1776461717,-0.5670055006,-146.9667570701,0.2641118536,8.4368541,0.8441240671,-277.2191714799,0.0726243918,0.4364847509,354.239722994,-1.9891898729,0.1354562967,0.5918435436,3.3814708005,-0.3688847066,0.3356844629,0.6278533349,0.0013765363,0.4434723305,795.1004791152,-0.0831428238,-0.2349161067,0.2005639722,-3.448007242,-6.8719201587,-0.7137511691,-1030.131835771,-1206.8131160043,-152.9803395529,21.7986352118,-156.8415791644,-0.1026667061,0.9362975029,-3.3265626768,0.2072392835,0.559144889,-1212.6326352203,-809.9064338075,44.6676634294,-0.0627601595,-0.5434182828,-0.1790813651,229.2630185573,0.3790676138,88.5879178631,3.5229276225,-21.4523251134,-131.7945723393,-0.083091896,1.1799003098,0.1161583802,-1.7354668067,0.4883225798,-9.9092865749,-1.2590621872,-0.2106377192,319.8529939808,1612.5970605115,-4.9594707992,-91.2151843818,-0.6420138498,-0.1643485839,1465.5069237331,-1661.0803154292,-0.3069676157,0.0035623313,7.1859268139,0.1581586724,5381.7000493652,-0.3136573726,0.389810961,0.8113791741,0.1507037202,-4.4157346616,-1.0286654914,7.7654200724,902.3804968408,0.4202039392,1.4812250541,-1985.9657553817,2130.1942669455,0.0889742676,-1295.7217449023,0.0404213036,0.3736204457,12.9521926589,-72.8367429924,-1.5157457153,-823.5273891428,-0.6402560119,-5.9546254143,218.4054604668,-1414.303394233,29.2488687807,-1.1760666304,0.3646519687,5.972431488,2.5289288926,4.9022485984,-2.7720832496,7.0742087819,0.7475496812,6.5325477207,-0.8355893128,164.1405864377,12.628990713,-20.5470955692,304.4244524404,-1.2969161316,-9.0129001059,-1519.8346282004,1962.1653821493,-1.9716546363,-0.7165101115,0.3436002904,-3.771066328,-0.2053379865,0.0406155216,-1.779673801,0.4041445782,-24.6630872796,-2.116519532,0.4987011906,-504.1766161625,26.8264976441,5.1287204806,-4.881365979,2.8648316104,-183.8676040416,-282.365851149,-0.3570750916,-3.4165167985,-20.546277683,0.0341988303,0.608050268,-0.8065696091,10.6080723155,8.7721588951,-0.0654918602,4.1122885241,-1.0223075282,-0.3273470114,0.9227721069,1711.8775739559,-0.893752438,-0.4502608777,0.1699184158,0.8698241108,14.1889741143,-1582.5438688369,0.8042184686,-1.3571003931,-0.5067912902,0.6659577659,-2.1951352496,-3.6062617381,-2.7100139116,-0.9074987334,2.8412564495,-0.9058137934,-7.2914485281,1.3201458279,-0.679639079,-61.0343926478,-2.4508237244,0.7516142714,-0.236209299,-1.4007548264,47.5932024327,-0.8685657674,-1.1061778658,-0.547194092,0.6912983071,-0.6976234101,0.5984030342,0.2413374096,39.1724143883,-35.8034435198,0.4796493367,-70.2394954135,0.8498027259,-4.0618424126,-0.9528344298,-159.4267719863,-0.3141159391,0.6841132998,-4.6270997107,61.4720810997,1.1632457688,-2.8778650614,-0.561013241,-21.6235729213,-0.0025041953,0.13765584,-5.3259995861,5.4955524067,0.2200164209,371.7867764666,-1369.2957149242,2.2578494529,0.6928359781,8.1437522596,-0.1105348027,-3649.3367730745,2493.9154943721,-16.1387472403,-1644.1222715247,-1.4977757555,1210.9750780633,295.9705196596,-0.9703717307,621.4692644182,-599.7346935018,3536.7108739985,-1.5585707436,-1.2072213785,0.1690131936,2.4728044614,-1.6477795559,-884.0621068618,-2.0194197191,-71.4884839882,-5.9298153008,-9.172839085,748.7889969874,-1.9279465971,-98.3247425685,-95.1367206093,-2357.5899449047,2729.5707515965,-704.9928242886,-76.3492216321,199.6395801581,-7.8442947871,-1.7860558584,-4.4224425072,-0.3642887869,-1.6401434819,-10.4086435127,-1.4245989717,356.1278523104,-2.4254175514,0.8921967019,0.4428133567,6.2848770549,-2.016311488,1294.1359501386,-2.1572655909,3452.9662271306,5419.5257148438,6234.2120674807,-1.0658907219,-0.8367837431,-504.9183937362,-0.7083747286,-1.8727952037,131.8745524085,1516.9527040385,-2.5206488122,13.3272285022,403.3013485814,18.5580813848,-2.8808534213,-1.7467848544,-11.3820450732,6463.6453424679,-0.756713267,-0.6328603328,-7.8854016598,-1415.6008407465,-311.5873537811,16.0625417256,-1.0302377024,-526.0584879576,6.2539478926,1946.1181993816,-0.6255358885,-1.3271282796,3.6950309041,-2.229992514,157.1027575604,1758.4420951317,-0.6972688537,-1.7733940917,-14.8205792736,0.8722603725,-1.0241807539,-0.9180633847,347.1010424113,1161.5889764715,-5349.2187256356,-0.0034770696,14.1035537728,508.641517715,72.6601243789,-180.4653711963,-611.4088028235,0.0385644497,942.0991902413,1371.2237531879,-369.6655214351,-1.4591093389,-31.8427948813,-1.8066946474,-2.4669673424,-0.8438530135,-374.6618740279,-455.949855918,-1.7737243719,1713.5906717812,23.4201901722,-3.5737860196,5523.1090195696,254.9012016126,-530.6017741267,-1.5286226159,-4.0592808036,-1.6953407622,-2.1431019511,-2.2392039279,-2779.486982546,29.2890192451,-484.730237191,4.3491365389,-6.3456120931,-15.8908349026,4.9978989451,-4.6229370071,-1.6603894455,22.8513392199,-863.2638527519,1176.9530872464,-10.4933560984,17.2651190295,2552.4489967666,-2.977064611,-4.0703712191,-2.8048233928,-0.5169206924,2823.8734928788,669.5838303041,-4.8947773595,-1.6149944433,-17.10745197,65.7246774906,4.2200642432,-3.2158756703,-1515.9302368512,-6.4906671772,10912.2299916078,-3.808237871,-54.0433789014,-4.8914415763,3.1742089363,-3.6983835855,-2.6707420602,0.8199248407,-5.5120042204,-6.5443303673,-2.0295564296,-5.3979511294,-5.2001674118,-4.7687027476,-2.78723093,-3.2508046803,-1736.697118057,729.1514529288,-1.8216096873,-3.7195021311,-6.6985084464,1632.3802277861,-6.4940257963,-2235.4881096016,-1.6290743177,-3.3590473865,0.7432486327,-9.9456436659,-2.125083118,2866.5064125624,-3.4300276786,-1.6480815301,-412.121323635,1347.8817129496,-1342.7076713503,-2.836171804,5.2665629521,-2.3967102513,-3.2025453333,-44.6728882788,2.7356252541,-1.0502291086,1172.8783390795,-2.8129756763,182.4873665409,-4.492510869,-392.0637769462,-23.3928283421,-3.0884785005,-2.22592612,1516.7889727002,-97.9920738042,2.134311196,200.4191934949,-0.8413335112,-1.6800987507,-0.1969386754,0.8632075373,-177.9140577737,17.2442472888,-3785.6821058763,-581.2704079936,-1.3207504838,0.4049186453,1624.1300691307,0.674235398,-0.7768706552,-0.9780421625,0.2914952662,-0.6665828406,971.0996667359
