encog,BasicNetwork,java,3.4.0,1,1667680776995
[BASIC]
[BASIC:PARAMS]
[BASIC:NETWORK]
beginTraining=0
connectionLimit=0
contextTargetOffset=0,0,0,0
contextTargetSize=0,0,0,0
endTraining=3
hasContext=f
inputCount=784
layerCounts=9,75,101,785
layerFeedCounts=9,75,100,784
layerContextCount=0,0,0,0
layerIndex=0,9,84,185
output=0,0,0,0,0,0,0,0,0,0,0,0,0,0,0,0,0,0,0,0,0,0,0,0,0,0,0,0,0,0,0,0,0,0,0,0,0,0,0,0,0,0,0,0,0,0,0,0,0,0,0,0,0,0,0,0,0,0,0,0,0,0,0,0,0,0,0,0,0,0,0,0,0,0,0,0,0,0,0,0,0,0,0,0,0,0,0,0,0,0,0,0,0,0,0,0,0,0,0,0,0,0,0,0,0,0,0,0,0,0,0,0,0,0,0,0,0,0,0,0,0,0,0,0,0,0,0,0,0,0,0,0,0,0,0,0,0,0,0,0,0,0,0,0,0,0,0,0,0,0,0,0,0,0,0,0,0,0,0,0,0,0,0,0,0,0,0,0,0,0,0,0,0,0,0,0,0,0,0,0,0,0,0,0,1,0,0,0,0,0,0,0,0,0,0,0,0,0,0,0,0,0,0,0,0,0,0,0,0,0,0,0,0,0,0,0,0,0,0,0,0,0,0,0,0,0,0,0,0,0,0,0,0,0,0,0,0,0,0,0,0,0,0,0,0,0,0,0,0,0,0,0,0,0,0,0,0,0,0,0,0,0,0,0,0,0,0,0,0,0,0,0,0,0,0,0,0,0,0,0,0,0,0,0,0,0,0,0,0,0,0,0,0,0,0,0,0,0,0,0,0,0,0,0,0,0,0,0,0,0,0,0,0,0,0,0,0,0,0,0,0,0,0,0,0,0,0,0,0,0,0,0,0,0,0,0,0,0,0,0,0,0,0,0,0,0,0,0,0,0,0,0,0,0,0,0,0,0,0,0,0,0,0,0,0,0,0,0,0,0,0,0,0,0,0,0,0,0,0,0,0,0,0,0,0,0,0,0,0,0,0,0,0,0,0,0,0,0,0,0,0,0,0,0,0,0,0,0,0,0,0,0,0,0,0,0,0,0,0,0,0,0,0,0,0,0,0,0,0,0,0,0,0,0,0,0,0,0,0,0,0,0,0,0,0,0,0,0,0,0,0,0,0,0,0,0,0,0,0,0,0,0,0,0,0,0,0,0,0,0,0,0,0,0,0,0,0,0,0,0,0,0,0,0,0,0,0,0,0,0,0,0,0,0,0,0,0,0,0,0,0,0,0,0,0,0,0,0,0,0,0,0,0,0,0,0,0,0,0,0,0,0,0,0,0,0,0,0,0,0,0,0,0,0,0,0,0,0,0,0,0,0,0,0,0,0,0,0,0,0,0,0,0,0,0,0,0,0,0,0,0,0,0,0,0,0,0,0,0,0,0,0,0,0,0,0,0,0,0,0,0,0,0,0,0,0,0,0,0,0,0,0,0,0,0,0,0,0,0,0,0,0,0,0,0,0,0,0,0,0,0,0,0,0,0,0,0,0,0,0,0,0,0,0,0,0,0,0,0,0,0,0,0,0,0,0,0,0,0,0,0,0,0,0,0,0,0,0,0,0,0,0,0,0,0,0,0,0,0,0,0,0,0,0,0,0,0,0,0,0,0,0,0,0,0,0,0,0,0,0,0,0,0,0,0,0,0,0,0,0,0,0,0,0,0,0,0,0,0,0,0,0,0,0,0,0,0,0,0,0,0,0,0,0,0,0,0,0,0,0,0,0,0,0,0,0,0,0,0,0,0,0,0,0,0,0,0,0,0,0,0,0,0,0,0,0,0,0,0,0,0,0,0,0,0,0,0,0,0,0,0,0,0,0,0,0,0,0,0,0,0,0,0,0,0,0,0,0,0,0,0,0,0,0,0,0,0,0,0,0,0,0,0,0,0,0,0,0,0,0,0,0,0,0,0,0,0,0,0,0,0,0,0,0,0,0,0,0,0,0,0,0,0,0,0,0,0,0,0,0,0,0,0,0,0,0,0,0,0,0,0,0,0,0,0,0,0,0,0,0,0,0,0,0,0,0,0,0,0,0,0,0,0,0,0,0,0,0,0,0,0,0,0,0,0,0,0,0,0,0,0,0,0,0,0,0,0,0,0,0,0,0,0,0,0,0,0,0,0,0,0,0,0,0,0,0,0,0,0,0,0,0,0,0,0,0,0,0,0,0,0,0,0,0,0,0,0,0,0,0,0,0,0,0,0,0,0,0,0,0,0,0,0,0,0,0,0,0,0,0,0,0,0,0,0,0,0,0,0,0,0,0,0,0,0,0,0,0,0,1
outputCount=9
weightIndex=0,675,8250,86750
weights=##0
##double#86750
   -0.2377614723,-0.1965113888,0.8329437676,-0.5910895774,4.7974985006,0.0159294761,-0.3501346465,-0.1412960732,0.1675328307,-0.057436859,-0.2984028183,0.007354042,0.6058157626,2.4749646643,-0.0205618328,-0.0485031619,0.2977288083,0.1475493986,0.0210964996,0.6772375565,0.0792155383,-0.0515022871,-0.2545976284,0.2570855503,-0.8720687206,-3.4062864026,-0.286253836,-0.3764914862,0.2234882917,0.1024653577,-0.0500456489,-0.20415494,0.1731864401,-0.4377857403,0.1298639472,-0.8972448636,-0.5255628365,-0.2905990141,0.0640494215,0.1333467159,0.0283442778,-0.0874422692,-0.0115910265,-0.0943489289,0.0862457845,-0.0619035739,0.2060726053,-0.0827889485,0.034690856,0.4894939145,-0.0272454827,-0.2195548948,0.0420490654,-0.1759749197,0.0801881182,-1.37116239,0.1099535126,-0.4745890464,0.905296735,0.502736831,-0.2237482407,-0.0146832327,0.029168904,-0.056333616,-0.0121279795,-0.0661270946,-10.237727554,0.2852683704,-0.1594883944,-0.228460891,0.0934146539,-1.4879980555,0.1069956171,0.0566234259,0.1510074782,0.4080038695,-0.096696564,0.634946693,-0.9131444271,9.3912461272,0.239739929,0.2688304096,-0.1512664276,-0.2889510468,0.0220083628,0.1371542992,0.1429180941,0.4901826189,1.7004986006,-0.0384521298,-0.0273966015,0.2062059273,0.3110612269,-0.2190040389,0.0759181442,0.1638241112,-0.9491709301,-1.0771893023,1.4694989745,-0.1053911753,0.4223401796,0.6968099497,0.0998036707,-0.0016708526,-0.175158355,0.1589387369,0.1505268202,-0.1407938981,-0.5474100676,-0.0482720313,0.6815475098,0.421656084,0.0521136117,-0.0401226552,0.946011669,-0.7560754304,-0.1903247465,-0.1732356968,0.0929916431,-0.0454301358,-0.07492195,0.0703468114,-0.0406726949,0.1823833139,0.8190024966,0.4092011457,0.1562102242,-0.2262516533,0.1451088884,0.2179798983,-0.7957268887,0.1165081035,0.4576349902,-0.5977860389,-0.3051856313,-0.0608587471,-0.0875774695,-0.0254044875,-0.0829559013,-0.0613774098,-0.2573486349,11.8195732948,-0.4242781218,-0.0568835576,-0.274272505,1.2496539399,-0.7713775426,0.0988968931,0.0617451683,-0.0110693226,0.0710596267,0.1108571141,-0.8698550829,0.1876798218,1.0827911137,-0.134636213,0.3223179113,0.3533139368,0.4022360994,0.1669703511,0.2380875484,0.0852206104,-0.3953132142,1.8099673015,1.6360041479,-0.3112565105,-0.0464700373,-0.0295323589,0.0454357636,-0.4098139814,-0.0172352873,0.0855727215,0.4314442885,-1.4175937906,-0.3918757414,-1.6635989912,-0.3243950441,0.6585863208,-0.4598458278,0.2188990963,0.1505584121,-0.0865509237,-0.1347344274,0.4756391313,0.0390185904,5.2154195427,-0.2499840975,0.3507547947,0.17467326,0.331071279,-1.6352869681,0.0866970972,0.1079586227,0.0283424182,0.0294488428,0.1331060104,-0.1395067302,-0.0371304023,0.1063225381,-0.5433012202,-0.0201872598,-0.0128495477,1.4174232506,1.2316593994,0.8091051557,-0.4951303891,-0.4372367759,0.0034988626,-0.2899406616,-0.1831136309,0.0763884377,0.1574168807,0.1085090805,-0.0143552183,0.1108610717,0.1158298184,-5.1405929549,-1.4426801043,-0.084601059,-0.4227566664,-2.5033500884,-0.4471578215,-0.1231541568,-0.0404959789,0.0877259682,-0.0618713692,0.0796372684,0.9168005519,-0.5238343237,1.5436744841,-0.1030024248,-0.2362979703,0.0178317935,0.0890307467,0.1160358471,0.1062395487,0.0380222144,-0.1618278627,0.195041832,0.263958057,-0.2815859489,-0.166516647,-0.6752392332,0.1176171808,-0.3362139104,-0.0320145323,0.4111790735,-0.1102758977,-3.4314397768,0.2913431659,-4.4564873838,-0.039171181,0.0519621958,0.0113787263,-0.0704389876,-0.0649158458,0.0129100465,-0.1181534275,0.2750369673,-0.0181762341,0.0146809874,-0.4352564484,-0.108689017,2.0176740654,0.3781082268,0.5180490462,0.1245976874,0.2825371553,-0.0773181239,-0.2394182264,-0.0330217799,-0.0926463288,-0.136506873,-0.2169091979,0.6591222035,-0.279893149,0.1082168462,-0.2695976358,-0.1374801793,0.2031681594,-0.4495425555,-0.9900941971,0.0832257236,-0.0853358457,-0.0411024403,0.3638813102,0.0200548201,-0.3061994633,0.8355131802,0.0470035438,-0.0597970538,-7.2816177942,1.7004841464,0.1016552828,-0.3109809461,0.7946076063,1.3316170707,-0.1036279687,-0.402481927,-0.0193668862,0.0059603477,-0.076120986,-0.6332341962,0.2619712733,-7.7441351981,0.9837501411,-0.349965517,0.363879533,0.2228990332,-0.1314756889,0.030455862,0.140549138,-0.4667910345,-2.614214795,1.609202255,2.8132744773,-0.1978983821,0.1798813194,-0.0827599766,0.717227521,-0.0244892952,0.5532744456,-0.1385650983,-0.9074092285,-0.626851737,1.8635850002,-0.283591034,0.4669770372,4.5831850638,-0.1188658824,0.6328732164,-0.2637844355,0.0693586549,0.0381131696,-0.0325553346,-1.1186501565,-0.6379288791,0.1143961724,-0.3253124852,0.3694137586,0.0468516456,0.6550622647,-0.0405444287,0.0011900273,0.0745173293,0.0518089301,-0.0784798717,-0.2091776014,-0.2453002402,-0.7962450095,-0.0878870328,-0.216357434,-0.2701171977,-0.2273207743,0.9442071773,-0.4997724625,-0.3451660614,-0.3200019156,-0.1316585493,-0.1109677952,-0.7619991876,-0.0044562442,-0.1579379222,-0.5084654137,0.0567186216,0.0778604213,-28.344770522,-2.3864634047,-0.0210065732,-0.1003158626,-0.3075508367,0.4097028884,0.0244388404,0.3371923109,-0.0869280698,-0.1043143726,-0.244983994,-0.099084671,-0.0678814763,1.8729015058,0.0554224803,0.8268320553,-0.3279388271,-0.0652613671,1.456805128,-0.0633894164,0.2393619012,0.2320694121,0.410266565,0.0310960936,-0.2124993306,0.1428818817,0.5577171446,0.7703142428,0.6679016943,0.0889067887,0.0345863099,0.5499310907,-0.1645244759,-0.7919864163,-0.9034265071,-0.0927072895,0.1549581183,-0.2044998302,0.0685943217,0.2959568064,-0.02141096,0.0457421982,-0.8598978544,0.0232410962,2.0758529519,0.3061744196,-0.0032564165,-0.2658941336,0.2884640985,1.0476836266,-0.1515440464,0.1023157184,-0.1213572811,0.1263360545,-0.0185960549,0.1711179241,0.5724914647,0.4911985491,-0.6548633196,-0.5931940886,0.1212341055,-0.0863125298,-0.0313706305,-0.4039099158,-0.0998892557,0.2907089455,2.3594754412,-0.3492869138,0.0652404634,-0.4447476622,-0.0645996841,0.1289002113,-0.2299087768,-0.0168983869,-0.2443090123,0.5423677777,-0.2978388712,0.0405187583,-0.2325548485,-0.5547514008,-0.6019622927,-0.0426275262,-0.0779665004,-0.17007928,0.0559383597,0.0072130927,0.8158419015,-0.655170385,0.8176394453,-0.0831321041,1.1811166769,-0.1714400096,0.2077759704,0.0117721979,-0.1083938886,0.1825131208,-0.5101127356,2.4411350866,0.3721319372,-0.1476902125,0.6793483719,0.0688195223,0.0833155054,-0.7005935771,0.9178966428,0.2646688576,-0.5476250384,-0.3532078365,0.5218524804,1.9802512926,-0.0150822659,-0.8286717161,0.0373761538,-0.0233180305,-0.1475365381,-0.0426873572,-0.0956511022,-0.9027145751,0.1221235028,8.8195540264,0.3363218296,0.0768486457,-0.2695156555,0.3702987312,-0.4400678764,-0.0308757115,0.0472919972,0.0036350237,-0.1652322533,1.198084576,0.7448324343,-0.0107841938,0.0586876173,0.1834601604,0.2453968459,0.1921400173,-0.1801391788,-0.2146119797,0.6121943668,-0.1469819388,0.346361559,0.1952028674,-0.0985899384,-0.1166820762,0.0802236113,-0.2576593445,0.0817589039,0.0230788121,-0.2845877655,-0.2769603509,1.7073740672,-1.1545325681,0.0803738312,-1.2620495309,0.2395594697,-0.2299488738,0.0231080062,-0.2964975254,-0.2988144307,0.0004784736,0.4623215235,1.0345598142,-0.0658622866,-1.0421488532,-0.445457144,-0.4583031661,0.2869607489,-0.0604246815,-0.1584910577,-0.2032132917,-0.1916114681,-0.2680894007,0.5224122837,1.326284394,-0.7268974045,-0.0574265218,-0.5229979205,0.0154850491,-0.728788192,-0.1283185528,0.1203236635,0.4937813386,-1.3525619863,0.1549996543,-1.9880840647,-0.1375026035,-0.4792261508,-0.3205469318,-0.1088022286,0.3911582217,-0.687813725,-0.1360289359,0.3350267777,1.4942336901,-0.3327445816,-0.4157886801,-0.0229696637,-0.1520084964,-0.1460924804,-0.2526575954,-0.3217370311,-0.1335665183,-0.1441762369,0.050505261,-0.0787195331,-0.0957724381,-0.1067341074,-0.3938684402,-0.6397192137,0.3281542555,-0.0550305854,-0.358446144,0.0415859068,0.9450180533,-0.1493543174,-0.122879805,-0.0452379327,-0.0272695395,-0.1305821433,0.3260466774,0.1022127272,0.235181275,0.6798272066,0.0360809592,0.1943001699,-13.1403673055,1.9989288495,0.0865317529,0.127573116,-6.8780507632,0.4138025579,0.0556484614,0.126159333,0.2031262846,0.1917285252,0.2757972071,-0.4843448106,0.5879942164,3.6609506171,0.0441147597,0.4351567092,-0.2035829963,-0.3558301335,0.0827690101,-0.202830755,0.1586270544,0.3410890533,0.0998570462,-0.254652161,0.0337842865,0.2973663435,0.1917067686,-0.0078488929,0.7595529125,-0.0411713886,-0.1198544848,0.0894285552,14.8136503469,-0.8399253686,37.1607123593,-0.0120600714,-0.7234594453,-0.0361636849,0.1277232097,-0.0496414408,-0.2669038549,0.011421599,-0.0821149901,-0.0218438662,0.9778379762,0.5274162765,0.1180055693,-0.118716548,-0.0638322322,-0.4539584007,0.0113368454,-0.0310881541,0.2500139553,9.202220885,-0.2212016114,0.0185893509,0.0752481561,0.1633328685,-0.4381976119,0.4177698857,0.1826668821,-0.0634612429,0.0818026743,-0.0462581995,-0.1431793196,-0.4920890658,0.3874543389,0.0318507181,0.0291676301,0.0474334697,0.6715313051,-0.141340172,-0.0136621332,0.8430263469,-0.2489074153,7.9768080784,-2.0793568974,0.0693457694,-0.85662213,-1.7985826492,55.0334894206,0.0209219776,351.5674354418,-0.2061483427,-32.2276194656,-5.7706953267,-5.734709089,8.4398237167,1.3218400607,-1.3135447065,-1.5955261683,-2.9433857164,-4.9357719948,-2.3920875374,-12.568411974,-0.8050466323,-1.3088565256,1.3427631078,-3.4708173772,3.2479929784,-31.0251479646,0.5127140524,0.2120972981,18.2505101013,-1.1799658803,0.8904123302,-1.061749608,-0.7726934913,-3.9613664713,-3.6804225464,-6.9209840264,-0.8660985296,-0.3712246758,-103.9993767532,-1.3471584694,-4.4178208071,-1.3409161852,-0.6400320166,-0.9831073123,0.8596972515,-8.5038886192,-0.2723803171,-39.7903869866,-14.0564556656,21.3854569653,0.8191623713,-12.5754170898,5.2969549079,-3.3814410853,-1.1942804895,-9.7871003046,0.0929216336,-1.475627249,-0.1402233623,-52.1428564934,-5.9794467023,-2.0320963048,-1.6238068969,-0.8202786652,-1.7027256869,-3.2912571601,-5.4424297798,0.3548005147,-1.7424877335,-1.6446594088,-5.7403074326,-0.0313529366,-0.9457011275,-6.6882203234,-7.6318933725,-1.1663774214,-2.0711216286,-27.3442924938,-2.5730960044,-4.1851279209,-2.1007085385,-7.2841641808,-0.1033670452,-1.0033234938,59.1150046224,1.631604603,-1.4216432656,-59.6724760409,-3.7021791003,-4.0019001014,-0.6124072786,27.5905002691,-7.7542297783,2.2513524547,14.6198772967,1.4335687834,17.7481413589,15.5608528944,-0.9672044181,-1.0429910085,-1.8006933829,-7.7637870044,-0.6528747949,0.9252726335,-1.9100980154,-3.0101976198,-2.4682489982,-15.8695595593,0.0319026386,-1.3965685129,-0.5109536831,-2.8968692183,-0.9561709038,-0.5208700126,0.3092822973,-8.5560579757,0.8144838771,-0.6171228355,-16.4013411104,2.4754846794,-2.0842942871,-0.8314712022,-10.5550814235,-0.5866167735,-1.0360277859,-0.855427545,0.7255252805,-6.6645998812,-1.8943919503,-0.6716269916,-0.5794565865,-0.7896438744,-2.1800618064,-3.026837732,-2.4479409236,0.3091684403,0.2917512328,0.7115081422,-1.1141743401,5.816309498,0.4339583318,-1.5147446484,-1.3344046709,-1.6347571294,-1.7180788083,-4.6711836429,2.3350079268,-1.1910971631,-5.7260371722,-5.9533442408,-3.8900582557,-3.6910040835,-7.6322841829,1.9591356676,-0.2787610658,-2.7896097735,1.2116003911,4.0546043517,-0.1739254019,0.2198280406,-147.8021562269,-3.1145649726,-0.4399360599,0.0933870592,-2.2269078772,-0.443507744,-7.6610631754,-0.8011862862,-2.3271289313,0.8655740038,-0.4999640429,-0.6595399969,-7.2445083142,-0.3766958377,-0.0341075504,1.6063732207,-0.0030783184,1.2347465915,-1.1718666772,-1.3152331943,-4.7229129917,-0.721671668,4.9894355885,0.7102847076,0.112799587,-20.1966140679,-11.4228709501,5.0265500921,-0.6085317662,-1.7175965746,-1.0663178606,-0.7771345018,-10.5716352223,-3.2560286548,0.9201715733,1.1934592704,0.0385093066,-1.2304111138,-149.7262961246,-0.765479716,0.7278511109,-1.113948006,-1.017058287,-0.0801074311,-6.9553405489,0.4507528837,0.2926882782,-1.1186820638,0.5924240959,-6.1499729169,-1.3285740446,2.2117503996,0.4933784364,0.1333419652,0.1583107995,-0.7611838901,-0.3170713675,0.1921977079,-0.5055418043,-0.8360216244,-0.5839664271,-0.2321851493,0.5994333539,0.313672394,-1.7154568116,0.074449771,0.5784978941,0.9327525297,0.2850643493,-0.1367973901,-0.5558444146,0.4293644383,0.4071572669,-0.2857930174,0.0531772301,-0.375662111,-0.099833963,0.2617388439,-0.4133277663,-0.4130698352,0.8652911116,0.2622526122,-0.3846172866,0.5709229329,0.2189095467,0.5085866457,-1.4300527894,5.0134560984,0.160557721,6.3982661281,-0.4509841189,0.6671838964,-0.2568669035,0.1755874656,-0.5429770385,-0.2998525284,-0.3044819317,-0.225601431,0.059010314,0.7986882573,0.0762282508,-1.7242519807,1.2639664861,-0.2997905945,0.2826072014,-0.1635803203,-0.2317185254,-0.0805334991,0.4220550713,0.0916625463,0.5881477529,0.4632182019,0.3507878216,-0.3046375412,0.0379144343,0.3031783468,0.4821636907,-0.4573283576,0.7663731655,-1.0322164586,0.049603412,-0.2605085569,0.222207044,0.753757438,-0.7503945126,-0.5381842316,-3.0445173656,0.9199534932,-0.737384998,-0.7105611721,-0.4198361962,0.9406023413,0.5649039781,-10.0173561214,0.4088266916,0.7238405438,4.5198359519,0.8537382525,28.9430276712,1.3136018007,0.2719754833,-0.1190793283,0.4610343958,-0.6086989905,-0.2201547852,-0.1698433878,0.1852292272,-0.3166610449,0.1554693588,4.7731643833,-1.1452895585,0.990815635,-1.5133407181,3.0696643664,0.8206219853,-0.6070117581,0.7357797428,-0.2604276367,0.0142306971,2.4917325516,0.7163063946,1.2350902385,5.0490066106,0.2478199627,2.2174756397,-0.9994680365,0.3331486196,1.9290905487,2.1627432372,-0.4067209189,-0.8704087728,-1.5889696676,-0.2886795979,0.4352853464,0.0560475289,-3.2159199,0.7193480263,0.2915906098,0.1666436553,0.863324607,0.2153633533,27.1483433406,1.417914969,1.0065643161,1.1992471325,1.7736683239,0.8592369999,-0.8864927532,-4.6487073648,-1.5513914964,-15.9297728787,-1.7998417267,-2.892896384,-0.7720210677,-1.5730049407,3.5105138569,-0.2086861305,-0.8672402743,0.0766646828,1.5823012154,1.1715492781,-0.3519324603,-3.3489281379,-1.5764460446,-0.2744429788,0.6317443703,1.5686426778,-0.185180761,0.1068448967,0.9844461852,-1.8910122374,0.5812506256,0.4328289665,-0.8461350294,4.0507661955,0.1305920549,-0.3536157802,-1.5605968232,0.3682442312,-0.4754991012,14.6660677024,0.7121712831,0.0889358157,-0.2417356861,0.1208943974,-0.9205190867,0.1085028938,10.7146979498,2.4275845737,2.3736402033,10.6171458053,-0.2021892941,0.8986228109,1.158170673,5.5236207914,1.6560848459,0.7018290556,7.5006385029,0.184065731,-7.9604098042,-1.2763713,1.4836466822,-0.4209671246,0.9137201025,-0.6504285198,-0.3044395006,1.849301117,0.2947602182,0.8549325903,0.7502520315,0.6045213013,-0.896276663,1.4141148501,6.7222811586,-2.1503139585,-0.3440870901,0.3373008777,0.3717239515,-2.0247196783,-1.3242660042,-1.3151011737,-2.0055451757,0.0146569502,-2.7953488076,-2.1766842356,0.8222501046,-3.1496054913,-14.2804654339,-3.3715554122,-4.3925114138,-3.4059228259,1.0772196722,-1.3890889262,-1.1837566324,-1.7145904085,-1.6335810533,-0.5640031601,-20.0974525927,-0.2939506231,-0.4496955657,-1.2516705175,-0.422397806,3.2200117916,-1.3485572936,-1.6656877413,-0.86650586,-1.2382277204,-4.5010611484,15.2887858175,-5.149005314,-0.8606971777,7.3454932393,0.8053447972,10.6379055945,3.274657126,-1.3281122683,0.5615555964,-1.2156531517,-0.832922619,0.373257103,-4.1321496533,-1.1272734503,-1.0517565613,-1.9498239225,-2.1414967977,-1.1423033599,-1.5005832683,-2.9661467849,2.9856303817,-27.2590492009,-11.4668787416,-4.2704683805,-1.4397234859,-0.1521583071,-0.9510835228,3.7843194203,-1.4510196496,-17.9020919665,-1.812885116,-1.1142181759,0.4746764869,-36.5244388253,0.1196420295,-0.6317374108,-0.6894683317,-7.0235760043,0.1363531197,-0.6577305701,-8.1081616443,-1.1354058839,0.7147148561,-15.9706982963,-0.3918837165,2.7629691297,-0.2648699855,5.9320605985,-3.7794059269,-1.2208350231,0.8656832005,0.3959325931,-11.7270018199,-11.4113192536,-7.866428873,-3.0603286767,-2.1802688581,0.4260489245,1.0610965496,0.0106774946,-0.0864231421,-0.1221010745,-1.1878275694,-3.8104759835,-6.8967413001,-0.0028580929,-7.3323440051,-25.5667459041,-7.0097015778,-11.3489654068,0.2735024572,-9.7402168809,-2.7682891793,-0.8917221681,-11.3347968223,-1.4610636071,-45.4595509366,-0.5077892041,-0.4341555667,9.1163236951,0.1803160567,-1.7010054287,-1.6841919132,-4.8126707625,-13.5696903946,-1.4038553208,0.2318172707,-2.2063881445,-1.8998724796,-0.2908246251,-3.1483715173,0.5662106997,-0.767397757,-1.7496890958,-0.9133191644,-3.3912223815,-1.8462207254,-1.3300773797,0.7465442833,-4.0206064155,-0.6033588376,2.9087290666,0.7619530433,-2.1919944662,-8.6752694565,-3.8200718888,54.2437034956,2.6754893307,-0.1875937201,-2.2551427046,-2.59134949,-2.8627847869,-4.9333125385,-1.6218029581,-1.1475066851,-0.1946435847,-0.3262662628,-5.0858491308,-0.7702536235,0.2989444997,-3.354319951,-0.0825363063,-9.2185013136,1.8082951635,-0.9227980269,-0.1126268064,-0.1090963813,0.5576883143,-1.7034792325,-0.8929593427,-6.3271149444,-3.1522801128,-3.886112096,-9.1857911723,2.4881331411,-1.765071493,-1.6868531687,-0.2743060411,0.4423301371,-0.4767195519,-0.0963408113,14.8368055418,-51.2371859299,-0.9165175442,-1.4248693291,-1.708014118,-1.4865133003,-0.1753039385,-6.2107278759,0.2880727061,-2.832151796,2.6754020241,-2.4505152306,-8.1380482224,-10.7415611964,9.8705581233,-2.1537064645,-0.333193089,-6.44050058,-0.9507782462,0.2442528175,-4.1093994926,-0.010841691,-0.8719943178,0.8268366685,44.5838814853,-0.8393883079,-13.586590533,-3.3612639233,-3.2327171345,-1.4121067049,-1.9819954744,-1.6495529878,-1.6688457045,-1.6273271081,-2.6254840543,-1.9994450484,-1.9209147649,-1.8207989917,1.5583925981,10.416263423,-0.651182891,12.1283965786,-17.9024627643,0.2422454414,-0.4207660968,7.3794308404,-1.6139751529,-0.5382849637,-1.1498155324,-0.4355202468,-2.2663072911,-0.2062199822,-2.9412355426,-1.6752754344,-1.4402737543,-257.5440179753,-3.0452812566,-2.0214871006,-1.5958001178,-3.0008525894,-3.0669092678,7.0575277396,1.5846070623,-0.720181085,-31.675512488,-5.4857869433,4.7150292991,1.9205834068,-2.4624391343,-4.4591449586,-2.3519249261,-3.6612781456,-1.3506579869,-1.1507198302,-1.4395520375,-2.3058991052,-24.6983690712,0.5069146677,-2.3866613054,-1.5465075162,-0.9182498569,8.4839558091,-5.6014263714,-1.9774274127,-1.1095791496,-1.2759511546,-1.8127704537,-7.8375565175,2.9197394854,-6.6023295204,0.4312377929,-1.8821611961,-1.7680053692,-3.4579051145,-57.1568070603,-2.0830200105,-1.7182455063,-3.1044267991,-15.7805344047,-0.7403400768,-0.7421232749,7.2839779194,-7.1110750385,-1.5754358966,1.3350015811,-2.8714950684,-4.1090881524,-1.5119454641,-61.6666941736,-3.0360054358,0.339030247,2.9370075242,4.8160192479,-3.3413683171,2.7146263217,7.3408826941,-1.7136066829,-2.9165025086,-2.954190934,-2.5449243131,-1.4627974156,-2.259460633,-1.0173074941,-2.7840809178,-6.4668796762,7.854216119,-2.568635138,-1.696674145,0.9186671332,-0.2645759825,-0.0020999802,-0.6855217115,-0.1885163792,-0.3309985495,0.4467765512,1.8968437125,-1.1389394253,0.4770454375,0.1552601878,-0.3119248729,-1.0297652108,-0.843780186,-0.2585626159,-1.2868944471,0.5625426057,-0.6999591991,-1.0281460061,0.4986229744,0.748669725,0.2444669318,-0.6606248014,0.4550808809,0.5544338828,-0.0844337465,0.5252371944,0.2416634189,-1.4742781735,-1.0621225038,0.5697107207,-0.5765200275,-0.5661450417,0.0118603277,1.0274310123,10.1064482567,-0.7291283246,-4.5570843507,3.6803972768,-0.477859828,2.4724041809,-3.044905658,0.5272466458,0.7181585748,0.2954213697,-1.2958452882,0.0191811845,-0.1875057306,0.4106485253,-2.591605987,-0.1396360894,-0.3518302207,-0.2878183648,-1.0999771433,0.0208489514,0.6188815509,0.4227572596,-0.7800661954,0.4013648527,0.0783219659,-2.2592731521,-2.6112970145,0.6239567618,2.1203107255,-0.0490462736,0.2680027566,-0.6477749082,-0.5048654442,0.1541907405,-0.3517976305,0.2823783155,-3.565655007,-0.2202004913,0.8241660518,-0.6907609835,1.420647932,-0.6157283301,-0.8706151356,0.7750267152,-0.7136213965,1.5353949099,-19.8822298707,0.4742640126,-0.3842320303,9.2434903619,-1.4625151958,0.1724320185,-31.2116301482,0.3216082198,-0.7566168934,0.132124366,0.6619073292,-0.1494354796,0.3990119367,0.7753378452,0.4116419314,-0.0493242003,-0.1776795715,1.1758522817,-0.3767175359,1.8334545971,-0.541302552,-0.8238731986,-0.5507100323,-0.1296356296,-1.7055244422,0.5862520861,-0.7235836763,-0.5657614025,0.27941779,1.3400891862,-0.3870831461,-0.1696477984,-3.111642882,1.8739958882,0.2107684675,3.4106071369,-1.5155173895,0.1480537352,-2.4490605822,-0.0218496948,-1.8439157849,-0.7455956298,0.4314861373,0.8435773507,0.0106940442,0.1346913924,-0.8560149166,-1.2807671234,206.7187959597,0.571459956,0.7157227794,0.3093732747,-0.446454022,0.2289316258,-3.5979566082,-2.7043207331,0.1987937236,15.6579007,-1.168377875,3.6547018802,0.5767860818,2.3351875793,-0.5371854589,0.0025939365,0.8340562275,6.4099865799,0.1447663583,-0.8391213334,-0.5566580067,-3.4906288105,-0.5626261633,-0.492686166,0.8545940727,0.5914888397,-0.2404477446,-3.3888033135,1.2138775789,0.61220353,-0.5405038652,-0.8904911918,0.7083826604,-1.0860597794,0.3492092775,-2.5093554796,1.0913284806,-0.5219317837,0.2616633299,3.1941810857,1.6984703483,-0.5306977068,1.0684047702,4.0710877923,1.1810259841,0.324029074,1.8175384569,0.5082341758,0.3316595331,-1.4535907755,-0.1701332789,0.4721527437,-0.0408778374,-6.2910559307,0.4320951513,-0.390699134,-2.2824019552,-1.0384520859,-12.0203098126,0.2178823464,1.9496368867,-0.1391437867,0.8755112211,1.4058571502,0.2249550018,1.3765250197,0.4719875781,0.5821525934,0.8751140171,0.2885650553,0.89161623,-0.1445145265,-2.904428448,0.3360303333,-2.6665123098,-0.1984396487,-0.8206568996,-0.9545745277,-0.985175697,1.1474467483,0.9934963507,-0.5418102091,-0.3124864853,0.1024419389,6.3955891052,-5.8408909798,-0.9700981285,-0.3617857973,-1.0042046856,-1.7087207755,-0.3334330705,-0.5311921314,-0.653645463,-0.8284609978,0.0320790783,-4.9941402693,-1.0724395336,-1.8482158219,-1.1966515453,-1.0322624817,-0.4811280657,10.031101479,-0.9654402159,-2.267777934,-0.8938500411,0.403116385,0.7542019108,-0.3287783376,-7.7284136332,0.69860988,-8.4923868151,-25.8982285238,-27.5029841334,-18.81592235,-2.1169205561,0.6816894632,-0.8150476179,-6.9396244476,-0.6631340979,-0.051989237,0.4743858937,-0.2579723619,-15.0734909858,-1.7553699559,-0.1193825007,0.4728493004,1.551478901,-17.3111435352,-1.7382182202,-0.3770902861,-6.7266823136,-0.2164305755,-0.2577016663,-4.2916244981,7.4754814591,-0.7712389145,-3.0681999953,-1.9852767614,-0.5212365386,0.5107401982,-9.1608179627,-0.6398799159,1.6150095239,-2.3998082512,-0.8413232547,-0.4295813735,0.6477591135,-5.2736623038,-0.8549045285,0.5341470576,2.5410353537,-0.4836237746,3.1947295317,-0.8964492801,5.5282023944,0.5318198457,0.2060903572,-2.0629718247,-7.0873039607,-12.4298277822,-70.2604405251,-7.724497771,-0.6436708764,0.6997355648,-0.4858123519,1.2418482215,-1.8099011562,-1.9540651334,-0.9438330711,-1.6447930225,0.9678731512,-2.7139920041,-0.3106362798,5.5830268341,-2.5743879471,1.0852397768,-2.040479624,-4.0609660817,-0.0258796776,-0.1180101659,-0.4718058555,0.175602846,-1.3168901023,1.4109409141,-0.7211984759,-3.6381934723,-62.8067539976,-2.1455861364,-9.9531715117,-36.5967036825,-0.2127217034,-2.0047761482,-4.5713649252,-0.2387181369,-0.3395685745,-0.5289931853,-0.3411033951,0.7744785772,-0.679635057,-0.8342049904,-0.4065431448,0.792893124,4.5688223656,-0.72663927,2.0220275256,-1.8118216728,0.4589460989,-0.9352354294,-3.3909045372,13.2536843377,-5.0305079628,-19.3758836825,64.1260910141,-8.0895776964,-0.1227365734,7.2885224251,5.6743531151,0.4523180608,1.4558760383,-3.7562442555,0.5650319248,-0.7903828993,-1.3428896606,-23.2856345437,1.09010142,-0.4420211107,-0.6822748709,0.1343249113,-0.7772600967,8.9032396497,-0.2270969593,-24.5083659889,-0.5236155415,-1.5166381302,1.3349994972,-17.2881529366,0.2666382005,-27.1164094899,-1.4499591393,-1.1987674945,-0.2693750075,-16.5753638436,-0.3985514858,-0.5698661729,-1.2535130794,-1.3737525792,1.0519233973,-0.9766666804,8.0719266691,-0.9420428441,-6.3850441142,-14.7784060726,-0.4158462242,-22.4455982624,-0.5065187745,-4.588663517,7.5508789206,-6.3775262142,-3.075952173,-7.7239135201,-12.5261703201,-55.8207994053,-10.6593372034,-1.823761825,0.3010287945,-4.3395675552,-2.8337923098,1.9485606275,-1.497584962,-0.984655469,0.4419304024,-0.5255993448,0.5295805956,0.0442316878,-1.010521444,-1.9941071667,2.8521778893,-1.851314893,-0.2371208272,-29.3028799809,0.3192969031,-2.1794049972,-4.1755075049,1.5261421591,-1.9274583104,-0.7029142609,-0.3153221285,-37.5064762452,-0.7044275067,-2.1193405083,-2.4466703979,-18.3446987648,8.0521147669,-27.3593606174,-0.7615817389,0.2384049882,0.2163670742,-1.3594744153,2.3675098073,0.6474421071,-0.2247171377,-1.6168636023,-0.5463889134,19.5468113065,-0.964532279,-0.5114280891,-0.8134523635,1.0019509667,-1.5544540898,-2.7961415853,-28.8395696412,-2.3157585703,31.4202395482,-9.2294818791,-46.6321605189,-18.0480668387,-0.027374314,-4.3615890862,-0.6309133948,-4.0959825366,-14.1367088736,-0.591680982,-0.2137431929,0.2831873717,-2.1006678491,-2.0583181507,-0.708110805,0.9802309167,-13.4122019369,-2.1966942805,10.0178798789,0.3855923433,-23.4739412386,0.3897867324,0.1394601405,0.0217232238,0.3103644416,-2.2653169854,-22.3359001082,1.8153697686,0.0691308286,-1.3517631402,1.0994858799,0.3802652242,-4.9620714097,-0.2240164501,-17.2094571208,-0.649110005,-0.1737938764,11.2019871375,-6.2335244019,0.5197233055,16.0933643708,-1.4347749972,-1.2147806531,3.4645253033,-0.4024625095,-12.6666389217,-0.2161024146,-1.0203050161,-8.2015772093,-11.9123044982,-43.2577174446,1.0001355595,-1.4008044415,-0.2294084066,-0.6600973915,-0.5697486398,-0.4801374794,-1.6631509906,0.6658866717,0.0256268137,1.3013048203,-1.8890901962,0.4272929255,-4.1245309834,1.495364577,-0.6451461811,-0.4230003411,0.7799894042,0.1235128379,-0.2200838743,0.4029900338,-0.3243261728,0.0929255175,-0.9643320626,-0.9778478911,0.7107838546,0.2148337466,0.0989250004,-0.6614711833,-3.5866646974,0.6249876035,-1.2000361875,-0.1248546591,0.1746319775,-1.1612748979,-0.230311177,0.3075040169,-0.2136131969,0.4890642653,-0.1849285296,1.1078319498,0.7746186631,-3.8755820596,-0.9554662377,-0.9947997265,-0.6983681302,-0.3262105552,-0.1428780266,0.1144277645,1.6831956927,-0.7245722249,-9.9043960699,20.0979991453,2.8353521176,-0.5351042406,-1.1928984151,0.8456196504,0.8042754482,1.0445823025,6.8572706652,0.9726169793,0.387844572,1.042284103,9.3754270872,-2.0940025036,0.1943740224,-0.4754356418,-0.1350532171,-0.5506780249,-4.4807379414,-0.0807289259,-0.0183627174,0.0845167327,0.3676893705,0.0309465997,-1.0217715858,0.8195619592,-2.1846197448,-0.5218656072,0.1536963266,0.8500433036,-3.5580797633,0.1929920479,0.1752119809,-0.2138467679,36.6678625825,0.001874119,0.1630281399,-62.4375740196,2.2600604108,0.3830650075,-9.7142692899,0.2429713114,-0.1730720493,0.7985988516,8.9503411453,6.699820462,0.6445748739,-3.6383996028,2.7767581884,17.1697841478,1.7914904019,0.0239579683,-0.5957513193,-0.5139160233,0.4384879605,0.1119861982,0.4512121536,-0.6026161634,-0.3251527308,0.0256245338,0.0445768515,-0.4371576472,-0.6289076651,-4.8585506222,-0.5670300225,0.8966304801,-0.4413169814,2.2887081614,-1.7945052552,-0.9348686616,0.0112484153,-0.6524381073,0.052116311,-6.1428727172,-0.5760264454,-0.657026399,-7.3796322162,1.4923999203,-17.5951660568,-1.1442016066,-4.7427968043,1.033220059,-48.8117493105,-0.1398316158,-3.6937676406,0.0447741668,-0.9892929755,-4.2987329589,-0.0455527733,2.3287605805,-0.1220546817,0.4868811771,-18.5180331868,-0.5243081198,-2.2918117362,-1.4032353591,-4.5834143087,-2.5876634523,0.5562651552,5.7811008385,-1.8186513591,0.9873191411,-7.8181147962,1.585022003,-0.6359641252,0.9498359799,-10.4139818485,-0.105495721,-2.519712613,1.220715457,-2.7296976422,-0.9300184358,-0.1587770107,5.1049748275,-4.5680756547,-0.6688347025,-0.7191522977,-0.7042750853,1.7053853071,-35.9520691717,-0.6009124212,-0.5755686499,0.3057995474
   -0.1610549166,-3.4201105157,-0.8575338994,0.0455078964,8.9355042648,1.5297688396,0.5019465243,1.2305129886,-0.117814876,-1.2119859486,-5.6165904573,-0.4997200839,-7.3402891541,0.4351044094,-1.9126923531,-1.4428471936,-7.2397009435,1.0636189327,-4.9572102512,-0.8840223698,3.1991856011,-1.55984816,-17.1309825975,-11.9403781535,0.0262919534,7.8080685379,-4.9560702857,-4.1663786195,-17.2745372128,1.5673098161,0.2897763457,0.1279096737,0.3962553493,0.9011594204,1.7248022165,0.113343033,0.7694504976,-0.2920096081,-1.3437351911,-2.2228949776,0.0665126917,-6.982910017,-0.2415659468,0.1378441237,-1.2909905123,-2.1338182596,-1.19009612,-2.0531194203,-2.299429395,-3.543406404,-1.1601211158,-4.0826969603,-0.6692938728,-3.0678169942,-14.6909294938,1.16144979,-9.670006849,-2.9042176775,-4.182484377,-1.2270801913,0.0749289299,-0.8518517126,-1.0751617167,-0.9176803929,0.9638694303,-0.0861411941,-1.2320150839,-0.590812831,-1.0360179273,-0.1413384299,-18.6479974489,-1.7822630038,-0.428047972,-0.5110381052,-0.6902649221,-0.8623620666,-3.4335700481,1.9869121846,2.0636245293,-12.1331522094,1.651911879,1.6061975655,-1.403936652,-0.8243386113,-1.8560768458,-1.2567942905,0.3650392455,-1.8492410068,-1.0386418432,-1.0789152129,-0.7790225383,3.3223636343,1.8014832823,-0.2409974657,-1.1117057729,-2.6206345719,-1.5415476384,-22.6547280027,-0.3255207254,0.3524147653,-0.948491107,-1.183921987,-1.9054468652,-2.938303608,-1.0987577147,4.9229010413,-2.1672003687,-0.9716227383,-1.1260444399,-2.6759864806,-0.8441706111,-1.201254457,-2.9406333856,1.3815006157,0.4982118848,-0.1102179449,-10.0508346248,-1.5749740709,-1.0948072936,-2.8548569161,-2.2113439379,-4.163146669,0.3767730461,-18.3067254529,-1.1964238893,-1.1089718632,-14.188515839,-0.09809076,27.3176118361,7.7990958711,0.6199828828,-1.4209204896,-1.947870093,0.9481355145,-0.797506873,-0.3686018146,0.1951791468,-1.324145605,-0.2339170901,-0.2590525193,-2.2336135277,-2.1776703685,-11.7927986881,-2.1660155088,0.1642001153,-3.1622326056,-1.8253941103,-1.3293161823,-0.5011351246,-1.7408581806,-0.241117814,0.0392625033,0.8300980582,-1.3793550501,-1.2696875591,-7.9762807599,0.6080561311,-1.384464564,-4.3290798712,-2.2079094075,-4.1298349421,-0.0457333844,-0.4513040977,-1.7833498483,-1.663526651,-2.5192031405,-1.0111376652,0.9385473021,-0.972572265,-0.7699749746,1.2844611554,1.4713133814,-1.2818186862,-0.4693023798,-1.4598066989,-3.1006023149,-2.1988636096,-1.4490611593,50.8740152737,-2.50485426,-11.1734010306,-5.5808599629,-29.5946039604,0.335060373,-1.0561388356,3.2290580716,-0.6734671869,-1.774901737,0.1825534742,-3.6475029474,-0.8335129001,-1.3269303721,5.7054997494,-3.5847722721,-1.8048689922,-3.1496963597,-4.4407991863,2.1744175863,1.4485145346,-1.6097885587,-7.1389664017,-0.6719233986,-0.0398080194,-2.5247698823,-8.7006362676,1.214905959,-4.4948064662,-2.1019627161,0.3721395024,1.523902008,-4.2392494353,-0.6186891273,-0.3058565955,-0.1383690246,-4.559470493,-1.2544816193,0.8721353276,1.6414465357,-3.8805251187,3.6790662278,-6.4560571377,-1.7121397466,-2.5712707172,-1.3632504873,2.1596349992,-0.740421327,-0.8714407174,40.8389647741,-3.387385687,-16.549671381,1.8839115134,-3.9998454277,-0.4228863,-0.1912774426,-2.9523659212,0.5123288044,-0.8559859038,-1.6252150818,-0.2257070441,-1.1300825892,-2.4288960353,9.9892217932,-0.8156447667,-0.1874439228,-0.6008252967,-1.865574376,-3.4120536931,0.365329276,-0.8829816129,-1.328368798,-1.1134438605,-3.0562573964,-0.2304034564,0.1351235133,-0.5995966945,-4.8867600927,4.378981682,0.0697089715,1.0074203408,0.9532147085,-1.9723165137,-2.2216055247,-12.9137783391,-2.486434741,-4.1162230069,1.5496328756,-2.1082191161,-0.1976992614,0.4823265872,1.4853553255,-3.6023274076,-5.9397616372,-12.0175111033,-0.7655301395,-14.3200265129,-0.4862079632,-2.1260320849,-0.7055501408,1.4383891107,-29.0275436013,0.8148675951,32.1250345774,-12.7979619855,-12.7429605515,-0.2715470005,8.5331573666,2.5112536083,-4.4490588495,-8.4916070164,-4.5273769588,-6.0441628052,0.0009608341,-1.421284865,-3.4618821912,-1.6263876851,-0.6955253081,0.7550506021,-1.2250584069,0.8082335189,6.9572618106,5.3404370418,-2.6161854649,-1.707459098,-0.1079031982,-2.5746050563,2.2369934738,-1.7175983624,-0.9005819009,7.3159268942,-0.8124167883,-3.5875034451,2.4538503449,-1.639676917,-6.9872753927,-0.8186615564,-10.2232071277,-0.3246299776,-2.6933535641,16.8218835079,-2.9047752117,-0.7800899034,4.165908237,-1.2677169701,-2.2404570654,-1.1135402296,0.7773883825,-12.8847203513,-1.5905343584,-16.2164883978,-1.9272490538,-49.7955719971,-2.6208277099,7.8259718817,-2.4643481729,-1.7987290284,0.43664263,-2.1380628798,-10.4320154553,-5.4772274429,-1.4939604691,-2.9997990811,8.8852494078,0.1011293136,-1.3678797096,-0.5171523065,0.4241512757,-0.2917680989,-0.5866911285,0.0528891759,-0.8210885424,0.5395818314,0.8025352441,0.8157094032,-0.3929653342,0.5588840476,-0.3551334361,7.7486648063,3.0809043231,-0.3001091608,0.0105061542,-0.3086289984,0.1206124629,-0.9402731815,0.0246216982,0.2369551574,0.9328975744,1.1125517576,1.0727744935,0.2036302302,1.1696808963,-0.4136595854,0.2959512283,0.3752668042,-0.6448836856,-0.2485908699,0.1818980653,-0.4311677284,-0.4375320841,-0.0783637743,-0.1948428595,-84.0017951037,0.7941860687,0.2269632047,1.0936141693,0.4548088283,-2.7330658791,9.0669600408,2.7838910031,-0.3944630562,-0.2611424517,0.6289021137,0.8222222159,0.8722632607,0.8185862581,23.2918252507,1.0536770767,0.3956613278,0.9900972902,-1.0752366973,0.7647516385,-0.5104061954,1.4684106968,1.4879603981,0.7760013114,-0.3516152488,0.5119305285,6.632623127,-0.035909465,154.3361840853,-0.9592364963,0.5640270946,-1.0640225181,-0.9950071431,0.1337678489,1.4205518157,0.4064876964,56.3985087748,-0.1699996639,-0.5093941277,1.7490896216,-0.7873769135,1.1741861479,6.5511620492,0.4522218308,-0.4979623865,0.5045335562,10.25199567,-1.938848775,-0.1383476928,1.504202159,-1.2178860817,-13.2570476775,6.0716469103,2.5736032593,-0.099027168,0.9506775285,0.9703332528,-0.039790559,2.4676347197,0.8892712175,-0.519287613,-0.0970856406,0.9079253867,8.5009510341,0.469780016,-2.9224821361,5.0602155701,-1.2620439649,-0.2739765873,-2.0227194164,-0.4715813057,-0.3624614165,-1.0478318454,-0.5035275465,-1.0154551587,0.9723134544,-1.3006028692,6.0952256225,-144.9017440407,-1.3682333548,-4.4967551396,-1.8711875112,-0.0708874587,6.1153886227,-5.7642403774,-0.6325947192,0.2383777468,0.0104256383,-0.847408556,0.0082460308,-2.2138414311,-0.4398975705,-0.7211135361,-1.7034310479,5.7490498477,0.2084252055,-1.7355219057,-1.3892470589,0.7728049218,-0.7251759552,1.2133243601,-19.392888032,-1.3514432593,-5.2641787929,-1.4143212998,-5.5484584877,-6.3192827104,-1.0632855639,-2.180223113,-1.1262782078,-1.8185299802,-0.2457345534,0.9407952429,-1.0738393436,-1.125928794,0.0356325085,-0.6210637145,-1.415245208,-0.7881013642,2.7561374529,0.1886564629,-16.0710352609,-3.4834959987,2.469736292,-26.162947517,0.0262365009,0.1544899272,24.4802146209,0.3800858942,8.737137383,-0.0982796105,0.6246180525,-1.0881764106,-0.6973071213,-0.984356865,-1.5661327745,-1.3676420198,-141.9374647432,-0.5255626342,0.0475595574,-6.5853427072,-4.6227819219,0.2780298029,2.8776257619,-1.6581332459,-0.3205623157,-2.3938460219,3.414869665,-0.4707844836,-1.7565621375,-3.2555848027,-3.8323046014,-9.8471940607,-44.4851898542,-11.0705441894,-1.8865784738,-1.0778597017,-1.9804391842,0.3681393123,-0.8895043532,-2.0974039924,-1.1323838182,-2.6997749201,-5.3712962945,-88.7350572591,-1.2870945145,-0.1362612596,0.070273671,0.1142952062,-0.0295138163,0.5046894816,-0.4362185732,-0.7441703882,2.0195534398,6.384496197,-0.9140478338,0.2588945563,0.49898928,5.2175112676,4.2581582428,1.5820750372,0.6808585949,-1.5641894636,-0.419999272,1.6523849796,1.695855732,0.0584459844,-0.5841364679,0.3115307846,1.0782794678,-0.6634885689,0.8373607866,-1.0750551135,0.0708126086,0.1792961598,-3.010829282,0.322643056,0.5865525483,-0.6200539927,4.2878796852,1.4999527531,-1.5295647271,2.3554627113,1.2722387958,-18.6521251704,12.4890988217,9.058132702,4.3787496416,-0.072545939,0.3572232115,-0.1294049205,0.7538880036,0.5276947482,2.7478534569,-0.7589548972,0.3280905092,4.3930809409,-0.9142974867,-0.3298409945,1.0525391733,3.4564867433,3.8405671046,-7.4258957315,-0.604151967,-0.8955361634,0.8740259884,0.0674483414,-1.2642579273,8.4902903138,0.0611039155,22.5677607505,-0.1196336698,-0.0685907694,0.0177947427,-1.5546127963,-0.6582870584,1.2262150586,-0.6285176388,11.645148383,0.1769968885,-0.631646516,-8.1855086862,4.8499355412,1.1384557412,-3.886434748,0.7949020282,1.2128364766,1.4854407116,5.866817811,3.0946228722,-1.8032910953,-34.9932293098,-3.0339611413,13.2776139269,-2.2529620044,-1.0299422752,-0.4034287297,0.7906764074,-0.6067645616,0.9875789444,1.2344608424,0.2677332348,-0.231781117,-0.4527054165,-0.6311807898,11.7699305031,0.7247979088,6.0360169102,-16.7637682252,0.0528754605,-1.1280862298,5.6817842502,-3.6033345052,0.1565855445,-2.5594111644,-0.2464817409,0.3231146991,1.3421006376,-0.513150682,0.2871469912,6.4767391869,-1.1821739965,1.3082042557,24.7823253049,-2.4619197499,-1.0456344344,-8.9030776549,-4.2214467826,-6.2192064803,0.4273871022,-1.7072381157,2.5119532783,-1.3059416521,0.2983986036,-10.4681659091,-11.0890568344,-16.787217145,-1.0855207086,-0.8686785426,-2.2609667494,-1.5861658462,-3.699675069,4.2123902681,45.6002504135,-0.635020271,20.1367968522,-53.4457087053,-2.6410205024,-1.3832314657,7.8056723215,-2.1110988108,-2.8921825003,-1.8883288304,-1.0631539898,-2.2197132202,-0.8736985435,-2.8528454077,0.4933072505,0.5858094385,-1.1397959531,0.1285047322,-1.2039639348,5.9634584799,2.6100087851,2.0869883937,-1.7939866195,-2.3799365909,-0.7800122777,1.2136881366,1.7403142396,-0.9435354421,0.7633938234,8.6307498047,-0.6417573008,-8.1878787344,8.1955373342,-0.9602690915,-5.9099595124,-0.8659738068,-0.876089492,0.4048731267,-6.3193733492,14.8710673514,-70.5467954417,1.55601944,18.6805628587,-1.334377173,-1.5676907742,-22.4208378899,14.9900465859,-7.0308881779,0.3558505582,18.3186126228,-0.2841809789,-13.5506955996,1.1153396037,3.9435259487,-8.4348878545,-1.0220547525,0.1034116356,-5.6731999938,-2.9498526052,-6.610898481,-0.2689823634,0.9202624894,7.6509373566,-0.5505118391,-1.5007321198,2.7874218157,-0.4269501222,0.735290085,-1.2942726684,1.7248235328,-2.6556589061,-0.511198557,-0.4558195444,1.6988731158,1.211145871,4.8637968417,-0.693204955,0.6933954368,-2.5527335029,0.7455863596,1.4065183248,10.5078900828,-2.5827565642,-1.0658045499,-1.9041489465,-0.0793860193,-0.298054703,-0.8934241356,-1.2291251156,1.2665078989,1.4673670536,0.5234061606,0.0791719371,-0.2281723751,251.9540595346,1.0637291489,0.47802418,1.1057812372,1.8258934394,0.5606499034,0.2947297195,-0.1728907955,0.0416563498,2.7347137683,-0.7983692539,-3.9326579626,2.0798882188,0.586083698,0.5810526232,-0.6046185517,-1.0024532356,-2.9010946131,0.4526322298,0.3182646167,0.8840858778,-5.9298278117,-1.2905865471,1.2259656995,0.678111909,0.0579287736,0.4769428432,4.8090340128,-0.6463783017,1.2261454829,0.6018695646,-0.1410382282,-0.2630287528,0.2761260595,0.7528621444,-1.4721727041,6.4702042631,-0.4708539609,-0.6826295927,17.9651229683,-0.0737858559,-0.9075850891,1.9954624746,1.0654002665,-0.4265091759,-0.1289049898,6.9873556017,2.2078581073,2.9540318832,16.1229862143,1.0226446522,0.8409365851,0.8113984242,3.4931411024,-0.2842084646,0.5385537908,12.1603824624,-1.6476901394,-13.9466790424,-275.3726728342,-0.2716318155,0.5623156358,-0.2569883531,0.5459926567,0.5176121574,0.5912693815,-0.853354023,0.2380804371,-0.0632517696,1.2971112631,0.0854494247,0.1658886718,2.9484999335,8.7434072087,7.1679493797,-0.0729366845,2.1214683088,-2.6468032915,1.3486594486,10.5792882537,20.9542733816,1.2731303822,1.7547365807,0.421391407,4.065865972,-4.200993302,-1.0614277477,-0.1261353234,-5.6022215621,-0.1188600865,1.3607522367,-5.539308048,0.3526399248,3.0368660452,-1.2593894599,-4.1558604861,-0.4741765364,1.2690854429,0.4769646791,0.8533507781,1.1561194137,53.4332697569,1.2212527235,1.9455326937,1.4909053325,49.2067516179,0.6418381546,15.7876833316,153.3549260163,0.5447281192,-9.0523696437,-0.5048111458,-16.6234731673,-1.9286461732,-0.5257878999,-1.2715411407,2.6442462719,-0.3257029169,2.6778350126,3.537287071,0.1984958851,-0.3308087861,-4.0662938777,-4.340669567,0.3230658875,0.3487235528,5.6874750711,-1.8476603316,10.1780110728,-0.4530582533,-1.7548601562,2.2105850714,0.2737397731,-1.5420321254,7.1833524801,1.6756642045,-1.3988778874,0.464757953,0.9378746195,2.126967173,2.1017135703,1.7922568672,0.3384835699,0.5561259882,5.9185381501,-0.2463725142,2.7375141879,-7.8524142449,1.5599202055,-1.2241100781,0.1492959567,1.1930168249,10.2188583773,0.3410372794,-21.6340413472,2.9587457674,11.2914543539,9.6049569121,-1.3949722537,-24.7232739299,-30.9544172923,-1.7449763857,4.9209045649,0.1901863681,-0.2992896651,1.1037860799,-2.623925677,1.8121321565,0.963182283,0.0389542507,1.1000780464,-3.303746312,0.5382971867,-6.541751673,-1.8306443998,-3.3375155727,-0.7101478639,0.8378415335,-7.3240654102,0.1161769268,1.1230210705,-1.2580975382,-1.2634537646,-41.820136682,-0.2809342926,0.2981560475,-10.4193820441,-2.2770425094,0.1119401496,-4.4935823291,-3.2392672296,0.1516002894,-3.1746766594,-2.0996803089,-1.3004275222,-0.6366048748,-4.1592415255,-0.1125811858,0.0411376975,-1.7110821139,-0.8580759716,-0.8420987757,-89.8655588459,-1.2905344052,-1.0934901136,0.0133233503,1.3042038588,0.3951526671,4.2829484242,-2.7574238767,-0.7855563579,-14.6983071609,-0.1604197901,-5.7449583794,-3.5232415831,-1.8121131535,-5.7165075326,-0.7589473691,-0.8990767782,-6.5470074829,0.5771516622,-0.7174213603,-0.3624064846,-7.3598223004,-9.8701056533,-0.4959364418,-0.8909422765,0.9251406334,-1.9821031943,-2.1094765363,-1.7491075309,-1.1955038091,0.3801930088,-0.3131163302,-8.2740397167,-1.7233445884,0.5623160463,-22.0290834076,-0.2864262373,-2.905407193,-0.4056267149,-29.0575453941,-1.066280361,-2.2817032939,-1.7833551036,-6.7946386105,-0.2639114431,-1.4305290044,-12.0356978943,-0.3884756529,-4.0856445328,-2.7134532117,-0.7616989632,-0.8846213944,-0.0120901701,-3.7578598319,-3.1959264274,-6.6826561981,-101.0539369882,-0.2978168036,1.2150823907,13.9996461795,-0.7369823906,-1.8391288247,0.2994021675,0.4810362106,-2.9205846886,-0.8802017792,-1.4044449868,-1.4357197869,-4.6393085271,1.2378162934,0.3710274438,-0.6838120009,-0.9014312529,5.9363563787,47.5283695851,1.8261598868,-0.3055640923,5.8109777109,1.2269928464,-0.1477641842,2.2913872209,0.2892504272,30.834884883,-0.3599090943,-3.0041723329,0.950141289,-2.3985783159,0.3056838232,12.7213917699,0.7832741672,1.2632354155,1.7551861361,0.5301854233,3.4192998152,0.7129456128,4.8473251685,7.2897248083,-0.8758077205,1.1791870332,-0.5332393996,1.7187816707,6.4704631771,1.1284291461,0.6016537934,0.4575286048,-1.2823751184,-0.9724930803,11.3646340425,-7.2574633183,0.1718659216,9.0726254656,-9.8961890581,23.5203711559,-15.158264027,5.3754958822,3.0222524546,0.0099016423,3.0814114622,1.5139910184,-2.0220106949,0.6637662219,-0.6936174912,16.5979559044,3.7510779537,0.4633505022,-0.9515626215,-0.3502147817,4.1799991945,3.5452243723,0.9047865932,1.6917934296,-0.4013206444,0.2615937303,20.6227795833,-12.6774092229,0.4964430655,10.9329180526,1.6185536994,1.293823478,0.8212621403,55.5771065438,-0.8485096928,-0.6309310965,2.2812518289,3.7574746428,0.273003739,0.2224923901,12.6160284887,-4.712689274,2.9143589714,17.7660105725,0.7811216167,-1.3388125715,1.0271442451,10.4531987977,-0.9233323552,2.1770476192,75.5131722348,5.2806754853,-6.8718085976,26.5725712902,7.8425384317,-1.0478018803,9.3631786477,-0.0450192876,-0.6896643261,-0.0763914152,0.161293547,-0.091491042,1.8165217737,0.5827959212,-5.014803829,-0.5092804839,0.1454955636,-1.9399288268,-4.1313655264,-0.7453102727,2.0209699929,-13.0552796413,-0.0632200454,-0.7234989641,-31.6990306597,0.6259950963,-25.8786491658,-0.4727726055,0.2885253724,1.1014336431,-2.9671504714,-1.4730938615,-4.8060442002,-1.9920636938,-2.5943018426,-44.5597907423,-1.4197046313,-0.568495893,-6.4142750726,-3.991861951,-6.2839162851,-0.1634025927,-1.9579138134,-0.8595873146,-1.7081188637,-15.5558577596,-0.6910598973,-2.7980108534,-1.273892058,-0.1279215252,1.3868536222,-17.5116610005,-6.4254510515,-4.1695705607,-14.8850280334,-20.4824040111,-22.3397288201,1.8963483625,-6.1073691061,-5.3559262052,-0.0737759363,-4.2132443549,-3.4238974164,1.8964890859,0.0063002713,0.5238348623,-34.3679259165,-57.7893821131,-0.6841016402,-0.3544786238,2.4737862715,-0.2452860092,-7.3055203412,-3.6645305655,-2.6082632815,-1.1512432345,-0.0416654738,-4.9811370519,0.1841069258,-1.176299134,-60.833809062,-1.1260837773,-2.6731797709,-1.0115272608,-5.7606754707,-0.865259315,-0.7612625929,1.38499446,4.772439201,0.1900901922,-1.4180453535,-655.5370144247,-3.0622661034,-1.5695346409,-0.8855037833,-1.1484999746,4.3306988775,-0.3519217761,7.1759797681,-8.0047847315,-0.7155231181,53.6716212988,0.0949925817,-36.3040514499,-53.9885033074,-15.2533154972,-1.791075807,-1.8857360018,-1.7702446504,0.4866496382,-0.4399065941,-1.4682821375,-0.1605038414,-1.7228840585,-3.5942270581,0.3326467433,-0.7003980991,0.0342338279,-1.4479837073,-0.9980911728,-0.0885973177,-0.6089357213,3.8020699399,-0.0693379102,-1.1856700593,0.2705934502,-0.3693849323,1.0476105528,-0.6719250098,-1.4304573233,4.8192737827,0.0165052253,-0.4048359489,0.6576796493,2.6182961895,1.6238528381,3.5336836381,0.1426719643,-0.3415023278,0.7592913567,1.2346852283,-0.4657206838,0.1820839959,0.1463308273,-0.5062983768,-0.745246707,7.4185636534,-0.7727093154,-1.5173501776,-0.3802403341,-1.0111316929,-1.2407899917,-0.1420468254,-4.9137511226,2.6800741419,-13.0022376834,1.2715037128,5.6031642511,0.2018079692,-0.0620698098,-3.5758275466,-0.0229503992,1.5362012076,-0.5150638433,-2.556205431,-0.8423674902,-1.245099813,5.7015441518,1.3943113105,-0.7599943891,0.0904601424,-2.7632109011,-0.5079194649,-6.0159999483,0.4249445091,-0.8423570623,-0.7153295727,-0.8033383268,1.5720764531,1.0763457325,-0.1955523144,2.3929036946,-0.5355239049,-1.1192754061,-0.0594442532,3.3030230025,-1.1096833416,1.6239763161,-0.6976251424,-6.5476087452,-1.2804222786,0.1346635843,9.201487017,-15.5665676832,1.1470013744,1.2226343876,0.0449595301,-3.2134870319,0.1629683025,22.6791579063,-2.5422131669,-0.4559658589,-8.1051728646,-0.9747420452,2.0650696952,14.835651987,2.1285747238,0.0677408866,-0.2684627262,-4.4944218753,0.1417761507,-1.0955448579,0.1876483315,-0.0840178927,-0.4285132196,-0.7155398789,-0.0972928059,0.2255141084,-4.6050047742,0.7784826411,0.3663752268,-0.30030978,1.0780610344,2.2952307998,-0.524640144,-1.7077786365,3.4536429623,0.6551396034,0.1714536285,0.0670551555,0.0960720679,4.5430344219,-0.4097785257,1.0434848034,-0.7952961687,3.0056113068,-0.9434928579,2.998062321,0.4141332275,-0.7882178143,-0.7544188103,0.8088494025,0.7743921246,0.0993904314,0.4305695317,0.0650968779,-0.8127041837,2.3913570548,-0.5643612523,-0.4669223611,-0.4362136156,-0.6669904733,-0.4851724381,1.1680548464,26.3881890866,1.3003342245,-5.9122776168,-12.1310657158,3.2505482972,1.5723523803,-1.768182648,-1.7893026364,0.3857858036,-1.3510220031,0.6012589084,-0.6972522452,0.0232069768,-1.1543202795,7.0497386632,3.8698203243,-0.028204653,0.4506817867,0.510960529,-2.3750488279,-4.8940417776,0.3289621056,3.8348147263,13.6506537957,-0.4779051978,-0.6062000349,-1.6611244894,0.204352888,1.900502882,0.7005449358,0.2038337548,-0.0983985182,9.3425735067,0.040491886,2.376716423,-0.1562935822,-0.6832040591,-0.848460084,-0.2770830994,29.5535351733,2.1174697426,2.1053791759,2.2195765748,0.2886777741,18.8650484293,2.9961642446,-37.3318374293,-1.0830520908,4.3399757854,-0.4226184574,3.0601199301,6.5534033181,5.9843739171,0.01177639,0.9892393961,0.1736268497,0.8812184447,1.3005640611,3.7732287177,-0.2279983657,-1.1152181736,0.6937875431,-1.312024916,0.5511594671,-0.7137600685,-5.687077431,-0.2511426258,-0.8767066138,-1.1055492128,-0.9181694368,1.3055866383,-0.9138765297,-1.372957212,-0.2484812766,-0.8253832568,-23.9523873341,-0.3681686102,-1.0436837978,1.668072261,-0.2034562509,-1.889736188,-1.9861997327,-0.2212699497,-4.6507975157,1.547063521,-0.0138209648,-0.5860462881,-0.8556711388,0.4334299249,-4.2113636311,-0.1260455263,-0.8062912115,0.5051717963,-1.5892318808,3.6171742823,0.366301978,-3.2415794112,0.2763749674,-0.4522359505,-0.6894308982,2.0556659246,-2.1533122422,0.6065729375,-20.5785593674,0.1723137783,3.1799618316,0.4327960612,-3.075937662,-1.5360391747,-0.86164914,0.2638295985,-0.5030623655,-0.8827557685,0.2735538391,-0.2404407329,0.7809422518,1.4420330802,0.6720303654,0.3843319984,0.2382557926,1.8429716009,-4.7674226001,-0.2011159561,1.6311439517,-0.2238551136,-0.3653619953,-3.295074677,-1.1101051676,0.0069762718,-1.7445545783,-0.615986134,0.0985326605,-0.5378548623,-2.3670614405,-0.0616519431,-0.8643816166,0.7726458632,0.708382727,0.4803278681,-0.583368489,1.6769901037,-1.8863519176,-1.97198425,-3.2323125885,-0.9219408902,0.7631384599,-1.2457350115,-35.2882975864,-5.1755660976,3.610002171,3.9586816213,-0.3317200662,-6.2056537236,-1.1033866078,-0.714998972,0.2823132547,0.579667239,0.2243343203,1.3200793853,-0.337385068,-0.7182034284,-0.1601536393,-0.9707115578,0.2816181292,11.0630913256,-1.0275511616,6.9955641822,3.0908752038,1.4097226869,-3.1402543179,-0.3553727463,-1.2849054798,-0.269639434,0.1201712112,3.2527748451,-0.4887016461,1.3450496896,0.7518233949,1.7343512142,-18.9158847617,-4.3236798039,-1.0071665355,-10.7019928625,-16.8995720073,0.7086766024,2.7638238977,-0.9755400743,0.2453949839,-0.1539460973,3.9504691113,-12.6792824818,2.8122933978,-0.765704255,0.7887636527,0.4112582755,-9.7469602557,0.2107094091,0.4322927434,-0.7180932043,0.417354338,1.8932467412,-4.1131261457,-4.6446861153,-7.0041765583,64.4951314034,23.9678679675,-13.5976708444,0.2583271267,8.8040889513,1.034859832,1.4752498604,1.1467159362,-9.1985400454,-0.7013890562,-1.040647108,-1.744345918,-5.000269588,-5.1749240679,0.8582794741,-2.033634597,-0.8677895415,-5.5106846086,4.3958387482,-4.1508319119,-5.3450810159,0.0268433026,-0.5418813241,-4.720854651,4.1728941679,-0.9999803513,-4.18484546,-0.9742780809,-0.7943974129,-0.1331475894,-37.5688555928,-0.7390429935,1.224138509,-1.2242143933,-9.8118552628,-1.0247208908,1.1544198289,-6.7758510072,1.4976974379,-9.3560515541,-2.903988647,0.5462590976,-6.8563155161,1.6497338792,37.956144102,6.1628602213,-7.6288650637,-3.4513255972,-9.3311327925,-0.8856405153,-38.8275070282,-4.1687764628,-0.6273219804,-0.6309987914,2.1996837266,1.1178373745,-1.1349609744,0.2872565804,-2.4035453016,1.2667304009,0.0782138979,-1.4013134231,-0.7515172771,-63.9397080781,-1.1012398703,-0.852386302,-0.6990799086,-1.0474665966,-1.3204645843,-0.3536285505,-4.6673528602,-2.1141115382,-0.1303438535,-3.9429978051,1.3902357052,2.1445629354,0.0447598377,0.3914157595,-0.5284923813,-1.5484776654,-1.5370687804,0.0746912986,0.9107033093,0.6423191835,0.2841271238,-0.8652212247,-1.6876143723,-2.6714153891,0.452317706,0.0414827144,1.2587322091,0.1860778804,-4.0310836269,-0.3039275512,-1.0588468235,0.3065618594,-0.8823102665,-0.5224579687,-2.062746774,3.4550860597,0.1200539582,-99.6955247392,-12.4433507487,-6.9781244869,2.3670433975,-1.4848225643,-1.4541095157,0.2504371042,0.2237312593,1.0645486845,0.3437312226,-0.4842408445,0.0507601842,0.4276371128,0.5739797316,0.0546889182,-0.3039247104,0.1303172575,-1.1412553978,-2.6901199042,-0.7191296495,0.1302631892,0.0678231165,-0.3802528427,-0.0276198224,3.578122327,0.3440525372,1.9700997046,-1.2420037177,0.6668319038,0.2169954351,-1.0071781421,0.0180112829,1.111001282,-0.4310317653,0.3994703709,0.4605093298,0.7169963732,1.0190680395,-0.3143018934,-2.5236431689,-19.9188891785,-0.4830129103,0.2999191017,-0.016734899,-49.9129266044,-0.8134064132,-0.3808928412,8.8473373041,-1.345810095,-0.2900430981,16.6312185294,-1.0028589934,1.5943118477,-0.3277588661,-3.8372283006,0.2728304702,-1.3112467763,-0.5086499597,0.5769460304,-0.1668572237,-1.3423932708,5.268630109,-0.5113828326,-0.4868330664,-0.3419110022,-5.6383757759,-0.5244895575,3.3646259225,-0.3145681929,-1.8099027487,-0.5088347945,-5.4277444902,-1.6109929967,-53.2472014256,-2.3697260022,-4.1757761024,14.0276372423,-1.1898859666,0.2522287731,2.0014377257,-0.7858354189,-12.9220654051,-2.4842361621,-2.4825277145,-4.6460747126,-1.151349665,-0.3746690982,-3.4285321398,-2.3484937337,0.780771806,-2.5857379859,-4.2861359798,-20.901050073,-0.0151893901,-3.710396616,-1.7323369814,0.029157589,0.7626238156,0.7063183404,-21.543515392,-0.7035100457,8.8697069504,-0.3328628191,1.6154238189,-2.337777264,0.4624159654,-19.9035280423,-2.029176476,-2.5364120981,-13.3354754341,-10.811187305,-1.4732800286,-0.1928097158,-12.9760148819,-52.6843097876,-0.0440924461,-0.2894207788,0.3909193399,1.1584979761,-3.1330250351,0.2107175669,-0.8301016289,1.2924433312,-0.1313131067,-1.2875784192,7.033632653,-1.6785255291,-6.872101377,-1.0305522699,-1.6716372521,-2.918904911,-6.5087618187,-0.2279137825,-2.42860641,-5.086604645,-0.3799105509,-0.4003081311,-5.2651916642,-507.9511938287,-2.3779324932,-1.4834942624,3.3269687679,-2.9204812427,-0.1182546564,-2.2483777157,-49.9962378036,-5.5449737535,1.4113337475,-24.9182247686,0.6117061528,-3.5693936314,-4.3589456464,3.9527446205,-1.6306554418,-2.890014848,-0.4393952664,-4.0620332496,-1.0956363532,-1.357065882,-1.6115011482,-1.9904591921,-0.0232464795,-0.735572932,-0.9237026405,102.2538840476,-3.3241151659,0.3405824209,-5.2030785234,-5.0129173057,-2.2581794005,0.2972332664,-3.8350457717,4.3550702257,-0.2565150994,2.6860927262,0.4611338917,-1.1724203953,-3.8541935223,0.8758732892,0.2752111604,-2.3625365669,-3.0487567494,0.86899649,-4.3361890544,1.4517411993,-0.2343304338,-0.0276348988,-1.6919291263,-19.0203376959,1.1905490166,-1.9843308948,-0.3867004703,-1.6332468939,125.2264086096,0.2280671054,0.5675168582,-0.255387833,1.1094071963,-0.6069694036,6.3604783491,-0.1199098303,11.7972659346,-1.4041959898,48.0813140411,7.1549558859,5.0485791537,10.8114150627,-4.5988148759,-3.1767464863,-0.0372815015,2.7506540059,-0.409771093,0.4867669332,0.5504343392,-3.1920785912,5.9681066249,-1.3749168947,-0.4076243474,-3.4210843893,2.0259408513,-3.4702163334,-0.662025447,-2.0164770806,-0.1098489385,-0.689589699,7.0900076452,-1.5954638504,-1.4895484969,-1.6980002456,0.1497939772,-1.8072432115,-2.1822667054,3.2583558175,-1.1632619095,-0.4077423755,-2.009784942,-15.9696955467,-0.1957225131,0.4401086139,-4.0292741636,-2.9380733083,-5.95183824,-61.8539198331,-1.265975323,-3.1694027473,0.0802404174,-32.6831768381,5.6266149088,-3.1842276633,1.8772139587,-27.8921618202,-7.7715077249,0.665080387,-1.4050914725,-3.1430452358,-0.2905125983,-9.2239510282,-0.2522567744,1.4300802631,-1.4641738611,0.7166433936,-0.1800222868,2.1321977693,9.5034121431,0.7689683975,41.1646205336,-2.3937192747,-6.2201889809,-2.0864062135,1.2565184635,0.691102951,-3.1866334152,-5.6602957287,-44.9560381223,-2.8768511464,13.9142040165,-0.700273508,-4.2673947275,-1.8615940007,-8.8285910452,2.2171616378,12.0384535735,2.6902139123,-75.4029183132,9.4326103491,-1.2809978075,-3.4298710955,-1.5355210039,-19.6345490253,-5.0611179274,-3.7354453772,-0.0395863557,-0.5270896155,-3.5324171684,-6.9210444626,-0.2520941878,-10.9712531832,-1.9972420514,-4.4070451569,-0.8858886727,-11.003300887,156.1923810902,-2.7480040957,-12.3609668654,-13.7766416823,0.8506372439,8.5345977794,-10.5201027613,-24.7392296989,-0.1982525836,-3.5657632419,0.8037512148,-0.0575132792,-1.5570082533,-0.096365941,-31.6376586685,0.1284003523,-1.8981097088,-1.820095843,-1.4257795983,4.656282716,-11.8738077623,-5.6299978188,-5.2468670348,-1.4109017232,-1.937091935,-32.1235913319,5.1459851093,-59.0698831546,-1.232826083,-1.5358462414,-1.0395547923,-7.1979097455,-69.9967736315,-4.0649243265,-2.6577540192,-2.1869876386,-10.6337612899,-1.2405581061,-3.4751168369,49.1094320581,-52.2751610773,-3.693873972,24.4446798558,-3.6379505592,6.1445563168,-7.8985281142,-22.6592842047,-3.3901316388,12.0070504628,-120.227693843,2.4187757867,0.7027567486
   2.597305253,-29.6525927891,4.6049319146,-1.2394546028,-14.5303327619,-42.6085452808,-89.4587545385,1.3187582356,-2.1220677604,-4.4554205507,2.139205904,-1.4966311681,-2.5549809002,-3.9684240876,0.4755849368,-0.2595990286,-0.2139267682,-2.448410438,-1.0656326483,0.9180732608,-1.1763207463,-3.9259865322,-0.3662575658,-1.2657535923,0.1059913489,-3.3197819109,-23.770182621,-0.6029010396,-0.4698628406,-0.8170679142,-15.2279420262,0.7773394385,-2.5571822202,2.0911593344,1.0159955802,-0.7103920391,-2.1620796941,-3.9350985872,0.0419476673,0.3435850075,0.9073902801,1.2616809626,5.5689223427,-0.7717765244,-4.1661035947,-0.6399511935,-1.4771958103,-1.3708558133,-1.1320042011,-1.967570422,-0.3913539117,17.2592694643,-1.7926220971,1.7657205793,-1.3043230498,-6.1208436008,3.2445556087,0.5095752844,-2.0601914667,0.722593279,-0.3533216216,-0.1714885239,1.4521939084,-11.0056159069,-5.2852617619,0.5291624561,-0.2501827201,-4.8418237026,-10.5843886463,-25.0032908613,-0.7561751378,1.7012832902,-0.1316532668,0.7845217432,-1.222174909,-6.6759167294,1.4289911968,-16.3923830952,-5.2513542151,0.1809890787,3.1282817941,-1.9078241131,-0.4668999636,-1.6131969483,-0.4695225863,-6.7014235089,0.3412008617,1.5865791013,57.6576075062,-3.0705024774,1.7847978329,-5.3119652444,-1.5627250924,-2.0165463347,-8.4186614492,0.5144658778,-2.3932413691,-1.0095069507,33.3128843506,-4.2130837129,-5.5131187314,-15.1139606922,-6.8542229051,1.5147190534,0.9758154198,-1.7700464263,-0.8748914118,-2.5780403483,-1.4095166987,0.5203678676,0.8929547243,-1.0623793691,-15.7443906496,-0.5036972543,-5.2775063556,-1.9958219095,-39.7824896725,-0.942933826,-2.1078378158,-15.3052106745,-0.5104229928,-4.9177024219,-43.330963748,-1.156257974,-308.976541696,-1.7533021126,-1.4286167768,-0.7677795268,-4.3711007098,0.0623966431,-1.2628621242,-0.6082326178,-2.4354138395,-2.1803844052,-0.1268573102,-9.6791683964,-1.8938917761,-3.1106541361,-1.9788694265,-1.2879283897,-1.8735054324,-0.8618586555,-4.4497957897,-0.635387969,-2.0787114196,-4.5526326074,-1.1986568671,-1.8867993161,-1.7990265562,-3.4487370723,1.2590555317,-3.1349941321,-16.7606341152,8.6422730967,-11.3964608748,6.7318765839,18.9099539214,-4.3623932073,-2.8901365664,-7.8837787991,-3.2814284006,-3.1693862418,-1.9995042073,0.0095047289,3.3897731432,-1.583177471,-1.8695718883,-0.2428556002,-0.2245665449,-2.8658464067,2.6676043439,-1.0756830634,-1.4365143584,-0.9430417128,-0.2004949438,-0.2254181628,1.5500737578,-1.6236704171,1.9869601069,-0.7051354352,-4.6407893964,-0.7947858971,8.2327347423,-0.4573087231,2.0596451148,0.3908611569,-3.0982031137,0.5961701275,-5.3133912873,-132.3370004387,-0.022350668,-0.4667379176,-10.8938921451,-1.5740345531,-0.9164501967,-0.8072296385,3.6645127868,-2.358908115,-1.2180868822,5.6253636538,-23.1856592093,0.4692816903,-304.8723757142,14.738278606,-1.4189704509,-1.6066289058,-4.4860669133,-1.7692077557,-13.5577184171,-10.3537675703,-1.4505016506,-1.1848615305,0.0793686163,1.7173857558,-1.6858614061,-2.7110804318,0.1383025759,-1.1131100509,-0.028095312,-0.0134561257,-1.7481572171,0.0221365819,-0.9125136318,-1.7649714423,0.895484883,1.2344992769,-0.5905805232,1.9633390166,-23.3913178121,0.1750447954,2.9782293116,2.8968474107,-0.2760272607,0.1830111215,-2.4576893345,-0.2814680003,-0.2736601991,-0.0146338053,-0.4089396369,0.387956897,0.4245744992,-0.9695481629,0.3823761216,-1.1278500536,-12.5750645804,-0.0071843995,-1.1836863112,0.6305556932,0.9551332684,-0.447182131,1.8582695949,-14.4076880455,-0.1809349922,-3.7525974565,0.3321617413,-2.6978618103,-0.1147112113,-3.9784356585,-0.7165715902,0.7003769216,0.2252230739,-0.9671231705,-0.381824298,0.6269218441,0.6529708334,2.5983842561,-0.1873750453,-0.0096082877,0.7384685886,-0.439186655,-0.0230584702,-0.864109615,1.2795514901,-3.0367458914,-0.1577041846,1.0188457403,-2.7535955906,1.1506612042,0.7888904267,11.6141840928,0.0538505603,-0.9539355499,-0.2043887081,-5.1986761787,-0.2800938524,0.9831301546,0.1226263677,39.9326303991,-0.7884514739,-0.0427051087,8.7039220046,-0.0668700947,484.0269066088,7.4594394384,-0.4155585501,-0.0802470925,0.5490989418,22.6095075649,-2.02011357,-0.8350223061,-7.1269499236,-0.1448421993,0.1457261143,-5.7640447751,6.7259211686,-0.2833840918,0.6861650327,1.3893663676,0.1660624961,1.9019609126,-0.4134239405,-0.6092013372,0.3673050801,-0.6593203127,-2.4515095525,0.773314875,-0.3594572524,3.3319063091,-1.8847550309,-0.363617833,3.8618044455,-1.5051623401,-1.5530723993,0.0767007268,-1.6074839832,0.2708445668,-10.2151505976,-0.0036505038,-0.0299181462,-1.7973799809,0.5726915386,-3.9170467436,-2.7981596357,-3.0136155148,-0.2691986206,-2.2191585918,-1.9541543738,-0.4372898493,-0.9237435498,1.4007283821,-9.3570416461,-1.6474530244,-0.3250471311,-1.236902328,-1.0677245739,-22.1562248536,-0.8876014852,-0.6586956814,-1.2362960051,0.3497421539,0.7981082473,-20.9383107291,-5.4367651634,-0.671776051,1.1487519569,-320.5474377994,-10.5455464028,-9.1908674102,-3.4138918077,1.1735935021,-0.1786051556,-0.3888190221,-13.8713103686,0.4641493643,-0.3208362453,0.2473623002,16.7873626375,-1.57370427,-0.1977716605,0.1574825535,-0.8340672602,-4.6332910258,-0.4866850995,-1.0031268594,-2.534643894,-0.9878617003,-1.1506508269,-7.3276880724,4.215587844,-1.4120233007,2.6753070312,-1.6768455654,-0.4929310823,-0.2627057882,-8.4584594464,-1.4794334312,-1.3642521231,-1.4400689892,-0.8037379306,-1.0263020771,-0.1692682547,-69.9950581044,1.8431022762,-1.1445510394,-2.8771187372,-0.4290521519,1.7230699966,-0.0826722597,-4.9273751067,-2.1569184937,-1.4205441531,-2.5796546478,-0.7075082853,12.2231053373,-10.3676735525,-1.7969222557,-1.0484633807,-0.2287301798,5.4398978847,2.6175233934,2.3956348351,-0.0831102424,-2.0049953647,-1.4007132356,-0.6190446299,-1.7486795836,-1.3589128497,-1.7822701432,-0.1776473344,-4.4647642187,1.6004471418,-0.9305340473,-0.8904543028,-1.3616193417,-0.7783042556,-1.5942494369,-0.4885350286,-3.0992267309,0.6418626235,-0.5802319483,-0.2149818657,-0.7587788978,-0.8792300421,-0.8672771282,0.7901630175,0.3995717402,1.2982961562,-3.9237354969,-3.9370799835,-1.9622936355,-1.3727167453,1.0058103542,-0.0622045967,-0.5091229551,0.8952786818,0.3137076897,4.5551687267,0.2087310663,-0.4295826372,1.1151912416,-0.0471102858,0.187369311,-1.0332553386,0.0401878361,1.0965104722,-15.1732329441,-2.4387497711,-1.9037322621,6.7218916964,-3.0381092888,1.1450194399,0.1519431083,-0.8504228324,-1.6175456887,-5.3832040797,-0.73827742,-0.547253913,-5.2516890326,-0.782683985,-0.3456638866,-0.2042762011,1.9541231714,2.4236862456,-37.0080610292,-2.8855029599,1.980037657,-0.5014977185,-0.4145776663,3.9473918482,-1.4043718486,1.3544365074,-0.7185144413,4.1763524778,-2.3956615051,0.2320449195,2.8035920327,0.3665660555,-2.0048299371,2.1543841629,-2.7764209444,0.0120600718,-10.0237260533,14.7633722327,8.4806099316,-4.2167156509,-6.2615807328,1.5617718453,3.6574403932,2.5847543868,20.6472502207,-5.8179266823,0.3716517436,-13.2080094245,-0.2024879858,4.441995232,2.579819401,-7.0200275146,0.0799528168,-0.8633097442,-2.5971381051,-0.8322436606,-0.245644655,0.4006005115,-0.1926488174,-0.2048922423,-3.5144431385,-4.6035669151,-0.7541293152,-144.9841194822,-0.9630079885,-0.9565610549,-0.5583116994,-3.101958968,1.0190582003,-1.2556623518,-0.8171671035,-0.0180683678,-0.595696171,-5.5379949599,-1.2931599424,-0.0315765042,2.7220686016,-2.8106856614,-2.5825325914,-18.3300468954,0.5740276191,-0.0822471153,-0.0960954249,-2.7907939906,-1.53570925,-0.1862714657,1.4187085571,-5.7553524498,-1.9762719222,-0.2839257047,-0.9734261819,-1.4398890618,-97.4030272242,-1.5675566146,-1.4145519923,0.1193067927,-1.3308369778,-1.5039391622,-1.3138481025,3.6183939637,11.5738925592,-2.7131611792,-34.1432186785,5.769507159,-2.1660286776,-47.7865534858,-13.0392691407,-4.3571616521,0.786433077,-2.9628414308,-0.2718075006,0.1907687087,-0.1403135838,0.66603755,0.269434061,-1.2346363498,-1.1469145161,-0.9473891157,-4.791210903,-5.9359791147,-0.294830424,1.1746938706,-1.1483833359,-0.6739706265,-0.929932692,2.7942174668,-0.119380439,1.9915186434,-0.3936374058,-1.3532305612,-0.3591582499,-7.5857376273,-0.8660476731,0.181264237,-1.556908616,-7.2766971462,-0.2205470867,-0.6733566085,58.6234294959,1.7998227621,0.9910147632,-0.3238271844,0.946620577,0.973168787,0.7855661741,36.7887721954,-19.7357933365,-0.0878421103,-3.0070128214,3.1156408106,5.7467040709,3.4018729797,4.06580896,0.8157512877,-0.4503170116,0.9450025831,0.4032840985,1.8595904003,-0.4683536678,-1.530832523,-1.235592308,-1.5005150331,0.9951584218,-1.2213077308,5.4653875915,0.3369741463,-5.9486995743,-2.2472921037,2.6727453628,-9.1848300211,-2.6943535383,0.0053151375,1.4984116302,-0.832034788,-17.2428032294,-0.494769298,0.7502512685,-9.2274891598,0.7099754027,-0.1935237876,-1.6760645361,0.5600626136,0.0999666916,0.0679496857,-25.2686833599,-3.1304710084,-0.8575976198,0.1765032562,-0.1147911052,-0.2112969534,0.4505065001,-0.7604285685,-4.1729202812,-91.3019280054,-0.9538129356,-5.6377571972,-0.2672560037,-2.0690698794,-1.1622888234,4.6405724114,5.0266074169,-0.2203759689,11.6915817518,-141.0400761189,2.9702244384,3.3720639717,-2.6287927982,-3.9639465779,-8.3347221569,-5.6154697592,-1.155004578,-0.3513876226,-1.3691210613,-0.3402561443,4.3155615463,-4.3126794273,-0.0195585281,-0.4314618664,-0.7338120341,-1.1961143292,8.8988841301,-0.4364110086,6.2661457151,-0.0589696653,0.462065475,-3.7363090279,-0.6560025573,-0.9912175749,0.1448544041,2.0445726654,-1.9207513933,-9.1487696505,-0.1167497932,-2.0893202358,-3.5772000902,-8.3856719579,-3.2388261664,0.370379922,-6.5559908888,9.6053177232,-4.7799493299,0.262175714,-7.9255076601,-1.4702180707,-2.0801774121,0.4007790895,-36.9492392817,-78.1531700299,0.4049563068,0.7201241601,8.2470440839,-3.882662515,6.1950794963,-4.1877229561,-1.6001965542,-0.3569251168,0.5053973574,-9.3936075433,-2.9319692992,-4.9930742161,-0.7400614319,-5.3246445695,-2.0838871055,1.9683523499,-0.6062739794,-1.0585355714,1.2561917259,-1.1650990506,-0.5122913558,0.8483480289,-0.3794594715,-0.5663972783,-1.3363303704,-0.5556350491,0.055744,-0.6233291194,0.7395663849,1.0771111492,0.1440034414,-1.0633907121,0.573157127,-1.3272761496,-0.6407995886,0.4767215862,1.447870136,-0.0683563951,0.6578381278,-1.1931530145,0.1472936122,1.323041699,0.8827347227,-0.0882197976,0.8416224588,-0.8264250984,-4.0391574118,-0.6406009426,0.302435627,0.4474733999,0.141198301,1.1522256128,-2.641782906,-19.2041421603,1.0195615588,0.2516442476,0.7702988556,0.4278276156,-0.0268758086,0.6110003526,1.7562964388,-0.9579272805,0.3050106607,-1.8157249776,0.6953246662,-0.2078935731,-1.2531454467,-0.3767827629,-0.82554804,-0.6575927933,0.54407875,-1.2363557891,0.8724618057,-1.0728177313,0.3728223835,0.4803995556,0.8367729668,-0.9960407391,-1.0319413051,-1.5822065923,-0.3480929728,-1.6577910633,0.0064212729,0.2966434681,-2.1727688279,0.3350967161,-0.6270461623,0.742384343,0.7346004151,1.5991402389,0.6902705109,-0.0377640137,1.5322043135,-0.9967731592,-2.0965630033,-2.4256046224,-0.3098472939,-0.2490220144,-0.2685701499,-3.1965945066,1.2597015369,0.7635831756,2.0682471238,4.8739928933,-2.7296441325,-250.2556130645,0.3682947481,-0.9801145,-1.0723466579,-0.8712445267,-1.098686803,-0.6231766418,0.5560439455,-0.6436236808,0.0206926623,0.3814534303,2.6560256817,0.1568724216,2.8524366596,3.824195523,-2.2852409084,-0.7140995165,6.3674603648,4.1922129725,-1.6337658354,0.2956211758,-1.0357965167,-1.1457359337,-8.5197999229,-1.3319397608,-2.1511877581,-0.5498446207,-0.6274623413,-65.3676108341,2.5615276725,-0.1691340446,7.0288623989,1.1922573215,-1.0440889782,-1.9686344857,-0.862115996,-2.5663425587,-2.4903813033,1.0138195715,-1.0304016707,0.0217418696,-0.9900221843,-25.1750807972,0.2284460582,-0.6266057197,0.5559262557,1.7758870406,-0.988128697,0.3920283528,7.291570064,-0.607343467,18.1850463536,-12.662520509,-2.158939372,3.1828939271,-0.8362940072,-0.0960168578,-0.0988029462,-1.5719743823,0.5007650201,-1.9654048706,-0.0792941979,0.5303266387,1.7267105911,-1.482558012,0.2509575478,-1.1258886699,3.7203598732,0.9970221678,0.2913834092,-0.5118120595,3.2616762559,-0.1799030203,-1.1462509007,-1.7444801133,1.3326249419,-0.2281735672,-12.0661236714,3.5375858278,-2.4002379348,1.7154507955,1.4991707638,0.5559776411,-0.9427487086,0.8105794227,-34.370301663,-0.9485980936,-3.9385785114,-48.0260481737,-2.5481109902,-106.0522586967,-12.3064217499,-0.1055326561,7.0239636408,-0.1811840063,-17.7218094995,-11.3999671372,0.4673734829,-6.7407252517,2.8424997416,10.1169346885,-6.588536343,-4.1099784337,0.3606155706,-0.4803554664,0.6361690395,-1.0437263887,-2.7374354075,-1.6567125864,1.7714316508,-1.0915832411,-2.4343927613,0.9892118027,0.2361120728,-35.5067817062,-5.9003663792,-2.5663272464,-1.2699164182,-1.4717853368,1.5821318128,-2.9580395753,-4.1564277577,-3.0107396428,-1.1183506383,-3.1901029421,-1.7597350798,-2.0335491701,5.0900855963,-2.0729480817,-4.2122352467,-2.7123769071,2.3202839632,-4.6840173409,5.9313048393,-2.5746917557,-0.5090874233,-0.9818065473,0.7530564952,-0.0318024337,-5.0152725101,-1.9555114196,-2.3520837112,-2.4598786713,-19.0982474175,-2.6399402575,-1.2249962391,-0.6644999688,-4.4469774352,-1.394033844,0.2684300144,-13.1188125588,2.2900789062,-27.0437658812,-7.0186311945,33.0130598524,-1.5203053367,-3.7695333058,-10.8342663947,-1.8639363716,-1.7223344233,1.5730575537,-3.8464054264,-1.4430577473,-2.8919763545,3.2188403432,2.3620523538,-1.3808676053,-0.1779733075,-3.3557905332,0.5794710785,-5.6811068223,0.4265563039,1.5792678089,-1.9521945428,-2.0977111204,-2.5777822303,-25.6347395296,-3.0559741931,1.7597323242,-1.8122885059,-0.2041327916,-4.1235189127,0.7881731894,-3.5037512747,-2.1365502144,-3.4287577005,8.7794259574,0.4473889468,-2.5510126243,4.7231937273,-128.4794890891,-1.342291689,-2.2943144435,-2.1797013108,-2.8232621678,-2.0329910239,-18.1599999693,-14.491671111,0.3397639856,-5.673131106,3.0126569797,1.8116522416,26.2549944271,6.4442518139,-2.2041711613,-1.2165295703,-4.9420928846,0.3132408695,-1.5172511314,-0.5363579315,-2.8544068882,-0.7472776701,-2.5036330898,8.6595950798,-2.9518468391,-3.1687351964,1.4772383802,-4.5875909225,-0.0926256716,1.2980448456,-2.8213098908,-0.0330376355,0.000232695,-1.2361399511,0.0576890532,-45.1412421132,0.0603203652,1.1637792148,-1.798761521,0.3600424444,-0.9674784246,-2.9291845542,-1.3414102046,-0.1865744716,-14.8494868566,-0.3479390783,-0.8263820011,0.2835653571,-4.6009784232,-0.1066662344,-0.8890994526,-2.5476625319,0.1365462973,-0.766855772,-3.2000786364,-0.1506900026,0.0574446944,-1.1481616085,3.6205244033,0.210555747,0.6834373688,-1.6811745267,-0.5462666328,-40.7654847732,-0.6035754543,-13.0800089899,-1.5240292464,-6.2484464419,-5.603777286,0.5530385427,-1.2551389289,-1.3355299735,-0.2713628123,-0.367605609,-0.1582173052,-8.891766387,-1.1388211785,0.8974041203,-0.5726715151,0.6972131843,-0.4509510114,-6.4385496246,-3.4132976357,-6.7426617848,0.1809090572,0.0036887065,-6.9606947003,4.6118415068,-0.7035800214,-11.3981587985,0.8198269424,-0.8097123473,-2.1721637629,-5.6657777093,0.513980005,-1.0342675709,-9.5901671288,-8.4861244704,0.6519867239,-1.0759939765,-13.9611154466,-127.1755799016,-10.9135341518,-20.8871662705,-0.4925543749,0.3445377888,-1.7645342331,5.2583382237,0.8934272333,-1.2350327695,-7.2692984326,-1.4393320185,-5.4110473337,-41.830776873,-0.748796817,0.4409470828,-0.9592904607,-0.3786441209,0.4659276602,-1.1680540675,-1.9389685216,-0.5210287533,-3.9792761442,-0.0834872785,-0.4888965721,0.5103430692,0.5614262081,3.2235282644,-3.2302663291,-2.2792756173,9.5066516862,-18.8928876605,-1.256849961,-4.0471067891,-2.1736494565,-0.2965145077,-1.7996057496,-1.0102956116,-3.1140557931,2.0740967268,1.0786140044,2.1877726304,3.105023662,-7.6082053215,-12.2118369636,-33.1670498134,-7.0977695036,-7.265676107,-0.1060332247,-1.8537072719,-3.5217017025,-2.5005988127,1.208706304,-8.3919960226,-7.2729281224,-0.2946118036,-0.0929466965,-1.7489684621,0.0561154611,-20.4242305937,-2.1844694797,1.3486853989,-17.2313666681,-0.5263138426,24.3213179204,-26.3492129241,-28.1448581168,-25.5173592838,17.7280326631,-6.7941707542,-9.8195943199,-6.3711688477,0.5562215559,-8.1772958701,-1.0764537899,-0.9172222544,-0.7009731712,-2.9688705336,-0.496438788,0.4326043841,-1.1307447913,4.2118289798,2.7627698387,5.8986338672,3.6679933785,-1.0531757639,-0.53914898,-0.8051345971,-0.5848961498,-0.1482466886,-0.9124468229,10.0490183825,-1.7140346444,-9.2789757435,1.9447224209,0.7122520209,-7.8624926097,0.9923360922,-0.5336010195,1.3108908888,-11.0098113854,20.9805232886,-16.6102706153,0.3758322159,16.008536549,-1.5807705213,-0.1876080337,-0.6087251286,-4.1148176553,-19.5485855339,-0.8049849735,4.515412601,-0.9091270457,-28.1348990544,-4.7443967539,23.006923692,-5.4265819158,-0.4999175796,0.3842636428,-4.3946919055,-2.3565638269,-13.9564123304,-0.6089795542,-0.5250722018,18.7918004844,2.2492251354,-0.207619811,17.1818736126,0.5154795499,-1.9302792906,-2.3304346943,4.8440425388,-6.6770498766,-0.8839271027,-0.6886381718,-2.4820158062,0.835181076,0.6434910788,-1.771183822,-1.7870605587,0.8793096109,-0.9841465284,1.7569710712,68.1074879121,-8.709689855,-2.9693947657,-32.9250306998,-4.8945037754,-11.3980092667,2.2129160857,-0.9187616153,2.1730400931,-0.6610371633,1.8074403267,-3.0102248343,-2.8233133641,23.1296162977,-0.0671909396,-4.2017793756,0.2131646321,-1.5943644437,0.4582510137,2.9139632159,7.4441331306,-1.1022484039,20.7121059977,-25.4612462392,-7.7971507632,-4.8812014023,22.5629187478,-4.5713059695,-3.463341902,-4.7427176621,-1.264364248,-6.2470655992,0.0938415948,-1.9316893207,-7.0703151598,0.1342031493,-1.7978579382,-0.1492501518,-0.6272605917,1.252964197,8.7449474672,3.2209394784,-0.3133317285,-0.1007527156,-0.1203151036,-22.3812528117,-2.6018105763,-1.4976821338,-0.7681411521,10.8027209329,0.2563633663,-1.8683431303,15.4806838396,-0.524179315,-6.7381871303,0.948408055,-87.7216113068,0.4751421642,-3.3169474653,4.1315985635,-11.4939609008,1.3111439343,2.1832470715,-0.6188556804,-6.2946831965,-0.6074986657,2.1479897024,-4.4375241093,-4.7527522707,-10.7252562412,-4.7363017755,-20.808117885,-2.1606302595,3.2903527262,-3.2666003861,-1.3160613807,4.0767125526,-3.7369812469,-1.0452975568,-4.1225078774,0.237513078,-1.022289765,10.2308853933,0.3658078814,-1.2841903457,2.5074515749,-15.7846266004,1.6613458386,-0.5174931198,-2.1525457626,-0.7109592524,0.2994097962,7.0049647956,-0.0436870185,-1.0038587656,1.5907219482,-0.4762974446,7.1690769563,-1.5956897212,-0.4050939901,-3.6817650329,2.3025158671,-13.6204636556,1.0668813631,-0.143494205,0.6664293271,0.3205403095,-0.1110888404,-7.2374347981,2.3723169975,-0.7262132641,1.36063159,-0.0814545562,-0.1974890771,4.6260202269,-1.1366702715,-1.9411913027,-0.8676188932,0.1317868841,-0.5693522076,-0.8502813365,28.0862492223,-2.1143897727,-15.1904228265,-15.2763466013,-73.3556474441,0.8924303462,-35.1574477772,0.9817388724,-0.2237990698,-1.0981605174,-0.076779252,0.9823489039,-0.1284992884,-1.2392839862,1.5367623399,-0.1357334915,-0.2246481894,0.7247098175,-0.252630862,-3.0404122526,-1.5991097477,-0.075536064,-1.9600480877,-0.5861075297,0.2176346774,-1.6186977904,9.2660974374,-0.1542639889,2.2722385973,-3.3591998626,0.6382380621,-0.0123667166,0.3336414607,0.2513401163,1.1736290836,-0.7225970768,1.9430803853,0.3635398021,-0.4176040001,-8.1244257222,0.2937520283,1.6132619951,1.958734833,-1.0573292066,0.7983961053,-1.370049167,18.0538498484,-1.8596982427,-3.3860914178,-8.3873183443,-18.6100768302,-52.4839290848,-43.7406544058,0.4316039888,0.0466025591,-0.353084595,-1.532873151,-0.2596406857,-2.3150542403,0.5449582875,0.9350291454,-1.6552580313,-1.9727879558,-12.3424711032,0.216247374,0.2654769412,-1.8495810339,-3.1345427219,-0.6593782072,-0.2356467907,2.4040479969,0.3704914221,-1.579205021,5.3199394828,-0.596850871,-0.8265056875,-0.9597897622,1.049906264,4.1642193205,0.2892139505,0.0202218877,-15.6138496433,1.078612469,4.6038358281,0.5190458154,-2.7664919084,-0.4150749086,-0.1485197219,-0.2016550974,-1.2295796732,-0.5028220537,-1.00453286,-1.7848680747,0.0319481576,-54.4576982771,-0.0841858563,-2.4185701342,-0.6285292904,-2.3909032926,-0.0769066562,1.2221088978,211.3005278678,1.243387589,-3.469336012,-0.8624230303,-0.2088044864,2.1348568547,-2.6025090387,-7.0166626824,-1.6372148144,-0.041800523,-2.7306056187,-1.55280332,-1.3546170422,-1.0424822327,6.310166988,0.4903614355,-0.5780869448,0.6824269441,-0.4366577086,-2.7820220628,1.0530635728,0.3472042719,-0.7707915167,-1.0574637916,0.4871664346,-2.5840636302,4.0606444204,0.141927136,-7.8051762473,-2.2978407262,-0.8816934799,-1.8114177167,-40.9859705794,-1.4844462568,1.507449414,-0.8877992776,-7.4565879765,-0.5578734133,-0.0336939047,-2.9670414173,0.4546074497,1.5466659018,-0.0160524258,-0.1109176317,-0.0284414874,0.0375840126,-19.6403304273,-7.6791243264,1.1298863534,-4.1240337173,-2.6080694128,0.6248964618,-35.8779334133,4.761501956,-0.7889377082,0.0865790343,-1.3283954871,0.2548029018,5.4686361041,-0.5180350494,-0.8581979119,-2.3782713069,-1.3798351485,2.972165541,-0.3263534655,1.7279027217,0.0944480305,34.923851426,1.5133970271,0.068944373,9.5696795684,-0.04954893,-0.7133537899,-2.000208936,0.2402581094,0.0583398599,-0.8217317575,-4.5527948671,1.9485646028,-0.6485642428,-0.0881641334,-0.6772842713,7.5627781017,8.5037194288,4.6250684693,-1.2624842008,-0.7659434769,-0.3347843846,3.6518718641,0.9201061428,-1.7320404339,-0.4955366641,0.2610614287,-0.2038656373,-8.197878876,0.705276391,1.2538172099,0.6349923037,0.5112992277,-0.1312150175,-1.2761990256,3.6448288355,4.0909818736,-4.8003946615,1.1645083824,5.0836386603,6.5420097748,1.8417292084,-0.9283430452,0.7251994667,19.7185816161,2.8769265445,0.0604994473,0.3952336616,-0.4220874213,18.2459388412,7.7971127839,-0.510404776,-0.2114360061,0.9268210614,1.9480821995,-6.6768384873,0.7036147255,142.6091183463,0.9392436301,-0.5217880878,12.3621352534,-3.6243580575,-0.4120153855,18.9034613798,1.5653965967,-0.5383932253,-0.7650543823,-3.3523761297,0.6599671309,0.7508284209,0.3662885441,0.089445894,0.6292434963,-0.2159474862,9.6008806391,3.7593168395,0.0793327907,-1.4012765095,0.7489320916,1.0650239408,2.3577524014,-11.3483333786,0.3349803121,-0.4442203397,-22.5498115418,-0.7192645682,10.6158408875,50.9836949427,7.8942628608,-1.6854380129,-0.771562654,1.2024241465,-1.4471595082,3.0506615384,-0.4980984811,0.4359251463,0.1044221477,-0.7406780633,0.1961589384,-0.5841400764,0.0997552003,-0.4932079663,-1.0871181626,0.0595311425,15.1522464305,-0.1704190614,1.2374751644,-0.5751102714,-0.0697664252,-0.7867751506,2.3255991411,0.8092919253,-2.2455520999,11.6392742872,0.5746520438,0.2550281855,2.0445453358,-0.3166522981,0.5360644559,-1.3293284369,0.0309437056,1.1068902511,0.3394134947,4.5194779207,-0.4922120356,0.3939899469,0.5165211795,-0.9116571398,-0.6801478711,-1.843712677,0.9600838809,-0.4051679047,-0.0507195435,-0.0524671246,0.2526351683,3.3913840958,-8.0296411963,1.1374161433,14.1699788132,-0.9193612202,-3.4059119694,-2.0354179908,-2.4148793391,9.192972078,-0.7407024151,0.1096143471,-1.6459751299,-1.39888922,0.5863623554,0.0879218502,-0.1901242937,0.8393123964,-0.3619960628,0.5838913623,-1.2324744572,0.2891408999,3.8591779791,0.8864740327,-3.4137365578,-0.2909952727,-0.0979048026,0.2653576992,-9.2522022717,0.6317731719,-0.3866089975,0.1065650533,-0.1500233812,-0.3528838471,4.8387897378,0.3717630823,-2.926421245,-0.3644275405,-0.3713426341,-0.9138818914,0.7440654822,11.9212378284,-1.8522600282,2.4494318808,0.0185745683,-0.4084577074,-1.027631351,-0.5065179434,2.3018347039,-1.2688440325,-0.4310636977,-1.2408749494,5.6698718163,3.7759861615,6.8534652172,4.7954449718,0.3779779646,-0.1094434786,2.713161943,0.019427439,5.7069465818,0.5325270766,1.1256870052,1.2363809118,-0.5258981195,-0.7084702741,0.697146572,-3.4562248795,0.9891516902,-2.2295105603,1.0905676139,1.0553586623,0.425784244,0.6787877504,-0.7472445587,1.8607627052,0.2712527048,1.8889030525,0.3446372492,0.6376625111,4.2056932001,0.2225799795,0.8015756038,-0.5411062029,1.0578224383,-3.1844765926,-1.1243593347,-0.2353937287,0.1224656183,1.2757194244,0.7609391507,0.7419505124,-1.3597331197,-0.1394188803,0.6153577401,-0.4986113172,-142.5240039119,0.4597149652,0.4847210662,0.8611114854,-0.483444063,0.8132355872,0.5789604091,-157.4778765889,1.0319837049,-2.3074230755,-56.0068536063,-1.035949045,0.8003242972,-0.6894504155,-2.2963258602,-0.1645673815,-0.5552781795,-4.8347817425,-0.8202090897,1.2407195246,0.7529577324,-0.5773326017,-0.5196048953,0.01247989,-0.1851398292,0.2673083738,1.2700442184,-1.9878147367,3.0227841129,0.4152761722,0.0565921588,0.508345772,-0.9238899943,0.7252005956,0.3760707073,-9.7485215339,0.5992822698,1.8991749376,-0.439743653,22.9061810467,0.3743546535,1.9992724698,1.2326309335,-0.0017084469,0.652549735,-0.0633809541,3.6580045291,194.3699366028,0.4542720456,2.1024520122,-0.2951269381,0.2950928501,0.4824676712,8.1861991341,-3.2438614889,0.4714996365,10.3833639445,-1.5325499147,8.5798151318,-0.2883060632,1.3311012255,0.258465126,0.2882965892,0.3397844802,0.1657891277,-0.0592027791,0.9499239755,-2.1483310355,0.4017371882,0.6911073074,-2.2486133906,0.0147909014,0.0511195159,0.7609510541,0.2944295501,-0.7170001706,-0.3614020433,-0.9408323973,-0.8644349253,0.6143917247,0.8403705483,-0.9475239562,-7.3981399003,-0.4500618657,0.0830031981,0.4465322762,1.8569070371,-0.4187749671,0.503027126,-2.237380652,-0.6505592883,-0.0722346919,-1.2218894561,0.2219028794,-1.3632273928,1.3974747002,0.1763020679,-0.313823967,-0.7635599348,-0.0803417433,-0.1671786311,3.9522720916,0.4781339521,0.8054612313,0.6170030622,-1.1407431022,0.0647299221,-7.4033895952,-1.6023989329,0.5209350142,3.7191778279,-0.3970279625,-1.6462767988,0.8246394355,-1.7291645556,-0.552722938,-1.0476942797,0.4486439159,-1.8044537867,-0.5754300376,-0.7670533178,-0.6483272837,1.2276313229,-0.0235695061,-0.3609547483,-0.9390000904,-0.9037508884,-0.5502940685,3.3429986066,0.3870301963,-1.1340085113,-1.2771339336,0.8547843801,0.3651026929,0.9710602268,-0.8905135312,1.2073092111,-1.2878417295,0.3210728485,-1.3043056143,-2.4769628068,0.2729496971,-1.1646442529,-0.1391720702,-1.2025145596,0.2484450998,-0.3894352873,-4.0212007923,0.3875951828,-0.4836370111,-0.6823372796,0.6555678143,1.2469330209,-0.061263082,-1.4903995699,-0.0473874288,0.3394880401,0.3748937048,4.2521889582,5.38957186,0.6128069052,-0.708382986,-0.44234611,0.1370242782,3.0290562925,0.8103051843,3.1284656225,0.3845688249,0.3084422657,-0.0327858796,-0.6603265305,-1.0386821392,-0.2556191976,-3.9211653524,0.2939821091,0.2249250338,-2.3920816688,0.3149414502,-2.1171639725,-0.6337165782,2.4610908479,-0.3063901828,0.1735890916,-21.2021557682,-0.9789049843,0.0360430613,0.9692476554,0.9351180041,-0.7158889093,-2.7929554802,-1.2245182171,-1.1994802119,-1.6727682164,-1.4217049922,-0.5117050511,-0.5348235411,1.7977509819,-2.2883477739,-0.8983895943,-0.6410852081,-0.6295023955,-2.1897643557,0.7190564884,-0.0806395277,-0.5381885558,0.5034726982,-1.5013937072,-0.4933082885,-1.8105039749,9.0966041421,1.6770891101,12.1271181745,-37.0610883942,-1.943603077,-3.4715083907,-18.4338158722,0.0274967911,-2.8759626197,-0.0933554808,-1.3908708716,0.2708332344,-0.4315989486,-0.9945622145,-3.6888402476,-0.0997164547,-0.4960481103,-1.2611543603,0.9616443225,2.3950347376,-0.6014348516,-0.5202398211,2.0694813676,-0.1260910947,0.1838948634,-2.6338401631,-0.068945636,-2.0534438132,-0.0974670139,1.6779325055,0.2487173044,-0.5305899579,-5.8737445155,-1.3979111635,-0.4694247957,-0.0943980228,5.4695508378,0.5783918176,0.5199318331,2.0834931044,1.8506753366,0.0955598726,-0.4762946919,0.0314194232,1.2926580226,-0.8818371274,-31.087462019,-4.744432911,1.0837585658,-2.4719223765,5.1423927514,4.7415293954,-8.319190248,-0.2822231646,0.1479202233,0.0375601796,5.144633885,1.4118226726,3.9083156557,0.4081182178,-0.0647797511,-2.3004644262,0.0010826797,-2.8965016838,-1.2739540618,-1.1659048936,-0.6552145696,-3.419174494,0.5189535369,7.1863565403,-7.3079814567,0.5533711535,1.1495894441,-5.6329841185,16.6045731018,-2.8855382386,1.4671915114,-0.0388765038,-2.777064709,1.9212443053
