encog,BasicNetwork,java,3.4.0,1,1667679837250
[BASIC]
[BASIC:PARAMS]
[BASIC:NETWORK]
beginTraining=0
connectionLimit=0
contextTargetOffset=0,0,0,0
contextTargetSize=0,0,0,0
endTraining=3
hasContext=f
inputCount=784
layerCounts=9,75,101,785
layerFeedCounts=9,75,100,784
layerContextCount=0,0,0,0
layerIndex=0,9,84,185
output=0,0,0,0,0,0,0,0,0,0,0,0,0,0,0,0,0,0,0,0,0,0,0,0,0,0,0,0,0,0,0,0,0,0,0,0,0,0,0,0,0,0,0,0,0,0,0,0,0,0,0,0,0,0,0,0,0,0,0,0,0,0,0,0,0,0,0,0,0,0,0,0,0,0,0,0,0,0,0,0,0,0,0,0,0,0,0,0,0,0,0,0,0,0,0,0,0,0,0,0,0,0,0,0,0,0,0,0,0,0,0,0,0,0,0,0,0,0,0,0,0,0,0,0,0,0,0,0,0,0,0,0,0,0,0,0,0,0,0,0,0,0,0,0,0,0,0,0,0,0,0,0,0,0,0,0,0,0,0,0,0,0,0,0,0,0,0,0,0,0,0,0,0,0,0,0,0,0,0,0,0,0,0,0,1,0,0,0,0,0,0,0,0,0,0,0,0,0,0,0,0,0,0,0,0,0,0,0,0,0,0,0,0,0,0,0,0,0,0,0,0,0,0,0,0,0,0,0,0,0,0,0,0,0,0,0,0,0,0,0,0,0,0,0,0,0,0,0,0,0,0,0,0,0,0,0,0,0,0,0,0,0,0,0,0,0,0,0,0,0,0,0,0,0,0,0,0,0,0,0,0,0,0,0,0,0,0,0,0,0,0,0,0,0,0,0,0,0,0,0,0,0,0,0,0,0,0,0,0,0,0,0,0,0,0,0,0,0,0,0,0,0,0,0,0,0,0,0,0,0,0,0,0,0,0,0,0,0,0,0,0,0,0,0,0,0,0,0,0,0,0,0,0,0,0,0,0,0,0,0,0,0,0,0,0,0,0,0,0,0,0,0,0,0,0,0,0,0,0,0,0,0,0,0,0,0,0,0,0,0,0,0,0,0,0,0,0,0,0,0,0,0,0,0,0,0,0,0,0,0,0,0,0,0,0,0,0,0,0,0,0,0,0,0,0,0,0,0,0,0,0,0,0,0,0,0,0,0,0,0,0,0,0,0,0,0,0,0,0,0,0,0,0,0,0,0,0,0,0,0,0,0,0,0,0,0,0,0,0,0,0,0,0,0,0,0,0,0,0,0,0,0,0,0,0,0,0,0,0,0,0,0,0,0,0,0,0,0,0,0,0,0,0,0,0,0,0,0,0,0,0,0,0,0,0,0,0,0,0,0,0,0,0,0,0,0,0,0,0,0,0,0,0,0,0,0,0,0,0,0,0,0,0,0,0,0,0,0,0,0,0,0,0,0,0,0,0,0,0,0,0,0,0,0,0,0,0,0,0,0,0,0,0,0,0,0,0,0,0,0,0,0,0,0,0,0,0,0,0,0,0,0,0,0,0,0,0,0,0,0,0,0,0,0,0,0,0,0,0,0,0,0,0,0,0,0,0,0,0,0,0,0,0,0,0,0,0,0,0,0,0,0,0,0,0,0,0,0,0,0,0,0,0,0,0,0,0,0,0,0,0,0,0,0,0,0,0,0,0,0,0,0,0,0,0,0,0,0,0,0,0,0,0,0,0,0,0,0,0,0,0,0,0,0,0,0,0,0,0,0,0,0,0,0,0,0,0,0,0,0,0,0,0,0,0,0,0,0,0,0,0,0,0,0,0,0,0,0,0,0,0,0,0,0,0,0,0,0,0,0,0,0,0,0,0,0,0,0,0,0,0,0,0,0,0,0,0,0,0,0,0,0,0,0,0,0,0,0,0,0,0,0,0,0,0,0,0,0,0,0,0,0,0,0,0,0,0,0,0,0,0,0,0,0,0,0,0,0,0,0,0,0,0,0,0,0,0,0,0,0,0,0,0,0,0,0,0,0,0,0,0,0,0,0,0,0,0,0,0,0,0,0,0,0,0,0,0,0,0,0,0,0,0,0,0,0,0,0,0,0,0,0,0,0,0,0,0,0,0,0,0,0,0,0,0,0,0,0,0,0,0,0,0,0,0,0,0,0,0,0,0,0,0,0,0,0,0,0,0,0,0,0,0,0,0,0,0,0,0,0,0,0,0,0,0,0,0,0,0,0,0,0,0,0,0,0,0,0,0,0,0,0,0,0,0,0,0,0,0,0,0,0,0,0,0,0,0,0,0,0,0,0,0,0,0,0,0,0,0,0,0,0,0,0,0,0,0,0,0,0,0,0,0,0,0,0,0,0,0,0,0,0,0,0,0,0,0,0,0,1
outputCount=9
weightIndex=0,675,8250,86750
weights=##0
##double#86750
   0.1264237512,-0.1127454938,0.8039763848,-0.6200569602,2.0849442606,0.1985460423,-0.5032963342,-0.2609686047,0.5430994072,-0.1288134342,2.4279251231,0.1124359406,0.7061196106,0.1747230783,0.0267623424,-0.0160419763,0.0113027095,0.1448364986,-0.2424485438,0.655312244,-0.1859386343,-0.0928811915,-0.2838639565,11.5755611921,-0.9422228723,0.2018999772,-0.2572005407,-0.4086967792,0.240243419,1.2011640881,-0.0396786809,-0.1699114287,0.4814684879,0.2191146646,0.2561539335,-0.2850243,-0.6013512554,-0.0414777224,0.0309682361,0.2314416561,0.2413009451,-0.0708516544,0.0933185038,-0.1783464461,0.2800801691,-0.0266596272,-0.3414882765,-0.0483119807,-0.0726638119,0.4687810145,-0.3485636347,-0.41850374,0.0547457728,0.0929133902,0.0516417119,-0.9949968613,-0.1246844238,-0.1654961771,0.1042197052,0.5002074989,-0.1516600205,-0.0433910338,0.2287528169,0.0147348093,-0.2284847848,-0.1989956648,-0.3817666806,0.5853928906,-0.3338450857,0.5678137001,-0.2088190452,-0.6597175009,0.6844911759,0.197913937,0.180430579,0.3374285987,-0.1123625328,0.560559193,-0.9938150521,8.7449581272,0.2072656026,0.0624448965,-0.3557133222,-0.3699341968,-0.1787107362,-0.2458721662,-0.1262040189,0.7283631608,-0.0039603964,0.2322640354,-0.0044894265,0.0329366506,0.3507237559,-0.3957490217,-0.0047524808,0.0289743549,-0.9303717101,-1.1581724523,2.0039469089,-0.1860618003,0.0323450711,0.6678281789,0.0191330457,-0.177412649,-1.1103208476,0.0522276369,0.0286986647,0.3046966964,0.5994810907,0.2219042457,0.1242286933,0.465376863,0.0281496906,0.1647793954,0.374739089,0.0795599842,-0.5147288163,0.0622954837,0.0942536326,-0.1703048644,-0.4179362291,0.0018719993,-0.1481882883,0.9211140405,0.7586159966,0.4105448657,0.2408149723,-0.2053553099,0.0386334494,0.2272194983,-0.4212657647,0.1965660863,-0.0150043286,-0.0884380049,-0.2682279853,-0.0840782765,-1.0595927918,0.0935337756,-0.6348910434,-0.3342902613,-0.0427123438,0.3371920074,0.6125359477,-0.1997811765,-0.3008862414,-0.0715026341,-0.2443735802,-0.8255547093,0.5254914955,0.1908155004,0.0264103388,0.3086577863,-0.8172731079,0.2405346655,0.1833050337,-0.1077809252,0.2246802844,0.426400617,0.5283171261,0.572508026,-0.4670585979,0.352421929,-0.4367766588,0.1560372875,0.2992725648,-0.2026586428,0.0171230956,0.0282246161,-0.179737293,-0.3658970377,-0.1925064152,0.1205918595,0.4858616322,5.2933592328,-0.5505981534,0.0463424137,-0.3078180847,0.7215686645,0.3885953762,0.9311930525,-0.3967595185,0.1360169324,-0.6442397287,-0.4073003257,0.161466701,-0.1452481762,-0.2079206475,0.5222502802,-0.0085592542,0.4334622413,0.1192531048,0.0637756799,0.0422350281,-0.1970645745,0.2986319584,0.1357082477,-0.1089544182,-0.5001371208,-0.0765287779,-0.5216825625,0.0206550516,-0.2909626363,1.39073851,1.5645325018,0.8698993744,-0.5143418307,-0.2492050159,0.1760944922,-0.2996726418,-0.0021416203,0.1909083749,1.1408049698,0.2134864305,0.2525730951,0.2203957963,0.4444279708,-1.8927583794,-0.2730571635,-0.0232760536,0.6623654129,-0.8387064783,-0.3784944357,-0.2452543999,-0.2731771949,0.8115419022,-0.0667855326,0.089908814,0.9118102394,-0.5061561987,-1.0547735159,0.0101035378,-0.1069388311,0.3446613462,0.1011851217,-0.3235993304,-0.6056902067,-0.1756627943,-0.1796481377,0.4112362656,-0.1161058884,-0.0645358635,-0.1625041988,-0.6626626707,-0.0495178322,-0.3432407854,-0.0638897137,0.4256628626,-0.0972383977,-5.6366437244,0.31046758,0.0255190235,0.0421277494,0.0696403208,0.0600014996,-3.0408976853,0.3631062045,0.0825344784,-0.4048192667,0.1373958055,-0.0713116497,0.0384104911,-0.4468672484,-0.1553204392,1.3124465589,-0.0692641211,0.0287856549,0.0817613124,0.3227670064,0.0719837698,-0.6659196906,0.0480942477,-0.0559408478,-0.3095369759,-0.8547638525,0.690275916,-0.3190169812,0.3400794212,-0.1464190806,-0.1679193983,0.1961412844,-0.2443239535,-0.2941509161,-0.0439773614,0.0352671095,0.0608086019,0.521263338,0.006308956,-0.6009566172,0.2818962528,-0.1790126953,-0.2519089008,-0.5120687279,0.1246466464,0.1034019828,0.4871381044,-0.4508401988,-0.1663325576,-0.2424634497,-0.3370893521,-0.2100527387,0.282528517,-0.0736854404,-0.7783746649,0.3168308045,-11.3599979181,0.6771205003,1.8927549412,0.457882279,0.3347060832,0.0312620266,0.6882250132,0.0152861531,-0.613333897,-0.1401373841,-0.2793880702,-0.0099167138,0.2008259307,0.0323053756,-0.0295965641,0.7740876773,0.2258437286,0.6623868956,-0.0851079608,-4.4865981863,-0.7799690995,0.1759685701,-0.3558307978,0.5777216372,0.6686407557,0.5386524477,0.8164676466,-0.2375973428,0.5105314742,0.4393740122,0.0854592087,-0.3205806551,-0.7917493666,-0.191128614,-0.2099981683,-0.2795131489,0.7260097048,0.8448390975,-0.1481267783,0.5191501615,0.3314797734,-0.0078777512,0.0838091533,-0.7245910567,-0.2757666322,-0.7639928432,-0.2101029005,-0.457328154,-0.1020475771,-0.0907919937,1.0556767273,-0.6932937398,0.1584767771,-0.0047123406,0.0149078677,-0.0116467272,-0.4495681116,0.058512916,-0.1034545972,0.2058894269,0.5392970508,-0.0676159667,-0.2344270672,0.6456967553,0.0168812662,-0.4028072862,0.2193011041,0.440088881,-0.0736371153,0.1429581824,-0.4938628689,-0.0240773595,-0.1786637988,-0.131285824,-0.1116746293,3.8524035058,-0.1581528976,0.48352131,-0.5388479581,-0.1090545201,0.7296214662,0.0843007042,-0.029492987,0.3532751315,0.169714278,-0.3495297794,-0.2168145884,0.042504902,0.796942824,-0.091539866,0.6652273663,-0.039337248,-0.0131993151,0.7196379377,0.1564658279,-0.8365581413,0.0376940213,-0.1952412816,0.1111649653,-0.1672153876,0.725853719,0.6612136164,-0.0720089372,0.0055591162,-0.2845946219,0.1477541445,0.2250085386,0.5828188916,-0.111646732,-0.0289732826,0.357523232,-0.1796615795,-0.2959584451,0.0923402515,-0.3515601501,0.0710560069,0.0433227287,-0.0273715385,0.8038289911,0.6814197563,-0.7154400446,-1.0214070919,0.4885897025,-0.1261048546,0.1771021093,-0.4484816408,0.1306505317,0.1336164313,-0.116031386,-0.6029990344,-0.1837459868,-0.1350803696,0.4487905041,0.6205316005,-0.1107696262,0.2477017975,-0.4716175513,0.0577543806,0.4839751983,-0.0364846913,-0.4544371765,0.8868190817,0.0020935644,0.0280788288,-0.1530311347,-0.2615982525,-0.2262545305,-0.0064362837,0.882044214,-0.59773291,0.4284772053,0.0804672542,0.0277745858,-0.4495476336,0.3164071085,-0.1608535467,0.8488261601,0.377087296,-0.4487779231,0.0293654779,-0.2147231844,0.0517547557,0.437785377,0.1541344073,0.1033390539,-0.6407553521,0.282308627,0.1249938326,-0.6991052186,4.8642720641,0.5873122929,0.1025629567,0.2605178626,-0.9254664101,-0.2986943318,1.7754742011,-0.1264523177,0.1821183207,0.2140828062,0.2260450272,0.0959680056,-0.0027094886,0.4025241421,-0.1591973985,-0.1484941817,-0.0758994117,-0.0843200103,-0.3571788679,-0.0104440746,-0.1491724394,-0.344297595,0.356429017,2.3768579832,0.2387501732,0.102487275,0.2423942229,0.3069593209,0.1322840873,-0.0684238268,-0.1749383647,0.6785520699,0.0239094631,0.8441527317,-0.6570194223,-0.023373566,-0.231472762,-0.4669656383,0.0310855167,0.2226863159,0.0272327491,0.0084219975,-0.5053717715,-0.1519604918,0.3265556819,0.0175960328,0.4508291026,0.2441843289,0.5741236772,-0.3664747444,-1.334443182,0.021004517,-0.0235009427,0.3575700777,1.0558004642,-0.0446216366,-1.5781998612,-0.3394280355,-0.8765672325,0.2720985912,-0.0742505815,-0.0044324226,0.0243520159,0.2674736085,-0.3378265507,0.2822652377,-0.0107598352,0.7066560034,-0.3512981956,-0.6375214185,0.2183956667,-0.71418653,-0.0226432228,0.0597144893,0.5201914948,-3.1239837688,0.1706510763,0.2582671471,-0.3524569578,-0.4689498888,0.0572490376,-0.3720360335,0.0881444408,-0.3933134249,-0.0357632075,-0.5992316392,1.8130724343,-0.0791412031,-0.6102524913,-0.0873448792,-0.4489897232,-0.3578401934,-0.6094560226,-0.3561549794,-0.0534861513,-0.1457228082,0.0976575024,0.0122832327,-0.0525177202,0.0675043893,-1.3405625643,-0.6364742017,0.4630914001,-0.223746169,-0.34996578,-0.2300833016,0.9625219595,0.262749941,-0.2672158823,0.0406940725,0.2188277403,-0.1230988379,0.3049670088,0.0655935793,0.2843175048,0.5576622452,-0.1404775786,0.1268972747,-1.7544261546,-0.1489771505,0.0823167459,0.4285748505,-0.4471495058,-0.2408135409,0.0556422827,0.6750777829,0.3942062405,0.2362487342,-0.0457502029,-0.5582138981,0.5141251289,5.0641599145,-0.0497577283,0.2650152397,-0.180475579,-0.4696376618,0.0992882497,-0.0554155859,-0.1304636351,0.4723199658,0.0807386444,-0.1482715581,-0.3293726438,-0.2073747949,0.1199001811,0.0654733683,0.687746325,-0.1542255426,-0.1962555723,0.0155594677,10.9709856093,-0.9163264561,0.0700369135,0.1421972216,-0.7998447828,0.1222054255,1.2425522282,0.0892552217,0.5059916463,0.193271579,-0.297714858,-0.0668598008,0.4019645491,0.6890733754,0.2569642102,-0.2992020623,-0.1299426346,0.0230193203,-0.0188044032,0.0756394471,-0.0384925161,9.1305969516,0.020820554,-0.2315049396,-0.0789374555,0.7801623723,-0.5120666994,0.8394151707,0.1401923925,0.0114907356,0.0112312353,-0.120127287,-0.156583978,0.2647229193,-0.1828980068,0.1570344389,-0.0847706941,0.1392085551,0.2099289826,-0.221329294,0.159564169,0.9380492124,-0.3239693072,-0.4016229257,0.079897221,0.05335939,0.1332813424,0.606229071,1.8723827545,-0.0924485694,340.2836708913,-0.2249437941,-3.1061103758,-1.085242614,-3.3002502743,-0.9811164688,2.2612469963,-0.7112933701,-0.8575941643,-1.4819404497,-4.1496592956,-1.6521861804,-7.1232944014,-0.1073335691,-0.6320103863,1.0607691128,-2.6172476446,3.5006781999,-10.0921849005,-0.2485358572,0.9173263732,17.7067331442,-0.1945067059,1.413772718,0.0394418547,-0.1316069375,0.1433604161,-0.9010756461,-5.2914879784,-0.1717408936,0.1759951273,-89.3465563723,-0.5536307624,-3.4549854945,-0.643203122,0.8450065168,-0.2243691343,1.1380882334,-7.8172665301,-0.4350204099,-17.9691262468,3.8571295449,19.5021260542,-0.1352246649,-3.1212127572,6.9286889723,-1.2619293402,-0.8030006366,-9.0633784334,0.8180856043,-0.783238966,0.5119459799,-52.5635926918,-2.6420741518,-1.0920167478,-1.0066519627,0.2655112278,-1.321968138,1.2832875217,-0.8454424079,0.7109406289,-0.5163704647,-0.9761664628,-0.7660010177,1.1295498432,-0.4949949853,-6.8756997869,-0.6931432003,-0.8473059161,-1.3940515475,-26.1997832405,-0.1802080309,-0.6215217891,-0.8376064915,-3.0677174089,-0.1033670452,-0.4040268109,54.6454628701,1.9576807797,0.2063744151,-49.2967841099,-1.216441798,-2.8843985561,0.1286995785,11.1859388593,-1.6304307298,2.4501743129,14.8551929865,0.3787726523,16.4421042941,14.1103705926,-2.5056437669,-0.777671928,-1.1237107437,-7.494324569,-0.3403765202,0.4795564591,-0.7093024173,-2.3316494862,-0.2592949319,-11.5884177461,0.2247503096,-0.6921896379,0.6038263727,-2.5330770857,-0.8604140295,-0.1545572314,-0.2003582713,-2.9727210285,0.8337804949,-0.2043630128,0.5239487527,2.1766532219,-3.7410499236,-1.027978493,-1.4046913797,0.3343909879,-0.7606617609,-1.3727185905,0.2620061265,-4.2256758533,-0.2486794602,2.2674648612,-0.6229963001,-1.3478796376,-1.8292428144,-0.2696793041,-2.7490665812,0.2365946994,0.5114654184,0.4678114514,-1.3138832681,6.0245261821,0.3142729233,-1.5037256228,-1.0731141989,-1.6171326394,-1.4860307454,-2.7454402506,0.9559667049,0.6605209144,4.0643562488,0.0729262601,0.3904263376,0.1989195277,-2.105211183,0.9071735635,-0.5482386463,-0.9057031554,0.3267674105,4.6554882219,-0.1719109427,0.1331124748,-2.6523131778,-1.2073098594,-0.9536918301,0.2354523897,-1.8265099978,1.2256685148,-7.3995882505,-0.0863827032,-1.2527192387,0.5667425463,-0.8040694946,0.2666423039,-2.0927342383,-0.7497939075,0.6615223116,1.3203012503,-0.2337402552,0.9342936449,-2.9718425441,-0.9097316631,-0.8513170732,-0.911260043,4.5183095792,0.7102847076,0.3167986814,-16.434321603,-11.4142496104,5.7648941571,-1.4351414345,-1.1905968454,-1.4490561411,0.1858590887,-5.6651266136,-2.4335882808,0.6265553155,0.0441214841,0.4684786311,9.6666282726,0.0543665958,1.007253726,-0.0588808123,-1.081271256,-0.5106484653,0.0195450901,-0.0710747194,0.6524248657,0.3117053374,-0.8678611538,0.5353112296,1.8062820832,-1.3265595854,1.4898240932,0.2396667604,0.1752479313,0.1384387305,-0.3359810213,-0.3052367755,0.0513576829,-0.368820135,-0.5234260788,-0.6039494942,-0.4592017183,0.5701450289,0.3367520571,-0.9372754905,-0.130164679,0.4412289043,0.6971075699,0.4810812654,0.1358783949,-0.1946699995,0.3154938623,0.4269722909,-0.4236036424,0.6149091011,0.019535201,-0.371117073,0.1425191179,-0.4446496413,-0.6433734462,0.9127797388,0.1835212872,-0.4781244086,0.5600548359,0.0084320467,0.5547324297,-1.5199265951,2.3650938955,0.131236499,0.169991522,-0.0397734051,0.5047792494,-0.7190258608,-0.4003203812,-0.2241150911,-0.4237340909,-0.3882271411,-0.4653326412,-0.059045986,0.6642413823,-0.1419403117,-0.1490880543,0.8385043154,-0.2571568743,0.2581569925,-0.2636887435,-0.3896214068,0.0754310689,0.3368618703,-0.446528614,0.4140025889,0.3287713269,0.2357102466,-0.4389144381,0.0353720933,0.8488620378,-0.0873044959,-0.4864686656,0.2977455803,0.6063482513,-0.166040988,-0.2691138229,0.006287463,0.9291258791,-0.7503945126,-0.4779109082,-2.5070889668,0.7029701712,-0.409607564,-0.3367071961,-0.4242900682,0.2694552405,0.3708100975,-9.9110715665,0.719959876,0.5122219931,3.7089597046,1.1411302928,27.9695002556,1.7388788683,0.4880367981,-0.0795748783,0.3193112458,-0.8871570948,-0.0798959662,0.4414555228,0.2997802772,-0.4222764638,-0.0188206814,0.6846967599,-0.2789966001,0.85636876,-1.873708385,2.9915167756,0.6481146287,-0.3729899475,0.8460405867,0.0197518399,-0.0399428989,0.7960399152,0.0030924122,1.1427931256,4.3122380782,0.1682933062,2.0461999985,-1.218828126,0.3898172716,2.1661471665,2.0860658828,0.1880232226,-0.9682430498,-1.5632668334,-0.4015045679,0.0931589247,0.2739573789,-3.2500056946,-0.0475281648,-0.1534198119,0.2762561067,0.7688890941,0.3480428568,9.9144163749,1.3256178561,1.0278911363,1.1608681045,1.7757109474,0.6367824175,-0.7211835412,-3.3667317647,-0.7457412666,-3.9118263377,-2.7149606796,-2.9743176134,-0.1713093749,-0.3748568999,3.0594257668,-0.294590187,-0.8888400383,-0.1209711879,1.3762404894,1.1966326216,-0.2915412103,-2.9421010881,-0.9915209706,-0.3846724117,0.5798537863,1.8915565496,-0.5457588536,0.2950121164,1.0511822972,-1.7103943522,0.6416418756,0.45367331,-0.9382501744,4.4405523706,0.036156542,-0.7087956037,-0.3145037956,0.6204925711,0.2471344778,15.0122067232,0.6480126551,0.086030041,0.0731555785,-0.3450120938,-0.9205190867,-0.1746345279,16.4957805596,2.7318881701,2.5472780778,11.2158118608,-0.2720399295,1.1879063424,1.108828556,5.3718128155,0.9697534227,1.0832738052,5.4466762324,0.1849015419,-7.5937573222,-0.962676598,1.1115683371,-0.3577760975,0.831439446,-0.3581588918,-0.6175971723,1.6384344635,-0.0135134296,0.8945495799,1.5316190561,2.043875277,-0.763473666,1.3233027372,7.0188103225,-2.0194556779,-0.2322132801,0.110691641,0.6319720865,-2.0472796577,-1.4399091542,-1.4245608407,-1.8229796287,-0.0855493852,-2.3744298721,-2.0869742606,0.3151347238,-2.7447920096,-14.1558207767,-3.0351892888,-3.5890270076,-5.4974737468,0.8976263082,-1.482413249,-1.2975973355,-1.7864355055,-1.5822619299,-0.7694762971,-19.2832599525,-0.0695448366,-0.1630056127,-1.3439805956,-0.5774513841,4.0778108702,-1.3553592406,-1.5602751944,-0.948406825,-1.3100057985,-4.0189097202,15.2116043559,-5.1357643578,-1.0177217221,7.8289373752,0.8901813049,10.7106941636,3.2328075724,-0.3185578859,0.8560775918,-1.1328609892,-0.992210216,0.1638418172,-3.943643423,-1.2380791003,-1.1875556238,-1.548049793,-1.9310187763,-0.9946806353,-1.3633654583,-3.133929363,4.2809640523,-16.1129178119,-11.1151215876,-4.4235459055,-1.3193015329,-0.2606308541,-0.6829180759,3.6384472295,-1.5666627996,-17.9524861707,-1.4980701838,-1.0498494259,0.1665237667,-35.9321533816,0.2012538191,-1.2788084766,-0.5235015217,-6.6629889495,0.1363531197,-0.7701031482,-8.2424014195,-1.8301093429,0.8415857441,-14.7613688597,-0.304769679,2.6181284384,-0.0799459505,0.7848319793,-3.1534521349,-1.06143781,-3.4972562135,0.418190617,-12.3951848365,-12.1446832234,-7.085833142,-3.0292384137,-2.2910745081,0.4019328136,0.9375764526,-0.028630335,-0.2002638452,0.0211301859,-0.9545007914,-3.3554111667,-6.5647327036,-0.1136637429,-1.1315818534,-24.8700384773,-6.8995389273,-8.0211748147,0.2143922912,-9.7719316954,-2.0869310748,-0.1584881261,-11.916750071,-0.7985152696,-45.1904220754,-0.1511531471,-0.4784992894,1.4325244149,0.3611621869,-1.5877060637,0.0290037915,-4.1347461735,-13.0763811566,-1.571462739,0.4830875407,-1.93705754,-1.4160499176,-0.7886063736,-3.1442914973,0.170004266,-0.6626729132,-1.0807184833,-0.2083328324,0.8011702609,-1.2870160879,-1.3994475962,0.7399678083,-3.003406277,-0.6976210684,2.2560711493,3.5117023381,-3.6963880262,-2.5302040436,-4.5373019302,37.5026258585,-0.4742639295,-0.6768862108,0.7633971315,-0.9465691728,-2.9292443719,-2.104724898,-1.3446157719,-0.8263966106,0.3647797528,-17.4825766473,-5.1948128218,-0.3099880985,0.0964869809,-0.7423290361,-2.9053741936,-1.398792669,1.4720751297,-0.8402316665,0.1050237981,0.4488250812,0.4956481298,-0.4604628583,-0.3197887382,-6.9602682224,-0.5859162203,-3.838755699,-1.3785814935,1.0447743731,-1.2887758885,-1.5914361234,0.0139908129,0.5171536436,-0.4767195519,0.1740580182,10.3593097188,-43.8770587459,-1.1801409932,-3.4399565528,-1.571369189,0.2357740482,-0.4641476253,-5.2513703175,0.7437296753,-3.0536487712,2.8941490779,-2.4942430876,-8.002821405,-12.9333169781,1.572573135,-0.7815024261,0.127072436,-6.1398011135,-1.3997030969,-0.8905361845,-3.7364616006,-0.303787438,-0.8416011903,1.0291656073,19.4607612208,-0.2799649704,-12.5260206397,-1.9007633143,-1.5149858507,-0.7865874526,-1.6425228887,-0.5682340484,-0.6852927651,-0.5998688989,-2.2646340223,-0.9816612575,-1.0521541583,-0.8122964508,0.8809377753,4.576952313,0.4180217399,12.4319007179,-17.086155521,-1.0286379979,0.4349026509,7.804816803,-0.4727878112,0.2899790591,-0.1113317076,0.1123388086,-2.0058757843,0.316088506,-1.7028785287,-0.5902143815,-0.1898856664,-256.1322475351,-1.9860533352,-0.7440361642,-0.4595908269,-2.053287715,-2.2637830523,2.0057879814,1.7738795785,-0.0851988811,-30.0842222789,-2.670078751,4.8806871193,1.934572697,-0.8039374627,-2.6432413779,-0.7810133187,-2.5906338878,-0.0271868966,-0.6824036898,-0.5256812127,-1.2881153143,-23.1893040948,1.6144722407,-1.3688775145,-0.766045441,-0.0631199523,-1.4035912717,-6.068345956,-0.7816404352,-0.9664307276,-0.2463807283,-0.8988996289,-6.4310506485,-0.3713313775,-5.6224586956,0.6849874915,-0.7282677747,-0.7897393988,-0.930861728,-55.6665854119,-0.4175530826,-0.9900415013,-1.3568536582,-14.7994993046,-0.7403400768,0.569835766,3.4839672248,-3.9395941589,-0.8055370175,0.3812499907,-1.9778846116,-3.2081424842,-0.6509357873,-61.5379599564,-0.8747275967,0.8051427502,2.399062236,5.019839793,-2.8641325377,1.1620419178,-1.3812093001,-0.8050883021,-1.7743070823,-1.8838753413,-2.4937799115,-1.292597913,-1.1470767353,0.0102004322,-1.3842040926,-2.6926334439,-0.3179681342,-1.6547643132,-0.5805378094,0.7734513832,-0.4448288539,-0.0563167698,-0.1176014271,-0.3797327873,-0.1880582625,0.8696517925,2.0414477105,-1.0381074233,0.6077544195,0.2364574778,-0.0228129603,-0.8730070675,-0.626163464,-0.5347762639,-1.8900544813,0.5599505726,-0.6030576846,-0.7950132038,0.3573660369,0.436587186,0.2227984568,-0.8343611721,0.288629007,0.4155948863,0.0567455181,0.5453200564,0.3422266689,-1.4158986735,-1.042868836,0.0882785219,-0.4853062775,-0.3578684681,0.1304578947,1.0767374043,12.8913857633,-0.7499021107,2.1904058741,3.6104685393,-0.6661251329,3.5494885576,-1.2987987576,0.3912670104,0.5749310768,0.3637130103,-1.3349107672,-0.0261898863,-0.0769125806,0.4926411873,-0.7486340723,-0.15681765,-0.2674535187,-0.3667208123,-0.5437302438,-0.3461110232,-0.1866343013,0.3983802742,-0.6833995594,0.5001440027,0.1752698679,-1.9236569026,-2.3553970878,0.7258385238,1.6201692341,0.1685292476,0.1767609514,-0.5276113457,-1.1096159452,0.2579970625,-0.2150295955,0.0297372921,-4.8639134494,-0.2202004913,0.8798818143,-1.0451582735,1.4931772772,-0.7270967011,0.2508346384,0.8588823652,-0.7396640215,1.9400822385,-17.4734718139,-0.251194261,-0.5117804909,8.992341493,-1.7961093228,0.3074005106,-30.042137467,0.5989807564,-1.0668296958,0.231268016,0.7547826486,-0.0389854796,0.3540665109,0.8354067712,0.4724806814,0.3436643299,0.0508786296,1.0894594665,-0.2661243859,1.1426271834,-0.4594208595,-0.8598289548,-0.2393434957,0.4220972052,-1.0343679095,0.7444316559,-0.8287908697,-0.2587806606,0.333877641,1.3617709523,-0.2212623171,0.2096617841,-2.7829780111,1.9504859602,0.4279591196,1.0863010281,-1.0015161045,0.6323894308,-0.7136994586,0.2943347772,-1.2988065071,-0.657292319,0.2353674741,0.7309422892,-0.0674639212,-0.1753889061,-0.6430378718,-0.8340709536,207.8549637239,0.5511198096,0.5554743075,0.3478420962,-0.3780820674,0.3111726268,-3.4209209544,-2.2135929689,0.502392327,9.4705520043,-0.3686485501,7.6492465414,-0.2594181792,0.7378173881,-0.8820806708,0.0650130255,1.1297142169,7.5958136523,0.0134564906,-0.8098872224,-0.5946101557,-3.2695720815,-0.3328332931,-0.6358001925,0.9207413237,0.6286830617,-0.3365331707,-0.8018396383,0.5336968837,1.3815750504,-0.5276830362,-0.8760215808,0.6322799379,-1.5522958598,0.5569662473,-2.1672701402,0.3036678615,-0.2295862043,0.6140439889,3.625592039,0.9157642741,-0.1101675733,1.26113783,3.3494227739,1.1810259841,0.467518549,0.9273399958,0.860726309,0.5110430711,1.4981364592,-0.2084842515,0.5422095942,-0.0678802578,10.2004690356,-0.5966697873,-0.0987214482,-0.0677436859,-1.289133598,-8.7807197362,0.9622977887,2.4855530584,0.3123094081,0.8156225189,1.3089456502,0.6428008898,1.0372191299,0.0392802837,0.4851329669,0.1519958271,0.1829452194,0.3645201203,-0.1152804155,-1.3643479315,0.1453179466,-2.2323115669,-0.0366076793,-1.0660894062,0.0889826683,-0.7875016625,0.7555335498,0.9771780125,-0.4084039897,-0.2357546923,0.1524592139,1.9366946007,-5.0132867264,-0.9945162815,-0.2909864855,-0.4753113018,-0.031063562,-0.9522470011,0.2677879006,-0.338176291,-0.5322857159,0.3457137989,-3.9917259657,-1.1945790146,-1.5874435469,-1.1441487953,-0.8447105192,-0.1904727887,11.1671413537,-0.7761023703,-1.9296015468,-0.6179438217,-0.217386847,0.8933965188,-1.0705080381,-7.9836810478,0.9059423168,-6.5604215137,-18.93157325,-21.701069469,-18.4062866606,-1.8746973077,1.786454614,-0.6441200179,-6.4470154947,-0.374693191,0.0153123255,0.6385611756,-0.0685483274,-15.019685008,-1.084916775,0.0506368463,0.7318936448,-0.0551095121,-16.8263277424,-0.0002533198,-0.0747534581,-6.2569108829,-0.0464112285,-0.1129310719,-3.5361381739,3.6034787131,-0.6158573076,-2.1898471243,-1.5844565058,-0.2445612567,0.5559003982,-8.8480207289,-0.4817405689,0.0937136315,-2.1200397193,-0.4986156467,-0.4295813735,0.8185319885,-4.5097382763,-0.1712859849,-0.965851223,-0.3773038594,-0.4144919486,2.7414138916,-0.9344625323,5.6123349652,1.2358974262,1.2262667393,0.2697367135,-2.8425032378,-4.5060535865,-64.2216200362,-7.2937699283,-0.3387548452,0.8287742398,-0.2003534354,0.2649591537,-0.6167332166,-1.623120329,-0.6893388991,-1.2822990935,-1.3274470425,-1.7694055557,-0.1464609979,-4.2902331783,-2.3221208954,0.5863902315,-1.4358844396,-2.7789207544,0.0171760961,0.2381173581,0.1153208395,0.126024813,-0.9889635383,1.3099480315,-0.3688390544,-3.1674483241,-61.7795702697,-1.9842106118,-9.6670891075,-37.3844109732,0.3587873528,-1.2186370592,-4.4028443745,0.1000243981,0.3656805381,-0.1992252213,-0.5172508086,0.4102664054,-0.5840456451,-0.3179254704,-0.0654087208,0.9434184206,3.9947133525,-0.3144118119,1.7438415307,-1.1974181228,0.5270260332,-0.7134135243,-3.0382352901,13.0765583831,-0.5402915779,-18.1972632608,-0.7824700503,-0.8343481174,-0.2028491546,-0.2920487127,5.7119116934,0.8084472528,1.3574644759,-1.0603585898,0.5700577286,-0.3956114048,-1.0149630966,-23.2770211522,0.6797151239,-0.2901107141,-0.0847904164,0.1579510833,-0.4696985444,9.5766636862,-0.2653585461,-19.9009431655,-0.2416432713,-1.1043705382,-0.123926897,-16.678180556,0.691831405,-25.0179945404,-1.4507120682,-0.5345142449,0.1044892615,-6.909349782,-0.5047264894,-0.5490926115,-1.0590304816,-1.1058270415,1.0519233973,-0.6216916114,8.6114585789,-1.1036485403,-6.3182814048,-1.2342620567,-0.3411939607,-21.2833584405,-0.6173827061,-0.572849914,-0.545833247,-5.8674753569,-2.1000708695,-5.4719121638,-9.0197395915,-56.4089974268,-4.1354668884,-1.129672957,0.4508574911,-3.4017923733,-1.9512467128,2.6761902976,-0.9632409616,-0.8383043724,0.3941219712,-0.3385187629,0.206983315,0.3792256143,-0.86884542,-1.8925753075,3.0836035912,-1.124592251,-1.1303855957,-23.8044780405,0.2765923231,-2.2606466832,-2.7339874483,1.4406877591,-1.6106043718,-0.5776661525,-0.1799501235,-37.6001946795,-0.8981445867,-2.3611983525,-2.6509191532,-17.022253845,9.3382693176,1.0132850276,-0.3756987629,0.6434673708,-0.0897984787,-0.8461044182,2.2912141405,0.9371439321,-0.3407971195,-1.1292332807,-0.1693701972,24.08267426,-1.007236859,-0.1696566719,-0.7991206065,1.9302207089,-0.8993059086,-3.1054363949,-25.0633694873,-1.9672315383,30.8248297798,-1.2422321356,-18.0046667331,-13.6400111872,-0.6983401802,-3.6060891607,-0.309592404,-0.5628754115,-12.5333913799,-0.1516909594,-0.3218856123,0.1750449523,-2.5218952916,2.775664345,-0.7436697244,0.7740461653,-13.2030568041,-1.5852838685,9.8318760079,0.0900182904,-20.0120885065,0.1773072115,0.0957430605,0.5591737424,-0.9382476629,-1.9370455682,-17.8026467001,-1.8886378819,-0.0243820908,-0.6858394982,1.054193655,0.3973735734,0.0935857544,-0.0160701009,-16.124022419,-0.649110005,0.2111052707,12.4876758231,-5.3055308537,0.3068941404,8.7410347471,-1.0763915212,-1.0408070925,3.9061962985,-0.8056161117,-11.2687520409,-0.1426079146,0.828440842,-6.2250374926,-3.5593732193,-14.0058933895,0.7965984434,0.1710322646,-0.1700004866,-1.2911979178,0.0930337553,0.7939280563,0.0819595365,0.5429757203,0.2850696387,-0.6060059689,-0.3643118768,0.3835758455,-4.1046831686,1.8910000395,-0.0134580517,-0.2665589146,1.0429625564,-0.5302144863,-0.1896201243,0.2688669616,-1.0798698978,0.3589444237,-0.9245999446,-0.756056108,0.2036655218,0.2694923718,0.3292802348,-0.4376876808,-0.110377562,0.1688347129,-1.4058366197,-2.4184822391,-0.0150916144,-1.2827647426,0.2518887939,0.0349392776,0.7320588671,0.8692900234,0.2177706704,1.0678311704,0.6720279354,-3.941758023,-0.8417126418,-0.7724829684,-0.6445165614,-0.5228437813,-0.1117542766,-1.3678497047,1.1261563477,-0.5684705927,-1.1546802414,2.0591133844,2.3448391012,0.2903780223,-0.9261381551,0.516207554,1.0221428357,0.8805037411,6.8504335955,0.8128547772,0.4525880095,1.0724342592,11.7132344528,-2.6946929487,0.5014671162,-0.0943449068,-0.2512751891,-0.2765934069,-1.3035112387,0.3595887321,0.2386842998,0.3152148577,0.6343393455,-0.118217495,-1.2227406132,0.8486659967,-2.2169406367,-0.0490719463,0.5469669266,0.3676241335,-2.8412043822,0.2716214229,-0.1369376099,0.0734584921,39.5994926965,0.001874119,0.071228273,-61.1177033819,1.6285312622,0.5879826397,-1.1856893364,0.402736157,0.1236297297,0.6056596722,6.5550200757,5.4644550726,0.9403412941,-4.0182522931,3.7106670505,16.6119028467,-2.3071885292,0.7706820647,-0.7247979914,-0.5228329483,0.8532403261,0.0203096382,0.4127749713,-0.5962873653,-0.0933135558,0.9251647059,0.6478411027,-0.80824914,-0.5641642276,0.8526339031,-0.8821287923,0.8479242884,-0.0292264648,0.2846142655,-0.1498900862,-1.1052103586,-0.2094976818,-0.0988374101,-0.0970858624,-6.4043656549,-0.6116229025,-0.4138389181,-3.761865927,0.8055869446,-18.1749157943,-0.8982848831,-3.9003812539,1.0589494235,-46.4337338928,0.1837202958,-1.3178119295,-0.3049561833,-0.8403146667,-3.0897677859,0.2870599488,1.3694592185,-0.087744368,0.3559871937,-0.6695589836,-0.8460979162,-2.4580229225,-1.5052490085,-4.8082451615,-2.7385947317,0.4773583979,5.3057625723,-2.0894973836,-1.5254950783,-1.4952727405,1.4489144998,-0.9559083214,0.1303376531,-10.7215207375,-0.1473500591,-2.1546541523,1.0279363849,-2.5538696183,-1.4163241908,-1.359914077,3.8381735799,-4.8966651898,-0.8081590995,-0.5311084343,-0.9143506808,1.1650647148,-38.4356822407,0.263900194,-1.0089991541,-0.1723017576
   -0.801955604,-2.6727175763,-1.2609168463,-0.1274510866,9.750847656,-0.3390036244,0.5148958395,0.6573835481,-1.2059009808,-1.4567699291,0.2367598158,-0.4214913859,-7.2573378734,0.4351044094,-1.2221543225,0.5664982699,-6.6393534335,1.0952899245,-4.3095028264,-0.8632258734,2.5700262919,-1.5097065624,-15.1368795186,-6.1170992498,0.1524108952,4.8709272145,-4.8243120905,-3.8925181661,-15.9695463637,0.9330028051,-0.2155359417,-0.3794113313,0.2850928541,1.0008904424,1.2114473756,0.9529373644,0.6730172082,-0.4697699601,-1.9295274507,-1.9715471645,-0.4146832083,-2.824831404,0.7203330124,0.2832541223,-0.1399399386,-1.074631535,0.5675548358,-0.8506039828,-0.7303967672,-2.5234250344,-0.014063548,-1.8524833906,0.2085267781,-1.8549254005,-13.1892711269,1.6577457578,-8.666505987,-3.2913297684,-1.4080130239,-0.7281115985,0.0864139743,0.1779356776,0.0918497453,-0.1082684909,0.5858853289,-0.0791882976,0.0103619145,0.2122494815,0.1228971245,0.8244332692,-14.603581283,-0.6887538318,0.3146431155,-0.0483486967,0.6949304983,0.1138015912,-2.3281155055,2.4175173492,2.0205436491,-10.4387950553,3.562172101,2.1163377638,0.1625284922,-0.4526715314,-1.1284887959,-0.296233853,0.6276165249,-0.5002701563,-0.3851123365,0.1173488371,0.2035631137,3.723080616,1.0197025099,0.6193168093,-0.3255921944,-0.9051422765,-1.7977966228,-1.5505699894,0.0240822011,0.0838757079,0.0439343305,-0.004474833,-1.4627462256,-0.9037740258,0.0789531893,4.9356149376,-1.2627554804,0.0329789742,-0.5983465579,-1.7068147081,0.1466389743,0.2533417088,-0.7048192288,0.7726737026,0.4982118848,0.8584471069,-3.0522874288,-0.2507301372,-0.1859677911,-1.5782046514,-1.0413934085,-1.486088455,0.5806018524,-2.7485396226,-0.6142445347,-0.1935359709,-5.4579057088,-0.4943778903,26.2602290487,4.6829032545,0.2732352474,-0.4171368763,-0.788575193,0.7882429323,0.212426512,-0.4175855247,0.7103464637,-0.366390353,0.2588732393,-0.3134469926,-1.1231300739,-0.9796700685,-0.1050804191,-0.8526122244,0.1614370193,-1.6800691854,-1.1781517988,-0.1115899527,0.0717866714,-1.3234680931,0.1842634011,0.5487019101,-2.5966078891,-0.8665477401,-0.6930476196,-1.0169096276,1.4125411671,0.4100120287,-1.0462181919,-0.9393679731,-0.213221413,0.1921398902,0.1136150798,-0.8736189691,-0.884756949,-1.6588630913,-1.3015420781,0.5351956699,0.6967816165,-0.2605355678,0.8542605873,4.8691837113,-0.6668020002,-0.3967927923,0.1920416575,-2.4391726721,-1.6997694736,0.0798687529,50.697456702,-1.4877289604,-4.1707974248,-1.6430497769,-28.8544665711,-0.7144699601,-0.3096167061,4.4822609414,-0.3438973163,-0.1213299894,0.7828506767,-1.0397031116,-0.3207055901,-0.7247761621,0.0848706088,-3.0565819531,-1.2365258022,-1.7309239408,-3.3768601291,0.6576423059,6.6127918905,0.1477932075,-6.1692096712,-0.0440874906,0.3592229124,-1.5634774915,1.0000064315,1.676085255,-4.3866035753,-0.8308363455,0.4988550409,2.2192136684,-4.3799128695,-0.0025381173,0.3272078075,1.1066084172,-4.299680043,-1.2544816193,1.301933826,1.601822759,-2.7562721305,3.9633731866,-1.7657474155,-1.0723957566,-1.1054556499,-1.2863246567,2.9003237909,-0.9307950292,0.3402745273,38.3056567306,-2.3312688816,-14.1191625018,3.7831875343,-1.3369155242,0.9652908638,0.4246548674,-1.0156173355,1.2548841368,-0.8921483868,-1.3378632198,0.4427388847,-0.623558225,-0.368250362,-0.6063545964,-0.2052753567,-0.2520700254,0.0210134225,0.4661270332,-3.7792371073,-1.6571934016,0.2424250603,-0.3836773396,0.884776072,-1.1177043422,0.5277088018,0.6723821853,0.3832569595,0.2483557381,2.2623207297,0.1830508745,-1.6379933072,1.0782088112,-1.4133130162,0.8117403291,-0.8413723121,-0.0685502978,-0.4301217928,0.5311670355,0.2303534009,0.8697901096,0.0276519977,0.1242149458,-1.5033046237,-1.2715702614,4.5707774158,0.1790528033,-0.4076687594,-0.3813761801,-0.8015842672,0.2961236949,-0.3906183323,-27.6497242886,-0.2168797006,3.2060561924,-5.325119005,-2.6156663164,-0.0188675371,1.9299325015,5.2873614482,-1.3960012377,1.3591465478,-0.0323789347,-0.3079071042,0.8370232441,-0.4775427425,-7.5730811154,0.1495717058,0.0628058222,0.063807412,-0.5066640955,0.0620106091,1.0907934484,0.8828273051,-1.4411991442,-0.7678419755,0.6451882446,-0.7569898143,2.0763092431,-0.5350564224,0.0668824735,2.5316873299,0.1120838417,-0.693945043,2.4829044884,-0.6947217867,0.2840560485,-1.68063785,-0.3515929135,-0.3246299776,0.3705172897,13.7118554318,-0.4751245772,-1.0715961097,1.9106770412,0.2001766542,-2.6372532604,-0.0556899582,-2.6306593033,-2.0605232172,-1.1883167421,-31.6832922125,-0.5653572262,-47.2151803948,0.0281694766,1.5082239124,-0.517663431,-0.6581177702,-0.3733749628,-0.0584933379,-0.7630544992,-0.3956349644,-0.6655035635,0.6080386674,-0.0498362833,-1.1890251116,-0.4231882512,0.4685013729,0.5241745196,-0.0870561502,-0.5101591089,-0.0458136187,-1.0107456331,0.3043981194,0.4086144451,-0.3458542295,-0.6669840912,0.8905007925,-0.6417185767,0.702072629,0.0919095831,-0.2233494978,-0.094995258,-0.3892293958,0.4102560081,-1.6463106403,0.6703355902,-0.1385293957,0.7613684979,0.4047698536,0.5427316688,0.0907384596,0.8074704411,-0.6025538556,0.3752983913,0.1152962172,0.9700499404,0.1303566901,0.4382557452,-0.6029407174,-0.1509018673,-0.2032934113,-0.9655087527,-82.623903326,0.1019867739,0.7791067773,0.5963086576,-0.3382724337,-0.5446206957,1.9799724163,3.1615226545,-0.1537772062,-0.6332826353,0.7057400347,0.6652992269,0.6440354237,0.8574315461,-1.8656984769,0.9607869437,0.4345066158,0.3200139134,-1.0258677879,0.5970827634,-0.2820296003,1.1145475626,1.5686085879,0.3586015994,-0.3276217608,0.3625781225,-0.3755280889,-0.2426324356,155.0246871048,-0.7908625699,0.5176100156,-0.6810240961,-1.1970428328,0.1746831369,1.1600201277,0.7446244833,61.1985304262,-0.1699996639,-0.8347985559,0.0326197232,-0.7274543341,1.2002952932,-0.5977616698,0.2858325238,-0.1952384005,0.2829327522,9.7384685775,0.8062972951,0.0069777836,-1.311637819,0.2592091688,-12.6707835843,-0.33060821,-0.3128098113,-0.3848114002,0.9906587715,0.6656918606,-0.726422578,0.2039332079,0.9266648475,-0.6722322832,-0.1685450726,0.1888646662,0.9393294672,0.241805304,-1.4023805958,1.362680478,-0.9360301253,0.179024115,-2.1471838061,0.6125339477,-0.1619739445,-1.3861868852,-0.7301972726,-1.1381226867,0.8482949885,-1.0109930192,-1.8106631614,-143.5259022079,-1.4011399377,-4.2301957668,-0.8280815655,0.9817316698,5.9076084148,-5.2874107248,-0.2873864672,0.6249822342,0.5480194511,0.1246798042,-0.3684881776,-1.9071773711,-0.2169217657,-0.4293660061,-1.2894941759,6.3806875393,0.3122564275,-1.1927285903,-1.0462633395,0.2334536663,-1.149945861,1.1157040391,-20.3555227042,-0.7121489233,-3.7816554244,1.052586979,-4.5254465715,-6.3440093986,-0.945850796,-0.6786225905,-0.9664568418,-0.9918747152,0.2135352494,0.5957074164,-0.9796018716,-0.832469894,-0.0361992244,0.0008754747,-1.361711856,-0.3241171558,-1.2044017614,0.4291954858,-16.0161354241,-2.9408466707,2.2132131533,-25.864803795,0.1405421729,0.6920794282,0.6683246425,0.6952915662,9.6464189624,-0.6191106296,0.9853475399,-0.7474474946,-1.8753391831,-1.0085320229,-1.3494186433,-0.8200469596,-141.6141364373,-0.5255626342,0.0497401374,-2.1544463338,-3.7419908375,-0.6644513096,2.3434902318,-1.4163548799,-1.6637830795,-2.6871038701,4.0704945957,-0.3968966808,-0.8167401776,-2.6716463721,-1.4502776181,-6.6140926009,-41.1951771198,-10.5803759059,-1.424311332,-0.8228890857,-1.205050606,0.410905711,-0.7022099681,-1.542396584,-0.7247470182,-2.1836118253,-5.5645511476,-88.3001541755,-1.1928570425,-0.1821228248,0.1194745707,0.5709783022,0.4491385113,0.4595712714,-0.5528022858,-0.6293009867,2.25645281,0.1479022892,-0.7991784323,-1.2676938864,0.3948958562,1.8380974863,5.5106497455,1.153012889,0.3662415094,-1.0233763575,0.3341312219,1.5143303979,0.4252617821,0.3136589759,-0.1684232434,0.3943237362,1.1493135663,-0.3867179479,0.9144829476,-0.7526171215,0.1856020949,0.4178725485,-4.2756255035,0.526687513,0.3232583107,-0.7121082732,3.3452924151,0.5993180776,-3.0256508602,2.2812816064,0.201516678,-7.1325391051,1.9882060759,5.2018841426,0.6197851043,0.1504723791,1.0794695709,0.4562934665,0.5696343043,1.4503849754,1.6398227836,-0.6440854957,0.5295424534,0.6872316392,-0.6388756479,-0.165975125,0.8081044433,3.4478011058,0.3484400332,-0.0577998527,-0.1363146304,-0.3553735406,1.0983653509,0.2411037359,-1.536576182,6.1297102144,-0.0193483131,25.3613208188,-0.279349231,0.1571904946,0.6677590967,0.0877829957,-0.6709822297,0.1739268571,-0.3409009065,14.166156902,0.1769968885,-0.3467314718,-8.9022306278,5.1394395484,1.1365850724,-0.939908948,0.8421169834,1.4393670322,1.3440241156,6.454531563,2.7205746108,-1.1368406038,-30.5659046363,-0.4794939684,16.120410715,-5.0118852143,-0.7235728754,-0.0183415825,0.5811809141,-0.0204444006,-0.3783592677,0.8679918662,0.6814643848,-0.0041245408,0.0851106947,2.8563002978,1.1024370504,0.8396673103,6.7726060876,-16.6032404126,0.4576497385,-0.8744025308,-0.6371356937,-1.8486369088,0.405825857,0.0776492615,0.2691017229,0.4879912868,0.8038814395,-0.2433854233,0.4928526702,0.7288677067,-1.1641014797,0.8873115875,24.6117904594,-0.7875201301,1.0240616518,-2.6199016634,0.3366569012,0.183832952,-0.046650305,-1.2403092595,2.5138786323,-0.9409541259,-0.3284765495,-4.0882594768,-4.5592118421,1.0130972545,-0.7996896388,-0.242251581,-1.9216072396,-0.4171220516,-3.1958630406,2.3992071202,45.0300592809,-0.6759024231,5.3890264823,-47.0616277344,-1.5384530514,-2.1295230797,1.1560920162,4.2819423695,-0.5554101869,-1.264038342,-0.2150834398,2.2578584636,-0.7507417509,-2.4076936827,-0.2753247927,0.0876312255,-0.974047842,-0.0554970618,-0.5588639548,3.9035532598,0.0665723279,0.7552519915,-2.2409975181,-1.9360853659,-0.6814106101,1.5719423743,0.5087804627,-0.4145250666,0.7325855176,1.67751232,-0.3077852791,-4.7650378905,2.0830664854,-0.7127492556,-1.3298074416,-0.9623341482,-0.5869700896,0.4048731267,0.0747890831,12.6555838115,-65.5193795693,1.7469844087,0.5816053232,-0.7686221364,-1.6099513837,-22.5516750848,15.3608250287,-0.6754534742,-0.5642031026,2.2175980456,-0.3522498886,-12.4493670588,-0.3076215865,-1.7447605206,-3.8177832585,-0.7726854166,-0.5272737078,-3.3143792934,-2.8557570242,-0.2309920487,-0.2766861028,1.1606828684,0.1617429544,-1.5267835068,-1.2626293073,2.173989033,-0.6822046941,0.4030641006,-0.7395602356,0.6966766598,-1.3384519755,-0.578107356,-0.661996749,1.8964912208,1.130248393,4.1685744511,-0.8451890425,-0.1613925679,-2.7567153984,0.7994945316,1.0194570134,6.308584103,-1.2507690128,-0.8557320209,-0.4962157957,-0.1183062033,-0.099364691,-0.4946221981,-0.6101030076,0.9103692341,1.3731475246,0.4528061606,-0.0771035707,-0.2967146393,251.539370456,0.8359729709,-0.01634772,0.9619456903,0.9832759905,-0.0855367041,-0.24015607,-0.2391293646,0.9103405434,2.0128099622,-0.0033490905,-1.9905895162,0.4262273239,0.0453188228,0.2200363631,-0.4540502955,-0.5683653034,-2.7165500023,0.2343828194,0.1496130256,0.7187011398,-4.5586769416,-1.1070568433,0.8460193261,0.749113159,-0.732371286,-0.5400250354,0.9561891615,-0.4742370642,0.9119618239,0.4125146542,-0.2965354193,-0.2954136997,-0.0296231345,0.6153649533,-0.3459221535,1.8167509504,-0.5227309835,-0.7230408707,16.0669276164,-0.2610572213,-0.1046661563,1.6688562496,1.0575405446,-0.4265091759,-0.1887714995,7.9990209962,3.1694171559,3.771960824,6.2361172135,0.8659933897,0.1623655285,0.6870728355,8.1550408913,0.9032006777,0.6785616832,13.787693868,-1.9636892694,-6.0099790187,-241.6013935241,0.2594572687,0.6825721458,-0.4230029471,-0.7120049485,0.8206740394,0.7640817204,-0.6509412091,0.0402817767,0.121198351,0.6483846039,0.247619744,-0.0027629193,3.1025027288,6.969205267,6.0767987827,0.1438456855,0.7823244362,-0.7937514651,1.0230019196,-0.0860408666,22.1038012355,0.7738725563,0.1177958301,0.132948815,1.6654657366,-1.2892803243,-1.2305080642,-0.2203206387,-5.9011750601,1.776840856,-0.6066190097,-5.4644555748,-0.1769688994,1.2734983653,-1.0259529999,-3.8684841727,-0.6378111751,-0.8102583978,0.6756220199,0.3083285978,0.5355240215,49.732171359,0.7521820201,1.0534272151,1.1820793405,48.1081629645,-0.0157679508,16.1313884928,151.8057025931,1.7962533242,-6.3993039282,0.3259899226,-11.6436550616,0.3601367358,0.1022267767,-2.4349590098,0.9439074468,-0.1461021569,0.8595857429,2.1962642182,-0.1390467069,-0.3978382861,-2.0409861475,-4.001609137,-0.145488024,0.0599050528,4.5532532314,-0.7925992029,-1.9004822157,-0.0718227123,-1.8517759582,1.9278146794,0.0091636731,-1.6628664824,2.4683922794,0.8302089978,-1.5287866,0.8533420658,0.9165300415,0.403894062,2.122908035,1.4220418838,0.8677582126,0.5674017202,3.9768075812,-0.2463725142,1.3206703647,-3.1019625507,1.8759160518,-3.1376026163,0.6265553933,0.8716017409,9.9881847593,0.2270136294,-14.5208700968,0.6746752571,12.912046616,10.7355063571,0.5690572983,-7.3666705091,-3.4601379597,-0.213228438,1.8904448856,-0.2023933609,0.0099568553,0.8132041188,-1.9044094134,0.4443716068,0.8006961368,0.1001049937,0.5879909218,-1.1736394629,0.2007545947,-4.7489934264,-3.1696358263,-2.6662731613,0.0643915492,-0.1983981524,-1.1843273405,-0.0359198482,0.8909449863,0.837960761,-1.4198702021,-36.8641907907,-0.0355905676,0.1642643339,-12.0479307804,-3.4140475446,-0.4746056639,-3.3596425658,-0.0409663114,0.5389698572,-0.9616339336,-1.2735902005,-0.0928625702,-0.5002587924,-0.4825823128,0.7223435061,0.6100013015,-0.8015568927,-0.6134090466,-0.4865213367,-88.6951721087,-1.2415372812,-0.5759757022,0.1051130704,0.6152728872,-0.2264962524,-2.6428631256,-0.4857618647,-0.1071585143,-8.9473112574,-0.924215985,-3.6425512883,-0.8407067458,1.2773965953,-3.974886585,-0.2317220276,0.1235776942,-3.8706481351,0.8676309747,-0.7402892318,-0.3999346777,-4.6578843537,-6.0305647851,-0.5271628349,-0.6870096192,0.126027923,-1.7290815203,0.6696655715,-0.3191015762,-0.4888600822,0.1477247938,-0.2743499052,-3.991983004,-1.970804988,0.5356736748,-15.0754152795,-1.0760130575,-2.5979791826,-0.0104767896,-18.7864027312,-1.2688387595,-1.6813520423,-0.699142855,-1.7698273362,-0.2639114431,-0.9307482194,-11.7891986857,-0.1389153492,-3.9686333692,-2.4132775002,-0.5564528132,-0.3038279029,-0.0762690266,-5.232752004,0.4754360095,-2.7374628871,-103.349909028,-0.0964145646,2.8712208714,16.7127359528,-1.8287456512,-1.2036635913,0.14209008,-1.0871134645,-1.1272610682,-1.0402273106,-0.4562210825,-1.2543896785,-0.7697085016,0.2426084893,0.4769585136,-0.6466158884,1.6953508464,6.6735614187,47.3390566223,0.3272725314,-0.4817824522,5.3782357311,0.947651406,0.4190651156,3.3425808349,0.0993848114,30.367739629,-0.0769062185,-1.1151554501,-4.8554980192,-1.8641594365,0.4730812036,13.0867923831,-0.2593070942,1.8144295209,1.8024910445,0.2637058171,3.2808277112,0.153264073,2.0603558356,3.7339619832,1.4394300628,0.8480661528,-0.4367368996,1.5339792457,6.633424417,0.8976035075,0.7078094596,0.6174569108,-0.2072860656,-0.2964466991,12.1915382744,-7.046741614,-0.2528241416,-1.3224384083,0.8267238071,20.2379065033,-6.5114240379,2.2804894571,9.8842466067,-0.4495472883,2.498161027,0.821227464,-0.7912632564,0.5964686993,-0.4051435195,16.956618928,3.6068732879,0.6769389338,-0.9657771571,0.0617829155,3.8014010627,0.1889081159,0.8810517578,1.1256932272,-0.3878386584,0.0540781997,20.1758238999,-12.788815752,0.9143045202,11.3032743198,1.0170681849,0.8636503338,0.8521208483,54.7780795301,-0.5812566568,0.0232112717,1.7857144095,-0.3243048613,0.273003739,0.5373812301,12.5793351885,-4.6711455924,1.1894805243,15.675469153,0.5792996047,-1.0003042804,2.009078952,9.9372417707,0.7952009385,-0.5378051417,75.6714141404,-0.1487309187,-7.5525838206,20.1102397849,7.1213841529,-0.6496551021,9.8252892885,1.0980930141,-0.5239847677,-0.292942136,-0.0022211269,0.332579802,0.1650428614,0.2132623237,-3.1513664255,-0.5625928809,1.4032617448,-1.4167032743,-1.9803005056,-0.1479903771,0.6698339678,-7.763192488,0.4653164071,-0.0336484085,-4.1147657363,1.211206084,-21.9643555596,-0.0563884718,-0.0013889771,-2.0691283774,-2.4264747109,-1.5400785271,-3.9227316191,-0.1714692488,0.2070534591,-43.8951743183,-0.7725877788,0.7465792902,-0.8747791425,-1.5783313652,-5.5125526406,0.435947847,-1.0501040416,-0.3310508621,-0.1153220999,-12.6568674523,-0.1583984448,-1.8705302453,-0.5805126608,-0.2833673132,0.1354029024,-16.5430387526,-5.9146066545,-1.5643553528,-4.866508766,-15.7794903486,-22.6427204887,-1.5558017109,-0.5254223554,-3.9447151519,0.4447826317,-2.9056063295,-1.2856456307,2.4427548184,0.5348367238,0.87224183,1.1309481292,-56.5726037131,-0.1555651877,0.0623449631,0.5142444397,-1.4411429443,0.3441121494,-1.2690792152,-3.8833212985,-0.622706782,0.4854647287,-3.9872242679,0.2206449744,-0.7634351815,-60.0043414828,-0.4485054521,-0.5545783158,0.2148008816,1.1666225424,-0.302908925,-0.2534786212,0.5990887709,4.7835296456,0.1900901922,-0.5628607673,-653.2887459211,-1.0302862973,-1.0839991999,-4.9549406449,-0.612774589,2.2313695191,-0.1974571339,6.0741360435,-3.7686769621,0.1669346891,51.7158650455,0.1502350694,-25.5798955533,-41.8321695472,-3.8867627373,-0.1451965739,-1.3252684493,-1.1347873033,2.1730105421,0.1524488453,-0.8133811664,0.5229919756,-0.605907478,-0.7893883785,0.9066893305,-0.1718616466,1.3443981393,-1.1507949947,-0.7980318982,-0.2767893167,-0.7312998083,1.014772779,-0.0169536602,0.1726334601,0.1838928669,-0.2973756157,1.0207518388,-0.6205532598,-1.3278449501,3.861094324,0.45921401,-0.1243283159,1.514738158,0.1265415694,1.4913917676,2.2705158038,-0.0102819627,-0.3884589297,0.6736402023,0.6797076593,0.0353305567,0.7422131173,0.0798027777,-0.3968449748,-0.669480305,9.908265972,-0.4785885227,-1.157337745,-0.1757233735,-0.5016259234,-0.6281862729,0.293446567,-6.1671044286,0.8139392795,4.9576625479,1.2912415054,3.6676159235,0.4816891647,0.7170232742,-1.550632378,0.2766281743,1.4424903624,-0.6537754614,-0.8084900642,-0.7871332402,-1.155902315,2.6825198626,1.2805000753,-0.4617419811,0.2399143574,-2.4555598981,0.1701401615,0.7520360429,0.2930228822,-0.4443210696,-0.4432088447,-0.5547433488,1.7007561223,1.4125485818,-0.1336563998,1.8349331088,0.1091663722,-1.3077621314,-0.015776725,3.4022317728,-0.4065953294,0.2443237779,-0.4283744004,-5.2661574355,-1.2804222786,0.1764458523,8.6164878087,-15.6241824919,1.0473659946,0.7505014641,0.2189439282,-2.7849733209,0.3649801025,12.2817652628,-0.4240470506,-0.9311309459,-6.6611934546,-1.5075491769,-0.226694762,7.2881374044,0.3713217959,0.2633603275,0.0033674258,-0.0524775163,0.0030437967,-0.9237742469,0.2089271633,-0.0205095467,-0.4140689274,0.2528580255,-0.3529998443,0.2807483584,-0.9839810664,1.4413412931,0.8369443697,0.206664607,-0.6224454241,2.3839843401,0.129261114,-0.8131645645,1.893998455,1.0301629289,-0.1995155859,0.4971472061,-0.4227067688,4.5782320393,0.3659217217,1.4156203834,-0.9886981021,2.8430343246,-0.9331935425,2.9474227998,0.8847023704,-0.3389577735,-0.1025248763,0.2623793399,0.8120986186,0.4716654349,0.4928346523,0.5330787203,-0.3365308242,2.7239509397,-0.0892427563,0.0088756568,-0.5680380811,-0.5659363784,0.0483945949,0.5458439609,26.9239907226,1.5505922182,3.5585071135,0.9134314161,0.9054098223,1.986414288,-0.8017061096,-1.6448937858,0.9391138001,-0.7669646881,1.1044638414,-0.666964884,0.5127788864,-0.4751345295,1.7828441949,4.5824878245,0.5041394446,0.9425962871,-0.009081471,-1.6057255896,-1.5245446167,0.7349975386,3.0854558634,14.5098641911,-0.060958947,0.0300873911,-5.5096297298,0.4502378062,1.2619635078,1.0362887672,-0.0516410276,0.4495832737,9.3265059579,0.6023662029,2.736172905,0.4084891758,-0.6490082833,-0.848460084,0.0767933826,27.6480284946,2.59470446,-0.4168157776,0.9318838741,0.5669769017,20.1929931746,3.1397601574,-26.5654948866,-0.0242294918,3.2139757316,0.8244816146,0.6658700883,5.8290211284,0.4744137783,0.0582039525,1.0967919369,0.7441601587,0.8616837657,0.7323628599,1.5730171506,-0.2456044913,-0.6408705026,1.2843673891,-0.0447395205,0.2674566327,-0.2490473886,0.1045638659,-0.3330683835,-1.0176033114,-1.0872564736,-0.8006042954,1.1101384558,-0.7639085797,-1.1433592648,-0.8273013606,-0.7550952302,-24.807915532,-0.387595491,-0.6811557904,0.4990438921,-0.3949603209,-2.2840341075,-1.1652342734,0.4319293829,-4.4776601157,1.1331396154,0.1189386972,-0.4728429256,-0.8871164682,0.1836523201,-4.4289266719,-0.2318247532,-0.6638782409,0.5731419463,-1.4818784688,3.1941973763,0.501555054,-3.5270703366,0.2338615746,-0.3176995385,-0.6416929686,0.402429284,-1.6404173698,0.2952785175,-2.9422680065,-0.7547892456,0.9579171458,0.1366501762,-2.9984353194,-1.3319513035,-0.9157288694,0.3197120237,-0.3471205463,-1.0987736113,0.3397918657,-0.1583511429,0.5300556929,0.9669247152,0.5961275891,0.365622565,0.4155773796,-1.3039359565,-3.4665293459,-0.4770564879,1.6607097433,-0.2006674564,-0.2991239687,-3.3492444992,-1.0610276886,0.1013860984,-2.1106679351,-0.7871058915,0.170798461,-0.2852055433,-2.6598999007,0.0636894689,-0.7680796022,0.6917694902,0.6544881592,0.4803278681,-0.5360837065,-0.1549539767,-1.7810700601,-1.997073568,-3.2632255785,-0.8353133877,0.9671784512,-1.3354242337,-32.5266870176,-5.6821420005,3.5103040646,3.5807391176,-0.2744119353,-6.3280075828,-1.9940140883,-1.536276433,0.0247262253,0.5037644627,0.1083364867,0.7399419035,-0.9879972264,-0.6868446514,-0.2861606932,-1.2092435721,0.3593809893,2.0960108649,-0.8911637616,-1.0371181355,2.5856761979,-0.1570055944,-0.2790167783,-0.2643766821,-1.7050076383,-0.4947443211,-1.2597636483,1.1447534026,-0.7981620839,1.0093450951,0.4596256771,0.4133399734,-1.7750404111,-5.4891409753,-1.0291964099,-18.8712568218,-0.0719679824,0.3682902984,-1.8055399994,-2.5906730446,-0.3333380277,0.2293059013,-0.110040911,3.9790194031,-0.4542164547,-1.3734505501,0.5220530349,0.1517485577,-14.1754663433,0.0456739791,-0.8863737379,-0.5544837053,-0.2346208486,1.5737177292,0.2337765719,-4.7111639289,-6.9601192607,-18.9017316088,-2.236153372,-3.9565860403,-2.332927383,4.1720949174,-1.456271656,1.4104742165,0.3682872656,-9.6186422039,-1.0572779682,-1.2611835951,-2.0119414446,-4.6939317372,-13.1793658865,0.5660817563,-2.4244548044,-1.0150847834,-5.9741656971,3.1770854402,-5.1514100725,-7.7982275908,-0.2398673152,-0.7900433112,-14.7974852151,2.7412608446,-1.2691656033,-6.1566239007,-1.1362660815,-0.2414711389,-0.437612579,-37.0723870112,-1.0508575375,-0.6171581416,-1.2785475053,-10.5635895898,-1.0247208908,0.3473829729,-6.5739829712,1.1862205537,-4.0270869338,-1.6266855652,0.2712514878,-7.1439882567,0.6492897742,38.4884472461,-0.3304957702,-2.1961067459,-1.525538816,-1.6764983863,0.4690148486,-13.2849881423,-3.8221517768,-1.0592221638,-0.9231965092,1.5176701865,0.5042434194,-1.946836296,-0.3157756496,-2.7492030194,0.7144440659,-0.2990129729,-3.4174751941,-1.0160894949,-10.3173964369,0.3850393741,-0.0734354069,-0.1055812757,-0.9668768971,-0.6639312097,-0.2230208385,0.0055534992,-1.7175593772,-0.2207388189,-3.9847877617,1.1460932172,1.9218202147,0.2469597278,0.0408340095,-1.0636546842,-0.6151124531,-0.5813201475,-0.1883960002,1.2682755214,0.1841461266,-0.5258279331,-0.2516670141,-0.6120555537,-1.5429063938,-0.0002575022,0.0606508504,1.011322868,0.4670828081,0.1686723443,-0.4455266252,-0.9928266374,0.1066299256,-0.4084405835,-0.6624381999,1.0162756846,4.3211969849,0.6519269205,-45.4242071186,-0.2060184512,-10.563896082,-1.0381996613,-0.4220085691,0.4092081883,0.1477527308,0.2781806798,1.1299883518,-0.1833550253,-0.8874903245,-0.4397295658,-0.523147826,0.7061986053,-0.1080454552,-0.2617907984,0.1913903341,-1.012206965,-0.3144593905,-0.3664465823,0.0780572146,-0.1731009715,-0.6335023227,0.3873924972,3.3756301443,-0.099365737,2.1166267896,0.1844140749,0.3622273547,0.3305726282,-2.0588161469,0.1587746949,0.930790303,-0.3203052955,-0.26301898,0.4605093298,0.1013283507,-0.0015285723,0.7238525292,-0.4438663026,-17.8121471417,-0.1542490046,0.7887387227,0.0604929066,-6.6842883427,-0.7345003438,-0.222310617,3.0092747464,0.0837479936,-0.1008813801,18.1657470565,-0.4263341468,0.62873953,-0.6699361161,-3.6375241425,0.1191212112,-1.6569700441,-0.2168759331,0.012875749,0.007793981,-0.8260865307,3.1541568554,-0.7555253206,-0.2899083215,-0.0380008717,-3.1571583168,-0.1722986995,-0.0528547809,0.6619857271,-1.4425937487,0.1766352887,-3.4422380356,-1.2404885467,-42.7804994889,-1.230136882,0.4859597503,12.477009728,-0.5804869244,0.2374069531,1.9476080664,-0.5060515357,-12.0548386681,-1.5581685743,-0.6441742208,-2.4040261354,-0.947110347,0.286831651,-2.8103179203,0.0294529167,-0.0634866621,-0.3859502407,-1.9959682346,-20.1648991849,0.3844439579,-1.0924871569,-0.652800273,0.4407024798,1.2405092044,2.1869546739,-14.775653586,-0.1874472134,4.2491611905,1.1025291267,2.5699135871,-0.9747607477,-2.1860049657,-18.4065530308,-0.0139494358,-1.3765419751,-12.6232739726,0.5784100003,-0.9247488286,0.3727815422,-8.5210380368,-51.9198848145,0.2717142447,0.061643402,0.4742898045,0.0633016936,3.3510131692,0.3294931054,-1.0428002353,1.606562522,0.3101092841,-0.2643889012,8.0795710223,-0.6026953594,-6.2691564987,-2.2385568864,-1.2379789561,-0.8418511736,-6.433842305,0.1038346083,-1.8115437184,-4.6302842461,0.4266930171,-0.4003081311,-2.2311996961,-505.1896021646,-1.5428506703,-1.1802602106,1.857295652,-1.8559687246,0.139404916,-1.7683514467,-53.9759783994,-1.6492537236,1.8661528588,-25.6636525833,-0.6001977902,-2.3999887926,-4.8239971434,1.3065808314,1.4431626542,-1.6465328778,-0.5315106104,-1.8220547076,-0.3232382434,0.0827918684,-0.8065504752,-1.0869048593,-0.1601442155,-0.5080488039,-0.5376556405,1.3436867861,-1.8180045109,1.9502247459,0.0815773205,1.2439967523,-0.9864504638,0.7893186704,0.1111008753,1.8089833702,0.5600319816,-0.7704421258,1.5038184897,0.2148236291,-4.2744330144,1.1852203058,0.339422415,-0.0344036894,-0.2133875932,3.155972704,-4.4027257708,2.2493942359,2.1282830124,1.5627299095,-0.1643369833,0.1794711834,0.2919509367,-0.1217007398,0.5415312533,0.2228848531,113.04648534,0.816652892,0.7378591839,0.7176144024,5.526937219,-0.1454621994,12.2033320655,0.6999149525,24.8011779475,-24.752309559,2.3275026376,7.669619022,4.6077148596,2.7616888408,0.3448022749,-0.6208460967,0.9894949711,5.3963385282,-0.8828549834,0.9414807997,0.9928784172,-0.5608769008,0.4998890531,-0.5825696993,1.2235032405,-1.5612339797,-0.1126340145,4.4044407458,0.7922597473,0.1622417953,0.2286046669,-0.1280017754,7.3273405877,-1.429386282,-0.6553495607,0.3573962038,1.4041852828,0.3920961199,-0.2949555706,5.0055679589,-0.2394953115,0.2431193371,-0.881841704,-11.7117156585,-0.1957225131,0.78544162,-5.0666523436,-0.2641448461,-2.1081382598,-2.3065831867,-0.2786857204,-0.0968395638,-0.0358432075,-21.3072076782,2.8491944382,-2.1843422598,0.0681726487,-10.7411747131,-5.6300380931,-0.236144576,0.2254637366,-0.8468772314,0.1700809597,-2.5896730305,1.0695346566,0.078343564,0.4299117315,1.2261535916,0.5225852481,2.0996692847,4.7058597612,1.1836395929,-1.5311259895,-2.0235812174,-1.7360099422,-3.8730535672,2.0713576175,-3.740672421,-2.259977891,-0.3905167266,-17.1865354628,-1.5546705152,9.7674105667,-0.2197956858,-1.9286604958,6.0453659691,-7.4457042334,-0.6187141144,9.2428419438,1.0423826619,-74.7885819243,1.4818540872,-0.5137370873,-3.1380812888,0.0012618594,2.2285128551,-4.0509670152,-2.4065575015,0.258597985,-0.1593663974,-1.517321997,-10.0869845403,0.4307160513,-8.5932917511,-1.2263529447,0.2183129694,-2.2942223746,-4.4980272606,154.1345576291,-2.0015504484,3.888671245,-2.2095646027,-7.8021870304,6.7636433423,-1.7111320955,-20.2934368661,-1.1476396217,-3.1718232855,3.402056053,-1.9150030761,-0.8754485016,0.5780036642,-25.8581202288,-1.1703416335,-0.6619288536,-0.3435679111,-0.9333964704,-2.5884762099,-5.852518839,-2.0150613846,-17.9476555899,-0.8573448998,-1.0737138333,-31.6963445321,5.4952902699,-58.0441923026,2.3431103512,-0.9161361292,-0.3252361471,-5.0038491662,-70.7432893314,-2.1661366551,-3.2113870804,-2.4545488318,-10.6025602211,-1.2405581061,-2.0484169356,59.2749525196,-52.0283382683,-0.2453883126,-0.2593638436,-2.0399938235,0.9689313817,-6.9102311862,-23.4466633176,0.2583223905,-0.3253564111,-26.9418900278,1.615952105,0.3932563341
   2.4936914959,-8.308457697,-0.8834240627,-0.0730636056,-0.1881748904,-40.5289120835,-3.3899072955,1.7854738272,-0.7084859987,-2.6854970377,-0.2030938814,1.883715915,-1.298136711,-3.2043527182,0.4741090074,-0.572658218,-0.3624205705,-1.4523118685,-0.467945579,0.7310592666,-0.9567747621,-0.7515055807,-0.8035214784,-1.0190388281,0.1047216695,-0.5934264126,-9.0560769154,-0.7119154941,-0.8766756947,-1.3367240975,-14.7874546831,0.7444222793,-2.661818949,1.0448427373,0.6913197892,-0.7178298397,-1.9563677206,-2.7506041762,-0.2276259984,0.0566372535,0.5310743318,0.7839068607,5.5342995522,-0.9444542227,-4.5761538387,-0.6037744175,-1.1131531805,-1.1762347079,1.099011058,-2.6855530676,0.176234742,6.9126556203,-1.3470524307,1.3554447413,-1.4973645685,-5.8211233923,-0.3622532887,0.1333512904,-1.9677445368,-0.0357066947,-0.1741827766,-0.2987510139,0.9990285188,-4.0862211364,-5.5506454527,0.3799844313,-0.1949690701,-1.4990898926,-1.5944132626,-25.2428517881,-0.522178133,2.2738803636,-0.3301345518,0.4082057949,-0.7393188388,-5.5349424398,0.9304463712,-16.2014930838,-1.4813111816,0.2516664865,2.3937080148,-1.5855403218,-0.6125717384,-1.3041256905,-0.3975606269,-6.8342749014,0.3412008617,0.7670824026,58.0769055816,-2.9689760564,2.4992741049,-0.6009161502,-0.9103979139,-1.8321356697,-6.0339291779,3.1924236317,-2.6497406785,-1.0177103445,31.2439007961,-3.2873755779,-5.6965038435,4.2088222686,-3.7983024281,0.7074299197,0.8222678356,-1.5791584931,-0.6310375546,-1.114964412,-1.4824341535,0.0478498817,0.6025005316,-2.1633034456,-5.129743418,-0.6731823385,0.3866873822,-0.8137151391,-38.3655680537,-0.381758538,-0.4180210294,-16.0593019254,0.1267757752,0.2862786532,-42.5985522914,-0.187071974,-308.46830514,0.0615654576,0.3023957144,-0.7551245331,-3.8423035538,0.3146102163,-0.5351776616,-1.1627852197,0.8603150156,-1.2213199348,-0.2294576845,-8.0123978774,-1.2510096095,-2.7874519012,-0.4056255236,-0.4534194799,-1.3559725573,0.1213421355,-3.7669271715,-1.7527611672,-1.1227290676,-3.2700110933,-0.3147493385,1.0731292634,0.4946506512,-2.9724366502,0.9448896461,-3.4871747457,-19.5172431481,3.2294760449,-14.7488986132,6.4716864122,-1.7188163695,-2.0080690808,-2.2768521528,-7.4719085193,-3.0546131255,-0.6675506632,-0.3006523513,0.9080755769,-6.3883928226,-3.1758961785,-0.6692719475,0.982897115,2.1794063365,-2.6707496847,-1.9006515589,-1.2336391642,0.0281704564,-0.2456101177,0.7082002562,-0.3303112142,5.1830240809,0.1272278492,2.9443927005,-0.2591414176,-3.2006283832,-0.1898336355,7.28997079,0.3635226535,2.0138016984,-0.3413317474,-1.3782861237,0.5961701275,-3.4795610121,-129.2586610594,0.6353329448,0.7778255284,-5.9538511075,-0.6381959291,-0.191812399,-0.4267680303,-0.2664452483,-1.3115264955,-1.3206980343,7.7146933282,-2.3499706899,1.1774358092,-306.3594575703,-1.1214752262,0.3880310868,-0.6613844058,-2.1134039551,-0.0912457691,0.3226797868,-9.3912320845,-0.7035170155,-1.5854197913,0.9095216855,3.4809013243,-0.7423362061,-1.0277504772,0.2620683713,-0.7317988065,-0.4938421408,-0.2658000492,-1.7009921963,0.0287456699,-1.0259981258,-1.7569649707,0.940835059,1.2107991729,-0.5454979003,1.5038289024,-24.9879023952,0.4481646494,3.2009398496,3.3189366835,-0.3629183487,0.0104441694,-2.0074592541,-0.0361501449,-0.3284089963,-0.0223369659,-0.0572527975,0.4084963802,0.683203747,-0.7619325735,0.6305200476,-1.0670323776,-12.4328010322,0.0156013516,-0.8311950964,0.6891871192,1.0732684132,-0.453566111,1.5094775005,-14.526829197,-0.3950263575,-4.0137963474,0.9394368228,-3.5200848756,-2.1342197717,-2.6806457569,0.4380078699,0.9470132756,0.5282096808,-1.4903258517,-0.194421982,0.6632066407,0.7121257219,0.0368211032,0.0351271853,0.0518168883,0.700819384,-0.4338437981,0.0728263866,-1.0560338446,1.5795020707,-3.0460404034,-0.1459374996,1.0300323472,-2.3909467462,1.0714665152,0.8342406027,11.748692606,0.0711534837,-0.7976059983,-0.1371434541,-4.8830218673,-0.1945050144,1.0405859706,0.1340482071,41.1570024735,-0.7884514739,0.0023775142,8.7483990853,-0.0421670053,484.1007690026,7.5041542058,-0.4001867387,-0.1132524947,1.0312097221,10.6864173794,0.1231104087,-0.7868901719,-3.8771289679,0.032265586,-0.3543087748,-7.127760418,-0.5002958732,0.0041849682,0.7312476556,1.5487073069,0.1704981531,2.2597921616,-0.2525616025,-0.3649058487,0.7304382531,-0.5722249297,-2.2361723838,0.782248963,0.8642538664,3.6247020227,-1.5071769407,0.155633791,1.5293328053,-0.7025123175,-0.9327221233,-0.4494002054,-1.1364690398,0.6534251162,-9.3121070038,0.3210540442,0.2568349633,-1.6222352055,0.9166727546,-3.3237165305,-2.8874598878,-2.1679809514,-0.8013090192,-0.4498603717,-1.1463176607,-0.0850083635,-0.4837548256,0.9128494649,-9.2154333069,-1.1229842644,0.4245688881,-0.6161709546,-0.6971668481,-21.0650934189,-0.4494442961,0.1106654797,-0.680832012,0.913185511,1.2159526967,-21.0659237871,-1.4266054376,0.061130293,2.6535038222,-315.0979251442,-3.2674464945,-4.1452064055,-2.631287757,0.7804830302,0.5292404524,0.4115165366,-13.4405668688,0.8040930723,-0.1839353573,0.3796510002,-3.0968982552,-0.7285540629,0.1889338889,0.3049802157,-1.0093625399,-3.3220625478,-0.7036787179,-0.4822226402,-2.8323966326,-0.1724649872,-0.7520892189,-6.1506769669,3.9308879821,-1.0900580647,2.644919271,-1.3443304433,-0.3423093553,0.1214486038,-8.2935366614,-0.8351681234,-0.9154076988,-0.6186536161,-1.3595031552,-1.0263020771,0.0119861231,-69.8850316062,2.2078926282,-0.993690748,-3.6823374109,0.1662078529,2.703436184,0.3382126403,-3.2895057234,-0.6038760157,-0.8390114029,-2.4971626057,-1.1725990928,1.4940193621,-11.8924334699,-2.2307692892,-0.8828694357,0.3916200962,5.1944612648,2.3266016781,2.0884865626,0.2033535768,-1.4342390516,-0.6385427725,-0.3946451285,-0.7980290743,-0.9572192417,-3.0981232804,-0.1920567158,-4.17308573,0.5561126142,-0.5151081255,-0.5469266611,-1.3080348167,-0.8887330718,-0.9167004094,0.1851141622,-2.4062912867,0.6461368422,0.0029620384,0.2739403792,-0.7889326478,-1.0294983005,0.6877965201,-0.2212435331,0.439086851,0.7197949558,-2.9386473894,-3.1111412342,-1.5503943603,-0.9552442378,1.1159776519,0.4776847854,-0.4881072926,0.6828111568,0.1217754647,6.1758922036,0.1555074707,-0.5496732052,0.8232759952,-0.4493057292,-0.1836924824,0.9657811137,-0.4908616209,0.6351396819,-5.764163975,0.5344488747,-1.8547184712,7.8129469006,0.3726702385,2.1278498392,-0.0526818219,-0.4933296119,-1.4980230327,-5.5142227527,-0.721340895,-0.5593671943,0.9522181631,-0.6163189214,-0.5557306616,0.1281789685,0.5198298486,2.2156333706,-2.7440602234,-2.2079539324,1.5079606395,-0.5084143998,-0.3917911413,3.8309029302,-1.8445177023,1.4090522824,1.5752416745,2.5343923125,-2.3253251901,-0.1501572869,-0.5601362316,0.1177017333,-1.8816490644,1.7383741967,-2.7300055036,0.0120600718,-7.1175295387,16.5605600032,7.486491598,0.2239289817,-2.6486011235,1.2591906989,1.2406972929,1.436613964,14.6820967204,-1.8847948539,-0.087893581,-5.7108586946,-0.9193515131,0.4544594052,2.723522765,0.5656599828,0.0048840808,-0.8097252192,-0.4921293764,-0.2574579494,-0.1769376847,0.5276807563,0.5114961399,-0.1384958423,-2.7928786957,-4.2835326045,-0.7371927902,-1.6847696661,-0.0706323897,-0.1574642317,-0.176767624,-1.6010433409,1.1973021754,-0.6622179238,-0.2693063427,-0.1101403636,0.017188257,-1.4223674506,-0.8504175144,0.553194331,3.4782875169,-2.2531963114,-2.0311986032,-13.6533662202,-0.4697537783,0.3984447001,0.2320115043,-1.520129507,-0.7527169307,0.3131148023,1.3496999256,-3.6937465204,-0.6572087691,0.2028048953,-0.2222708689,-0.7644700812,-11.2550672415,-0.6780451985,-0.5704568618,0.6405330607,-0.6777381064,-0.2617860291,-3.1287051666,5.2022909238,0.3441039037,1.6199195773,-0.068276101,1.2930369287,-1.2517383227,-46.7583019709,-10.4488479528,-0.9586123293,0.970428417,-2.2262200598,0.7755900364,0.6594183087,0.2065588442,-0.8275172504,0.6425045907,-0.5814357618,-0.9403061161,-0.2753062308,0.1319825201,-0.2201663903,-0.279142134,-0.5057518118,-0.5590945309,-0.2047472765,-0.3292245556,2.5665797413,0.374492561,2.459627514,-0.1810449788,-1.1320261862,0.4655127768,-9.6206939591,-0.0297862001,0.6292559358,-0.7184899106,-6.2904423674,-0.2205470867,0.0666186719,41.1190190383,2.2819780751,1.3162667349,-3.8542882018,1.204839105,1.4372452932,1.025254143,20.2786124995,-0.5114248553,-0.4575053706,-4.3691561634,-1.1196739096,1.5067721045,1.5803828338,1.8531141333,0.189824558,-0.1794480116,0.8072185247,0.5134577129,-0.6172849567,0.0085709101,-1.0484032419,-0.761440995,-1.2473265817,-0.5894468432,-0.7468747308,-0.3237999736,1.3089095778,-1.3202895317,0.7312994734,-0.1579583798,1.7233330249,-1.3550747141,0.1599263773,1.6458352997,-0.353066038,-9.1764183046,-0.390828558,0.4034672527,-12.7282831017,1.4244872382,0.3727706748,-1.6057010189,1.2023125306,0.1730261801,1.4302216552,-0.7285744942,0.494317139,0.1794067911,0.3051852931,0.4835380121,0.6249723659,0.7122190295,0.9706007059,-0.0121435116,-30.3660637379,-0.0567741856,0.350663746,-0.1633152637,-1.1679433714,-0.6232178109,1.5073561766,3.9553093854,-0.0166632993,-2.2693947854,0.68974233,3.1978347291,0.3769921634,-1.5133286322,-2.3798496585,-1.2834127446,-0.6437608347,-0.0286112164,0.524510193,-1.0334811513,0.4381016682,5.5172615413,-3.746845833,0.1343086089,0.0784894885,-0.4687151069,-0.0832141883,0.4256656833,-0.1556307967,0.5754040959,0.5573171181,0.779298441,-0.0674276345,-1.3771737063,-0.4072932205,1.1725117229,-1.0208068272,-0.988489267,-1.2426024478,0.9794796075,-0.9559539116,-1.2080424905,-1.412099796,-1.4332458645,0.370379922,-1.1324558695,9.032610815,2.8448494401,0.5237382496,-8.5316208052,-1.0997894659,-1.3748949775,0.3507140685,-35.5912818819,-0.261343105,0.9387778772,2.3743351398,-5.9245188177,2.6074827603,7.4115670118,-2.6131155792,-0.7919641661,-0.2529843768,-0.1107919916,-9.1474134655,-3.8826883022,-1.2881605687,-0.4316206919,-1.5395697191,-1.4783582498,1.9811571957,-0.2676599294,-0.3983425632,1.391602198,-1.2544005365,-0.2985727237,-0.4651149933,-0.2756742194,-0.5654539773,-0.5545925512,-0.6289203491,0.1018678219,-0.2132210518,0.7143974999,0.9439942504,-0.0120184603,-1.0007290111,0.624189352,-0.2882889344,-0.033049949,0.5042280081,1.7384581744,0.1336714119,0.4958153237,-0.9437102925,0.3437783134,1.0110797191,0.7266343329,0.1977121246,0.8357060588,-0.7990369984,-3.6839154513,-0.5990292416,0.252079083,0.3604450831,0.1635621229,0.643709346,-2.1521037425,-18.761433352,1.0761707105,1.299031595,0.3544330582,0.0002474738,0.6997289521,0.5217696452,1.7664641008,-0.8534001805,0.3557657133,-1.4502175696,0.4028201509,-0.2142295418,-1.1905216248,-0.5851312219,-0.2265687334,-0.6945650523,0.5596755929,-1.3018105799,0.6372274543,-0.9354978384,0.3705109457,0.5953351576,0.8304369981,-0.9681623078,-0.4276755871,-1.2435757093,-0.3229591478,-2.3079177852,-0.0176129421,0.3726395556,-0.6125243977,-0.1576228443,-0.613301091,0.9804465284,0.7721998881,1.3923701069,0.6902705109,-0.0145211665,1.8108507453,-0.4167637896,-2.3003310113,-0.9479876141,-0.304038851,0.0077186045,-0.2749039099,-0.8359502214,0.7975897885,0.6446160732,3.854229703,4.8845778366,-0.9792136217,-249.1720381449,-0.1435190143,-0.859507796,-1.1053805867,-0.6767047863,-1.190985755,-1.0464380462,0.4940292677,-0.6555846495,0.6058811813,0.5960004057,1.3618652389,0.1466711778,1.225523167,2.5420752107,-1.3704995406,-0.6264408787,-0.7281642873,5.0201872044,-1.5784338446,-1.019030082,-0.7079204143,-1.1002389484,-6.082294677,-1.304019682,-2.3830928096,-0.4238233658,-0.3827289505,-66.6472839633,1.8722925988,0.173099487,7.0575871909,2.0715310029,-0.0236651507,-1.2565687828,-0.8039303132,-1.6315696893,-1.3581992756,0.8201242089,-1.0306344557,0.1067393864,0.1735633338,-16.9377975266,0.1892972655,-0.131844497,0.566911984,0.1638532235,-0.9656964499,0.6641000127,6.7986208331,-0.56767319,15.9114124261,1.7580281401,-0.5314050417,4.4028407027,-1.2265960661,0.7814428166,-0.13341588,-0.5948459611,0.9165490276,-1.6907124696,-0.0417614509,0.5657468432,2.2335606071,-0.3350351278,0.2307281996,-1.0603573682,2.0291762009,0.7990493096,-3.1336050532,-0.170267048,2.3446410973,-0.1888851078,-1.1038581536,-0.9947064659,-0.2458472099,-0.1857808201,-11.4950498432,0.3617920502,-1.9069317926,2.0347600275,0.5164611491,0.5433392066,-0.3337760983,0.5621433529,-34.2146891365,-0.9485980936,-2.1761855047,-47.5410019407,-1.2396632826,-106.3755877263,-14.6394530304,-0.1282234267,5.1271416763,-0.4649601692,-17.0253265852,-1.6327297417,0.7141777245,-0.1593096787,2.9149800606,12.7254815058,-2.8662029625,-3.3513426088,0.7619356408,-0.4649864601,0.6630296075,-0.6098925175,-2.0111549233,-1.2443142982,1.8091695899,-0.2885987503,-2.3402983679,1.1728462838,0.2478352391,1.5541083484,-1.2503220657,-1.2271393848,-0.7962359028,-0.7803642829,1.8948634095,-0.8849483657,-1.1115980669,-0.6236488342,0.0063255423,-0.4598924791,0.1966042202,0.4386732859,1.9661381603,-0.6760475697,-2.6474512254,-0.2927654407,1.8887631978,-2.7507495569,3.6212933322,0.1411680409,0.1691326961,-0.1615934357,0.9070856132,0.399107171,-0.1527598527,-0.0609687918,-0.3187814648,-0.3171741187,-3.9499116188,-0.5784770652,-0.5417358343,0.3486833118,-0.7903606117,0.280604337,-0.6288978139,-9.7512732621,0.9321862669,-4.135965889,0.259752634,20.1370359402,-2.3336706185,-0.6952686918,-2.5655139925,-0.8793774473,-0.6117065027,2.4207692593,0.4623711889,0.0960287527,-0.8947660611,4.2198185308,4.9172976292,0.4983652161,0.6646553469,-1.55193807,-0.3479199798,-1.4163056197,0.9280561564,1.5999849059,0.0053305228,-0.2504326924,0.2378937259,-18.7412828368,-1.0845212651,-0.1885448473,-0.4593931059,-0.3190830736,-0.0934147039,-0.6573046969,-1.3275008497,-1.3323258433,-1.0146424525,9.6600712584,0.4473889468,0.1434200803,1.2474613917,-126.5132379247,-2.3004458872,1.794952325,-0.2341280868,-0.9131953824,-1.9152791693,-6.824172204,-0.1261612855,-0.6761889072,-4.138487776,0.2913646036,0.8757060318,19.5892288767,4.3771313196,-1.0561319279,0.7336522297,-1.9972583904,0.2937225619,-2.070902515,0.3546280895,-0.9988259602,1.1432109321,-0.3456252548,6.9955114068,-1.0848021611,-1.6985185891,1.3665417019,-3.9728311037,-0.4330174,1.0850452621,-1.0923347927,-0.1068695886,-0.0942650102,-1.1436508959,-0.0133303999,-43.5960260925,0.1945664277,0.6625627744,-2.4107361007,0.1769492949,-1.1556162316,-2.2165501196,-0.9579911792,-0.2758785036,-14.713679936,-0.0886832738,-0.9842648305,0.2145165023,-0.3914881921,-0.0055659002,-1.0263201481,-2.1201204095,0.2649647098,-0.6314857642,-4.9316292081,-0.2204340901,0.3191651255,-1.1993964033,3.1340019192,0.1233358495,0.9017365515,-1.1839284223,-0.3985722872,-34.9190963289,-0.8796676918,-12.1077035913,-2.1226376663,-1.9700432219,-4.2399421423,0.6826485036,-1.0410258644,-1.4951965115,-0.3421943998,-0.4439909465,-0.2346026427,-2.7356547077,-0.7403094899,0.8235350328,-0.6454729682,0.3076099928,-0.7102385122,-0.4168349822,-1.826675455,-6.4693358548,0.1045237197,-0.0719094966,-5.4718556086,4.4271281158,-0.7799653589,-11.0013089831,0.7325983712,-0.8677025421,-1.8973290657,1.6920966127,0.4430690675,-1.1097538084,-9.5364918373,-7.7609957735,0.6519867239,-0.9401457265,-13.9621698728,-127.1363227878,-10.9745258329,-19.3072718157,-0.3539050293,-0.5062617505,-1.8619006911,2.6421908216,1.0370074268,-1.0828834417,1.0297987443,-1.300242894,1.1856870179,-35.4869031342,-0.2094683879,0.7435325243,-1.0310970482,-0.5630347636,0.3966909102,-0.9453309996,-1.8811202608,-0.3756053144,-2.4029218062,-0.2198419296,-0.4377430169,0.4357239817,1.2433746744,3.1724573104,-2.4044608375,-0.4808691664,1.6719177036,-1.470481135,-1.1390728496,-2.0125226432,-0.8972046343,-0.4236529047,-2.112198889,0.0233572111,-1.7026769143,-3.5618871991,0.8917222262,1.0816768888,1.8057103899,-1.1263377292,-5.1952756879,0.0651335645,-0.0812082279,0.3277005034,-1.1513295123,-0.3258777037,-5.5975633072,0.0649868994,0.5164464617,-0.7676194122,0.113804328,15.7955818576,-0.365607946,-0.2869668963,0.2132666216,-3.1402885544,-1.8533195008,0.67273715,9.7217423826,-1.1309754732,0.9501741875,-1.0434432236,-0.719383641,-25.4166006469,-2.0874192926,-3.5891633419,-2.2422227095,-0.7446788997,1.5919743338,-1.5446529176,-1.2191783609,-0.6454323869,-0.6564359231,0.5461120559,-0.6013929625,-0.2197935805,-0.9868052467,1.0657757296,-0.9522767435,-0.9627036175,-1.6043395416,-0.9721507784,-0.5454651972,0.6466922969,-0.6150128,0.190501333,0.8607146436,0.7083143488,-1.3037484454,-1.6085047331,-4.3143972467,0.7386811064,-0.7129723426,0.7901127939,0.8630767061,1.3108908888,-1.512783293,20.1609156545,-10.2073507135,0.0163795723,-5.0400462216,-0.8616340691,-0.7300320538,-0.6070232807,-4.0851438916,-0.6916994765,-1.310925652,-12.5950264766,-0.7435060263,0.9402419124,9.4658191772,5.5330804719,0.3014316232,-0.3381861314,-1.6505891558,-0.2312080262,-0.4698461134,-6.64677428,-0.6006615506,-0.285690727,-0.3515394892,2.5362920795,-0.3312972355,16.1483558809,0.5959336344,-0.9352013891,-1.4197941161,1.4623031934,-3.9348148822,-0.819327547,-0.1772240538,-1.157297659,0.687962941,0.1682122583,-1.46030795,-0.8353011598,-0.4361921124,-0.6727835284,0.3304363156,58.976175544,-2.4975589227,-2.0922850445,-17.1005857864,-3.7517588954,-4.4535613142,0.2367794704,-0.1386616644,2.5166332311,-0.578591486,1.5407721199,-1.0487215401,-1.3866851754,28.9014110074,0.0901761362,-2.5297014684,0.4558816546,-0.8431544962,0.3443090689,5.0168553887,6.8403390809,-0.8361559503,2.1740570599,-21.6801574879,3.9656671683,-5.0779210325,4.7171314075,-2.825400027,-1.5286568498,-1.0150599439,-0.5131740078,-4.9671309963,-0.0024707099,-1.4949077649,-7.1816385324,-0.1445574492,-1.3628583824,-0.824243442,-0.4189509927,1.4117039619,2.5359901369,2.501840742,0.2454497922,0.1162908382,-0.0560635411,-21.6643833806,-3.9069647404,-1.1001021863,0.0948409182,1.8011768328,0.4922862215,-0.5256806816,15.1278823658,-0.0901465025,-1.6319722893,0.4710586835,-86.5758110762,0.4751421642,-1.9794767746,3.7286113416,-6.5674331968,0.7895543971,1.7520716224,-0.0421373896,-6.5664564712,-0.5001729545,4.4468896275,-2.2092576893,-4.7646581308,-21.0838769864,-1.7940384959,-17.6339345831,1.680626128,-2.5177918126,-0.9987050118,-0.8774808457,2.6972496967,-2.245986955,0.4163590023,-2.1240470888,0.0777510756,-0.5351243837,-0.1336250593,-0.0356759074,-1.2196185707,1.3695824165,-16.0577308685,0.7375324436,-0.2175289103,-1.7843309526,-0.479103033,0.2811587156,0.3440508943,-0.1641508778,-1.1493182462,1.3306804048,-0.4339288126,-0.0263437133,-0.8158634183,-0.3181065181,-2.2571358988,1.0132690934,-3.1670127851,0.1071538267,-1.8553571075,0.6020562465,0.3168445047,-0.1143031284,-7.0769450316,0.2042207292,-0.7364289252,-0.8187636043,-0.0571913562,-0.1617634051,4.9508034621,-1.0085017009,-2.0220909075,-0.7447484732,0.014264603,-0.6418680476,-0.0488267018,26.6004229556,-1.0393800777,-15.8024128885,-14.2973546593,-42.7018696242,0.290883353,-37.6535239709,1.5557827377,-0.2846518586,-1.6076259494,0.0438014604,0.9843749039,-0.134672369,-0.9766056882,0.6273725257,-0.9297254923,-0.1809610588,-0.6039123019,-0.6932162996,-2.1921025129,-1.198173972,-1.7849014956,-0.9822921396,-0.5848025943,0.2480023494,-1.860049775,2.4330410656,-0.1604370695,1.1286339279,-2.1143768716,0.6842627899,-0.3180080532,1.3076469473,0.2713157883,-0.0191454147,-0.6910696974,2.0503336515,0.3635398021,-0.5603072161,-5.2222845511,0.5717116988,0.4333469107,-0.2865734571,-1.0603729566,1.0260533621,-0.2969496841,16.3526586027,-1.5811313767,-0.7877458903,-6.9970843766,1.0527751255,-0.5092974167,-13.2764295463,-1.3871358438,0.3357398117,-0.361649723,-0.0972437715,-0.0907702951,-0.4755333898,0.2025396523,0.5573324974,-1.9077228559,-2.5914265059,-7.1367095095,0.2100742934,-1.7361158388,-1.4672349008,-1.3357818311,-0.7525143478,-0.4169825527,0.3756013302,0.4435384501,0.1130417231,0.0103105086,-0.623366343,-0.2525730185,-0.8985475216,-0.122400135,-0.1169948666,0.2700464505,0.1024030045,-14.3172180018,0.1367974384,4.1253659414,0.2443361378,-1.4658460887,-0.1707499519,-0.2954463933,-0.5650035164,-0.3600274841,0.2022265614,-1.1964196952,-1.6624436147,0.2846417496,-54.3746884368,0.1126355401,-0.1335782842,-0.6567322624,0.8148246175,0.1872838534,-0.1828272475,212.2517029113,-0.2266558004,-3.1663931342,-0.8808227231,-0.216073726,0.6173918941,-2.1014721899,-1.6597980974,-0.798131992,-0.1570833425,-2.1668020985,-1.0087783501,-1.2815700142,-0.9345337327,-0.0130216513,0.3790232799,-0.442207504,0.4828622041,-0.2900473463,-3.1724188079,0.7843206923,0.0062099181,-0.5643617253,-0.9495152916,0.5685054626,-2.1914787681,-0.166910175,0.146146136,-8.7988242059,-2.1189800112,-0.9649562719,-1.2582845691,-39.6544291321,-1.344746159,0.6462328705,-0.6656152132,-5.9459461881,-0.5578734133,0.2083982247,-4.0044379058,0.6928910154,0.9909146081,-1.8853405922,-0.3526012701,-0.0189844754,0.3708385478,-23.034029884,-0.3592079376,0.8413543327,-4.3493753491,-2.6839334306,-0.20493109,-44.458038399,1.4749522185,0.4457600872,0.1766730343,-1.533202701,-0.7498682021,3.2650695053,0.0153298466,-0.7773774493,-0.9966493004,-0.4483258474,0.5552844313,-0.2533064375,1.9626463489,0.2940147939,35.8978208186,-0.2345697378,0.1163256146,8.3305789856,0.1109930082,0.5169305685,-1.2614542376,0.5322187976,1.0636168657,-0.5972710693,-4.8815037947,0.8950428617,-0.4883110538,-0.7414445512,-0.4870180202,6.5457866789,10.0211371977,3.2467679479,-0.7505378302,-0.0056130185,-0.3882489834,3.7537276321,1.420808614,1.3768429505,-0.2415397593,0.5433471169,-0.1405716171,-8.6324245221,0.861107317,2.2833130025,0.5192184629,0.6063417749,-0.3265957237,-2.4739464656,3.1534951354,3.1254825872,-7.217891802,-0.3255228518,-5.6326755064,5.0005120775,1.9105269195,-0.2699792936,1.2236961298,21.3774782235,3.4048874843,0.3034442275,0.6871943498,-0.2767710197,19.0752419085,7.3787539624,-0.3226017374,0.3508238179,0.3703438434,2.6726037267,9.9041399535,1.1897641637,141.9895720069,1.0630401317,-0.2962771862,12.6294560642,-3.649206414,-0.0880586803,20.096960076,0.279990123,-0.8200330495,-0.9489502665,-2.7905162705,0.6337636325,0.0784739235,0.3865086121,1.1065014345,0.6292434963,0.6576188876,10.1624928377,3.1649998119,0.3651838458,-0.3993797653,0.5433756508,1.7828589008,1.1961960962,-12.6210844231,0.6758187756,-2.1042210175,-12.9018045026,1.0853346605,4.4959657266,20.7970830794,9.0710844426,0.2136809639,-0.5813163658,1.6208984325,-0.7554380661,3.65065305,0.5627221515,1.0222666123,0.1411735363,-0.8257362137,-0.4042452058,-0.3288370378,0.7443604225,0.0624645917,-1.060784125,0.2465260643,16.3530769611,0.1689425558,1.0801934608,-0.2684774504,0.5639742319,-0.931626489,2.8174129172,0.9942529969,-1.5678829703,7.6629201535,0.7577819554,0.1645974247,1.8875645414,-0.1090579642,0.9529188405,-1.1126891151,-0.2288429024,0.6876309869,0.0491263847,4.2849761529,-0.3957863688,0.7580671071,0.8948695435,-0.7978702282,-0.6191304595,-1.0080636594,1.0180935799,-0.0709000631,0.0671923681,0.1897135034,0.1031613589,4.8499615583,-6.7427241505,1.0437576716,-1.7338867766,-1.1959200282,-3.6390439836,-1.9241901226,-1.6452607557,9.9759082838,-0.3545899381,0.1722818935,-2.1558155541,-1.2069920361,0.6390744018,-0.1431606034,0.0589446372,1.0715322393,-0.2915474012,0.4941142739,-0.6273714732,0.9596085618,1.9747915355,0.9119907081,0.2902289481,-0.2350755173,-0.2451927562,1.0029077716,-1.1673483207,0.5354727183,-1.0306763173,-0.0287153289,0.0954083071,-0.2428431407,9.0210329084,0.6633077209,-1.1046093017,-0.2893675225,-0.4713214509,-0.9138818914,0.7432970286,11.4509802608,-2.0495668192,1.7151042754,0.3848013879,0.3319106545,-0.2000875508,0.2917360658,-0.100267454,-0.9347993159,-0.3895419639,0.3234148752,0.1869916775,1.3365572719,5.0124911419,2.1072327989,0.2090031819,0.004343433,1.4853235839,-0.1988718909,7.9948422876,0.6501211572,0.9813919168,1.0497714524,-0.6204500053,-0.5060641253,0.7581639836,2.8111657048,0.7248338757,-1.5320474475,0.9621871667,0.5758673838,0.403946147,0.6291932784,-0.8032752877,2.123303134,0.2231236173,1.9275612916,0.2991677772,0.427665586,1.2342808408,0.346545267,0.7272630068,-0.1564843747,0.9873310883,-3.2965969926,-1.0055736881,-0.2495566681,0.0779484183,1.1961508288,0.9819225777,0.6846328602,-0.9017683157,-0.0207119243,0.6098046151,-0.4928244332,-0.8273577889,0.4165099652,1.2705998868,0.8259638854,-0.5207352432,0.7454643372,0.4686817897,-157.5823803034,0.875352971,-2.4520994693,-2.202087529,-0.699366236,0.5316448286,-0.4064366627,-1.3177416685,-0.173629281,-0.3612426515,-4.9573705333,-0.2584756719,1.1845797452,0.7074882604,-0.1642953853,-0.2280655933,-0.028503235,-0.2733597188,0.1736766686,1.6886664222,-1.758046587,2.9765219083,0.5087860008,0.0069976868,0.4522059926,-0.6963762217,0.5692270123,0.3264762353,-9.4920981307,0.8757413194,1.8394755956,-0.4949442836,23.5846716229,0.3378018741,1.8665442785,1.1913255965,0.2379361291,0.652549735,0.1703515459,3.4137944695,195.1357762218,0.362944524,0.8878520894,-0.3471417175,-0.0564757914,1.1206244575,-1.1408745841,0.1797678114,0.7844012493,12.234951632,-1.0436001989,10.6161343539,-0.3113349485,1.230716584,0.258422401,0.2433869892,0.6271184122,0.1471493483,0.4928965809,0.9484208505,-2.1932406355,0.5964792176,0.2686767537,-1.0246247233,-0.041348878,0.5117988414,0.6070498435,-1.0070456885,-0.5919213536,-0.3073515681,-0.6754569243,-0.7963424778,0.1246042461,1.2228489774,-1.1093417562,-7.1227296283,-0.4005153048,0.3998412427,1.2176132711,1.8330412017,0.2540935609,-0.8185641236,-0.6464671698,-2.0711398402,0.3948309658,-0.9188088768,0.0156277722,-1.4816685256,0.700558789,0.0290151323,-0.4307341858,-0.6734446973,-0.0337960495,-0.0841287466,4.1785308708,0.5310750391,0.6641309188,0.6440921352,-1.0170229716,0.2014316811,-8.1280158044,0.8880809976,0.6293504528,-1.0515499259,0.7589999678,-1.008508005,1.7211183406,-1.4744749516,-0.862070285,-0.9862872891,0.5302513409,-1.8151864304,-0.6562204906,-0.7213256678,-0.5768135228,0.0048884605,0.0266242505,-0.3207121483,-0.8492628248,-0.796162077,-0.3241535626,-0.1020479582,0.2826497257,-2.1195504372,-1.1759627242,0.9257224791,0.8532472832,-0.537910439,-0.9876449652,0.9617246861,-1.1888937743,0.2220215594,-1.2389554893,-2.8830826397,0.3237379346,-0.7845829395,0.0614514654,-1.3198791579,0.2484450998,-0.3272428264,-4.1321701872,0.3291202389,-0.931719682,-2.703988054,0.6045796832,1.9217900064,0.2795833923,-2.0453852231,0.649487677,1.0128519078,-0.7533470231,0.8027020271,2.2805556287,0.8252597617,-1.3323574634,-0.5996050572,0.1933823772,0.6751083994,-0.1078988087,2.2874303661,0.0329937999,0.3727978907,0.0859767658,-0.2848901479,0.62979075,-0.1875267501,-1.5600910398,0.0338873827,-0.7519190736,-2.5949371572,-0.5036326905,-1.7126052603,-0.5367116682,0.785496424,-0.083391624,0.1998733276,-20.7231794154,-0.9061698343,0.1679487333,1.725677768,0.8371328347,-0.6040321093,-3.4779592898,-0.9033027687,-1.3499421613,-1.2554777609,-1.204335571,-0.5119976063,-0.6439851357,0.8365751227,-2.7260831643,-0.8427153738,-0.5612464826,-0.5496042018,-2.1075122869,0.8591671673,-0.0110762266,-0.6565298728,0.5792790982,-1.4200602452,-0.3971548474,-2.1541101758,9.1885926649,1.4414557779,11.4620842102,-19.6680481131,-1.6028480355,-0.2644719717,-17.598977782,-0.0268986692,-2.9224102403,-0.0008872275,-1.2447642188,0.1456380486,-0.3474674886,-0.9234261531,-2.3589930092,-0.0339919069,-0.6352477223,-1.1979626049,0.8349000027,2.6755016096,-2.3285760463,-0.5662177006,1.6546703194,-0.0310717947,0.2593805634,-2.3832299071,-0.093229407,-1.9799390132,-0.3198301769,1.8184611207,0.4069674272,-0.593824772,-5.866863954,-1.3166221885,-0.2512433724,0.1248614584,5.2512834116,0.5783918176,0.498514919,1.4796939544,1.9697883349,-0.2770845461,-1.4680899197,0.1047463979,1.5495281126,-0.752502591,-31.6424476722,-3.6486719808,0.9777813827,-3.7357308026,1.8949183553,0.7600580264,-7.8765253203,-0.6114995408,-0.2341887657,0.1154703296,2.9528772513,1.5081968356,3.2954918174,0.177585811,0.0203461864,-2.3217704076,-0.1812134698,-1.4433624546,-1.1780291518,1.0135683582,-0.7167520861,-3.6234386977,0.7211766847,3.5714840041,-0.5510637604,0.5600193483,1.4749997783,-3.0360946758,16.4182387596,-3.0517389793,1.2959225139,1.7047550741,-3.1766928165,1.7068197541
