encog,BasicNetwork,java,3.4.0,1,1669930257930
[BASIC]
[BASIC:PARAMS]
[BASIC:NETWORK]
beginTraining=0
connectionLimit=0
contextTargetOffset=0,0,0,0
contextTargetSize=0,0,0,0
endTraining=3
hasContext=f
inputCount=784
layerCounts=9,75,101,785
layerFeedCounts=9,75,100,784
layerContextCount=0,0,0,0
layerIndex=0,9,84,185
output=0,0,0,0,0,0,0,0,0,0,0,0,0,0,0,0,0,0,0,0,0,0,0,0,0,0,0,0,0,0,0,0,0,0,0,0,0,0,0,0,0,0,0,0,0,0,0,0,0,0,0,0,0,0,0,0,0,0,0,0,0,0,0,0,0,0,0,0,0,0,0,0,0,0,0,0,0,0,0,0,0,0,0,0,0,0,0,0,0,0,0,0,0,0,0,0,0,0,0,0,0,0,0,0,0,0,0,0,0,0,0,0,0,0,0,0,0,0,0,0,0,0,0,0,0,0,0,0,0,0,0,0,0,0,0,0,0,0,0,0,0,0,0,0,0,0,0,0,0,0,0,0,0,0,0,0,0,0,0,0,0,0,0,0,0,0,0,0,0,0,0,0,0,0,0,0,0,0,0,0,0,0,0,0,1,0,0,0,0,0,0,0,0,0,0,0,0,0,0,0,0,0,0,0,0,0,0,0,0,0,0,0,0,0,0,0,0,0,0,0,0,0,0,0,0,0,0,0,0,0,0,0,0,0,0,0,0,0,0,0,0,0,0,0,0,0,0,0,0,0,0,0,0,0,0,0,0,0,0,0,0,0,0,0,0,0,0,0,0,0,0,0,0,0,0,0,0,0,0,0,0,0,0,0,0,0,0,0,0,0,0,0,0,0,0,0,0,0,0,0,0,0,0,0,0,0,0,0,0,0,0,0,0,0,0,0,0,0,0,0,0,0,0,0,0,0,0,0,0,0,0,0,0,0,0,0,0,0,0,0,0,0,0,0,0,0,0,0,0,0,0,0,0,0,0,0,0,0,0,0,0,0,0,0,0,0,0,0,0,0,0,0,0,0,0,0,0,0,0,0,0,0,0,0,0,0,0,0,0,0,0,0,0,0,0,0,0,0,0,0,0,0,0,0,0,0,0,0,0,0,0,0,0,0,0,0,0,0,0,0,0,0,0,0,0,0,0,0,0,0,0,0,0,0,0,0,0,0,0,0,0,0,0,0,0,0,0,0,0,0,0,0,0,0,0,0,0,0,0,0,0,0,0,0,0,0,0,0,0,0,0,0,0,0,0,0,0,0,0,0,0,0,0,0,0,0,0,0,0,0,0,0,0,0,0,0,0,0,0,0,0,0,0,0,0,0,0,0,0,0,0,0,0,0,0,0,0,0,0,0,0,0,0,0,0,0,0,0,0,0,0,0,0,0,0,0,0,0,0,0,0,0,0,0,0,0,0,0,0,0,0,0,0,0,0,0,0,0,0,0,0,0,0,0,0,0,0,0,0,0,0,0,0,0,0,0,0,0,0,0,0,0,0,0,0,0,0,0,0,0,0,0,0,0,0,0,0,0,0,0,0,0,0,0,0,0,0,0,0,0,0,0,0,0,0,0,0,0,0,0,0,0,0,0,0,0,0,0,0,0,0,0,0,0,0,0,0,0,0,0,0,0,0,0,0,0,0,0,0,0,0,0,0,0,0,0,0,0,0,0,0,0,0,0,0,0,0,0,0,0,0,0,0,0,0,0,0,0,0,0,0,0,0,0,0,0,0,0,0,0,0,0,0,0,0,0,0,0,0,0,0,0,0,0,0,0,0,0,0,0,0,0,0,0,0,0,0,0,0,0,0,0,0,0,0,0,0,0,0,0,0,0,0,0,0,0,0,0,0,0,0,0,0,0,0,0,0,0,0,0,0,0,0,0,0,0,0,0,0,0,0,0,0,0,0,0,0,0,0,0,0,0,0,0,0,0,0,0,0,0,0,0,0,0,0,0,0,0,0,0,0,0,0,0,0,0,0,0,0,0,0,0,0,0,0,0,0,0,0,0,0,0,0,0,0,0,0,0,0,0,0,0,0,0,0,0,0,0,0,0,0,0,0,0,0,0,0,0,0,0,0,0,0,0,0,0,0,0,0,0,0,0,0,0,0,0,0,0,0,0,0,0,0,0,0,0,0,0,0,0,0,0,0,0,0,0,0,0,0,0,0,0,0,0,0,0,0,0,0,0,0,0,0,0,0,0,0,0,0,0,0,0,0,0,0,0,0,0,0,0,0,0,0,0,0,0,0,0,0,0,0,0,0,0,0,0,0,0,0,0,0,0,0,0,0,0,0,0,0,0,0,0,0,0,0,0,0,0,0,0,0,0,0,0,0,0,0,0,0,0,0,0,0,0,0,0,0,0,0,1
outputCount=9
weightIndex=0,675,8250,86750
weights=##0
##double#86750
   0.0204174403,0.8218736304,-0.2712892563,-0.6477529286,-0.6730273718,0.4385063803,-0.4604194549,-0.3033914855,0.5304796943,0.9077026161,0.7187950344,0.8138115691,-0.6313083093,0.5380734641,0.2660087729,-2.3174721441,0.1669603173,-0.7490423515,-0.1349699527,-0.2273290666,0.8957092576,0.6873870864,-0.6024058213,0.5009673072,0.0745455598,-0.7789689844,-0.1383835095,-0.1063840762,0.9314171353,0.5960453997,-0.4714223513,-0.0445856793,0.5049540369,0.2397794347,0.5666591981,0.4138951986,-0.9467224378,-0.4189689107,0.6514139966,0.9145718815,0.7021213015,0.4283318151,-0.5595750071,-0.5256021745,-0.727107747,-0.6163284235,-0.4856122158,-0.2091766637,0.0893228965,0.4221992968,-0.3110051494,-0.4094926833,0.5561890853,0.2336264908,-0.2061055572,0.016044227,-0.7259205858,0.7500592765,-0.0633001538,-0.2288328053,0.8364626094,-0.2445225243,-0.6413296319,-0.8845594354,0.1540220069,0.4993776662,-3.2716348413,-0.7688216467,-0.1263381077,-0.3624057977,0.5316024398,0.3262497643,0.6188157719,-0.8311032368,0.7133817558,-0.5255650442,0.7593776464,0.8106397979,0.191994073,0.5617923364,0.2892077415,-0.1728530452,-0.0817337642,0.3018603742,-0.1038098752,-0.2664757577,-0.4770212617,0.995308251,-0.3295861252,-0.0616580533,0.515980234,-0.299932837,-0.6036208681,-0.9685129278,-0.3241988815,0.6185590353,0.3527575345,0.6308384454,0.1860627401,-0.2899446641,0.0451844764,-0.9533528036,0.5344786445,-0.6458810895,-0.9063620082,0.5694140616,0.2106040958,0.2050124012,-0.2597338187,0.2038152474,0.2530859537,-0.3557147473,-0.893626517,0.1392273546,-0.2854180801,-0.4955662211,0.6496067965,-0.8519522507,-0.1571509114,0.8967515568,0.7831024138,0.5724248705,0.9199656428,0.9060238973,-0.3067089224,-0.8377559779,-0.5100495718,0.5629009544,0.0068386454,-0.0825600981,-0.2334737501,0.9726007959,0.3381238983,0.7139823083,-0.3722996815,-0.5069638986,0.2796841468,-0.2664306082,0.5885158481,0.7672456481,-0.9853482331,-0.9608633042,-0.4588338142,0.4335931256,0.1593061022,0.0491390181,-0.3667853807,-0.5292095525,-0.4981653655,0.6004632579,0.5904149235,1.0150608618,0.4077467697,0.514775878,0.3338169446,-0.6189633493,0.2048941408,-0.7259372544,0.1941499287,-0.5747780735,-0.5110781437,-0.6102322141,0.9330891441,-0.4907549668,-0.4957890465,-0.963957257,0.0355182059,0.8537093945,0.8918727289,-0.4448587301,-0.2684650495,0.8377660062,0.2478911721,-0.7515617341,0.4582252382,0.6898712181,-0.6007508136,-0.7175076937,-0.8064070006,-0.0437378274,-0.3286390035,-0.8689130894,0.7981178752,0.8940320767,-0.5571124192,0.4901062345,-0.0532067665,-0.42405305,-0.782009989,-0.6258674532,0.4494246964,-0.7903008574,-0.5279693979,0.1667492848,0.1959310628,0.9987652028,-0.620417003,-0.19577545,-0.3683865181,-0.4591225953,-0.384841371,0.0772985654,-0.7650437787,0.6727602368,-0.8166659603,-0.3073786835,0.7967527921,-0.9331192798,0.5410752535,0.5505523457,0.6338664856,-0.4664442378,-0.4728501313,-0.4648564309,-0.0836874526,0.2942812724,-0.652255543,-0.82697594,-0.0915812616,0.5522897061,0.8954230551,0.0561977897,-0.402260239,0.5509431195,-0.6740197104,-0.1024387468,0.5492132092,0.7819683394,0.8601169936,-0.5712205094,-0.0794061289,-0.036278993,-0.4486735837,-0.0371189971,-0.1954873023,-0.4020190415,0.1053219079,-0.7388874877,-0.2500761033,0.3253617717,0.6746565432,0.0197960679,0.1027983496,0.7526388265,-0.3305705737,-0.8115706599,-0.4406132635,0.5760645421,-0.4009849808,0.19393743,-0.8187457609,0.8251355655,0.5963000314,-0.1164802729,0.4902252881,0.8172965482,0.8884953747,0.7251709661,-0.2297328657,-0.5111772737,-0.7363644579,-0.5155896385,0.907147133,0.2798704705,2.2787150849,0.6056285183,1.0597151982,-0.8051287532,-0.2838098477,-0.2240524378,1.2255032818,0.4810100002,0.2823076066,0.8212944389,1.1064937171,0.5411335504,0.4105171293,0.2955485646,0.6161881762,0.1052910223,0.6826338386,0.4334323268,0.7982997152,0.2330543708,-0.3615301275,-0.6849229348,0.3157935196,0.479514425,0.9643039328,0.3929195609,-0.8313307346,0.0165820666,-0.3633929296,0.7962992571,0.4112225749,-0.1106571934,0.4203909149,-0.6575558825,-0.4729157458,0.1104599177,-0.5363783087,0.6354001611,-0.9013409937,0.3844077011,0.7606609037,0.1496443621,0.8381773622,-0.1102627346,-0.4239010788,-0.1432931796,-0.9061170839,-0.1938062011,0.6676056129,0.5931335055,0.0128718807,-0.0591337197,0.7582155984,0.829981591,-0.1606370528,0.4450139401,-0.2588647159,0.6191929661,-0.1337047518,-0.6279467364,-0.4694446768,0.0812860733,0.1279749507,0.1709225409,-0.3284098239,-0.9783825969,-0.4483811441,0.7375526316,-0.8317322617,0.8932631763,0.6416193341,-0.6170236334,-0.9432573353,-0.2411012333,-0.171810336,0.1336569952,-0.2883678225,0.6237286763,0.1539120125,0.3343373012,-0.35433482,0.3848060157,0.5799681529,-0.7466994912,0.3943985173,0.6147448548,0.7674017487,-0.1726525533,0.9765903883,-0.7365881885,-0.1191119335,-0.8124517881,0.5813004162,-0.866151865,-0.4872372789,0.6761605552,-0.8458987759,-0.6553818282,-0.9167603704,0.3894356759,0.561493894,0.0368713398,-0.8130221414,0.402479299,0.4701520257,0.6431155164,-0.2029818141,-0.95015294,-0.3220839957,-0.8937689877,-0.8050977776,0.7338772259,-0.7273191557,0.1343997569,0.6506465568,0.4242281543,0.6646318065,0.8647222107,0.8978219189,0.331501286,-0.8629684199,-0.0311813687,-0.6537773169,0.3062885499,0.7756791897,-0.5802926704,0.6885401198,-0.6234833843,0.1593833312,0.5771059259,-0.4292734362,0.4640672626,-0.7659096994,-0.2147292108,0.2628034781,-0.7199067792,0.6418865212,0.438148093,0.4668310799,-0.6262641671,-0.1786691918,-0.9166860742,-0.0456543732,-0.9589841686,-0.4604917708,0.9750739546,-0.462940876,0.5224376673,0.4025335842,0.0015787619,0.5935123884,-0.0022416967,0.4346958236,-0.9065017571,0.9330400392,-0.6377762617,-1.0165630994,-0.571088701,-0.390722867,0.7479550278,-0.9522772085,0.3961826307,-0.8717032497,-0.1290086263,0.8366692886,0.4405818227,0.5728928292,-0.7293756811,0.347559974,-0.1649462708,-0.1256710887,-0.7817140618,-0.606125764,-0.5680731856,-0.7836621741,0.8111579529,0.5987634831,-0.1034021636,0.539984806,0.4243533729,0.0244316459,-0.8582674561,-0.8874840396,-0.8897793796,0.9085925329,-0.9350189588,0.4688490457,0.0374330798,-0.8047174871,-0.8623718807,-0.5703341022,0.4033519809,0.3485654043,0.6473789101,0.7040881558,-0.6393603033,-0.699364542,0.0061480408,0.1111503059,-0.6419811154,0.4941111834,-0.564900162,0.1824209941,0.2137569437,0.7376099513,0.5666437667,-0.0327854023,0.4317792715,0.6125749762,0.2224038823,-0.1910434342,-0.3020961612,0.2124101764,-0.233672317,-0.9913262384,-0.7520172756,0.187406559,0.084667529,-1.0381174178,-0.2462623128,-0.2714578337,0.3660118323,-0.6532363257,0.2082049198,-0.8959661997,-0.6724652567,-0.9419623491,-0.2291005643,-0.1929162195,0.0916942809,0.0929280457,-0.5716959337,0.3466410634,0.7198077265,-0.7121043223,0.1494810028,-0.3078926323,-1.0405312634,0.3498433642,-0.8898524726,-0.2130936207,0.1165422628,0.012144269,-0.3241373236,-0.7780883608,0.4403831722,0.7453143106,0.4408195814,0.1319882061,-0.8571974266,0.1221289111,0.1399664645,-1.0218222905,0.340714568,0.8763353119,-0.6978194141,-0.1846064143,0.6979724698,0.0294454756,-1.0554213721,0.0183901656,-0.9912014096,0.5107473336,-0.1516958616,-0.2658017059,-0.6953404223,0.4720574173,-0.0485923805,-0.3454734347,-0.3332095128,0.6389800904,-0.5352849791,-0.64756364,-0.1411070266,-0.6749564356,-0.3037878758,-0.6863914917,0.0718194829,-1.0830320811,0.0406306822,-0.0818356822,0.3561350622,-0.6313647694,0.2952863114,-0.6406617663,-0.1026729914,-0.5041096268,0.5027689509,-0.6992810094,-0.585834335,0.517948154,0.3831139234,0.2972523057,-1.1388152051,-1.0188856492,-0.7409930011,0.4318938955,0.5397354379,-0.1150714776,0.393283866,-1.0718826272,0.2710353753,0.6099006468,-0.0249338134,0.0413064123,0.2309227687,-0.8734582114,0.1778175639,-0.1942697869,-0.8121591589,-1.1830637725,-0.3161260657,-0.8588614619,-0.7195015893,-0.042300786,0.212767827,-0.7358392433,-0.963156324,-0.8385888573,-1.0662645132,0.5364602798,-0.2302613442,-0.2583869857,0.0874990264,0.4637121135,-0.2124924256,-1.0671702637,-1.0958305271,0.4047318934,-0.7738668622,-0.3019012741,0.3222961684,0.4065558645,0.3525170707,-0.4143371496,0.9857404743,-0.4781282751,0.5980661678,0.1207040713,0.536406856,-0.8387983794,-0.3129258198,0.8204172278,-0.7125386522,-0.293260509,0.5767571795,0.6923784707,0.7398878788,-0.4026695815,0.285916799,-0.4732384225,-0.7079511242,-0.1677667466,0.8887948984,-0.7543257065,0.7943864264,-0.1992913222,0.0442585842,-0.384165231,-0.2584741497,0.6588499103,0.9917215029,0.2132896925,-0.6203315196,0.9031336302,-0.9679597004,0.6426612899,-0.2942461356,-0.8293510752,-0.3956644345,-0.4947619967,-0.2559356187,-0.1087169226,-0.1248313066,-0.7535889019,-0.6717410853,-0.131103148,0.9910508231,-0.204230731,0.0523727199,-0.8602001109,0.9610417485,-0.2865812714,0.088979054,-0.9628851938,-0.4750148966,-0.3345794711,-0.3742491934,0.7156960347,0.5864200021,-0.9195261723,0.9249536585,-0.737404628,-0.8965350532,-0.1595056402,0.6714225,-0.4080244162,0.8921229684,-0.1558561378,-0.5971504041,-0.7220742599,-0.4027281557,0.4517115141,0.509517009,0.3907696992,0.6797815932,-0.8943339637,0.9687531609,0.4539578515,-0.8209828984,-0.5369948228,1.1428694277,0.8743947951,0.5279178077,-0.1042741629,-0.5345422476,-0.3448088436,-0.6042318957,0.0750806956,0.1491985264,0.5049481678,0.1880709263,0.3484186157,-0.0162494973,0.7061840027,-0.1676403718,-0.3459696309,0.0911672601,-0.6169729692,0.3642107454,-0.0784687995,-0.740192811,-0.4744510216,0.7062712092,-3.3350460242,-0.0717645039,0.0915314054,-0.0880256097,0.2977917019,-0.841564842,-0.0908692052,-0.0262461497,-0.356677891,-0.9094370002,-0.9327059026,-0.0515763125,-1.104320576,-0.0144464128,-0.1934267289,-0.1790226712,13.8784831089,0.5709570458,0.8102996083,0.5070970095,-0.4290097925,-0.1826180243,-0.2278150146,0.5342102557,0.7513805597,-0.2498278326,-0.9609214059,-0.1186662552,0.6767890173,-0.7257169315,-0.5586370036,0.7957205595,0.8739326506,1.3433623406,-0.8652363812,-0.9702882446,-0.0530231447,-0.1197144952,1.0578696201,0.8447977282,0.7328288167,0.6323809317,0.2624724194,-0.191802431,0.9465453196,-0.1891058143,0.5489435537,0.1352137952,1.0203348033,-0.5178488194,0.9996292141,-0.3699044997,0.0160220804,0.3507512943,8.2443049512,-0.4011699501,0.7560827969,0.9424044367,0.3663986688,-0.7659156269,0.5037364593,-0.1924264436,-0.8157682809,-0.7414940881,-0.8264236147,-0.0887199074,0.0533913222,-0.2440080542,-0.5945633761,-0.1963478044,0.2836637124,0.5508185809,0.8522759234,0.0009947452,0.9008958647,-0.0498876714,0.7367646499,0.7708249387,-0.6301738502,0.702043823,-0.6297988502,-0.3087147237,-0.6959620465,1.0643792168,-0.4309624806,-0.1649819211,0.5124827541,-1.088110471,0.0508043563,0.6565744386,-0.3215212445,-0.3975536625,0.2320690784,0.5923068087,0.6019290954,0.0574033123,-0.8747625621,0.6409118704,0.9453852926,-6.5818356203,0.026000077,0.0564958606,0.4444717565,0.6380939366,-1.0948518437,0.5012003042,0.0024451904,0.6803064427,0.5113956018,0.8420273175,-0.2083141054,0.2800328688,-0.2397642389,0.5078101796,-0.3114898759,0.7331670025,-0.696086241,-0.0143909856,-0.3178041459,-0.3104403061,0.0696317686,-0.9038881645,-0.331866291,-0.1264256449,0.6284010678,0.551973539,0.4219323276,0.2899447028,-0.8482545843,0.3690708206,0.3270143785,0.870828807,0.2843529646,0.0949644643,-2.3177104088,-0.6675638766,-0.4213838153,0.6215206852,-0.3066672023,0.3814916514,0.0855140566,-0.4872485071,0.6324056275,-1.0617959427,-1.0164794235,-1.7954303665,1.0037832766,-0.1613626782,-1.1007600264,-0.6887628977,-0.5155533594,0.4741618773,-2.0426601559,59.4983848589,0.0468343308,-4.3100301199,-0.2297950423,-0.4789689317,-0.4976267348,0.3627207677,0.7919561848,-0.7821709438,-0.1823851288,0.7532974658,-0.1803883504,0.748927461,-0.257383855,0.8832983123,-0.26386123,-0.9263766477,-0.7842208537,0.8547574878,-0.2315726484,-0.0783262509,-0.3240253641,0.6694089509,-0.138107331,0.2968634762,-0.5520267525,-0.8026243406,-0.3534360566,0.358114207,0.257157587,0.4426216114,-0.8461828889,0.7166297038,-0.5636733362,0.3793344852,-0.1845810483,-0.4128253574,0.3930665801,0.2617170406,3.5737212349,0.4048439958,1.0723657894,-0.5795417437,0.6357261865,-0.5129119397,-0.386892915,0.178625433,-0.8510020665,-0.905527996,-1.7416304943,-0.2375199611,-21.3187499604,-0.2757847509,0.7606173328,0.1567397503,-0.3885935613,-0.6889145768,-0.6138591121,0.525511754,-6.0597064851,-0.187966038,0.0753631218,-0.0412306897,0.2360912602,0.1733727551,0.4036419928,-1.0002725691,0.1809500324,1.0114383281,-1.7012929208,-0.1108694237,-2.1344273108,0.8189786054,0.8342804069,-0.2331457792,0.84043532,0.1817738672,0.8875328139,0.0645144336,0.439055641,0.5943264919,-0.2282914453,-2.3788040852,-1.0535987474,0.6041845573,-0.1509018492,-1.7935299595,0.0659688166,0.8118816601,-0.1916334588,0.0591134716,-0.148840112,0.1737727949,-0.251175244,0.023698439,-0.7047811502,-0.9440137488,-1.5536493044,0.6340648282,1.0507682887,-1.2805914295,1.8644507437,0.8220153844,-13.1674078495,-0.2420816536,-0.4584409573,0.761228209,-0.4365951831,0.4036420324,0.2862837571,-11.9428316399,0.6591216346,-0.2235074366,-0.732463584,0.3848240278,-0.2408340743,-0.8758376067,-0.3517940563,0.3564985969,0.7104760553,1.2239609142,0.4571974982,0.1684730939,3.4570173129,2.3336214497,-0.3960986439,0.7858561525,0.5899756238,-0.2592060694,-0.4412209412,0.4556739298,-0.1982139398,0.6293300736,-1.0198735198,-1.1743050378,0.0968327915,-1.1358472133,-0.411336119,0.0243343691,0.9987106193,-0.1745723349,0.5272518803,0.7618266251,-0.6424904502,0.6687340285,-1.1926158881,-0.6427516411,0.8846829512,-4.4768689688,-0.7558626722,-6.2118073875,-0.633429738,13.5804017754,-0.1418727624,0.6636062319,-0.2323366121,-0.1537192123,-0.0117853329,1.2574737408,-0.1982664109,2.5457600204,0.632736662,-1.6666054146,-0.1120113898,0.6072559559,0.2218109645,-1.1206615323,-0.4506836895,-0.5806630895,-0.1814703046,-0.6398391057,-1.0991835675,1.6615880395,0.5994544257,-0.4462710563,0.2949961085,0.4261681286,0.4728443664,-0.2753412571,-0.0118642329,0.6453295431,-0.1930272466,0.5406735865,2.3348548407,-0.5288991159,-0.1054957951,-0.7773977771,0.4823167706,0.178387826,-0.3486022888,-0.7948821985,-0.096631939,-0.1280659706,-1.1882622578,0.0256806044,1.3708336694,0.1581544922,0.4810433635,0.7902873845,0.7092314569,0.0522849812,0.5727862717,2.1841377502,0.8051105569,0.4255426559,-0.1638397076,-1.5362745124,-0.6613560233,-0.1950377759,-0.6776195849,-0.3413240099,25.6346062196,0.0165492024,-0.8324748286,-0.7453148273,-0.3947436259,0.5633360876,-0.971863454,0.7634754179,-0.7318341247,-0.5919146372,2.1303554049,0.5543145401,1.0132412498,0.2172210188,0.6313428504,-0.8823013665,0.4102365177,0.1658812991,0.2950456343,-0.0006249369,0.8447216551,-0.2385105135,1.1822444251,0.6158622149,-0.1851436817,0.6514997038,0.7934750746,-0.920176472,-0.1807622905,-1.0747997698,0.1322893952,-0.1966749522,0.1743223341,0.0227461258,0.7577084156,0.562664011,-0.293288627,-0.8154261119,-0.8823992268,0.5566322745,-0.4403579001,0.8903681416,7.5987198384,1.4653296356,0.7425144246,1.4966485501,-0.7827119925,0.4539888294,-0.3716765932,0.6100563802,-2.7490110335,0.685171321,-0.1787239162,-0.8607766686,0.7294784659,0.1348358308,-0.2996963005,0.1677688432,0.6700020774,-0.2248479661,0.3950671363,0.3088321855,1.9158839989,0.1252919196,0.6117184525,0.8243559047,0.8112765824,-0.3063750234,0.1583008845,-0.1278505498,-0.3053080952,0.6270870546,0.8645787736,1.6328420969,0.9952378113,-0.4389045983,0.9975530585,-0.2068781018,-0.9038538053,0.3241509909,0.6314610591,0.8355548144,0.9363062365,-0.8686088338,-0.0181096266,-0.5197650111,-0.4589031787,-0.143233487,-0.6758382578,-0.9013222919,-0.4845970462,0.527195357,-25.493280481,-0.8313439297,-0.2006855426,0.7560611303,0.8030203936,0.2249367047,0.8023176352,-0.6573474299,-0.8164848606,1.5570904549,-0.4495941669,-0.1492911866,0.7870611535,0.1459552534,-0.7045755216,0.0088551341,-0.5062510747,-0.2312486242,-0.9811476057,0.8107035674,0.0818944489,-0.9121777552,0.0535186606,0.3449988854,0.4416688844,-0.9011397992,1.25703504,-2.5161542653,0.2065931856,-0.4227468413,-1.5245812897,-0.2732427119,0.9772653109,0.98122463,-0.2031487488,0.2652734627,-1.1093242574,-1.399654192,0.8599855622,-0.4492743835,0.720030536,-1.0396777618,0.6583720918,0.5919346091,-0.3017572073,0.0129232997,-0.835903227,2.474736848,-0.4965640411,2.1655999916,-0.6629250665,-0.4061943657,-0.6500305851,0.2753949704,-0.2314112033,-0.20503234,-0.2562162549,-0.0781786995,0.5208065531,0.2760564715,0.5786333549,40.1296955988,0.4764521557,-0.3295835487,-0.1579840402,1.1986107606,-0.616078033,0.4216588568,-0.2371158528,-0.7501806477,0.9646744207,-2.1189434951,1.4589190493,-0.7377216323,0.3986066463,0.3003054629,-0.5652280467,-0.2629022411,-1.0834581816,0.0231270584,-0.0791861089,-0.8111334478,-2.1207156031,0.3906554513,0.8431338647,-0.9177557026,0.255173531,-0.3774997715,0.7541285798,0.3040855321,-0.5621905492,0.4419647903,0.7044177438,-0.1530904639,-0.5934616144,2.6517005095,0.2890522658,1.031947669,-4.0207765324,1.0927707447,0.6958546814,0.2214048442,0.5959800063,0.9980182769,0.4885326677,3.9379465179,0.7704406764,0.6145636606,2.8281497296,-0.418891795,-1.2308604824,0.0805685043,0.9226135532,0.8786703873,1.1732039183,0.3481553662,0.4454770342,0.8594788066,-0.8625571254,1.0799039887,-1.4055589165,0.4209996114,-0.5906864871,-0.9576702757,1.3100279054,-0.6139555458,0.5651141408,-0.1967903295,-0.3565739141,-0.8499824026,-0.1526021526,1.0495079509,0.1292760123,-0.7998870849,-0.6811326396,-0.4159842494,-0.5218073281,0.4008754352,1.0197680901,2.0901849921,0.8337549461,0.9632787273,-0.4988021377,-0.442636659,-0.257164093,-0.082947027,0.6652093595,1.0777332824,-0.925358088,0.882984643,-13.883926452,0.0035276699,22.8197271954,-5.2820560121,1.0044874121,-0.3258610679,-0.2335031099,0.3747480654,-0.238732295,0.0353788956,-0.0570862508,-0.6000622509,0.7293274518,-0.1093449413,-0.7722797902,0.445380809,0.7453735203,0.9345807763,-0.4494975365,-0.3003290671,0.5932842841,-0.0410297033,2.0106502514,-0.5594772017,-0.2952375887,0.5242567283,1.029975247,-0.4960740018,0.3619636981,0.772715687,-0.0933585309,0.4674976259,0.108837532,1.6058526067,0.1598442066,-0.2063221518,-0.7706993868,0.1623776906,1.059098466,0.7782734139,0.76684319,0.5565386642,0.5159594958,0.7340959295,0.7371354718,-0.0804678964,0.794467718,1.1706314014,-0.7120347885,0.1117652292,0.0192231704,0.9115911188,-20.4731086356,1.1005723611,2.6289682814,0.8048625251,0.5842589658,0.6450803628,-0.5553936473,1.0389859733,0.8043260113,4.3925158423,0.0452635813,-0.464967175,-0.0896975314,-0.1208021044,0.5011604544,0.9443369672,-0.138767052,0.737232322,0.9204209006,-1.6415675219,0.453252675,-0.3173443662,-1.0503222982,-0.4927797867,0.0885640777,0.6275272562,-0.7282225175,-0.3862351963,0.1119227935,-0.7727278739,3.2214987396,0.9126273568,-0.25674959,0.8707606891,-0.8586510055,-0.4972021684,0.3625497518,-2.2939959865,-1.1352746014,0.4782546256,-1.0218277462,0.3843134062,-1.01058698,0.6656811255,0.1986306437,-0.430883244,-1.1778896297,1.6015130475,0.659533993,1.1667567104,-0.2800791413,-0.6150706773,0.1893227186,0.2745545318,-0.7535164165,-0.7730617668,0.3830390455,0.1618246562,0.5388368058,-0.1921960778,0.4082391997,-0.1188996262,0.3198076004,-0.9058463419,0.2099352736,2.2424451225,-0.5980610768,-0.5104057197,-0.1192383371,0.3873900627,0.1254003917,1.1331850692,0.0834465071,0.1657910382,-0.1992882872,-1.5356120105,0.5961900351,-0.1741327148,0.7968270819,-0.2178996939,-0.1893219636,0.8578308483,1.4301128552,-0.3453045359,-0.605211889,-2.360791531,-0.859519139,-0.5297162967,0.3911350942,-0.6724126682,0.100141985,0.8708238039,0.073339317,-0.083137179,-0.3884919334,0.9473702986,0.4727016782,-0.0504537023,-0.9426544696,-0.6826130526,0.1413672794,-17.5382656143,-0.0535272075,2.6227334438,0.4189849932,0.2803786079,0.235231213,-0.1040841662,-0.1439286296,0.1903337471,0.1007108913,0.6643557435,0.1729539577,-0.6064887471,0.0401181709,0.1234928273,-0.1520134694,-0.4925010369,-0.4207913769,-0.1107591925,0.3630359345,-0.2648810331,-0.6099693865,2.2403044169,-0.5447519066,-1.7541599263,-0.531672256,0.4434373328,-0.5469152544,1.0067727874,1.1959422106,-0.5631264426,-1.9769519963,0.1945704775,2.2230656628,0.9924193028,0.076064586,4.293114001,-0.6028621765,-0.2212308035,0.159153538,0.7808865028,-0.1503372841,0.7633432338,0.0288243805,-0.4432947901,0.6739241831,-0.9981435313,0.6258830094,-0.0998341843,-0.3586525236,0.3150846404,-20.7206433355,2.5485200298,-0.3782879719,-0.617973075,0.5200341955,-0.4319778757,-0.7434770282,-0.5848601462,0.1228049851,-0.2178967316,30.0051775732,0.8995388852,-0.6511062973,-1.1252525344,184.3880818377,2.1874936687,1.1582468135,-0.5681714318,0.5430131008,0.0323385775,-1.5598551418,-0.0430785737,0.4452353381,-0.4333164304,-0.4946343816,1.4015795431,-0.6281320952,-3.0766642672,-0.0029308015,-0.2020701729,0.8604839671,-1.8483667569,-0.4991282137,0.7732452483,-0.3640976576,-2.4952396695,0.5809265597,0.339143652,1.1965129432,-0.4355065557,-0.5929644748,-0.4102003177,-0.7071301877,0.1280923855,-0.1582654931,-0.2755291722,1.5196371668,0.9306085217,-0.0244985215,-1.015304751,-1.4281453284,0.2765014347,14.7545393723,-0.2448492125,74.1067902675,1.1359236325,-0.0143449567,0.0486898408,0.5688597759,-5.1681906828,-0.6216107882,1.0932282901,-0.7069338586,0.6442568105,-0.5223722759,-0.1550511631,-13.5578572872,1.2134283499,0.7261737052,0.7600435292,-0.4721859826,0.3991050737,1.3759190569,0.8941837445,-0.0608929836,0.368024621,-0.4145873398,-0.0382610263,0.2526690147,-0.3158083199,1.4813744944,-0.2335478605,0.2179893643,0.716073143,0.2722373912,0.4734597457,1.0592078269,0.3698972319,-0.3430939195,0.3750163882,-0.4203147667,0.8649305771,1.1018274364,-0.1016178066,1.1928337347,0.7002619581,0.3620081489,0.4317107287,-0.8490877498,3.2986909244,0.2121070658,-1.7856927482,-2.3495817143,0.8881194896,-0.3965147806,0.6503702006,-1.0208550139,1.0032120489,0.0370856646,1.6895033785,0.4647706081,-0.4109715993,-0.5273944707,-0.5899182158,2.2696588316,-0.8208327496,-0.4903515147,0.0757906728,2.1602247561,-0.0716977692,0.9255174353,-4.194041443,-0.5401733031,0.3468228036,1.0125007484,0.9220013251,-0.626362979,0.3840930351,0.0058780432,1.3208592225,0.2596552043,0.907353382,-0.7131540442,0.0244872093,0.2101009134,1.4612827064,0.1000177518,0.3288741009,0.2255474676,-0.8281907534,0.126448978,6.7401477223,1.6182742,-0.665736637,-1.1288931692,-0.6232519603,0.1693890252,-1.6416139798,-1.624304432,-0.8961299365,-0.7520952907,0.0021958267,0.6180218697,-33.1646019736,0.6722549065,-0.6902175004,-0.9572002512,0.7695569639,-0.1363274815,0.0322297433,-26.7914862449,-0.1766698095,-1.5255348617,1.0121693751,-0.9748100481,-0.3046812894,-0.5482853707,-3.04252366,0.3652998953,0.3821263326,-0.0747024073,0.0945564716,0.0376460233,1.3805719883,0.4499269349,0.2773355656,-0.100938573,-0.2048880873,-0.9044499675,0.6435592463,0.225447105,0.4562551664,-2.0459638627,0.4618563732,-2.3941857431,-0.56992285,0.6310780326,-0.8425939176,0.4704758017,-0.7535967592,-1.9909001229,-0.6559875026,-0.9675235883,-0.6358388411,-0.7621381343,-0.3283650905,0.7139747992,0.3627673267,0.8325476341,-0.6039696547,7.4282764692,-0.0763732245,-2.6194182909,5.7876804289,-0.559188731,0.6939422884,0.4672265642,-0.2485150814,-0.311382369,-0.7290471038,1.3575146544,-0.8535348135,-6.2786943047,-0.4731159786,-0.2636247743,0.3781779228,-0.0649109305,0.8360706224,0.7711498532,0.7159782309,-0.3059829304,0.4394281162,1.4728019363,0.4946849975,0.0396748672,-0.097077656,0.2489159215,-0.7898811952,-0.3507118315,0.746486434,0.7434410192,-1.0415552631,-0.7272355352,1.0397512763,0.2763046685,0.3166447982,-0.824746043,1.3100037865,-0.2606823847,-0.8874857166,0.2049107856,-0.1940126304,-0.6549963417,-0.5766995915,0.862575119,0.7736825054,-0.3081913498,-0.8386872887,-1.1386823478,-1.5462514191,0.665672857,0.6862563351,-27.3617331121,-0.9547872963,-0.2301495511,-0.7546573938,-1.890725399,0.4160410789,0.4473487601,-1.106066515,0.9968512158,1.1065026509,0.1965951733,0.4146681604,0.1317932122,-0.1338669693,-0.6104969376,-0.0697919682,-1.9792598024,-0.5395155289,-0.8036004558,-0.1315763615,0.3943891516,0.9284667468,1.3317727548,0.8874035505,0.9883086902,0.8745414157,-0.5565249612,1.661400565,-0.0010433414,0.0945686878,0.6570709662,-3.499453229,-0.3952915463,-0.9544150052,-0.9171751699,-0.4254015069,0.7733259646,0.7720414261,-0.5972326725,-0.4694313474,0.6113900751,0.1996936555,-0.4914378073,0.6818873124,0.1756961991,-0.0431131173,-1.2035298007,-0.1379254685,0.1459626852,21.302695594,1.3799769489,0.5866528285,5.4407149646,-0.5218580996,-1.5836939408,-1.0921341856,0.4345555026,0.9109538653,-0.491793904,0.7805940076,-1.0401554287,0.5302907332,0.3741435024,-0.9638367761,-0.8660980263,0.6121230802,-0.0045906849,-0.2299025242,0.9504676993,-0.3520145666,-0.7137608129,0.5082912291,-1.1032344423,0.2222190688,-0.3287197745,0.2847284354,-3.1710710144,0.7983953037,-0.1293935174,1.2090076754,-0.2264503045,-1.1023225486,-0.8554523257,0.7513698044,0.3611578028,-0.7850501609,-0.7755525373,0.9887699112,0.0070804598,0.4722279752,-0.7706640622,0.2405972321,0.248971794,-0.3746675629,1.1467301442,-0.0841404951,-1.257007595,-0.3278097426,-2.2027939791,0.6402347504,-4.0066521218,-13.0990660113,-1.1287819437,-0.217859162,-0.3824540095,-2.4954332438,-0.8010449075,0.2971703154,-0.6265581465,0.2545754326,-0.6069716181,-0.8340134394,-0.8412760663,0.5061424685,-0.7498586775,-0.7512069333,-0.4906584039,-2.2975989086,-0.3171408583,0.4146329716,-0.9499046422,0.9120184792,-1.182935476,0.4591333564,-0.3092567739,-0.6253315687,-0.6486210609,-0.4781823714,1.5891781764,0.8822680844,0.1677172885,-0.8331357745,1.3341374414,0.442407827,-0.0915946306,0.5025053443,-0.6696667318,0.9643852473,-0.6307732192,-0.4247916203,0.6189986374,-0.8014513287,0.2261137648,0.829930746,0.4951373831,-0.1236116641,-0.3996169652,0.6382928639,-0.1269042597,-0.2705799716,-7.3393682094,-0.5192188426,9.3535370295,-3.3542359814,0.3367092185,8.5372692616,1.1177749399,-0.0091629932,-0.698337942,0.9658084946,-2.9153597614,-0.2207287859,2.2491286035,-0.2795967481,0.5043509472,0.02029493,0.5067678185,0.9819641941,0.3045361605,0.8595616522,0.1513619336,-0.4920552897,2.2542370964,0.005479755,-0.7478521107,0.7766794304,0.4342185896,1.1148200031,0.693844385,-1.103996786,0.4112855575,0.5645397395,-0.4117527524,0.8590735585,-0.4340108785,0.7394558643,0.3010873714,1.8549919822,-0.2661714272,-0.6486385959,0.4970805799,2.181317097,0.4763249973,-0.5437686157,0.4134571174,0.4836569012,4.7913867301,0.7127298868,-3.7062807848,-0.2021608688,-0.5774839018,0.9753446935,-25.1869893994,-0.0707043991,0.9689048147,0.4741851113,-0.1789196245,0.5397066509,-0.0941999243,0.2735525953,0.4622852685,4.1899272054,0.1345354488,-0.0392529332,-0.5092600453,0.7463281568,0.9164775734,-0.2365641929,3.1633669744,0.4168073547,0.0556991864,0.7823395235,0.0148251513,0.2892016602,0.8230374957,1.0973562118,0.9836796133,-0.2113340451,-0.5104876305,-0.904117513,-0.75452629,-0.8866360231,0.9184831846,0.0795123601,-0.2574188499,0.3522276135,-0.917406388,-0.6697262903,-0.4351182463,-0.521604321,0.0727110989,-0.715140133,-0.7517960002,-0.725776199,0.0630792685,0.1176833618,0.5374251832,-0.649964209,-0.715537043,-0.2593751619,0.5653046073,0.73922299,-0.4964382368,6.7732985018,0.6356478894,-0.7845198751,0.6487646944,-0.1980114103,-0.8832860024,0.2950799085,0.1072732439,3.4738297415,0.3020284263,-0.9184308232,0.3930208413,-0.4274933434,-0.2975869526,0.5133834769,-0.986260578,0.8284741607,2.0665689951,0.91173986,0.9212006191,0.8357477573,0.1857411393,-0.7872613136,-0.020370451,0.2364789877,-1.8273264719,-0.2293333888,0.6081501268,0.4298815481,0.3987103702,0.0984551315,0.8978533025,-0.5550132083,-0.5558635538,-0.2301279175
   0.3374772255,-0.059506097,-0.51074203,-0.6286627163,0.8712385614,0.6902904128,0.827057999,0.3351960392,-1.0397381209,-0.0962122949,0.0423284785,-0.2103213764,-0.6731887254,0.9535001076,0.7787628267,-62.2352101018,-0.8626609319,-1.069826913,-0.6344847388,-0.8685580184,-0.7215731079,0.4966404761,-0.9399982566,-0.0850468562,61.9550966687,0.861526996,0.4106451904,0.2901864676,-0.1340257279,0.3375446722,0.3929854829,-0.7642874297,0.3878586955,0.7998774032,0.4645946852,-0.0986357823,-0.9311052663,-0.1250648777,-0.8187549718,-0.020446264,0.3963056731,0.6045241375,1.3120835054,0.7174641968,0.6488663748,0.8007483652,-0.4695297576,0.6973216801,-0.6403039223,0.8647347859,-0.6625185738,-0.5159062609,-0.771779801,-0.6757184856,-0.9191092311,-0.5468419646,-0.8890039184,0.5889810008,-0.4948602324,-0.3044597702,0.9232801825,-0.2521143443,-1.8592932091,0.1147926326,39.5253673967,-0.7450658922,-2.8282025742,7.4558731661,-0.8648237089,-1.02831422,-0.3741906568,-0.7344841644,-0.5552498479,0.3145830108,2.3279444442,-0.1238822264,1.0588159165,0.8597441577,0.0870761192,0.3968908538,0.3485439205,-0.1654556462,-0.7171528599,0.4201237577,-0.667618124,0.1537166846,-1.4361824447,0.8055844561,-0.8477601837,0.4824339154,-0.4359601488,1.4369398721,-0.4248231243,0.1861584292,1.2003876767,-0.3428283035,0.0712014567,-1.1787688161,-0.6435970358,1.0061476089,-1.1110046018,0.047022506,-0.0955859989,0.8302354477,-0.3484258687,-0.0373072838,-0.9190557371,-0.3876201657,0.1384179582,0.2524134156,-0.6822472662,-0.467155695,-0.6010023985,0.6612461304,0.531971784,-0.4998605948,-1.2416746372,-0.2602313256,-0.1321856186,-0.1104769243,0.5849880761,-1.2650386069,-1.1276559425,0.4525518248,-0.6244572321,-4.9578826222,0.4542748548,-0.8492665475,-0.5865616177,0.6285241447,-0.2930610644,0.491045302,0.1425675488,0.741729239,-0.8629622663,-1.2201547676,0.6335120568,0.142351892,-0.5491386649,1.0007880943,0.7108286939,0.4432336222,-0.959095715,-0.6822088089,-0.2157271959,-0.4370935205,-0.3109781653,-0.8521531078,-0.9598310102,-0.4706600558,-0.271308658,0.4295537813,0.3197301597,-0.4230221988,0.7661171249,-0.5738603872,-0.8549077499,-0.8299914445,0.4730180198,-0.7770360086,0.308407645,2.3372853798,-0.5661821826,-0.2471307357,-1.0498178827,0.600123626,-1.0260149177,0.8714907878,-0.0268349402,0.7681331555,0.6103897506,-0.6919335426,0.6282001274,-1.0638298446,-0.2009200613,-0.0086431573,-0.3836651652,-3.429413449,-0.8586961391,-0.5605140087,-0.5786378254,0.4890724587,-0.9243825832,-0.2917844068,-0.9383528117,-1.1816157804,0.3792465524,-0.6607046805,0.7637168485,-0.6742873472,0.6250645452,-0.2866912221,0.7086279253,-0.7082056958,0.3016176763,0.3220318845,-0.0799851731,-0.5591524895,0.6841661369,0.5151975842,-0.4635802178,-0.6251729369,0.8476456332,-0.8374756008,-0.3215973342,-1.2733489358,-0.9761301484,-0.7354687549,0.1861382153,-0.9700398051,-0.3599909255,-0.2816006794,-0.3588523883,0.1533923242,0.2551133973,0.3573563624,-0.4235275218,-3.8461517007,-0.6933920247,-0.105903458,-0.1844018588,-0.33094624,0.1352080617,-0.0470312742,0.0677977801,0.1487050284,0.006340317,0.9671878971,3.96971714,-0.7006787052,-0.7875262588,-0.5504298226,0.1841053275,-1.0446643074,0.2530302261,0.0978513557,0.4859096627,0.2415233277,0.3099566276,0.0224334668,0.2958395901,-0.6061734465,-0.1788484998,-0.145797988,0.1979319311,-0.060593452,-0.6929095669,0.2944391428,26.5806110064,3.2495592169,-0.6693310513,-0.1338453906,0.4439974283,0.3228258964,-0.5031485291,0.7146620279,10.6230687859,3.1340765508,-0.3101642671,0.8134962187,-0.0197385712,0.0561004219,0.6263155556,2.1144576439,-10.1211827562,0.853260198,64.5429586868,-0.6023851448,64.5978331552,0.5412355217,-0.0865896189,0.3946740393,0.7537080221,0.2565464164,0.5932389618,0.3050868605,-0.6655829842,1.1317665554,-1.182847249,-0.6144963343,-0.3686685016,1.2300007341,-0.247623471,0.3563111283,-0.2761382544,-0.4802127202,-0.0337477445,-0.1257461515,2.1865338704,-0.5372902512,-0.445330682,-0.2237343312,-0.0579701351,-0.4343014124,-0.4848177576,-3.8990551266,1.0551330603,0.0092357395,0.3116577306,2.3878230096,-0.5484534,-0.3390018408,63.6322060739,0.5014917684,1.5935922609,0.925150587,0.899950567,0.5693046769,-0.0890220499,0.628499501,0.2744141852,-1.0111791329,0.086642898,1.1244350414,1.3402055208,-0.6966058667,-0.4204323472,-0.424912516,-23.9065113339,0.3212957858,0.4457666583,-0.4903680248,0.932581469,-0.6203263393,0.7944922346,0.0619878992,-0.6708288775,1.1693522904,5.2301056979,-0.8002010116,-0.4987901388,-0.815731283,0.9906161054,-0.2368188383,-0.2199460518,0.9322617542,0.0048302121,-1.2906607664,3.3179952687,-0.4920431593,-7.5410897211,-4.1645041194,-0.6925764942,-0.0573860289,0.55730573,0.7072262219,0.2319845314,-0.3647316054,-0.4405966869,-0.2617156427,0.2041762052,0.1271124758,0.0383226468,0.7451666544,-0.7948772911,-0.3137590469,0.133284696,0.1013097803,-0.5900398087,-0.3809123482,-0.3767569351,0.9297720308,0.5078598767,0.0004654062,-0.8796569904,-0.7827113137,-0.6871645203,0.3178624365,0.9329085361,7.6123787595,0.1513096965,0.1315673116,-0.2325190972,0.5795487663,-0.623382515,0.6785381026,-0.2385043665,-1.1455875602,-0.1508894468,0.0158293475,0.7516979062,-0.0143066882,0.7331102135,-0.2141140016,-0.0393504652,-0.4825882509,0.6614643846,-0.4094088287,-0.8563069732,0.1742039086,0.7557736308,-0.0320298181,0.4716587247,-0.2758925593,-0.0246405402,0.7167711665,0.0204962588,0.9003183471,-1.0440313816,0.4447992432,20.4237140091,0.565224281,-0.4279152333,-0.1168971773,-0.953275967,0.6422548332,0.2289554513,-0.434816733,-0.665478425,0.446235331,0.6594469795,0.1117320502,-0.6892607251,-0.5814178148,-0.3171144303,-0.7044714686,0.0948358506,-0.0585055193,0.1127764377,-71.5336653534,0.0230659755,0.2728233735,-0.0077587853,0.1486614103,0.0596202718,-0.6664255378,0.3292708933,0.8982370431,11.1325409779,0.5774291784,-0.2783885675,-0.0622995018,0.3667711139,0.8799449264,-0.7185992992,-0.5262786001,-0.8123619425,-0.8955168969,0.0075198241,0.8655803825,-0.0952183419,-0.1083835083,-0.5103242259,-0.1401024087,-0.4143829568,1.0419139388,0.0463433313,-0.1953158185,0.2290855499,-0.1637924904,-0.2777407507,0.3496437924,8.3403398817,0.7669964212,-0.8443089845,2.1478778432,0.2240519995,-0.7435969467,-0.0854914524,-0.0393079116,0.0185435615,-0.5634947224,-0.2090264112,-0.0502777549,0.5816126345,-0.3155252466,16.9023233735,0.1805647364,-62.6842908539,0.9083264039,0.068267048,-2.8846823254,0.1966938069,0.7554776205,0.9101307879,0.7844440264,2.611250918,-0.2141485033,-1.2970206308,0.9252454009,0.4829850914,-0.1184078414,-0.1509716073,-0.9018673894,63.8614682662,0.6260456346,0.6495527841,-0.9780883406,1.097882674,-0.0796479415,-0.8669104179,0.0637024267,-0.0955181413,1.0200105568,-0.1023873451,-0.4408246186,0.1324287573,0.7091876305,-0.3598922279,-0.3199378719,-0.7976845765,0.8167997723,-0.6038552913,0.4023865515,-0.8846680358,0.3824700189,0.0073633765,1.0325382133,-0.8225202845,1.2787287289,-0.403040479,-2.4941455586,-0.3231247281,0.5400797894,2.0456257622,-0.4860186989,1.5700755353,6.7111018188,0.3921143013,-1.1681320779,42.144552533,0.2510211531,0.5304077598,-0.1325765523,0.3727416166,-1.0636395106,0.5731191907,-0.246559706,0.0098897296,-2.7470427159,-0.6492366901,0.1765207921,0.327127615,-0.929917656,-0.0737500476,-0.9315079467,-0.6399898856,-0.4631107412,-0.286148061,3.5614068203,-0.2485823397,-0.0262503897,-5.7240062598,-7.1291722934,0.4280631719,-0.5477059475,-2.1534568477,0.1476888485,0.4182741885,0.7131242197,-0.2890120543,0.8318540598,-0.6331878845,0.3709071427,0.1587664165,0.6279601581,0.8380109958,10.8081033019,0.8698593884,-0.2900380053,0.6202381162,0.4213638658,-0.1620105053,0.2980840614,0.5455911097,0.0775289737,0.5562193519,-0.4631446247,0.5906066405,21.1451208685,0.1831352898,-0.1150398416,-0.2821408696,-0.1653867622,0.7880392731,-0.2428688229,0.3926817696,0.2907404995,0.7216894068,0.9324049051,1.0286649676,7.4518319722,0.165320816,-0.9245849285,-0.6373864103,-2.5707996124,0.1843413355,0.3660117098,-0.4566313258,1.1224150318,-0.8902418591,1.2983450305,0.2105644692,-0.4628645864,-0.3879640105,-0.6225208971,-0.9180801033,-0.3309507571,0.0095682152,0.176647476,0.9927106114,-0.1640091136,0.0424656404,0.6497783013,-0.7584592707,2.4562882716,0.5060829893,0.8599111247,0.5801161168,0.9863495233,0.7386627124,-0.3473667955,0.3361250502,0.5588066653,-0.1969794958,-0.1942828162,-0.3176865271,0.3157119423,0.1516792856,0.2769590053,-1.7013637918,-11.0180507536,-0.2342475091,6.4042963387,0.7455999709,0.9545184332,-0.8244173821,0.9732834951,4.0688092351,0.630046866,0.739718634,-0.0695804908,1.0149037147,-0.8053923106,-0.4367718065,0.607361948,-0.5119943274,0.5674193489,0.3262728593,-0.4814237321,-0.0580978755,0.4970188454,-0.3619594348,0.321841081,-0.8758625408,0.1504555627,0.3345600086,0.5158152238,-0.2953853928,1.0508955292,0.8903003453,-0.4029973406,-4.8976581316,-0.2135650644,1.0397181129,0.7567457695,0.4616882871,0.5762392695,-2.6589147245,-0.1247965931,-0.1737748111,0.3271079002,0.9859094904,0.432574223,0.0128454097,1.9686818239,-0.1418702452,0.0037596312,1.0333822399,0.7254231079,10.7756221895,0.303384998,-1.0282717402,0.27493248,0.7186443208,0.0510555801,-0.2682687815,0.2788951526,-4.4445686841,0.6453999743,1.0889566102,1.033944449,8.5938446011,0.6170900084,-0.5378981712,-2.4344704991,-0.6467190131,-0.642966587,0.2125656897,1.9206465103,-1.0568427197,0.7598885005,1.1909639777,3.8170987477,-0.6443921438,-0.0699905915,-0.4018986016,0.5425258895,0.9492471381,-1.2891931841,-0.1955092998,-0.7166828791,0.5508957976,0.3603678529,-0.9236340188,-0.3447759092,-0.1736674253,2.5952763233,-0.4599498393,0.6126488634,1.0222365072,1.1763794177,0.1900188468,-15.5255453309,1.2124618147,-0.012031602,18.6951275776,0.1693525721,1.003267349,0.3315778968,-0.1292547188,-4.70781914,-0.4200360618,-0.1923634002,-0.1872344052,0.0171024757,0.3677419762,-0.0774555108,0.5070384358,-0.3082040379,-0.4348305285,-0.0451279961,-0.12039143,-0.4307252641,0.8210362675,-0.1574477488,0.6552995687,0.2150652547,-0.4866516701,-0.4291949674,-0.6396247162,-0.7457676114,-1.360141387,-0.4734925763,2.2756644361,5.0843922363,0.031333216,0.3162015141,-0.2246145109,5.1253511448,0.0158547336,0.2569888145,0.9070364229,1.2346400522,-0.4895353623,0.2721522559,-0.666780474,0.3976765825,0.3346605233,0.0888094864,0.4012776429,-0.385404491,0.2712832556,0.7480840878,0.53654131,0.3639265093,-0.340991455,0.3145521059,-0.5979999412,-0.7919037489,0.4956793242,3.3585041783,0.0852389127,1.3179577731,0.0202234317,0.5056583433,1.5791664312,0.8379227081,0.957484922,0.3128709183,0.710487185,-0.4326707053,-0.1165451492,1.7264545819,-0.2611616228,0.4487172853,-0.2770161124,0.0619141519,0.7920827683,0.1510507099,0.9730255546,3.4703292733,-1.066787158,0.7311439051,-0.1050345927,0.4712402938,1.3851877996,-0.202891392,0.6775495108,-0.4370619031,0.4250305488,0.7009127906,0.6097009811,0.2324065561,0.7475656895,0.7329775598,-0.1063302123,0.7630399957,0.790517367,-0.3436644383,0.1578673664,7.5167333106,1.883626787,-0.6792307855,0.2843521697,-0.5741912779,0.400301598,0.1772624718,1.5816032584,0.0078411012,-0.2750536191,0.8054391688,0.7052926967,-0.624398573,-0.6778148287,-0.5200644421,-0.2197477835,0.7631244873,0.5030115353,-0.0507915357,-0.1493130043,0.6824567829,-0.4383575273,0.5177176496,-0.7175134759,0.7856295832,-0.0422982101,-0.1405621866,0.5827000421,0.516060922,0.6541771623,-0.2122479102,-1.2858450792,0.7754893174,0.8402051849,-0.3467175971,-0.1997729853,-0.5894236513,0.9028678166,0.3354064302,0.7195099879,0.1507985693,0.2088752364,0.1261168009,-0.7616900155,-0.6107773033,0.0849117371,0.7913875035,-0.9063141142,-0.1424650065,-0.9404670063,0.1220145789,-0.720774607,0.6761733849,-0.5441176023,-0.1114879199,-0.529916584,-0.4643016951,-0.2703510201,0.0445794935,-0.9269948082,0.4326305345,-5.416498388,-0.4494315284,-0.5444031699,0.4120070677,-0.7538091948,0.3155223279,0.5823533792,-0.625549208,0.6004066148,0.1160569961,-2.5180161273,-0.5287968426,6.0932289468,-0.2899690109,-0.4088620185,2.7781622621,0.3939240633,0.1180424091,0.4973459202,-2.0714659393,0.8661227717,0.0165486496,-5.9670768161,-0.9383659005,0.4633663983,-0.1052201745,0.3727843515,0.0832745309,-1.4383602336,-0.1091541146,-62.7848012486,-0.7351136846,-0.7011726645,-10.120259989,-0.1768643756,-0.1101127158,0.3674990169,-0.7222111696,0.2319295983,0.303806204,0.075998612,-0.9731260453,-0.1893501524,-7.5357321154,-23.9675922746,-0.056684645,-0.3814711371,-0.2427880171,-0.3234665493,1.0857946657,-0.7045548086,0.0178286069,21.1271430483,-0.7125233115,-0.1189950121,-0.4092284795,-0.7001504327,0.7366642612,-0.101016008,-0.0174019839,0.6260960601,-99.2172902639,-0.8021473779,0.5815880163,-1.0496948829,0.3353842712,-0.8268577906,-0.4535631288,0.6932004433,0.674154461,-0.8642766235,1.7481903623,-0.8037681611,-0.8490840134,-0.2524901561,0.8960478085,0.9262562998,0.8236342722,0.8333030804,4.045062132,-0.546345875,0.5871477315,-0.7457464462,-0.5597937272,1.8887686844,-0.3266821584,0.5872983337,-0.9801183163,0.6785064692,0.8795196982,0.5508852682,0.9733961651,0.6415111783,0.03828754,0.8105311804,0.7764424403,-0.4918607454,-0.1220444017,0.3703687725,-0.7322557756,-0.9819464198,7.4997582711,0.1605582549,-0.5651505408,23.3911004063,0.6125394128,-0.9212265224,0.1004803694,0.5247526318,-0.3506138118,0.8614160761,1.7304695398,-0.4676959573,-0.3984135129,-0.8266155592,-0.5338427178,-0.3041567937,-0.5581376551,0.8906005846,-0.0941347254,0.3647861245,-0.0730176097,-0.9554410547,-0.0410858158,0.4803168749,0.496215259,-0.0931824746,-0.9161363077,0.1828935436,-0.7823316822,-1.5381181956,-0.4202750366,-0.9859373456,-0.0550445408,-1.0534163662,0.9472783956,-0.6309264519,0.1501366444,-0.0768529529,-0.1083642909,0.8629516616,0.3787735169,-0.1061273413,0.538262025,0.3833660241,1.0671520291,0.5310437118,0.9233703552,0.0860802726,0.2874531051,-0.7453062211,0.5812706216,0.1078357481,-1.0547611302,0.6692317198,-0.3470953857,-0.8048679406,-0.1391476148,1.091042994,-0.7058134577,-0.3350999242,0.4768653992,0.5824058656,0.7574123889,-0.5511129925,0.4421235034,0.5100860833,0.6420200532,0.9641770629,0.3707246973,-0.6449101585,-0.016608603,-1.0811650813,0.8985339907,0.1881474353,-0.0000163198,-0.3287513933,0.1217583126,-0.356357321,-0.3034839241,1.8980391611,-0.5765748687,0.4275813077,3.7377875631,0.2921991279,0.281376209,0.6028078934,-0.8404037511,1.0166549864,0.9237098873,1.2913473457,2.0731821983,-1.0895229605,-0.0686049285,-0.4382244976,0.8609109949,-0.2181525425,0.3659271045,-0.7263797102,-0.077189586,-0.576703401,-0.6378376682,8.2556813092,-0.391286616,-3.2388711788,-0.189133696,0.5807598055,-1.8472200673,-0.2024026574,-0.2775373362,0.6382623664,-0.2926221158,-1.1402097363,-0.8921056976,1.1582927168,-0.1837785626,-0.1948671383,-0.32821921,-0.2446732711,-0.6716379242,-0.8407955582,-1.6568121874,-0.4866574618,0.0372229473,0.1231047544,0.435251011,-0.9055926196,-0.826580742,-0.9230715738,-0.3539577509,-0.4765126596,-0.2495677709,0.1670438123,-0.508506036,0.1364926858,-1.5149435836,-0.9250625181,0.1521138449,0.7134867562,0.0606017836,0.51210413,0.8420356946,-0.6140772468,0.5279685321,0.1883895382,-1.0109540017,0.0906785983,0.6411867022,-2.1999316094,1.4869939987,-0.3513919048,-0.154418174,-0.0376584254,0.8785051651,7.3793438433,-0.5701063384,-0.6465921651,0.0323412288,-1.0174814701,-0.9651534876,-0.2907483857,-1.9707419383,-0.5969983718,0.4660621906,-1.8308960768,-0.5244213773,0.0403366594,0.7843608148,-0.1889247077,0.3204854343,0.883867511,-0.1885853865,-0.1405774589,-0.9542771266,-0.1594605933,0.5198321291,0.4960026242,-0.4530867897,-0.6557257412,-0.0152070279,0.4257191752,0.15437111,-0.9026440903,-0.3809232108,0.950220967,-0.4385614431,0.9525479682,-1.0388262317,0.9759480981,-0.5707508252,-0.6180575771,0.4514754455,0.361119923,0.8516190671,-0.2028320527,-0.3052845717,1.0040655924,-0.3176033013,-0.6304853758,-0.430297317,0.0973819439,0.8439256501,-0.6266690923,-4.0961370197,-0.2526223835,2.1642783741,-1.0798144802,0.2463752072,0.1510000596,-0.5737988646,0.4672389315,-0.0411457067,0.2176577503,-1.0208258475,0.742383722,0.5662847583,0.7395318669,0.346175315,-0.9337722645,0.1120387004,0.5122026122,-0.1620139399,0.5408980565,0.6732040507,-0.4912575504,0.3775795209,-0.4048551099,-0.4922568703,0.5251829059,0.2775949991,0.8688603101,0.0970978287,-0.0602661016,-0.3784466205,0.040076107,-0.4636860372,9.5999679165,0.0499249118,1.0657665411,-0.2424036902,-0.0411944104,-0.0026267927,-0.0615805673,-0.6172911558,-0.3483835133,-0.388698871,-0.8273344086,-0.7185876328,-0.0176275163,0.0642525767,1.0922332215,-0.1587532509,0.0706489315,-0.6296176897,0.1908188258,-21.4395693404,0.4199889187,1.0811121814,-0.1872629073,0.7967773756,0.1717908915,0.3913634976,0.7845064723,0.2314981163,5.5160913055,-0.1643760443,-0.4563731173,0.3629192599,0.3922619412,-0.0980891309,0.6406326525,0.7354041016,-0.2863040534,0.0456708191,-1.9239621922,-0.1472605429,-0.6452075769,-0.8625640142,0.0098039263,-0.0136097805,1.0167854243,0.2167557702,-7.1365232432,0.521481435,0.8226142055,-0.2512685214,0.5144653012,0.6372899428,0.673555163,-0.2295654938,0.2572709597,-0.3053757598,-0.6630437819,0.196339985,0.2447229573,-0.6251684683,0.8903722524,0.5699637506,-0.1447045441,-0.211386151,-0.6478256703,1.0288121148,-0.4125486926,0.4732553843,-0.3872222034,-0.6157818612,0.500925706,0.7452517885,0.4648972918,0.5346818966,-0.5323993879,0.0765076595,0.7724787113,-0.6000403856,1.5031236754,0.2116710204,-1.069218398,0.0937348713,0.9905356819,-0.2353672992,-0.1859797361,-0.0327388004,0.4282231654,0.1136344536,-0.6205529549,0.7481450019,-2.1627853057,-0.0770125406,-0.8887282765,-0.6086444532,-0.0969776238,0.7996899635,-0.2894758813,0.7544547968,-0.0193529474,-0.6901330198,-0.643192734,-0.3780915508,0.5837216522,0.9078153512,-0.5584096319,-0.4827573256,-0.5490920481,1.0422224461,-0.2531045031,0.2755302491,0.3102947279,-0.0739166685,-0.0873584179,0.2860124688,-0.147979025,-0.7398758593,-0.2995992952,-0.1124087207,0.2796311239,-0.1874793764,1.6567129964,-0.8346355201,-0.5632311131,-0.4805221621,0.6429320256,0.7071695188,-0.45837745,-0.0118275806,0.8848091676,-0.9891532151,0.935711691,-0.3275477438,0.1749797484,0.2999602876,-0.737673982,-0.1497022902,-0.3752886782,0.2578209179,0.6435995747,1.1604379186,0.5599137412,0.9904310072,-0.2761714885,0.6631685375,0.3553420484,0.9338301764,-0.5918222269,0.3284225362,0.1622644333,-0.9258845617,0.053936655,-0.4453211307,-0.091930772,-0.053858778,0.5763016932,0.6061189207,-0.8703714333,0.6541279761,0.3578150192,-0.6785707742,-0.532800852,0.0308397006,0.4967803554,0.3687037474,0.8707413199,-1.0486271465,-0.9641446774,0.7496230572,-0.6057434052,6.9023620964,-0.7879149765,-0.5875431955,-0.7562451444,0.1599682636,-0.1285481469,0.1041064345,-0.4901099599,0.1057789457,-0.727298026,1.917383844,-1.0012878761,-2.0220717472,-0.3419009747,-1.1501409074,-1.0284120156,-0.188408217,0.5330928357,-0.1150611596,-0.0966243628,0.5645389109,-0.6345758333,-0.5313142923,-0.0674346198,0.5554342556,-0.59745802,-0.0832351766,0.9260886433,-1.0258294544,0.5286131955,-0.7421656379,-0.1686319009,0.1807320857,-0.3728135514,-0.4445591246,-0.5673329745,-0.5921059097,-1.009439804,-0.3001664267,-0.0369869441,-0.9315720025,-0.3015346412,0.9017882401,0.4282467191,0.8866997605,-0.0601415397,-0.1319116006,0.2771064864,0.0483574704,-0.181050429,-0.510795496,-0.076477978,-6.732109601,0.3654201457,-0.6129771964,0.624751559,-2.3306351378,0.0331151028,-0.2243822211,-0.6471318393,-1.0290297611,0.8358138923,-0.7994021365,1.6345252448,0.5032154598,-0.8117584383,-1.1199329071,-0.2893701323,-0.1727036936,-1.0700999133,0.3673986843,1.9501859353,-0.053677702,0.0914075303,0.8457556029,-0.3749240512,0.1102072274,-0.0611223522,-0.3925208966,-0.5374343097,-0.570386342,0.3181739772,0.9642967252,-0.1895586046,-0.0871780907,-1.0253580519,-0.8781955038,0.2630576616,-0.2436925027,0.4024640035,-0.6632587994,-0.3331297984,0.4981258973,0.3685006056,0.2859895083,-0.2762083461,0.5621694109,-0.0084888002,-0.752101041,-1.7813197491,-0.4115607964,62.4031213041,0.2023769064,-0.861140497,6.36016778,0.3830297291,-0.0790847742,0.0730135503,1.0585667178,-0.3207284315,-0.7366029662,1.2279969563,0.1312505787,-20.0423857196,0.2231866253,0.6594992558,0.2032081329,0.2936581027,-0.6469774024,-0.0093629197,0.4233583206,0.7508667766,0.8798377482,-0.123365429,0.1488377108,-0.7397030247,0.7716284918,-0.5392959003,-1.9881519861,-0.0396371285,2.9397229007,0.0944442111,0.0562565799,-0.3074244926,0.8156108766,0.7007542958,-0.8955313305,-0.0963644675,1.1092224981,0.1414962902,-0.3382699305,0.0362197852,0.3326363023,0.1665455031,1.385364017,2.4666746922,-1.0268078782,-1.2147655837,0.4437626041,-1.1667088949,-8.3735765098,0.9742393209,-2.2410205673,-26.0079964538,0.3984222451,-1.0108426821,0.1638889633,-4.0651346783,0.6904731926,-1.128461253,0.447909315,0.0749511966,1.7196814473,-1.39718624,0.189344835,0.7837562376,-0.2979604906,-0.9982438442,-0.9358299398,-20.3235526365,-0.5818319859,0.3228116667,-1.137734753,0.0160072191,-1.107673069,1.8088726536,0.4271106298,0.4815466843,-0.9274596409,-0.3977791463,-0.7681929022,0.3362140772,0.5587272044,0.6072181612,-0.9293607829,0.1542646761,-0.8192569481,-0.8267379237,0.9491994212,-1.933477154,-0.6565468937,-0.0335339815,0.0975034272,-0.1366177102,0.7650595132,-0.7354745512,0.1434244946,0.4725897128,-0.6841785336,0.9609646694,5.0271785768,-0.2549282183,-1.0144135672,0.2638108896,-8.2413895131,-0.0550064482,-0.5724318816,-0.5116636941,1.0044653101,-0.1581959545,0.3127368831,0.4450770441,8.646529829,-0.146919914,-17.118399706,0.1503514425,-0.6683826225,0.1264771766,0.1928092844,-0.0282772069,0.2672971984,-0.4971652007,-0.0037007889,-0.1204847112,-1.565851951,1.1384866927,0.3579022858,-0.3436123664,-0.7663450376,0.1175897277,0.6912136386,-0.0531146773,0.1317633883,0.818723483,0.3211828522,-1.9902368604,0.177083947,0.9023330034,-1.1220956903,-1.5641257161,0.3143318739,-0.3489464213,-0.1640383854,-0.0744720264,0.0883327637,0.4827080442,0.8192096004,0.0495684602,0.6732761587,0.00141291,0.2954056201,0.4990898724,0.4054264351,2.6555740888,4.2873684555,-0.004076646,-2.5346384386,0.927314929,0.8555624021,-0.6036686027,-0.7957633522,-0.341800402,-0.9113672488,-11.9137472954,-0.2588247554,0.0386224203,0.0308627194,0.6078179588,0.6815471204,-0.2626406693,-0.0159403139,-0.1768884704,-0.7940997358,0.0458014846,0.3125527144,-0.1437690387,-0.719268236,2.0266709053,-0.7576865579,0.6665579045,-0.7161184377,0.3426177248,0.9761116758,0.7614762271,0.6948927319,0.5152783517,0.7331257628,-0.8802507442,0.5014979807,0.2470545467,-0.4486726464,0.8657258631,0.5258776707,-0.9020928827,-0.5265153828,0.4421496494,0.9373553295,0.4504938834,0.6595450326,0.2834054017,0.9217661088,0.6765418213,-0.6895405843,21.9826910534,-0.244571856,-2.9237296994,-0.0780835141,-0.2087893145,0.2185347848,-0.6869957903,-1.562973741,0.5680537889,0.0619559253,7.0102037633,-0.6810729268,-0.7711414687,0.099751083,0.4965262708,-0.9566456284,0.7099005698,-0.8163779528,-0.3234972422,0.409590306,0.6708825352,0.5867405647,-1.8401804322,0.2853255432,0.1979989751,0.7808232876,0.0804092468,-0.706933627,-0.4931103196,-0.9037745875,-0.5808442474,-0.2882160347,0.7415778947,0.1276536224,0.4087390222,0.255131954,0.246293562,-0.3755094472,0.8977910387,0.6342695381,-0.4060237901,0.221620828,0.5722079446,-0.5290775455,0.0319979077,0.0582474873,0.5927591993,0.161004958,-0.9867580897,0.5252292528,0.5273951207,-0.7170998527,8.8570406907,0.1481206668,0.3907758225,0.1969242992,-0.4630976329,0.7715867592,0.4167312317,0.6161614333,-0.5458217105,-0.5414969299,-0.0006364325,0.8849209122,-0.1031473533,-0.6225821734,-0.3572689838,0.400341775,0.6825564364,0.6454202565,0.8918391892,0.7657104953,0.6749110599,-0.7713033279,0.1744709604,0.993891986,0.4967393954,-0.0217366264,0.3538078611,-0.8078296053,0.1234324131,0.0978595953,-0.3286600894,0.9273803107,0.9340554945,-1.2408441823,-0.43851932,0.769459128,0.6222626392,-0.3216193802,0.3529466283,1.5469287009,-0.2182768172,0.2518931042,-0.839623618,0.2157578537,1.3288958416,-0.1633718141,0.1619688792,0.0411245665,0.7259652275,8.0405467049,0.2283930413,-0.0639146942,1.5953862335,-0.7657772427,1.560169903,0.3255541903,0.1142767346,1.1506348078,0.8071720704,1.6303578728,-0.5854140751,-0.7198705987,-0.5522180239,-0.9914428359,-0.7877331228,-0.1350616317,0.0012916493,0.8448436445,-0.3651317102,0.4532515339,0.7014417639,-0.3864091512,-0.8792352512,0.714370465,0.3626085226,0.9844440566,-0.584272444,-1.0441824431,-0.7175122784,0.7894899695,-0.7221904754,0.7502049702,-0.5715436928,-0.3704403048,1.1056743543,0.5017874239,-0.0838781684,0.728916842,0.8254015533,0.3836105721,0.4167353029,5.9826220356,-0.7696264618,0.703241424,0.7252069509,-0.0482907402,0.3382114554,0.5866809339,-0.1411695639,0.9605450683,-0.6923115896,7.0367841709,0.6351937531,-0.9623491159,-0.1220904933,0.1839961285,0.0144359107,0.3926947177,13.0579033511,-0.5909072171,-1.6046364246,7.9816169047,-0.3267613766,-0.4337396431,-0.5253755413,0.6047846939,0.5346857279,0.6513736426,0.3816381404,-0.5135196268,-0.4134500056,-0.530979463,-0.8934243991,0.102318201,0.910831208,-0.5832784768,-0.5369458653,-1.090174177,6.1818820142,-0.7545091955,-0.7740736043,-0.7106541613,-0.6723778168,-0.909686633,0.6331259167,0.7105284156,0.5597590399,-0.5888459231,-0.9174816504,-0.9567017135,-0.0909354749,-0.6961204294,0.2912647529,0.4361783494,-0.5365002385,0.2797223474,-0.5701578301,-0.0837799484,-0.0379961546,-0.4794941887,0.7185060515,0.3660395596,-1.1960367819,1.5677460865,-0.0030647521,-0.0106581157,-0.9877678197,0.0017637619,-0.0005911881,-0.3426172424,0.0218305088,-0.9833883906,-12.0658783124,0.6488275037,-0.0268296164,0.9225788609,0.4205521252,-0.799567536,-0.8413021137,0.6162232496,-1.0362230736,0.1618690348,-0.3469406062,-1.1001690388,-0.6940959388,0.6672150552,-0.4174569594,0.0581616874,0.8976818139,-1.173120118,0.6548669954,0.4597945233,-0.7257803176,-0.8551904253,0.2036798453,-0.6445423143,-0.0279865849,0.2484550446,0.9289814715,0.9387378519,-0.381257157,-0.8999943392,-0.1851827693,-0.7119399458,-0.1901642421,0.6537021003,-0.9611395952,0.0458068154,0.051707413,0.7619214663,0.645560673,3.1106355212,0.151742651,-0.6479433853,-0.2727562433,-0.5133027115,-0.3165591959,-0.1167248895,0.6288373271,0.1265789014,0.8878717914,0.3142641248,-0.378040317,-0.3190061037,-0.6551237719,0.1586608763,0.0206584027,0.3882600426,0.4921725627,-0.9233353396,-0.3576472604,1.5517072539,-0.5372011718,-0.6085762393,-1.0630946401,-0.9743501502,0.2088524642,-0.7814018644,-0.6876996517,2.1528249313,0.7430335423,0.1130911627,-0.2541904974,0.6964457926,0.0364514757,-0.5719239578,0.6561032218,0.7038818541,0.841297698,0.2418426601,0.1997114199,0.1031547915,0.7472586783,0.3207751052,-0.7840970624,-0.2769997386,0.5308628472,0.1665530131,0.1559888592,0.3994247588,-0.501770085,-0.5560233036,-0.9468474506,21.2909396514,0.180643294,-0.7812274167,-0.7822440805,0.2287925785,-0.1918853525,-0.8620928739,0.5163743811,-1.1420339645,-0.0896278016,-0.9244879977,-0.1840269937,-0.6081223347,-0.7212238674,-1.5926419355,0.1030903104,-0.4888580561,0.862755705,0.348254532,-0.7792490345,0.4681765194,0.1865470172,-0.8555139617,-0.3255104843,-0.2301809306,-0.8987535162,0.5247402725,-3.4575020954,0.5092054027,-0.6661416096,0.42794842,2.6319137457,-0.6727970398,0.7790260044,0.1804375759,-0.9300689081,-1.069190019,0.4393206061,-0.5933940182,-0.0102270965,-0.2500253717,-0.6858246777,0.2129113783,-0.9311950449,-0.4961375203,-0.921899565,-0.5514087678,-0.5396854185,0.0567702759,0.0647689277,-1.3863500194,-0.3041087456,-0.4435047855,-0.86306966,-0.7431037439,0.3216970502,0.7665217242,-1.1726851088,0.4467968563,4.254604708,0.7621655303,-0.6085846776,-0.7785531744
   -0.1190999985,-0.5172874441,-1.038416991,0.0992056415,-0.4676064354,-0.9755939262,-0.6766575009,-0.4661177741,0.9671817329,0.9872160266,-0.8314371891,0.9837432177,0.9404904111,0.2092988106,-0.1215233674,-0.3005510772,0.2924473921,-0.5782786672,-0.2366817802,-0.596496436,0.7927856692,-0.9965251087,0.310040981,0.2864759505,0.2745256599,-0.8548703113,0.2931440629,0.5247824256,-0.6222079401,-0.6505250245,0.6145334839,-0.8118185233,-0.341552545,0.2719403982,0.4543505547,0.7553956542,-0.376485274,-0.7327473093,21.6838030825,0.0623720647,-0.9388492002,-0.7818978728,-0.8783116616,0.3280542369,0.1200148796,0.2830864296,-0.1112995533,0.4144874416,0.0938717814,0.0452266161,0.5485901281,0.4597618859,0.2431310045,0.8639766823,-0.4944565282,0.0932277711,0.4766101265,-0.2859634772,0.2085584534,-0.8980394423,0.41061586,-0.4881053136,-0.3682593293,0.592660117,-0.7702043418,-0.8024674824,0.6184553361,-0.5552585373,-0.9803434318,1.5649696029,-0.308407221,-0.0491756464,0.4561560285,0.326790562,-0.6161371738,-0.1620833714,-0.7574483973,0.0236655164,0.255002301,0.0968160302,-0.2549758488,-0.6489713991,0.4986408088,0.0954159272,-0.8199837418,-1.2410412759,0.7493633268,-0.4539788958,-21.323121416,0.7073873417,-0.3001798936,0.1794965365,-0.0670188151,0.7685512894,-0.8164809411,-0.2566854331,0.409537411,7.4708387092,-0.2036819536,-0.2133694526,-0.7057340065,-0.5904787046,0.2943621777,-0.0648726557,-0.1291199116,0.9164097364,-0.417378614,-0.6356406245,0.5238669032,-0.3185165465,0.1706792401,-0.2994224241,0.9576587061,0.8611081128,1.1422294109,0.904498269,0.8021602551,-0.5550266162,0.5417258048,0.7671068443,0.7247493924,0.5058470664,-0.1766415228,-0.2273182818,-0.5589331869,0.6153207048,0.2954437913,1.2494501216,-0.7785161135,-0.4362767994,1.1266465996,0.7969726302,-0.76486423,-1.5911667794,-0.2771505405,3.3760206878,-0.4782688273,-20.9614787586,-0.8058275761,-62.9534718767,0.8111385017,0.4319443287,-0.8000396927,1.0740324356,-0.2453327794,-2.0720858079,0.9766561253,-2.1707883169,-0.339951627,0.7128919376,0.5397500691,0.7766950297,-0.6111802852,0.6168211371,0.6478961477,0.5063699616,0.0442200097,-0.0214025426,-0.2848207148,-1.7974129644,0.1385403554,0.5851954512,1.0248950349,0.7393828805,1.2140790127,0.259269062,-0.909472904,0.2593582306,0.3693958335,-0.5110231672,-1.3707057986,0.7736171418,0.9275997598,-1.2561965783,-0.5178199667,0.3775874923,1.1296891953,1.1711047447,-0.0653485931,-0.9709051998,0.7093241624,-0.1908516543,-0.407164105,-0.0040563616,-0.4420101574,-0.7326096336,0.3910241152,-0.5138136221,0.570306324,22.5762897118,1.0774849096,-0.3625992723,0.4794049989,1.0161873451,-0.0903277079,-0.8393571155,-1.3141893246,0.8243794908,-3.8840063245,0.6747409785,-1.6984734531,0.3636265232,-0.4592479424,-0.1398244519,1.0173798486,-0.3123177678,0.4332113508,0.8288907667,-0.2070702187,1.0809206989,-0.1853362711,-1.1279251147,0.0564656384,0.5647569264,0.5239102747,0.0574958162,0.3765166392,0.8992974638,0.2821311117,-0.411172964,0.1298318128,-0.654320544,0.4853553664,0.1458545506,-0.1297070317,-1.096445194,0.8159252138,0.0785474998,-0.4334115316,0.7608813648,-0.4171788023,1.0620244406,-0.1906660586,0.4498070968,-0.6131415753,0.4273423987,1.5185490743,-0.951850656,-63.0307823804,0.2180718366,0.5309384197,-0.2509722948,0.7436038694,0.0503206276,0.8347167788,-0.8147716012,-1.231467229,0.3237732419,0.1937413135,-0.5009645961,-0.395583708,0.537624321,-0.5714683281,-0.4733544557,-0.7421516872,0.1506729172,0.089333052,-0.8422253656,-0.5506852589,0.2401798182,-0.1071035317,0.4041718529,-0.6217226906,0.0925250655,-1.0972449216,-0.930185297,0.1300190746,-0.3299540587,0.5898818323,0.4803464262,-0.2872497726,0.5311191882,0.3636770347,0.1206477026,0.7938757377,0.228171198,-0.0665496749,0.7326570606,0.3699355898,-0.6178645528,-1.1336697265,1.0108199405,-0.5328200496,-0.9384194139,0.4871027957,0.8145242499,-0.7716890153,-0.036948662,0.7439654051,3.2337233284,2.7665846881,-0.9641400767,-0.0418955638,-0.7213498902,-0.2886012219,-0.2547672422,0.7674142319,-0.7313804126,-0.103730612,-1.4207942043,-1.0513268114,-0.7104985246,-0.7329403575,-0.8856781774,0.3665025707,-0.4522141447,0.8334906602,0.4440351547,0.540640618,1.5527454945,0.5523615434,-0.4301125299,-0.3139280597,1.09574192,0.1044969782,0.3398931114,-0.8644158433,0.1962959223,-0.9106889225,-0.7906891108,-0.4950283963,-1.2824589748,0.7174393263,0.9295324232,0.0697495587,-0.8188966774,-0.8939184712,-0.7830880163,-1.184258382,-0.3559921747,0.6808987122,-0.2175622503,-0.779342529,0.2896787727,-0.7502746384,-0.050802154,-0.7348485597,0.6798696756,0.5891618623,0.7645446626,-0.6717867223,-0.7191008647,1.1826483806,0.366610041,-1.2054028138,-0.9942742914,-0.7400312437,-0.6789198976,-0.9975112232,5.269143602,-0.0338463802,0.6201831466,0.9280229926,0.6327616621,0.3053430742,0.4286156839,0.4301366363,0.6724566064,-0.0434064765,0.4544649203,0.0611309742,-2.1503511187,-0.4908204447,-0.7991202165,-1.0351209108,0.3625359184,-1.1605569224,-0.6544496476,-0.7793482446,-0.4197133092,0.045057261,-0.409151398,-0.9662959604,-0.813231474,0.3037455717,-0.6613652045,-0.4700567794,0.7067547498,-0.7312982047,-0.0649647729,-0.4772786585,0.4817902647,-0.9889651651,-0.5588508513,0.1691050018,0.538138594,0.5749977585,-0.1405409299,-0.8234610003,-0.2445659611,-0.3900148978,8.9217332198,-1.2245123045,5.144058736,-0.9586865954,-0.7488809259,-0.8658645498,-0.4200718551,-0.4357028632,-0.9615642483,-0.6736964107,-0.2112447072,0.0625850046,0.2554892978,-0.5555602589,0.3270701927,-0.7487073423,-0.5757188066,0.7486280478,0.5423304508,2.6627022661,-0.4815458694,1.0966116797,0.3708566641,-0.0884667631,-0.4899519221,0.8583624267,0.9793704656,0.5943670181,-0.2894605814,-0.238224106,-0.6957030116,0.4089863478,0.5463012112,-0.2505931641,0.5614965591,1.0368927678,-0.9283522301,-0.713906659,0.2785747205,0.6248547183,0.7328980875,-0.6316482838,0.2336205294,0.7394035301,-0.2134898748,0.2416284163,-0.5154467043,-1.845231763,-0.9235466413,0.8925972422,-0.5711976145,-1.6572377507,-12.2419341803,0.2087846972,0.0975134716,0.801007107,-0.4548976362,0.5912492905,-0.4649569678,5.042619803,-0.370388347,-3.6255115079,0.0712522165,0.8211615879,1.524159379,-0.8682393395,-0.5901785854,-0.3436761658,0.2438619829,-0.5272784284,0.4404197432,-2.0996896854,0.6302107501,-0.6193334155,0.5929290531,0.0946511446,0.25710964,0.3026919232,-0.44059316,-0.233100438,-0.6008477488,-0.4265778329,-2.2315899804,0.1511882165,0.5652524649,1.2533493447,0.2236805317,0.4460076678,0.0646808702,0.4196106956,-1.2816253506,-0.7130221722,-0.159490911,0.4459821147,-0.3049845387,-1.983658091,-0.3162900147,0.4560909218,0.9234014975,-0.1859511106,-5.4916600767,2.1056105198,-0.0442554193,-6.8964129904,-0.8563293361,-0.920588517,-1.23027636,0.6033650173,1.4864782821,-0.1752347618,-11.7903807169,-0.617083958,-0.7299791586,-0.665448609,-0.9064605854,-0.0922083865,-0.6332168365,-4.6803292618,-0.8205443827,-0.5938528099,2.064896934,-1.8033770432,1.0066783685,0.4884622711,0.1128433553,0.5852420484,-0.567124804,0.7992750967,1.675049429,-0.1159884189,-0.0779112682,0.3953241286,0.6271021517,0.826274366,-0.5889451668,-0.2320561881,-0.9790706701,-0.9274416674,-0.8711822472,0.5861752636,0.0833300306,-0.0894612829,0.2707305569,-0.8318634394,0.6159735244,-0.4103940971,0.5415895381,-0.2488238889,0.0531911857,-0.3354523557,0.9073445888,0.6475680958,22.3709865442,1.6234817369,0.2569333074,-0.3774905972,-0.9489109596,-0.2740936244,-0.6259741165,-0.4724225099,1.9592886786,-0.2359579685,0.1612108198,-1.0056151874,-0.1188486041,1.3809026021,-0.2354672296,-0.6258605629,-0.8742092504,0.5946440294,0.6513943119,0.5430613885,1.6084954749,1.290557668,-0.805208604,-0.3472060074,-0.6293398044,0.1468577572,0.7301099067,0.6387216405,0.8218768523,0.1181881534,0.0761238233,1.7105634001,1.0188644332,0.6623505741,-0.756897526,0.4017922829,-0.8807548596,-0.2061853959,-0.6737912418,0.0066059154,-0.0214720221,0.3089171137,-0.7722486101,-0.2838123671,-0.602324697,-0.8725492967,-0.9210315125,-0.8702740843,0.7466409598,2.0120340323,-3.7527945702,-0.6153774068,-0.0435745245,0.3574680236,0.7226265969,0.712531596,-0.5892752983,-0.4785862983,0.457676553,5.1302258765,-0.9918430515,0.880173844,0.0375315163,-0.3050735979,-0.5266723537,-0.5202183756,0.6724942924,0.2651329404,-0.144272333,0.7026373429,0.5600344431,-0.36673876,0.3838886381,-0.2886509393,-0.3812759936,-0.6864471649,-1.2077384622,0.3686823288,-0.9092385244,-0.8403361438,-0.1942253109,0.3013297505,0.661400376,-1.7570099437,0.8540650445,0.3771878163,-0.5093377298,-0.1910637667,-1.171054063,-0.1649008997,0.6481326147,-0.2867794285,-0.5254025704,-0.3012923689,0.102518896,-0.4480890937,0.6494869082,0.3995778716,-0.9546582257,-0.6652147993,0.1802347791,-0.6380548997,-1.0874880631,-0.3357769709,0.7904442237,-0.2145308147,1.9863143839,2.4433474741,-0.7548569888,-0.710887137,-0.5081479156,-2.860023451,0.6533345071,-0.3870685551,-0.4739471555,0.2168687038,0.2717863856,-0.0778624197,0.8801405856,0.7033700939,-2.0788268191,0.0536961613,0.6690936591,-0.9291650906,0.3062457238,-0.9356075683,-0.7632991682,-1.4162992984,-0.1776481718,-0.5785050532,-1.1160520564,-0.1849005013,2.1317108523,1.0145002718,-0.4211340257,-0.5719378517,-0.5100055745,0.2524616976,-0.0753471087,-0.4684662226,0.1442222037,-0.5912466021,0.7478970958,0.5186617733,0.2097187389,-1.1215813663,-1.0696325365,1.3212150748,-0.9438591232,-0.7079710265,1.2368533766,-0.5051699729,-0.122601377,-3.9201431735,0.86031213,-0.3219732664,-0.3291013478,0.0706487215,0.1356688991,-0.4988359135,4.8803396268,2.2979801466,-0.5806200133,0.3523397289,0.0147619369,0.0806333746,-0.4838451966,-0.5785294481,-1.4056610259,-0.9972912821,4.6182597276,-1.2668747728,0.6440982497,1.7614168373,-0.4196475348,-0.7647324622,0.8531436265,-0.8633893752,-15.2646090906,-0.5329296592,0.5445686235,0.1488198806,0.6647294345,-0.3029401537,-0.1455156365,-0.0279237638,0.3670174169,0.1752553402,-0.4884821041,0.5083684165,0.0824993957,0.9400902277,0.2352609569,0.9237323219,-0.1220833276,0.1913253502,0.272819527,-0.224350301,-4.7069262163,-0.0374818231,8.0986556613,-0.2103731944,-0.8911920012,-0.1305872223,-0.1576578482,-0.0380843718,-0.0448002753,0.1167432924,2.2142198122,-0.7244739011,-0.1174171446,0.3886674812,0.4151019075,0.9452924443,-0.1396101808,0.5832902275,-0.0461200146,0.5145639408,0.1094093002,0.8602134746,0.6487775519,-0.0873690131,-0.1030683048,-0.4492005173,0.4699680185,-0.0012442188,-0.2186496721,-0.049848355,1.1411149384,-0.6252486138,0.4856266515,0.1036623732,0.2742341553,-0.9333810158,-0.0637171264,0.1552793693,0.3738908654,0.3112573924,0.7789538916,-0.3858419826,0.2402980352,0.5041208295,0.914258769,-0.1703844911,0.3448253485,-0.2393241292,1.546007258,-0.0334842521,-1.0008687712,0.286077062,0.995433899,0.0549199833,4.1040377831,-0.1021356674,-0.5693991585,1.4368550625,-0.7239989073,0.7964846708,0.8020440845,-0.2822198617,-0.6698389814,-1.0249350084,0.794152904,0.5375361722,0.6208066191,0.1723552639,-0.2508854047,-0.3563037065,-5.5240744163,0.4647248895,0.0560817326,-0.2446516507,0.3733243044,0.1353382986,0.4007684569,-0.4882104323,-0.051272861,0.2897973273,-0.8443079396,0.4375413931,0.1596571864,0.9231873381,-0.6610267159,2.564457605,0.3894329291,0.2108332484,0.3064746571,0.1633902182,-0.4459606863,0.8249243525,-0.7750932943,0.3324768759,0.0367822133,0.7994522813,0.9341124162,0.3675260276,1.1662582054,0.7077922237,-0.7685450712,0.0330086988,-0.3891595588,8.0527669622,0.3954050814,0.2937017083,-3.1584306455,0.3507316089,-0.0846318157,-0.0457938013,0.915576727,0.5621019194,-0.3560257674,-0.468627253,0.4955279847,-1.1574935289,-0.3453964972,0.5216806363,-0.5299034109,-0.7086476528,-0.4302041323,-0.1285598347,-1.4114037833,0.7804913718,-0.4458779327,0.8610567479,0.1944085039,0.977220812,-0.0769186875,-0.0892547154,0.5712338087,-0.3680577712,0.8545941384,0.4501643551,-1.0694532272,-0.0846580169,0.3817968348,-0.066308582,0.8458228618,0.749998162,-0.2527157243,0.3547705884,0.232774326,-0.4942168798,-0.9860108627,0.2150959353,-0.7385701838,0.8610028852,0.743704879,0.7845923524,0.1743134143,-0.194665997,-0.0961327821,0.2599763665,0.3657214163,-25.1273197393,0.699385311,-0.7455788407,-0.2326776562,-0.1290352726,0.4849290639,0.6695627928,0.6136957529,0.146686894,2.2759261498,-0.2311665381,-0.242524013,0.8153324213,-0.654383761,-0.6832600699,0.0659298498,-0.1530912569,0.7106412284,-0.6881225176,-2.3464817199,-0.633158831,-0.8327340313,-2.1884280417,-0.9399204488,0.2462668918,0.969979385,-0.4191843419,0.3558870081,0.6476107174,-0.1964742048,-0.0464767558,-0.0901311305,-1.3114277308,-0.4205430829,0.2842390452,-0.0994341587,1.1975411745,0.0726222973,-0.3135244256,-0.3329099347,0.4647097992,1.0487872817,1.1197814587,0.3647221003,-0.7652033717,0.2408729356,1.1217523533,-0.0183469243,-0.5200140046,-64.1945515178,0.3707273045,7.210924495,-6.1518702935,-0.3010503075,-0.845447276,-0.2435823868,-0.6309683277,0.2222582748,-0.2237159022,-3.6836258169,-0.0365481775,0.5283193401,1.0931564275,-0.4388190082,-0.8142346687,1.110235971,-0.3542883816,-0.1478198832,-0.269831436,0.1613966652,-0.5571576099,3.4689555865,1.1897617038,0.7340688582,-0.4145503294,0.2551083964,0.2759306915,0.6529665261,0.9887316206,-0.1463301266,-0.1949296455,-0.2065282178,0.1013391932,-0.7389196328,-0.5595244556,0.7070694522,0.3216983425,-0.1104713034,0.5118983266,0.5553726019,0.5860717514,-0.6380906871,1.258693217,0.5107171155,-0.6496852311,0.9841436065,-1.6134676714,0.3640182366,0.8018199568,1.3018635314,1.0802689234,-0.455932363,0.2518427108,5.9604548691,0.2229685984,0.3817735223,-0.0083152124,-0.421438301,0.7377554429,0.1762372367,0.5339850664,0.6727352114,-0.4678623282,0.7770980299,-0.6600320617,0.0915862901,-0.3616652136,-0.1366106921,0.0012259667,-0.3137290504,0.1686236327,1.0935332416,0.7618374681,-0.1034587595,-0.3359560882,0.3940901967,0.356890831,0.1155652206,1.0189186115,-0.7956859042,0.1263058639,-0.3653034353,-0.4704385748,0.1906632064,-0.2905556991,0.0582631991,0.237581883,0.1115790466,0.3773895609,0.3381545173,0.3482678107,-0.4985467776,-0.2947819394,-0.9577892769,-0.9984469329,1.2552318187,-0.3413022395,-0.5059307293,0.7170439742,-0.6952484149,-3.5609662744,-1.0591289694,0.0864292165,0.9170870056,0.5962726845,-0.0332488979,-0.3434224058,0.5013120808,-1.2500173281,-0.1956057222,-3.817464057,0.2670379336,0.7533897965,-0.9887185322,-0.518965708,0.3747459507,0.4580022727,0.6166102986,-0.6793728017,-1.9702746038,-0.9428062304,0.3698520109,-1.8037721765,0.6581418231,0.067195824,0.7799138858,-0.4318697927,-0.7163466595,-0.3032346076,-0.2075212364,-1.2518957553,0.6656007709,0.6989060896,-3.1925798376,-0.2232976342,0.2989275127,-0.6968747875,-0.0354476155,0.9607329489,0.8211211489,-0.7921522469,-0.0830617802,0.8451327321,-1.0948494691,0.0423651903,0.2475858074,-0.843531345,0.3475954221,0.3992116677,0.3182364152,0.9128597109,-4.0786282262,-0.2631917484,-0.4268082302,0.4493631363,0.3676914734,0.2800706482,0.7188274326,0.5553520543,0.4895093742,-0.891110126,-34.50454658,0.4168127978,0.6063939051,0.8151363287,-0.1894751627,-0.8223555759,-0.6388287647,-0.8505109719,0.5194837393,0.7114733038,0.302265511,-0.9984838467,-0.7127046212,0.2550810204,-0.4008355559,0.2096329729,0.1799064623,-0.7622677878,-0.5827581695,0.2447565424,-0.7441047382,0.8717412273,0.0420274024,0.3898144471,-1.2327082765,-0.4430679906,-0.6710065646,-0.3961990075,-0.4310862537,-1.1366811973,-0.8616258389,-0.9547440882,-0.6833960766,0.0807631794,-0.1613481222,-1.4347576662,0.3459369045,-0.5394782264,-4.0254862094,0.3000673314,7.8988407749,-0.1166349255,-0.6028425461,-0.5892498367,-0.5301558083,0.6208692874,-0.8973539699,-0.3737753402,2.1233831196,-0.6634338658,-0.9952954405,0.7483936379,0.2321277356,-0.9004707759,-1.2258682208,0.0946592424,0.0510834344,-0.6681249705,-0.817769883,-0.5890289571,-0.5747096415,-1.1608030903,1.4419803332,-2.5420144924,-0.1112454576,0.2190933839,0.4692881353,-2.1188237318,0.1101150561,0.1809008501,-1.2270041546,-0.8068005983,0.7791616378,0.33986537,-0.6413871877,-0.8236033039,-0.6681934943,0.5839471429,-0.0743388917,-0.9055229095,-0.6253984437,0.2857947398,-0.0889167723,-2.5833927012,-0.9398805542,-0.8374055179,-4.2386406035,-1.007292235,-0.1902119303,-0.6294941606,-0.9056813422,-0.1572762908,0.6454087865,-1.2071737111,-0.7553321072,-0.0571698548,0.1841617967,0.2201073421,-0.1141163909,-0.4295047804,0.2492452831,-0.1185161604,-0.791456931,-1.0861065488,-0.5271725193,0.2530150716,0.106815599,-0.5732714895,0.4503167841,-1.1672076013,-1.0367708971,2.0016547001,-1.1118027923,0.8306149588,-0.6944462521,0.1278370434,0.4347793433,-0.555592944,0.7517222949,0.4342202017,-0.3039110606,0.6896476702,0.3852673429,-0.9778568992,-0.7420823491,0.8150742324,-0.3249806779,-0.6117080467,0.3350274578,-0.4613703881,0.0876808405,-0.0734619975,0.5949984376,0.3190358607,-0.8150465758,0.3665640069,-0.8778140953,-0.678034115,-0.4806424493,0.2414436345,-0.7631615059,22.797639445,0.4729546172,0.0356936736,0.7913523554,-0.1896347091,-0.7040190065,-0.7924539457,-3.1264462214,0.4001429752,-0.7273952858,-0.0798334868,0.9579150053,0.7294519789,-0.5880044559,0.1211531256,0.4098860904,0.1296482705,0.5232549394,0.1800370215,0.6975749858,0.1848535528,0.5056049164,0.0944885599,-0.7547522648,-0.5065123237,-0.6297132998,-0.7620003036,-0.2366269739,-0.4108084351,-0.1705769432,-0.6171631725,-0.9047211815,0.2214138687,-0.6014704656,0.1618441979,0.4056731741,0.5064873441,-0.2464171973,0.4399336398,0.468195112,0.5452043751,1.0419762681,0.4811696644,-0.3419172354,0.0558753038,-0.0785407141,0.6951855145,-0.8197729195,0.0974971628,0.0640934471,-0.6088348323,-0.0999698126,0.0248661174,-0.5629114923,0.4824808683,0.4660221034,0.3787743754,-0.8059641061,-0.0505059179,-0.0260569417,-0.6960142044,-0.6103687683,0.2031155364,-0.5759497995,0.0013321868,0.2830415783,-0.7483777919,0.6991082368,-0.7180093769,0.4995385278,0.74582483,-0.0076609352,-0.5820142588,0.1621934321,0.3555792287,1.008210345,-0.839900591,0.6061617226,0.3694431592,-0.529682898,-0.157160662,-0.3856748142,-0.1443588167,-0.0847459174,0.2128216707,0.6257668461,0.862152365,0.9198681328,0.0388420093,0.4999007064,-0.7698552153,0.1637646223,-0.2207939839,0.4403979976,-0.6762862263,0.5907570172,1.5113898799,0.1916107922,-1.3823797435,-0.7190539182,-0.0909478331,15.8274855271,0.2392704637,-64.8167311682,2.5706628567,-0.4342280506,-0.9353690595,-0.8739892374,-0.3992114408,0.7971315891,0.4252381965,0.473704187,0.1108499036,3.306212686,0.4803622922,0.412791777,0.0601579173,-0.2595550907,0.7223593884,0.8252576934,-1.5932829615,-0.1021561384,0.2655578642,-6.242685933,-0.3143843095,-0.4379734975,0.6554231642,-0.0180332739,0.3114448397,-0.1617319508,0.515393546,-184.9915089991,-0.496969297,-0.7141687087,-7.6459352127,-1.3249458015,-0.5922557787,-1.1968976063,-0.7686763221,-0.4123751821,-0.7739446142,-0.4054752046,0.0477811961,-1.977905717,-2.758261003,-0.169510827,-0.0015945079,0.0604739869,0.094901253,-0.6167559091,-0.8492979272,0.0534873208,-1.9346021633,0.2987696005,-1.0612101103,21.888192142,0.5140568203,-0.4293128159,-0.9705938679,0.1118108096,-0.3971571274,-0.5202719457,-35.3783448355,0.5189837154,0.1416381145,-0.093212907,0.1921551998,-0.485087709,-1.0099098712,-1.0311263942,-0.2999591236,-0.9365791369,1.7512450595,-0.2543907004,0.652749311,5.9428778217,-0.1340923117,-0.6938318886,-0.477969515,-3.0994833511,-0.1123771651,-0.6850010457,-0.7803352051,-0.2252383683,0.7544469561,-0.6248861074,-0.839003798,0.0767061199,0.6162227964,-0.6391700674,-0.9742119228,-0.939742516,-0.6179653552,-0.9709335952,0.3631678664,0.6993893569,-0.0876580765,-0.4702884765,-0.2565923525,-0.5499928814,0.1847014173,0.3310807095,0.3608583186,0.5249269483,37.9450093889,-0.7345251526,-0.3763741622,-0.4286257526,-0.9760130941,-0.4835279454,1.0554618755,-1.0340598582,-0.530684755,-1.0742159891,0.5694449988,-0.522744197,-0.8680104661,-0.8730239615,-1.3595870831,0.6318376046,-0.7250384075,-0.0532000713,-1.0145790486,-0.6223862308,1.209209763,0.4933776732,-0.6642284574,0.2273195399,-0.0910959132,0.3545489495,0.4897009506,0.2777039962,0.2174053056,0.2416865243,-0.5702321036,1.4114958722,-0.1298027995,-0.054447906,0.2580952631,-0.2572638033,-0.1218490206,0.4114968629,0.8445296124,-1.018782748,-0.7181236505,0.4144101695,-0.6146845987,-0.4275031948,0.1597318864,0.2749951839,-0.8669786156,-0.9074747736,0.3995920704,-0.267651078,-12.1042759324,-0.5533143049,-0.9783453714,0.0789020588,-0.326797801,0.3858744257,0.5983208226,0.4903542165,-0.4174174903,0.3077562755,0.1715486556,-0.542750645,0.5581154719,-0.0119839057,-0.2977901512,0.8431927932,-0.7322092372,0.5897396938,0.7270031654,1.8810696226,-1.0353357492,-0.8434289911,-0.027758856,-0.9572851219,-0.7070536558,0.6021732162,-0.9302538337,2.658542868,0.9326107526,-0.2861436804,0.514559796,-0.0250145876,1.0614793796,-0.0009197395,0.0358355329,-0.8764436786,-0.4852899739,0.4103565796,-0.3085135259,0.8241637866,0.0015947862,-0.3423661413,-0.4975062471,0.4188538148,0.6362132557,-0.6197924727,0.2523084211,-0.4717927159,-0.7753578324,63.9729754115,0.4137594466,-0.1096764356,1.8015923034,0.3880077204,0.834893953,-0.6551446632,1.2768822572,0.0473477919,-0.2099694176,0.3758467774,0.7360189237,-0.0172146799,0.0834768525,-0.8141640847,-0.0464170781,-0.2194346037,-0.4839745374,-0.1859402068,-0.6664681695,0.6752929303,0.7041617331,-0.3962261982,-1.0006343481,0.2594780549,0.5499271187,-0.413353382,-0.5872679807,0.4437104975,0.5537702302,-0.5283087445,0.4261730135,0.0558663343,0.5732968519,0.3285237941,0.3982133237,0.3100076154,0.6535414459,0.6801546332,-0.5150644381,0.5002899739,0.4079458685,0.4808576387,-0.7697795936,-0.7486458506,-0.8096979411,0.7776759321,-0.4752561778,-0.6992800408,0.1960704836,-0.8045641507,0.1607010227,-0.7695350392,-0.7064301992,0.7172610188,0.0381417534,-7.9299435393,0.5334839091,0.8436713985,0.4320793469,-0.0459229299,0.2035516989,0.0271131142,0.1284906889,-0.3386224606,-0.6529388223,-0.3727660838,-0.5994068206,0.1557534157,-0.4726257509,-0.4331994754,0.9171771276,0.8012989823,-0.1218759075,0.9080383258,-0.1189165939,0.4017743795,-0.347950824,0.7914890308,0.5673280997,0.8858154063,-0.7784813314,0.3945193592,1.0849713912,-0.6456918433,-0.5538460413,-0.50718651,-0.8590739175,1.0147138838,-0.723879263,-2.4319127654,-1.3262982943,-0.1203139114,-0.1407499108,0.8587967876,-0.6689396558,-0.2783348545,0.9980040427,0.6853085948,-0.2765645132,0.023407397,1.8110534388,0.611766654,182.734230857,-0.8497711977,0.2049321283,-0.4378957152,-0.1641750636,2.2717970072,0.1896910296,-0.7857425405,-0.1078816788,0.8592180606,0.3766052904,-0.8044125771,-0.2877778328,-0.4446394585,-0.6985466406,-0.9916909637,-0.7891819643,-0.8384322791,0.9607549979,-0.7673135559,-0.1693176118,-0.4025836462,0.7536734181,-0.304813633,0.1105432081,-0.533956861,0.4393157823,0.0172024055,-0.7793553469,-0.7101882362,-0.632604904,-0.0199647398,0.8732770137,-1.0158542475,1.177212866,2.7284402962,0.4682894835,0.7395295782,-0.2910740105,0.9114986363,0.6653650432,-0.9782587259,-0.4605290571,-0.8443418388,-1.4022208792,1.1855397108,-0.9269366152,0.4576081368,-0.115266387,-0.6962615158,-20.3187717282,-0.361356043,-0.0855091632,-0.3127629696,-0.0969352822,0.1898075081,0.6359533173,0.7118947025,-0.2369271759,-0.1941870065,0.3199818124,-0.4092754122,-0.9245405474,0.682437725,0.8920784617,0.7435604264,-0.0311590149,0.1625196024,-0.2477531906,0.6407392686,-0.0204393693,-0.0449290284,0.958030221,-1.6144335623,0.4721768339,-0.8762113099,0.0968314061,0.5663188195,-0.8420746273,0.8141690902,0.0985576484,0.7504864466,0.9803316898,-2.166581121,-0.9593208485,-0.3590546887,-15.0232677087,-0.6046934657,-1.8540310446,0.1387166489,-0.1250158572,-0.1295253438,0.0326577703,-0.6518057799,-0.6759171964,-0.6337650174,0.7704667803,0.1565578501,-1.1143176145,22.5449426011,0.6916419659,-0.3764252695,-0.3514667314,-0.2830341097,0.2455202083,0.2027745069,0.20022334,1.2529556338,-0.0342484284,-0.5507133422,-1.0076411984,-41.9961676373,0.1597404105,-0.6183542636,-0.208945667,-0.0434691707,-0.5361860743,-0.9664480162,-0.6475421141,-0.4505031047,0.5822027339,0.5843747909,-3.932007278,-0.9286769874,-0.6466030105,0.2354952437,-0.0959841681,0.3396571832,0.2252096334,-0.6110395423,-0.8871808555,0.5991026669,1.0876918243,-0.7717688856,-0.9306204828,0.8657236015,0.4625825138,-1.0831361045,-0.5313042048,-0.1611196453,-0.4125731994,-1.1537386778,0.0009789152,-0.8119233615,-0.73311947,-0.7691298531,0.8307580388,0.4944809311,-0.1954396456,-0.1104886695,0.4314036997,-1.6770905024,-1.1474234487,-1.4719405049,-0.7923724126,-88.5833140183,0.6428912415,-0.0133297557,-1.1407423309,0.2498446689,0.1110294917,0.3922890024,0.8283370288,0.5202005065,-1.1367763485,0.5465178928,-0.6049190488,-1.0028820028,-1.0890283849,-1.1789987556,3.0068898721,-1.2708722491,0.0320476513,0.8313613507,0.4997398899,-0.6764800649,0.3965846083,-0.6838822548,0.8144576892,-0.1570922422,0.531663097,-0.4984125978,0.9687930249,-0.2735591818,-0.5410414219,0.2315803242,-0.6431467385,0.2566964578,0.954350569,0.2024370189,0.2610913058,0.3357971796,0.4042368215,0.2328641859,0.4090138853,1.3746267279,0.1171786814,-0.7093548403,-0.1287292425,0.6047398533,8.1511068379,-0.256926819,-0.0339655423,-0.2727108134,0.8343443791,0.118747679,0.5259313786,-0.0015233149,3.4838218199,0.6662010337,-1.188050609,0.7690194435,0.782150781,0.9785826951,-0.4939388753,0.2047184312,0.1040899899,-0.7641487145,0.6610685267,-0.1877218816,-0.3099914562,-0.4939390209,-0.0181494478,0.9462160999,0.225395706,-0.8591673145,0.4036225101,-0.1652891822,-0.9533578598,0.1189416299,-0.4430606462,-0.8426171723,-0.019284663,0.4154576876,1.0889140097,-0.2336429821,1.0893462632,9.3954684544,0.1098941778,0.2443248988,0.1734715952,-0.3630037834,2.5457256332,0.3178942584,0.9922926077,-0.5509238299,-0.764301011,0.0341744092,0.4581835077,0.6837409235,-1.506155778,-0.2989332099,-6.6526500651,-0.5767027621,0.5877591492,0.1683624766,0.9701418401,0.09563414,-0.7585712918,-0.0334988704,-0.732829521,1.0463181301,1.0097815282,-0.6658066347,0.1324588034,0.7647656808,-0.1309500493,-0.3882987967,-0.0507380546,-0.2545856892,-0.1557709007,-1.0261771421,0.9925077727,-0.1280916678,0.759780536,0.5874511941,-0.8561922996,0.4493637853,0.4629225518,-0.6412403886,-0.4916552844,-0.8004997184,-0.1327120823,-1.1675546731,0.377208377,-0.0512649463,0.6115438635,0.2278075746,0.8364292489,0.075989319,-0.341811002,-1.7146829173,0.1915513364,-0.4589856419,-0.7535254976,0.9455285326,0.5736756025,0.2990316082,-0.2114026971,5.2723044629,0.7685052699,-21.6440180598,0.1176761055,-1.8966996106,-0.185685042,0.006625451,0.2656987262,0.9150676438,-0.5492901783,-0.578579643,-0.7170638611,-2.1440100348,0.9475958183,-5.4694326387,0.4908867723,0.5130182982,-0.4018133771,-0.5597508634,0.4880586309,-0.9032070701,0.1731796598,1.0093561856,-0.2203873128,0.893895792,0.4310351672,-0.2425157358,0.6969969944,-0.131088524,-0.2018000209,0.1150090033,0.240127299,0.9218515127,0.689480177,-0.3521507402,1.1488841783,0.29493385,0.0819711943,0.3958191711,-0.3400195156,0.3429917842,0.1410012061,0.4068409495,-0.0273528491,-0.4656841143,0.9796249178,0.0464438028,-0.8453492405,0.2589725582,0.2467095484,-0.4139065668,-0.2448268261,-0.3857001016,0.9397209237,-0.4197296977,-0.8933656985,0.0870948652,-0.6178871265,0.1714883291,0.6743004014,-0.3820818202,0.3867997747,-0.6248739493,0.9726601103,0.4766817251,0.8517206469,-0.7174721227,0.0814664188,-0.788133078,-0.3594722781,0.3016257209,-0.5804168331,0.6914206039,3.0584690323,0.1741855068,1.0570632467,-0.2563468837,0.0374121296,0.4260637119,0.7117371437,0.2867822032,-0.6438737093,0.6700036181,0.3590394424,0.6527347381,0.6891188147,-0.2796741172,-0.8544421258,0.2889999464,-0.5719168105,-1.0605913346,0.4979003596,0.2205100948,-0.770908861,-0.7656258227
