encog,BasicNetwork,java,3.4.0,1,1667680036102
[BASIC]
[BASIC:PARAMS]
[BASIC:NETWORK]
beginTraining=0
connectionLimit=0
contextTargetOffset=0,0,0,0
contextTargetSize=0,0,0,0
endTraining=3
hasContext=f
inputCount=784
layerCounts=9,75,101,785
layerFeedCounts=9,75,100,784
layerContextCount=0,0,0,0
layerIndex=0,9,84,185
output=0,0,0,0,0,0,0,0,0,0,0,0,0,0,0,0,0,0,0,0,0,0,0,0,0,0,0,0,0,0,0,0,0,0,0,0,0,0,0,0,0,0,0,0,0,0,0,0,0,0,0,0,0,0,0,0,0,0,0,0,0,0,0,0,0,0,0,0,0,0,0,0,0,0,0,0,0,0,0,0,0,0,0,0,0,0,0,0,0,0,0,0,0,0,0,0,0,0,0,0,0,0,0,0,0,0,0,0,0,0,0,0,0,0,0,0,0,0,0,0,0,0,0,0,0,0,0,0,0,0,0,0,0,0,0,0,0,0,0,0,0,0,0,0,0,0,0,0,0,0,0,0,0,0,0,0,0,0,0,0,0,0,0,0,0,0,0,0,0,0,0,0,0,0,0,0,0,0,0,0,0,0,0,0,1,0,0,0,0,0,0,0,0,0,0,0,0,0,0,0,0,0,0,0,0,0,0,0,0,0,0,0,0,0,0,0,0,0,0,0,0,0,0,0,0,0,0,0,0,0,0,0,0,0,0,0,0,0,0,0,0,0,0,0,0,0,0,0,0,0,0,0,0,0,0,0,0,0,0,0,0,0,0,0,0,0,0,0,0,0,0,0,0,0,0,0,0,0,0,0,0,0,0,0,0,0,0,0,0,0,0,0,0,0,0,0,0,0,0,0,0,0,0,0,0,0,0,0,0,0,0,0,0,0,0,0,0,0,0,0,0,0,0,0,0,0,0,0,0,0,0,0,0,0,0,0,0,0,0,0,0,0,0,0,0,0,0,0,0,0,0,0,0,0,0,0,0,0,0,0,0,0,0,0,0,0,0,0,0,0,0,0,0,0,0,0,0,0,0,0,0,0,0,0,0,0,0,0,0,0,0,0,0,0,0,0,0,0,0,0,0,0,0,0,0,0,0,0,0,0,0,0,0,0,0,0,0,0,0,0,0,0,0,0,0,0,0,0,0,0,0,0,0,0,0,0,0,0,0,0,0,0,0,0,0,0,0,0,0,0,0,0,0,0,0,0,0,0,0,0,0,0,0,0,0,0,0,0,0,0,0,0,0,0,0,0,0,0,0,0,0,0,0,0,0,0,0,0,0,0,0,0,0,0,0,0,0,0,0,0,0,0,0,0,0,0,0,0,0,0,0,0,0,0,0,0,0,0,0,0,0,0,0,0,0,0,0,0,0,0,0,0,0,0,0,0,0,0,0,0,0,0,0,0,0,0,0,0,0,0,0,0,0,0,0,0,0,0,0,0,0,0,0,0,0,0,0,0,0,0,0,0,0,0,0,0,0,0,0,0,0,0,0,0,0,0,0,0,0,0,0,0,0,0,0,0,0,0,0,0,0,0,0,0,0,0,0,0,0,0,0,0,0,0,0,0,0,0,0,0,0,0,0,0,0,0,0,0,0,0,0,0,0,0,0,0,0,0,0,0,0,0,0,0,0,0,0,0,0,0,0,0,0,0,0,0,0,0,0,0,0,0,0,0,0,0,0,0,0,0,0,0,0,0,0,0,0,0,0,0,0,0,0,0,0,0,0,0,0,0,0,0,0,0,0,0,0,0,0,0,0,0,0,0,0,0,0,0,0,0,0,0,0,0,0,0,0,0,0,0,0,0,0,0,0,0,0,0,0,0,0,0,0,0,0,0,0,0,0,0,0,0,0,0,0,0,0,0,0,0,0,0,0,0,0,0,0,0,0,0,0,0,0,0,0,0,0,0,0,0,0,0,0,0,0,0,0,0,0,0,0,0,0,0,0,0,0,0,0,0,0,0,0,0,0,0,0,0,0,0,0,0,0,0,0,0,0,0,0,0,0,0,0,0,0,0,0,0,0,0,0,0,0,0,0,0,0,0,0,0,0,0,0,0,0,0,0,0,0,0,0,0,0,0,0,0,0,0,0,0,0,0,0,0,0,0,0,0,0,0,0,0,0,0,0,0,0,0,0,0,0,0,0,0,0,0,0,0,0,0,0,0,0,0,0,0,0,0,0,0,0,0,0,0,0,0,0,0,0,0,0,0,0,0,0,0,0,0,0,0,0,0,0,0,0,0,0,0,0,0,0,0,0,0,0,0,0,0,0,0,0,0,0,0,0,0,0,0,0,0,0,0,0,0,0,0,0,0,0,0,0,0,0,0,0,0,0,0,0,0,0,0,0,0,0,0,0,0,0,1
outputCount=9
weightIndex=0,675,8250,86750
weights=##0
##double#86750
   -0.7577340163,-0.2204857888,0.8204437676,-0.6035895774,4.3354985006,-0.0006955239,-0.3585096465,-0.1537960732,0.2675328307,-0.090066859,-0.2025278183,-0.29813223,0.7058157626,1.6712042009,0.0794381672,-0.0724775619,0.2591088083,0.1350493986,0.1524764996,0.6647375565,0.0264655383,-0.0640022871,-0.2670976284,0.6045718223,-0.8845687206,-3.4674064026,-0.302878836,-0.3889914862,0.1324882917,-0.0465090423,-0.0666706489,-0.02218054,0.1405564401,-0.1352994683,0.2298639472,-0.5497585916,-0.5380628365,-0.2042190141,0.1447738215,0.1341279659,0.0043698778,-0.0999422692,-0.0108097765,-0.0951301789,0.2430201845,-0.1766635739,0.2400726053,-0.0029189485,0.106940856,0.4769939145,-0.0397454827,-0.2361798948,0.0254240654,-0.0961049197,0.0676881182,-1.57811119,-0.5688069508,-0.4490634464,0.892796735,0.490236831,-0.1362482407,-0.0674332327,0.125043904,-0.022333616,-0.0912479795,-0.0827520946,-9.890241282,0.7852683704,-0.1761133944,0.074025381,-0.2695853461,-1.1405117835,0.1868656171,0.1288734259,0.0600074782,0.7667332775,-0.136196564,0.633384193,-0.9147069271,9.4912461272,0.221119929,-0.0286558624,-0.2095164276,-0.2905135468,-0.0174916372,0.1314667992,0.0220980941,0.6329690189,0.2477710844,-0.8727169618,-0.0387716015,0.1763359273,0.3094987269,-0.2891340389,0.0743556442,0.1179491112,-0.9507334301,-1.0787518023,1.7294852465,-0.1069536753,-0.6544202838,0.6266799497,0.0982411707,-0.1261452526,0.084827917,0.1194387369,0.3480130922,-0.1423563981,-0.3872900676,0.2117142407,1.4853079732,0.422437334,0.1256936117,-0.0098362552,1.040486069,-0.077314967,-0.2485747465,-0.1927156968,0.0122672431,-0.1116501358,-0.12492195,0.0203468114,-0.0989226949,0.3922697139,0.8197837466,0.4099823957,0.1859602242,-0.2845016533,0.1123588884,0.2164173983,-0.8658568887,0.1466381035,0.4267933902,-0.5993485389,-0.2821856313,-0.0483587471,-0.1264974695,-0.0024044875,-0.2349303013,-0.1275974098,-0.1643286349,4.6160625075,-0.4242781218,-0.0896335576,-0.126786233,1.2996539399,-0.5113912706,0.0030218931,0.0228251683,0.2489169494,0.1705340267,0.0309871141,-0.8706363329,0.1868985718,1.2548711137,-0.194376213,0.8422904553,0.3590014368,0.4313610994,0.1414447511,0.2832175484,0.1846950104,-0.4760376142,0.0924463748,1.4446985479,-0.2816365105,0.0187899627,-0.0303136089,0.1449101636,-0.4105952314,0.0077647127,0.0847914715,0.4322255385,-1.3181193906,-0.3926569914,-1.7566245912,-0.2792650441,0.6593675708,-0.2619482278,0.1381746963,0.0069384121,-0.3135253237,-0.2306094274,0.4965141313,-0.1046014096,-1.9880912446,-0.2507653475,0.4502291947,0.09394886,0.376201279,-0.9565265047,0.1861714972,0.1136461227,0.1278168182,0.0745788428,0.1663560104,-0.1145067302,-0.0626560023,0.1111925381,-0.5440824702,-0.0194060098,-0.0136307977,1.4086432506,1.2767893994,0.8098864057,-0.4894428891,-0.5302623759,-0.0035395374,-0.2448106616,-0.1379836309,0.1163884377,0.2568912807,0.1376340805,0.0851191817,0.1100798217,0.1449548184,-5.0954629549,-0.4426801043,-0.078913559,-0.4482822664,-2.5633500884,-0.1746715495,-0.0780241568,0.1399902931,0.8914864316,0.0620086308,0.0886628684,0.9105505519,-0.5300843237,0.7531944841,-0.0030024248,-0.0618235703,0.0115817935,0.0827807467,0.0824158471,0.1361095487,-0.0654521856,-0.1763278627,0.184666832,0.003971785,-0.2583309489,-0.032736647,-0.6814892332,0.0839971808,-0.3424639104,-0.0087595323,0.4049290735,-0.1165258977,-4.2352002402,0.2850931659,-4.5599617838,0.060828819,0.0457121958,0.0092537263,-0.0968189876,-0.0216758458,0.3603963185,-0.1244034275,0.2982919673,-0.1216506341,0.1181553874,-0.4415064484,-0.212163417,1.7576877934,0.3517282268,0.1230765022,0.1224726874,0.1790627553,0.0034062761,-0.4994044984,-0.0097667799,-0.0835213288,-0.205766873,-0.4713779979,0.6528722035,-0.286143149,0.1019668462,-0.1695976358,-0.0374801793,0.1969181594,-0.4759225555,-0.8498341971,-0.0782230764,-0.0915858457,0.0088975597,0.2513813102,-0.0254451799,-0.3206994633,0.3155406362,0.0015035438,-0.0742970538,-7.0886561942,1.2004841464,0.0954052828,-0.2439809461,-0.1604867937,0.5278566073,-0.1446023687,-0.393456327,-0.1228412862,0.1579347477,0.048353414,-0.6394841962,0.2557212733,-6.8921351981,0.9569245411,0.7267949464,0.357629533,0.2166490332,-0.0476956889,0.020080862,-0.006937134,-0.4730410345,0.5312402373,1.089229711,2.2660167493,-0.1808983821,0.1736313194,-0.0230099766,0.710977521,-0.0307392952,0.5470244456,-0.1448150983,-0.9529092285,-0.633101737,-0.5612451343,-0.329091034,0.4607270372,2.1583549293,-0.1098402824,0.7166532164,-0.0290388355,0.0589836549,0.0613681696,-0.0234303346,-0.2398896931,-0.6441788791,-0.4055763716,-0.2008380852,0.4126537586,-0.0141883544,0.3321646647,-0.0467944287,0.0103150273,0.1296373293,0.1115589301,-0.0187298717,-0.0288912014,-0.2515502402,-0.8024950095,-0.0941370328,-0.222607434,-0.2031171977,-0.1603207743,0.9379571773,-0.3997724625,-0.3459473114,-0.1166161876,-0.0765385493,-0.1213427952,-0.3579991876,0.0045693558,-0.1641879222,-0.2109791417,0.2914642216,0.0716104213,-27.2680100586,-1.6864634047,-0.0118815732,-0.1412902626,0.1424491633,0.3642028884,-0.0019411596,0.5116667109,-0.0812405698,-0.1798281006,-0.181103994,-0.109459671,-0.0782564763,1.8916515058,0.0611099803,0.4681026473,-0.4589132271,-0.0756363671,1.046577672,-0.0693638164,0.3048619012,0.2258194121,-0.2887004878,-0.1049295064,0.1411518694,0.0151618817,0.6535921446,5.6199745118,0.6575266943,-0.0388132113,0.0242113099,0.6499310907,0.6392359875,-0.8023614163,-0.0246660437,-0.0644672895,0.1445831183,-0.4589686302,0.1685943217,0.2695768064,-0.789631504,-0.0391378018,0.0688040976,0.0633610962,-0.1989771826,0.2957994196,0.3442298555,0.0010162664,0.2172384985,-0.0043248368,-0.1779240464,0.1677413184,-0.1824772811,0.2691224545,-0.0213160549,0.1683979241,0.4969777367,0.3944385491,-0.6812433196,-0.6035690886,0.2171091055,-0.0922869298,0.0484993695,-0.4142849158,-0.0716492557,-0.3416493265,-0.0042026542,-0.4341669138,-0.0077595366,-0.0447476622,-0.0702871841,0.2247752113,-0.2242212768,-0.0008983869,-0.3477834123,0.6078677777,0.2021611288,0.0687587583,-0.2414748485,-1.0643514008,-0.0069897487,0.0943468738,-0.1586909004,-0.35145368,0.0830083597,-0.0427869073,0.8262169015,-0.648920385,-1.5365685547,0.0203422959,-0.4536108393,-0.1610650096,0.2181509704,-0.0479778021,-0.1882638886,0.0305387208,-0.5038627356,1.8882838866,0.0200119372,-0.1365702125,1.0323546439,0.0750695223,0.0890030054,-0.6943435771,1.0697222428,0.2750438576,-0.5413750384,-0.1791981085,0.5322274804,1.1014908292,-0.0383372659,-0.8224217161,-0.1145982462,0.0801563695,-0.1483177881,-0.5191224292,-0.0852761022,-0.4364897431,0.1324985028,1.6160432391,0.3466968296,-0.0976257543,-0.1660412555,0.1958243312,-0.0870616044,-0.0365632115,-0.0197080028,-0.0196199763,-0.0782066533,1.349910176,0.9993012343,-0.0660341938,0.0884376173,0.1897101604,0.2557718459,0.2025150173,-0.1738891788,-0.2083619797,0.6225693668,-0.1969819388,0.003875287,0.2196772674,-0.0882149384,-0.1063070762,-0.0297763887,-0.2809143445,0.0921339039,-0.0321711879,-0.1975621655,-0.2707103509,1.4098877952,-1.7545325681,0.0866238312,-0.4582890675,0.6295594697,-0.1022288738,0.0494880062,-0.1493375254,-0.3220694307,-0.2595077984,0.4713471235,1.0241848142,-0.0762372866,-0.0621488532,-0.404337144,-0.2709174381,0.2877419989,-0.0707996815,-0.2158710577,-0.2024320417,-0.0578314681,-0.3254694007,0.6786508437,0.848450794,-0.5328174045,0.0133934782,-0.5333729205,0.0162662991,-0.739163192,-0.1191935528,0.1099486635,0.4875313386,-1.4560363863,0.1446246543,-1.1843236013,-0.1283776035,-0.4896011508,-0.1894269318,-0.1543022286,0.3919394717,-0.714193725,-0.1269039359,0.2860779777,1.3907592901,-0.1809189816,-0.4261636801,-0.1264440637,-0.4484435684,-0.2495668804,-0.2790375954,-0.2481570311,-0.1909465183,0.0302981631,-0.052969139,0.0050604669,-0.0965536881,-0.1641141074,-0.6538547122,-0.6500942137,0.3219042555,-0.0654055854,-0.357664894,0.0408046568,0.9457993033,-0.1485730674,0.326849603,-0.1487123327,0.0824804605,-0.1558321433,0.3135466774,0.1573327272,0.224806275,0.8739072066,0.0451065592,0.1839251699,-5.9368565182,2.2989288495,0.0873130029,0.207443116,-7.7831451632,0.3103281579,0.1428984614,0.259939333,0.1767462846,0.4517147972,0.1799222071,-0.4780948106,0.5942442164,3.9309506171,-0.0517602403,0.4455317092,-0.1973329963,-0.3495801335,-0.0172309899,-0.016790755,0.0627520544,0.3473390533,0.0191326462,-0.274132161,0.1030442865,0.3077413435,0.1979567686,-0.0748488929,0.7658029125,-0.1650513886,-0.1136044848,0.0956785552,14.6391759469,-0.8336753686,37.2884323593,-0.0211850714,-0.7172094453,-0.0299136849,0.1851032097,-0.0433914408,-0.2405238549,0.021796599,-0.0366149901,-0.0155938662,0.1740775128,0.5336662765,-0.0564688307,-0.108341548,-0.0870872322,-0.1939721287,0.0217118454,-0.1310881541,-0.0099723167,9.228600885,-0.2444566114,0.0178081009,0.0814981561,0.2325928685,-0.4319476119,0.4240198857,0.1930418821,-0.0572112429,0.0921776743,-0.0400081995,-0.1369293196,-0.4858390658,0.2666343389,0.0381007181,-0.0378323699,0.0599334697,0.4970569051,-0.135090172,-0.0226877332,0.8694063469,-0.2496886653,7.8023336784,-0.8793568974,0.0797207694,-0.0528616666,0.6662045508,52.5586592861,0.0819619776,351.4429610418,-0.2151739427,-32.1702394656,-5.7133153267,-5.735490339,8.4853237167,1.3322150607,-1.3143259565,-1.5381461683,-2.8860057164,-4.8783919948,-2.3347075374,-12.558036974,-0.7476666323,-1.2514765256,1.3435443578,-3.4134373772,3.3053729784,-31.0147729646,0.4894590524,0.2694772981,18.2512913513,-1.1225858803,0.9477923302,-1.055499608,-0.7734747413,-3.9509914713,-3.6230425464,-6.9106090264,-0.8087185296,-0.3138446758,-103.9985955032,-1.2897784694,-4.3604408071,-1.2835361852,-0.5826520166,-0.9257273123,0.8700722515,-8.6052686192,-0.2661303171,-39.5304007146,-13.7964693936,21.3694569653,0.4716760993,-12.5761983398,5.5569411799,-3.3240610853,-1.1880304895,-9.7297203046,0.1503016336,-1.418247249,-0.0828433623,-52.1262314934,-5.9731967023,-1.9747163048,-1.6134318969,-0.7628986652,-1.6453456869,-3.0312708881,-5.4361797798,0.3651755147,-1.6851077335,-1.5872794088,-5.7340574326,0.0141470634,-0.8883211275,-6.7282503234,-7.5745133725,-1.1560024214,-2.0137416286,-27.3339174938,-2.5157160044,-4.1859091709,-2.0433285385,-7.2737891808,-0.1033670452,-0.9459434938,59.1605046224,1.688984603,-1.4616732656,-60.0199623129,-3.6447991003,-3.9564001014,-0.5550272786,27.4160258691,-7.6968497783,2.2617274547,14.7813260967,1.4439437834,17.4006550869,15.5208228944,-1.0072344181,-0.9856110085,-1.7433133829,-7.7064070044,-0.5954947949,0.9356476335,-1.8997230154,-2.9998226198,-2.4578739982,-15.8687783093,0.0381526386,-1.3391885129,0.2928067803,-2.9691192183,-0.7281646318,-0.6072500126,0.2752822973,-7.8772975123,0.7804838771,-0.5261228355,-16.3773667104,2.4414846794,-2.0574686871,-0.8654712022,-8.020251289,-0.6206167735,-1.0700277859,-0.889427545,0.6915252805,-6.6406254812,-1.9666419503,-0.5226525916,-0.6134565865,-0.8355238744,-2.1560874064,-2.67383146,-2.4819409236,0.2751684403,0.2815112328,0.6656281422,-1.1481743401,6.16931577,0.3999583318,-1.5487446484,-1.3684046709,-1.7211371294,-1.7520788083,-4.6814236429,2.7069279268,-1.2250971631,-5.4205509002,-5.1495837774,-3.5760838557,-1.156173949,-5.0974540484,2.1396219396,-0.4101410658,-2.8236097735,1.0296259911,4.0206043517,-0.2079254019,0.1739480406,-145.2673260924,-2.4655187006,-0.4739360599,0.0831470592,-2.1882878772,0.205538528,-7.5700631754,-0.5731800142,-2.1781545313,0.8315740038,-0.5339640429,-0.6355655969,-7.0955339142,-0.4106958377,-0.0101331504,1.5341232207,-0.0370783184,1.1033665915,-1.2177466772,-1.3492331943,-3.4862549283,-0.755671668,4.8074611885,0.7102847076,0.078799587,-20.4991003399,-11.4236522001,5.0505244921,0.1952286972,-1.5686221746,-1.4138041326,-0.7779157518,-10.9727956857,-2.9030223828,0.7633971733,1.7134318144,0.0045093066,-1.2536661138,-147.1914659901,-0.616505316,0.6414711109,-1.147948006,-1.062938287,-0.1141074311,-6.8063661489,0.4167528837,0.2824482782,-1.1408020638,0.6834240959,-5.3462124535,-1.3625740446,2.4717366716,0.4023784364,0.1341232152,0.1458107995,-0.7271838901,-0.3295713675,0.1796977079,-0.5047605543,-0.8526466244,-0.5964664271,-0.2488101493,0.5869333539,0.301172394,-1.5127368116,-0.016550229,0.6124978941,1.0063325297,0.2858455993,-0.0367973901,-0.0146195826,0.4301456883,0.3946572669,-0.2982930174,0.5122875021,-0.115675839,-0.099052713,0.2625200939,-0.4258277663,-0.4122885852,0.9652911116,0.2962526122,-0.3838360366,0.5584229329,0.1279095467,0.5425866457,-1.4079327894,5.0474560984,0.161338971,6.3656361281,0.3527763445,0.8099702964,0.2843579285,0.3183738656,-0.1954907665,-0.3908525284,-0.3037006817,-0.258231431,0.046510314,0.7861882573,-0.0147717492,-1.6990019807,1.2647477361,-0.1675405945,0.2833884514,-0.2545803203,-0.1581385254,0.7406730289,0.4518050713,0.1652425463,0.5756477529,0.4507182019,0.3515690716,-0.4536119412,0.0254144343,0.5188583468,0.3911636907,-0.4739533576,0.6634931655,0.4705110576,-0.041396588,-0.2730085569,0.222988294,0.886007438,-0.7503945126,-0.5374029816,-3.0771473656,0.9074534932,-0.637384998,-0.6369811721,-0.4323361962,0.8496023413,0.5656852281,-9.138595658,0.8679369636,0.7535905438,3.7160754885,1.1956486525,29.2030139432,2.1923622641,0.4147618833,-0.1315793283,0.4485343958,-0.6336989905,-0.2527847852,-0.1445933878,0.1860104772,-0.3158797949,0.1562506088,4.9888443833,-0.2165876065,0.978315635,-2.0441011815,3.0946643664,0.8456219853,-0.3892617581,0.7607797428,-0.2354276367,0.0392306971,2.4994825516,0.6865563946,1.2600902385,5.0482253606,0.2728199627,2.3084756397,-1.0292180365,0.3581486196,1.9540905487,2.1704932372,-0.2724009189,-0.8626587728,-1.8489559396,-0.2636795979,0.4055353464,0.0810475289,-3.2081699,0.4593617543,0.1509106098,0.1916436553,0.888324607,0.2403633533,27.3303433406,1.442914969,1.0315643161,1.2242471325,1.7986683239,0.8842369999,-0.8787427532,-4.3689473648,-1.4170714964,-16.3959977107,-2.6036021901,-3.152882656,-0.3315122677,-0.8288449407,3.2505275849,-0.1836861305,-0.8594902743,0.1016646828,1.6073012154,1.1965492781,-0.3269324603,-3.1311781379,-1.2844460446,-0.2494429788,0.6567443703,1.8606426778,-0.445167033,0.4208192967,0.9921961852,-1.8829226374,0.6062506256,0.4578289665,-0.8383850294,4.4912749955,0.1555920549,-0.3833657802,-1.2685968232,0.3932442312,0.2686608988,14.3991573024,0.7371712831,0.1799358157,0.0005843139,0.0911443974,-0.9205190867,0.1335028938,10.7203854498,2.7195845737,2.4646402033,11.5859062687,-0.1771892941,0.9236228109,1.128420673,5.3411345194,1.4335985739,0.4418427836,8.3043989663,0.110485731,-8.2203960762,-1.3202513,1.2236604102,-0.4507171246,0.9387201025,-0.6254285198,-0.3052207506,1.983621117,0.2650102182,0.8799325903,1.4944120315,0.5981413013,-1.036956663,1.4391148501,6.7326561586,-2.1719339585,-0.4149070901,0.2128264777,0.2814639515,-2.1491940783,-1.3950860042,-1.3609761737,-1.8080589037,-0.0561630498,-2.8252188076,-2.2475042356,0.7514301046,-3.1190854913,-14.3319654339,-3.4423754122,-4.4827714138,-3.5303972259,0.9869596722,-1.4349639262,-1.2545766324,-1.7362104085,-1.7238410533,-0.6884775601,-20.0729781927,-0.0964643511,-0.5205155657,-1.3031705175,-0.473897806,3.2153867916,-1.3701772936,-1.7115627413,-0.95676586,-1.2598477204,-4.5226811484,15.2626658175,-5.188505314,-0.8823171777,8.1492537027,1.0653310692,10.8353918665,3.150182726,-1.4183722683,0.7590418684,-1.2864731517,-0.903742619,0.302437103,-4.2224096533,-1.1980934503,-1.1420165613,-1.7523376505,-2.2659711977,-1.2131233599,-1.5714032683,-3.0564067849,3.1831166537,-27.8375354729,-11.5376987416,-4.3405983805,-1.5105434859,-0.2229783071,-1.0219035228,3.6598450203,-1.5218396496,-18.0265663665,-1.853135116,-1.2044781759,0.3502020869,-36.3269525533,0.0293820295,-0.7562118108,-0.7353433317,-6.9588416043,0.1363531197,-0.7285505701,-8.1276416443,-1.7138921559,0.6244548561,-17.1424987597,-0.4627037165,2.7227191297,-0.2864899855,5.9584405985,-3.5194196549,-1.0233487511,-1.741146934,0.5934188651,-11.5295155479,-12.401119717,-7.668942601,-3.1005786767,-2.2510888581,0.4044289245,0.9902765496,-0.0109425054,-0.1572431421,-0.1929210745,-1.2780875694,-3.7860015835,-6.6992550281,-0.0736780929,-7.5603502771,-25.1946659041,-6.9756759778,-8.2783400723,0.1737072572,-9.8436912809,-2.3962091793,-0.5196421681,-11.5947830943,-1.0889836071,-45.2813109366,-0.1357092041,-0.7121618387,7.5088027684,0.3968760567,-1.3289254287,-1.7839871132,-4.1721907625,-13.1976103946,-1.4838615928,0.2814109987,-2.1381481445,-1.5277924796,-0.6438308971,-3.1313715173,0.2882044277,-0.750397757,-1.3776090958,-0.5412391644,-3.0283924449,-1.4741407254,-1.2618373797,0.7635442833,-3.6485264155,-0.2312788376,3.0319034666,3.1867831778,-2.1579688662,-6.200439322,-4.4988323522,53.8906972236,0.2506591962,-0.5405999921,-2.2928128486,-1.1386219738,-2.8131910589,-2.508482404,-1.2497229581,-0.7754266851,0.1774364153,-0.6792725348,-5.0362554028,-0.3981736235,0.1194756997,-0.9294898165,-0.2685763063,-2.0149905263,1.5302888915,-1.2196681709,0.1039331936,0.2629836187,0.6072820423,-0.2507517163,-0.5208793427,-6.6801212164,-0.7274499783,-3.740112096,-1.982280385,2.2336643411,-1.392991493,-1.6528275687,0.0977739589,0.5904613371,-0.4767195519,-0.0281008113,14.6087992698,-44.0336751426,-1.1945238162,-3.8496994636,-1.65842039,-0.0337857841,0.0412560615,-6.5637341479,0.3376664341,-3.011620596,2.3166726161,-2.9704877746,-8.2415226224,-10.7825355964,9.5175518513,-0.8621160645,0.038886911,-6.42350058,-0.8825382462,-0.1087534545,-4.0411594926,-0.288847963,-0.7238631178,0.5488303965,42.1590513508,-0.4673083079,-13.282710533,-3.4612639233,-3.2174671345,-1.3211067049,-2.1021254744,-1.6343029878,-1.7028457045,-1.6120771081,-2.6655140543,-2.0994450484,-1.9084147649,-1.9207989917,1.5243925981,10.156277151,-0.751182891,12.0943965786,-17.9187427643,0.2672454414,-0.5207660968,7.2313108404,-1.5848501529,-0.6341599637,-1.1289405324,-0.9767450788,-2.8075321231,-0.3020949822,-2.9222355426,-1.6973954344,-1.5361487543,-257.1940435753,-3.0674012566,-1.9923621006,-1.5708001178,-3.0348525894,-3.0890292678,7.0235277396,1.3361207903,-0.728961085,-31.93549876,-4.9793006713,3.8362688357,1.6980971348,-2.6849254063,-4.6336193586,-2.3859249261,-3.6460281456,-1.2596579869,-1.2465948302,-1.5395520375,-2.4058991052,-24.9583553432,0.4981346677,-2.4866613054,-1.6465075162,-0.9522498569,8.2239695371,-8.0262565059,-1.9862074127,-1.3398655496,-1.3759511546,-1.9127704537,-7.8223065175,2.8857394854,-6.6363295204,-0.1099870391,-1.8030411961,-1.6770053692,-3.3550251145,-57.2665570603,-2.0580200105,-1.8520255063,-3.0794267991,-15.8764094047,-0.7403400768,-0.8379982749,7.2964779194,-7.0081950385,-1.7092158966,0.4562411177,-2.9714950684,-4.1430881524,-1.4869454641,-61.8370141736,-3.1318804358,0.205250247,3.7407679876,4.2747944159,-4.1625748451,2.4921400497,7.0808964221,-1.8136066829,-2.8915025086,-2.925065934,-2.5457055631,-1.6055838156,-2.239710633,-1.1173074941,-2.7688309178,-7.3456401396,7.651496119,-2.668635138,-0.871643745,0.8941927332,-0.2187009825,0.0479000198,-0.2242353115,-0.1332663792,-0.2851235495,0.7988965512,1.9427187125,-1.0930644253,0.5316654375,0.2011351878,-0.2281448729,-0.9459852108,-0.491660186,-0.2126876159,-1.0449328471,0.6084176057,-0.6700891991,-0.9982760061,0.5284929744,0.724195325,0.3152869318,-0.6307548014,0.4306064809,0.5299594828,-0.0291837465,0.5007627944,0.2715334189,-1.0777919015,-1.0865969038,0.5452363207,-0.5306450275,-0.4166313137,0.0577353277,1.2227366123,10.2343619847,-0.6832533246,-4.1605980787,3.3316368134,-0.502334228,2.4479297809,-1.6830251946,0.5561266458,0.7480285748,0.3252913697,-1.2659752882,0.0650561845,-0.1416307306,0.4405185253,-2.558105987,-0.0937610894,-0.3059552207,-0.2419433648,-0.7478571433,0.1909689514,0.6225759509,0.5065372596,-0.3580917954,0.4472398527,0.1241969659,-2.2133981521,-2.5275170145,0.6698317618,2.1755607255,0.3030737264,0.3232527566,-0.6018999082,-0.7023517162,0.2000657405,-0.2920476305,0.2579039155,-3.590129407,-0.2202004913,0.8700410518,-0.8882472555,1.702913532,-0.5604783301,0.4912653278,0.8209017152,-0.6677463965,1.8993949099,-19.9067042707,0.1255035492,-0.4087064303,9.6538904899,-1.6600014678,-0.0250542535,-30.2218296848,0.2891219478,-0.7810912934,0.177999366,0.7077823292,-0.0896854796,0.4448869367,0.8212128452,0.4575169314,0.3027957997,-0.0212539715,1.1513778817,-0.3308425359,1.7527301971,-0.622026952,-0.7697481986,-0.5172100323,0.2386843704,-1.6720244422,0.6078720861,-0.8043080763,-0.5902358025,0.30103779,1.4645635862,-0.3654631461,-0.1941221984,-3.078142882,1.9198708882,0.2566434675,3.4152321369,-1.4820173895,0.0673293352,-2.5297849822,0.0281503052,-1.8104157849,-0.7700700298,0.3507617373,0.7628529507,-0.0137803558,0.1102169924,-0.8804893166,-1.2591471234,206.8932703597,0.546985556,0.6349983794,0.3309932747,-0.470928422,0.2505516258,-3.6224310082,-2.3284407331,0.1743193236,15.397914428,-1.315864147,3.6302274802,0.4778372818,2.3248125793,-0.7346717309,-0.0218804635,0.8556762275,6.4599865799,0.1782663583,-0.8635957334,-0.5811324067,-3.7506150825,-0.5890061633,-0.517160566,0.8762140727,0.5670144397,-0.5004340166,-3.6487895855,1.2354975789,0.63382353,-0.5188838652,-0.9149655918,0.6737526604,-1.1124397794,0.3247348775,-2.4593554796,1.0668540806,-0.4719317837,0.2512883299,3.1697066857,1.6739959483,-0.5551721068,1.1019047702,3.8111015203,1.1810259841,0.374029074,1.8510384569,0.5417341758,0.3615295331,1.343319359,-0.2508576789,0.3914283437,-0.1216022374,-6.2967434307,0.1721088793,-0.415173534,-2.4798882272,-1.2984383579,-12.1817586126,0.2477523464,1.6896506147,-0.1056437867,0.9213862211,1.4517321502,0.2004806018,1.1165387477,0.5054875781,0.6037725934,0.7943896171,0.2640906553,0.86714183,-0.1689889265,-2.989308448,0.4271503333,-2.6145123098,-0.1066896487,-0.7109068996,-0.8504495277,-0.885175697,1.0164723483,0.7548275507,-0.4619402091,-0.4485120853,0.0760619389,6.1207091052,-5.7170109798,-0.9716606285,-0.2520357973,-1.2322109576,-1.6169707755,-0.3598130705,-0.4513221314,-0.553645463,-0.7284609978,0.1418290783,-4.8941402693,-1.4254458056,-1.8627158219,-1.3276259453,-0.9405124817,-0.4012580657,10.103351479,-0.8556902159,-2.167777934,-0.8139800411,0.397428885,0.8340719108,-0.7879495376,-8.0158999052,0.79035988,-8.6398730871,-25.7237541238,-27.5174841334,-18.71179735,-2.1779605561,0.5342031912,-0.7351776179,-6.9455988476,-0.5713840979,-0.078369237,0.5661358937,-0.1662223619,-14.9817409858,-1.6636199559,-0.0276325007,0.5645993004,1.545791401,-17.9899039986,-1.4657319482,-0.3250902861,-6.7530623136,-0.1246805755,-0.1659516663,-4.1916244981,6.4355363711,-0.6794889145,-3.0741743953,-1.8755267614,-0.4294865386,0.4843601982,-8.9863435627,-0.5600099159,0.4883514605,-2.3199382512,-0.7413232547,-0.4295813735,0.6417847135,-5.3448879038,-0.7750345285,-0.4425110058,0.1162052192,-0.5100037746,3.2511095317,-0.9228292801,5.7738428578,0.7062942457,0.2859603572,0.3618583098,-6.9873039607,-12.4159477822,-70.9392009885,-7.696257771,-0.6700508764,0.7796055648,-0.4059423519,0.7546419495,-1.7181511562,-1.8741951334,-0.8520830711,-1.5447930225,-1.4569569833,-2.6907370041,-0.2188862798,6.0215612341,-2.4715079471,1.1074653768,-2.074479624,-3.7554798097,-0.2743659496,-0.0151301659,-0.3959258555,0.324577246,-1.2140101023,1.7164271861,-0.6183184759,-3.3327072003,-62.7901289976,-1.8400998644,-9.7804371117,-36.5337836825,-0.4612079754,-1.9018961482,-4.6334449252,-0.1358381369,-0.3616885745,-0.4379931853,-0.5895896671,0.5259923052,-0.576755057,-0.7712849904,-0.3036631448,0.895773124,5.2178686376,-0.62375927,2.0979075256,-1.7089416728,0.5618260989,-0.7625010294,-3.2104182652,13.2315643377,-4.9675879628,-18.5721232191,64.5646254141,-8.2130639684,-0.3452228454,7.3514424251,5.9798393871,0.5551980608,1.5587560383,-3.6533642555,0.6679119248,-0.6875028993,-1.2400096606,-23.2097545437,1.19298142,-0.3391411107,-0.5912748709,0.2372049113,-0.6282856967,9.0198140497,-0.1641769593,-24.6318522609,-0.4207355415,-1.4137581302,1.4378794972,-16.9826666646,0.3695182005,-27.1655294899,-1.3589591393,-1.0958874945,-0.1664950075,-16.5816502436,-0.2956714858,-0.5919861729,-1.1506330794,-1.3427141792,1.0519233973,-0.8737866804,8.3774129411,-0.8391628441,-6.4309241142,-13.9746456092,-0.3936206242,-22.1401119904,-0.4036387745,-4.936149789,7.9894133206,-6.3553006142,-3.068702173,-7.9541999201,-13.4049307835,-55.8429194053,-10.5964172034,-1.720881825,0.4039087945,-4.0340812832,-2.6848179098,2.0244406275,-1.421704962,-0.881775469,0.5178104024,-0.3766249448,0.4675005956,0.1471116878,-0.953141444,-1.9486071667,2.8513966393,-1.823094893,-0.3160008272,-29.2966299809,0.3766769031,-2.2464049972,-4.1300075049,1.5835221591,-1.9170833104,-0.6455342609,-0.3090721285,-37.4961012452,-0.6470475067,-2.0619605083,-2.4512953979,-18.3493237648,8.0976147669,-27.3993906174,-0.7042017389,0.2957849882,0.2226170742,-1.4401988153,2.2466898073,0.7048221071,-0.2244671377,-1.5594836023,-0.4890089134,19.6041913065,-0.907152279,-0.4540480891,-0.7560723635,1.0593309667,-1.4970740898,-2.9133915853,-29.0140440412,-2.3296385703,31.3395151482,-8.9694956071,-46.7128849189,-18.1287912387,-0.050629314,-4.4404690862,-0.5735333948,-4.0897325366,-14.1263338736,-0.534300982,-0.1563631929,0.3405673717,-2.3309542491,-2.0520681507,-0.650730805,0.9864809167,-13.3548219369,-2.1959130305,10.0186611289,0.3764673433,-23.4971962386,0.4471667324,0.1968401405,0.0320982238,0.2103644416,-2.2079369854,-22.4166245082,1.8727497686,0.1265108286,-1.2943831402,1.1568658799,0.4376452242,-4.9853264097,-0.1666364501,-17.1520771208,-0.649110005,-0.1164138764,11.2474871375,-6.1761444019,0.4964683055,15.7458780988,-1.3892749972,-1.1692806531,3.5219053033,-0.5039625095,-12.6092589217,-0.2158524146,-0.2165445527,-8.1912022093,-12.0604244982,-43.3384418446,0.9194111595,-1.3434244415,-0.1720284066,-0.6027173915,-0.5634986398,-0.4738874794,-1.6527759906,0.7232666717,0.0318768137,1.1193304203,-1.8317101962,0.4846729255,-4.0327809834,1.742138977,-0.6196205811,-0.2793803411,0.7217394042,0.1490384379,-0.0764638743,0.3973025338,-0.0973517728,0.2365455175,-0.9388064626,-0.8342278911,0.7363094546,0.3584537466,0.2425450004,-0.5178511833,-3.9831509694,0.7686076035,-1.2057236875,0.0187653409,0.1689444775,-1.0176548979,-0.138561177,0.1830296169,-0.0372331969,0.6326842653,-0.1050585296,1.2514519498,0.9182386631,-4.0000564596,-0.7999662377,-0.8511797265,-0.6053425302,-0.3277730552,0.0007419734,0.2185527645,2.1152819647,-0.5690722249,-2.7008852826,19.6760247453,3.2278383896,-0.5343229906,-1.3408472151,0.9892396504,0.9478954482,1.1882023025,7.0336506652,0.9493619793,0.531464572,1.185904103,10.2841875506,-2.2184769036,0.3379940224,-0.3824100418,-0.1366157171,-0.3951780249,-4.3371179414,-0.0008589259,0.1252572826,0.2281367327,0.5113093705,0.1745665997,-0.9962459858,0.9631819592,-2.0915941448,-0.3663656072,0.2467219266,0.8443558036,-3.1655934913,0.3366120479,0.2007375809,-0.0702267679,37.0603488545,0.001874119,0.2560537399,-61.5288135562,2.2543729108,0.4085906075,-11.9890994244,0.3865913114,0.0737023507,0.7929113516,9.1248155453,6.654440462,1.0370611459,-4.1583721468,3.1692444604,19.6446142823,0.6916899385,0.2509323683,-0.4521313193,-0.4208904233,0.5821079605,0.2556061982,0.4455246536,-0.5095905634,-0.2321271308,0.1692445338,0.1647068515,-0.3441320472,-0.4852876651,-4.7544256222,-0.9617994305,0.8765104801,-0.4157913814,2.3142337614,-1.7486252552,-1.0268302616,-0.0088715847,-0.4464637073,-0.039845289,-6.0118983172,-0.5961464454,-0.682987999,-7.2810122162,0.9476305123,-17.8371276568,-1.3906878786,-4.4475424043,1.013100059,-48.4492630385,-0.1599516158,-3.5736376406,-0.2607121052,-1.0212929755,-3.4199724955,0.1369334987,1.4889601171,-0.1421746817,0.4667611771,-18.3979031868,-0.7214281198,-2.4619317362,-1.4503553591,-4.6305343087,-2.6077834523,0.2507788832,5.5346145665,-1.9696129591,-1.4375109934,-7.6206285242,1.665746403,-0.8410778532,0.6705495799,-10.3912218485,-0.197457321,-2.539832613,1.194753857,-2.8998176422,-1.3247878438,-1.1485774741,4.1151743641,-5.2203404867,-0.7159547025,-0.6244022977,-0.7302366853,1.7548597071,-36.9418696351,-0.8801988212,-0.5894486499,-0.0889698606
   -0.7058243246,-3.5902305157,-1.1630201714,-0.0464537036,9.0396292648,0.5399683762,0.4759849243,0.9840267166,-0.091434876,-1.2591059486,-5.6425520573,-0.6698400839,-7.3143147541,0.4351044094,-1.9328123531,-1.5298215936,-7.6361872155,1.1427989327,-4.9804652512,-0.9041423698,2.8936993291,-1.89771376,-16.2522221341,-11.9144037535,0.0339219534,5.3832384034,-4.8745502857,-4.1169042195,-17.2490116128,0.9150449841,0.0478147457,-0.2668597343,0.2722297493,0.8751978204,1.0725373845,0.093223033,0.7493304976,-0.4912896081,-1.9960000231,-1.9629087056,-0.3282567163,-6.923160017,-0.2116959468,0.1878441237,-1.2409905123,-2.0785682596,-0.79801612,-1.9933694203,-1.935429395,-3.493406404,-1.1003711158,-3.9989169603,-0.6192938728,-2.9840369942,-14.6311794938,1.20732479,-9.610256849,-2.8444676775,-4.122734377,-1.1812051913,0.1249289299,-0.7921017126,-1.0251617167,-0.8579303929,1.0138694303,-0.0562711941,-1.1861400839,-0.531062831,-0.9860179273,-0.0913384299,-18.4735230489,-1.7363880038,-0.398177972,-0.4512881052,-0.6443899221,-0.8123620666,-3.3783200481,2.1741521846,2.1136245293,-12.3191266094,1.751911879,1.6360675655,-1.254422924,-0.7405586113,-1.8664518458,-1.2067942905,0.4150392455,-1.7992410068,-0.9788918432,-1.0191652129,-0.7331475383,3.1248773623,1.8612332823,-0.1909974657,-1.0519557729,-2.2285545719,-1.4915476384,-22.6093480027,-0.2657707254,0.4024147653,-0.898491107,-1.133921987,-1.8554468652,-2.854523608,-1.0487577147,4.9826510413,-2.1213253687,-0.9118727383,-1.0760444399,-2.6461164806,-0.7844206111,-1.141504457,-2.8906333856,1.4113706157,0.4982118848,-0.0504679449,-10.0090846248,-1.2109740709,-1.0350572936,-2.7303825161,-2.1613439379,-4.117271669,0.4267730461,-18.2768554529,-1.2026738893,-1.1334462632,-14.089155711,-0.295577032,26.4588513727,7.9235702711,0.5955084828,-1.3709204896,-1.888120093,0.9940105145,-0.737756873,-0.3186018146,0.2451791468,-1.264395605,-0.1839170901,-0.2835269193,-2.2244885277,-2.1179203685,-11.7376786881,-2.1160155088,0.1232257153,-2.5837463336,-1.8083941103,-1.3202905823,-0.4511351246,-1.3768581806,-0.501104086,0.0892625033,0.8391236582,-1.3293550501,-1.2398175591,-8.4962533039,0.6539311311,-1.334464564,-3.9650798712,-1.7859350075,-4.0798349421,-0.0867077844,-0.4054290977,-1.7333498483,-1.603776651,-2.6226775405,-0.9611376652,0.8975729021,-0.922572265,-0.7199749746,1.3344611554,1.4139333814,-1.2318186862,-0.4523023798,-1.4098066989,-3.0506023149,-2.1488636096,-1.4320611593,51.7027757371,-2.54582866,-11.0532710306,-6.2596204263,-29.6980783604,-0.4687000904,-1.1596132356,3.4295892716,-0.5896871869,-1.729026737,0.2663334742,-3.5975029474,-0.7835129001,-1.2769303721,4.901739286,-3.5388972721,-1.7548689922,-3.1326963597,-4.3163247863,2.1289175863,4.0553446691,-1.6046685587,-6.8700064017,-0.6219233986,0.0101919806,-2.4948998823,-8.4873498676,1.264905959,-4.5357808662,-1.9774883161,0.4221395024,1.85438828,-4.4992357073,-0.5686891273,-0.2759865955,-0.0823690246,-4.600444893,-1.2544816193,0.8772553276,0.9626860723,-3.3020388467,3.7089362278,-7.2598176011,-1.6822697466,-2.4874907172,-1.3462504873,2.1895049992,-0.843895727,-0.9124151174,40.7265790461,-3.907358231,-16.809657653,1.9676915134,-4.1033198277,-0.3668863,-0.1412774426,-2.9472459212,0.5055688044,-0.8969603038,-1.6082150818,-0.2205870441,-1.0800825892,-2.4698704353,7.5643916587,-0.7656447667,-0.1770689228,-0.5904502967,-1.859324376,-3.4128349431,0.342074276,-0.8837628629,-1.317993798,-1.1030688605,-3.0653823964,-0.2200284564,0.1259985133,-0.5892216945,-4.9100150927,4.355726682,0.0759589715,1.0177953408,0.8934647085,-1.9619415137,-2.2112305247,-12.9034033391,-2.476059741,-4.1058480069,1.4251584756,-2.1019691161,-0.1713192614,0.4927015872,1.4762303255,-3.5919524076,-5.9293866372,-12.0071361033,-0.7551551395,-14.3096515129,-0.4758329632,-2.1156570849,-0.6951751408,0.8599028387,-29.0670180013,0.7916125951,24.9215237901,-12.5379757135,-12.7437418015,-0.2948020005,7.9546710946,2.5448736083,-4.4386838495,-8.4853570164,-4.5170019588,-6.0337878052,0.0072108341,-1.410909865,-4.0403684632,-1.6271689351,-0.6851503081,0.7613006021,-1.2146834069,0.8144835189,6.7827874106,5.3313120418,-2.7203104649,-1.701209098,-0.1016531982,-2.5683550563,1.6585072018,-1.7072233624,-0.9013631509,7.2159268942,-0.8061667883,-3.5771284451,2.4601003449,-1.629301917,-6.9880566427,-0.8082865564,-10.2128321277,-0.3246299776,-2.6829785641,16.6474091079,-2.8944002117,-0.8398399034,3.991433837,-1.2573419701,-2.4149314654,-1.1072902296,1.0733627825,-12.8743453513,-1.5801593584,-16.3909627978,-1.9209990538,-49.5355857251,-2.6440827099,7.6514974817,-2.4580981729,-1.7924790284,0.44701763,-2.1388441298,-10.4820154553,-5.4668524429,-1.4877104691,-2.9935490811,8.8761244078,0.1115043136,-1.3575047096,-0.9136385785,0.4815312757,-0.4162424989,-0.2014367285,-0.0672408241,-0.9455629424,0.1874618314,0.4504152441,0.7319294032,-0.7569653342,0.4751040476,-0.7072534361,7.1701785343,2.9564299231,-0.3552291608,-0.0446138458,-0.7051152704,-0.0038619371,-1.0402731815,-0.0998527018,-0.1958192426,0.8828975744,0.5340654856,0.4942882215,0.1328102302,0.7083944963,-0.5381339854,0.2408312283,0.0231468042,-0.7046336856,0.0113954021,0.1221480653,-0.4770427284,-0.2900458121,-0.1334837743,-0.3693172595,-84.1037695037,0.6697116687,-0.7628372587,0.9691397693,-0.7169916351,-5.3398960136,1.8634492535,2.7606360031,-0.2909886562,-0.3856168517,0.5990321137,0.7763472159,0.5201432607,0.7227112581,16.0883144634,0.9292026767,0.2997863278,0.4116110182,-0.9277504253,0.6939316385,-1.2981117954,1.3439362968,0.9094741261,0.4238813114,-0.4474902488,0.3874561285,6.054136855,-0.131784465,154.2117096853,-0.6992502243,0.5140270946,-0.8040362461,-1.0502571431,0.0378928489,1.2960774157,0.3606126964,56.3485087748,-0.1699996639,-0.6338685277,1.8525640216,-1.0221225135,1.0497117479,-0.6523487381,0.3962218308,-0.2379761145,0.1524135562,10.33272007,-2.517335047,-0.1842226928,1.764188431,-1.2731360817,-13.0595614055,-1.131863877,1.5838027959,-0.144902168,0.9006775285,0.9244582528,-0.123570559,2.3431603197,0.8054912175,-0.643762013,-0.2215600406,-0.0818750767,7.4241905707,0.117660016,-3.0073621361,5.0338355701,-1.1620439649,-0.1781015873,-2.0235006664,-0.3674563057,-0.2665864165,-1.0742118454,-0.4634075465,-1.0418351587,0.8993134544,-1.3109778692,6.0222256225,-144.7897440407,-1.3946133548,-4.5071301396,-1.8160675112,0.0332375413,6.1008886227,-5.7787403774,-0.5325947192,0.3342527468,0.1104256383,-0.747408556,-0.0952283692,-2.2242164311,-0.4502725705,-0.7314885361,-1.7138060479,5.8010498477,0.2076439555,-1.6396469057,-1.2933720589,0.7624299218,-0.7515559552,1.2810743601,-19.581836832,-1.2555682593,-5.4116650649,-1.2740612998,-5.5547084877,-6.1954027104,-1.1362855639,-2.341671913,-1.0304032078,-1.8247799802,-0.1498595534,0.9262952429,-1.0842143436,-1.136303794,0.0092525085,-0.5210637145,-1.425620208,-0.7984763642,2.7504499529,0.0851820629,-15.9590352609,-3.3876209987,2.443356292,-26.173322517,0.0158615009,0.2503649272,23.3370739259,0.3697108942,8.837137383,-0.1039671105,0.7246180525,-1.1145564106,-0.5853071213,-0.994731865,-1.6628927745,-1.2717670198,-141.8415897432,-0.5255626342,0.0413095574,-6.5108427072,-4.6290319219,0.3419098029,2.3576532179,-1.6845132459,-0.3469423157,-2.4202260219,3.532242209,-0.3707844836,-1.6766921375,-2.7356122587,-3.7364296014,-9.8451940607,-44.8801623982,-10.9906741894,-1.9129584738,-1.0882347017,-2.0068191842,0.2713793123,-0.7936293532,-2.0015289924,-1.1427588182,-2.6038999201,-5.7243025665,-88.7293697591,-1.2974695145,-0.4892675316,0.055023671,0.0903208062,0.3179724557,0.3899294816,-0.4601929732,-0.8931447882,1.9744234398,6.360521797,-1.0630222338,-0.7342461387,0.35001488,4.9120249956,4.3040382428,1.4331006372,0.5898585949,-1.5881638636,-0.374119272,1.5034105796,1.546881332,-0.0905284156,-0.6081108679,0.3455307846,0.9293050678,-0.6176085689,0.6883863866,-1.1660551135,-0.0320673914,0.0303217598,-3.363835554,0.259723056,0.6205525483,-0.7690283927,4.2726296852,1.3509783531,-1.7174303271,2.5779489833,1.2824787958,-17.773364707,11.6853383583,8.909158302,4.0732633696,-0.221520339,-0.3215372519,0.2180813515,0.6049136036,0.8751810202,2.5988790569,-0.9079292972,0.2370905092,4.4270809409,-1.0632718867,-0.4788153945,0.9035647733,3.5332611433,3.6915927046,-7.0784094595,-0.628126367,-0.8852961634,0.7830259884,-0.0235516586,-1.4132323273,8.4133159138,-0.0298960845,22.5437863505,-0.1418592698,-0.1595907694,0.2777810147,-1.5087327963,-0.7492870584,1.0772406586,-0.5826376388,11.554148383,0.1769968885,-0.780620916,-8.0030224142,5.1545211412,0.9894813412,-6.3112648825,0.6459276282,1.2896108766,1.3944407116,6.041292211,2.9456484722,-1.7005166953,-34.8157430378,-2.9999611413,15.7524440614,-3.0567224678,-1.0197022752,-0.3694287297,0.6417020074,-0.7557389616,0.9636045444,1.2104864424,0.2437588348,-0.380755517,-0.4766798165,-0.5971807898,10.9661700397,0.5758235088,6.0623969102,-16.7645494752,0.0591254605,-1.1337737298,5.6585292502,-3.6124595052,0.1669605445,-2.5490361644,-0.2697367409,0.3334896991,1.1676262376,-0.502775682,0.2863657412,6.4534841869,-1.2821739965,1.3185792557,24.6823253049,-2.4515447499,-1.0352594344,-8.8766976549,-4.2110717826,-6.1928264803,0.2529127022,-1.6968631157,2.5383332783,-1.2955666521,0.2751436036,-10.4577909091,-11.0786818344,-16.760837145,-1.0281407086,-0.8583035426,-2.2505917494,-1.5757908462,-3.689300069,4.0379158681,45.5769954135,-0.809494671,12.9332860649,-53.1857224333,-2.6642755024,-1.5577058657,7.6311979215,-2.0076244108,-2.8818075003,-1.8779538304,-1.0623727398,-2.2093382202,-0.8633235435,-2.8424704077,-0.0851790215,0.5850281885,-1.1294209531,0.1277234822,-1.1465839348,5.9738334799,2.4355343851,2.0637333937,-1.8981116195,-2.3695615909,-0.7696372777,1.2240631366,1.1618279676,-0.9331604421,0.7626125734,8.5068698047,-0.6409760508,-8.1614987344,8.0210629342,-0.9498940915,-5.9107407624,-0.9618488068,-0.865714492,0.4048731267,-6.3089983492,14.6965929514,-70.5364204417,1.54689444,18.5060884587,-1.324002173,-1.7421651742,-22.4104628899,15.4425328579,-7.0205131779,0.3550693082,15.7117824883,-0.2779309789,-13.6305655996,1.0920846037,3.7690515487,-8.4245128545,-1.0116797525,0.1137866356,-5.6739812438,-2.9731076052,-6.600523481,-0.2627323634,0.9265124894,7.4764629566,-0.5401368391,-1.4903571198,2.7866405657,-0.5076745222,0.758545085,-1.3005226684,1.7240422828,-2.4811845061,-0.521573557,-0.5365439444,1.4388868438,1.200770871,4.8374168417,-0.703579955,0.5899210368,-2.6115391029,0.7192063596,1.3961433248,10.5311450828,-2.4082821642,-1.0761795499,-1.9145239465,-0.0561310193,-0.308429703,-0.8701691356,-1.0546507156,1.2401278989,1.3866426536,0.5226249106,0.0687969371,-0.2385473751,252.0943195346,1.0373491489,0.49190418,1.1049999872,1.5659071674,0.4799255034,0.0347434475,-0.4328770675,0.0312813498,2.4747274963,-1.0583555259,-3.9389079626,1.8199019468,0.609338698,0.3210663512,-0.6149935517,-1.0128282356,-2.9114696131,0.4422572298,0.3078896167,0.8737108778,-6.1898140837,-1.2673315471,1.2155906995,0.677330659,0.0315487736,0.2169565712,4.9835084128,-0.6231233017,1.2198954829,0.5914945646,-0.1514132282,-0.2397737528,0.1726516595,0.7424871444,-1.4489177041,6.4438242631,-0.4812289609,-0.6712545927,17.9304929683,-0.0841608559,-0.9179600891,1.9850874746,1.0550252665,-0.4265091759,-0.1232174898,7.0873556017,2.3823325073,2.9772868832,16.2974606143,1.0122696522,0.5809503131,0.5514121522,3.4667611024,-0.3415884646,0.2785675188,12.4908687344,-1.9076764114,-13.7722046424,-275.1981984342,-0.2820068155,0.5519406358,-0.2673633531,0.5356176567,0.4141377574,0.5808943815,-0.859604023,0.2277054371,-0.0399967696,1.2163868631,0.0745794247,0.1555136718,2.8677755335,8.6626828087,7.1912043797,-0.0760616845,2.0982133088,-2.4723288915,1.3414094486,10.4985638537,20.9511483816,1.2658803822,1.7516115807,0.414141407,4.077240972,-4.110733302,-1.0846827477,-0.1493903234,-5.6094715621,-0.1131725865,1.2800278367,-5.573938048,0.3640149248,3.0296160452,-1.2480144599,-4.1326054861,-0.5549009364,1.1883610429,0.4785271791,0.8461007781,1.1214894137,53.4446447569,1.1979977235,1.9382826937,1.4877803325,49.1834966179,0.5611137546,15.8376833316,153.2604516163,0.5679831192,-8.9724996437,-0.5855355458,-16.6177856673,-1.3501599012,-0.3513134999,-1.5315274127,2.6096162719,-0.3329529169,2.6705850126,3.530037071,0.1912458851,-0.3380587861,-3.8918194777,-4.166195167,0.3158158875,0.3414735528,5.6642200711,-2.1076466036,10.1509410728,-0.4416832533,-1.7579851562,2.2033350714,0.2664897731,-1.5404696254,7.1849149801,1.6684142045,-1.3756228874,0.441502953,0.9492496195,2.046242773,2.1130885703,1.7850068672,0.3498585699,0.5214959882,5.9112881501,-0.2463725142,2.7302641879,-7.6779398449,1.6315402055,-1.2008550781,0.7277822287,1.1898918249,10.1381339773,0.2603128794,-21.9210157472,2.9514957674,11.2107299539,12.0297870466,-1.4182272537,-24.8707602019,-30.9311622923,-1.7439763857,4.8401801649,0.1829363681,-0.3225446651,1.1006610799,-2.449451277,1.8048821565,0.960057283,0.0622092507,1.0768230464,-3.179271912,0.5310471867,-6.531376673,-1.8243943998,-3.3312655727,-0.7038978639,0.7378415335,-7.3178154102,0.1224269268,1.0230210705,-1.2518475382,-1.2572037646,-41.813886682,-0.2746842926,0.3044060475,-10.4131320441,-2.2707925094,0.1181901496,-4.4873323291,-3.2330172296,0.1578502894,-3.1684266594,-2.0934303089,-1.2941775222,-0.6303548748,-4.1529915255,-0.1022061858,0.0473876975,-1.7048321139,-0.8518259716,-0.8358487757,-89.9655588459,-1.2801594052,-1.0872401136,0.0195733503,1.3104538588,0.4014026671,4.2933234242,-2.7119238767,-0.7793063579,-14.6719271609,-0.1340397901,-5.7387083794,-3.6570215831,-1.8058631535,-5.7102575326,-0.7526973691,-0.8928267782,-6.5407574829,0.5834016622,-0.7111713603,-0.3561564846,-7.3334423004,-9.8638556533,-0.4896864418,-0.8846922765,0.9313906334,-1.9758531943,-2.1032265363,-1.7428575309,-1.1851288091,0.3864430088,-0.3068663302,-8.2677897167,-1.8274695884,0.5685660463,-22.0228334076,-0.2760512373,-2.899157193,-0.3952517149,-29.0512953941,-1.060030361,-2.2754532939,-1.7771051036,-6.7883886105,-0.2639114431,-1.4242790044,-12.0294478943,-0.3822256529,-4.0793945328,-3.0609394837,-0.7554489632,-0.8824963944,-0.0058401701,-3.7570785819,-3.2959264274,-6.6722811981,-100.2501765248,-0.2874418036,1.4750686627,13.9763911795,-0.7307323906,-1.8328788247,0.3056521675,0.4914112106,-2.9143346886,-0.8739517792,-1.3981949868,-1.4294697869,-4.6330585271,1.2370350434,0.3772774438,-0.6775620009,2.5633439696,6.0002763787,47.7863758571,1.6243854868,-0.1698744923,5.8469521109,1.1409128464,0.4408758158,2.5300560209,0.2470004272,30.970910483,-0.2521590943,-2.6000827329,1.138006889,-1.9944887159,0.3696038232,13.6980498333,0.5814997672,1.3896154155,1.8586605361,0.7161598233,3.3837998152,0.6268656128,5.9739832319,7.2738448083,0.2508503429,1.2702270332,-0.4693193996,1.7180004207,6.6564375771,1.1923491461,0.5217837934,0.4152786048,-0.9954853904,-0.9085730803,12.8532993865,-7.3435433183,0.0546159216,8.7251391936,-2.6926782708,23.5896311559,-13.3621617704,6.3521539456,5.5570825891,-0.1918727577,3.3394177342,1.1665047464,-1.9075106949,0.7276862219,-0.6296974912,16.5547159044,3.8545523537,0.5711005022,-0.6610538215,-0.4829752451,4.1367591945,3.7664499723,1.5976567372,1.6861059296,-0.4435706444,0.1755137303,20.6137539833,-12.8101696863,0.5603630655,11.909576116,1.4917792994,1.167049078,0.8052621403,55.4457265438,-0.7845896928,-0.5045510965,2.1640018289,3.6402246428,0.273003739,0.6304986621,12.6872540887,-4.728689274,3.0799333714,20.190840707,0.6825016167,-1.2748925715,1.0263629951,10.4207125257,-0.1677260832,2.0909676192,74.7094117714,5.9735456293,-7.0537829976,26.6760456902,8.5354085757,-0.9400518803,9.4776786477,1.7274339758,-0.7132843261,0.3316148568,0.419299819,0.601379102,1.7366517737,1.5594539846,-3.526138485,-0.4453604839,0.1558705636,-1.9336788268,-4.1251155264,-0.7390602727,1.9209699929,-13.0490296413,-0.0569700454,-0.8234989641,-31.6927806597,0.6322450963,-25.8723991658,-0.4665226055,0.2947753724,1.1076836431,-2.9609004714,-1.4668438615,-4.7956692002,-1.9858136938,-2.5880518426,-44.5535407423,-1.4134546313,-0.562245893,-6.4080250726,-3.985611951,-6.2735412851,-0.1571525927,-1.9516638134,-0.8533373146,-1.7018688637,-15.6558577596,-0.6806848973,-2.7917608534,-1.267642058,-0.1216715252,1.3931036222,-17.5054110005,-6.3799510515,-4.1633205607,-14.8746530334,-20.3789296111,-22.3293538201,1.8872233625,-6.0969941061,-5.3496762052,-0.0675259363,-4.2069943549,-3.4176474164,1.9027390859,0.0125502713,0.5300848623,-34.3415459165,-57.7831321131,-0.6778516402,-0.3482286238,2.4800362715,-0.2390360092,-7.2951453412,-3.6582805655,-2.5978882815,-1.1449932345,-0.0354154738,-4.9748870519,0.0841069258,-1.170049134,-60.827559062,-1.1157087773,-2.6669297709,-1.0011522608,-5.7544254707,-0.859009315,-0.7550125929,1.39124446,4.778689201,0.1900901922,-1.4117953535,-655.5307644247,-3.0560161034,-1.5632846409,-0.9662281833,-1.1422499746,4.2105688775,-0.3456717761,7.1668547681,-8.1047847315,-0.7092731181,54.4753817622,0.1012425817,-36.0440651779,-53.9976283074,-15.2470654972,-1.784825807,-1.8794860018,-1.7639946504,0.4928996382,-0.4295315941,-1.4620321375,-0.1542538414,-1.7166340585,-3.5879770581,0.3388967433,-0.6941480991,0.0688638279,-1.4133537073,-1.1725655728,-0.2630717177,-0.6081544713,3.6275955399,-0.0709004102,-1.1049456593,0.3052234502,-0.3709474323,1.0243555528,-0.6734875098,-1.4232073233,4.8539037827,0.0972296253,-0.3702059489,0.6463046493,2.4438217895,1.6584828381,3.5440586381,-0.0318024357,-0.3647573278,0.7360363567,1.0602108283,-0.3849962838,0.2628083959,0.1447683273,-0.4716683768,-0.734871707,7.2440892534,-0.6919849154,-1.5069751776,-0.4034953341,-0.9304072929,-1.1600655917,-0.0613224254,-4.9317767226,2.6743866419,-12.7422514114,1.5314899848,5.6135392511,0.4617942412,-0.0853248098,-3.3158412746,-0.0286378992,1.5129462076,-0.5383188433,-2.545830431,-0.8415862402,-1.234724813,5.5974191518,1.3950925605,-0.7496193891,0.0912413924,-2.7559609011,-0.2479331929,-5.9105383483,0.4016895091,-0.8077270623,-0.7049545727,-0.8025570768,1.5488214531,1.0717207325,-0.1947710644,2.2184292946,-0.5008939049,-1.1425304061,-0.2339186532,3.3014605025,-1.1112458416,1.6007213161,-0.6913751424,-6.5372337452,-1.2804222786,0.1331010843,9.027012617,-15.7410420832,1.1237463744,0.8751481156,0.0553345301,-2.9535007599,0.4229545745,22.6848454063,-2.4614887669,-0.3752414589,-8.6501454086,-0.7147557732,2.2265184952,14.812396987,2.1632047238,0.1023708866,-0.2676814762,-4.4136974753,0.1360886507,-0.8355585859,0.1819608315,-0.0832366427,-0.6029876196,-0.6348154789,-0.0965115559,0.2262953584,-4.6313847742,0.8083526411,0.3962452268,-0.25030978,1.1378110344,2.3251007998,-0.494770144,-1.4017530365,3.5077679623,0.6850096034,0.6042280285,0.0969251555,0.1558220679,4.5971594219,-0.0457785257,1.0934848034,-0.7654261687,3.0354813068,-0.9136228579,3.027932321,0.4440032275,-0.7583478143,-0.7245488103,0.8387194025,0.6936677246,0.1292604314,0.4604395317,0.0949668779,-0.7828341837,2.3809820548,-0.5344912523,-0.4370523611,-0.4063436156,-0.6371204733,-0.4553024381,1.2925292464,26.4620690866,1.3503342245,1.2912331705,-12.2785519878,3.2260738972,1.5478779803,-1.738312648,-1.8137770364,0.4156558036,-1.3211520031,0.6512589084,-0.6673822452,0.0530769768,-1.1244502795,7.1038636632,3.9198203243,0.001665347,0.4805517867,0.540830529,-1.9991688279,-4.7195673776,0.3588321056,3.8646847263,13.7006537957,-0.4480351978,-0.5603250349,-1.5366500894,0.234222888,1.930372882,0.7416649358,0.2538337548,-0.0685285182,9.3966985067,0.070361886,2.406586423,-0.1264235822,-0.6533340591,-0.848460084,-0.2472130994,30.1320214453,2.1473397426,2.1352491759,2.2428315748,0.3185477741,19.4435347013,3.0461642446,-37.9158118293,-1.0934270908,4.3698457854,-0.2481440574,3.0356455301,6.2934170461,6.0343739171,0.04164639,1.0392393961,0.2236268497,1.1872440447,1.3505640611,3.8030987177,-0.1981283657,-1.0853481736,0.7236575431,-1.256774916,0.3536731951,-0.6838900685,-5.631957431,-0.2011426258,-0.8870816138,-0.9810748128,-0.9011694368,1.2952116383,-0.8638765297,-1.272957212,-0.3519556766,-0.7753832568,-23.8725173341,-0.3181686102,-0.9936837978,1.345174661,-0.1575812509,-1.839736188,-1.6221997327,0.3572163223,-4.6007975157,1.536688521,0.0320540352,-0.5360462881,-0.8056711388,0.3760499249,-4.1613636311,-0.2295199263,-0.7562912115,0.5551717963,-1.5392318808,3.6067992823,0.416301978,-3.2870794112,0.3263749674,-0.4022359505,-0.6394308982,2.3246259246,-1.8558259702,0.6116929375,-20.5646793674,-0.0876724937,3.0764874316,0.1728097892,-3.086312662,-1.3355079747,-0.81164914,0.3138295985,-0.4433123655,-0.8327557685,0.3235538391,-0.1904407329,0.6774678518,1.4357830802,0.7220303654,0.4013319984,0.3220357926,1.7974716009,-3.6906621367,-0.1841159561,1.9951439517,-0.1738551136,-0.3153619953,-3.305449677,-1.0263251676,0.0569762718,-1.7900545783,-0.565986134,0.1485326605,-0.4133804623,-2.4705358405,-0.0116519431,-0.8143816166,0.8226458632,0.713502727,0.4803278681,-0.537493489,1.6860157037,-1.4250655176,-1.92610925,-3.4922988605,-0.8719408902,0.8131384599,-1.2287350115,-35.2584275864,-5.2790404976,3.615122171,2.5011606946,-0.4009800662,-6.3091281236,-1.0196066078,-0.818473372,0.3323132547,0.629667239,0.2294543203,1.3370793853,-0.440859468,-0.7244534284,-0.1550336393,-0.9769615578,0.2406437292,8.6382611911,-0.9775511616,7.0018141822,3.0971252038,1.4159726869,-3.1340043179,-0.3491227463,-1.2786554798,-0.263389434,0.0201712112,3.2631498451,-0.4824516461,1.3554246896,0.7580733949,1.7406012142,-18.9096347617,-4.3174298039,-1.0009165355,-10.7252478625,-16.8933220073,0.7149266024,2.7700738977,-0.9692900743,0.2516449839,-0.1476960973,3.9496878613,-12.6730324818,2.8185433978,-0.759454255,0.7950136527,0.4175082755,-9.7365852557,0.2562094091,0.4385427434,-0.7118432043,0.462854338,1.9387467412,-4.2131261457,-4.7235661153,-6.9979265583,64.4718764034,24.0133679675,-13.5914208444,0.2687021267,8.8033077013,1.022385432,1.4814998604,1.1529659362,-9.1922900454,-0.6951390562,-1.034397108,-1.738095918,-4.994019588,-5.1757053179,0.8645294741,-2.027384597,-0.8222895415,-5.5044346086,4.0483524762,-4.1445819119,-5.3448310159,0.0330933026,-0.5356313241,-4.714604651,4.0728941679,-0.9937303513,-4.17859546,-0.9287780809,-0.7881474129,-0.1268975894,-37.5626055928,-0.7327929935,1.230388509,-1.2179643933,-9.8056052628,-1.0247208908,1.1606698289,-6.6723766072,1.5039474379,-9.3498015541,-3.009238647,0.5525090976,-6.8500655161,1.6559838792,37.982524102,6.2083602213,-7.6226150637,-0.9164954627,-9.3248827925,-0.8401405153,-38.8507620282,-4.1625264628,-0.6210719804,-0.6247487914,2.2059337266,1.1240873745,-1.1287109744,0.2935065804,-2.3972953016,1.2729804009,0.0844638979,-1.2978390231,-0.7452672771,-63.8397080781,-1.1116148703,-0.862761302,-0.7053299086,-1.0537165966,-1.3267145843,-0.3640035505,-4.6736028602,-2.1203615382,-0.1407188535,-3.9693778051,1.3798607052,2.1453441854,0.0385098377,0.3810407595,-0.5388673813,-1.5547276654,-1.4370687804,0.0483112986,0.8843233093,0.6159391835,0.2577471238,-0.8714712247,-1.7139943723,-2.6776653891,0.425937706,0.0352327144,1.2483572091,0.1757028804,-4.0373336269,-0.3143025512,-1.0852268235,0.3003118594,-0.8926852665,-0.5328329687,-1.670666774,3.4287060597,0.1138039582,-99.5210503392,-12.4537257487,-7.0045044869,2.3525433975,-1.4910725643,-1.4450839157,0.2400621042,0.1973512593,1.0541736845,0.3333562226,-0.4946158445,0.0403851842,0.4012571128,0.5677297316,0.0443139182,-0.3142997104,0.1310985075,-1.0412553978,-2.5156455042,-0.7253796495,0.1240131892,0.0574481165,-0.3906278427,-0.0539998224,3.577341077,0.3336775372,1.9638497046,-1.2412224677,0.6564569038,0.2066204351,-1.0134281421,0.0076362829,1.100626282,-0.4372817653,0.3730903709,0.4605093298,0.6906163732,1.1190680395,-0.3246768934,-2.5340181689,-20.1788754505,-0.4933879103,0.2936691017,0.083265101,-49.9137078544,-0.8237814132,-0.4072728412,9.9904779991,-1.391310095,-0.3593030981,16.6319997794,-1.0292389934,1.5679318477,-0.3381338661,-3.8636083006,0.2624554702,-1.3216217763,-0.5190249597,0.5665710304,-0.1731072237,-1.4458676708,5.165155709,-0.5217578326,-0.4925205664,-0.3072810022,-5.7481257759,-0.6244895575,3.3750009225,-0.4890425929,-1.8091214987,-0.5080535445,-5.4947444902,-1.6102117467,-53.2239464256,-2.4749760022,-4.1849011024,13.9223872423,-1.1552559666,0.2594787731,2.0006564757,-0.9603098189,-12.9116904051,-2.5939861621,-2.5877777145,-4.7513247126,-1.152130915,-0.4985490982,-3.4293133898,-2.3138637337,0.779990556,-2.6909879859,-4.3913859798,-21.075524473,-0.0048143901,-3.815646616,-1.8420869814,0.063787589,0.7972538156,0.9663046124,-21.643515392,-0.8035100457,9.1296932224,-0.4358628191,1.6406738189,-2.685263536,0.4391609654,-19.6435417703,-2.018801476,-2.5356308481,-13.4407254341,-10.810406055,-1.4724987786,-0.1920284658,-12.8487804819,-52.7940597876,-0.1493424461,-0.2902020288,0.2856693399,1.2515179761,-3.1338062851,0.1009675669,-0.8533566289,1.1871933312,-0.1305318567,-1.3928284192,7.392967053,-1.6777442791,-6.981851377,-1.0201772699,-1.7813872521,-3.024154911,-6.4983868187,-0.3376637825,-2.53835641,-5.087385895,-0.4626605509,-0.4003081311,-5.2644104142,-507.1474333653,-2.4495524932,-1.5932442624,3.3567187679,-3.0302312427,0.1417316156,-2.2336433157,-49.9905503036,-5.6547237535,1.6713200195,-26.0613654636,0.5565861528,-3.5441436314,-4.5334200464,4.0457646205,-1.3706691698,-2.889233598,-0.3586708664,-4.0612519996,-1.1828863532,-1.466815882,-1.6107198982,-2.1002091921,0.2367397925,-0.816297332,-0.9229213905,101.9483977756,-3.2991663659,0.2377024209,-4.6245922514,-5.0920373057,-2.5636656725,0.2062332664,-3.8676757717,4.1245839537,-0.3475150994,2.5798278942,0.3701338917,-1.4029066673,-4.1596797943,0.7729932892,0.1842111604,-2.3404165669,-2.257116286,0.85237149,-4.4851634544,1.3650611993,-0.2622104338,0.0301251012,-1.7948091263,-18.6794514239,0.8850627446,-2.0872108948,-0.4539404703,-1.7242468939,125.1269342096,0.1370671054,0.5002768582,-0.358267833,1.0184071963,-0.7559438036,6.2004658051,-0.0482898303,11.7300259346,-1.3122215898,47.2775535777,7.0520758859,4.7430928817,10.5059287907,-4.9043011479,-2.5982602143,-0.1239615015,2.8751284059,-0.512651093,0.3957669332,0.4831943392,-3.1699585912,5.8191322249,-1.4659168947,-0.4986243474,-3.3933243893,1.7204545793,-3.5849763334,-0.810999847,-2.0404514806,-0.2008489385,-0.756829699,6.9871276452,-1.6199382504,-1.5805484969,-1.8469746456,0.3982802492,-1.7994832115,-2.1015423054,3.3503302175,-1.2305019095,-0.7132286475,-2.077024942,-15.9739455467,-0.1957225131,0.2911342139,-2.8229137002,-2.9103133083,-5.97971824,-63.7327499676,-1.414949723,-2.5909164753,-0.0226395826,-25.4796660508,5.3211286368,-2.9357413913,1.9331402307,-27.8581618202,-5.2966775904,0.359594115,-1.3829714725,-2.8021589638,-0.3933925983,-9.3268310282,-0.3262311744,1.2811058631,-1.5670538611,0.5676689936,-0.1966472868,2.1780777693,8.6996516797,0.6779683975,41.2048705336,-2.3467192747,-6.0957145809,-2.0162762135,1.3809928635,0.815577351,-3.1283834152,-5.3049357287,-44.3775518503,-2.8186011464,14.0386784165,-0.642023508,-4.1429203275,-1.7371196007,-8.7703410452,2.2641616378,12.1287135735,2.7417139123,-75.3559183132,9.4908603491,-1.1907378075,-3.3839960955,-1.4110466039,-19.5100746253,-5.0349979274,-3.7093253772,0.0848880443,-0.5009696155,-3.5062971684,-6.8751694626,-0.2765685878,-10.9310031832,-1.9389920514,-4.3809251569,-0.8597686727,-10.878826487,156.2943554902,-2.6235296957,-9.2903415309,-13.9741279543,0.9751116439,9.1130840514,-9.1582222979,-24.6690996989,-0.1721325836,-3.4755032419,0.8552512148,0.0007367208,-1.4987582533,-0.038115941,-31.0591723965,0.7068866243,-1.8511097088,-1.729835843,-1.3996595983,5.044042716,-11.8149277623,-5.5055234188,-5.1767370348,-1.3526517232,-1.878841935,-32.0333313319,5.2704595093,-59.0116331546,-1.108351683,-1.4955962414,-0.9150803923,-7.2223841455,-69.9565236315,-4.0066743265,-2.5332796192,-2.1467376386,-10.6582356899,-1.2405581061,-3.3848568369,49.5314064581,-52.2349110773,-3.569399572,31.6481906431,-3.5678205592,6.2028063168,-7.8515281142,-22.6837586047,-3.4146060388,12.0331704628,-119.521681299,2.3943013867,0.5052704766
   2.993791525,-29.0741065171,4.6564319146,-1.1812046028,-14.4720827619,-42.4840708808,-88.8802682665,1.3702582356,-1.9975933604,-3.8769342787,2.263680304,-1.3721567681,-2.4967309002,-3.9451690876,0.4693349368,-0.2588177786,-0.2201767682,-2.458785438,-1.0599451483,0.9076982608,-1.1755394963,-3.9252052822,-0.3766325658,-1.2761285923,0.0956163489,-2.2430214475,-21.0195209992,-0.6132760396,-0.4802378406,-0.8162866642,-15.2341920262,0.7669644385,-2.5564009702,2.0807843344,1.0056205802,-0.7096107891,-2.1612984441,-3.9118435872,0.0411664173,0.3443662575,0.8970152801,1.2513059626,5.5697035927,-0.7821515244,-4.1764785947,-0.6462011935,-1.3813208103,-1.3812308133,-1.1327854511,-1.575490422,-0.3976039117,17.2488944643,-1.7118976971,1.7748455793,-0.4255625864,-6.0975886008,3.2341806087,0.4521952844,-2.0705664667,0.619118879,-0.3636966216,-0.1818635239,1.4418189084,-11.0048346569,-5.2844805119,0.5187874561,-0.2494014701,-4.7867037026,-10.1231022463,-24.2155852613,-0.7553938878,1.7104082902,-0.1420282668,0.7741467432,-1.228424909,-6.6862917294,1.4186161968,-16.3916018452,-5.3087342151,0.1706140787,3.0248073941,-1.9086053631,-0.4731499636,-1.6124156983,-0.4798975863,-6.7117985089,0.3412008617,1.5762041013,57.5541331062,-3.1278824774,1.9592722329,-5.2312408444,-1.4529750924,-1.9614263347,-8.3186614492,0.8935858778,-2.3924601191,-1.0198819507,33.7465552472,-4.2138649629,-5.4033687314,-14.0372002288,-6.8534416551,1.4112446534,0.9654404198,-1.8735208263,-0.8852664118,-2.5772590983,-1.4087354487,0.5195866176,0.8937359743,-1.0165043691,-8.5408798623,-0.5140722543,-5.2671313556,-1.9895719095,-39.7762396725,-1.117408226,-2.1135253158,-15.2948356745,-0.5041729928,-5.0177024219,-43.440713748,-1.150007974,-309.355661696,-1.7429271126,-1.4293980268,-0.7910345268,-4.4711007098,0.0686466431,-1.2566121242,-0.5978576178,-2.4250388395,-2.1700094052,-0.1164823102,-9.6687933964,-1.8946730261,-3.1044041361,-1.9726194265,-1.2775533897,-1.8672554324,-0.8514836555,-4.4394207897,-0.609007969,-2.0724614196,-4.5463826074,-1.1882818671,-1.8764243161,-1.7886515562,-3.4719920723,1.0845811317,-3.1441191321,-17.1081203872,8.9022593687,-11.3972421248,6.5574021839,18.7761739214,-4.2589188073,-2.8838865664,-7.8775287991,-3.2751784006,-3.1590112418,-1.9932542073,0.0157547289,3.2152987432,-1.572802471,-1.8591968883,-0.2366056002,-0.2183165449,-2.8595964067,2.6443493439,-1.0694330634,-1.4302643584,-0.9367917128,-0.1942449438,-0.2150431628,1.5409487578,-1.6174204171,1.9932101069,-0.8290154352,-4.6304143964,-0.7844108971,8.2188547423,-0.4510587231,2.0588638648,0.2908611569,-3.0878281137,0.5961701275,-5.3030162873,-132.5114748387,-0.011975668,-0.4675191676,-11.0147121451,-1.5677845531,-0.9397051967,-0.8009796385,3.8175383868,-2.348533115,-1.2159618822,5.3278773818,-23.1835342093,0.5147816903,-304.8815007142,14.715023606,-1.4127204509,-1.5962539058,-4.4756919133,-1.7629577557,-13.5514684171,-10.3433925703,-1.4401266506,-1.2848615305,0.0561136163,1.7437657558,-1.6796114061,-2.7007054318,0.1445525759,-1.1068600509,-0.021845312,-0.0072061257,-1.7419072171,0.0283865819,-1.0125136318,-1.7587214423,0.901734883,1.2337180269,-0.5843305232,1.9625577666,-23.3850678121,0.1854197954,2.9844793116,2.9030974107,-0.2899072607,0.1892611215,-2.4514393345,-0.2752180003,-0.2674101991,-0.0083838053,-0.4026896369,0.394206897,0.4349494992,-0.9632981629,0.3886261216,-1.1216000536,-12.5646895804,0.0031906005,-1.1774363112,0.6368056932,0.9655082684,-0.436807131,1.8574883449,-14.4865680455,-0.1746849922,-3.9270718565,0.5921480133,-2.6916118103,-0.1379662113,-3.9875606585,-0.6591915902,0.7066269216,0.2314730739,-0.9608731705,-0.375574298,0.6331718441,0.6592208334,2.6046342561,-0.1811250453,-0.0033582877,0.7447185886,-0.432936655,-0.0168084702,-0.857859615,1.2858014901,-3.0304958914,-0.1514541846,1.0250957403,-2.7473455906,1.1498799542,0.7951404267,11.6204340928,0.0601005603,-0.9476855499,-0.1981387081,-5.1924261787,-0.2738438524,0.9823489046,0.1288763677,39.9430053991,-0.7884514739,-0.0364551087,8.7101720046,-0.0606200947,484.0331566088,7.2849650384,-0.4093085501,-0.0739970925,0.5553489418,22.6358875649,-2.01386357,-0.8287723061,-6.8669636516,-0.1344671993,0.2492005143,-5.7872997751,6.7321711686,-0.2771340918,0.6924150327,1.3997413676,0.1723124961,1.9082109126,-0.4071739405,-0.6029513372,0.3735550801,-0.6489453127,-2.4411345525,0.779564875,-0.4553322524,3.3444063091,-1.8722550309,-0.351117833,3.8743044455,-1.4926623401,-1.5364473993,0.0892007268,-1.5949839832,0.2833445668,-10.1985255976,0.0129744962,-0.0132931462,-1.7848799809,0.5893165386,-3.9004217436,-2.9801340357,-3.1880899148,-0.2566986206,-2.2066585918,-1.9375293738,-0.4247898493,-0.9112435498,1.0532421101,-9.7045279181,-1.6349530244,-0.3125471311,-1.220277328,-1.0510995739,-22.1235948536,-0.8302214852,-0.6461956814,-1.2196710051,0.3663671539,0.8147332473,-21.0383107291,-5.6852514354,-0.659276051,1.0680275569,-320.2874515274,-10.6075208028,-9.1984974102,-3.4146730577,1.1514735021,-0.1661051556,-0.3763190221,-13.8546853686,0.4807743643,-0.3042112453,0.2598623002,16.7998626375,-1.55707927,-0.1811466605,0.1699825535,-0.8174422602,-4.6166660258,-0.9204145075,-0.9906268594,-2.675923894,-0.9712367003,-1.1340258269,-7.3151880724,4.232212844,-1.3953983007,2.6878070312,-1.6643455654,-0.4763060823,-0.2460807882,-8.4459594464,-1.4628084312,-1.3517521231,-1.4234439892,-0.7912379306,-1.0263020771,-0.1526432547,-69.9257981044,1.8597272762,-1.1320510394,-2.9569887372,-0.4165521519,1.7355699966,-0.0660472597,-4.9506301067,-2.1444184937,-1.4281741531,-1.7758941844,-0.6991332853,12.1423809373,-10.8014029605,-1.8776466557,-1.0318383807,-0.2121051798,5.4565228847,2.6341483934,2.4081348351,-0.0706102424,-1.9924953647,-1.4014944856,-0.6422996299,-1.4257819836,-1.3422878497,-1.6577957432,-0.2231473344,-4.3606392187,1.5859471418,-0.8104040473,-0.7703243028,-1.3678693417,-0.7928042556,-1.4197750369,-0.3885350286,-2.9247523309,0.6273626235,-0.6138519483,-0.0405074657,-0.7732788978,-0.8854800421,-0.6928027282,0.7839130175,0.3933217402,1.2920461562,-3.8237354969,-3.8370799835,-1.8421636355,-1.1982423453,0.9794303542,-0.0684545967,-0.5153729551,0.8807786818,0.2992076897,4.5850387267,0.1394710663,-0.4358326372,1.0888112416,-0.0926102858,0.172869311,-0.6857690666,-0.1116377639,1.0943854722,-7.9697221568,-1.0768693077,-1.8037322621,6.6184172964,-0.5632791543,1.4925057119,0.1374431083,-0.8566728324,-1.6320456887,-5.3977040797,-0.74452742,-0.553503913,-4.9042027606,-0.784808985,-0.3601638866,-0.1001512011,1.8506487714,2.4174362456,-36.8983110292,-2.7110285599,1.953657657,-0.5077477185,-0.4208276663,3.9452668482,-1.3254918486,1.3481865074,-0.5983844413,4.1308524778,-2.4019115051,0.1285705195,2.9035920327,0.3520660555,-2.0069549371,2.1398841629,-2.7826709444,0.0120600718,-9.9237260533,14.7369922327,8.4743599316,-4.1125906509,-5.9140944608,1.5353918453,3.5881803932,2.5583743868,20.5437758207,-4.9068004103,0.3452717436,-13.7279819685,-0.1024879858,4.18200896,2.683944401,-6.1412670512,0.1799528168,-0.8695597442,-2.6033881051,-0.8384936606,-0.251894655,0.3943505115,-0.1988988174,-0.2111422423,-3.1669568665,-4.4834369151,-0.7603793152,-144.2417612102,-0.8223279885,-0.9643210549,-0.4370716994,-3.134708968,0.9608082003,-1.2094223518,-0.6764871035,0.1976116322,-0.530016171,-5.2816205599,-1.2469199424,0.0341034958,2.6893186016,-2.6700056614,-2.4418525914,-18.3800468954,0.6202676191,0.0389928847,-0.0793454249,-2.6695539906,-1.47002925,-0.1400314657,1.3119485571,-5.6896724498,-1.8355919222,-0.2916857047,-0.8327461819,-1.3186490618,-96.1114368242,-1.4268766146,-1.2933119923,0.1655467927,-1.1901569778,-1.3632591622,-1.2481681025,3.6856339637,11.6201325592,-0.1783310447,-26.9397078912,5.711257159,-2.4099774776,-47.8183134858,-12.7723587407,-4.2359216521,0.853673077,-2.8971614308,-0.2255675006,0.2370087087,-0.0190735838,0.258031278,0.286184061,-1.1133963498,-1.1006745161,-0.6804787157,-3.9874504396,-4.6097415313,-0.353080424,1.1709338706,-1.0827033359,-0.6277306265,-0.862692692,2.8598974668,-0.053700439,1.9332686434,-0.2517270058,-1.3069905612,-0.2379182499,-7.5200576273,-0.7448076731,0.173504237,-1.416228616,-7.2304571462,-0.2205470867,-0.6271166085,58.5814550959,1.9405027621,0.9327647632,-2.7486573189,0.992860577,1.113848787,0.9262461741,36.8928971954,-18.5737848731,0.0528378897,-5.4318429559,3.0573908106,3.8707831442,2.9824041797,3.67804896,0.8814312877,-0.4040770116,1.0106825831,0.4495240985,1.8518304003,-0.4221136678,-1.484592523,-1.168352308,-1.7799838331,0.8883984218,-1.1750677308,5.7001331915,0.4447241463,-5.8364495743,-2.1350421037,2.8349953628,-9.0928300211,-2.5866035383,0.1130651375,1.4720316302,-0.719784788,-17.2691832294,-0.387019298,0.7398762685,-9.2296141598,0.8177254027,-0.0857737876,-1.0920901361,0.6723126136,0.2077166916,0.1756996857,-25.1885633599,-3.0227210084,-0.3143176198,0.3534776562,0.4284888948,-0.1035469534,0.5627565001,-0.6526785685,-4.0651702812,-91.2968080054,-0.4234929356,-5.5255071972,-0.1595060037,-1.9613198794,-1.0545388234,4.7825724114,5.0203574169,-0.1081259689,14.3848118863,-141.0060505189,3.0824744384,3.3953189717,-2.6117927982,-3.6459528499,-8.2224721569,-5.5032197592,-1.042754578,-0.2712676226,-1.2613710613,0.2030238557,4.8588415463,-4.2004294273,0.0881914719,0.1118181336,-0.6260620341,-1.1024943292,11.5921142646,-0.3241610086,6.8094257151,0.0487803347,0.569815475,-3.6240590279,-0.5258825573,-0.8834675749,0.6881344041,2.1568226654,-1.9311263933,-9.0410196505,0.4265302068,-1.9815702358,-3.4970800902,-8.2779219579,-3.1265761664,0.370379922,-6.4758708888,9.5990677232,-4.6676993299,0.424425714,-8.2742681235,-1.3624680707,-1.5368974121,0.5085290895,-36.5567530097,-78.0730500299,1.0744667068,0.6932985601,10.9402742184,3.3208482723,6.6116106963,-3.6444429561,-1.0569165542,-0.2491751168,0.6131473574,-9.3134875433,-2.8197192992,-4.8808242161,-0.6278114319,-5.2123945695,-1.4999127055,2.0865923499,-0.4985239794,-0.3485899714,1.3061917259,-1.038659514,-0.4421613558,0.9184780289,-0.4119457435,-0.5908716783,-0.6304904984,-0.6545838491,0.089244,-0.0448428474,0.7150919849,1.0526367492,0.1010418414,-1.0051407121,0.606657127,0.0346043138,-0.2188251886,0.4522471862,1.415383864,0.0811573329,0.4603518558,-0.7966667425,0.2737331488,1.298567299,0.6852484507,0.1517546024,0.8171480588,-0.8508994984,-3.4619636838,-0.6107309426,0.237463083,0.4229989999,0.150938301,1.1277512128,-2.245296634,-19.0796677603,0.9950871588,0.4916186476,0.4215383922,-0.1029328478,-0.2243620806,0.7350259526,1.6573476388,-0.9019272805,0.2725243887,-1.5364385776,0.7050646662,-0.2323679731,-1.2031454467,-0.5742690349,-0.248354312,-0.6820671933,0.51960435,-1.1118813891,0.6749755337,-1.0302433313,0.3483479835,0.5766701476,0.8122985668,-0.9863007391,-0.4547475771,-1.1857203203,-0.3383529728,-1.8552773353,0.1308956729,0.3555234681,-0.8108883645,0.1376104441,-0.5971761623,0.808435543,0.7443404151,1.4016539669,0.6902705109,-0.0622384137,1.7016315135,-0.4182868872,-2.1290492753,-1.250348159,-0.3343216939,-0.1245476144,-0.2648757499,-3.1667245066,1.0622152649,0.5660969036,1.9645762272,4.7750440933,-2.8285929325,-249.2658126011,-0.1624657153,-0.9509345,-1.0968210579,-0.8253695267,-1.197635603,-0.9719371052,0.4570951455,-0.6680980808,0.7306382623,0.3489671583,1.8522652183,0.1323980216,3.0225566596,3.743471123,-1.8387546364,-0.7541295165,6.3907153648,4.3666873725,-1.6497658354,0.2461467758,-1.0379215167,-1.1519859337,-8.3453255229,-1.3719697608,-2.1848077581,-0.5265896207,-0.6263423413,-65.4076408341,2.5729026725,-0.1458790446,7.0200823989,1.1901323215,-0.5976027062,-1.8485044857,-0.838860996,-2.1198562867,-2.5711057033,0.9737895715,-1.0366516707,0.0129618696,-0.9988021843,-24.0969882532,0.1789716582,-0.3366313197,0.5158962557,1.7264126406,-0.996908697,0.4152833528,6.77159752,-0.609468467,17.3812858902,-9.5918951745,-2.038809372,3.3030239271,-0.8130390072,-0.0113032578,-0.1388329462,-1.2819999823,0.6048900201,-1.9716548706,-0.0952941979,0.5455766387,1.7893905911,-1.03607174,0.2109275478,-1.1186386699,3.6708854732,0.7370358958,-0.1748414228,-0.4885570595,3.2216462559,-0.2199330203,-1.1622509007,-1.2979938413,1.3720993419,-0.2441735672,-12.0428686714,3.4568614278,-2.2801079348,1.7404507955,1.4914207638,0.5471976411,-0.9288687086,0.7705494227,-34.126421663,-0.9485980936,-3.4920922394,-47.8515737737,-1.5083105268,-106.0290036967,-11.9589354779,-0.1862570561,6.9432392408,-0.2619084063,-18.5805699629,-10.4888408652,0.3866490829,-6.7282508517,2.6950134696,9.8569484165,-6.638356343,-3.9355040337,0.3584905706,-0.4866054664,0.9156890395,-1.0552263887,-2.7332554075,-1.6588375864,1.7853116508,-0.8016088411,-2.4312677613,1.0124668027,0.2201120728,-33.1431036108,-4.5102385072,-1.9205320464,-1.1789164182,-0.9897053368,1.9542118128,-1.6664491753,-2.8648373577,-0.9308494668,-0.7462706383,-1.1102127661,-0.4681446798,-0.7419587701,5.1428355963,-1.5566536817,-2.8221073747,-2.3402969071,2.6923639632,-3.2938894689,6.3033848393,-0.4948015797,-0.1370074233,-0.6097265473,1.0442660952,0.0311175663,-4.5331925101,-0.6639210196,-0.9619558392,-1.0697507993,-18.4524522175,-1.2498123855,-0.8529162391,-0.2924199688,-3.0568495632,-0.003905972,0.6747244144,-12.6885725588,2.6621589062,-25.8071078178,-4.6549530991,33.3849798524,-1.9214658001,-1.6896431298,-9.5976083313,-1.4918563716,-1.0765392233,1.9451375537,-1.482727331,-0.1514673473,-1.5018484825,4.6089682152,4.4419425298,-0.0892772053,0.1941066925,-2.8394961332,1.0957654785,-5.6721868223,0.7986363039,2.0613478089,-0.6606041428,-0.8061207204,-0.4978920543,-23.5548493536,-1.7643837931,2.1318123242,-1.2959941059,0.1679472084,-1.7598408173,0.7970931894,-2.1136234027,-1.7644702144,-2.1371673005,9.1515059574,0.4473889468,-0.4711224483,5.3689889273,-127.0893612171,-0.970211689,0.3531515712,-0.8881109108,-1.5316717678,-1.5166966239,-18.6907604327,-12.411780935,0.4307639856,-4.9419706426,3.0215769797,1.7309278416,26.6270744271,6.8163318139,-1.7978767613,0.1735983017,-2.5784147892,0.6853208695,-1.4262511314,-0.1642779315,-1.5628164882,0.5443127299,-1.8578378898,8.7123450798,-1.6602564391,-3.1583601964,1.4834883802,-4.5813409225,-0.0863756716,1.1980448456,-2.8150598908,-0.0267876355,-0.099767305,-1.2298899511,0.0639390532,-45.1349921132,0.0665703652,1.1700292148,-1.792511521,0.2600424444,-0.9612284246,-2.9188095542,-1.3310352046,-0.1803244716,-14.8432368566,-0.3416890783,-0.8201320011,0.2898153571,-4.5947284232,-0.0962912344,-0.8828494526,-2.5372875319,0.1427962973,-0.760605772,-3.3000786364,-0.1403150026,0.0678196944,-1.1419116085,3.6267744033,0.216805747,0.6896873688,-1.6356745267,-0.5400166328,-40.7391047732,-0.5001010543,-13.0696339899,-1.5248104964,-6.2380714419,-5.597527286,0.5592885427,-1.2488889289,-1.3292799735,-0.2651128123,-0.361355609,-0.1519673052,-8.865386387,-1.1325711785,0.9036541203,-0.5664215151,0.7034631843,-0.4447010114,-6.4281746246,-3.4070476357,-6.7322867848,0.1871590572,0.0099387065,-6.9544447003,4.5077165068,-0.6973300214,-11.3919087985,0.8302019424,-0.8034623473,-2.1617887629,-5.6554027093,0.520230005,-1.0280175709,-9.5839171288,-8.4798744704,0.6519867239,-1.0697439765,-13.9548654466,-127.1693299016,-10.9072841518,-21.1471525425,-0.4863043749,0.1700633888,-1.7582842331,5.2492132237,0.7934272333,-1.2287827695,-6.4655379692,-1.4330820185,-5.1510610617,-41.839901873,-0.738421817,0.4471970828,-0.9530404607,-0.4786441209,0.4721776602,-1.1576790675,-1.9327185216,-0.5147787533,-3.9730261442,-0.0772372785,-0.4785215721,0.5165930692,0.5718012081,3.2227470144,-3.2240163291,-2.2800568673,9.4686772862,-18.8866376605,-1.211349961,-4.0408567891,-2.1969044565,-0.2391345077,-1.9740801496,-0.9999206116,-3.1148370431,1.8996223268,1.0116140044,2.2332726304,3.038023662,-7.5508253215,-12.2014619636,-33.1406698134,-7.0873945036,-7.239296107,-0.2299132247,-1.8433322719,-3.5887017025,-2.4902238127,1.034231904,-8.3346160226,-7.1694537224,-0.1911374036,-0.0319066965,-1.7427184621,0.1134954611,-20.3668505937,-2.1270894797,1.0011991269,-17.3120910681,-0.7007882426,17.1178071331,-26.0892266521,-28.3193325168,-25.5980836838,17.5535582631,-6.4411644822,-9.8092193199,-6.3607938477,0.5665965559,-8.1669208701,-1.0702037899,-0.8717222544,-1.0484594432,-2.9626205336,-0.439058788,0.3656043841,-0.9104903913,4.0879489798,1.8840093753,5.7747538672,3.5679933785,-1.0469257639,-0.53289898,-0.7947595971,-0.9323824218,-0.0908666886,-0.9061968229,10.0110439825,-1.7036596444,-9.1755013435,1.7702480209,0.7696320209,-7.8521176097,0.8923360922,-0.5232260195,1.3108908888,-10.9834313854,20.8060488886,-16.5067962153,0.3820822159,16.236542821,-1.5745205213,-0.3620824337,-0.6024751286,-4.0736976553,-19.5382105339,-0.9794593735,4.434688201,-0.9323820457,-28.2557190544,-4.7451780039,22.832449292,-5.4162069158,-0.4895425796,0.4416436428,-4.3939106555,-2.3573450769,-13.9300323304,-0.6027295542,-0.5188222018,18.6173260844,2.3066051354,-0.201369811,17.1922486126,0.5258545499,-1.9240292906,-2.3361221943,4.8383550388,-6.6861748766,-0.8735521027,-0.6823881718,-2.6564902062,0.845556076,0.4690166788,-1.760808822,-1.8103155587,0.8560546109,-1.0938965284,1.7673460712,68.1137379121,-8.683309855,-2.9590197657,-32.8986506998,-4.8841287754,-11.3716292667,2.2072285857,-0.9083866153,2.1994200931,-0.6506621633,1.7841853267,-2.9838448343,-2.7969333641,23.1559962977,0.0362834604,-4.1955293756,0.2235396321,-1.5679844437,0.4846310137,2.8907082159,7.5971587306,-1.1255034039,13.5085952104,-25.2012599672,-7.8204057632,-4.9044564023,22.3884443478,-4.5460559695,-3.452966902,-4.7323426621,-1.263582998,-6.2366905992,0.1042165948,-1.9213143207,-7.6488014318,0.1334218993,-1.7874829382,-0.1484689018,-0.5237861917,1.229709197,8.5704730672,3.1976844784,-0.4174567285,-0.0945027156,-0.1099401036,-22.3750028117,-3.1802968483,-1.4873071338,-0.7913961521,10.7154709329,0.2571446163,-1.8419631303,15.3062094396,-0.513804315,-6.7614421303,0.848408055,-87.7112363068,0.4751421642,-3.3065724653,3.9571241635,-11.4835859008,1.3020189343,2.0087726715,-0.6126056804,-6.4691575965,-0.5971236657,2.6004759744,-4.4271491093,-4.8766322707,-11.0227425132,-4.7341767755,-20.660631613,-2.0076046595,3.1158783262,-3.2562253861,-1.3098113807,4.1030925526,-3.5839556469,-1.0685525568,-4.1121328774,0.236731828,-1.016039765,10.0564109933,0.3921878814,-1.2738153457,1.3807935115,-15.8547566004,0.6682051436,-0.4122431198,-2.1601757626,-1.0538886604,0.3934097962,6.4045399636,-0.3866164265,-1.0491451656,1.3821618202,-0.3822974446,7.0777969563,-1.4718097212,-0.4498439901,-3.7377650329,0.0276857326,-14.408424119,1.1331013631,-2.4183243395,0.7184293271,0.4294203095,-0.0673688404,-8.2305754931,0.097486863,-0.6277132641,-0.9141985445,0.0237954438,-0.0877390771,4.7005064989,-0.9348958715,-2.0124169027,-0.7623688932,0.0757868841,-0.6253522076,-0.7851677365,27.9617748223,-2.1223513727,-17.465252961,-15.2018603293,-75.7804775786,0.9669166182,-37.5822779117,0.7217526004,-0.1575790698,-1.5485853494,0.002400748,1.0485689039,-0.0344992884,-1.1452839862,0.5436216449,-1.4384610077,-0.1306481894,-0.5780176987,-0.308630862,-5.4652423871,-1.4166234757,-2.3503661985,-2.7888085511,-0.4763575297,0.3116346774,-1.8013793904,9.0858110374,-0.0602639889,0.9695110811,-2.657128966,0.7044580621,-0.1748529886,0.5161277327,0.3453401163,0.3448686202,-0.6563770768,2.0800547853,0.3635398021,-0.4628904001,-7.9419394502,0.1692776283,0.3105344789,-0.4660953015,-0.9911092066,0.8923961053,-1.494523567,18.0863361204,-1.6852238427,-3.6973776898,-5.9624882098,-18.6813024302,-52.3094546848,-46.1654845403,-1.8432261457,0.1128225591,-0.259084595,-1.529847551,-0.2899270857,-2.5487836483,0.0945334555,0.5920997374,-1.8379396313,-3.4303088825,-11.9819848312,0.310247374,0.2422219412,-1.8040810339,-3.1436677219,-0.6138782072,-0.2353967907,2.3949229969,0.3767414221,-1.572955021,5.3261894828,-0.590600871,-0.8257244375,-0.9535397622,1.040781264,4.1550943205,0.2995889505,0.0305968877,-15.6371046433,1.055357469,4.6100858281,0.5099208154,-2.7602419084,-0.4046999086,-0.1576447219,-0.2249100974,-1.2387046732,-0.4924470537,-1.01365786,-1.7744930747,0.0423231576,-54.4584795271,-0.0268058563,-2.4081951342,-0.6222792904,-2.3335232926,-0.0665316562,1.2223588978,211.1485534678,1.249637589,-3.492591012,-0.6024367583,-0.2179294864,1.7873705827,-2.6257640387,-7.0305426824,-1.6268398144,-0.042581773,-2.7202306187,-1.54655332,-1.3483670422,-1.0321072327,6.309385738,0.4671064355,-0.5718369448,0.6733019441,-0.3911577086,-2.7828033128,0.5917771728,0.3239492719,-0.7940465167,-1.0470887916,0.4975414346,-2.5848448802,4.0598631704,0.152302136,-7.8284312473,-2.2404607262,-0.8754434799,-1.8010427167,-40.9755955794,-1.4781962568,1.498324414,-0.8815492776,-7.4462129765,-0.5578734133,-0.0344751547,-2.8635670173,0.4608574497,1.5375409018,-0.8948128892,-0.1116988817,0.0289385126,0.0438340126,-19.6139504273,-7.6728743264,1.1402613534,-3.8640474453,-2.5976944128,0.7283708618,-36.7566938767,4.738246956,-0.7785627082,0.0928290343,-1.3180204871,0.2540216518,5.4678548541,-0.5188162994,-0.8589791619,-2.3873963069,-1.3844601485,2.963040541,-0.3201034655,1.7351527217,0.0898230305,35.164731426,1.4092720271,0.196184373,9.4495495684,0.01019107,-0.1164193899,-0.7938484726,0.3674981094,0.7880261319,-0.7619917575,-4.4597692671,2.1040646028,-0.5888242428,-0.0284241334,-0.6788467713,7.4586531017,9.2334057008,4.7057928693,-0.7386442008,-0.6104434769,-0.4592587846,3.5559968641,1.0945805428,-0.5256799705,-0.4700110641,0.3883014287,-0.1121156373,-8.372353276,0.730801991,1.5735516099,0.5105179037,0.6385392277,-0.0039750175,-1.1139490256,3.4918032355,4.2679562736,-2.107164527,1.3119946544,5.9423991237,5.9635235028,1.8303542084,-0.0695825818,0.8169494667,20.9249420795,3.0324265445,0.0860250473,0.5224736616,-0.3623474213,19.1046993046,7.6929877839,-0.450664776,-0.0491860061,0.4468722614,2.8068426629,-6.7000934873,0.8077397255,142.5549933463,0.9647692301,-0.3945480878,12.3853902534,-3.4971180575,-0.2847753855,19.5003957798,1.0854477967,-0.4453676253,-0.8553143823,-2.7896561297,0.5354927309,0.9063284209,0.3647260441,0.376420294,0.6292434963,-0.0604474862,9.8609862391,3.6876968395,0.2348327907,-0.7722427815,0.7473695916,1.6489983408,2.3322268014,-11.2282033786,0.4157047121,-0.2672459397,-24.8246416763,1.9739655663,13.040671022,50.4052086707,8.7530233242,-1.4584636129,-0.746037054,1.3788041465,-1.2916595082,3.2603959384,0.0988359189,0.5914251463,0.1034221477,-0.7174230633,0.2891845384,-0.4569000764,0.1101302003,-0.4828329663,-1.1912431626,-0.0643488575,15.1514651805,-0.2745440614,1.2437251644,-0.5647352714,-0.0635164252,-0.7764001506,2.3277241411,0.8155419253,-2.2393020999,11.5351492872,0.5850270438,0.1550281855,2.0549203358,-0.3145272981,0.5464394559,-1.3189534369,-0.0690562944,1.0068902511,0.2394134947,4.5257279207,-0.4658320356,0.4043649469,0.5268961795,-0.9054071398,-0.6738978711,-1.943712677,0.9704588809,-0.5092929047,-0.0403445435,-0.0420921246,0.2630101683,3.3976340958,-7.2258807329,1.1436661433,14.0741038132,-1.0152362202,-3.3795319694,-2.0291679908,-2.4045043391,9.45295835,-0.8407024151,0.0096143471,-1.7501001299,-1.49888922,0.5926123554,0.0941718502,-0.0866498937,0.8455623964,-0.3516210628,0.5901413623,-1.2220994572,0.3926152999,3.8534904791,0.8927240327,-3.4074865578,-0.2847452727,-0.0916548026,0.1653576992,-9.2660822717,0.6380231719,-0.4866089975,0.1073463033,-0.1437733812,-0.3425088471,4.8409147378,0.3821380823,-2.916046245,-0.4644275405,-0.4713426341,-0.9138818914,0.6440654822,11.7973578284,-1.9522600282,2.4598068808,0.0248245683,-0.3980827074,-1.033318851,-0.4961429434,2.4955547039,-1.3889740325,-0.4046836977,-1.2547549494,5.6761218163,3.7781111615,6.8597152172,4.8016949718,0.3842279646,-0.1031934786,2.723536943,0.025677439,5.7333265818,0.5429020766,1.1319370052,1.1363809118,-0.4685181195,-0.6629702741,0.703396572,-2.9382186075,0.9954016902,-1.9915105603,1.0673126139,0.9553586623,0.436159244,0.6850377504,-0.7409945587,1.8670127052,0.2775027048,1.7551230525,0.3550122492,0.6480375111,4.4436932001,0.2329549795,0.8078256038,-0.5348562029,1.0640724383,-3.1741015926,-1.1139843347,-0.2250187287,0.1328406183,1.2819694244,1.0108191507,0.7482005124,-0.9744787197,0.0985811197,0.6257327401,-0.4882363172,-142.2741239119,0.4700899652,0.8699754662,0.8673614854,-0.473069063,0.8236105872,0.5893354091,-157.8253628609,1.0382337049,-2.3306780755,-53.4720234718,-1.025574045,0.8106992972,-0.4514504155,-2.0363395882,-0.1583173815,-0.3053981795,-4.8355629925,-0.5703290897,1.2469695246,0.7633327324,-0.5199526017,-0.2697248953,0.02285489,-0.1788898292,0.2735583738,1.5080442184,-1.7278284647,3.0290341129,0.4215261722,0.0628421588,0.514595772,-0.6740099943,0.7244193456,0.3823207073,-9.5105215339,0.6055322698,1.9054249376,-0.429368653,22.9635610467,0.3806046535,2.0055224698,1.2388809335,0.2481715531,0.652549735,0.1864990459,3.4835301291,194.3803116028,0.4605220456,1.9816320122,-0.2847519381,0.2859678501,0.7323476712,8.1770741341,-2.8586070889,0.4818746365,11.3521244079,-1.1472955147,8.5707895318,-0.3690304632,1.5809812255,0.264715126,0.2986715892,0.7250388802,0.1720391277,0.3260516209,0.9602989755,-2.1379560355,0.6516171882,0.5851073074,-1.2798529272,0.0210409014,0.0802445159,0.7900760541,0.3235545501,-0.6920001706,-0.3162720433,-0.9158323973,-0.8353099253,0.6296417247,0.8855005483,-0.9225239562,-7.2491655003,-0.4209368657,0.1281331981,0.4715322762,1.9020370371,-0.3736449671,0.369247126,-2.212380652,-0.6255592883,-0.0431096919,-1.1767594561,0.1219028794,-1.3382273928,1.2921883002,0.2013020679,-0.288823967,-0.7385599348,-0.0512167433,-0.1380536311,3.9974020916,0.5072589521,0.8304612313,0.6461280622,-1.0956131022,0.1098599221,-7.5033895952,-1.5815239329,0.5500600142,3.1779529959,-0.4058079625,-1.6011467988,0.8697694355,-1.7000395556,-0.686502938,-1.0185692797,0.4736439159,-1.7753287867,-0.5463050376,-0.7379283178,-0.6192022837,0.9973449229,0.0055554939,-0.3318297483,-0.9140000904,-0.8586208884,-0.5051640685,-1.0608566399,0.4120301963,-1.3642949113,-1.2480089336,0.8839093801,0.3942276929,1.3240664988,-0.8613885312,1.1073092111,-1.2427117295,0.3501978485,-1.2751806143,-2.6107428068,0.3020746971,-1.1355192529,-0.1141720702,-1.1775145596,0.2484450998,-0.3603102873,-3.8722263923,0.3788151828,-0.5836370111,-0.4098510076,0.6805678143,1.2920630209,-0.032138082,-1.6648739699,-0.0022574288,0.3686130401,0.7698662488,3.7109641262,2.9147417255,0.5329369052,-0.683382986,-0.54234611,0.1661492782,3.0741862925,0.8394301843,3.1575906225,0.3998188249,0.3375672657,-0.0036608796,-0.5443521305,-0.2349216758,-0.2264941976,-3.8961653524,0.3189821091,0.2161450338,-2.3670816688,0.4178214502,-2.0880389725,-0.6045915782,2.4860908479,-0.2612601828,0.1985890916,-21.0531813682,-0.9497799843,0.1850174613,1.0721276554,0.9802480041,-0.6867639093,-2.9674298802,-1.2739926171,-1.1744802119,-1.6815482164,-1.3925799922,-0.4867050511,-0.5098235411,1.4502647099,-2.4628221739,-0.8733895943,-0.6160852081,-0.6003773955,-2.1606393557,0.7641864884,-0.0515145277,-0.5876629558,0.5325976982,-1.4722687072,-0.4641832885,-1.6300177029,9.1174791421,1.7020891101,12.2760925745,-37.0159583942,-1.993077477,-3.4465083907,-18.4046908722,0.2079830631,-2.9819626197,-0.1021354808,-1.3658708716,0.2999582344,-0.4024739486,-0.9695622145,-3.6597152476,-0.0747164547,-0.4710481103,-1.2361543603,1.0067743225,2.4241597376,-2.1041623678,-0.4952398211,2.0944813676,-0.0969660947,0.2130198634,-2.6426201631,0.080028764,-2.0243188132,-0.1974670139,1.8269069055,0.2938473044,-0.5393699579,-5.8487445155,-1.3687861635,-0.4402997957,-0.0693980228,5.4885508378,0.5783918176,0.5449318331,2.2324675044,1.8012009366,-0.0044401274,0.2024657715,0.0564194232,1.4416324226,-0.8568371274,-31.261936419,-4.715307911,1.1087585658,-2.0769498325,4.9679183514,2.2666992609,-8.419190248,-0.2572231646,0.0479202233,0.0666851796,5.173758885,1.4409476726,3.9235656557,0.2336438178,-0.0397797511,-2.3092444262,0.0920826797,-2.0927412204,-1.2448290618,0.1959755698,-0.6253445696,-3.425424494,0.5488235369,7.2322315403,-7.2579814567,0.6033711535,1.2495894441,-5.5912341185,16.6545731018,-2.8444182386,1.5171915114,0.0449034962,-2.731189709,1.9671193053
