encog,BasicNetwork,java,3.4.0,1,1667674238312
[BASIC]
[BASIC:PARAMS]
[BASIC:NETWORK]
beginTraining=0
connectionLimit=0
contextTargetOffset=0,0,0,0
contextTargetSize=0,0,0,0
endTraining=3
hasContext=f
inputCount=784
layerCounts=9,75,101,785
layerFeedCounts=9,75,100,784
layerContextCount=0,0,0,0
layerIndex=0,9,84,185
output=0,0,0,0,0,0,0,0,0,0,0,0,0,0,0,0,0,0,0,0,0,0,0,0,0,0,0,0,0,0,0,0,0,0,0,0,0,0,0,0,0,0,0,0,0,0,0,0,0,0,0,0,0,0,0,0,0,0,0,0,0,0,0,0,0,0,0,0,0,0,0,0,0,0,0,0,0,0,0,0,0,0,0,0,0,0,0,0,0,0,0,0,0,0,0,0,0,0,0,0,0,0,0,0,0,0,0,0,0,0,0,0,0,0,0,0,0,0,0,0,0,0,0,0,0,0,0,0,0,0,0,0,0,0,0,0,0,0,0,0,0,0,0,0,0,0,0,0,0,0,0,0,0,0,0,0,0,0,0,0,0,0,0,0,0,0,0,0,0,0,0,0,0,0,0,0,0,0,0,0,0,0,0,0,1,0,0,0,0,0,0,0,0,0,0,0,0,0,0,0,0,0,0,0,0,0,0,0,0,0,0,0,0,0,0,0,0,0,0,0,0,0,0,0,0,0,0,0,0,0,0,0,0,0,0,0,0,0,0,0,0,0,0,0,0,0,0,0,0,0,0,0,0,0,0,0,0,0,0,0,0,0,0,0,0,0,0,0,0,0,0,0,0,0,0,0,0,0,0,0,0,0,0,0,0,0,0,0,0,0,0,0,0,0,0,0,0,0,0,0,0,0,0,0,0,0,0,0,0,0,0,0,0,0,0,0,0,0,0,0,0,0,0,0,0,0,0,0,0,0,0,0,0,0,0,0,0,0,0,0,0,0,0,0,0,0,0,0,0,0,0,0,0,0,0,0,0,0,0,0,0,0,0,0,0,0,0,0,0,0,0,0,0,0,0,0,0,0,0,0,0,0,0,0,0,0,0,0,0,0,0,0,0,0,0,0,0,0,0,0,0,0,0,0,0,0,0,0,0,0,0,0,0,0,0,0,0,0,0,0,0,0,0,0,0,0,0,0,0,0,0,0,0,0,0,0,0,0,0,0,0,0,0,0,0,0,0,0,0,0,0,0,0,0,0,0,0,0,0,0,0,0,0,0,0,0,0,0,0,0,0,0,0,0,0,0,0,0,0,0,0,0,0,0,0,0,0,0,0,0,0,0,0,0,0,0,0,0,0,0,0,0,0,0,0,0,0,0,0,0,0,0,0,0,0,0,0,0,0,0,0,0,0,0,0,0,0,0,0,0,0,0,0,0,0,0,0,0,0,0,0,0,0,0,0,0,0,0,0,0,0,0,0,0,0,0,0,0,0,0,0,0,0,0,0,0,0,0,0,0,0,0,0,0,0,0,0,0,0,0,0,0,0,0,0,0,0,0,0,0,0,0,0,0,0,0,0,0,0,0,0,0,0,0,0,0,0,0,0,0,0,0,0,0,0,0,0,0,0,0,0,0,0,0,0,0,0,0,0,0,0,0,0,0,0,0,0,0,0,0,0,0,0,0,0,0,0,0,0,0,0,0,0,0,0,0,0,0,0,0,0,0,0,0,0,0,0,0,0,0,0,0,0,0,0,0,0,0,0,0,0,0,0,0,0,0,0,0,0,0,0,0,0,0,0,0,0,0,0,0,0,0,0,0,0,0,0,0,0,0,0,0,0,0,0,0,0,0,0,0,0,0,0,0,0,0,0,0,0,0,0,0,0,0,0,0,0,0,0,0,0,0,0,0,0,0,0,0,0,0,0,0,0,0,0,0,0,0,0,0,0,0,0,0,0,0,0,0,0,0,0,0,0,0,0,0,0,0,0,0,0,0,0,0,0,0,0,0,0,0,0,0,0,0,0,0,0,0,0,0,0,0,0,0,0,0,0,0,0,0,0,0,0,0,0,0,0,0,0,0,0,0,0,0,0,0,0,0,0,0,0,0,0,0,0,0,0,0,0,0,0,0,0,0,0,0,0,0,0,0,0,0,0,0,0,0,0,0,0,0,0,0,0,0,0,0,0,0,0,0,0,0,0,0,0,0,0,0,0,0,0,0,0,0,0,0,0,0,0,0,0,0,0,0,0,0,0,0,0,0,0,0,0,0,0,0,0,0,0,0,0,0,0,0,0,0,0,0,0,0,0,0,0,0,0,0,0,0,0,0,0,0,0,0,0,0,0,0,0,0,0,0,0,0,0,0,0,0,0,0,0,0,0,0,0,0,0,0,0,0,0,0,0,0,0,0,0,0,0,1
outputCount=9
weightIndex=0,675,8250,86750
weights=##0
##double#86750
   0.0576070257,0.1015184831,0.9418665442,0.3387200139,-0.7881426966,-1.0299430453,-0.6372746252,0.1466042881,-0.6947687239,0.1188686105,-0.5139658334,0.5747780737,-0.5717029278,0.4768604629,0.7741555163,0.0130710928,-1.0917523493,0.4738125077,-0.6318153339,-0.6100686701,0.1433003108,0.5846402819,-0.2064430564,-0.7179357498,-0.0978144259,0.7343805618,-0.1924842614,-0.4606964812,-0.815041933,-0.0127191689,-0.2037832904,-1.0223589754,0.6659540856,-0.6425149178,-0.8686726282,0.1510899313,-0.7027624954,-0.1331382486,0.6083375887,-0.1485000382,0.7866167694,0.388347102,-0.4042937709,-0.325015971,0.0281194155,0.0052381613,-0.3633912813,-0.3221316093,-0.0217497458,-0.3620177493,0.4385682409,0.0629216715,0.4599128651,0.546642202,-0.6743287745,-0.1716702942,0.6043664109,0.3816741917,0.1630290236,-0.2300480563,0.2322837208,-0.4540550105,0.4914099639,-0.4942674773,-0.983186646,-1.0324478026,-0.4015191772,0.1906501166,-0.4618214116,-0.5738743352,-0.6856070786,0.1128833087,-1.2872058165,0.1435933881,-1.0670021639,0.4124286842,0.1709038711,0.2131849946,-0.9533696334,0.6896289141,0.7913967355,0.1759351251,-0.3445412091,-0.1139250588,0.0141932066,0.2355765386,0.3222479359,0.8938289557,0.8789197499,-0.2025984567,0.1074298219,-0.5657507595,-0.19882004,0.600448469,0.172697433,-0.7461938128,-0.8033278367,-0.6059539895,-0.3475712536,0.659846663,-0.0136243035,-0.5024760656,0.3716462519,0.9254190077,0.2979361652,0.8700694547,0.8405115865,0.1951443844,-0.7844821935,-0.6130295785,-1.0218004742,-0.710360924,-0.6303938959,0.1670055591,-0.1906051283,-0.8550608195,0.0567053596,0.8048254653,0.4243930951,0.0682513554,0.8534824877,0.9109971121,-0.8506224847,0.1109035667,-0.6987352589,-0.2278151071,-0.6176575537,-0.2667182455,-0.645915217,-0.1479962707,0.8282549445,-0.7349186539,-0.7424718685,-1.0303475249,-0.1521980542,0.8094883388,0.8224353491,-0.1977092085,0.2179942544,0.2095460443,-0.1969914342,-0.5812502802,0.1948053262,-0.0827537746,-0.5208262802,-0.1727328418,0.8614961369,0.481712926,0.8596833599,-0.4295940824,0.6002335995,0.053919899,-0.5373309408,-0.0942006179,-0.0811462439,-0.1877392547,0.2599092973,-0.6830774324,-0.355634022,0.9388543487,-0.3187763118,-0.4431088118,0.0624598117,-0.5429364502,-0.2113068882,1.1964571499,1.0738934483,1.058856425,-0.1414954181,0.2467388916,-0.8082422302,-0.2467542017,0.9860332259,-0.8449442895,-0.7317457115,-0.1251677781,0.4086568589,-0.2343189306,0.4503518327,0.0771870868,0.7754204182,1.0343708118,-0.7769242611,0.6269449874,-0.3086950151,0.9589593262,0.2535851628,-0.3668568715,-0.4814367795,-0.2228975944,0.3461825399,-0.5828621715,0.5990238208,-0.5228020175,0.6894214019,-0.0084802491,0.4921453729,-0.0837554535,-0.4085962053,0.4064181221,-0.4961717488,-0.5148137735,-0.2261969806,0.0232139149,-0.6610400713,0.1268870112,0.0135633339,0.0884036516,1.0928488921,-0.1697078208,0.9531921549,-0.1255478401,-0.7661388338,0.4952014206,-0.2609944515,0.1726315637,0.9028348944,-0.6164254743,0.0787142957,1.0728597456,-0.138058335,-0.0602919538,0.0801694035,0.5680169777,0.1938923287,-0.8850939942,0.4652016736,-0.6397569865,0.6417959894,0.7542683036,0.6868602338,0.5250901961,0.327836808,-0.5546121848,-0.57823214,-0.0687654773,-0.1567290157,0.8908027257,0.6982449045,0.6034652301,0.4955449142,-0.4556619656,-0.0940265405,-0.1897923705,-0.5176546522,0.4116217186,0.3132374585,-0.0592600002,-0.4785571467,0.3541851265,0.2456696586,-0.8087203733,-0.3276821637,-0.041814054,0.2701834112,0.7668796285,-0.2501268899,-0.4831259523,-0.3918285079,0.348665793,-0.8913833748,-1.0010112305,-0.3925421643,-0.0025288352,-1.080121881,0.699337732,-0.4180309202,-0.3725390192,-0.027156694,-0.1867397504,0.4163871495,0.0464773783,-0.3676592122,0.008617026,-0.4223377871,0.2381727477,0.1673202746,0.1310509113,0.2449751155,-1.0754918875,0.3290301893,0.3040299823,-0.8705816692,-0.2242720264,-0.0608326383,0.7591394208,-0.3708093662,0.1435244418,0.1507088474,-0.5138371704,-0.8660143664,0.7435073503,0.226757854,-1.0765841809,0.4286132004,-0.0233238062,0.359132059,-0.787264174,-1.0872051259,-0.3155719473,-0.7460003877,-0.0907188619,0.9904797454,-0.3701488627,-0.7864821468,-0.7724046621,0.7332258163,-0.7135127697,-0.2273641503,-0.1566121709,0.9700047978,-0.3508195739,-0.0423058934,0.9840681188,0.9810491888,-0.7628594186,0.7904478299,-0.418493017,0.46439005,-0.4952204081,-0.1133656697,-0.4809547014,-0.0784066749,-0.2267123337,0.8602532858,-0.3460948466,0.3292910193,-0.3129258323,-0.4122358695,-0.0087638942,0.0364638281,-0.3542358855,-0.6177081736,0.9478883933,0.3339030074,0.2605524925,0.2333216125,0.5524527142,0.3025937295,0.8435613216,-0.0578743473,0.9815731604,-0.1679370298,0.058845878,-0.5264117734,0.621019885,-0.4475341314,0.0206195217,0.9017911283,-0.7498235429,0.9500048016,0.1390363238,1.0256578482,0.1451204887,0.4451810129,0.3340095695,-0.5888318618,-0.4731391177,-0.5459399376,0.2527783856,0.7730185236,-0.1099835564,0.4846516546,-0.4128989974,0.0766665252,-0.156857337,0.2655932646,0.0916976986,0.3564084646,0.6640337307,0.3843696832,-0.3664092848,0.9520175753,-0.0247242287,1.0364142768,-0.4699201271,0.6799599456,-0.6472877681,0.1431284178,-0.0172819853,-0.5634064163,-0.8291735138,0.0309430025,0.1512646029,-0.5044399,-0.4467747491,0.7305920294,-0.4350935131,0.8270696161,-0.5791733162,0.5837338953,-0.1556462845,-0.8963981547,0.3451140148,0.2134474384,0.5995208549,-0.6082112349,0.4277683455,0.688981666,0.0144980379,-0.4894032714,0.5469547414,-0.1682316845,-0.7851816797,0.5338203918,-0.512275749,-0.4588277772,-0.9797001851,0.7686487893,0.0701795382,0.8214539554,-0.7257045235,-0.6338727803,-0.1571417675,0.0133380092,-0.6830575594,0.6592386634,0.9554225014,-0.3718552537,0.5932154637,0.2939310928,-0.570528668,-0.9852358825,0.4255661198,0.5695107559,0.4002853073,-0.0487586617,0.6125699041,-1.0410432666,0.1523176616,0.1710260259,-0.2830404113,-0.8599367125,-0.4663276694,-0.0678359875,-0.5491308392,-0.4650860182,0.6328581857,0.7050077609,0.0112596601,-0.21031619,0.7466581819,-0.1352290281,-0.863535476,-0.7372461568,-0.4222832209,-0.0419121872,-0.4669041536,-0.0484000824,-0.5259980342,-0.1619875508,0.9434181372,-0.5481113464,-0.7234833091,-0.8569105891,-0.7518210422,-0.301907443,0.5145778295,-0.6712298521,-0.2699254612,-0.2645283701,-0.9280813723,0.2830084314,-0.06576782,-0.3387257184,-0.7100589297,0.5819241724,0.6550550586,0.3296585108,-0.9133291581,0.6178574419,-0.2641856586,-0.5965936396,-0.400847925,-1.0267440445,0.7149904887,0.7795282582,-0.0765794282,-0.1386699512,0.0725299983,0.1390939249,-0.2529608493,0.4790966315,-0.1312784138,-0.943676022,0.6572860501,0.8686876404,0.3387705662,-0.3013787533,0.0310551144,-0.0294997492,0.143791003,-0.9886812854,-0.5737623603,0.3937790302,0.913305034,0.6926801342,0.8271104215,0.4719725891,0.3728101545,-0.8592644313,-1.1577570517,0.8244216204,-0.905685235,-0.8520364061,0.7758008603,0.3639800724,0.0656432375,-0.9312438064,0.4952230316,-0.8101908251,0.6526089627,0.4510301362,-0.5518386379,-0.5336828157,-0.9654443765,0.5031315562,0.1491614441,-0.8123635757,-0.15273421,-0.3938270008,-1.0241026653,-0.5201308755,0.4315767638,0.4324035892,0.1842046553,0.3096957892,-0.4661194271,0.6756234818,-0.3301081488,-0.1815560737,-0.1040187475,0.5302045537,-0.5111722091,-0.5103399688,-0.2308210837,-0.2453359492,-0.5327341852,-0.1457711354,1.0179423485,0.2615942207,-0.1526000415,0.1458920416,-0.7589932955,-0.379473882,0.817454443,0.9234082379,0.7914809458,-0.7508724256,0.5819723219,-0.8538272251,0.6595653295,0.6712613357,0.6886722014,-0.3066856043,-0.6775655044,0.5194112496,0.2099541273,0.3708703955,0.6485413319,-0.3469132571,-0.6138183027,-0.4913175669,0.480920632,-0.6558760646,0.3354978573,-0.2622514179,-0.5366079345,-0.8395383339,0.7693602294,0.1808899531,0.4759806278,0.1122410169,0.1720471252,0.5847870245,0.9826077935,0.4973870355,0.7358396692,-0.379811993,-0.6160458717,0.5850759765,-0.6642187769,0.2786765859,0.3990439791,0.3943783814,-0.4498577585,-0.6218074933,0.3539319812,0.8093858728,-0.577000088,0.4598293253,0.5968492575,0.7755885184,0.0033280646,-0.1891297913,0.990407564,-0.2720016288,-0.1786327433,0.9489266829,0.681470831,0.6538013277,-0.2539202037,-0.5805540086,-0.3488459512,-0.5334847857,-0.2138851519,0.636142963,-0.9056185273,-0.6213920535,0.6158968954,0.8041691081,0.5322818231,-0.812858468,0.6437862267,0.8770604581,0.6215906818,-0.8821167504,-0.5205945916,-0.5081704627,0.5883447733,-0.8430285606,-0.6538423818,0.5074339726,0.1041474944,0.6350261818,-0.6057426558,-0.7333713777,-0.6545970484,-0.7058526495,0.1422926986,-0.9048498521,0.4569774137,0.9806597298,-0.5757751414,0.8107936054,-0.8069339659,-0.7254086197,0.044616691,-0.9622280149,-0.1479472565,0.2631254086,0.7255802339,0.4901771449,-0.5507831523,-0.4765549017,0.748870684,0.7209268241,-0.2436217473,0.6984138883,-0.0685739945,0.9556997968,0.9228787152,0.7375459393,-0.0473066982,0.3305696792,0.4513578377,0.8614573189,-0.3691306856,0.6651896719,-0.138717513,0.1047377608,0.7880612671,0.3795734818,-0.2868279658,0.4042325861,0.8840542593,0.9569702886,-0.5663510681,-0.2492745532,-0.7000441258,0.7355640638,-0.7511290801,0.8823187893,-0.9090596728,0.451378723,-0.9293677634,0.1227900794,-0.2879987907,0.7689888466,0.4628649649,-0.2178569617,0.7520846964,-0.2206719252,0.0512637546,0.2340144289,-0.2420115711,-1.0309779088,-1.0959632492,0.1818908405,-0.913724894,-0.9915624521,0.5642897112,0.1103728664,0.4265181994,-0.7982103117,-0.7159263786,0.9961481646,0.8701269502,-0.5372447045,-0.9022309685,-0.1312155458,0.3090694917,0.1304766141,-0.9534730896,0.2239694597,0.5071551711,0.167418114,-0.675245485,0.7972351499,-0.7644065627,-0.220609442,0.788033198,0.1302135281,0.3312855948,-0.3233821336,0.9296876986,-1.4744407674,0.9127595773,-1.2100433434,0.2699849313,-0.2289168564,0.7746584408,0.9681398073,-0.0107205076,0.2171952317,1.3420454184,1.5596011455,-0.0236332161,-0.872695627,0.4858231338,0.5873555726,0.4147536333,0.0377326362,0.5006425891,0.0992617982,0.0968035686,-0.7602688036,0.4180892577,-0.9249194396,-0.7964154876,0.0298810661,-0.684468142,0.3719785578,-0.1542532173,-0.0096704409,-0.1102814072,0.3427018122,0.7047849692,0.3387813758,-0.1070789358,0.370862756,-0.7101245027,-0.5613313803,0.9005302562,-0.2737690854,-0.4308974496,-0.9982819821,-0.6770605597,-0.3910025471,-1.2027473766,-0.7527764037,-0.4221086803,-0.6488520602,0.5657851675,-0.5066421314,-0.3023815712,0.5566386029,0.5143325992,-0.5691046168,-1.5281815842,0.6107891921,0.6832119773,0.5665940006,-0.1097860067,0.2928205875,-0.6415021542,0.1371939339,-0.1038833325,0.5127412225,0.2771089442,1.0749577361,-0.309063112,0.0281699151,0.2367374788,0.1115581413,-0.2717343329,-0.4512781934,0.5716864548,-0.295548753,-0.5788236646,-0.1109077706,0.5151384867,-0.0494497611,0.8902816945,0.7576565871,1.067714981,0.5586365122,0.0107978926,-1.9631165346,0.6001463806,-0.4174530756,-0.5677253585,-0.3967333086,-0.5289818538,0.253321055,-0.1502225522,1.126097267,0.9284482698,-0.7384119792,-0.6813176723,0.5056629121,-0.1487174599,0.9698779346,0.6857348013,-0.5997840464,-0.3433330157,-0.275819748,0.4968274646,0.5919179361,-0.6875246515,0.0279104138,0.0532534224,-0.7234103089,-0.3596430232,0.7218225764,0.219780969,-0.914336353,-0.2947070551,-3.504108198,0.351033583,-0.2566902654,0.670922272,-0.8378516409,-0.3927998717,0.2431351304,-0.6439900029,0.6892224333,-0.080966296,-0.5020920785,-0.3186565438,-0.133627813,-0.5334513202,0.8203411274,0.70231113,0.418110675,-0.4992777757,-0.0482257999,-0.196307292,-2.6033339108,0.5994532155,0.784286876,0.1856728837,0.0052390404,0.6389651061,-0.346773869,-0.8503813247,-0.397995648,-1.056112236,0.3006658494,-0.898227518,1.2751101677,-0.0231095939,0.4324740783,-1.2540225019,-0.4280953581,-0.1989855025,0.2824502801,-0.6206471373,-1.2397339749,-0.8836233459,1.0755985967,0.5487753156,-0.7704952847,0.0909393886,-0.0554368495,0.4081306517,-0.1177523011,-0.3099723632,-0.0822273254,0.2896433926,0.5405482026,0.12054997,-0.2839641227,-0.5353823114,0.1597873977,0.3577108247,1.362619127,-0.7748008942,0.4760677601,0.5113019191,-0.1370796266,0.5252707954,-0.3388832799,-1.3475390618,-0.5881377699,0.8207448718,0.9928385518,0.5816703164,0.1957353011,0.8258034976,-0.2432159884,-0.7293854223,0.8173064414,0.1598632384,-0.7265953802,-0.1225930464,-0.7910599679,-2.5075606337,-0.0495277691,-0.2831539279,-0.8688307137,-0.7134876394,-1.2148317411,0.3649495374,-0.0301478595,-0.6319785995,-0.5944614794,0.0189163856,0.461434694,-0.5582756703,-0.0089912742,0.7767041253,-0.3474400104,0.56858317,0.9075296516,-0.522077146,0.3205091416,-0.9527455499,0.282774812,3.7179214322,-0.6653491275,-0.9826970412,1.0596475592,-0.1226843038,1.775492715,-0.1147973107,0.5094176831,-0.1847970372,-0.2619086792,-0.8391734142,1.2241958895,3.1769682378,1.0034487676,-0.1688706146,-0.8861609451,-1.9701503104,-0.0703243682,0.6379155849,0.6738125208,4.1923744366,1.2780601963,0.0561708537,0.643591852,0.0086584405,-0.5081405167,0.0856639064,-0.2939787269,0.1552597951,1.2273634601,-0.1885397082,0.5628593235,-1.4204618376,0.3605287115,-0.1632117417,1.4757883559,-0.628870334,0.3023492805,0.3132299165,0.648413762,1.102103282,-0.0641302982,0.4823712927,-0.3111893228,-0.0059637126,0.9852125077,-0.3831098036,-0.6038823549,-0.8497324576,-0.1034509189,-0.6725966678,-0.603291756,0.2509280414,0.7228161991,-0.3173173516,0.1207713636,1.1060805482,0.0783439071,-0.1904089989,-0.0373994424,-0.4267921136,0.695357367,1.1041840922,-0.5457613022,-0.3014694793,0.511787942,-0.0144623064,0.3913713513,0.889354618,0.0174265727,-0.4430322851,-1.5357783759,0.0893831782,0.632853148,0.5559937744,-0.4734142841,-0.3592368268,1.1329508117,1.9098579334,1.6245230406,-0.4082423601,-0.3236008331,-0.3247555633,-0.2076388732,0.944912207,-0.4238102133,-0.2100972351,1.0056558491,0.4069675729,-1.2551109811,0.817748311,0.9595931142,1.8985907617,-0.3586577403,-0.4149144174,0.6686313202,0.5970936374,-1.3413969355,0.8668669459,0.2087106139,-0.358724556,-0.383673844,0.2433532733,0.7717735532,0.7031310112,0.8916747887,-0.3672588792,1.0079916731,-0.4811970998,0.4232926341,1.4371853653,0.0672023799,0.3277344396,-0.0329488464,0.5321254589,-0.7518432296,0.8833510262,1.2247183204,-0.0385538083,0.0053536357,-0.9181447775,0.9343142313,-0.4724702124,0.8698125746,0.13351918,0.9925709701,-0.2763248476,-0.5493938873,0.5645564181,-0.0731626124,0.8137702847,0.5733901858,0.5685307173,1.7245196499,0.3746084685,0.3271772656,-0.0961015442,1.0268808564,0.3785964157,0.1337196756,1.0194220899,0.3662592771,-0.7056403003,3.6356595565,-0.0764027454,0.567803316,-0.4192501478,0.2631293223,1.1885885129,-0.0376672455,-0.5078242401,-0.5301114511,0.9431868744,0.8802663016,-0.3245814022,0.0180519418,0.1690543415,-0.4464296598,3.7357508327,-0.5959162551,-0.5515684478,0.2782503819,0.8662049,0.2987368747,-0.877603307,0.481283873,-0.813643872,-0.0301680018,-0.6030227932,-0.4432646338,-0.7656522477,0.7996561777,-0.3424569258,-0.8914214528,0.2761217226,0.2680566635,0.4106816923,0.4230997137,-0.3957082017,0.6292765863,0.7703699216,0.9470672448,-0.3219717995,0.2067104941,-0.183033373,0.3743184666,-0.7709551373,-0.8390436023,-0.4860382235,-0.3464643684,-0.635215753,-0.1029568483,-0.1822165527,1.0443798348,0.4345794843,-0.7629107116,0.4783953295,0.3755947289,-0.5318752405,-0.6337988455,0.2211268356,0.1872819072,-0.8582641716,0.2581200427,-0.9865416069,0.7028817455,0.71879407,0.3097872681,0.0753215204,0.9463265352,-0.4347838168,0.5462536437,0.6632219184,-0.587370148,-1.5381843516,0.4289678846,0.8765053702,-0.3766204812,-0.3937452419,-0.2776846697,0.2048251258,-0.7529615628,-0.7847741811,0.3821269708,0.3697958949,-0.8565825134,-0.5092733564,0.2412939218,-0.2516041625,-0.8588770233,-0.4283163541,-0.2993630945,-0.7140127948,-0.9321990329,0.5240887997,0.042631173,-0.1799391224,-0.0564690837,0.1042131739,-0.1485914838,0.3227970075,-0.2552177535,-1.5593729662,0.1596550798,0.0611408937,0.4097795421,0.5091188554,2.2262559288,0.2004222177,-0.5067247489,-0.2636671156,0.6913870232,-0.4341860413,-0.4068046787,0.0017292785,0.1882241798,-0.8013298606,-0.2701021813,0.5104169782,1.383704164,-0.7502606438,0.0951365761,-0.6830121514,0.2792982211,-0.5050276329,0.3518618456,-0.5849368991,0.2142333385,-0.6378161457,-0.3408865155,-0.3295896332,0.4999755557,-0.5768429289,0.146518721,-0.0582354079,-0.8906168905,-2.9314470818,-0.7486351307,0.7052863939,-0.2385247681,0.8836460563,0.5839134368,0.8823518217,0.076559937,0.2759814938,-0.7901619896,0.5512109447,-0.8520972224,0.5462652605,0.1535105781,0.30462335,-0.2962365739,-1.0509450229,0.6866937666,0.3555247367,0.0944759133,0.1287510277,-1.0906653251,-0.8550908179,0.1325496188,-0.8323256312,-0.1420425165,0.4136066196,0.07900589,0.8677168362,-0.990541414,0.9119152336,-0.8457762633,-0.6606468287,-0.5664420327,0.0395926898,0.4167077957,0.4489796433,-0.9686510783,0.6887943791,0.2902217329,0.4478525805,-0.0484167233,0.7578193062,-0.8942916012,-0.0896272267,0.6590776329,0.8879475516,0.6292517828,0.5696112793,0.2572700207,-0.1820241006,-0.6778991995,-0.4899392259,0.1342009923,-1.0312513073,-0.1263033899,-0.5641807999,-0.6895272804,-0.9616647819,0.2859878388,-0.941793911,-0.7610982073,-0.0147014879,0.7095147538,-0.4687641259,0.8185977303,0.1633279645,0.1933580773,-0.4379379077,0.6306514366,0.2688588238,0.732315094,0.9101175681,0.2211943838,0.0994047226,-0.95560701,0.4509196304,0.9175540277,-0.693503607,-0.8251779254,0.2823919593,-0.4659455674,0.2578144107,0.8686613123,0.4456473288,-0.4271885408,-0.2599094929,-0.389321656,0.4982325702,0.4590626134,-0.4078750238,-0.0322682816,-0.8129950977,0.2818753559,0.696027904,0.0600064319,0.3009404038,0.3348183962,-0.7560069315,-0.0178197487,0.9354802248,0.8308447657,-0.3226095321,0.9236159452,-0.2020674141,-0.7647973122,0.9878713993,-0.605897652,-0.6655502287,0.208395487,-0.7420302249,0.9462573784,-0.6277390455,0.824308583,0.5088615824,-0.8453993452,0.7711460472,-0.0858357549,0.6036050895,0.6110177629,0.4065654839,0.9274683955,1.0922446416,-0.6819646002,-0.2161976299,0.9268548065,-0.0273325424,0.022961776,-0.1529551181,0.2001803737,0.6874600303,0.7408423896,-0.6825759224,1.0752919942,-0.5656703255,-0.1283721472,0.6296737753,-0.5013750159,0.6366236644,-1.0322243779,0.0126387354,-0.6825606594,0.5081593926,-0.1670541653,0.1017361265,-0.410608596,-0.2033927633,-0.3232146159,-0.1640493385,-0.3745618797,-0.9598847321,-0.4520521468,-0.7472138932,-0.7701801013,0.9498194356,-0.1756916896,0.0493416584,0.2169589601,-0.5144350474,0.6829724998,0.8570182766,-0.2878531169,-0.9730396294,-0.6902278853,0.348650051,0.0569637702,-0.0984560444,0.2799674351,0.5407596635,0.8812550038,0.4803489291,0.0056006279,0.3511353379,0.4015451964,0.4061417936,-0.5954582052,0.4853507107,0.4664179216,0.2011209043,0.9039075144,-0.257992897,0.5852937441,1.0266918122,-0.1436968287,0.5336893781,-0.633132449,0.4357381862,0.199035804,0.3868951173,-0.2282482587,-0.5404093316,0.2124209468,0.3625137393,1.0808085087,-0.0944560474,0.900472521,-0.3147892633,0.1457305594,0.2236227845,-0.7704513925,0.8852143242,-0.7672892604,-0.886481443,-0.7776578042,-0.2781922155,0.5462257537,0.7467302353,0.6067855711,-0.6523907315,0.6903896886,-0.5404931128,0.6698667806,-1.8544211029,1.0967891714,-0.6464939041,-0.0497550861,0.2274121538,-0.7670675451,-1.5611397229,0.7349282386,-0.2582511462,0.0311893878,-0.2801479477,-1.5234951989,-0.2908703368,-0.1911739236,-0.689741367,-0.3630748827,-1.1447128563,0.0046871193,0.7175145902,-0.5632948739,-0.0638503687,0.7376838332,-0.1745915369,0.5408323864,-0.5381745754,-0.0659324877,0.2875958143,-0.3535378023,-0.1123404835,-0.39341369,-0.7037662092,0.3968611209,-0.2214509115,0.9850315106,0.1104926084,-0.7055706446,1.027303911,-0.0166416085,0.7772801821,0.4962914447,0.9524529879,0.0335414885,0.6634780614,0.6081787622,-0.7055692334,-1.0530942025,-0.4612324654,-1.0368797502,0.1679744334,0.5786418301,-0.5013858866,-0.4297460689,0.5154702887,-0.605714725,-0.6075770167,-1.0609626112,0.3981601747,-0.0307813932,0.9232234209,-0.6452899534,-0.4775724503,0.2565631578,-0.1754882794,-0.443502017,-0.4687828423,0.2647857577,0.7443949634,0.1870659083,0.4094576025,0.82231501,-0.6434176038,-0.509842228,-1.0556436047,0.3933036455,0.8290055241,-0.5053171843,-0.1847463079,-0.9405974398,0.2141596906,-0.5818716835,0.3858771645,-0.9885649295,-0.8697437656,1.848447536,-0.4048609325,-0.133260127,0.3356303876,0.2022171035,0.6436807547,-0.0768962237,0.5079862046,0.1381594951,-0.3344274806,0.0705545336,0.2427495473,0.2183930688,0.6357977905,-0.6865902583,0.278235339,-0.1723136694,0.4129093886,-1.0856567238,-0.8991470657,-0.6447902738,-3.3388097733,0.4134907729,-0.1537521701,-0.2568320935,-0.0645443918,0.2347035444,-0.5072120544,0.0708368474,-1.8299340652,0.6434722789,0.4002548653,0.5908144611,0.1770871041,-1.8071303857,0.1035709898,-0.6102250938,0.6003459744,-0.8738620603,-0.1348398099,-0.3410537488,0.1055913792,-0.7353654341,0.7877298588,-0.5819188326,-1.0700591795,0.2093764839,0.0149876752,-0.9045703794,-0.4926937876,-0.4837285144,-0.9677513555,-0.7721981168,-0.3188632623,0.6331245093,0.0673474426,0.3578489403,0.6117491496,0.6100690736,0.0016583109,-1.0521809898,-0.9400266128,0.4390903517,0.0255627353,-1.0873039244,0.5025382397,0.7348094021,-0.5627891741,-0.4964229528,0.1687450182,-0.631826295,-0.5340820394,-0.1305786114,-0.3059031161,-1.3533168305,-0.1907145355,0.6108255486,-1.0527733352,-0.9028300811,-0.1760990238,0.7367796261,0.1407066884,-0.6272002905,-0.6932316679,-0.4975103547,-0.4661783894,0.8348340625,-0.6245872271,-0.3780645965,0.599056976,0.5692471346,-0.4420411958,0.8204101576,0.8227360015,-0.0991770706,-0.8370302674,0.5940447819,-0.2402667879,0.1447834556,-0.4142256053,-0.4259787918,-0.3500517279,-0.60539041,-0.3996174209,0.8087084716,0.3866232847,0.2054485346,0.2280155874,0.7532404626,-0.5844848669,-0.3566104615,0.1916528852,-1.0303896859,0.2672181366,-1.3246196111,0.6948172213,0.3707865425,0.7422648831,0.4853612615,0.4684487712,0.4118305917,0.5552967224,0.550319,0.3478869958,0.4718776265,-0.6529403755,0.8595196951,0.7483896989,0.3640737649,0.4419956275,-0.1352825965,-0.8145739621,-0.1887174603,-0.0501373627,0.4204013824,1.0177761222,0.7455279019,1.0914579717,-0.7537974523,-0.4790498928,1.1598603402,0.5937964674,0.1015697233,-0.1025743119,-0.4396538922,0.5200408246,1.0215384975,0.188858039,0.4887783987,-0.3433533698,-0.0110759805,-0.4466315957,-0.0442746203,-0.8756241651,-1.1867628381,0.0837618082,0.425832347,-0.7735137288,1.1019276179,0.2533597641,0.3258582553,-0.0105312708,-0.7346992247,0.5412326654,0.0620867073,0.5589493902,0.8269540569,0.8694810339,0.0431252719,0.6620243913,-0.6848480437,1.0673740676,0.6969376564,-1.0275048807,-0.2785823279,0.0232136828,0.1549421139,-0.1133816168,-0.4932292465,-0.6052470503,0.3905239404,1.052365116,-0.4732889042,0.1337325788,0.2625893986,-0.2671649898,0.4643646618,0.9223421615,0.639524416,-0.6573668585,0.8058235267,-0.0722470647,-0.3175736749,0.5684640202,0.3801687882,-0.8761945681,-0.4159783517,-0.3166771804,0.3939458089,0.9231986567,-0.2082212328,-0.1857563111,-0.7694555558,0.0322628825,0.1620337891,0.5481669703,0.0788775041,0.3086688945,-0.5011380354,-0.8400798137,-0.7739097787,-0.5146116217,-0.8171240286,0.6299154833,0.104292668,-0.808102091,-0.8088229931,0.3373914614,-0.9550152691,0.3553077766,-0.7840339872,-0.6350666056,0.4752795164,-0.8700419798,0.8175947169,-0.9310099243,0.5679278462,-0.2966877759,0.3320442183,0.2572688831,-0.7439414936,-0.2711679987,0.5932411429,-0.4566809702,0.856157953,-0.6299156055,0.3892093412,0.1281486531,-0.5902313166,0.7448173927,-0.404831291,-0.854771168,-0.4454926025,1.0024352693,0.999476665,0.5442624102,-0.3989752211,0.7090665608,-0.2249500496,0.8181657448,-0.9289820959,-0.1726181101,0.8127920706,-0.9680454246,-0.5712376582,0.6060944826,-0.7818761193,-0.811261805,0.704355988,0.0519266854,-0.3488312795,-0.4679808597,0.6548787334,0.3876622784,0.5258903933,-0.769113153,0.9886345622,0.0765247161,-0.3816803947,0.2496354847,-0.4626068659,0.2467806983,0.3448524364,0.7589236493,0.4953967928,0.9788889567,0.6944769694,0.8297869459,0.9652981137,0.6205620559,0.4398181965,0.0005845402,0.4581082763,0.3521593423,-0.6879173374,0.481005279,-0.1156567208,-0.7338125001,-0.358437867,-0.1578539189,-0.7289356819,0.7217338686,-0.5215779663,0.1154271656,-0.1436385447,-0.3457120336,-0.6127241296,1.7139603807,0.5005609726,0.7265173797,0.1816472074,-0.0447254164,-0.531124213,0.7161228296,-0.7544981141,0.7223043071,0.6560490716,0.8228931532,-0.3483721695,-0.4539049218,0.4266828945,0.2366398736,0.4332116915,-0.6842873597,0.1793635673,-0.6385507439,1.5702110261,0.4381828671,1.3898374849,0.8868509084,-0.8978706874,-0.2056533608,-1.0772116057,1.3732860534,0.4021318143,0.5354337843,0.7782351589,-0.173407745,0.9690516987,0.9586063949,-0.1066554586,0.4376209699,1.2369043145,-0.0688710666,-0.8106572711,2.9467542539,0.9456792004,1.8129169719,4.4365419432,-0.1239649752,0.8904998298,0.1035693315,0.4775702054,1.4090378554,0.4721184181,0.0916807053,-0.4390028361,1.2505017728,0.5099626577,2.7932727511,0.4998410889,0.6893403335,0.1929343875,0.9098757139,-0.4785272785,-0.6665995212,0.0573404909,-0.6170428753,1.2845122904,0.4303319876,0.2400619824,1.0366378734,0.6749948275,1.0715484699,-0.4623050748,-0.058754881,1.2901941456,0.4046660714,-0.4228665372,1.1234324703,2.145823683,-0.0854515898,0.12751685,1.2398916201,0.4844666923,-0.7403672268,0.8146361093,0.1772278457,0.9514901373,0.6473530408,0.1113997689,-0.0849827418,0.6401613208,-0.2244510626,0.0858932785,0.5711797181,-0.2054372527,-0.6125969825,0.0016217352,0.8277236687,-0.393798623,0.6694851526,0.0638105076,0.9296437842,-0.2446642798,-0.0848269434,-0.392268991,0.0014386646,-0.7973350016,1.1886941904,0.2932195817,-0.6983061853,0.5676078056,0.1931917495,2.0285240585,-0.107995687,-0.131227966,-0.7763043161,-0.3875900648,0.7090712517,0.0393914629,0.0360247347,-0.5080463903,0.1456681039,0.6315787147,0.8127489339,-0.093756553,0.9665836749,-0.7770398974,-0.8120043292,0.3651404618,-0.7971517083,-1.0939243936,0.0774823296,-0.3628415341,0.349696244,-0.2107930747,-0.0901883327,-0.1183939144,0.1796001893,0.2786602932,0.0612641026,0.3924871672,-1.0493371316,-0.1332068247,-0.699502318,0.7813462632,0.8019286952,-1.2252893599,-0.2028142867,-0.4453174066,0.8947771996,-0.3135676368,-0.3455455102,-0.5495014466,0.3350220144,0.428237089,0.2773158297,0.3111612755,-0.3744870756,-1.0704586249,-0.6494846283,-0.3894954819,-0.3147690899,0.0690327439,-0.4997827799,0.8310271925,0.0012665308,-0.1999594218,0.8501864043,0.8795137871,-0.815576751,0.1468825226,-0.420262181,0.2227124414,0.7958887418,-0.3570914367,-0.430488947,0.2012189728,0.2555964682,-1.0174842553,-0.7624508957,0.3545297174,-0.31298581,0.1098476214,-0.5688184055,0.410626763,-0.7072260655,0.7519475837,0.6112802667,-0.2878822684,0.4256712944,-0.9788648223,-0.7641619023,0.3000594964,0.4619823393,0.8014756958,0.8715973597,0.6746213711,-0.8842485532,-0.6150537597,-0.3305705671,-0.6843924261,-0.7265415673,-0.3259113927,-0.4952083335,0.9336911632,0.6812795227,0.2471042333,-0.8637240234,0.2940433834,-0.7756663499,0.2753613681,0.6628133491,-0.6078004471,0.6761785317,-0.4081380401,-0.0359653859,-0.0682132964,0.8850490874,0.267474586,-0.5343577513,0.6289510747,-0.5625303979,0.5520851562,0.9187736632,0.1200473016,0.1714398371,0.4363783955,-0.5813338933,0.1678942281,0.6599447168,-0.7401134333,0.625305509,-0.3067392082,0.8471408312,-0.5222104631,-0.2563724236,0.6452487528,-0.0104583277,-0.2637375945,-0.1201334756,0.4060535409,-0.167375768,-0.0028691528,0.179017287,-0.7364116963,-0.7559851809,-0.0371153981,-0.2371506691,0.7918178706,-0.8521703322,-0.7604201928,0.3820637014,0.3074659874,0.3986035787,0.190069882,-0.7793226795
   -0.0933229029,-0.0643661545,-0.8202915546,-0.5019358525,0.1020720106,0.9015670247,0.6614289111,0.76310803,0.1700718097,-0.4447282271,0.5194266786,-0.7210820766,0.9169512822,-0.60230695,0.2228315354,-0.0408244604,0.8944425003,-0.1588163677,-0.3266150091,-0.0222946708,-0.4092295771,-0.6884812666,-0.5664033636,0.3413119405,-0.6992556334,0.6433806754,1.0010522977,0.8127040128,0.3346632648,0.7219898312,-0.6528162943,0.3718820697,1.0764809512,0.7821984669,0.0805501716,-0.4077084435,0.7390905071,0.7048851795,0.9659925666,0.7109603309,0.4986799489,-0.180470552,-0.6679896655,0.1381386423,-0.8257032325,-0.7532881534,-0.6624483861,0.1792579801,0.1948073965,0.6495476618,-1.0018852811,0.7318760436,-0.3823554529,-0.3077418966,-0.6149487239,-0.8646297809,-0.0093429844,0.1610197227,-1.1514466808,-0.7630625269,0.7442207415,0.7902648027,0.1326903214,0.7859922089,0.66108234,0.1974211915,-0.0676477191,-0.3099161207,0.5509934933,0.1378368486,0.3359976084,0.9763646011,0.6031210244,-0.2566426207,-0.681593325,-0.6346642513,0.6347714064,-0.9599131849,-0.5683772555,-0.3843306014,-0.6066187868,-1.982981372,0.6950821464,-0.2555700285,0.445717128,-0.1188768037,0.4412924635,2.584702009,-0.1081822864,0.6714653161,0.4462353017,0.2522702138,0.9793244318,3.3909470506,0.6287063242,0.7156888976,0.8207868727,0.1834516096,0.6465736584,0.7289985374,-0.8387195685,-0.577865242,-0.4468765418,-0.9426627753,0.7884581768,0.553020972,0.2444342003,-1.0567023862,-0.9195986828,-0.3433864213,-0.6080668838,0.4769971052,-0.9332020668,2.6093874895,0.1856503615,0.5926639252,0.0175691957,-0.0382791447,0.3246642905,-0.2426468373,-0.3284018274,0.7191730467,0.3253678238,0.3504217706,0.1945926421,0.7751506073,0.2694991437,-0.5944437303,2.6152964085,-0.6451452911,-1.2693609456,0.7669815082,-0.0618234825,1.4420328994,0.1563752024,0.8632431886,-0.0188506443,0.9919867566,-0.0530591367,-0.0926066309,0.1379563775,-0.1323580031,-0.5124162916,-0.738729711,-0.9649684091,0.2888838214,-0.137380762,-0.0924464461,-0.3965369428,-1.007786982,-0.9059934399,-0.3730191696,0.9430550151,-0.1877118172,-0.1724790826,-0.4244840435,-1.071582731,-0.9816973043,-0.8290461284,0.0436158861,-0.537185659,0.7993128346,0.233390147,-0.5874219956,0.8374565348,-0.5611011907,-0.6448848475,-0.775188416,0.5324830894,-0.8384916827,-1.0256084269,-0.7816629907,0.2043478375,0.0322181301,-0.3033593573,0.2911720051,0.7119514019,2.8620814365,0.6325514969,-0.6208588834,0.8786525768,-0.4343072878,-0.474073503,0.6772500804,-0.2196536218,-0.4408779592,-0.7623990512,-0.2469653813,-0.382884543,-0.9708830032,0.3154461597,-0.8721383533,-0.1590168036,1.4938962154,-0.8060257899,-0.7425125265,0.2079401827,0.139278656,-1.0486717728,-0.480691708,-0.8582712114,0.1713999542,0.0010587115,0.797354154,0.0016732583,0.6745883508,-0.075166262,-0.8564265827,-0.2284920338,-0.5720995148,0.9905103457,-0.5142513956,-0.2567769669,-0.442883011,-1.0248547426,-0.5005545531,-0.0440449578,0.6928179066,0.0170659165,0.8106650724,-0.8537066062,-0.1372187457,-0.4277693286,0.0517951828,0.3245163555,0.699762028,-0.5664907079,0.6797207388,-0.9518707759,-1.2329382635,0.2149083939,0.2298892093,-1.0555047317,-0.1012247378,-1.2429175743,-0.9099883258,0.6003868977,-0.709043835,-0.541360606,0.0087650977,0.021457567,-0.184843145,0.8423364779,0.2308480456,-0.2496234592,0.0486398325,-0.7995559898,-0.2014675128,-1.034211096,0.2915002482,-0.9158696245,-0.1481035368,0.6527191958,-1.0695211679,-0.4859390206,0.6409026543,-0.4237072363,-0.9104746525,0.4628310316,0.7022239721,-0.651706356,-0.8897579543,-0.7798972622,0.3062419848,0.7614178692,0.2129846014,-0.3850398112,0.5355947852,1.0676285658,0.5968500748,-0.8278774012,-0.230922828,-0.0539082868,0.0425011987,-0.8369644801,0.304787232,0.2464490993,0.8930273127,0.816958952,0.9837063389,0.4046419275,-0.979093144,0.3722584667,0.2097642449,0.4841023882,-0.7706587295,0.6288577595,0.727732572,0.162174555,-0.6284010462,-0.9185836237,1.1991730142,0.0277797646,-0.2641031763,-2.1543205451,-0.3598342945,0.8390690173,-1.0454009926,-0.3609389328,-0.1976004472,0.3532098393,-0.6781452858,0.4305128191,-1.0447704648,-0.4233236571,0.8190763478,-0.6336645178,0.3946172226,0.1239052833,0.661590166,-0.1117626693,0.2608401836,0.6489088102,-0.4512423049,1.0019857645,-1.0684519234,-0.0273532605,0.5962739621,-0.1476851711,-0.4061221501,-0.1437789935,0.2068025149,0.9308652975,-0.6720175125,-1.211643544,0.0558929152,0.4882982538,-0.7176966823,0.8010253113,0.0676349278,-1.0224986515,-0.1547890491,-0.6228077295,0.0533097846,0.2241165873,-0.5698552514,0.085800734,-0.7633772294,-0.9975122955,-0.5507503893,0.7911455249,0.8208536629,0.2526883666,-0.7279820214,0.9306946297,0.4388781071,0.518817474,-0.7066244513,-0.6346378053,0.9094075745,-0.6702778533,0.5087803161,-0.3249461464,-0.5879077806,0.2651213831,0.9416910738,0.9009352738,-0.0390316265,0.9613884043,-0.5021528689,0.680064581,0.0307819544,0.2371537714,-0.4944969103,0.0998263768,0.4696776331,0.536009218,0.0004966324,-0.57593412,0.3728497946,-0.4946851264,0.5852299049,-0.4202648796,-0.279370687,-0.0736162826,0.034660191,-0.3219089836,-0.7647065495,0.0825398715,-0.4948324126,0.7941969678,-0.128146795,-0.9789191724,0.6348988563,-0.3701970513,0.7977586252,0.0635756938,0.8874031775,0.6757632741,-0.9565847764,-0.0202195722,0.3638382638,-0.2064859761,-0.9441857855,-0.2749998524,-0.7441138836,-0.4094768553,-0.5129219725,0.0434610531,-0.3363800595,-0.4304458628,-0.7147600822,0.1622298239,-0.9899565863,-0.3473568969,0.1351276591,0.4433468863,-0.7916147135,-0.0921425004,-0.9057288388,0.6798498461,0.2354573472,-0.6882653058,-0.101885951,0.7722917425,0.4922108328,-0.8098176296,-0.0286482934,-0.744589395,-1.0036911932,0.8860869796,-0.5032196308,-0.2697628424,-0.5939710703,1.0380017368,-0.3153989386,-0.0436791679,-0.8884004711,-1.5764152288,-0.5453401358,0.3091510524,0.4726173649,-0.240678614,0.6944755097,-0.6083867629,0.1649917285,0.0700950752,0.4580130861,-0.3271727666,0.4610255612,-0.9889097484,0.3499334148,-0.802863608,-0.4743016864,0.9633344231,-0.8753373652,-0.9142966729,0.2689951096,-0.9317472268,-0.0764329462,0.2472071366,-0.3750259367,-0.597030302,-0.5541378826,-0.8602806275,0.1667654041,0.6589032841,0.1115630601,0.120073569,-0.4881823073,-0.0594886906,0.8997489843,0.9363849372,0.2982807494,0.6686500149,0.503029109,0.0002149069,0.8786551533,-0.6211450449,0.6744171029,-0.2276067294,0.4501617962,0.7820701508,-0.7418576511,0.7084601047,0.2893081804,0.6568430798,0.6645204799,0.3834697854,0.1203182552,-1.0778108291,0.2007842756,0.0917428171,-0.8004735406,0.2289604599,1.246192112,-0.5440128633,0.0852462737,-0.7149682524,-1.0261617687,-0.3239016123,-1.3350177742,-0.9337034546,0.6916622159,0.6709287258,-0.6448778531,-0.9514215979,-0.6668187429,0.1947358486,-0.2202616467,-0.2419303892,0.3345619312,-0.4604431866,-0.4467225995,0.1002862394,-0.1536478164,-0.8335043233,-0.3730619125,1.0628028581,-1.3880715436,0.3018136108,0.6465541161,-0.2746479934,-0.966693223,0.6658584724,-0.4472486504,-0.3734842082,0.1682420169,-0.5676676693,-0.6461096957,0.0960478818,-0.2715687344,-0.083198661,0.9731826489,-0.2862670861,-0.9128215326,-0.802087368,-0.8376378966,0.8385349315,0.5168242191,-0.184388837,0.2799371235,-3.531338776,0.3452528595,-0.2523167766,0.370678177,-0.837561589,-0.043650385,0.6037504238,0.2033356075,0.2101119944,-0.5550250079,-0.2974107323,0.3254561802,-0.5299892315,-0.4537170608,-0.248968844,-0.8741840097,-0.7968331957,0.2644206697,0.3654069544,0.7484681399,0.4379133334,-0.8481317972,0.7481509441,-0.3616566258,-0.5036891956,-0.4575752669,0.4630112757,-1.0157740824,-0.5729402741,0.2311257457,-0.5751903161,0.1706818044,0.7303159091,0.5511533502,-1.2205242919,0.762357397,0.4947106299,-0.8969851883,-0.6314465538,0.0371642066,-1.2909680833,-0.9200811978,0.8764029266,0.3008478038,-0.8766014291,0.2686100326,0.695180177,-0.797847566,-0.7285358131,0.3202590002,-0.8462759228,-0.9764759145,0.1211085336,0.4019500615,-0.9422021823,-0.6565991622,0.1975664627,0.0930739377,-0.0433249368,0.4128889552,0.4803069181,-1.0474104609,-1.0584677184,-0.1722748221,0.0407691575,-0.5488204728,-0.4396135291,-0.8179576406,-0.467027417,-0.4098974174,-0.8653094678,-0.4243326475,0.2973532336,-0.8232522635,0.2297653721,1.0628775611,-0.5327563306,-1.4278599907,-1.453234741,-0.316329619,0.0113849998,0.3980913349,-0.2305145267,0.7171277537,-0.0134420089,-0.0523331388,-0.7563044864,-0.1895579102,-0.0495938477,0.2287241982,0.5799397474,-0.7552564079,0.329718794,0.6859043733,-1.0353594053,-0.9152282327,0.6111122617,-0.1068368561,-0.0174538618,-0.9666639551,0.7607841088,-0.6492115872,0.197068447,-0.1629669922,-0.2860721761,0.009575353,-0.8132708348,0.0632214729,0.5675478841,-0.6196548409,-0.1467415599,1.0357997789,1.0897258426,-0.3278118298,-0.6481484259,1.0059358105,0.3251636354,1.1523233503,-0.7860058902,0.7540687109,0.9712769121,0.8027046639,-0.3692253087,-1.2352253136,0.5081066041,-0.1951041518,-0.887955274,-0.1968331047,0.057212692,0.8109814021,-0.788508374,-0.5135008213,-0.2143296918,-0.6101872371,0.8691759424,0.2947793657,0.3620228091,-0.2519031883,-0.6523886259,-0.7623310798,0.0168627631,-0.276818713,0.0223642583,0.0285613038,0.9000134713,-0.3527144031,-0.6483270234,0.4922994004,-0.7839128233,-0.0036089924,0.2499755841,0.0436996196,0.2907375408,0.8133017029,-0.5656761202,0.5341524945,-0.1157723043,0.9344170056,0.8613469335,0.4085006064,0.8945081207,-0.3952447137,-0.0943800959,-0.5760717529,-0.4761667856,-0.8341936294,-0.0991456943,-1.253849336,0.6028084328,1.3818600461,-0.6499299354,-0.0958749477,0.5955668457,-0.6418377603,0.5385073167,0.1974430507,0.2403067764,-0.9244477804,-0.2143065815,0.2654000705,0.9564941067,-0.6664984348,1.1329958734,0.920888189,-0.7906983854,0.0435056864,0.9844102284,-0.5324376878,-0.4968113992,0.0374996557,0.7389456147,0.128791582,0.6420590311,0.4171250532,-0.1583966799,-1.118095346,-1.0336268322,0.6321621161,0.5381516281,-0.0704983874,-0.777168072,0.4182056888,-0.7273812073,0.7008992881,0.5315930614,0.83960564,0.6100990471,-0.4660606078,-0.0823728618,0.9499443099,-0.8516077466,0.1820830909,0.0868214306,-0.6368441037,0.3889727743,-0.4412174853,1.0273499325,-0.6026994273,0.9528972723,-0.1528449896,-0.1130903576,-0.8024996302,0.394232659,0.1638361152,-0.0021008043,0.9733751209,-0.6380008953,-0.0174015503,-0.2393093095,-0.1948911922,0.2138851508,0.2205795116,0.809404213,0.5004783308,0.3024277624,0.6396088355,0.792858223,-0.3987136526,0.608054157,-0.744561065,0.0556574228,0.6174016296,0.0238689956,-0.0339346464,1.0734118168,0.9436081083,-0.0502113163,0.7635045637,0.7704489116,0.2527920593,-0.8003662325,-0.3851424304,-0.4743481464,1.0902466611,-0.4357830736,1.3236999099,-1.6222221701,-0.4177027285,-0.442997539,0.8918167741,0.7230480486,0.2998033457,0.9984173384,-0.4823077671,0.2577727214,0.5486271433,-0.7920327602,-0.4585186785,1.0944306627,-0.8542035345,0.095761755,0.5861773411,-0.8367659422,0.7457975689,-0.1213475188,-0.4512918129,-0.4239056561,1.0941826824,1.0554903909,-0.6657000871,1.2910169313,-0.2825954943,0.0488188716,0.7410387751,0.3207452577,0.7161352834,-0.6966731951,0.1293073169,0.5225508097,-0.7275425496,0.1557293951,1.0610523445,0.3660048465,-0.1038312769,0.5369738666,-0.3452129733,-0.2396193895,1.0050350991,-0.5879778275,-0.1405438452,0.9653218863,-0.0329568968,0.7153985874,2.0165211598,-0.7732151098,0.0344477293,0.5602961798,0.1166167822,0.6089605954,0.6669506981,-0.5356374221,-0.2182711077,0.3345472202,1.0007841849,0.0225284568,-0.2505054183,0.1296319921,-0.0238043981,0.7814860025,0.644399703,-0.96291182,0.3499467889,-0.8801176702,0.0574887524,-0.6661072849,-0.3839656245,0.3640726594,0.9822098478,0.3107135632,1.0045146552,-0.2923980291,-0.7756096154,-0.511998395,-0.3876508789,0.1023965336,-0.5348259267,-0.5087977906,-0.7391875968,-0.4452261903,-0.7432705735,0.7553279251,-0.8426120705,-0.0561772608,0.6575333029,-0.1579928905,-0.3713394646,-0.5070163584,0.1178101475,-0.8828873836,-0.0972244647,0.6002349965,0.8173358599,0.3335455927,0.0929444271,-1.0725203583,0.5807961532,0.4282779425,0.0797439664,-0.6924648177,-0.8968320502,0.6132820256,0.1326388961,-0.5201473077,-0.2038984892,0.9422222961,0.5522942746,-0.8813774002,0.2008982639,0.7287087189,0.8111726149,-0.4957187651,1.0766375055,0.2487051938,0.153415009,0.5890369096,-0.1475986745,1.0695066768,0.736679814,0.6229513369,0.7303833425,-1.1129248588,0.2467859997,0.0840686263,-0.6413649739,-0.8124517473,-0.7905451929,0.2613034232,-0.3523219647,0.8485921856,-2.8678227957,0.5763827596,0.6759848011,-0.2247944643,-0.855544071,0.1849957146,-0.2073682428,0.6724479639,0.1016721011,0.2757505981,0.3987812323,-0.9199652959,0.0374037215,0.8262179054,0.0348094166,0.4399365124,0.6705136596,-0.3331748541,0.7862603868,0.2358314007,-1.3212026185,0.8329719597,0.8474691504,0.69539349,-0.1283836574,-0.491766958,0.0562857892,-0.0514766568,-0.1765803846,1.0495298145,0.4480898326,-0.1145562991,-0.2970877357,-0.4688167395,-0.210553375,0.7816360559,0.5357407917,1.3929943297,-0.3469916461,0.9691433643,-0.8284373911,-0.5983861509,0.5639805164,0.6535509569,0.2385247073,-0.4950938612,0.1957417531,-0.4308820414,0.1765607363,0.5071791195,-0.0460704544,-0.6916117724,-0.4285014854,-0.4271675949,0.1328286204,1.1319408707,-0.1751192346,-0.1785667141,0.3648825087,0.1927924531,0.2746355813,0.3549704978,-0.3291079639,0.4887286523,0.9863747635,-0.0257543349,-0.4244520553,-2.5936171212,-0.2623179027,0.5836966106,-0.0427175796,-0.8381021993,0.1789637645,-0.5225334509,0.7187533627,-1.8151177547,0.7742265777,-0.4209192496,-0.3020657633,0.472786972,0.1631504377,0.6508467759,-0.7178883676,0.5403539639,0.6958420292,-0.4061734592,-0.7614110972,-0.4334569744,-0.1028229003,-0.5478460028,1.0019432619,-0.1556107282,-0.6870855915,0.7530306902,0.7593468003,0.1451438463,-0.6415450049,-0.3668456847,-0.0570597035,0.0085063703,1.1571951822,0.3651507684,0.2552581917,0.7447598281,-0.970599999,0.3301056906,0.210589719,-0.8838948365,-0.6143780558,0.2317953971,0.1389332426,-0.0453452342,0.5877574659,0.7139136139,-0.102422584,0.1191871067,-0.9605437189,-0.743633915,0.604709263,-0.7173483544,-1.2415038097,-0.8293486053,-0.1308665163,-0.7559776964,-0.2650121552,0.8047545056,1.094345753,-0.1562177712,0.6756928752,0.9513966207,-0.4264656618,-0.995634462,0.8438073001,0.2218852365,0.5570148539,-0.9724760283,-0.6587895836,-0.5046322202,-0.228633451,-0.2574402402,-0.1406420641,0.5809502573,-0.4760538689,0.0275004357,0.5611666397,0.0354533007,0.6181506778,-0.3101010323,-0.4006391138,-0.1191115982,0.1452234291,0.3217841785,-0.8236752468,-1.0166167228,-1.0627365826,0.2792529436,-0.098523194,0.4887679078,-0.1211991973,-0.6119057285,-0.63141052,0.056928553,0.15311492,0.1834488467,0.1540098159,0.605883102,0.208871672,0.5934196764,-0.299572125,0.0345158557,0.6974864178,0.3532280877,-0.083429081,0.7735842603,-0.4567504447,0.534333905,-0.5830050377,-0.6230720789,-0.3193972982,0.8857327276,-0.3902094463,0.0659573351,0.8006040019,-1.207632909,0.6777764199,-0.6378294472,0.2064865144,-0.0397265317,-0.2446223477,0.7730665468,-0.3885549221,-1.05764691,0.779143467,-0.1366151329,0.8147467629,0.2007535289,-0.4168107792,0.3781333552,-1.0806092061,0.5608644113,0.2307177043,-0.8353126207,-0.7346259675,0.8963801745,0.3460751929,-0.6745756026,0.329592706,-0.9618935531,-0.7728225133,0.7354170504,1.0600244669,0.6140663144,0.4001386923,-0.939181906,0.3191503278,0.5019394315,-0.9437554001,-0.6018731696,0.1085415001,-0.8257745584,-0.1051408076,-0.0342435038,0.9146109352,0.7145306959,-0.8439330586,0.4444416012,1.0147677898,-0.0999102674,0.2078716084,0.0605500124,-0.4948161702,0.5334094179,1.0545327077,0.6339944212,0.2613912718,0.5962129896,-0.5726269241,-0.2335697554,1.1823807256,0.5410884544,0.6854852037,0.1409809918,1.2085025717,-0.6634265724,0.3271580428,1.386683711,0.1309442759,0.2230046863,0.4461313935,-0.5961147602,-0.4864967647,0.7415285919,-0.3488867868,-0.9271014952,1.1500866572,-0.4729489236,0.6621799352,-0.6720588847,0.9412261795,0.9492165791,0.5941293415,-0.9068758958,-0.1780935595,0.8052443264,-0.695081827,0.8087754682,-0.5650389155,0.32068836,0.6545751941,0.4525625718,0.8043075876,0.7927712985,0.0242284009,1.0464490418,0.104636937,0.9256208771,-0.0951594057,0.9206476838,0.4994645562,-0.153002345,0.3512053167,-0.1321947849,-0.7452458251,1.7666121881,1.3641074841,1.1020661801,2.4269672713,0.5490164287,0.2836876266,-0.0937498725,-0.0161834272,0.9202586175,0.168302971,-0.3775930472,0.5672138302,0.1866609987,0.5741129626,-0.0927542748,0.5268592331,-0.4444173741,-0.5351279473,-0.1497733256,-0.9037713047,6.2240836693,0.670728593,-0.2988329956,0.8538332986,0.9605678973,1.0542673027,0.064004067,0.7995611178,0.2260356724,-0.0410161159,0.1087615263,-0.3471330276,-0.5300111859,0.4211264799,0.3577113071,0.9945212479,-0.6281863741,0.2622708229,-0.2547264854,-1.0718794485,0.3025777565,0.1444837573,-0.5766542936,-0.234291401,0.2284631197,0.1630058061,0.9336456094,-0.567049443,0.5395024839,0.3347630046,0.0567306982,0.5526959233,-0.2179712645,0.5814051062,0.1530551691,0.9385654404,-0.6679953993,-1.1821893956,-1.3164656645,0.1834537563,-3.491211234,0.1422251484,0.8037091737,-0.4231691234,-0.8121360238,0.5910986086,0.8818156512,-0.8231418946,0.6697710108,0.0279730016,0.3549811513,-0.5589782867,0.0267751489,-0.996963355,1.5171501469,0.7320026998,-0.6071358058,-0.4698590033,0.3645961255,-0.8243352107,0.375767337,-1.5247567375,-0.691285842,-0.6135447675,-0.1175928842,1.8729567225,-0.7174088553,-0.2364027286,-0.374420962,0.7281793655,0.0443186089,-0.9118304248,-0.070091923,0.0697896121,-0.1853978531,-0.6160298848,-0.5850463168,-0.1331567411,-0.7959132978,-0.8867799897,-0.2599152161,-1.2158300168,0.755512672,0.2871544869,-0.566894825,0.0308988983,-0.366967054,0.154922563,0.7235364748,-0.9722657397,-0.1233530091,-1.2154160886,-0.7214061828,-0.0501387386,0.7405681974,-0.6588194745,-0.4064339902,0.3781013641,0.6336152151,-0.20972546,-0.3563304088,-0.9560702146,-0.2756795142,-0.8496613795,-1.0318310367,0.2139148137,0.3304670905,0.9250821956,0.2013737939,-0.7367260985,-0.1761669763,-0.5797229187,0.0740398005,0.6544650806,0.4527396083,-0.3839691914,-0.3368092862,0.0941871585,-0.9804550698,0.2948553577,0.395731834,-1.4877689717,-0.516446117,-0.5162244962,0.24440103,-0.2724799253,-0.3795177868,-1.1284540055,0.8257326018,-0.9482635013,0.2619113949,-0.9617868513,-0.1281987643,-0.3241327879,0.5492970547,0.6190601406,-0.0912119225,0.6025883135,-1.2447227128,0.6017516497,0.7676017877,-1.8544545415,-0.7415539269,-1.0219301703,0.7684346072,0.2408846238,0.9555098578,0.001525095,-0.9690346351,-0.9473817425,0.5140747959,0.3348719087,0.3474546107,-0.1070604488,-0.4242951027,0.2127854817,-0.1998651152,-0.7071638988,-0.4367673959,-0.7629642794,-1.1901172695,0.5080923432,-0.5654600008,-0.8389170536,-0.0209885061,0.5514994884,-0.3281074359,-0.6032483355,-1.1009073782,0.9622075553,0.8441730104,0.2224285709,0.5483811722,-0.1517252095,0.1474598346,0.4776910875,0.0501258698,-0.835238252,-1.0452549107,-0.1810260067,-0.0921753144,1.1402106457,-0.5196355637,-0.4832681623,-0.2531807147,-0.6915880015,-0.8920640347,0.4077614812,-0.5360452177,-0.4436936929,-0.413237636,-0.5391862869,-0.0187514827,0.2417219723,0.1663459158,-0.0307586495,-0.5620931446,-1.0385903885,-0.9294325839,0.7338128937,0.1671259159,-1.2125502681,-0.1289534888,0.1364891733,-0.3768752946,-0.0947590418,-0.56445203,0.0398177879,0.2737076655,-0.3549752987,-0.1457540134,-1.3311395306,-0.8824779201,-1.6416826686,-0.5368647076,-0.2213212047,0.0260654068,-0.0545008773,-0.7323586666,-0.2058539476,0.6660716278,0.0393127254,-1.351263552,-0.6318889638,-0.4826611625,-0.2920345064,0.7880459486,-0.2126370568,0.3275529444,-0.1496562758,0.5421137998,0.8544104396,-0.6176676853,-0.8731916732,-0.369059483,0.0549112859,-0.286957786,-0.5564872245,0.1498772885,-0.2125634346,0.5695369971,0.3082131763,-0.2817457204,-0.9093016625,-1.0479492646,-0.5276148184,-0.0933437623,-0.7196106397,0.7088615141,0.070056597,-0.2523185134,0.1262119969,0.1027701656,-0.4244578348,0.8747930982,-0.0184460102,-0.9921777935,0.5264874026,0.7938103017,0.6145796247,0.3162309021,-0.0162442527,-0.588253607,0.2513527765,-0.5866906292,-0.4192888093,0.867160893,-0.3996381281,-0.4964112239,-0.2086574103,-0.0180851256,0.6024105982,-0.1135132888,-0.2339900509,-0.4829072911,-0.2286856616,-0.2237242026,0.3096347385,0.8628873924,0.1743541172,0.7922447817,0.1730022745,-0.6601033704,-0.2515215405,-0.4826954753,0.3028921744,-1.4069715708,0.2442321577,-0.2790391447,-1.1287238742,-0.533427197,-0.2721430605,-2.9257439388,-0.6935136818,-1.9521535407,0.6313900737,-0.7994882699,-0.7640199878,-0.3757825958,-0.2619948703,-0.8902516647,-0.6781366835,-0.8112515085,-0.2096676558,0.5258757842,0.603128783,0.3156159961,0.3295762224,0.4427266846,0.8648619056,-0.9919999303,-0.1268321064,0.5471946521,0.5371759827,-0.6753135856,0.0830560052,-0.3245033761,-0.3175675384,-2.0612673261,0.1926624481,0.4553162081,0.252412658,-0.4683040164,-0.1143124695,-0.1175650545,-0.7495245059,-0.1169509583,-0.1420885369,-1.0903698491,0.3409235015,-0.4430156076,0.1845343728,0.7158175391,-0.0636795396,0.4670634035,0.1662617017,0.2292975655,0.0895799418,1.1883587789,-0.0047378048,1.113452219,-0.9265076731,-0.6956495828,0.1551616123,0.6882020124,-0.2132924352,0.6174978247,0.6514094495,1.0096060898,1.3294507987,-1.4982899906,-1.1937663307,-0.858535794,0.1828919181,-1.0232924272,-0.2230833103,-1.0256226608,0.1130089264,0.2703295204,-0.3661615189,0.9174060278,-0.5740024807,-0.1490496334,0.4004418378,0.9222054897,0.1861090367,0.6227710468,1.4033835068,-0.0324873573,-3.4532552672,0.2129088018,0.445198167,2.253872651,-0.3711337051,-0.6750812543,0.2760557169,-0.6990240059,0.6366530518,-0.8163052536,-0.6454669609,0.9090509462,-0.1986422401,0.9325184913,0.7240456531,-2.8052306849,0.9138386989,1.2682946952,-0.878788699,-0.1911603863,-0.6939556277,-0.4777577779,0.8320387365,-0.0485608876,1.352632426,0.8434600192,6.5615043611,-3.6411334865,-0.0586828693,-0.5497761091,0.0052199725,2.0799162554,-0.3164765439,0.9916752506,1.3693665859,-3.2080618765,-0.5726052204,-1.6552403805,0.1962916605,-1.0456861989,-1.04982792,1.3391894205,-4.3731483653,0.4763886631,-0.3864399823,-0.3342915276,2.4257544387,1.1165628244,1.1227080514,1.0687643843,-9.2024681733,-0.4410668071,0.518361136,0.1609976228,0.5407268981,-0.6380227258,-0.4162573317,1.4404327359,-0.4750372965,0.3755624905,0.4037297607,1.4374851319,1.3616793417,0.6062328287,-0.8087515166,0.7645629263,-0.6690901152,0.8055425089,-0.0561559433,0.2643726644,0.867882999,0.0514482816,-1.1194596535,-0.3034612283,0.4071547429,-0.6338034026,-0.5539220869,-0.9866077749,-0.364674231,0.4010620078,0.6248802087,-0.5853625297,0.0789588408,-0.9648963959,0.5738953864,0.8219063776,-0.7941536039,-0.3598656102,-0.6858425231,-0.5268713612,0.0396625868,0.2475628526,-0.1982268497,0.645146645,0.4171598723,0.859883322,-0.3257398469,-0.534090897,-0.5517982859,-0.2673890312,0.0058578475,-0.1659688314,0.8287065324,-0.3105722505,-0.4941586151,0.3382061908,0.4073223092,0.8627368548,-0.5226839476,-0.3635711591,-0.4884715243,0.0636215953,0.5709956913,-0.0580310389,0.2453393999,-1.4170653809,0.0256047647,0.6262012066,0.7988825515,-0.0925555657,-0.8979293791,0.0771196902,0.794537852,0.8532006093,-0.2700236901,-0.0719445738,-0.6105405351,0.2472791974,-1.3527295936,0.5725235546,-0.0985358976,0.9128152721,0.737046802,0.3429179013,-0.4559553007,-0.2978413808,0.4445022826,-1.0129565214,-0.8438633332,-0.7947524441,0.4506416767,0.3804933253,-0.6761938026,0.7303208058,0.4660560245,-0.2184899023,-0.8164326393,0.2772695094,-1.4071047116,-0.4143386299,0.2110878325,-0.2360675257,-0.6564875566,-0.6471992046,0.4700757844,0.9085757367,-0.7559729805,0.406548777,0.7486123084,0.7007836023,0.2002665324,-0.5497225264,0.8886404793,0.8691772018,0.7926699756,-1.6202528604,-0.7387853575,0.0277484102,-0.1520460795,0.0364286725,-0.2969026556,0.2828388264,-0.0568407674,0.3091526647,-0.3294692241,-1.2383148139,-1.2897489922,-1.3738058637,-1.3574360742,0.2424951733,-1.714925189,-0.0577198855,-1.2247066021,-1.6279615914,-1.1413310063,-1.2563412358,-0.1654342091,-1.1700713149,-0.2722354789,-0.5669831692,-0.0917143386,0.0133614097,-0.8398405836,0.3174817411,-0.4908872864,-0.6701195276,-1.2369969754,-0.4620731766,-0.2533675962,-0.3528709369,-0.4314363646,0.1053043023,-0.6541289897,-0.2552232844,0.5840972754,0.4389847838,0.5313537204,-0.4456285218,-0.3607671697,-1.2800850403,-0.1329425769,0.0599328581,-1.2319673855,-0.7151925748,0.2182323873,0.9078076084,0.9975867337,0.48986119,0.4885660258,0.1438486017,-1.4648899013,0.0197234923,-1.6367489226,-0.9562409528,0.4887180455,-0.0681922757,-1.4309827148,-0.6633369917,-1.1581451185,-0.0414907384,-0.2579849713,-0.3079423617,0.2510881471,-0.8977273098,-0.2408133877,-0.3854856795,0.339689858,-0.3926777136,-0.4237161181,-0.9037765007,-0.617277087,0.1138216001,-0.3058723659,0.0208668945,-1.348619237,0.4056251915,-0.8992414783,0.2853257149,-1.7890630756,-1.9201989336,-0.1438545722,-0.1358077819,-2.0255054668,-1.0529437556,0.3604556963,-1.3003438137,-0.3149209889,-1.4575294511,-0.4767248122,-0.308519344,-0.8663184679,-1.5663935055,0.3261295838,0.0932363841,-0.3546741415,-1.7413132589,0.0754182109,-0.7526123165,1.0164915214,-0.4770295526,0.5802482704,0.6302971951,-0.2287745118,-0.1862186805,-0.7170664529,-0.3079645915,0.4478844161,0.3270951006,0.9171323897,-0.4148044948,1.9123112675,-0.5997599561,-1.176402416,-0.1404648248,1.0138708758,0.3775383148,0.9411522357,-0.399429089,1.148780564,0.1147326834,0.8077767238,-0.084947662,-0.8599308302,0.560772649,0.9221524369,1.0012421182,0.0783146382,-0.046926672,-0.1048717597,0.5825053807,0.7983360486,-0.304622945,0.7076777584,2.0309225243,0.931190263,0.0632024566,-2.0618725828,-0.6298191594,0.7483948008,0.6377852664,-0.6753824371,-0.8492726662,9.7006826804,0.0205152798,0.0121597507,1.7701367765,1.5763714356,4.0605463194,8.788537013,0.7812842999,-2.8321836309,-0.3326357527,-0.7499231786,1.4854715808,0.854666267,-0.7900531911,0.7838930755,-1.4956503412,0.7761451353,-0.0023540135,0.7727876225,-0.9158327845,-0.1736795024,0.6955063995,-1.8511625514,-0.5024532878,-1.7163449134,-1.1097963035,2.5802868389,0.3057053833,0.5306007926,-0.4716350725,-0.291376372,0.4245483952,0.0880314743,-0.4041785836,-0.2132199806,1.0914790268,0.4162102448,0.5767917889,0.5378330564,0.6003946593,-0.641386623,1.7754374936,0.2147720175,-0.7619692859,-0.8478677703,-3.054200009,0.0373276332,-0.4703285388,-1.7142458548,0.462811313,0.9778577416,-0.1430268228,-0.70481321,1.3330051043,0.5053299714,0.3011519527,0.0830631504,0.8722159509,-1.2224499956,0.1448929376,-0.8046482208,-1.032231396,-0.6605807675,-0.2434483707,0.5289797949,0.2313625766,0.1467926212,-0.6222512761,-0.525046629,-1.4513324458,0.19394039,-0.1660472233,-1.0640283686,-0.1364792671,0.1584841058,-0.1912001826,-0.6980268113,-0.1284847804,-2.7633667736,-0.3858608088,1.6005104037,0.4070138449,0.5137108645,-0.5677860414,-0.9851804508,-0.4131852683,-1.0570923258,0.3144085882,0.1562396006,0.4147480584,-0.2059791584,0.7992312397,-0.8006432067,-0.004700378,0.2016689085,0.1375179458,1.5766048707,0.0583678701,-0.6676070519,0.3479470223,-0.1684275939,-9.8102400179,-0.6918654692,-0.2258788939,-0.0262255978,-2.41674989,-9.5327885761,-2.577359619,-0.0226189616,-0.2621189201,-1.1855715507,-0.7114815387,-1.6623041754,-1.079230902,0.2175300963,0.1723391882,0.8099543154,-0.7532756755,0.823322394,0.101979254,0.6604857066,-0.3934899991,-0.9456986668,-0.4111635835,-0.6632661017,-0.52200624,0.1698671528,-2.7618110027,-0.6011004229,-0.7803571478,0.0989592901,0.625518276,-0.2997024352,-0.2706601878,0.9119935671,0.0148558895,-1.3548923045,-1.048566245,0.7765510573,0.1859200874,-1.0221160162,0.2623277948,-2.8405161099
   0.700704185,-1.0538177008,-0.7358399677,0.2013359869,-0.2700418421,0.1903539598,0.8151493553,-1.1108039105,-0.5092958839,-0.3137571949,0.7950419637,-0.2431542669,0.6365555239,0.1489405031,0.293710243,-0.7853197617,0.4715712171,0.455330115,-0.4828029499,-0.348697925,-0.7052842211,0.7981875035,0.9778900182,-0.2151501496,0.7520381297,-0.733254414,0.8445661906,-0.4415794067,0.6106098338,0.3495938465,-0.820548086,0.6242307955,-0.7120194795,0.672206341,-0.0845742251,-0.1765300649,0.4271443287,-0.7287174381,0.1498968263,-0.1351861245,0.1344026891,-0.8280581125,-0.1988522857,-0.2033816179,-0.1553965334,0.6125869272,0.5337910998,-0.1228272718,1.1354959899,0.3494272899,0.4570926756,0.1685463245,0.9548430091,0.6738652485,-0.432227357,-0.4907852726,-0.6535822039,-0.2054529525,-0.6515000126,0.5758501257,-0.1779598136,-0.8820716539,-0.0605525081,0.550388286,-0.1404589086,0.4069502133,0.460018555,-0.5139594965,0.3506076119,0.4712360202,-0.6775274179,-0.4955389342,-0.1289263353,-0.3008382696,0.8896352335,-0.0146693777,-1.8589699052,0.8813587866,-0.6904953219,0.9449085627,-0.8233830723,0.0528776638,-0.3095453432,-0.023699681,0.205542831,-0.3405960887,-0.6451305211,0.7397216703,-0.3843825659,0.8521118131,-0.8560775776,0.9220815802,-0.8371413037,0.3415629535,-0.3674173977,0.1885741058,-0.5014832755,0.4594843477,-0.5573672329,-0.6997598492,-0.4619545286,0.3856771915,-0.2587997298,-0.0941204286,-0.0213002828,0.2461270842,0.1030166196,0.5294936232,-0.5644518685,-0.5097415671,-0.3509937,0.3991195276,-0.0111100447,0.4391261041,0.2867580913,0.2759527876,-0.5454810318,0.8327229372,0.426823345,-0.0044491615,0.0166756254,0.4407445911,0.1668179632,-0.3433061798,-0.2113903972,0.6622548703,1.0482437674,0.7127206858,-0.2821108728,0.7587322577,1.4385029381,1.0431581779,0.3246333982,0.7997051321,-0.1359261011,0.8084493792,-0.8709548853,-1.6487123729,-0.6790738234,2.5164016276,0.3715125783,0.6264560199,0.6632219641,-0.0384011861,-0.7697110889,-0.0471016257,0.7946988896,-0.5443783004,-0.4184478778,-0.6228124893,1.2508968682,-0.2385392503,0.547953937,0.0323896003,-0.2652969992,0.3636551234,-0.0166774145,-0.0494714951,0.0264449144,1.105101988,-0.752672001,-0.8402549463,0.6121884753,-0.374022856,-1.0207270289,-1.3723848563,-0.3107323137,-0.2228012784,-0.6230052649,0.607338523,-0.6629943906,-0.417305061,0.6103329987,0.7498409236,0.9542445141,0.1628406304,-0.6556059416,-0.6319954672,-0.474885292,0.2763300665,-0.1227625454,1.0868414881,-0.8901067359,-0.3615103987,1.0548433902,0.2035822629,-2.5116907674,0.5820196577,-0.6343182748,-0.0042877122,-0.4264897777,0.4833922006,-0.0311085568,1.2994138462,-0.1059434017,-1.1171076575,0.8445991758,-0.7280294376,0.385900325,1.0666931822,-0.3011553266,-1.3351701274,-0.493869145,-0.6035617264,-0.6260049213,0.4023542403,-0.5405965354,-0.691170173,1.0138249236,0.2504366252,-0.2843422138,-0.2892902736,0.0137179543,-0.1712557839,0.6731894713,-0.2910635733,0.7330426741,0.6051431571,-0.0685070576,0.1850704758,0.5734453823,-0.1399829339,0.7403259662,-0.3505935997,-0.4103823116,-0.0791461149,-0.0394287845,0.0944476182,0.361914339,0.8847071074,0.5679022829,0.8675573259,-0.8449156057,-0.6406539887,0.1853211735,-0.2807577716,0.2002552287,-0.1234886412,-0.2070931214,0.8440218619,0.1743550685,0.3815245851,-0.602789319,-0.1127454944,-0.8088760958,0.2574702052,0.888645807,0.3557058533,-0.6073198245,0.4844104368,-0.5062297859,-0.1917092368,-0.5058918798,-0.3865114794,0.396038377,-0.1912689477,0.2107491776,-0.4744826426,0.8107660416,0.4064343656,0.5574249458,-0.7674723813,-0.6254347837,-0.4309849134,0.107316187,0.5180452979,-1.0525983994,-0.1741594727,-1.0561270612,-0.792485004,0.592141959,0.9071659193,0.3651366425,-0.6502909745,-1.2124582434,0.5455743201,-0.8571428406,0.5328865492,0.2654225059,0.8892811684,0.4594101521,-0.0335812622,-0.7179443271,0.2891791058,0.2536445447,0.1785655153,-0.1752409182,-0.8916563543,0.0389983001,-0.5081477502,-0.8226331331,0.2956485168,0.3694645039,-0.9354091466,0.4524391152,-0.968121214,0.2286545136,0.3050671998,0.29587426,-0.0702882458,0.2285118844,-0.7018011552,0.1951115534,-1.0016172609,-0.856089165,-0.1680805298,0.6274945317,0.3469908934,0.5756962213,-0.4903139151,0.4109059723,0.2842503841,-0.7671028647,-1.1289470623,0.7760315516,0.4588011328,0.0891503521,-0.0023417785,-0.4114871602,-0.5387406504,-0.6454159859,-0.4003359772,-0.0845876011,0.0661285633,0.1166202328,-0.473900622,0.170479207,0.0430268837,-1.1343781606,-0.9141262095,0.2954798994,0.1574755034,-3.3165040141,0.4794980084,0.7306860243,-0.7920141122,-0.058275378,-0.9634630433,-0.9294611129,0.59962432,0.8205744382,-0.6468663058,-0.1960291134,-0.0962613963,0.4688386478,-0.1404369275,-1.0690622722,0.2499595034,-0.341120257,-0.6482652056,-0.3570405392,-0.9571595186,-0.9791447867,0.2782735362,0.0412789076,-0.2867783163,-0.8162375157,-0.5612454963,0.3118923556,0.8552539043,-0.5827080757,0.3605133149,0.7919299529,-0.3691661795,0.7928933797,0.3810329351,-0.109771259,-0.6748418579,1.0181543432,0.5943424584,0.3251395188,1.231694448,-0.4927617246,0.5304202635,-0.6215168292,-0.9561921343,-0.132744888,0.0089195968,-0.7536846474,-0.4452268939,1.0743782059,0.6099485143,-0.8079342974,0.4459978684,-0.7467374223,-0.6371263126,-0.7618279641,-0.1003335268,2.7523692206,0.5304998088,0.3963991202,-0.4610976429,0.3898578768,-0.946986383,-0.6903465974,-0.7742810964,0.3932573023,-0.7166795586,0.0714184692,0.8596079812,-0.1261124651,-0.8856102722,-0.4237667273,1.0263775905,0.3613471098,-0.0175640651,-0.8477147504,0.0846144654,3.4457131614,0.3130545303,-1.741120959,-0.807127178,0.2971953852,-0.8108568163,-0.1078597445,-0.7536633042,-0.7491783161,-0.69274135,0.7828797893,1.1140804804,-0.1256253781,-0.6731668934,-0.5278607119,0.06305526,-0.4706974132,1.0596190047,-0.5857835582,0.1750311606,0.4186645899,0.9811592798,1.0707324476,-0.6140028909,0.1216228501,-0.8636816978,1.0909548725,0.8142680371,0.8580050899,-0.7564536825,0.5652056532,0.6701389276,-0.6134589673,0.9363135875,-0.0788815887,1.4742126477,-0.4597164626,-0.2822801801,0.755183129,-0.4981719517,0.2368527704,0.001177583,-0.6722286578,-0.3295208133,-1.0325535476,0.5027365933,0.3363602358,0.2723026007,0.6353121661,-1.0712591561,-0.0838866821,-0.8024281515,0.3180403494,0.1197326767,0.189461042,-0.733071386,-0.260166002,0.2497807934,0.0949299664,-0.0980400655,-1.1213836032,1.3674069243,0.672251737,0.0117801155,-0.1688424609,0.2576747424,1.4034606385,-0.3533281716,-0.3173447284,0.3725143293,-0.9745079787,-1.2516315071,0.722498054,0.5886720071,-0.31358886,1.2808494511,1.0200933037,0.7161941723,-0.771848908,1.1452464994,-0.5414424884,1.122278343,0.6232085954,0.2954803852,0.1661450989,0.562213137,-0.5128978726,-0.4841806056,0.2109830858,0.3441929866,1.1656738966,-0.8010192582,0.4498952751,-0.6739181527,-0.942182963,-0.759924722,0.8731520367,-0.5719637198,0.4133729951,-0.1842519608,0.8632891121,-0.0313871223,0.2692677584,1.1360319481,0.6825022811,0.3343276573,0.0063657948,0.615921165,-0.183275927,0.5304934445,0.526446387,-0.4117065756,-0.7414705088,0.431395871,-1.1276154976,-0.04357146,0.2617375546,0.7727967777,-0.9084684325,-0.5529717992,0.7639742951,0.4498935593,-0.3548423117,-1.0342764042,-0.4621933746,0.4816563547,-0.998190164,0.4452457193,0.5420541967,0.1124891707,-0.8216725912,0.3402347842,0.6190856876,0.6496689832,-0.5051857597,1.3461906338,0.5974262987,-0.0956439851,0.7786086673,-0.3804300587,0.3115202616,-0.9700812711,-0.3656552637,-0.3384753986,0.1016799963,-1.1553202583,0.7823337215,0.0627606306,-0.4514681151,0.4761996164,-0.3853929664,1.0795063131,-0.4117060789,-0.5505490077,-0.4272499597,-0.1830717706,-0.6062107174,0.4380774193,-0.6446594013,0.6989285825,-0.6109513332,-0.8477100053,-1.1264842286,0.0071466089,0.4140993561,-0.7673466338,-0.93300744,0.9660043344,-0.3411578324,0.6560530872,0.3319852865,-0.1800747372,-0.6538313761,0.9017406802,1.1202528802,-0.4411294212,-0.4186487216,-0.5456737251,0.5333591469,-0.6207961964,-1.1057539685,-0.4369744615,0.2896853053,0.1834658252,0.4521772105,0.765087982,0.0635619171,0.5022277016,-0.2429575155,1.0874795084,-0.3944312437,-0.8381950133,-0.5068768393,-0.8754913888,0.5677383961,-0.8137450465,0.7212151712,0.9602645347,-0.9111520521,0.5728376988,-0.0422418255,0.2118362083,1.1028247015,-0.2117722551,-0.3093002682,0.6274953275,0.5267880793,0.8198774674,-0.1254352735,0.2329057136,-0.6923712065,-0.8987559817,-0.9615930271,0.6987482613,-0.0967211743,-0.7573492733,-0.6070292537,-0.2359625444,0.3448515497,0.2397960238,-0.199102201,-0.1367087195,0.9979673943,0.6096479148,1.0351462114,0.4692945836,0.8310403669,-0.1321985424,0.255606128,-0.6003315759,-0.7495595502,-0.856531922,0.7545134389,0.5353912689,0.4278883597,0.638554306,-0.6365872031,-0.5642104016,0.6709790996,0.4045116005,0.9915452756,-0.0678167592,0.5497900229,1.0384535701,-1.2818097349,-0.6699134089,-0.4640372907,0.2234534674,-0.0122314603,-0.569828285,-0.0705032218,-1.4123301451,0.9636110875,0.7039641916,-0.4197515333,-0.6023493627,-0.5019600942,3.744724859,0.8442489532,-1.1501307887,0.6146394259,0.4439142081,-0.2605919381,-0.3197205753,0.1658999616,-0.0847659271,0.8448885586,-0.8208101281,-0.217838561,-0.2209235711,0.0210091845,-0.4057270201,-0.2186108109,1.0883942612,-0.6448210525,-0.6156108745,0.7766135789,0.4048623903,-0.8756179605,-0.0839667284,-0.967368663,-0.5311324437,0.0542263039,0.4816249462,-0.0354101657,-0.9689216599,-0.9421881767,-0.2369357085,-0.5298447529,0.662382918,0.9502608594,0.8019798454,0.3451230793,0.7072834115,-1.0024293869,0.4705918757,-0.8480384015,0.8425747179,0.4334310206,0.3613858235,-0.4491858121,-0.6925608455,0.4859786359,-0.3322753073,-1.0108547469,-0.5214945797,0.59415766,0.2053108006,-0.4616236267,0.8966694535,-0.8248772167,-0.2735083811,0.5122405446,-0.1048979113,-0.070071295,0.5101248106,-0.8528196635,0.4807796541,-0.2360152841,-0.0502547247,0.9599495957,0.6685507014,-0.3154428436,0.8774792714,-0.2380534012,0.7501759494,-0.7579407669,0.76763693,0.7521875565,0.3316840211,0.6631316407,0.690588281,-0.5429619817,-0.8959318993,0.2572895622,0.2221196908,-0.7848236652,1.0130565149,-0.1812366803,0.2305630262,-0.6006513759,0.4625329337,-1.1489110299,-0.174042499,-0.1739533946,-0.832050797,0.4193474922,0.090652159,-0.3551557663,-0.0578771021,0.1007584906,-0.0425165798,-0.2353911804,0.2794113192,-0.3944092263,0.3707246849,0.6214094952,0.4363139982,1.0121496209,0.6945729453,-0.8056227637,0.5855388331,0.1802951241,-0.5101999854,0.5517948566,-0.5519292245,0.4127965439,0.331732928,-0.1776528261,-0.691746937,-0.5558134028,-0.40092808,0.3024933045,-0.0139627544,0.1734932327,-0.7404068576,0.4872537727,-0.9258716042,-0.6004685554,-0.432467255,-0.4394094974,-0.6147141942,0.803012752,0.939495754,-0.3037062465,0.7549395358,0.6972198909,-0.6078340602,-0.477661735,-0.0106718631,0.2399306581,-0.007716904,0.8005002958,-0.435072045,-0.1834126449,0.5087360579,-0.1437695836,-0.8604776191,-0.0741809808,-0.6105144208,-0.3950956268,0.3721257576,0.7208152621,-0.1270103382,0.7943835082,0.8723663992,0.2249699553,-0.3920828704,0.1515565617,0.2129543595,0.4766577193,0.6296474771,-0.6911521742,-0.4125925199,0.5721399884,-0.7771805993,-0.4920501188,0.473095947,0.8103349143,-0.0484021914,-0.3455667645,0.6765791359,-1.2594450019,0.9035777721,-1.0517642055,0.8095057659,-0.5882358809,-0.842637972,0.487225439,0.7919173582,0.6015232372,0.1061501653,0.5894833327,0.5303024328,0.4550415039,0.3964847152,-0.4952288736,-0.1732071072,-0.1962347189,-0.0544954695,0.5852166276,-0.2399353022,-1.1732360776,-0.9728651019,-0.1781838929,0.1193222239,-0.735825253,0.6600771758,-0.3081768955,0.492826782,-1.6482216149,-0.0157995284,0.5891367986,1.5490068013,-0.6983571513,-0.1794756647,-0.0058703197,0.2516905062,0.5150530275,-1.091547628,0.512255329,0.3483967221,-0.0098092209,0.2994193526,0.5994740622,-0.6458464765,-0.1223203951,-0.3922972495,-0.9762772534,0.768130987,-1.2494463574,-0.5700094203,0.2667791694,-0.8717708527,0.9450118259,-0.5980994283,-0.3786238152,0.758215376,0.5960466926,0.7451650373,0.1806531522,-0.6979081091,-0.9112988939,0.9747765276,0.2135109901,0.5040737675,-0.397354993,0.6489394854,0.2338570092,-0.5150636935,0.6713762449,0.687856157,-0.3002446398,-0.9891408379,-0.628215548,0.8217762917,0.9055765542,-1.4410603993,-0.8767802688,0.1136356599,-0.501542883,-0.2898290132,-1.0509458899,-0.1794188717,0.424802118,-1.8403186245,-0.1560917393,0.4331891757,0.1347069785,-0.1834944671,0.0983673196,-0.7233073932,0.5559433827,-1.3553268871,-0.7903660117,0.4437962716,-0.2387524477,-0.3173882234,0.7111910342,0.3816226685,-0.7326381729,0.8214039549,0.3099770218,-0.1859923426,-0.1800780044,-0.5937642909,0.3406770439,0.411684054,-0.8431945765,0.2235601229,0.5810610662,1.5056617078,0.3751996001,-0.2780703382,-0.316571033,0.7789162574,-0.8728420175,0.8571035009,-0.5565615908,-0.8059772087,-0.0458424863,0.580248417,-0.6849597615,0.3413459177,-0.7447220534,-0.4532551438,-0.905581331,0.2049684498,-0.1568784507,-1.697007322,-0.1557525329,0.7488510605,-0.6324700225,0.3335075761,0.6327049386,0.8212514264,-0.071623914,-0.2064103992,0.777581623,0.1668888945,0.6042275976,-0.5542312602,0.4000792606,-0.6556598967,-0.5053719477,-0.1468342208,1.0939836341,0.8384896293,0.8471939013,-0.2402407385,-1.0049751807,0.6326020068,0.4636470928,0.63529389,-0.0599978273,-1.481802932,0.77905668,0.92513556,-0.3442642114,-0.7201116097,0.3887734202,0.2274545481,0.793583531,-0.8503655016,-1.1201768785,-0.5042540457,1.8463606356,0.9259040061,-0.4874053017,0.5849948594,0.8103839193,0.6584510925,0.6048119916,0.5957454164,-0.5261861122,-0.5356223726,-0.6070392969,0.6634393555,-0.9476064573,0.1582836477,0.6055481342,-0.7736108161,-0.9829824427,-0.0652368475,0.3028962441,0.2123219601,0.4899941398,-0.9374920282,-0.1785617173,-0.2062839403,0.9471830618,0.9110646121,0.2757274477,0.0612619519,0.7065514157,0.425674034,-0.4472168699,-0.0904389266,0.2936825517,0.6735700577,-0.655847487,-0.8777181995,0.3240061005,-0.1979856441,0.3694818081,-0.2762689217,-0.1343637497,-0.0627435432,-1.0452663847,0.5447950433,-0.8447385338,0.7242654644,-0.0739252601,-0.498001241,0.8736201929,0.2095373939,-0.5209687744,-0.0739463741,-0.1502443224,-0.0046616209,-0.1381630602,-0.6675083407,0.5922093943,0.4896747466,0.4123198104,0.7203316511,-0.8501853287,-0.1951519991,-0.6572045665,-0.5062521278,0.0110086783,0.9854633819,-0.3948662785,0.2330027234,-0.2815193947,-0.1496816875,0.952531,-0.9145539269,0.5606597244,0.2520571383,-0.9209234236,-1.3650367253,0.4443238603,-0.4594063656,0.5195906171,0.3577227162,-0.8246250395,-0.01474414,-0.4339232277,0.2146428972,0.7977228305,-0.5873591626,-0.4529532205,-0.9245560992,-0.3379941657,0.5956651459,-0.9459169598,0.8923255585,-0.6831622833,-0.507350163,0.5111545686,0.1069706674,-0.4467760079,0.3159855024,-0.3974296821,0.1962945637,0.5457243754,-1.5201619191,0.2557592232,0.3640338493,-0.4161322697,0.8500430625,0.5991993417,-0.01206913,-0.6691967306,-0.6816979585,-0.7917618516,0.3735054523,-0.3723437263,-0.7800842695,0.8869478033,-0.3047827677,0.8144191784,0.0897702618,-0.9039810092,0.4821746987,-0.5140553771,-0.8936460623,-0.7891206603,-0.2095522701,-0.4735368479,-0.2561092983,-0.0260627972,-0.0240317576,-0.4464534154,0.5503149478,0.7824980805,0.9066854174,-0.0212569732,-0.4761786009,0.1907493299,0.1274227738,-0.8022577522,0.761393812,0.7880355644,-0.9896832078,0.3771744981,-0.5107269731,-0.8192965643,-0.4831654274,-0.6657268202,0.8743475568,-0.9069274449,0.2857825818,0.4534518658,-1.0215340713,0.2472880984,-0.9549856554,-0.8626764995,-0.9345857643,-0.5054887039,-1.1015310821,-0.1372418934,-0.9075292877,0.5498310366,0.5996967307,0.5195727658,0.1843082054,0.9272054583,0.5229773367,0.6698742083,0.6215026194,-0.499456084,-0.3877686087,-0.3957500483,-0.8828414867,-0.5928756906,-0.0675898755,0.6879943115,-0.1216209838,0.4482909304,0.3797503709,1.3651133992,0.3484217948,0.7467174414,0.8577820855,1.2755093759,0.6599894406,0.1064587778,0.7844736553,0.2849472265,0.8804415212,-0.4865075688,-0.8344308056,0.2342179657,0.0876566663,0.3852156585,0.0564588579,-0.6300162033,-0.0503188051,-1.0528294598,0.3449713154,0.1830782454,-0.5397766494,0.2489954533,-0.9743102962,0.4331652151,0.1795728446,-1.28405995,0.2733924062,0.5398943989,0.2829848109,0.6670647498,0.3808998376,0.7389554163,-0.1446471088,-1.2153834593,-1.0557426823,0.4088246962,-0.2536336672,-0.3583596557,-0.998687652,0.699035418,0.1386832188,0.5227535184,0.2624769411,-0.2167405565,-1.0635116826,0.1169809779,-0.7024647398,-0.1396853605,0.1597758703,0.3318371635,0.3614790635,-0.193656221,-0.1493161098,-0.2843852048,0.0804026429,0.538832677,-0.764662099,0.1316237653,0.017117416,-0.8721801956,-0.8733304398,0.5221570797,0.1308761218,0.3605748061,-0.3803577937,0.4988357762,0.2990022356,0.9494893539,0.4678568274,-0.652402693,0.278120675,-0.3056243585,-0.8752654401,-0.6470849925,-0.4409493391,-0.2848290109,0.0979383274,0.1142616199,0.9584459914,-3.3484117639,-0.1204226516,-0.202341097,-0.0322315528,0.7745419411,-0.583561751,-0.8901319811,-0.0742494602,0.1486745202,-0.0256762783,0.6455588796,-0.89211253,0.475809931,0.4410521397,0.8390847557,-0.5104366471,-2.1026376163,0.2480194215,0.4604222898,-0.3698084437,-0.4944771347,0.9637235565,-0.8018235971,0.7729922663,0.1841830306,-0.2024450799,0.178327694,-0.9865093675,0.4472025902,-0.7882767954,0.376169041,-0.3017976868,-0.541250103,-0.6881385291,0.7506575358,-0.4023043093,-0.313915007,0.9751485818,-1.1952574613,-0.6117025862,1.0343329402,-0.0490858956,0.7620753304,-0.0023405246,0.6937816811,-0.0181179828,0.3607005057,0.0602883017,-0.1768566687,-0.6723177958,0.9681350122,0.4929209578,-0.2177270913,-0.2322007818,-0.8837963137,0.1847905367,-0.7441511516,0.5795395664,-0.5573860637,-0.5113889057,0.5915948123,0.4882059436,0.3696477745,-0.1845670101,-0.6299377193,-0.4814533778,-0.3673181976,-0.8864444529,-0.8296806402,-0.8488984575,0.504327945,-0.0947855985,0.2291741397,0.4629503331,-0.6748346947,-0.0333843675,0.0527624461,-0.2436246981,-0.956760653,0.1898248438,-0.3674475799,0.2176470307,-0.6261761487,0.1131861486,0.1635541493,-0.6489029672,-0.3477100827,-0.380428374,0.170766984,-0.6385991274,-0.4288429268,0.0871146212,-0.584559876,-0.709334365,-0.5680783606,-0.3771020578,0.1275641781,-1.1921630288,0.8493262709,0.3796625224,-0.736569407,0.6147389074,0.5221211542,0.0860322583,-0.9189326742,-0.6547091522,-0.4234111904,-0.7157997221,0.6927387328,0.2103878051,-0.5449944848,-0.0580215917,0.3795388157,0.5928241098,0.5628119744,-0.2315364106,-0.4098356103,0.8307700806,0.727874342,0.6103385462,-1.090804105,-0.3828419123,0.8513999853,0.2648438075,0.3589327118,0.046063616,-0.9055679662,-2.251145741,-1.749313322,0.0691168428,-0.8668471717,-0.5108446784,-0.5844297855,-0.7761066846,-0.7987225986,0.296560877,0.7778373162,0.8524016911,-1.0195092408,-0.1701755838,-0.946590837,-0.7900247408,0.6564255144,0.7063957283,-1.4340460882,-0.9503157094,-1.046213806,0.2853319024,0.7620205502,-0.3360250912,0.3196965256,-1.1092941597,0.0003089712,0.7376672034,0.7008424387,0.36428294,-0.4868071077,-0.4178100506,-0.7983929067,-1.0395011467,-0.8151945508,-0.8361932965,0.6946399981,-0.3310285405,-0.7976458477,-0.3597055964,-1.0944316887,0.2251958409,1.0431132483,-0.0114648833,-0.4376454263,0.4950354698,-0.9074428546,-1.024683708,-0.6926794803,-0.9730288883,0.8377370351,-0.5167785629,0.0461240998,-0.3828201762,-0.2312530151,-0.5656175653,-0.335314109,-0.1928936182,-0.4233373332,-0.2666450017,-0.6095205218,0.1115821175,0.7315459485,-0.1201677278,0.5238422911,0.4190082136,-0.1407122076,-0.590470089,0.9007580698,0.7368591032,0.677974948,-0.1726499468,0.1299402887,-0.9043619139,0.5138398658,-0.2652516724,0.4950553119,-0.7205920238,-0.9570543874,0.7404883136,-0.8338652409,-0.9139906075,-0.4454779396,-0.9955908072,-0.2127914694,0.5438150594,-0.887811072,0.3926152522,0.6742306797,0.9372494638,-0.1987859754,-0.1999903438,-0.529194371,0.4696317084,0.3344054894,0.3012033643,0.7160263344,0.8476246737,0.9404736453,0.6920839778,-0.2881628445,-0.0115922219,0.2981201275,-0.7096882705,0.1715033661,-0.6030095365,0.904707483,-0.4639617398,-0.3998586997,0.2132557462,-0.7448667248,-0.1218814801,0.9893005509,0.9585317782,-0.2341267632,-0.5771630856,0.9331148855,-0.7636724043,-0.8083265105,0.4956168149,-0.150576668,-0.6426238076,0.6570053882,0.3124940599,0.0364413784,-0.5824829498,0.126175824,0.4258674175,-0.4768391008,-1.0101548479,1.007006223,-1.0806239364,0.6414186282,0.5156283399,-0.4047046366,-0.2647090127,0.7602925594,0.6141264724,0.6858446822,-0.8950917152,-1.1111038016,0.2058067967,-0.8996563805,0.3916491042,-0.5230004198,0.722784702,0.3196566723,-0.9778725397,-0.2698039868,0.7161111354,-0.6493731939,0.481792995,-0.3946897569,-0.3321734064,0.3339207316,0.5913079798,0.5133300438,-0.8607241838,0.6985695408,0.0767812463,-0.9262771842,-0.6515518843,0.5373725255,-1.6721729643,-0.3358982804,0.5510385938,-0.6553850874,0.0347331916,1.1007382923,-0.8134062614,0.5935861329,0.5994632219,0.8555403292,0.206568238,0.0159341229,-1.3191565992,-0.6382064626,0.5107153597,-0.7742128625,0.6829396378,-0.4240414895,-0.5778284928,0.5512555282,0.5573602586,-0.0232308558,0.8699037182,0.508863727,0.3598151783,-0.1854195328,-0.8056633525,-0.3274893302,-0.2918708938,0.3213911411,0.0573553774,-0.8483485933,0.906081434,0.2778577648,-0.8337164833,-1.7203188102,-0.2442366257,-0.8860789596,-0.5291051638,-0.0681701614,0.3499981761,-1.1443684598,0.3631487855,0.6736764918,-1.1920098691,0.1893883995,-0.7020790529,-0.762320578,0.8014965167,-0.438781995,1.5456574028,0.6446111995,-0.768388926,-0.2978191662,-0.4806476736,-0.0924775795,-0.1053739914,1.1941075339,-0.0290645806,0.1391320263,0.1936504412,-0.5908933923,0.5942563307,0.8912520965,0.1493396559,0.1034121524,0.5283465116,0.8974433185,0.3589156205,0.2329768763,-1.632790202,0.0363617898,0.4966027724,1.3625822429,-0.9563841011,0.4374190501,-0.3278817128,0.386847645,-0.8658273602,-0.6845339376,-0.8977710422,0.2431696235,0.0715611956,-0.3483394205,0.6458398731,-0.9634458728,0.3566838914,0.4190594332,0.8611714136,-0.265455253,-0.4658932675,0.1887701937,-0.6838198264,0.0006934942,-0.1431708098,-0.4095265181,-0.7800288259,-0.6666543158,-0.4573921513,-0.3974023544,0.3731239119,0.7939286149,0.5554581985,-0.2930349247,-0.2070416585,-0.5327975397,0.9171275057,-1.054280624,-0.3468575368,-0.6352992358,-0.9502012406,-0.6727279226,0.5460792494,0.2830178703,0.4813761291,-0.3030828036,-0.9550706109,0.462485976,0.4635221772,-0.270590563,0.2564450639,0.4510804792,-0.0511024121,0.9076266501,-0.817587286,1.1024297128,0.5034766361,0.4279617991,-0.2456755511,0.7767439357,0.7889463708,0.3026742328,0.3747603623,-0.2566196995,0.5766886487,-0.7467394713,-0.3706824407,-0.9639086902,0.5743722071,-0.4567202028,-0.6357050379,0.0425696268,-0.2453244086,-0.8561853045,0.6470116698,0.3348163342,-0.4748053412,-0.5648912832,-0.9212851922,0.864821845,-0.6678934999,0.6745361497,0.6389359228,-0.8614293752,-0.9689156835,0.4796787778,0.9636926401,-0.530478237,0.515412048,0.5879836313,-0.4054490602,0.2681739319,1.019841781,-0.5677903046,0.686114294,-0.8054846328,-0.4889834947,-0.0306003468,-0.7235216042,-0.5570415822,-0.3735814887,0.1343433824,-0.2964774561,0.3457367943,0.0629761261,-0.0725141186,-0.1901440888,-0.8274118352,0.2684739181,-1.809355433,-0.0925246548,-0.8540375827,1.2482200259,0.8008784484,-0.2861926405,-0.5230686104,0.4873053505,-0.7989924609,-0.0049839593,-0.1822918998,0.286508354,-0.8616105879,-0.2769227691,0.4916906036,-0.0482684062,-0.4978393192,-0.9753666811,-0.2013877609,-0.8702600993,0.2360974054,0.9043230042,-0.6777641728,0.1397039111,-0.6038993178,-0.5351420467,0.7655661049,-0.5606487376,-0.8323346865,-0.2675250101,-0.9094033088,0.3600110109,0.4997835403,0.7059899503,0.6986083972,0.9428364851,-0.4479524114,-0.1725217114,0.2840699316,1.025364389,0.7891286502,-0.0723956311,0.1478685973,-0.0507141846,0.9530577307,0.1518812523,-0.0875231306,0.4897727155,0.7414364886,1.2154987276,-0.2260674549,0.712997133,-0.3316409534,-0.0915058383,-0.8085985292,-0.8434294475,-0.1184534423,-0.7398412908,0.0985546092,0.5045538122,-0.8847172438,0.7521600316,0.1452627829,1.0600117709,2.05412787,-0.5875240876,-0.1158308159,0.0183424911,-0.566661598,0.7417182665,-0.9484424863,-0.0843028742,-0.7949460141,0.0406892684,0.3796255761,0.6559864048,0.2210041461,0.5401531186,-0.2331311365,0.2867517484,-0.4054445427,-0.0639674217,0.8921560457,0.1670090781,-0.29853747,0.6272456921,0.8356986389,-0.7784884224,0.1774933566,-0.9898591283,0.6008683076,0.8099340854,0.4972484396,-0.3104698564,0.4876893074,0.3679344283,1.1365854375,0.2018763739,0.5978629969,-0.8525954822,0.4285119994,0.4018788653,0.4037620246,-0.9148641699,0.2975626135,0.6168100594,0.3498409598,-0.0761605668,1.0256751867,0.1647518276,0.4354314622,-0.6937208636,0.4186385557,-0.5525355249,-0.797418477,0.3720617015,0.912113093,0.3143202109,-0.7557598577,0.6602193668,-0.1446549142,-1.2639260266,0.7470963564,0.4300854111,0.9745638036,-0.0403471735,-0.3907079941,0.2322832571,-0.7848249728,0.3312916942,-0.9355565923,-0.1981193134,-0.5255996579,0.0201327063,-0.8443400927,0.6861713919,-0.6536819151,0.3382863819,0.9215762516,-0.3201710301,-0.7357836076,0.7516353654,-0.5146987563,-0.4800603542,-0.435580367,-0.267282634,-0.1448960875,-0.6822607188,0.9157656307,0.4542920158,-0.7713829282,-0.6001692616,0.7186060045,-0.5531686881,-0.8666311422,1.0072774427,0.2973183481,1.3590204014,-0.4679880918,-0.1090687243,-0.8056198577,0.3996908254,-0.0352690844,0.2912376698,-0.3286055344,0.4719084241,0.0609320631,-0.6313367776,-0.236872166,-0.1994868156,0.6340669403,0.6837631789,-0.9531656987,-0.1260069634,-0.607044397,-0.7417700414,0.6588538653,0.7175462108,-0.9311037115,-0.4155736084,-0.8380974995,-0.3746206493,-0.8890394195,0.6523328296,-0.0643716648,0.4530180924,-0.9002182062,0.8216194603,1.1254750442,0.7223837513,-0.2879863493,-0.3950824956,0.7501280375,-0.8540223063,-0.9562281286,-0.8424203988,0.9516415184,0.1814933157,-0.5559736187,-0.1594454127,0.9382761893,-0.4563806139,0.5175984588,0.1456079149,-0.9579583237,1.0058887434,0.1867803192,-0.3105865244,0.3297074676,-0.4700622302,-2.4974656851,-0.5790172992,0.3234185031,-0.0156596956,0.1782520703,0.2113269833,-0.6605418059,0.3591144991,-0.5441390223,-0.1736279152,-0.4073740887,-0.0713707534,1.9837156864,-0.9286794615,-0.5643046098,0.5768365281,-0.2286959196,0.6719432617,1.3370927394,0.7448548809,-0.5773753164,0.8508890217,0.9889667158,0.1496857669,0.6023627442,-0.5072269004,0.2422769138,1.1873413451,-0.8220675694,-0.8647288202,-0.9713191179,1.0449767302,-0.2174112572,-0.3581188247,-0.6332031378,-1.0736849615,0.1995984067,-0.3188471777,-0.0718139996,-0.9505941003,-0.6291300286,2.0266365178,0.4504954332,-0.7163697004,-0.3148227841,1.0790983474,0.5645634502,-0.7226117151,-0.9335239953,0.3925641383,5.3829910837,-0.1916289894,-0.7322488577,0.580352233,-0.1878706356,-0.4723170177,8.5473136097,-0.3067688131,0.8302609729,0.1508944173,-0.4730712197,1.6581395246,-1.0007810195,-0.4609044271,-0.9874892887,-0.7154573271,0.9649678687,0.8971305014,2.3039255222,-0.2067450397,-0.2227787863,0.7080310478,-1.5928999617,0.6306682868,-0.9832649025,0.2995169545,5.7524968019,0.8586898042,0.2609806248,0.3391718962,1.6154203876,-0.008845013,0.664806282,-0.3283049974,-0.3485078222,0.3601965793,-0.3484472279,0.8162625679,0.4725109368,-0.5636179767,-0.4028355059,2.1860252805,-0.5566374266,-0.7623140199,-1.078055845,-1.0636855133,1.594409518,-1.0089052733,-0.70895493,-0.0317422542,0.4269553821,-0.1177351985,0.8531515432,0.1657539193,-1.0783499927,0.2604956899,-1.0615443996,0.9496640449,-0.146224934,-0.3574712984,-0.3371494045,-0.023382141,0.5420595269,0.6741688698,-0.6898253886,-0.0371989946,-0.6426396099,-1.3138204003,-0.7758130232,-0.4633849906
